~o
<STREAMINFO> 1 39
<VECSIZE> 39<NULLD><MFCC_E_D_A><DIAGC>
~h "Cha^m"
<BEGINHMM>
<NUMSTATES> 5
<STATE> 2
<MEAN> 39
 -1.032896e+01 -1.421803e+01 -6.808598e+00 -1.289567e+01 -3.525675e+00 -9.918299e+00 7.062875e+00 8.315966e-02 3.651992e-01 -9.756821e-01 -8.514953e-01 -2.957596e+00 6.071467e-01 -5.207132e-01 -1.589295e+00 -1.370611e+00 -6.257535e-01 1.401365e-01 -4.460861e-01 1.315760e+00 3.648475e-01 -3.896044e-01 -5.271487e-01 -9.691824e-01 8.789397e-02 1.018329e-01 6.327299e-02 -6.162658e-02 -9.083521e-02 3.163589e-01 3.640448e-01 2.154424e-01 -2.158896e-02 -1.530669e-01 7.466557e-02 -1.260817e-01 -7.313259e-02 1.156219e-01 -4.816342e-03
<VARIANCE> 39
 2.648499e+01 6.476370e+01 3.921286e+01 6.524217e+01 6.972043e+01 4.426950e+01 6.369205e+01 2.844762e+01 2.083259e+01 2.925145e+01 2.294106e+01 1.714828e+01 1.433153e-01 3.374401e+00 4.561672e+00 1.302651e+00 1.241298e+01 1.476723e+01 6.614028e+00 4.166881e+00 2.138549e+00 2.838083e+00 4.683349e+00 1.344984e+00 2.740065e+00 5.000000e-02 7.104236e-01 9.968805e-01 2.161410e-01 1.934292e+00 2.661728e+00 1.118787e+00 1.003097e+00 5.496109e-01 6.726829e-01 9.370146e-01 2.767026e-01 5.133528e-01 5.000000e-02
<GCONST> 1.200046e+02
<STATE> 3
<MEAN> 39
 -3.506398e+00 -2.207378e+01 -1.043964e+01 -1.069919e+01 1.035989e+00 -8.999275e+00 4.714198e+00 -7.528944e+00 4.715831e+00 -3.538079e+00 -7.068692e+00 -5.166852e+00 7.310198e-01 6.531875e-01 1.171496e-01 4.140815e-01 8.495697e-02 -3.553074e-01 -7.658679e-02 -6.701237e-01 -4.218917e-01 3.584478e-01 1.581341e-01 5.174956e-02 -1.651100e-01 -2.758017e-02 2.783584e-02 8.028526e-03 2.056505e-04 2.008988e-02 -1.496224e-01 -4.202705e-03 5.462125e-02 1.177401e-01 -5.588711e-02 1.225537e-03 1.100658e-01 1.482595e-03 -2.762545e-03
<VARIANCE> 39
 5.196092e+01 6.148294e+00 4.398639e+01 1.368014e+01 5.461208e+01 3.207979e+01 3.501371e+01 3.469582e+01 3.474444e+01 2.136689e+01 1.697664e+01 1.750576e+01 5.000000e-02 1.520905e+00 4.738341e-01 2.159522e+00 2.226331e+00 3.850412e+00 3.120024e+00 1.234938e+00 2.841310e+00 3.308388e+00 1.352231e+00 1.598954e+00 1.688264e+00 5.000000e-02 2.157869e-01 9.262814e-02 3.119140e-01 4.485777e-01 5.971205e-01 5.985610e-01 2.028272e-01 5.256308e-01 6.152695e-01 3.151079e-01 2.785593e-01 3.310092e-01 5.000000e-02
<GCONST> 9.603579e+01
<STATE> 4
<MEAN> 39
 -1.230952e+00 -2.008989e+01 -8.839498e+00 -4.713280e-01 1.298820e+00 -5.739196e+00 3.099439e+00 -2.313666e+00 2.249748e+00 -5.049437e+00 -3.288160e+00 -1.112198e+00 2.103947e-01 -4.763909e-01 5.390751e-01 8.176702e-02 2.984338e-01 5.006794e-01 4.016032e-01 3.043286e-01 4.483498e-01 -1.067206e-01 5.700758e-02 3.650593e-01 1.384235e-01 -2.646099e-02 -2.449225e-02 8.367799e-02 1.348991e-01 -1.591778e-01 -5.880906e-02 -4.735082e-02 -4.950611e-02 -7.622948e-02 3.437408e-02 4.723284e-02 -4.260699e-02 -5.597653e-02 1.271247e-03
<VARIANCE> 39
 8.205488e+00 1.860696e+01 8.843641e+00 9.403470e+00 1.458359e+01 1.239705e+01 1.554034e+01 1.443635e+01 1.394382e+01 1.279352e+01 1.175592e+01 1.079353e+01 5.000000e-02 4.158678e-01 1.950242e+00 1.639958e+00 1.032049e+00 7.036599e-01 1.350587e+00 1.733565e+00 1.227754e+00 1.663669e+00 1.935817e+00 1.545810e+00 1.108676e+00 5.000000e-02 8.328301e-02 3.786131e-01 2.610871e-01 1.561024e-01 1.074746e-01 3.343357e-01 3.683735e-01 2.684717e-01 3.915854e-01 4.275970e-01 3.176826e-01 2.162548e-01 5.000000e-02
<GCONST> 7.874461e+01
<TRANSP> 5
 0.000000e+00 1.000000e+00 0.000000e+00 0.000000e+00 0.000000e+00
 0.000000e+00 8.990232e-01 1.009768e-01 0.000000e+00 0.000000e+00
 0.000000e+00 0.000000e+00 9.512129e-01 4.878703e-02 0.000000e+00
 0.000000e+00 0.000000e+00 0.000000e+00 9.355457e-01 6.445421e-02
 0.000000e+00 0.000000e+00 0.000000e+00 0.000000e+00 0.000000e+00
<ENDHMM>
