~o
<STREAMINFO> 1 39
<VECSIZE> 39<NULLD><MFCC_E_D_A><DIAGC>
~h "Chu"
<BEGINHMM>
<NUMSTATES> 25
<STATE> 2
<MEAN> 39
 -4.516048e+00 -7.069629e+00 3.206279e-01 -9.653739e-01 1.856619e+00 -4.389812e+00 1.812874e+00 -3.475263e+00 -3.137347e-01 -2.588244e+00 3.651588e+00 -1.566379e+00 4.277929e-02 -9.882715e-01 -3.241654e-02 -3.645905e-02 -1.124841e+00 1.881329e-01 -6.556135e-02 -6.648170e-01 9.246635e-01 4.095149e-01 2.812604e-01 2.708721e-01 1.629244e-01 2.099657e-02 -7.989220e-01 3.263050e-02 -1.619805e-01 -1.488188e+00 -7.872963e-02 -1.355724e-01 -6.411121e-01 6.599062e-01 -5.793870e-02 -1.178354e-01 -2.436198e-01 2.447486e-02 3.642533e-02
<VARIANCE> 39
 1.575137e+00 3.544093e+00 5.096607e+00 4.212164e+00 3.472780e+00 5.895606e+00 5.754181e+00 7.295436e+00 1.670576e+01 1.341756e+01 1.061188e+01 4.007887e+00 5.000000e-02 8.998342e-01 1.769908e-01 5.312316e-01 2.579806e+00 6.938819e-01 9.837749e-01 8.393106e-01 1.520900e+00 6.590681e-01 5.445986e-01 8.458017e-01 7.529038e-01 5.000000e-02 1.116105e-01 6.080231e-02 7.750230e-02 2.318196e-01 1.132328e-01 2.927597e-01 2.085656e-01 8.250912e-02 1.263067e-01 1.353373e-01 1.720636e-01 9.904345e-02 5.000000e-02
<GCONST> 5.563713e+01
<STATE> 3
<MEAN> 39
 -8.184037e+00 -6.960248e+00 4.867766e-01 -4.737685e+00 2.588569e+00 -3.358129e+00 1.512327e-01 1.772910e+00 2.096588e+00 -2.679516e-01 4.447263e+00 -1.903688e+00 1.746880e-01 -3.295756e+00 -5.047111e-02 -4.286887e-01 -6.071908e+00 3.423349e-02 -2.318625e-01 -2.561856e+00 2.235626e+00 -4.368729e-01 1.329891e-01 -7.967693e-01 -7.267086e-03 1.434048e-01 3.233609e-01 -2.391822e-01 -7.626409e-03 -8.377488e-01 -1.056720e+00 -9.143223e-01 2.852691e-01 -5.281594e-01 -5.776250e-01 2.848881e-01 -5.675106e-01 -2.345072e-01 3.402711e-02
<VARIANCE> 39
 3.136920e+01 4.887553e+00 4.609382e+00 6.257492e+01 7.718439e+00 1.459893e+01 2.160096e+01 1.559185e+01 5.459582e+00 2.967619e+00 2.615909e+00 6.332221e+00 5.136497e-02 9.088445e-01 3.579030e-01 7.948559e-01 7.933964e-01 1.860208e+00 2.137590e+00 1.691708e+00 4.285850e-01 1.361624e+00 1.766115e+00 1.228809e+00 1.034415e+00 5.000000e-02 5.528361e-01 1.856560e-01 5.000000e-02 9.273400e-01 3.901568e-01 2.700064e-01 5.729905e-01 1.759078e-01 5.000000e-02 1.441370e-01 1.446422e-01 1.078870e-01 5.000000e-02
<GCONST> 7.115663e+01
<STATE> 4
<MEAN> 39
 -1.521815e+01 -6.274665e+00 -5.940036e-01 -2.220988e+01 7.940592e-01 -7.454359e+00 -6.441288e+00 3.579740e+00 -1.523990e+00 -2.687194e+00 4.538504e-01 -2.184704e+00 5.927568e-01 4.078283e-01 -1.228832e+00 -2.009346e-03 -3.533318e+00 -3.566905e+00 -3.778606e+00 9.532307e-01 -7.173917e-01 -1.144903e+00 1.466564e+00 -1.594393e+00 -3.210289e-01 1.474534e-01 1.637159e+00 -1.160130e+00 -3.124003e-01 1.959875e+00 -2.945954e-01 -1.002200e+00 1.498196e+00 -3.177607e-01 4.580554e-01 6.352227e-01 -2.280661e-01 3.927219e-01 -1.997031e-02
<VARIANCE> 39
 9.107482e+00 5.854854e+00 1.436117e+01 8.713161e+00 4.706034e+01 2.743303e+01 1.846776e+01 2.399659e+01 2.294179e+01 1.447424e+01 1.489837e+01 1.418997e+01 5.000000e-02 4.891754e+00 2.825430e+00 3.663333e-01 7.990260e+00 3.643779e+00 2.229603e+00 5.137502e+00 6.927096e-01 5.258022e-01 2.868658e+00 9.443228e-01 5.910741e-01 5.000000e-02 1.790277e-01 1.671278e-01 2.428840e-01 3.817613e-01 1.260261e+00 3.386320e-01 3.427478e-01 5.085843e-01 2.787966e-01 5.297050e-01 1.198592e-01 3.812934e-01 5.000000e-02
<GCONST> 8.932027e+01
<STATE> 5
<MEAN> 39
 -5.292532e+00 -1.506164e+01 -1.904467e+00 -2.100364e+01 -1.100785e+01 -2.025600e+01 3.357531e+00 7.817170e-01 -3.505169e+00 6.691550e+00 -1.053277e+00 -1.143579e+00 8.049463e-01 3.175879e+00 -4.392840e+00 -1.869380e+00 1.323771e+00 -5.820544e-01 -4.177155e+00 2.829473e+00 1.050624e+00 1.257192e+00 2.060826e+00 -1.934255e+00 1.348470e+00 7.319921e-02 -3.396389e-01 2.449481e-01 -6.659879e-01 8.690907e-01 2.211401e+00 1.308583e+00 -6.220434e-01 6.486577e-01 1.228812e+00 -5.707248e-01 -8.419327e-01 -3.176639e-01 -2.725804e-02
<VARIANCE> 39
 1.375578e+01 2.431916e+01 1.243161e+01 6.544373e+00 5.236609e+01 6.156502e+01 1.286801e+01 6.118217e+00 1.073079e+01 2.164527e+01 4.515346e+00 2.042551e+01 5.000000e-02 3.225528e-01 4.672745e-01 9.926651e-01 6.006459e-01 5.321921e+00 1.284009e+00 2.529113e+00 2.065166e+00 9.231163e-01 4.201633e+00 6.215547e-01 3.126584e+00 5.000000e-02 4.838671e-01 6.803143e-01 1.188179e-01 6.700840e-01 4.752235e-01 6.573732e-01 5.348648e-01 6.921341e-02 1.569716e-01 6.498761e-01 7.645971e-02 4.952104e-01 5.000000e-02
<GCONST> 8.484558e+01
<STATE> 6
<MEAN> 39
 -4.546466e+00 -2.102988e+01 -5.929718e+00 -1.743329e+01 -4.317288e+00 -2.214458e+01 4.624135e+00 6.660770e+00 1.518590e+00 4.340741e+00 -7.011679e+00 2.289956e+00 8.760687e-01 2.701778e-01 -1.378411e+00 -2.855215e+00 1.123796e+00 3.950056e+00 5.241020e-02 2.236754e-02 1.639642e+00 3.368819e+00 -4.036860e-01 -4.609247e+00 -8.992031e-01 3.499916e-02 -9.289854e-01 1.476232e+00 -7.765337e-02 -9.786323e-01 1.266474e+00 2.031812e+00 -8.335056e-01 -7.675097e-01 3.558534e-01 9.061226e-02 -4.335457e-02 -1.454693e+00 -1.363602e-02
<VARIANCE> 39
 7.987478e+00 3.160425e+00 7.466292e+00 5.253378e+00 1.945813e+01 4.336289e+01 1.931917e+01 8.571351e+00 1.853828e+01 2.018223e+01 1.288236e+01 7.973641e+00 5.000000e-02 4.581134e-01 1.925844e+00 8.033247e-01 1.066272e+00 1.060357e+00 1.186514e+00 2.063296e+00 9.287462e-01 1.312351e+00 1.622901e+00 4.086993e-01 3.481856e+00 5.000000e-02 1.040067e-01 1.640477e-01 2.248036e-01 1.624499e-01 6.337151e-01 1.774627e-01 4.081069e-01 4.081397e-01 4.393885e-01 8.551462e-01 2.909331e-01 3.079625e-01 5.000000e-02
<GCONST> 7.895099e+01
<STATE> 7
<MEAN> 39
 -5.416372e+00 -1.929135e+01 -1.126085e+01 -1.852923e+01 3.707980e+00 -1.827834e+01 2.593349e+00 5.424885e+00 1.006032e+01 6.648701e+00 -1.717949e+01 -5.590985e+00 9.299201e-01 -3.971861e-01 1.077942e+00 -1.746125e+00 -2.243274e+00 3.538400e+00 3.273338e+00 -6.476868e-02 -1.663861e+00 2.266648e+00 2.934376e+00 -1.445911e+00 -3.284557e+00 2.514297e-02 -2.358948e-02 6.894447e-01 6.320730e-01 -9.360063e-01 -6.137236e-01 8.602377e-01 9.942386e-02 -1.000594e+00 -1.107813e+00 8.156555e-01 2.014620e+00 4.085989e-01 -8.525312e-03
<VARIANCE> 39
 9.115036e+00 2.948670e+00 1.002795e+01 1.063975e+01 2.732815e+01 2.903979e+01 7.745073e+00 7.519075e+00 1.850292e+01 1.266454e+01 6.190306e+00 1.677668e+01 5.000000e-02 5.337389e-01 4.352418e-01 6.866846e-01 9.095697e-01 1.020444e+00 1.128984e+00 8.767024e-01 1.486609e+00 4.287047e+00 1.686992e+00 4.354276e+00 1.279037e+00 5.000000e-02 1.948480e-01 2.195173e-01 1.873631e-01 2.265665e-01 2.660017e-01 3.114522e-01 2.839264e-01 3.062070e-01 4.211941e-01 3.154730e-01 1.198764e-01 7.068940e-01 5.000000e-02
<GCONST> 7.793287e+01
<STATE> 8
<MEAN> 39
 -5.415069e+00 -1.644492e+01 -1.297486e+01 -2.593820e+01 9.204326e+00 -9.315369e+00 4.483075e+00 -1.294599e+00 9.731025e+00 1.586341e+01 -1.265799e+01 -1.062363e+01 9.669926e-01 4.821391e-01 1.189697e+00 -1.963466e-01 -2.533888e+00 1.326390e+00 3.212658e+00 4.559517e-01 -2.133920e+00 -9.002669e-01 2.674902e+00 3.248293e+00 7.463265e-01 1.074215e-03 3.133155e-01 -1.477160e-01 4.776917e-01 2.670988e-01 -9.799638e-01 -7.332458e-01 4.091303e-02 6.815656e-01 -9.742010e-01 -1.143169e+00 7.044979e-01 1.831659e+00 -9.920092e-03
<VARIANCE> 39
 5.890286e+00 1.899233e+00 1.104333e+01 1.022896e+01 1.230885e+01 2.502850e+01 6.457330e+00 1.678829e+01 2.632192e+01 1.029482e+01 1.236397e+01 1.440435e+01 5.000000e-02 5.084298e-01 2.753822e-01 9.948144e-01 8.724612e-01 1.793151e+00 1.441305e+00 1.176213e+00 1.853020e+00 3.024863e+00 1.225127e+00 8.960541e-01 2.459066e+00 5.000000e-02 6.160298e-02 7.291079e-02 1.551171e-01 9.128170e-02 1.060164e-01 2.201865e-01 2.568787e-01 2.856082e-01 4.739750e-01 2.787842e-01 6.301932e-01 1.395829e-01 5.000000e-02
<GCONST> 7.226588e+01
<STATE> 9
<MEAN> 39
 -3.640552e+00 -1.448849e+01 -1.246581e+01 -2.887464e+01 1.002434e+01 -5.882730e+00 4.580566e+00 -2.018579e+00 6.918786e+00 1.675447e+01 -4.746272e+00 -3.271651e+00 9.423298e-01 8.325472e-01 6.338996e-01 2.277887e-01 -1.570175e+00 -4.309575e-01 5.938495e-01 2.216741e-01 4.959225e-01 -1.858950e+00 -1.274462e+00 1.756835e+00 3.551634e+00 -1.458051e-02 -1.191064e-01 -2.152790e-01 1.179266e-01 1.751020e-01 -6.371886e-01 -1.019925e+00 -1.261304e-01 6.572782e-01 -3.501671e-01 -1.199479e+00 -7.338790e-01 4.867608e-01 -4.058730e-03
<VARIANCE> 39
 9.094990e+00 1.920614e+00 4.097533e+00 9.640059e+00 1.802754e+01 4.627039e+01 2.402584e+01 2.154478e+01 2.214481e+01 9.622141e+00 1.567365e+01 1.610643e+01 5.000000e-02 3.095704e-01 3.667361e-01 7.560136e-01 2.432989e-01 2.536398e-01 9.882836e-01 1.459229e+00 8.942394e-01 7.677559e-01 2.005498e+00 1.161172e+00 6.476475e-01 5.000000e-02 6.503606e-02 5.000000e-02 1.605077e-01 2.680867e-01 2.454591e-01 6.320442e-01 1.020457e-01 2.298144e-01 4.604019e-01 1.663767e-01 1.765696e-01 2.644767e-01 5.000000e-02
<GCONST> 6.813168e+01
<STATE> 10
<MEAN> 39
 -2.493856e+00 -1.355549e+01 -1.226060e+01 -3.293750e+01 7.499672e+00 -5.658629e+00 4.714777e+00 -2.329751e-01 2.067477e+00 1.184655e+01 -5.439724e+00 3.886879e+00 9.129092e-01 7.229538e-02 3.815967e-01 4.420262e-01 -1.623857e+00 -1.229782e+00 -6.973122e-01 -2.432234e-01 3.950306e-01 -2.364419e+00 -1.975546e+00 4.888900e-01 2.833621e+00 -1.824891e-02 -1.428881e-01 -1.158280e-01 8.968063e-02 3.404880e-01 -1.511477e-01 -3.925074e-01 -2.931203e-01 3.763739e-03 1.282612e-01 1.381410e-03 -2.762918e-01 -1.975081e-01 2.476759e-03
<VARIANCE> 39
 9.140303e+00 2.702636e+00 9.744923e+00 8.431477e+00 7.615793e+00 3.050123e+01 4.224785e+01 1.677465e+01 1.502658e+01 1.208163e+01 2.735548e+01 1.890062e+01 5.000000e-02 2.438248e-01 2.026435e-01 5.550494e-01 1.607234e+00 1.228474e+00 3.202344e+00 7.286931e-01 5.424817e-01 9.021190e-01 7.405339e-01 8.237503e-01 6.937867e-01 5.000000e-02 9.466866e-02 7.117121e-02 2.375289e-01 1.799359e-01 8.406391e-02 1.741845e-01 9.122322e-02 1.621095e-01 1.568245e-01 3.022953e-01 1.249481e-01 3.307136e-01 5.000000e-02
<GCONST> 6.729780e+01
<STATE> 11
<MEAN> 39
 -2.570988e+00 -1.292509e+01 -9.960312e+00 -3.459317e+01 4.780186e+00 -9.700963e+00 2.729710e+00 6.050517e-01 -1.787504e+00 7.384007e+00 -3.718832e+00 9.415805e+00 8.701977e-01 6.862980e-01 -1.663175e-02 8.103749e-03 1.797771e-01 -1.161004e+00 -4.954813e-01 -8.348212e-01 8.068243e-01 -1.164592e+00 -9.696661e-01 6.151250e-01 2.672534e+00 3.861514e-03 3.316071e-01 -6.441799e-02 -4.463198e-01 6.978854e-01 -1.311558e-01 3.131829e-01 7.002279e-02 1.822547e-01 5.412899e-01 6.745103e-01 2.132072e-02 -4.812922e-01 8.380995e-03
<VARIANCE> 39
 3.146194e+00 3.185214e+00 3.816321e+00 7.864814e+00 1.358265e+01 2.724642e+01 4.760504e+01 1.158345e+01 2.728582e+00 7.439136e+00 2.013759e+01 2.252149e+01 5.000000e-02 1.231922e+00 4.578635e-01 1.351686e+00 1.846758e+00 6.847028e-01 8.846744e-01 2.871294e-01 5.553773e-01 4.014350e-01 1.044736e+00 6.240651e-01 2.466584e+00 5.000000e-02 1.017122e-01 1.011633e-01 9.437128e-02 1.992073e-01 1.135236e-01 2.359870e-01 1.539533e-01 1.472915e-01 6.080808e-02 5.000000e-02 2.538338e-01 3.428788e-01 5.000000e-02
<GCONST> 6.312360e+01
<STATE> 12
<MEAN> 39
 2.208023e-02 -1.376990e+01 -1.281633e+01 -3.280071e+01 4.639168e-01 -8.336645e+00 1.309980e+00 2.739758e+00 -6.083603e+00 8.092701e+00 -1.522279e+00 1.626342e+01 9.286180e-01 1.209514e+00 2.584169e-01 -9.425517e-01 1.716473e+00 -1.837809e+00 -1.269435e-01 -2.346420e-01 1.237453e+00 3.094880e-01 5.791630e-01 2.157158e-01 2.931238e-01 1.458409e-02 6.141227e-02 2.039319e-01 6.770463e-02 3.544933e-01 1.720313e-01 -3.572255e-01 4.056910e-01 2.084745e-01 7.280641e-01 2.139603e-02 -5.193457e-01 -1.647666e+00 -6.042801e-03
<VARIANCE> 39
 9.996638e+00 8.048207e+00 5.623327e+00 1.493144e+01 1.295223e+01 2.614548e+01 6.118980e+01 1.599916e+01 5.970614e+00 1.189503e+01 1.082334e+01 1.632657e+01 5.000000e-02 1.158960e+00 1.111742e+00 3.608315e-01 1.683208e+00 1.342284e+00 9.017580e-01 1.140916e+00 2.332057e+00 5.159227e-01 2.228292e-01 2.402489e+00 2.706309e+00 5.000000e-02 1.282334e-01 7.966807e-02 3.478015e-01 2.445414e-01 1.098209e-01 8.046686e-02 5.674194e-02 5.672122e-01 1.807490e-01 1.591557e-01 5.352379e-02 5.017951e-01 5.000000e-02
<GCONST> 7.191124e+01
<STATE> 13
<MEAN> 39
 3.653291e+00 -1.264290e+01 -1.412456e+01 -2.752706e+01 -2.387134e+00 -1.171685e+01 5.343265e+00 5.375741e+00 8.254341e-01 8.435500e+00 -7.328602e-01 1.023822e+01 9.275200e-01 9.233465e-01 5.941043e-01 -5.254124e-01 1.178056e+00 -6.970212e-01 -1.259256e+00 6.139298e-01 1.595940e+00 1.468429e+00 -1.973613e-01 -1.102132e+00 -2.801471e+00 -1.212109e-02 -3.117792e-01 -1.718608e-01 2.895287e-01 -4.229574e-01 5.681816e-01 5.837205e-02 -2.107297e-02 -2.730890e-01 -4.062109e-01 -5.287083e-01 -6.047975e-01 -4.889193e-01 -1.033088e-02
<VARIANCE> 39
 1.639813e+01 4.174266e+00 4.303360e+00 5.223647e+01 5.565100e+01 2.547980e+01 4.497942e+01 3.665863e+01 1.496918e+01 1.194986e+01 1.123184e+01 2.227260e+01 5.000000e-02 3.326008e-01 2.459569e-01 1.964248e+00 1.242700e+00 8.344035e-01 8.017344e-01 3.163996e-01 3.482216e+00 2.333478e+00 1.121663e+00 2.526715e-01 8.603173e-01 5.000000e-02 9.597036e-02 1.060546e-01 1.222004e-01 3.275498e-01 3.185434e-01 3.376665e-01 3.759463e-01 7.785775e-01 3.488047e-01 7.507819e-02 1.726516e-01 4.219749e-01 5.000000e-02
<GCONST> 7.769911e+01
<STATE> 14
<MEAN> 39
 2.711516e+00 -1.099860e+01 -1.308400e+01 -2.787632e+01 -1.232484e+00 -1.182913e+01 1.998276e+00 9.239072e+00 -7.716137e-01 8.148704e+00 -5.985838e+00 6.836109e+00 8.813994e-01 3.275090e-01 -2.887279e-01 -1.569378e-01 2.529604e-01 1.324177e-01 -4.632396e-01 2.258296e-01 3.005454e-01 -7.506131e-01 -1.665190e+00 -1.808468e+00 -2.115689e+00 -2.432751e-02 -6.923018e-02 -2.938994e-01 -2.615905e-01 -2.713481e-01 3.075762e-01 3.813548e-01 1.260269e-01 -8.906546e-01 -7.549449e-01 -5.216522e-01 -1.259417e-02 5.354562e-01 -2.375563e-03
<VARIANCE> 39
 8.854937e+00 5.818030e+00 7.912977e+00 1.334883e+01 2.839260e+01 2.450844e+01 5.648923e+01 3.918663e+01 2.437481e+01 1.982507e+01 8.125600e+00 1.327330e+01 5.000000e-02 1.169356e-01 3.496979e-01 1.437551e+00 1.156783e+00 2.645664e+00 2.571084e+00 2.129092e+00 2.172598e+00 1.168114e+00 2.606913e-01 4.303928e-01 1.291872e+00 5.000000e-02 5.000000e-02 7.310884e-02 1.663528e-01 1.783463e-01 4.783960e-01 1.794257e-01 2.801021e-01 3.903986e-01 5.401118e-02 2.197637e-01 9.633809e-02 2.319056e-01 5.000000e-02
<GCONST> 7.335252e+01
<STATE> 15
<MEAN> 39
 3.453242e+00 -1.373862e+01 -1.434345e+01 -2.841881e+01 -4.544809e-01 -1.225912e+01 4.159815e+00 6.267330e+00 -2.662279e+00 2.348404e+00 -9.862493e+00 3.341684e+00 8.362065e-01 5.105634e-01 -4.145728e-01 -7.816280e-01 5.519269e-01 3.769013e-01 5.311870e-01 7.234190e-01 -1.655144e+00 -1.524752e+00 -2.073171e+00 -1.133063e+00 -4.470024e-01 -1.842364e-02 2.132941e-01 2.438785e-01 -3.673754e-01 4.905871e-01 -3.870750e-01 2.306259e-01 5.037101e-02 -4.442473e-01 -1.667594e-01 6.758951e-02 9.438137e-01 3.604696e-01 9.974230e-04
<VARIANCE> 39
 1.300328e+01 9.921538e+00 2.548250e+01 2.619050e+01 3.771624e+01 5.057421e-01 3.384161e+01 2.917834e+01 2.984980e+01 2.018734e+01 8.131367e+00 1.011123e+01 5.000000e-02 1.213516e-01 5.478878e-01 9.990657e-01 1.043836e+00 3.034954e+00 1.064960e+00 2.159463e+00 1.516314e+00 1.857540e-01 7.721382e-01 5.967690e-01 6.278059e-01 5.000000e-02 5.000000e-02 9.841865e-02 4.765480e-01 1.947510e-01 4.894662e-01 8.081431e-02 3.509880e-01 1.620918e-01 1.645997e-01 1.436144e-01 5.000000e-02 1.543681e-01 5.000000e-02
<GCONST> 6.907706e+01
<STATE> 16
<MEAN> 39
 5.924307e+00 -1.243113e+01 -1.739779e+01 -2.508673e+01 -1.131500e+00 -1.092791e+01 6.488002e+00 3.144717e+00 -5.895473e+00 2.492589e-01 -7.623259e+00 3.680198e+00 8.070628e-01 9.800943e-01 5.198961e-01 -1.181843e+00 1.782466e+00 -8.371347e-01 5.770041e-01 1.480206e-01 -1.305590e+00 -1.366976e+00 -1.278041e+00 1.386654e+00 -9.423409e-01 -2.706859e-02 -6.843060e-02 1.390179e-01 1.595977e-01 3.537590e-01 -4.345694e-01 2.330328e-01 -6.065147e-01 -1.659391e-02 4.131522e-01 1.730565e-01 5.609171e-01 -4.216374e-01 -9.572309e-03
<VARIANCE> 39
 1.025072e+01 5.167806e+00 1.878358e+01 2.954904e+01 3.065202e+01 7.215853e+00 2.054710e+01 1.019547e+01 3.258837e+01 8.507454e+00 2.592779e+01 9.778015e+00 5.000000e-02 4.509124e-01 5.968698e-01 1.957581e+00 1.619174e+00 2.764466e+00 1.713130e+00 1.678832e+00 8.067483e-01 8.855138e-01 1.536590e+00 4.234787e-01 8.347818e-01 5.000000e-02 5.558396e-02 1.694423e-01 2.056696e-01 5.845028e-01 4.754380e-01 3.086956e-01 2.530806e-01 1.860990e-01 3.334213e-01 1.841799e-01 3.381047e-01 1.069865e-01 5.000000e-02
<GCONST> 7.798291e+01
<STATE> 17
<MEAN> 39
 7.654446e+00 -1.162255e+01 -1.874275e+01 -2.120409e+01 -4.929162e+00 -9.300474e+00 4.141108e+00 3.923110e-01 -8.759671e+00 -3.115533e+00 -3.889069e+00 -6.243871e-01 7.188711e-01 1.415498e-01 3.356390e-01 -2.201355e-01 1.653583e+00 -1.195969e+00 1.376111e+00 -1.318968e+00 -1.772712e+00 6.363151e-03 -1.123314e+00 1.074555e+00 -1.632534e+00 -5.233845e-02 -3.815191e-01 -7.024891e-02 7.785661e-01 3.292114e-02 5.548735e-01 1.776583e-01 -1.082859e-01 8.294807e-02 9.840195e-01 2.789285e-01 -1.435908e-01 3.605358e-01 -9.501591e-03
<VARIANCE> 39
 1.823450e+00 8.331117e+00 4.276809e+00 8.176194e+00 9.343086e+00 1.833148e+01 6.885146e+00 1.796010e+01 1.384524e+01 6.762931e+00 5.267574e+00 1.849878e+01 5.000000e-02 5.514861e-01 5.982651e-01 1.383502e+00 3.713097e+00 1.560301e+00 2.042819e+00 1.276834e+00 1.004358e+00 1.957846e+00 5.725557e-01 1.907583e+00 1.050403e+00 5.000000e-02 5.000000e-02 8.101293e-02 1.423286e-01 3.298362e-01 2.902173e-01 4.383509e-01 2.398206e-01 1.418517e-01 2.281174e-01 1.729210e-01 5.000000e-02 2.536072e-01 5.000000e-02
<GCONST> 6.917850e+01
<STATE> 18
<MEAN> 39
 6.532613e+00 -1.132381e+01 -1.768463e+01 -1.783636e+01 -4.115939e+00 -5.554824e+00 -1.393803e-02 -3.860816e+00 -6.514894e+00 -5.288632e+00 -2.611501e+00 -1.748264e+00 5.810893e-01 -3.562413e-01 6.163442e-03 1.351737e+00 2.578496e+00 5.167370e-01 1.063585e+00 -5.968546e-01 -8.186836e-01 2.668070e+00 1.293873e-01 1.370610e+00 -7.377229e-01 -6.553181e-02 -2.276368e-01 -6.288994e-02 3.965973e-01 -2.492911e-02 3.178277e-01 -5.997394e-01 2.492834e-01 3.463313e-01 3.991428e-01 4.818432e-01 -1.304939e-01 2.965388e-01 2.434074e-03
<VARIANCE> 39
 1.638925e+00 4.134144e+00 8.524936e+00 6.906047e+00 1.062330e+01 7.329229e+00 1.026833e+01 1.162035e+01 6.827996e+00 1.125567e+01 2.172147e+01 1.216175e+01 5.000000e-02 1.194856e-01 5.606415e-01 2.147261e-01 1.728600e+00 9.578400e-01 1.360142e+00 6.412226e-01 1.090410e+00 1.170234e+00 1.563312e+00 5.198109e-01 1.906770e+00 5.000000e-02 5.000000e-02 7.550482e-02 2.498977e-01 5.370601e-01 2.818308e-01 2.315345e-01 1.876670e-01 1.262504e-01 2.481839e-01 2.480200e-01 2.781114e-01 3.606768e-01 5.000000e-02
<GCONST> 6.539443e+01
<STATE> 19
<MEAN> 39
 5.987058e+00 -1.173462e+01 -1.419586e+01 -1.228223e+01 -2.911734e+00 -5.638469e+00 1.856758e+00 -2.883965e+00 1.595002e+00 -2.659540e+00 -1.461146e+00 -3.106681e+00 4.853427e-01 -4.731835e-01 3.113277e-01 1.558876e+00 1.573581e+00 3.959848e-01 -6.923660e-01 -8.997539e-02 -2.960812e-01 1.505932e+00 2.757311e-02 5.076575e-01 1.995631e-01 -4.488536e-02 -1.307704e-01 1.605529e-01 5.122252e-02 -3.640225e-01 7.456717e-02 -1.337791e-01 2.448389e-01 4.528207e-01 -5.631074e-01 4.684691e-02 -1.607705e-01 4.341680e-01 3.296538e-03
<VARIANCE> 39
 2.001218e+00 6.795941e+00 8.120095e+00 2.176164e+01 7.901608e+00 1.630064e+01 1.709166e+01 8.848004e+00 1.213350e+01 1.215455e+01 5.634666e+00 5.403039e+00 5.000000e-02 2.064664e-01 3.016644e-01 7.369786e-01 8.259679e-01 4.096684e-01 1.692603e-01 5.595023e-01 7.535357e-01 7.507335e-01 1.241202e+00 3.121855e-01 9.185082e-01 5.000000e-02 5.000000e-02 5.000000e-02 1.750352e-01 4.001424e-01 9.583133e-02 2.806172e-01 2.205722e-01 2.185162e-01 1.994862e-01 3.870869e-01 1.057481e-01 9.248662e-02 5.000000e-02
<GCONST> 5.814952e+01
<STATE> 20
<MEAN> 39
 4.238103e+00 -1.017422e+01 -1.157268e+01 -1.076717e+01 -1.918293e+00 -7.324586e+00 1.212125e+00 -4.131011e+00 5.548967e-02 -3.658360e+00 3.185056e-01 -4.878475e-02 4.162030e-01 -1.077963e+00 3.338377e-01 1.656092e+00 1.204694e+00 7.117056e-01 5.992740e-01 6.642966e-01 1.182398e+00 6.521022e-01 7.358921e-01 8.298870e-01 6.866152e-01 -5.036854e-02 -8.508138e-02 -1.667646e-01 -2.581936e-01 -3.830849e-01 -1.306153e-01 3.544649e-01 1.837922e-01 3.874535e-01 -1.758779e-01 1.654076e-01 1.813628e-01 -4.334075e-02 1.408936e-03
<VARIANCE> 39
 1.484068e+00 9.543799e+00 1.426559e+01 7.321421e+00 9.915852e+00 4.957927e+00 3.091832e+01 1.499358e+01 7.686868e+00 7.105439e+00 2.489647e+00 2.946615e+00 5.000000e-02 3.587533e-01 2.227921e-01 1.297172e+00 6.982020e-01 1.354806e+00 1.822676e+00 2.916639e+00 1.399439e+00 9.263347e-01 7.010335e-01 5.114099e-01 1.293976e-01 5.000000e-02 5.000000e-02 5.911957e-02 1.555340e-01 6.055494e-02 1.626606e-01 1.244632e-01 3.435972e-01 4.311591e-01 5.224004e-02 1.906810e-01 5.000000e-02 6.983863e-02 5.000000e-02
<GCONST> 5.598942e+01
<STATE> 21
<MEAN> 39
 1.454358e+00 -9.457860e+00 -7.044491e+00 -8.396147e+00 -1.364862e+00 -4.157626e+00 2.612851e+00 7.099977e-01 3.098063e+00 -1.307531e+00 1.456182e+00 -1.789609e+00 2.786916e-01 -8.100314e-01 -2.184365e-01 4.686411e-01 -1.435002e-01 -1.049803e-01 5.205026e-01 2.323558e-02 1.336714e+00 6.275132e-01 5.071724e-01 8.975245e-01 5.316353e-01 -3.570642e-02 2.416529e-01 -6.212457e-02 -4.356944e-01 -2.519223e-01 -2.225834e-01 -2.628303e-01 -3.290317e-01 -6.316815e-01 -4.300407e-01 -1.212111e-01 -4.578653e-02 -1.921505e-01 1.015168e-02
<VARIANCE> 39
 4.620762e+00 6.196105e+00 1.275931e+01 7.225445e+00 6.262668e+00 4.997184e+00 7.279164e+00 2.234072e+01 9.740414e+00 4.334083e+00 6.089197e+00 1.005663e+01 5.000000e-02 2.128198e-01 2.664243e-01 6.307871e-01 5.853938e-01 7.790275e-01 1.379227e+00 6.595374e-01 4.829881e-01 9.438642e-01 1.565341e+00 8.752237e-01 1.012601e+00 5.000000e-02 8.589730e-02 5.000000e-02 1.131132e-01 6.772614e-02 1.640749e-01 2.553878e-01 4.246735e-01 3.798795e-01 1.681374e-01 3.664625e-01 2.382607e-01 6.579627e-02 5.000000e-02
<GCONST> 6.003086e+01
<STATE> 22
<MEAN> 39
 1.338782e+00 -1.109299e+01 -1.062755e+01 -1.109966e+01 -2.360862e+00 -5.459440e+00 2.301028e+00 -1.888041e-01 2.749549e+00 -1.630111e-02 4.551368e+00 1.104619e+00 2.364263e-01 -6.320973e-01 4.946236e-01 7.074187e-01 2.480749e-01 1.009239e-01 2.323097e-01 -1.606188e-01 -9.787348e-01 -6.376027e-01 4.315192e-01 8.133715e-01 -6.410107e-02 -3.363414e-02 -2.876909e-02 2.038791e-01 2.944620e-01 2.629490e-01 5.907366e-02 1.001297e-02 -3.147759e-02 -3.677471e-01 -2.012155e-01 -1.502044e-01 -3.274495e-01 -4.347326e-01 3.436740e-04
<VARIANCE> 39
 3.265819e+00 5.417102e+00 1.382829e+01 7.856783e+00 2.064520e+01 1.676685e+01 9.637053e+00 6.295016e+00 6.474383e+00 1.110896e+01 3.685207e+00 6.274746e+00 5.000000e-02 8.631073e-01 5.852432e-01 9.020373e-01 6.043027e-01 6.197804e-01 1.012747e+00 1.199881e+00 1.146928e+00 8.997199e-01 9.945827e-01 1.226360e+00 8.057236e-01 5.000000e-02 7.443154e-02 5.000000e-02 1.883043e-01 1.664701e-01 2.563310e-01 3.047833e-01 2.706193e-01 2.145132e-01 2.140823e-01 1.599787e-01 5.783470e-02 1.284502e-01 5.000000e-02
<GCONST> 6.333208e+01
<STATE> 23
<MEAN> 39
 -1.410652e-01 -8.023737e+00 -5.965847e+00 -8.808799e+00 -2.478189e+00 -5.333402e+00 1.146308e+00 -3.555011e+00 7.838326e-01 5.332054e-01 5.249166e+00 -1.254357e+00 1.846573e-01 -7.927234e-01 3.753658e-01 1.328739e+00 1.208575e+00 3.610758e-01 2.954827e-01 3.803809e-01 -3.962001e-01 -4.833938e-01 1.799801e-02 -3.601118e-01 -1.026545e+00 -3.145817e-02 -9.075502e-02 -1.103725e-01 3.945121e-02 2.424331e-01 1.410743e-01 -3.987280e-02 2.211527e-01 3.719311e-01 8.988009e-02 -3.628239e-01 -3.068441e-01 1.125524e-01 -3.973188e-04
<VARIANCE> 39
 8.225101e+00 9.342777e-01 4.965148e+00 7.628872e+00 8.442521e+00 7.064586e+00 1.213165e+01 2.103577e+01 6.758621e+00 1.348650e+01 1.304999e+01 8.639656e+00 5.000000e-02 3.107169e-01 2.475663e-01 4.732131e-01 6.773475e-01 5.463803e-01 1.265470e+00 1.055216e+00 1.312474e+00 6.948575e-01 1.598606e+00 2.360085e-01 4.692126e-01 5.000000e-02 1.464487e-01 5.000000e-02 1.105899e-01 1.390334e-01 5.000000e-02 3.913533e-01 1.963171e-01 3.970712e-01 1.831929e-01 3.727334e-01 2.892149e-01 1.519405e-01 5.000000e-02
<GCONST> 6.000383e+01
<STATE> 24
<MEAN> 39
 -2.101270e+00 -7.981311e+00 -2.499693e+00 -4.540013e+00 4.117928e-01 -3.105634e+00 3.659075e+00 -2.217083e+00 2.217914e-01 -1.108486e+00 2.572368e+00 -2.543619e+00 1.045582e-01 -8.113652e-01 -3.553316e-02 7.894050e-01 8.469290e-01 4.137786e-01 -2.522555e-01 2.068777e-01 8.135542e-01 2.054284e-02 -9.776995e-01 -5.816351e-01 -1.558972e-01 -2.370595e-02 1.222896e-01 -5.652496e-02 -3.760684e-01 -3.902690e-01 -7.897033e-02 -3.572213e-01 -3.018976e-01 3.060114e-01 2.789066e-01 2.283223e-01 2.797351e-01 2.783414e-01 4.273833e-03
<VARIANCE> 39
 4.231470e+00 2.734083e+00 8.390269e+00 1.027200e+01 5.567782e+00 9.252363e+00 8.915650e+00 7.233527e+00 1.081773e+01 1.233609e+01 4.252958e+00 9.398923e+00 5.000000e-02 3.292791e-01 1.785683e-01 6.238613e-01 7.774948e-01 3.525931e-01 1.836391e+00 8.525531e-01 2.222972e+00 1.454131e+00 6.962764e-01 5.397226e-01 7.794015e-01 5.000000e-02 5.000000e-02 5.000000e-02 5.306299e-02 1.634228e-01 5.000000e-02 1.547641e-01 1.801645e-01 2.027853e-01 1.292495e-01 2.711788e-01 1.302800e-01 1.785759e-01 5.000000e-02
<GCONST> 5.605716e+01
<TRANSP> 25
 0.000000e+00 1.000000e+00 0.000000e+00 0.000000e+00 0.000000e+00 0.000000e+00 0.000000e+00 0.000000e+00 0.000000e+00 0.000000e+00 0.000000e+00 0.000000e+00 0.000000e+00 0.000000e+00 0.000000e+00 0.000000e+00 0.000000e+00 0.000000e+00 0.000000e+00 0.000000e+00 0.000000e+00 0.000000e+00 0.000000e+00 0.000000e+00 0.000000e+00
 0.000000e+00 6.127468e-01 3.872531e-01 0.000000e+00 0.000000e+00 0.000000e+00 0.000000e+00 0.000000e+00 0.000000e+00 0.000000e+00 0.000000e+00 0.000000e+00 0.000000e+00 0.000000e+00 0.000000e+00 0.000000e+00 0.000000e+00 0.000000e+00 0.000000e+00 0.000000e+00 0.000000e+00 0.000000e+00 0.000000e+00 0.000000e+00 0.000000e+00
 0.000000e+00 0.000000e+00 3.750259e-01 6.249741e-01 0.000000e+00 0.000000e+00 0.000000e+00 0.000000e+00 0.000000e+00 0.000000e+00 0.000000e+00 0.000000e+00 0.000000e+00 0.000000e+00 0.000000e+00 0.000000e+00 0.000000e+00 0.000000e+00 0.000000e+00 0.000000e+00 0.000000e+00 0.000000e+00 0.000000e+00 0.000000e+00 0.000000e+00
 0.000000e+00 0.000000e+00 0.000000e+00 5.833266e-01 4.166734e-01 0.000000e+00 0.000000e+00 0.000000e+00 0.000000e+00 0.000000e+00 0.000000e+00 0.000000e+00 0.000000e+00 0.000000e+00 0.000000e+00 0.000000e+00 0.000000e+00 0.000000e+00 0.000000e+00 0.000000e+00 0.000000e+00 0.000000e+00 0.000000e+00 0.000000e+00 0.000000e+00
 0.000000e+00 0.000000e+00 0.000000e+00 0.000000e+00 4.444269e-01 5.555730e-01 0.000000e+00 0.000000e+00 0.000000e+00 0.000000e+00 0.000000e+00 0.000000e+00 0.000000e+00 0.000000e+00 0.000000e+00 0.000000e+00 0.000000e+00 0.000000e+00 0.000000e+00 0.000000e+00 0.000000e+00 0.000000e+00 0.000000e+00 0.000000e+00 0.000000e+00
 0.000000e+00 0.000000e+00 0.000000e+00 0.000000e+00 0.000000e+00 3.750208e-01 6.249792e-01 0.000000e+00 0.000000e+00 0.000000e+00 0.000000e+00 0.000000e+00 0.000000e+00 0.000000e+00 0.000000e+00 0.000000e+00 0.000000e+00 0.000000e+00 0.000000e+00 0.000000e+00 0.000000e+00 0.000000e+00 0.000000e+00 0.000000e+00 0.000000e+00
 0.000000e+00 0.000000e+00 0.000000e+00 0.000000e+00 0.000000e+00 0.000000e+00 5.454344e-01 4.545656e-01 0.000000e+00 0.000000e+00 0.000000e+00 0.000000e+00 0.000000e+00 0.000000e+00 0.000000e+00 0.000000e+00 0.000000e+00 0.000000e+00 0.000000e+00 0.000000e+00 0.000000e+00 0.000000e+00 0.000000e+00 0.000000e+00 0.000000e+00
 0.000000e+00 0.000000e+00 0.000000e+00 0.000000e+00 0.000000e+00 0.000000e+00 0.000000e+00 4.997873e-01 5.002127e-01 0.000000e+00 0.000000e+00 0.000000e+00 0.000000e+00 0.000000e+00 0.000000e+00 0.000000e+00 0.000000e+00 0.000000e+00 0.000000e+00 0.000000e+00 0.000000e+00 0.000000e+00 0.000000e+00 0.000000e+00 0.000000e+00
 0.000000e+00 0.000000e+00 0.000000e+00 0.000000e+00 0.000000e+00 0.000000e+00 0.000000e+00 0.000000e+00 5.005292e-01 4.994708e-01 0.000000e+00 0.000000e+00 0.000000e+00 0.000000e+00 0.000000e+00 0.000000e+00 0.000000e+00 0.000000e+00 0.000000e+00 0.000000e+00 0.000000e+00 0.000000e+00 0.000000e+00 0.000000e+00 0.000000e+00
 0.000000e+00 0.000000e+00 0.000000e+00 0.000000e+00 0.000000e+00 0.000000e+00 0.000000e+00 0.000000e+00 0.000000e+00 5.442257e-01 4.557743e-01 0.000000e+00 0.000000e+00 0.000000e+00 0.000000e+00 0.000000e+00 0.000000e+00 0.000000e+00 0.000000e+00 0.000000e+00 0.000000e+00 0.000000e+00 0.000000e+00 0.000000e+00 0.000000e+00
 0.000000e+00 0.000000e+00 0.000000e+00 0.000000e+00 0.000000e+00 0.000000e+00 0.000000e+00 0.000000e+00 0.000000e+00 0.000000e+00 6.161774e-01 3.838226e-01 0.000000e+00 0.000000e+00 0.000000e+00 0.000000e+00 0.000000e+00 0.000000e+00 0.000000e+00 0.000000e+00 0.000000e+00 0.000000e+00 0.000000e+00 0.000000e+00 0.000000e+00
 0.000000e+00 0.000000e+00 0.000000e+00 0.000000e+00 0.000000e+00 0.000000e+00 0.000000e+00 0.000000e+00 0.000000e+00 0.000000e+00 0.000000e+00 4.412807e-01 5.587193e-01 0.000000e+00 0.000000e+00 0.000000e+00 0.000000e+00 0.000000e+00 0.000000e+00 0.000000e+00 0.000000e+00 0.000000e+00 0.000000e+00 0.000000e+00 0.000000e+00
 0.000000e+00 0.000000e+00 0.000000e+00 0.000000e+00 0.000000e+00 0.000000e+00 0.000000e+00 0.000000e+00 0.000000e+00 0.000000e+00 0.000000e+00 0.000000e+00 4.470867e-01 5.529132e-01 0.000000e+00 0.000000e+00 0.000000e+00 0.000000e+00 0.000000e+00 0.000000e+00 0.000000e+00 0.000000e+00 0.000000e+00 0.000000e+00 0.000000e+00
 0.000000e+00 0.000000e+00 0.000000e+00 0.000000e+00 0.000000e+00 0.000000e+00 0.000000e+00 0.000000e+00 0.000000e+00 0.000000e+00 0.000000e+00 0.000000e+00 0.000000e+00 4.447422e-01 5.552578e-01 0.000000e+00 0.000000e+00 0.000000e+00 0.000000e+00 0.000000e+00 0.000000e+00 0.000000e+00 0.000000e+00 0.000000e+00 0.000000e+00
 0.000000e+00 0.000000e+00 0.000000e+00 0.000000e+00 0.000000e+00 0.000000e+00 0.000000e+00 0.000000e+00 0.000000e+00 0.000000e+00 0.000000e+00 0.000000e+00 0.000000e+00 0.000000e+00 4.445142e-01 5.554858e-01 0.000000e+00 0.000000e+00 0.000000e+00 0.000000e+00 0.000000e+00 0.000000e+00 0.000000e+00 0.000000e+00 0.000000e+00
 0.000000e+00 0.000000e+00 0.000000e+00 0.000000e+00 0.000000e+00 0.000000e+00 0.000000e+00 0.000000e+00 0.000000e+00 0.000000e+00 0.000000e+00 0.000000e+00 0.000000e+00 0.000000e+00 0.000000e+00 5.452813e-01 4.547187e-01 0.000000e+00 0.000000e+00 0.000000e+00 0.000000e+00 0.000000e+00 0.000000e+00 0.000000e+00 0.000000e+00
 0.000000e+00 0.000000e+00 0.000000e+00 0.000000e+00 0.000000e+00 0.000000e+00 0.000000e+00 0.000000e+00 0.000000e+00 0.000000e+00 0.000000e+00 0.000000e+00 0.000000e+00 0.000000e+00 0.000000e+00 0.000000e+00 5.004887e-01 4.995113e-01 0.000000e+00 0.000000e+00 0.000000e+00 0.000000e+00 0.000000e+00 0.000000e+00 0.000000e+00
 0.000000e+00 0.000000e+00 0.000000e+00 0.000000e+00 0.000000e+00 0.000000e+00 0.000000e+00 0.000000e+00 0.000000e+00 0.000000e+00 0.000000e+00 0.000000e+00 0.000000e+00 0.000000e+00 0.000000e+00 0.000000e+00 0.000000e+00 4.442022e-01 5.557979e-01 0.000000e+00 0.000000e+00 0.000000e+00 0.000000e+00 0.000000e+00 0.000000e+00
 0.000000e+00 0.000000e+00 0.000000e+00 0.000000e+00 0.000000e+00 0.000000e+00 0.000000e+00 0.000000e+00 0.000000e+00 0.000000e+00 0.000000e+00 0.000000e+00 0.000000e+00 0.000000e+00 0.000000e+00 0.000000e+00 0.000000e+00 0.000000e+00 5.459420e-01 4.540581e-01 0.000000e+00 0.000000e+00 0.000000e+00 0.000000e+00 0.000000e+00
 0.000000e+00 0.000000e+00 0.000000e+00 0.000000e+00 0.000000e+00 0.000000e+00 0.000000e+00 0.000000e+00 0.000000e+00 0.000000e+00 0.000000e+00 0.000000e+00 0.000000e+00 0.000000e+00 0.000000e+00 0.000000e+00 0.000000e+00 0.000000e+00 0.000000e+00 4.992664e-01 5.007336e-01 0.000000e+00 0.000000e+00 0.000000e+00 0.000000e+00
 0.000000e+00 0.000000e+00 0.000000e+00 0.000000e+00 0.000000e+00 0.000000e+00 0.000000e+00 0.000000e+00 0.000000e+00 0.000000e+00 0.000000e+00 0.000000e+00 0.000000e+00 0.000000e+00 0.000000e+00 0.000000e+00 0.000000e+00 0.000000e+00 0.000000e+00 0.000000e+00 3.751051e-01 6.248950e-01 0.000000e+00 0.000000e+00 0.000000e+00
 0.000000e+00 0.000000e+00 0.000000e+00 0.000000e+00 0.000000e+00 0.000000e+00 0.000000e+00 0.000000e+00 0.000000e+00 0.000000e+00 0.000000e+00 0.000000e+00 0.000000e+00 0.000000e+00 0.000000e+00 0.000000e+00 0.000000e+00 0.000000e+00 0.000000e+00 0.000000e+00 0.000000e+00 5.451514e-01 4.548486e-01 0.000000e+00 0.000000e+00
 0.000000e+00 0.000000e+00 0.000000e+00 0.000000e+00 0.000000e+00 0.000000e+00 0.000000e+00 0.000000e+00 0.000000e+00 0.000000e+00 0.000000e+00 0.000000e+00 0.000000e+00 0.000000e+00 0.000000e+00 0.000000e+00 0.000000e+00 0.000000e+00 0.000000e+00 0.000000e+00 0.000000e+00 0.000000e+00 4.854087e-01 5.145913e-01 0.000000e+00
 0.000000e+00 0.000000e+00 0.000000e+00 0.000000e+00 0.000000e+00 0.000000e+00 0.000000e+00 0.000000e+00 0.000000e+00 0.000000e+00 0.000000e+00 0.000000e+00 0.000000e+00 0.000000e+00 0.000000e+00 0.000000e+00 0.000000e+00 0.000000e+00 0.000000e+00 0.000000e+00 0.000000e+00 0.000000e+00 0.000000e+00 5.630774e-01 4.369226e-01
 0.000000e+00 0.000000e+00 0.000000e+00 0.000000e+00 0.000000e+00 0.000000e+00 0.000000e+00 0.000000e+00 0.000000e+00 0.000000e+00 0.000000e+00 0.000000e+00 0.000000e+00 0.000000e+00 0.000000e+00 0.000000e+00 0.000000e+00 0.000000e+00 0.000000e+00 0.000000e+00 0.000000e+00 0.000000e+00 0.000000e+00 0.000000e+00 0.000000e+00
<ENDHMM>
