~o
<STREAMINFO> 1 39
<VECSIZE> 39<NULLD><MFCC_E_D_A><DIAGC>
~h "Du*ng"
<BEGINHMM>
<NUMSTATES> 37
<STATE> 2
<MEAN> 39
 -7.703207e+00 -8.828228e+00 -4.715565e-01 -4.381014e+00 2.139892e+00 -4.408484e+00 3.020155e+00 3.821929e-01 7.342157e-01 -3.399663e-01 3.261634e+00 -1.942076e+00 6.578706e-03 -3.697857e-01 -1.313445e-01 -1.465674e-01 -3.513221e-01 -2.823808e-01 -3.776759e-01 -6.601094e-02 3.914787e-01 -4.569316e-01 3.707527e-02 -6.096738e-01 -1.486796e-01 -8.243903e-04 6.440082e-01 4.625685e-01 3.118365e-02 -2.251021e-01 -2.438586e-01 -2.896121e-01 -5.591667e-01 -3.807666e-01 -4.617289e-01 -4.813130e-01 -9.266506e-01 -4.972972e-01 2.356590e-02
<VARIANCE> 39
 9.781953e+00 2.541639e+00 1.004813e+01 1.514916e+01 2.336992e+01 1.680893e+01 4.562936e+00 2.557517e+01 6.421919e+00 9.263113e+00 3.509475e+00 3.613347e+00 5.000000e-02 1.040098e+00 6.273745e-01 7.114888e-01 4.011527e-01 1.764893e+00 2.779194e+00 7.055882e-01 1.255161e+00 9.552906e-01 6.720114e-01 1.330361e+00 8.475236e-01 5.000000e-02 1.065086e-01 5.000000e-02 2.814309e-01 2.897775e-01 2.486926e-01 1.249917e-01 8.094799e-02 5.096000e-01 1.454584e-01 3.658926e-01 6.717537e-02 1.240302e-01 5.000000e-02
<GCONST> 6.563054e+01
<STATE> 3
<MEAN> 39
 -7.368237e+00 -8.860854e+00 -2.667098e+00 -4.117513e+00 1.089499e+00 -6.442254e+00 1.048080e+00 -1.681614e+00 -1.364757e+00 -1.808040e+00 1.548928e+00 -1.916807e+00 5.273859e-03 1.813825e+00 1.181794e+00 -1.383069e-01 -6.524616e-01 -1.079871e+00 -1.135648e+00 -1.439001e+00 -9.337690e-01 -1.635493e+00 -1.208766e+00 -2.343018e+00 -1.064617e+00 7.263796e-02 6.137916e-01 5.424306e-01 2.976742e-02 -8.607183e-01 1.751207e-01 -2.637138e-01 -4.792640e-01 6.961025e-02 -3.931755e-01 -4.488971e-01 -4.631549e-01 -2.212980e-01 3.928494e-02
<VARIANCE> 39
 7.154783e+00 2.901333e+00 1.316469e+01 6.073925e+00 5.945681e+00 1.613689e+01 5.126925e+00 4.845981e+00 2.848368e+00 1.419952e+01 1.148225e+01 8.724685e+00 5.000000e-02 3.125946e-01 1.734463e-01 7.735175e-01 5.266836e-01 1.845965e+00 1.131663e+00 8.089855e-01 2.778129e+00 3.109237e-01 8.031201e-01 1.742021e-01 9.920329e-01 5.000000e-02 1.292561e-01 5.000000e-02 2.656456e-01 3.134843e-01 3.956228e-01 4.743018e-01 5.711895e-02 2.596820e-01 3.760194e-01 8.965099e-01 3.970434e-01 5.000000e-02 5.000000e-02
<GCONST> 6.236042e+01
<STATE> 4
<MEAN> 39
 -3.132168e+00 -6.240478e+00 -9.598703e-01 -6.212346e+00 -7.036991e-01 -6.085408e+00 -1.920147e+00 -2.348245e+00 -2.679195e+00 -3.043906e+00 -5.108253e+00 -5.074056e+00 1.928781e-01 1.979158e+00 1.268636e+00 -2.841308e-01 -2.030905e+00 -6.977690e-01 -6.615982e-01 -1.491723e+00 8.288110e-01 -1.138963e+00 -8.971941e-01 -2.329901e+00 -6.102275e-01 1.177023e-01 -1.878038e-01 -1.432295e-01 6.119599e-02 -7.756051e-01 1.451153e-01 3.096682e-02 -2.239603e-01 2.635398e-01 -1.033461e-01 -1.739173e-01 -5.190877e-02 1.866316e-01 1.857725e-02
<VARIANCE> 39
 4.195495e+00 1.315073e+00 1.864670e+00 1.196497e+01 7.699601e+00 1.309792e+01 6.886590e+00 9.487563e+00 1.037380e+01 7.507547e+00 2.411861e+01 2.482700e+00 5.000000e-02 9.131529e-01 6.439374e-01 9.174166e-01 1.434008e+00 1.119459e+00 1.146533e+00 4.250385e-01 1.145353e+00 1.593759e+00 3.987067e+00 2.021398e+00 7.321988e-01 5.000000e-02 2.295240e-01 7.164573e-02 2.541843e-01 2.522909e-01 5.220160e-01 4.041320e-01 5.000000e-02 3.187390e-01 2.717504e-01 3.129189e-01 3.329113e-01 9.585110e-02 5.000000e-02
<GCONST> 6.779858e+01
<STATE> 5
<MEAN> 39
 3.398561e+00 -2.762712e+00 -2.446243e+00 -1.144152e+01 -7.629172e-01 -1.052505e+01 -3.892765e+00 6.449421e-01 -7.676394e+00 -8.732966e+00 -7.224885e+00 -5.527161e+00 5.335842e-01 8.432634e-01 9.657095e-01 7.206304e-03 -4.389215e+00 9.108053e-01 -2.031575e+00 -1.908597e+00 8.228039e-01 -2.665130e+00 -2.508479e+00 -1.876510e+00 -5.045533e-01 1.474680e-01 -1.033488e+00 -6.864958e-01 3.007373e-01 -1.571905e-01 -3.432630e-01 2.079531e-01 1.954860e-01 -3.603688e-01 5.745798e-01 9.805241e-01 7.891767e-01 3.036106e-01 -2.135995e-02
<VARIANCE> 39
 1.998027e+01 6.188332e+00 3.195350e+00 6.714677e+00 1.281257e+01 1.556859e+01 8.924698e+00 2.103734e+01 1.177201e+01 2.907268e+01 1.582710e+01 7.204524e+00 5.000000e-02 1.779726e+00 1.365622e+00 1.594343e+00 6.402901e-01 2.055897e+00 4.744321e+00 1.825775e-01 1.142676e+00 3.005085e+00 5.811595e+00 1.566335e+00 2.575631e-01 5.000000e-02 1.344223e-01 1.184640e-01 2.811430e-01 4.184068e-01 3.936102e-01 3.465694e-01 6.376141e-02 4.519950e-01 2.369526e-01 7.475553e-01 4.240271e-01 1.160044e-01 5.000000e-02
<GCONST> 7.868593e+01
<STATE> 6
<MEAN> 39
 -1.859569e-01 -2.838524e+00 -1.906507e+00 -1.853656e+01 1.447394e+00 -1.062965e+01 -7.684756e+00 -4.712518e-01 -8.784210e+00 -7.905297e+00 -8.008106e+00 -5.816617e+00 6.149083e-01 -9.089404e-01 -1.132430e+00 1.182179e+00 -2.829177e+00 -1.557901e+00 4.078810e-02 -1.549335e+00 -4.593445e-01 -4.990746e-02 1.172507e+00 -7.109358e-01 1.810660e-01 7.275607e-02 -7.122666e-01 -7.345817e-01 1.975843e-01 1.089742e+00 -1.677458e+00 3.042355e-01 3.286360e-01 -6.052126e-01 1.099085e+00 1.304754e+00 1.115827e+00 4.153680e-01 -1.814261e-02
<VARIANCE> 39
 1.761519e+01 9.197467e+00 2.481041e+00 7.362442e+00 2.851784e+01 4.394796e+01 7.334863e+00 1.109554e+01 3.762901e+01 4.139405e+01 1.451030e+01 4.675937e+00 5.000000e-02 6.431198e-01 7.496774e-01 9.544467e-01 2.975942e+00 3.612564e+00 2.374239e+00 1.020324e+00 7.291687e-01 1.237024e+00 2.661255e+00 1.232335e+00 3.609675e-01 5.000000e-02 2.539827e-01 2.502159e-01 1.531272e-01 2.882441e-01 3.129766e-01 4.690752e-01 1.035595e-01 3.430490e-01 3.421177e-01 8.010958e-01 6.775028e-01 5.000000e-02 5.000000e-02
<GCONST> 8.052097e+01
<STATE> 7
<MEAN> 39
 -1.092556e+00 -6.367021e+00 1.760990e-01 -2.092009e+01 -4.986378e+00 -1.261957e+01 -8.405604e+00 -5.935467e-01 -9.573276e+00 -3.566604e+00 -1.094505e+01 -5.410399e+00 7.017895e-01 -1.896219e+00 -1.159809e+00 5.466390e-01 -4.216894e-01 -4.723610e+00 -5.444110e-02 -6.551298e-01 -1.328859e+00 1.877234e+00 3.159590e+00 2.124624e+00 1.126458e+00 6.563514e-02 -1.448937e-01 -2.344257e-01 -4.493752e-01 1.056425e+00 -9.582891e-01 -7.153383e-02 8.447283e-01 -3.115309e-01 7.713012e-01 4.163847e-01 1.825292e+00 3.379757e-01 -1.286424e-03
<VARIANCE> 39
 9.836987e+00 1.819790e+01 2.059006e+01 1.359414e+01 6.095553e+01 5.520037e+01 2.099956e+01 1.874773e+01 2.938699e+01 3.390593e+01 7.640268e+00 8.641395e+00 5.000000e-02 8.403950e-01 1.754100e+00 3.737972e+00 4.245834e+00 1.920233e+00 4.024427e-01 1.831233e+00 1.852992e+00 4.515407e-01 1.470260e+00 4.009007e+00 7.803600e-01 5.000000e-02 7.055765e-02 2.305726e-01 1.331522e-01 5.417863e-01 1.945330e+00 8.883645e-01 1.901750e-01 2.836827e-01 3.162211e-01 1.136632e+00 2.665612e-01 6.896934e-02 5.000000e-02
<GCONST> 8.941041e+01
<STATE> 8
<MEAN> 39
 -4.557023e+00 -7.268746e+00 1.283664e+00 -1.980405e+01 -1.357629e+01 -8.956964e+00 -1.062635e+01 -2.749286e+00 -2.944335e+00 3.158795e-01 -6.099746e+00 -3.130887e+00 7.889127e-01 -1.287314e+00 -1.564126e+00 6.744709e-02 2.751520e-01 -5.680166e+00 -4.555510e-01 6.610993e-01 -1.842932e+00 1.956407e+00 2.536895e+00 4.238018e+00 1.311085e+00 8.403746e-02 2.299191e-01 -3.029400e-01 -7.373934e-01 6.818386e-01 4.058339e-01 -5.632794e-01 1.427489e+00 5.194494e-01 -1.556512e-01 -1.291662e-01 8.478264e-01 -1.361183e-02 -4.760751e-03
<VARIANCE> 39
 4.033889e+00 7.666849e+00 4.123648e+01 3.117943e+01 7.592991e+01 4.714792e+01 3.615634e+01 6.664405e+00 2.748620e+01 3.314963e+01 3.833570e+01 6.637556e+00 5.000000e-02 5.963248e-01 1.014148e+00 1.023777e+00 3.632990e-01 2.741352e+00 1.777746e+00 1.099509e+00 1.994465e+00 7.746340e-01 8.576230e-01 2.139763e+00 5.826761e-01 5.000000e-02 5.727533e-02 9.872290e-02 5.017445e-01 8.798915e-01 1.825932e+00 3.516846e-01 5.045319e-01 2.035229e-01 4.540944e-01 8.371657e-01 7.525900e-01 3.482280e-01 5.000000e-02
<GCONST> 8.897269e+01
<STATE> 9
<MEAN> 39
 -5.201586e+00 -7.900042e+00 4.971425e-01 -1.942759e+01 -1.667602e+01 -1.250394e+01 -8.438983e+00 -6.781532e+00 -2.878306e+00 5.905086e-01 2.079133e+00 -1.934901e+00 9.036492e-01 -7.675981e-01 -1.997443e+00 -1.382469e+00 1.002420e+00 -3.868262e+00 -1.323258e+00 2.415470e+00 -3.620521e-01 1.469269e+00 2.518466e+00 5.090234e+00 8.799021e-01 6.925814e-02 3.306590e-01 -2.288754e-01 -7.288337e-01 4.660715e-01 1.596177e+00 -4.987132e-01 1.154745e+00 1.317778e+00 -4.692062e-01 -7.258266e-01 -1.069485e+00 -4.856927e-01 -1.525406e-02
<VARIANCE> 39
 1.581244e+00 2.716012e+01 4.023392e+01 4.029354e+00 4.293548e+01 1.997305e+01 2.766277e+01 9.252709e+00 1.937716e+01 4.319173e+01 2.830794e+01 1.567330e+01 5.000000e-02 7.471219e-02 1.498984e-01 1.337616e+00 1.009629e+00 6.024282e+00 2.126638e+00 3.988852e+00 4.729086e-01 1.811699e+00 4.200327e+00 1.658528e+00 9.091851e-01 5.000000e-02 8.178969e-02 1.927854e-01 4.481304e-01 1.460703e-01 6.912658e-01 2.763605e-01 1.698720e-01 3.633106e-01 1.190640e-01 5.434026e-01 9.458115e-01 3.068520e-01 5.000000e-02
<GCONST> 8.280421e+01
<STATE> 10
<MEAN> 39
 -5.556302e+00 -1.181063e+01 -2.403955e+00 -1.715445e+01 -2.015803e+01 -1.512037e+01 -1.662536e+00 -4.257519e+00 -1.981966e+00 5.683622e+00 7.515376e+00 -1.759677e+00 9.787733e-01 -3.651807e-01 -2.319710e+00 -1.620769e+00 1.319074e+00 -1.084308e-01 -1.706191e+00 3.939516e+00 2.045555e+00 4.925815e-01 4.453431e-01 1.050819e+00 -7.812203e-01 2.794822e-02 2.793375e-01 1.375814e-01 -3.966260e-01 2.830994e-01 1.778550e+00 3.101613e-01 -1.100960e-01 1.525618e+00 -3.095838e-01 -1.082645e+00 -2.258885e+00 -3.757671e-01 -2.197603e-02
<VARIANCE> 39
 1.948188e+00 1.016674e+01 2.495654e+01 1.007956e+01 9.683951e+00 3.945557e+01 4.752291e+01 5.553543e+00 1.407629e+01 7.058601e+00 2.093078e+01 3.331141e+01 5.000000e-02 5.000000e-02 1.898161e-01 1.724094e+00 7.826114e-01 4.689913e+00 1.915526e+00 1.534927e+00 1.114657e+00 1.782281e+00 3.631009e+00 7.651892e+00 3.470738e+00 5.000000e-02 5.000000e-02 8.726659e-02 1.313061e-01 7.518480e-02 5.502901e-01 1.836735e-01 6.131366e-01 1.517330e-01 7.491287e-02 3.759030e-01 3.998723e-01 1.804202e-01 5.000000e-02
<GCONST> 7.647395e+01
<STATE> 11
<MEAN> 39
 -6.721672e+00 -1.616560e+01 -4.061640e+00 -1.708023e+01 -1.918424e+01 -1.699714e+01 3.154440e+00 3.683683e-01 -8.560183e-01 4.658665e+00 5.859884e+00 -1.842904e+00 9.757020e-01 -4.132342e-01 -1.517583e+00 -2.067255e+00 1.316107e+00 1.841180e+00 -9.586837e-01 2.593833e+00 4.011592e+00 4.671857e-01 -9.924989e-01 -2.072314e+00 -3.722036e-01 5.162355e-04 5.903608e-02 5.408531e-01 -1.265231e-01 -5.084809e-02 1.124353e+00 8.546717e-01 -1.339491e+00 5.628163e-01 3.465347e-01 -8.581161e-01 -2.016868e+00 -1.049646e-01 -1.401831e-02
<VARIANCE> 39
 2.063966e+00 1.359185e+01 3.513932e+01 1.022714e+01 1.677713e+01 2.125072e+01 1.787111e+01 3.527755e+00 1.844860e+01 1.208957e+01 2.450739e+01 2.484483e+01 5.000000e-02 1.331957e-01 3.546055e-01 6.596326e-01 6.135983e-01 1.524077e+00 1.601022e+00 3.029148e+00 1.283299e+00 4.873299e-01 1.362932e+00 2.367082e+00 2.584935e-01 5.000000e-02 5.000000e-02 5.000000e-02 1.643663e-01 5.000000e-02 8.768623e-01 5.000000e-02 3.001540e-01 4.337560e-01 5.142356e-01 6.483315e-01 6.062204e-01 2.586262e-01 5.000000e-02
<GCONST> 7.222978e+01
<STATE> 12
<MEAN> 39
 -7.312820e+00 -1.665691e+01 -6.710843e+00 -1.490598e+01 -1.641606e+01 -1.661417e+01 3.670583e+00 5.614059e+00 -7.851988e-01 2.240712e+00 -4.193701e-01 -3.058728e+00 9.583983e-01 -3.391473e-01 -6.807181e-01 -2.092015e+00 9.690179e-01 2.329091e+00 3.625931e-01 -3.491144e-02 3.701337e+00 1.094194e+00 -1.893034e+00 -4.186370e+00 1.022731e-01 -1.816636e-03 8.490779e-02 5.449647e-01 3.976068e-02 -3.499976e-01 7.879446e-01 1.014934e+00 -1.236488e+00 -3.822688e-01 4.393249e-01 -3.918572e-01 -9.782494e-01 -6.744802e-02 -2.238267e-03
<VARIANCE> 39
 3.969157e+00 1.527467e+01 1.406160e+01 2.129613e+01 7.176313e+00 8.581650e+00 2.415706e+01 2.386393e+01 1.023983e+01 2.876152e+00 2.181838e+01 2.659116e+01 5.000000e-02 1.043791e-01 5.869329e-01 1.528921e-01 3.530775e-01 1.584727e-01 6.414204e-01 2.537084e+00 2.004930e+00 9.769229e-01 3.054520e-01 1.463345e+00 1.646948e-01 5.000000e-02 5.000000e-02 5.061943e-02 6.951666e-02 1.072383e-01 5.448844e-01 1.291892e-01 1.028228e-01 6.774257e-01 2.793823e-01 8.002244e-01 6.246107e-01 1.707092e-01 5.000000e-02
<GCONST> 6.378427e+01
<STATE> 13
<MEAN> 39
 -6.169837e+00 -1.558768e+01 -9.254803e+00 -1.270331e+01 -1.268054e+01 -1.477378e+01 2.295667e+00 1.128034e+01 1.090574e+00 -8.170052e-01 -3.940080e+00 -1.637255e+00 9.605056e-01 -1.569254e-01 -2.568317e-01 -2.072568e+00 8.558857e-01 3.007550e+00 1.940000e+00 -1.121149e+00 3.175712e+00 1.850253e+00 -1.882265e+00 -4.268857e+00 -2.983974e-01 6.464997e-03 3.984005e-02 3.097564e-01 4.695698e-03 -4.799954e-01 4.248797e-01 7.779722e-01 -7.459678e-01 -1.195630e+00 4.214923e-01 1.824466e-01 6.728059e-02 -4.272150e-01 5.265038e-04
<VARIANCE> 39
 3.853137e+00 7.376027e+00 2.173110e+01 7.792361e+00 5.854998e+00 2.121034e+01 3.417644e+01 1.328448e+01 9.841700e+00 9.486420e+00 9.785482e+00 2.033979e+01 5.000000e-02 1.201836e-01 6.648643e-01 4.988558e-01 7.336785e-01 1.115512e+00 1.428650e+00 3.492290e-01 3.116219e+00 1.364606e+00 1.746434e+00 7.006276e-01 3.683868e-01 5.000000e-02 5.000000e-02 5.000000e-02 5.000000e-02 6.805442e-02 1.262742e-01 1.875010e-01 3.531611e-01 4.819872e-01 8.319343e-02 2.545722e-01 3.117056e-01 5.661226e-02 5.000000e-02
<GCONST> 6.339099e+01
<STATE> 14
<MEAN> 39
 -8.126966e+00 -1.705341e+01 -1.218501e+01 -1.504833e+01 -8.025335e+00 -1.185179e+01 -1.150957e+00 1.122620e+01 7.877409e+00 -2.008040e+00 -1.042399e+01 -2.945863e+00 9.871398e-01 -2.530552e-02 1.251098e-01 -1.836446e+00 -4.896983e-01 3.875972e+00 2.229602e+00 -9.700038e-01 9.031528e-02 2.160859e+00 -7.708445e-01 -3.163471e+00 -1.612742e+00 3.252733e-04 2.579995e-01 1.789509e-02 5.126526e-01 -2.747008e-01 -6.977635e-03 2.676643e-01 -2.308158e-01 -9.785724e-01 -8.712401e-01 4.345535e-01 6.329387e-01 -3.563418e-01 -9.395707e-03
<VARIANCE> 39
 4.370049e+00 4.874773e+00 8.753973e+00 1.343967e+01 1.628793e+01 9.661734e+00 1.282212e+01 1.891590e+01 2.235036e+01 1.094532e+01 8.621309e+00 1.870998e+01 5.000000e-02 1.598539e-01 4.435624e-01 4.329676e-01 5.286545e-01 4.358110e-01 1.167457e+00 5.689655e-01 8.632526e-01 1.130123e+00 8.307776e-01 1.358162e+00 5.123148e-01 5.000000e-02 5.000000e-02 5.252575e-02 1.052938e-01 6.203941e-02 4.507018e-01 9.054948e-02 2.465755e-01 6.610673e-01 5.939075e-01 1.891445e-01 2.751046e-01 5.789487e-02 5.000000e-02
<GCONST> 6.340405e+01
<STATE> 15
<MEAN> 39
 -7.765878e+00 -1.553986e+01 -1.464508e+01 -1.516026e+01 7.825857e-01 -7.355166e+00 -3.162925e+00 1.024953e+01 9.371984e+00 -3.366881e+00 -1.605624e+01 -7.308039e+00 9.613684e-01 6.084162e-01 -1.123798e-01 -2.242235e-01 -5.384316e-01 2.757643e+00 2.158159e+00 -1.480025e+00 -9.669971e-01 -1.148702e+00 -4.119742e-02 -1.438918e+00 -1.531857e+00 -2.916203e-02 4.230224e-01 -8.476572e-02 9.003122e-01 5.399499e-03 -1.325476e+00 -2.637878e-01 -2.902806e-01 -7.802622e-01 -1.209129e+00 6.522632e-01 1.362704e+00 3.141415e-01 -1.399718e-02
<VARIANCE> 39
 5.253438e+00 8.031906e-01 6.807956e+00 2.783448e+01 7.849278e+00 1.319505e+00 3.064254e+01 2.654380e+01 2.654890e+01 1.177584e+01 2.683264e+00 9.857820e+00 5.000000e-02 2.398191e-01 9.890839e-02 1.323086e+00 4.131310e-01 1.649234e+00 2.738475e+00 1.189272e+00 2.978441e-01 4.838328e+00 5.275934e-01 2.734574e+00 3.604411e-01 5.000000e-02 5.000000e-02 1.358770e-01 1.134991e-01 2.031394e-01 2.892500e-01 1.765596e-01 5.081611e-01 1.050742e+00 4.565473e-01 2.187175e-01 3.091706e-01 1.143572e-01 5.000000e-02
<GCONST> 6.647050e+01
<STATE> 16
<MEAN> 39
 -5.367649e+00 -1.638818e+01 -1.579147e+01 -1.263453e+01 -6.478446e-01 -3.149543e+00 -4.026346e+00 9.028512e+00 3.738112e+00 -4.052153e+00 -1.535924e+01 -1.190885e+01 8.911759e-01 1.264413e+00 1.529962e-01 3.089930e-01 9.081960e-02 -1.421610e+00 1.959450e+00 -3.116344e+00 -2.915925e+00 -1.138037e+00 8.383673e-01 1.021822e+00 -4.062390e-01 -4.288618e-02 4.825005e-01 1.535305e-03 6.679875e-01 8.547065e-02 -1.440312e+00 -6.602402e-01 2.568367e-02 -3.324594e-01 -4.009821e-01 1.654554e-01 1.123484e+00 9.026323e-01 -3.686691e-03
<VARIANCE> 39
 3.112498e+00 3.542822e+00 1.662771e+01 4.418622e+01 3.930584e+01 1.199845e+01 2.235888e+01 2.028654e+01 7.069703e+00 1.042954e+01 2.168977e+01 2.289518e+01 5.000000e-02 4.555379e-01 2.911968e-01 1.559445e+00 1.684235e+00 6.620070e+00 1.723484e+00 2.757042e+00 3.042593e+00 5.332026e+00 1.278947e+00 3.060734e+00 2.820260e+00 5.000000e-02 5.000000e-02 1.173918e-01 5.000000e-02 3.142783e-01 9.836614e-01 3.493621e-01 9.020289e-01 4.781071e-01 3.508303e-01 1.357508e-01 7.199168e-01 2.013449e-01 5.000000e-02
<GCONST> 8.587749e+01
<STATE> 17
<MEAN> 39
 -3.447457e+00 -1.593053e+01 -1.352064e+01 -1.360427e+01 -2.273272e+00 -2.199646e+00 -8.240815e+00 4.971915e+00 1.745983e+00 1.749393e-02 -1.404287e+01 -8.765810e+00 8.407082e-01 2.021773e+00 -4.032491e-01 2.029053e+00 -2.394813e-01 -1.626406e+00 1.130454e+00 -2.001679e+00 -1.662830e+00 -1.871744e+00 8.829829e-01 1.586327e+00 9.038073e-01 -4.248085e-02 2.317577e-01 -1.362220e-01 4.562848e-01 1.618629e-01 -7.652423e-01 -4.107580e-01 5.203866e-01 3.205607e-01 2.806314e-01 -5.768979e-01 5.570778e-01 4.349122e-01 1.529457e-03
<VARIANCE> 39
 5.912866e+00 6.885497e+00 3.958678e+01 5.334502e+01 9.949261e+01 1.415656e+01 8.150297e+00 2.578646e+01 1.204852e+01 1.537532e+01 2.110458e+01 1.280348e+01 5.000000e-02 5.095828e-01 7.332028e-01 2.732956e+00 9.210597e-01 3.557119e+00 1.454029e+00 6.653437e+00 3.093228e+00 1.609587e+00 1.395270e+00 1.461531e+00 3.437251e+00 5.000000e-02 5.000000e-02 7.925820e-02 6.904728e-02 7.061446e-01 1.783506e+00 4.173075e-01 5.446324e-01 3.583014e-01 9.741488e-01 2.642032e-01 1.008715e+00 1.735060e-01 5.000000e-02
<GCONST> 9.091927e+01
<STATE> 18
<MEAN> 39
 -1.587365e-01 -1.824720e+01 -7.151926e+00 -1.524785e+01 -4.594269e+00 -1.861820e+00 -1.036944e+01 1.230547e+00 7.979465e-01 -4.768997e-01 -1.010840e+01 -6.631005e+00 7.568706e-01 1.946922e+00 -7.272242e-01 1.687910e+00 3.468165e-01 -2.494848e+00 7.362426e-01 -8.161118e-01 -1.231504e+00 -6.019691e-01 -1.463752e+00 1.573395e+00 8.366809e-01 -3.437857e-02 -1.554326e-01 1.787160e-01 -4.486946e-01 1.840517e-01 -3.585339e-01 -3.831884e-01 5.999741e-01 2.011109e-01 3.123954e-01 -7.069492e-01 6.528874e-02 -4.418617e-02 7.282383e-03
<VARIANCE> 39
 8.835402e+00 8.245568e+00 7.983873e+01 4.983030e+01 6.412778e+01 2.630769e+01 2.217749e+01 2.630761e+01 1.042638e+01 1.531500e+01 1.862137e+01 8.307302e+00 5.000000e-02 6.700595e-01 8.580888e-01 1.823744e+00 2.182068e+00 2.960623e+00 1.499585e+00 3.668303e+00 2.487062e+00 2.396238e+00 3.993882e+00 2.336049e+00 1.018914e+00 5.000000e-02 1.062202e-01 6.334464e-02 6.199492e-01 4.522507e-01 9.770938e-01 3.476883e-01 5.088957e-01 1.675914e-01 6.842147e-01 4.842887e-01 4.216015e-01 4.859265e-01 5.000000e-02
<GCONST> 9.433203e+01
<STATE> 19
<MEAN> 39
 2.673909e+00 -1.795736e+01 -7.915417e+00 -1.545345e+01 -8.556076e+00 -1.153491e+00 -1.038373e+01 1.640963e+00 6.659514e-03 -5.273905e+00 -9.456102e+00 -6.231259e+00 7.555142e-01 1.564035e+00 9.871107e-02 9.502578e-01 1.216422e-01 -2.069211e+00 -4.590678e-01 1.451984e-01 -1.177897e+00 -1.217036e+00 -1.172288e+00 1.944466e+00 2.710225e-01 -2.102634e-02 -1.937241e-01 3.220012e-01 -3.402833e-01 5.181490e-01 1.621104e-01 -1.663949e-01 6.097616e-01 1.399661e-01 4.946626e-01 1.355342e-01 2.659744e-03 -7.090746e-02 4.662158e-03
<VARIANCE> 39
 1.923733e+01 1.440751e+01 5.103609e+01 2.842772e+01 4.617612e+01 1.737012e+01 4.442502e+01 4.982421e+01 4.520167e+00 3.726133e+01 1.115173e+01 1.151086e+01 5.000000e-02 5.224047e-01 4.972872e-01 2.252346e+00 2.680040e+00 3.710994e+00 1.316482e+00 3.233868e+00 2.075371e+00 7.622471e-01 7.104998e-01 2.611028e+00 9.408427e-01 5.000000e-02 1.671704e-01 1.122851e-01 1.496622e-01 2.161522e-01 5.617767e-01 4.206457e-01 1.084009e+00 6.327627e-01 3.118791e-01 7.031599e-01 2.613705e-01 4.616318e-01 5.000000e-02
<GCONST> 9.133257e+01
<STATE> 20
<MEAN> 39
 3.032708e+00 -1.783084e+01 -7.240081e+00 -1.394642e+01 -1.135561e+01 -3.081161e+00 -1.058975e+01 -1.233768e+00 -2.211919e+00 -4.646112e+00 -5.039105e+00 -5.704197e+00 7.176819e-01 1.153211e+00 6.056569e-01 3.202680e-01 1.339228e+00 -1.798606e+00 2.108948e-01 6.393824e-01 -1.018866e+00 2.582746e-01 -2.362562e-01 1.447978e+00 7.254714e-01 -1.914768e-02 -1.123380e-01 7.187742e-02 -7.953221e-02 1.822414e-01 6.296499e-01 -4.598185e-02 7.125961e-01 1.404853e-01 7.293758e-01 2.222510e-01 -6.738695e-01 7.220135e-02 2.948571e-03
<VARIANCE> 39
 1.839623e+01 1.838997e+01 6.215787e+01 2.657926e+01 2.916544e+01 1.245337e+01 4.414721e+01 1.048792e+02 6.469511e+00 2.587342e+01 3.882782e+00 1.073830e+01 5.000000e-02 4.717651e-01 7.483944e-02 5.306903e-01 1.071693e+00 3.106535e+00 1.703817e+00 6.006860e-01 1.342860e-01 2.237725e+00 6.257612e-01 1.468046e+00 4.426263e-01 5.000000e-02 2.056662e-01 1.354000e-01 2.530136e-01 9.990165e-02 2.974424e-01 2.251116e-01 1.010662e+00 1.297172e+00 7.387288e-02 5.759261e-01 5.025622e-01 1.152330e-01 5.000000e-02
<GCONST> 7.855842e+01
<STATE> 21
<MEAN> 39
 4.842223e+00 -1.632150e+01 -8.082569e+00 -1.018442e+01 -1.357117e+01 -3.522436e-03 -7.722196e+00 -1.123938e+00 5.634430e-01 -5.200074e+00 -5.227720e+00 -5.533972e+00 7.145176e-01 1.344932e+00 2.323297e-01 7.176346e-01 1.078498e+00 -9.597687e-01 9.759489e-02 1.320623e+00 -7.412108e-01 8.281107e-01 -4.731298e-01 -1.800728e-01 9.584430e-01 -1.558415e-02 -1.784900e-01 -1.787795e-01 -6.879585e-02 -3.642352e-01 7.950858e-01 -4.631611e-01 2.848937e-01 1.117592e-01 2.509481e-01 -3.522100e-02 -7.800453e-01 -1.882279e-01 3.738947e-03
<VARIANCE> 39
 1.077583e+01 1.846524e+01 5.586141e+01 1.644221e+01 2.213770e+01 5.863053e+00 5.366946e+01 6.066453e+01 2.515763e+01 8.920803e+00 1.088709e+01 3.510312e+00 5.000000e-02 1.143898e+00 5.779884e-01 3.854506e-01 1.620505e+00 2.313690e+00 1.377074e+00 1.430845e+00 3.437560e+00 2.004386e+00 2.338372e+00 3.576897e+00 1.629736e+00 5.000000e-02 1.007282e-01 9.325672e-02 1.615771e-01 1.146889e-01 1.220339e-01 1.552773e-01 9.339576e-01 8.809045e-01 8.171660e-02 8.473152e-02 4.077985e-01 9.235939e-02 5.000000e-02
<GCONST> 8.092312e+01
<STATE> 22
<MEAN> 39
 6.451210e+00 -1.630516e+01 -5.823480e+00 -1.177563e+01 -1.182379e+01 -1.655161e+00 -7.621712e+00 -2.097330e+00 1.810635e+00 -6.128528e+00 -6.482480e+00 -2.783474e+00 6.831708e-01 7.751244e-01 1.637044e-01 -5.019274e-02 1.805420e-01 3.355615e-01 -1.258549e+00 8.281741e-01 -3.410393e-01 6.205696e-01 -7.248539e-01 -5.844789e-01 5.381431e-02 -1.181388e-02 -1.463332e-01 -1.194038e-01 -1.475656e-01 -1.002730e-01 2.601330e-01 -7.135583e-01 1.104302e-01 1.598240e-01 -2.647112e-01 -1.685159e-01 -1.871005e-03 -2.316469e-01 7.164897e-05
<VARIANCE> 39
 6.830376e+00 8.287709e+00 3.747517e+01 1.702656e+01 9.196383e+00 2.183390e+00 2.606388e+01 1.753567e+01 2.411605e+01 7.353851e+00 1.550921e+01 3.134632e+00 5.000000e-02 1.146980e+00 5.726169e-01 1.612221e+00 1.058478e+00 5.883124e-01 6.947458e-01 4.629444e+00 8.010275e+00 7.947179e-01 7.280427e-01 2.052321e+00 2.032457e-01 5.000000e-02 5.000000e-02 5.000000e-02 8.327293e-02 2.631283e-01 3.261718e-01 1.473455e-01 4.215415e-01 6.961213e-02 3.034916e-01 1.266446e-01 2.283226e-01 1.966701e-01 5.000000e-02
<GCONST> 7.004392e+01
<STATE> 23
<MEAN> 39
 7.734688e+00 -1.664557e+01 -7.009143e+00 -9.927681e+00 -1.311670e+01 -4.099668e+00 -4.037300e+00 -2.498957e+00 2.230007e+00 -6.328918e+00 -7.776579e+00 -4.851531e+00 6.804495e-01 8.146768e-01 -1.640957e-01 1.597295e-01 5.271398e-01 5.852153e-01 -2.197010e+00 2.034839e+00 -5.410949e-01 1.755657e-01 -9.078362e-01 2.259451e-01 -1.372308e-01 -1.377112e-02 -3.357385e-01 1.003465e-02 2.037951e-02 -1.208589e-01 2.595321e-01 -2.047711e-01 -7.290641e-03 2.040673e-01 -1.674734e-01 1.703519e-01 2.954513e-01 -1.360809e-02 -9.981220e-04
<VARIANCE> 39
 7.340372e+00 6.852915e+00 4.145319e+01 5.121640e+00 1.135419e+01 5.758073e+00 2.207145e+00 1.273275e+01 2.598724e+01 7.243020e+00 2.502355e+01 5.481370e+00 5.000000e-02 5.129362e-01 3.803248e-01 1.910278e+00 1.455431e+00 5.836071e-01 2.717749e-01 7.865865e+00 5.286933e+00 1.312780e+00 6.443020e-01 1.405587e+00 4.178453e-01 5.000000e-02 1.226930e-01 5.000000e-02 1.562246e-01 1.876223e-01 1.684946e-01 3.280635e-01 1.542884e-01 2.998705e-01 1.248777e-01 1.267913e-01 3.582772e-01 1.757076e-01 5.000000e-02
<GCONST> 6.871269e+01
<STATE> 24
<MEAN> 39
 7.383483e+00 -1.649524e+01 -7.083834e+00 -1.020914e+01 -1.088653e+01 -6.711228e+00 -4.274614e+00 -2.164211e+00 3.201605e+00 -8.394368e+00 -6.031773e+00 -4.066277e+00 6.529728e-01 1.556683e-01 9.167974e-02 3.853117e-01 5.113991e-01 2.498012e-01 -2.049550e+00 1.343441e+00 -7.804014e-02 1.841884e-01 -5.112360e-01 2.532122e-01 3.552669e-01 -1.671413e-02 -3.322626e-01 1.143340e-01 -5.254066e-02 -1.290373e-01 1.368867e-01 4.215843e-01 -4.021591e-01 3.379170e-01 2.566006e-02 4.546831e-01 1.501542e-01 5.110085e-02 -1.303548e-03
<VARIANCE> 39
 5.044613e+00 8.710900e+00 3.142314e+01 1.802867e+00 7.504509e+00 1.521342e+01 1.535154e+01 9.871557e+00 3.090285e+01 8.705134e+00 2.585776e+01 1.129047e+01 5.000000e-02 5.000000e-02 5.704950e-01 2.175610e+00 2.023367e+00 3.776744e-01 2.427170e+00 1.754468e+00 1.676394e+00 4.390671e-01 2.883279e-01 9.323220e-02 9.126006e-01 5.000000e-02 1.031521e-01 5.000000e-02 1.627341e-01 5.693940e-02 7.596996e-02 1.930802e-01 1.349298e+00 7.328994e-01 6.158464e-02 1.495656e-01 4.254560e-01 8.768872e-02 5.000000e-02
<GCONST> 6.376789e+01
<STATE> 25
<MEAN> 39
 8.194467e+00 -1.620223e+01 -7.004455e+00 -1.001178e+01 -1.179862e+01 -1.009794e+01 -1.936207e+00 -3.023403e+00 8.120386e-01 -7.535254e+00 -5.839310e+00 -3.126487e+00 6.536878e-01 -1.665937e-01 1.245518e-01 3.942831e-01 -1.445049e-01 6.641889e-01 -6.520500e-01 7.083390e-01 2.688495e-01 3.507912e-01 5.278544e-01 5.746546e-01 4.686189e-01 -1.830381e-02 -1.411246e-01 1.519948e-01 -2.342932e-01 -1.090989e-01 5.821330e-02 7.834613e-01 -4.011846e-01 -3.202076e-02 2.112977e-01 3.363165e-01 1.076439e-01 4.941329e-02 -2.097974e-03
<VARIANCE> 39
 5.880509e+00 4.587794e+00 9.854813e+00 3.412429e+00 1.976165e+00 1.779131e+01 2.573724e+00 1.362630e+01 3.088861e+01 7.844318e+00 1.591370e+01 1.952396e+01 5.000000e-02 5.908028e-02 3.779420e-01 9.032017e-01 6.679181e-01 1.707344e-01 9.238045e-01 7.768970e-01 1.106433e-01 4.000225e-01 8.348826e-01 7.426226e-01 3.137357e-01 5.000000e-02 5.000000e-02 5.000000e-02 1.874332e-01 2.583329e-01 6.645063e-02 2.528626e-01 2.504305e-01 2.949475e-01 1.040490e-01 1.186152e-01 1.537313e-01 2.798834e-01 5.000000e-02
<GCONST> 5.343337e+01
<STATE> 26
<MEAN> 39
 7.086381e+00 -1.566650e+01 -4.494608e+00 -9.383568e+00 -8.797502e+00 -8.761992e+00 -1.774107e+00 -1.031765e+00 4.209684e+00 -6.463474e+00 -5.830612e+00 -4.541828e+00 5.898599e-01 -2.092992e-01 3.900197e-01 -6.499627e-01 -1.512199e-01 7.004077e-01 4.229663e-01 7.142187e-02 -3.107351e-01 5.971246e-01 9.750327e-01 9.674476e-01 1.564176e-01 -2.288835e-02 -1.117552e-01 -2.396237e-03 -2.198906e-01 -9.593137e-02 -1.288257e-01 2.802410e-01 -3.442691e-01 -1.564019e-01 -1.867048e-01 -2.358373e-01 -9.927146e-02 4.914734e-02 -2.811988e-03
<VARIANCE> 39
 2.170504e+00 4.809847e+00 1.260334e+01 6.627327e+00 1.076543e+01 1.894462e+01 1.204756e+01 1.640576e+01 2.176429e+01 7.549072e+00 5.309773e+00 5.603929e-01 5.000000e-02 6.457041e-02 2.389230e-01 5.256214e-01 3.564674e-01 3.396837e-01 8.799864e-01 1.429606e+00 5.939198e-01 4.670078e-01 1.540549e+00 1.935672e+00 7.704665e-01 5.000000e-02 5.000000e-02 7.798488e-02 1.449907e-01 2.394998e-01 1.009603e-01 2.698124e-01 1.021291e-01 5.000000e-02 6.907806e-02 1.242815e-01 5.502656e-02 1.809573e-01 5.000000e-02
<GCONST> 5.195547e+01
<STATE> 27
<MEAN> 39
 6.487322e+00 -1.566217e+01 -8.084177e+00 -9.323520e+00 -9.272404e+00 -8.020185e+00 -1.684579e+00 -1.978600e+00 3.952998e+00 -6.650140e+00 -2.811233e+00 -1.606756e+00 5.729359e-01 -3.755650e-01 5.257640e-01 -7.523205e-01 -1.658448e-01 5.218526e-01 -1.129010e-01 -4.207560e-01 -2.617803e-01 -1.974306e-01 -2.387253e-01 1.847531e-01 2.247224e-01 -2.441738e-02 -2.211484e-02 2.522016e-01 2.260173e-01 2.223415e-01 1.113102e-01 -1.251954e-01 1.031603e-01 1.211066e-01 -4.242449e-01 -1.664532e-01 -1.749269e-01 -1.735226e-01 -2.788633e-03
<VARIANCE> 39
 4.050351e+00 4.015850e+00 9.798252e+00 2.697396e+00 5.094676e+00 6.980431e+00 1.756132e+01 7.623741e+00 1.965219e+01 9.065929e+00 5.940309e+00 4.375869e+00 5.000000e-02 5.000000e-02 2.862493e-01 2.589867e-01 1.024620e+00 4.969896e-01 1.079098e+00 5.740252e-01 2.835085e-01 1.416593e+00 5.750273e-01 7.246301e-01 2.274066e+00 5.000000e-02 5.000000e-02 5.000000e-02 2.172023e-01 6.854805e-02 1.516889e-01 7.156598e-02 3.342287e-01 3.279850e-01 6.682722e-02 3.074154e-01 1.134977e-01 1.166828e-01 5.000000e-02
<GCONST> 5.280298e+01
<STATE> 28
<MEAN> 39
 6.712972e+00 -1.415228e+01 -8.080263e+00 -1.137581e+01 -8.576825e+00 -7.723916e+00 -2.277339e+00 -3.019933e+00 3.333082e+00 -5.687474e+00 -4.795074e+00 -2.735753e+00 5.373986e-01 -3.628950e-01 9.440722e-01 1.390867e-01 3.407058e-01 5.256723e-01 -2.263714e-01 -8.061989e-02 1.716196e-01 -6.236596e-01 -5.517540e-01 -6.819219e-03 -3.185098e-01 -3.066073e-02 -1.564636e-01 2.694574e-01 3.412754e-01 3.836592e-01 1.235971e-01 -1.585818e-01 1.589887e-01 8.320721e-02 -3.880754e-01 -2.392270e-01 -1.339630e-01 -2.344088e-01 -5.871982e-03
<VARIANCE> 39
 7.415265e+00 1.380028e+01 6.418327e+00 5.940407e+00 1.043345e+00 1.007488e+01 3.300573e+00 1.320102e+01 1.143445e+01 7.505995e+00 4.123535e+00 1.812978e+01 5.000000e-02 2.535879e-01 2.609931e-01 9.626080e-01 9.824721e-01 1.120532e+00 6.936681e-01 7.422923e-01 1.053680e+00 9.105663e-01 7.274207e-01 1.712123e-01 5.847430e-01 5.000000e-02 5.000000e-02 5.000000e-02 1.545174e-01 5.000000e-02 5.942570e-02 1.890448e-01 1.780392e-01 8.464020e-02 2.851257e-01 1.411342e-01 2.300007e-01 3.137058e-01 5.000000e-02
<GCONST> 5.449008e+01
<STATE> 29
<MEAN> 39
 6.053925e+00 -1.317695e+01 -7.462358e+00 -8.599808e+00 -8.104110e+00 -1.072122e+01 -2.848233e+00 -2.653687e+00 6.794321e-01 -8.897631e+00 -3.754787e+00 -3.324456e+00 4.997554e-01 -5.604605e-01 1.427197e+00 7.012359e-01 1.233502e+00 1.133144e+00 1.840129e-01 7.959427e-01 3.273224e-01 -1.127033e+00 -2.199036e-01 6.813570e-02 -2.943057e-01 -3.858573e-02 -3.011175e-01 5.736389e-02 4.179966e-01 3.073886e-01 1.413580e-01 1.392684e-01 2.908966e-01 3.578760e-02 -1.827245e-02 1.388950e-01 -1.531783e-01 -8.834870e-02 -9.311878e-03
<VARIANCE> 39
 8.308011e+00 9.181735e+00 4.117414e+00 1.200050e+01 3.861151e+00 7.490593e+00 6.493884e-01 8.494123e+00 2.567995e+00 8.434710e+00 1.602416e+01 8.117208e+00 5.000000e-02 4.534872e-01 5.000000e-02 1.043562e+00 5.542992e-01 3.197523e-01 2.142802e+00 7.678772e-01 1.066183e+00 7.409747e-01 1.393894e+00 7.449222e-01 2.241315e-01 5.000000e-02 5.000000e-02 5.544079e-02 5.000000e-02 1.185815e-01 1.194136e-01 5.000000e-02 8.731989e-02 1.620703e-01 2.029172e-01 1.475439e-01 1.804700e-01 3.323032e-01 5.000000e-02
<GCONST> 5.055335e+01
<STATE> 30
<MEAN> 39
 3.766482e+00 -1.076829e+01 -5.436031e+00 -6.643091e+00 -5.270438e+00 -7.663116e+00 -5.902250e-01 -1.204604e+00 1.370654e+00 -6.003285e+00 -4.059359e+00 -3.248623e+00 4.031784e-01 -1.296081e+00 9.790825e-01 9.748895e-01 1.097597e+00 7.970175e-01 -2.688857e-01 5.958937e-01 2.839081e-02 -8.069086e-01 -4.012250e-01 -5.805591e-01 -4.752358e-01 -5.768346e-02 -1.944218e-01 -2.120005e-01 1.055960e-01 6.704922e-02 7.655396e-02 3.085973e-02 -5.376103e-03 9.361829e-02 3.169182e-01 1.943257e-01 2.058953e-01 2.327582e-02 -4.885773e-03
<VARIANCE> 39
 1.408251e+01 9.423940e+00 1.105960e+01 2.231931e+01 6.751209e+00 1.282727e+01 1.024292e+01 2.251997e+01 1.889138e+01 1.050570e+01 1.078447e+01 4.719229e+00 5.000000e-02 2.712063e-01 2.230491e-01 8.002450e-02 4.921016e-01 3.077223e-01 1.098712e+00 5.052687e-01 1.314550e+00 1.161017e+00 5.891457e-01 1.583495e+00 1.794255e+00 5.000000e-02 1.542773e-01 5.553776e-02 2.255767e-01 3.158276e-01 1.750397e-01 3.537113e-01 1.001717e-01 2.373373e-01 8.623530e-02 1.604888e-01 2.076938e-01 1.144021e-01 5.000000e-02
<GCONST> 6.339827e+01
<STATE> 31
<MEAN> 39
 3.031505e+00 -9.051212e+00 -5.230258e+00 -8.345000e+00 -5.699518e+00 -9.529825e+00 -5.806637e-01 -3.588975e+00 -2.474086e+00 -9.819578e+00 -5.710407e+00 -4.904773e+00 3.555768e-01 -1.405029e+00 6.496480e-01 1.396383e+00 1.662319e+00 1.406443e+00 6.434412e-02 4.677354e-01 1.582056e-01 -1.978626e-01 2.581915e-01 5.766500e-02 -5.627998e-01 -5.526727e-02 -1.063712e-01 -2.190134e-01 8.241540e-02 5.092029e-02 2.198523e-01 4.134368e-01 -1.549380e-01 2.239513e-01 6.085066e-01 4.739230e-01 2.960419e-01 7.304128e-02 -1.584418e-03
<VARIANCE> 39
 2.671747e+01 1.077295e+01 1.019701e+01 1.641839e+01 3.918970e-01 1.048385e+01 6.571376e+00 2.035924e+00 1.722477e+01 4.912411e+00 8.605932e+00 3.562022e+00 5.000000e-02 3.295395e-01 7.060542e-01 8.260235e-01 1.413937e+00 6.399581e-01 9.696419e-01 2.343929e-01 3.853265e-01 1.069235e+00 6.775599e-01 4.055514e-01 5.424801e-01 5.000000e-02 2.013038e-01 5.000000e-02 2.086346e-01 2.627334e-01 8.761751e-02 2.615786e-01 5.000000e-02 1.878128e-01 1.505909e-01 2.201671e-01 6.384031e-01 3.202613e-01 5.000000e-02
<GCONST> 5.837933e+01
<STATE> 32
<MEAN> 39
 5.761113e-01 -9.711761e+00 -2.502069e+00 -2.334132e+00 -2.258385e+00 -9.765712e+00 1.969980e-01 1.177990e-01 6.288194e-01 -5.680091e+00 -2.603691e+00 -4.284564e+00 2.580229e-01 -1.157848e+00 3.531252e-01 7.888915e-01 1.148103e+00 1.740400e+00 7.829399e-01 3.296237e-01 1.121420e+00 7.811860e-01 1.127147e+00 8.114898e-01 -1.703474e-01 -5.094437e-02 3.266380e-02 -9.144028e-02 -2.308893e-01 -4.512277e-01 -1.964075e-01 4.357150e-01 -1.842019e-01 4.593061e-02 4.216364e-01 1.362963e-01 1.888040e-01 1.862242e-01 3.184178e-03
<VARIANCE> 39
 7.484836e+00 6.241981e+00 5.342924e+00 2.938694e+00 6.676159e+00 7.766161e+00 1.108472e+01 6.503370e+00 1.282475e+01 1.268438e+01 1.915807e+01 1.481318e+01 5.000000e-02 6.962928e-01 3.796727e-01 1.337956e+00 1.108989e+00 1.012506e+00 9.201871e-01 3.481655e-01 3.143409e-01 9.517044e-02 1.279772e+00 2.825046e+00 9.856808e-01 5.000000e-02 7.343025e-02 8.524156e-02 1.412821e-01 5.000000e-02 1.625197e-01 1.271980e-01 5.000000e-02 1.225043e-01 2.652138e-01 4.791921e-01 2.741534e-01 2.015806e-01 5.000000e-02
<GCONST> 5.999464e+01
<STATE> 33
<MEAN> 39
 -9.636725e-01 -8.225842e+00 -1.336118e+00 -2.723120e+00 -5.008966e-01 -5.139881e+00 1.500774e+00 3.691953e-01 2.501124e+00 -4.956444e+00 -3.011836e+00 -6.077270e+00 1.969399e-01 -1.415225e+00 4.141594e-01 6.205324e-01 -1.345658e-02 1.014402e+00 1.708260e+00 -2.027463e-01 1.678934e-01 1.425287e+00 1.190716e+00 9.376737e-01 6.890508e-02 -5.156416e-02 5.477979e-02 -3.512872e-01 -3.760204e-01 -2.994468e-01 -3.682436e-01 -1.807350e-01 -7.552332e-02 -1.078549e-01 -5.384012e-02 -1.622549e-01 -9.226896e-03 4.395150e-01 3.241017e-03
<VARIANCE> 39
 4.930389e+00 5.992869e+00 7.281472e+00 4.942057e+00 1.389828e+01 5.315343e+00 4.175010e+00 1.115392e+01 1.578423e+01 8.861593e+00 1.180587e+01 1.269662e+01 5.000000e-02 8.262290e-01 3.150590e-01 1.034726e+00 9.943039e-01 3.190109e-01 2.711461e-01 5.913700e-01 7.942693e-01 1.531453e+00 1.827467e+00 1.403787e+00 4.579758e-01 5.000000e-02 6.199789e-02 1.148359e-01 2.249634e-01 1.593246e-01 2.454611e-01 8.185991e-02 1.008568e-01 1.161792e-01 2.550264e-01 2.556666e-01 4.099565e-01 1.174800e-01 5.000000e-02
<GCONST> 6.142866e+01
<STATE> 34
<MEAN> 39
 -2.553002e+00 -8.044487e+00 -1.340228e+00 -2.624118e+00 4.004800e-01 -5.469242e+00 -1.349874e+00 -1.028659e+00 1.924138e+00 -4.940733e+00 -2.779596e+00 -4.238892e+00 1.361904e-01 -1.174763e+00 -2.731342e-01 2.067447e-02 -1.175920e-01 -2.612461e-01 5.326685e-02 2.192156e-01 6.716458e-01 3.641390e-01 9.183848e-02 9.292370e-01 9.509680e-01 -5.256452e-02 1.944171e-01 -1.986816e-01 -1.798019e-01 -1.651467e-01 -3.758250e-01 -3.279974e-01 2.582934e-01 -1.204263e-01 -3.956051e-01 -1.172530e-01 6.563866e-02 2.139025e-01 5.272835e-03
<VARIANCE> 39
 1.510347e+00 3.952242e+00 4.800895e+00 8.455160e+00 5.512566e+00 4.335256e+00 5.062018e+00 5.645138e+00 3.871376e+01 1.237497e+01 2.434007e+01 1.038266e+01 5.000000e-02 2.951251e-01 9.852350e-01 1.149023e+00 2.807165e-01 1.282366e+00 3.931426e-01 5.807104e-01 1.261148e+00 1.281559e+00 2.058339e+00 1.869276e+00 5.046889e-01 5.000000e-02 5.171873e-02 5.000000e-02 1.375620e-01 1.661652e-01 1.574319e-01 5.000000e-02 9.617605e-02 1.134714e-01 5.618609e-01 4.321080e-01 3.593755e-01 9.945981e-02 5.000000e-02
<GCONST> 6.011396e+01
<STATE> 35
<MEAN> 39
 -4.362913e+00 -9.642057e+00 -2.264347e+00 -3.510624e+00 -9.511764e-01 -6.155998e+00 5.508420e-01 2.552150e+00 4.283046e+00 -4.762813e+00 -5.369527e-01 -3.094555e+00 6.330509e-02 -8.621398e-01 -5.350789e-01 3.294497e-02 2.275447e-01 -4.193107e-02 2.452868e-01 5.057702e-01 1.842118e-01 -2.101250e-01 2.920605e-01 9.050056e-01 1.091173e+00 -3.425270e-02 3.787403e-01 3.347833e-02 5.422136e-02 2.595618e-01 7.088614e-02 -6.792185e-02 1.236452e-01 -2.993758e-01 -3.856674e-01 -1.482904e-01 -2.412005e-01 -1.238268e-02 1.450771e-02
<VARIANCE> 39
 2.353834e+00 2.030296e+00 4.099018e+00 7.644045e+00 1.253266e+01 2.930218e+00 9.284474e+00 5.223172e+00 6.042496e+00 1.209368e+01 5.154144e+00 1.160775e+01 5.000000e-02 1.493477e-01 5.503206e-01 7.989234e-01 9.068215e-02 3.452026e-01 4.363246e-01 9.331686e-01 4.075857e-01 2.152538e+00 5.259354e-01 1.094029e+00 8.527340e-01 5.000000e-02 5.000000e-02 6.069424e-02 1.823191e-01 1.972973e-01 2.618530e-01 5.256424e-02 1.349377e-01 7.325448e-02 4.159309e-01 5.040407e-01 9.876065e-02 8.150521e-02 5.000000e-02
<GCONST> 5.122849e+01
<STATE> 36
<MEAN> 39
 -4.814306e+00 -9.706398e+00 -1.925490e+00 -3.381103e+00 -7.306497e-02 -5.311943e+00 2.535748e+00 1.928459e+00 2.628065e+00 -3.039682e+00 1.147396e+00 -1.358020e+00 3.769517e-02 -3.849512e-01 -2.725214e-01 2.656079e-02 2.445598e-01 2.161885e-01 3.110752e-01 6.583114e-01 8.128414e-02 -3.763026e-01 4.193135e-03 3.518434e-01 8.749565e-01 -1.619602e-02 3.354249e-01 1.576609e-01 9.259383e-02 1.943440e-01 9.656538e-02 2.711142e-02 -1.485408e-01 -3.998546e-01 -6.139942e-02 -1.369625e-01 -3.771687e-01 -3.789296e-01 1.476845e-02
<VARIANCE> 39
 1.294741e+00 1.682796e+00 4.287315e+00 5.916722e+00 9.846506e+00 8.707699e+00 2.172248e+01 2.039610e+01 7.560266e+00 1.101890e+00 9.273962e+00 6.849832e+00 5.000000e-02 8.167846e-02 1.174053e-01 4.453737e-01 1.120304e+00 9.470466e-01 9.093704e-01 1.002576e+00 5.477634e-01 4.044694e+00 1.051420e+00 1.049869e+00 2.045962e-01 5.000000e-02 5.000000e-02 7.999302e-02 1.768780e-01 5.000000e-02 2.045394e-01 1.272194e-01 7.804459e-02 2.237826e-01 3.902385e-01 7.339095e-02 3.068941e-01 1.200320e-01 5.000000e-02
<GCONST> 5.253685e+01
<TRANSP> 37
 0.000000e+00 1.000000e+00 0.000000e+00 0.000000e+00 0.000000e+00 0.000000e+00 0.000000e+00 0.000000e+00 0.000000e+00 0.000000e+00 0.000000e+00 0.000000e+00 0.000000e+00 0.000000e+00 0.000000e+00 0.000000e+00 0.000000e+00 0.000000e+00 0.000000e+00 0.000000e+00 0.000000e+00 0.000000e+00 0.000000e+00 0.000000e+00 0.000000e+00 0.000000e+00 0.000000e+00 0.000000e+00 0.000000e+00 0.000000e+00 0.000000e+00 0.000000e+00 0.000000e+00 0.000000e+00 0.000000e+00 0.000000e+00 0.000000e+00
 0.000000e+00 3.749789e-01 6.250211e-01 0.000000e+00 0.000000e+00 0.000000e+00 0.000000e+00 0.000000e+00 0.000000e+00 0.000000e+00 0.000000e+00 0.000000e+00 0.000000e+00 0.000000e+00 0.000000e+00 0.000000e+00 0.000000e+00 0.000000e+00 0.000000e+00 0.000000e+00 0.000000e+00 0.000000e+00 0.000000e+00 0.000000e+00 0.000000e+00 0.000000e+00 0.000000e+00 0.000000e+00 0.000000e+00 0.000000e+00 0.000000e+00 0.000000e+00 0.000000e+00 0.000000e+00 0.000000e+00 0.000000e+00 0.000000e+00
 0.000000e+00 0.000000e+00 1.666627e-01 8.333372e-01 0.000000e+00 0.000000e+00 0.000000e+00 0.000000e+00 0.000000e+00 0.000000e+00 0.000000e+00 0.000000e+00 0.000000e+00 0.000000e+00 0.000000e+00 0.000000e+00 0.000000e+00 0.000000e+00 0.000000e+00 0.000000e+00 0.000000e+00 0.000000e+00 0.000000e+00 0.000000e+00 0.000000e+00 0.000000e+00 0.000000e+00 0.000000e+00 0.000000e+00 0.000000e+00 0.000000e+00 0.000000e+00 0.000000e+00 0.000000e+00 0.000000e+00 0.000000e+00 0.000000e+00
 0.000000e+00 0.000000e+00 0.000000e+00 4.999060e-01 5.000939e-01 0.000000e+00 0.000000e+00 0.000000e+00 0.000000e+00 0.000000e+00 0.000000e+00 0.000000e+00 0.000000e+00 0.000000e+00 0.000000e+00 0.000000e+00 0.000000e+00 0.000000e+00 0.000000e+00 0.000000e+00 0.000000e+00 0.000000e+00 0.000000e+00 0.000000e+00 0.000000e+00 0.000000e+00 0.000000e+00 0.000000e+00 0.000000e+00 0.000000e+00 0.000000e+00 0.000000e+00 0.000000e+00 0.000000e+00 0.000000e+00 0.000000e+00 0.000000e+00
 0.000000e+00 0.000000e+00 0.000000e+00 0.000000e+00 2.859197e-01 7.140803e-01 0.000000e+00 0.000000e+00 0.000000e+00 0.000000e+00 0.000000e+00 0.000000e+00 0.000000e+00 0.000000e+00 0.000000e+00 0.000000e+00 0.000000e+00 0.000000e+00 0.000000e+00 0.000000e+00 0.000000e+00 0.000000e+00 0.000000e+00 0.000000e+00 0.000000e+00 0.000000e+00 0.000000e+00 0.000000e+00 0.000000e+00 0.000000e+00 0.000000e+00 0.000000e+00 0.000000e+00 0.000000e+00 0.000000e+00 0.000000e+00 0.000000e+00
 0.000000e+00 0.000000e+00 0.000000e+00 0.000000e+00 0.000000e+00 3.749931e-01 6.250069e-01 0.000000e+00 0.000000e+00 0.000000e+00 0.000000e+00 0.000000e+00 0.000000e+00 0.000000e+00 0.000000e+00 0.000000e+00 0.000000e+00 0.000000e+00 0.000000e+00 0.000000e+00 0.000000e+00 0.000000e+00 0.000000e+00 0.000000e+00 0.000000e+00 0.000000e+00 0.000000e+00 0.000000e+00 0.000000e+00 0.000000e+00 0.000000e+00 0.000000e+00 0.000000e+00 0.000000e+00 0.000000e+00 0.000000e+00 0.000000e+00
 0.000000e+00 0.000000e+00 0.000000e+00 0.000000e+00 0.000000e+00 0.000000e+00 1.667464e-01 8.332536e-01 0.000000e+00 0.000000e+00 0.000000e+00 0.000000e+00 0.000000e+00 0.000000e+00 0.000000e+00 0.000000e+00 0.000000e+00 0.000000e+00 0.000000e+00 0.000000e+00 0.000000e+00 0.000000e+00 0.000000e+00 0.000000e+00 0.000000e+00 0.000000e+00 0.000000e+00 0.000000e+00 0.000000e+00 0.000000e+00 0.000000e+00 0.000000e+00 0.000000e+00 0.000000e+00 0.000000e+00 0.000000e+00 0.000000e+00
 0.000000e+00 0.000000e+00 0.000000e+00 0.000000e+00 0.000000e+00 0.000000e+00 0.000000e+00 1.667150e-01 8.332849e-01 0.000000e+00 0.000000e+00 0.000000e+00 0.000000e+00 0.000000e+00 0.000000e+00 0.000000e+00 0.000000e+00 0.000000e+00 0.000000e+00 0.000000e+00 0.000000e+00 0.000000e+00 0.000000e+00 0.000000e+00 0.000000e+00 0.000000e+00 0.000000e+00 0.000000e+00 0.000000e+00 0.000000e+00 0.000000e+00 0.000000e+00 0.000000e+00 0.000000e+00 0.000000e+00 0.000000e+00 0.000000e+00
 0.000000e+00 0.000000e+00 0.000000e+00 0.000000e+00 0.000000e+00 0.000000e+00 0.000000e+00 0.000000e+00 1.665377e-01 8.334623e-01 0.000000e+00 0.000000e+00 0.000000e+00 0.000000e+00 0.000000e+00 0.000000e+00 0.000000e+00 0.000000e+00 0.000000e+00 0.000000e+00 0.000000e+00 0.000000e+00 0.000000e+00 0.000000e+00 0.000000e+00 0.000000e+00 0.000000e+00 0.000000e+00 0.000000e+00 0.000000e+00 0.000000e+00 0.000000e+00 0.000000e+00 0.000000e+00 0.000000e+00 0.000000e+00 0.000000e+00
 0.000000e+00 0.000000e+00 0.000000e+00 0.000000e+00 0.000000e+00 0.000000e+00 0.000000e+00 0.000000e+00 0.000000e+00 1.666644e-01 8.333356e-01 0.000000e+00 0.000000e+00 0.000000e+00 0.000000e+00 0.000000e+00 0.000000e+00 0.000000e+00 0.000000e+00 0.000000e+00 0.000000e+00 0.000000e+00 0.000000e+00 0.000000e+00 0.000000e+00 0.000000e+00 0.000000e+00 0.000000e+00 0.000000e+00 0.000000e+00 0.000000e+00 0.000000e+00 0.000000e+00 0.000000e+00 0.000000e+00 0.000000e+00 0.000000e+00
 0.000000e+00 0.000000e+00 0.000000e+00 0.000000e+00 0.000000e+00 0.000000e+00 0.000000e+00 0.000000e+00 0.000000e+00 0.000000e+00 2.857138e-01 7.142861e-01 0.000000e+00 0.000000e+00 0.000000e+00 0.000000e+00 0.000000e+00 0.000000e+00 0.000000e+00 0.000000e+00 0.000000e+00 0.000000e+00 0.000000e+00 0.000000e+00 0.000000e+00 0.000000e+00 0.000000e+00 0.000000e+00 0.000000e+00 0.000000e+00 0.000000e+00 0.000000e+00 0.000000e+00 0.000000e+00 0.000000e+00 0.000000e+00 0.000000e+00
 0.000000e+00 0.000000e+00 0.000000e+00 0.000000e+00 0.000000e+00 0.000000e+00 0.000000e+00 0.000000e+00 0.000000e+00 0.000000e+00 0.000000e+00 0.000000e+00 1.000000e+00 0.000000e+00 0.000000e+00 0.000000e+00 0.000000e+00 0.000000e+00 0.000000e+00 0.000000e+00 0.000000e+00 0.000000e+00 0.000000e+00 0.000000e+00 0.000000e+00 0.000000e+00 0.000000e+00 0.000000e+00 0.000000e+00 0.000000e+00 0.000000e+00 0.000000e+00 0.000000e+00 0.000000e+00 0.000000e+00 0.000000e+00 0.000000e+00
 0.000000e+00 0.000000e+00 0.000000e+00 0.000000e+00 0.000000e+00 0.000000e+00 0.000000e+00 0.000000e+00 0.000000e+00 0.000000e+00 0.000000e+00 0.000000e+00 2.859719e-01 7.140281e-01 0.000000e+00 0.000000e+00 0.000000e+00 0.000000e+00 0.000000e+00 0.000000e+00 0.000000e+00 0.000000e+00 0.000000e+00 0.000000e+00 0.000000e+00 0.000000e+00 0.000000e+00 0.000000e+00 0.000000e+00 0.000000e+00 0.000000e+00 0.000000e+00 0.000000e+00 0.000000e+00 0.000000e+00 0.000000e+00 0.000000e+00
 0.000000e+00 0.000000e+00 0.000000e+00 0.000000e+00 0.000000e+00 0.000000e+00 0.000000e+00 0.000000e+00 0.000000e+00 0.000000e+00 0.000000e+00 0.000000e+00 0.000000e+00 4.442906e-01 5.557094e-01 0.000000e+00 0.000000e+00 0.000000e+00 0.000000e+00 0.000000e+00 0.000000e+00 0.000000e+00 0.000000e+00 0.000000e+00 0.000000e+00 0.000000e+00 0.000000e+00 0.000000e+00 0.000000e+00 0.000000e+00 0.000000e+00 0.000000e+00 0.000000e+00 0.000000e+00 0.000000e+00 0.000000e+00 0.000000e+00
 0.000000e+00 0.000000e+00 0.000000e+00 0.000000e+00 0.000000e+00 0.000000e+00 0.000000e+00 0.000000e+00 0.000000e+00 0.000000e+00 0.000000e+00 0.000000e+00 0.000000e+00 0.000000e+00 2.857054e-01 7.142946e-01 0.000000e+00 0.000000e+00 0.000000e+00 0.000000e+00 0.000000e+00 0.000000e+00 0.000000e+00 0.000000e+00 0.000000e+00 0.000000e+00 0.000000e+00 0.000000e+00 0.000000e+00 0.000000e+00 0.000000e+00 0.000000e+00 0.000000e+00 0.000000e+00 0.000000e+00 0.000000e+00 0.000000e+00
 0.000000e+00 0.000000e+00 0.000000e+00 0.000000e+00 0.000000e+00 0.000000e+00 0.000000e+00 0.000000e+00 0.000000e+00 0.000000e+00 0.000000e+00 0.000000e+00 0.000000e+00 0.000000e+00 0.000000e+00 3.750025e-01 6.249975e-01 0.000000e+00 0.000000e+00 0.000000e+00 0.000000e+00 0.000000e+00 0.000000e+00 0.000000e+00 0.000000e+00 0.000000e+00 0.000000e+00 0.000000e+00 0.000000e+00 0.000000e+00 0.000000e+00 0.000000e+00 0.000000e+00 0.000000e+00 0.000000e+00 0.000000e+00 0.000000e+00
 0.000000e+00 0.000000e+00 0.000000e+00 0.000000e+00 0.000000e+00 0.000000e+00 0.000000e+00 0.000000e+00 0.000000e+00 0.000000e+00 0.000000e+00 0.000000e+00 0.000000e+00 0.000000e+00 0.000000e+00 0.000000e+00 4.568031e-09 1.000000e+00 0.000000e+00 0.000000e+00 0.000000e+00 0.000000e+00 0.000000e+00 0.000000e+00 0.000000e+00 0.000000e+00 0.000000e+00 0.000000e+00 0.000000e+00 0.000000e+00 0.000000e+00 0.000000e+00 0.000000e+00 0.000000e+00 0.000000e+00 0.000000e+00 0.000000e+00
 0.000000e+00 0.000000e+00 0.000000e+00 0.000000e+00 0.000000e+00 0.000000e+00 0.000000e+00 0.000000e+00 0.000000e+00 0.000000e+00 0.000000e+00 0.000000e+00 0.000000e+00 0.000000e+00 0.000000e+00 0.000000e+00 0.000000e+00 2.856736e-01 7.143264e-01 0.000000e+00 0.000000e+00 0.000000e+00 0.000000e+00 0.000000e+00 0.000000e+00 0.000000e+00 0.000000e+00 0.000000e+00 0.000000e+00 0.000000e+00 0.000000e+00 0.000000e+00 0.000000e+00 0.000000e+00 0.000000e+00 0.000000e+00 0.000000e+00
 0.000000e+00 0.000000e+00 0.000000e+00 0.000000e+00 0.000000e+00 0.000000e+00 0.000000e+00 0.000000e+00 0.000000e+00 0.000000e+00 0.000000e+00 0.000000e+00 0.000000e+00 0.000000e+00 0.000000e+00 0.000000e+00 0.000000e+00 0.000000e+00 1.667313e-01 8.332688e-01 0.000000e+00 0.000000e+00 0.000000e+00 0.000000e+00 0.000000e+00 0.000000e+00 0.000000e+00 0.000000e+00 0.000000e+00 0.000000e+00 0.000000e+00 0.000000e+00 0.000000e+00 0.000000e+00 0.000000e+00 0.000000e+00 0.000000e+00
 0.000000e+00 0.000000e+00 0.000000e+00 0.000000e+00 0.000000e+00 0.000000e+00 0.000000e+00 0.000000e+00 0.000000e+00 0.000000e+00 0.000000e+00 0.000000e+00 0.000000e+00 0.000000e+00 0.000000e+00 0.000000e+00 0.000000e+00 0.000000e+00 0.000000e+00 1.662586e-01 8.337414e-01 0.000000e+00 0.000000e+00 0.000000e+00 0.000000e+00 0.000000e+00 0.000000e+00 0.000000e+00 0.000000e+00 0.000000e+00 0.000000e+00 0.000000e+00 0.000000e+00 0.000000e+00 0.000000e+00 0.000000e+00 0.000000e+00
 0.000000e+00 0.000000e+00 0.000000e+00 0.000000e+00 0.000000e+00 0.000000e+00 0.000000e+00 0.000000e+00 0.000000e+00 0.000000e+00 0.000000e+00 0.000000e+00 0.000000e+00 0.000000e+00 0.000000e+00 0.000000e+00 0.000000e+00 0.000000e+00 0.000000e+00 0.000000e+00 2.859409e-01 7.140591e-01 0.000000e+00 0.000000e+00 0.000000e+00 0.000000e+00 0.000000e+00 0.000000e+00 0.000000e+00 0.000000e+00 0.000000e+00 0.000000e+00 0.000000e+00 0.000000e+00 0.000000e+00 0.000000e+00 0.000000e+00
 0.000000e+00 0.000000e+00 0.000000e+00 0.000000e+00 0.000000e+00 0.000000e+00 0.000000e+00 0.000000e+00 0.000000e+00 0.000000e+00 0.000000e+00 0.000000e+00 0.000000e+00 0.000000e+00 0.000000e+00 0.000000e+00 0.000000e+00 0.000000e+00 0.000000e+00 0.000000e+00 0.000000e+00 2.857862e-01 7.142138e-01 0.000000e+00 0.000000e+00 0.000000e+00 0.000000e+00 0.000000e+00 0.000000e+00 0.000000e+00 0.000000e+00 0.000000e+00 0.000000e+00 0.000000e+00 0.000000e+00 0.000000e+00 0.000000e+00
 0.000000e+00 0.000000e+00 0.000000e+00 0.000000e+00 0.000000e+00 0.000000e+00 0.000000e+00 0.000000e+00 0.000000e+00 0.000000e+00 0.000000e+00 0.000000e+00 0.000000e+00 0.000000e+00 0.000000e+00 0.000000e+00 0.000000e+00 0.000000e+00 0.000000e+00 0.000000e+00 0.000000e+00 0.000000e+00 0.000000e+00 1.000000e+00 0.000000e+00 0.000000e+00 0.000000e+00 0.000000e+00 0.000000e+00 0.000000e+00 0.000000e+00 0.000000e+00 0.000000e+00 0.000000e+00 0.000000e+00 0.000000e+00 0.000000e+00
 0.000000e+00 0.000000e+00 0.000000e+00 0.000000e+00 0.000000e+00 0.000000e+00 0.000000e+00 0.000000e+00 0.000000e+00 0.000000e+00 0.000000e+00 0.000000e+00 0.000000e+00 0.000000e+00 0.000000e+00 0.000000e+00 0.000000e+00 0.000000e+00 0.000000e+00 0.000000e+00 0.000000e+00 0.000000e+00 0.000000e+00 2.857163e-01 7.142836e-01 0.000000e+00 0.000000e+00 0.000000e+00 0.000000e+00 0.000000e+00 0.000000e+00 0.000000e+00 0.000000e+00 0.000000e+00 0.000000e+00 0.000000e+00 0.000000e+00
 0.000000e+00 0.000000e+00 0.000000e+00 0.000000e+00 0.000000e+00 0.000000e+00 0.000000e+00 0.000000e+00 0.000000e+00 0.000000e+00 0.000000e+00 0.000000e+00 0.000000e+00 0.000000e+00 0.000000e+00 0.000000e+00 0.000000e+00 0.000000e+00 0.000000e+00 0.000000e+00 0.000000e+00 0.000000e+00 0.000000e+00 0.000000e+00 2.857145e-01 7.142856e-01 0.000000e+00 0.000000e+00 0.000000e+00 0.000000e+00 0.000000e+00 0.000000e+00 0.000000e+00 0.000000e+00 0.000000e+00 0.000000e+00 0.000000e+00
 0.000000e+00 0.000000e+00 0.000000e+00 0.000000e+00 0.000000e+00 0.000000e+00 0.000000e+00 0.000000e+00 0.000000e+00 0.000000e+00 0.000000e+00 0.000000e+00 0.000000e+00 0.000000e+00 0.000000e+00 0.000000e+00 0.000000e+00 0.000000e+00 0.000000e+00 0.000000e+00 0.000000e+00 0.000000e+00 0.000000e+00 0.000000e+00 0.000000e+00 2.850245e-01 7.149755e-01 0.000000e+00 0.000000e+00 0.000000e+00 0.000000e+00 0.000000e+00 0.000000e+00 0.000000e+00 0.000000e+00 0.000000e+00 0.000000e+00
 0.000000e+00 0.000000e+00 0.000000e+00 0.000000e+00 0.000000e+00 0.000000e+00 0.000000e+00 0.000000e+00 0.000000e+00 0.000000e+00 0.000000e+00 0.000000e+00 0.000000e+00 0.000000e+00 0.000000e+00 0.000000e+00 0.000000e+00 0.000000e+00 0.000000e+00 0.000000e+00 0.000000e+00 0.000000e+00 0.000000e+00 0.000000e+00 0.000000e+00 0.000000e+00 2.869101e-01 7.130899e-01 0.000000e+00 0.000000e+00 0.000000e+00 0.000000e+00 0.000000e+00 0.000000e+00 0.000000e+00 0.000000e+00 0.000000e+00
 0.000000e+00 0.000000e+00 0.000000e+00 0.000000e+00 0.000000e+00 0.000000e+00 0.000000e+00 0.000000e+00 0.000000e+00 0.000000e+00 0.000000e+00 0.000000e+00 0.000000e+00 0.000000e+00 0.000000e+00 0.000000e+00 0.000000e+00 0.000000e+00 0.000000e+00 0.000000e+00 0.000000e+00 0.000000e+00 0.000000e+00 0.000000e+00 0.000000e+00 0.000000e+00 0.000000e+00 3.746094e-01 6.253906e-01 0.000000e+00 0.000000e+00 0.000000e+00 0.000000e+00 0.000000e+00 0.000000e+00 0.000000e+00 0.000000e+00
 0.000000e+00 0.000000e+00 0.000000e+00 0.000000e+00 0.000000e+00 0.000000e+00 0.000000e+00 0.000000e+00 0.000000e+00 0.000000e+00 0.000000e+00 0.000000e+00 0.000000e+00 0.000000e+00 0.000000e+00 0.000000e+00 0.000000e+00 0.000000e+00 0.000000e+00 0.000000e+00 0.000000e+00 0.000000e+00 0.000000e+00 0.000000e+00 0.000000e+00 0.000000e+00 0.000000e+00 0.000000e+00 0.000000e+00 1.000000e+00 0.000000e+00 0.000000e+00 0.000000e+00 0.000000e+00 0.000000e+00 0.000000e+00 0.000000e+00
 0.000000e+00 0.000000e+00 0.000000e+00 0.000000e+00 0.000000e+00 0.000000e+00 0.000000e+00 0.000000e+00 0.000000e+00 0.000000e+00 0.000000e+00 0.000000e+00 0.000000e+00 0.000000e+00 0.000000e+00 0.000000e+00 0.000000e+00 0.000000e+00 0.000000e+00 0.000000e+00 0.000000e+00 0.000000e+00 0.000000e+00 0.000000e+00 0.000000e+00 0.000000e+00 0.000000e+00 0.000000e+00 0.000000e+00 3.749317e-01 6.250682e-01 0.000000e+00 0.000000e+00 0.000000e+00 0.000000e+00 0.000000e+00 0.000000e+00
 0.000000e+00 0.000000e+00 0.000000e+00 0.000000e+00 0.000000e+00 0.000000e+00 0.000000e+00 0.000000e+00 0.000000e+00 0.000000e+00 0.000000e+00 0.000000e+00 0.000000e+00 0.000000e+00 0.000000e+00 0.000000e+00 0.000000e+00 0.000000e+00 0.000000e+00 0.000000e+00 0.000000e+00 0.000000e+00 0.000000e+00 0.000000e+00 0.000000e+00 0.000000e+00 0.000000e+00 0.000000e+00 0.000000e+00 0.000000e+00 1.667897e-01 8.332103e-01 0.000000e+00 0.000000e+00 0.000000e+00 0.000000e+00 0.000000e+00
 0.000000e+00 0.000000e+00 0.000000e+00 0.000000e+00 0.000000e+00 0.000000e+00 0.000000e+00 0.000000e+00 0.000000e+00 0.000000e+00 0.000000e+00 0.000000e+00 0.000000e+00 0.000000e+00 0.000000e+00 0.000000e+00 0.000000e+00 0.000000e+00 0.000000e+00 0.000000e+00 0.000000e+00 0.000000e+00 0.000000e+00 0.000000e+00 0.000000e+00 0.000000e+00 0.000000e+00 0.000000e+00 0.000000e+00 0.000000e+00 0.000000e+00 2.857146e-01 7.142854e-01 0.000000e+00 0.000000e+00 0.000000e+00 0.000000e+00
 0.000000e+00 0.000000e+00 0.000000e+00 0.000000e+00 0.000000e+00 0.000000e+00 0.000000e+00 0.000000e+00 0.000000e+00 0.000000e+00 0.000000e+00 0.000000e+00 0.000000e+00 0.000000e+00 0.000000e+00 0.000000e+00 0.000000e+00 0.000000e+00 0.000000e+00 0.000000e+00 0.000000e+00 0.000000e+00 0.000000e+00 0.000000e+00 0.000000e+00 0.000000e+00 0.000000e+00 0.000000e+00 0.000000e+00 0.000000e+00 0.000000e+00 0.000000e+00 2.857098e-01 7.142902e-01 0.000000e+00 0.000000e+00 0.000000e+00
 0.000000e+00 0.000000e+00 0.000000e+00 0.000000e+00 0.000000e+00 0.000000e+00 0.000000e+00 0.000000e+00 0.000000e+00 0.000000e+00 0.000000e+00 0.000000e+00 0.000000e+00 0.000000e+00 0.000000e+00 0.000000e+00 0.000000e+00 0.000000e+00 0.000000e+00 0.000000e+00 0.000000e+00 0.000000e+00 0.000000e+00 0.000000e+00 0.000000e+00 0.000000e+00 0.000000e+00 0.000000e+00 0.000000e+00 0.000000e+00 0.000000e+00 0.000000e+00 0.000000e+00 2.857188e-01 7.142812e-01 0.000000e+00 0.000000e+00
 0.000000e+00 0.000000e+00 0.000000e+00 0.000000e+00 0.000000e+00 0.000000e+00 0.000000e+00 0.000000e+00 0.000000e+00 0.000000e+00 0.000000e+00 0.000000e+00 0.000000e+00 0.000000e+00 0.000000e+00 0.000000e+00 0.000000e+00 0.000000e+00 0.000000e+00 0.000000e+00 0.000000e+00 0.000000e+00 0.000000e+00 0.000000e+00 0.000000e+00 0.000000e+00 0.000000e+00 0.000000e+00 0.000000e+00 0.000000e+00 0.000000e+00 0.000000e+00 0.000000e+00 0.000000e+00 0.000000e+00 1.000000e+00 0.000000e+00
 0.000000e+00 0.000000e+00 0.000000e+00 0.000000e+00 0.000000e+00 0.000000e+00 0.000000e+00 0.000000e+00 0.000000e+00 0.000000e+00 0.000000e+00 0.000000e+00 0.000000e+00 0.000000e+00 0.000000e+00 0.000000e+00 0.000000e+00 0.000000e+00 0.000000e+00 0.000000e+00 0.000000e+00 0.000000e+00 0.000000e+00 0.000000e+00 0.000000e+00 0.000000e+00 0.000000e+00 0.000000e+00 0.000000e+00 0.000000e+00 0.000000e+00 0.000000e+00 0.000000e+00 0.000000e+00 0.000000e+00 0.000000e+00 1.000000e+00
 0.000000e+00 0.000000e+00 0.000000e+00 0.000000e+00 0.000000e+00 0.000000e+00 0.000000e+00 0.000000e+00 0.000000e+00 0.000000e+00 0.000000e+00 0.000000e+00 0.000000e+00 0.000000e+00 0.000000e+00 0.000000e+00 0.000000e+00 0.000000e+00 0.000000e+00 0.000000e+00 0.000000e+00 0.000000e+00 0.000000e+00 0.000000e+00 0.000000e+00 0.000000e+00 0.000000e+00 0.000000e+00 0.000000e+00 0.000000e+00 0.000000e+00 0.000000e+00 0.000000e+00 0.000000e+00 0.000000e+00 0.000000e+00 0.000000e+00
<ENDHMM>
