~o
<STREAMINFO> 1 39
<VECSIZE> 39<NULLD><MFCC_E_D_A><DIAGC>
~h "Giam"
<BEGINHMM>
<NUMSTATES> 28
<STATE> 2
<MEAN> 39
 -6.232249e+00 -8.964544e+00 6.475233e-01 -2.918529e+00 3.299832e-01 5.841097e-02 2.768066e+00 -1.941025e+00 2.942001e+00 -2.714824e+00 1.167675e+00 -7.516096e-01 1.164065e-02 5.565153e-01 1.410849e-01 -2.890767e-01 -1.464334e+00 -1.318982e+00 -3.032891e-01 -1.030306e+00 -5.810091e-01 -2.519160e-01 -2.852279e-01 -1.209370e+00 -5.477675e-01 3.829410e-02 4.091806e-01 8.876676e-02 -2.179374e-01 -8.655883e-01 -6.741425e-01 -6.495788e-01 -5.457931e-01 -1.529118e-01 -1.388038e-01 -4.255728e-01 -5.936843e-01 -1.673754e-01 2.792680e-02
<VARIANCE> 39
 2.639561e+00 3.823217e+00 1.772189e+00 1.769654e+01 2.661040e+01 1.228318e+01 3.462118e+00 4.233327e+00 1.928868e+01 8.081681e+00 7.486277e+00 8.147008e+00 5.000000e-02 8.438742e-01 4.169544e-01 1.374375e+00 4.487492e+00 3.719862e+00 1.996506e+00 1.304659e+00 1.152961e+00 1.858396e+00 1.926150e+00 1.419859e+00 7.177153e-01 5.000000e-02 1.552800e-01 1.093860e-01 1.826565e-01 7.292470e-01 5.588034e-01 1.835424e-01 2.603566e-01 2.282574e-01 1.937915e-01 2.726686e-01 1.866674e-01 1.207841e-01 5.000000e-02
<GCONST> 7.263956e+01
<STATE> 3
<MEAN> 39
 -1.076119e-01 -6.654662e+00 -1.786563e+00 -8.209879e+00 -5.629072e+00 -7.703216e+00 -2.864027e+00 -4.708342e+00 -3.344916e+00 -8.027454e+00 -5.518638e+00 -5.453083e+00 2.753540e-01 2.002181e+00 4.302466e-01 -9.237738e-01 -3.052482e+00 -1.770216e+00 -2.627567e+00 -1.364529e+00 -3.852510e-01 -1.154506e+00 -1.847734e+00 -1.707637e+00 -5.965309e-01 1.276064e-01 -7.100262e-01 -1.780728e-01 4.943102e-02 -6.171412e-01 3.322770e-02 -1.277115e-01 9.635282e-02 1.753585e-01 8.153572e-01 9.014443e-01 9.282214e-01 5.659087e-01 1.280682e-02
<VARIANCE> 39
 3.470891e+01 3.040419e+00 1.913199e+01 1.718339e+01 1.441512e+01 3.553469e+01 7.273983e+00 3.993202e+00 3.112969e+01 2.124908e+01 1.301299e+01 7.562862e+00 5.026301e-02 2.348346e+00 4.861932e-01 6.113727e-01 5.470116e+00 2.567924e+00 3.584034e-01 3.376267e+00 1.080596e+00 1.736381e+00 1.593864e+00 1.105423e+00 8.617936e-01 5.000000e-02 6.680854e-01 1.657284e-01 2.893515e-01 7.695786e-01 2.204467e-01 2.644387e-01 4.137907e-01 1.270887e-01 3.250011e-01 8.736042e-01 6.012034e-01 1.009518e-01 5.000000e-02
<GCONST> 8.381021e+01
<STATE> 4
<MEAN> 39
 -1.265387e+00 -7.090373e+00 -1.945490e+00 -1.809232e+01 -7.269983e+00 -8.691934e+00 -6.034223e+00 -3.607630e+00 1.501050e+00 -7.326796e+00 -4.827216e+00 -1.477637e+00 5.110368e-01 -1.468034e+00 -3.704970e-01 -1.282169e-01 -3.306059e+00 -1.799491e+00 -1.099632e+00 -1.420836e+00 -3.360281e-01 1.996880e+00 2.309401e+00 1.674120e+00 1.344506e+00 1.320076e-01 -9.562687e-01 -3.702358e-01 5.185231e-02 9.978867e-01 -2.203769e-01 6.339868e-01 8.227664e-01 -3.623078e-03 5.412769e-01 1.042940e+00 8.676705e-01 8.414697e-02 -9.774749e-03
<VARIANCE> 39
 3.916418e+01 5.051147e+00 1.173041e+01 5.368414e+01 1.431898e+01 2.041190e+01 3.434603e+01 1.284637e+01 3.069497e+01 2.686580e+01 1.065404e+01 5.429130e+00 5.000000e-02 2.540533e+00 7.876238e-01 8.367706e-01 2.952249e+00 6.287825e-01 1.245685e+00 2.755539e+00 6.812564e-01 1.399081e+00 4.197888e+00 3.281659e+00 3.911824e-01 5.000000e-02 3.952441e-01 8.374604e-02 2.318513e-01 8.599257e-01 3.311308e-01 1.350688e-01 4.794924e-01 3.236291e-01 4.259946e-01 6.052316e-01 3.621266e-01 2.608067e-01 5.000000e-02
<GCONST> 8.725986e+01
<STATE> 5
<MEAN> 39
 -7.022195e+00 -8.327134e+00 -2.358438e+00 -2.111741e+01 -1.546430e+01 -1.076459e+01 -6.963733e+00 -6.608068e+00 6.531079e+00 2.212526e+00 2.954364e+00 2.105433e+00 7.793205e-01 -2.422814e+00 -1.397540e+00 -8.680866e-01 -4.686489e-03 -2.669014e+00 3.103327e-01 2.150748e+00 3.784257e-01 1.414844e+00 2.561852e+00 1.295922e+00 -3.902180e-01 7.292380e-02 7.984038e-02 -5.911275e-01 -4.067534e-01 9.028762e-01 6.516615e-01 7.648956e-01 1.583682e+00 8.971539e-01 -7.945092e-01 -9.140807e-01 -1.162311e+00 -1.253919e+00 -2.054300e-02
<VARIANCE> 39
 1.867290e+01 7.364062e+00 2.053971e+01 4.424563e+00 1.396537e+01 5.883023e+01 1.804879e+01 6.548364e+00 1.159138e+01 1.748369e+01 1.270954e+01 1.607874e+01 5.000000e-02 8.218151e-01 6.981982e-01 1.311299e+00 2.885281e+00 5.399777e-01 1.774599e+00 2.015144e+00 2.579990e+00 1.130331e+00 1.850966e+00 2.052529e+00 3.120025e+00 5.000000e-02 2.343466e-01 1.500275e-01 1.338919e-01 3.756326e-01 2.017985e-01 2.292919e-01 1.574797e-01 1.797656e-01 1.132982e-01 3.871877e-01 3.418700e-01 2.323128e-01 5.000000e-02
<GCONST> 8.057911e+01
<STATE> 6
<MEAN> 39
 -1.090895e+01 -1.326575e+01 -5.423941e+00 -1.902808e+01 -1.730167e+01 -7.259130e+00 3.090361e+00 -8.565137e-01 7.038748e+00 3.334622e+00 -1.125315e-01 -5.058317e+00 8.860499e-01 -1.592381e+00 -2.792741e+00 -1.444138e+00 8.898772e-01 6.445509e-01 2.236490e+00 5.206794e+00 2.650270e+00 -8.096831e-01 -9.795825e-01 -2.171876e+00 -3.175099e+00 4.064425e-02 3.993842e-01 -2.118562e-01 2.556663e-02 4.374470e-01 1.464915e+00 2.789634e-01 2.300487e-01 -1.484274e-01 -9.414583e-01 -1.343974e+00 -3.225001e-01 3.128891e-01 -1.259622e-02
<VARIANCE> 39
 1.456440e+01 2.859838e+00 1.227288e+01 1.310909e+01 1.198753e+01 5.108624e+01 3.348333e+01 1.467002e+01 6.054758e+00 1.476194e+01 1.549747e+01 3.615433e+01 5.000000e-02 1.707667e-01 6.149307e-01 5.355716e-01 2.837436e-01 7.542998e-01 6.436858e-01 1.572269e-01 6.884629e-01 2.502974e-01 9.946559e-01 1.090404e+00 1.836751e+00 5.000000e-02 5.373074e-02 7.576762e-02 1.190239e-01 1.884567e-01 5.180413e-02 1.903065e-01 3.446879e-01 3.515470e-01 1.099542e-01 1.160695e-01 4.483748e-01 6.856663e-01 5.000000e-02
<GCONST> 6.558422e+01
<STATE> 7
<MEAN> 39
 -1.368728e+01 -1.955015e+01 -8.889110e+00 -1.744647e+01 -1.322069e+01 -3.713910e+00 1.355973e+01 3.142933e+00 3.210083e+00 -9.717264e-01 -3.765449e+00 -8.777914e+00 9.513519e-01 -8.991955e-01 -2.392220e+00 -1.100667e+00 1.738096e+00 3.117811e+00 1.328790e+00 3.138962e+00 1.531342e-01 -2.387732e+00 -2.624600e+00 1.887565e-03 4.712069e-01 2.005228e-02 2.996624e-01 2.429911e-01 1.161009e-01 3.793845e-01 6.104625e-01 -5.215456e-01 -1.290942e+00 -1.014664e+00 -2.816872e-01 -2.028448e-01 1.050002e+00 1.365351e+00 -8.613026e-03
<VARIANCE> 39
 1.284345e+01 2.721695e+00 3.367299e+00 7.229250e+00 1.310916e+01 5.287281e+01 7.774467e+00 9.065970e+00 1.248405e+01 9.819576e+00 5.671188e+00 2.295404e+01 5.000000e-02 2.354156e-01 3.138002e-01 3.814833e-01 2.525509e-01 4.132690e-01 2.862051e-01 1.393736e+00 5.750795e-01 4.455280e-01 1.148562e+00 1.015965e+00 1.156121e+00 5.000000e-02 6.288125e-02 5.652222e-02 7.986712e-02 5.000000e-02 1.042699e-01 8.821834e-02 1.178295e-01 9.206232e-02 1.149647e-01 1.742348e-01 1.425108e-01 1.864237e-01 5.000000e-02
<GCONST> 5.418652e+01
<STATE> 8
<MEAN> 39
 -1.449804e+01 -2.326436e+01 -1.051001e+01 -1.134328e+01 -4.342913e+00 -2.355024e+00 1.658887e+01 2.721125e-01 -2.692819e+00 -7.460321e+00 -7.725706e-01 -4.741565e+00 9.738616e-01 -4.088897e-01 -1.729725e+00 -9.631129e-01 2.301746e+00 2.969297e+00 4.171959e-01 3.599158e-01 -1.076043e+00 -1.778712e+00 -1.750905e+00 1.671173e+00 2.023501e+00 6.009446e-03 2.883912e-01 4.287391e-01 -3.583196e-02 9.599418e-03 -4.453627e-01 -2.388747e-01 -9.830840e-01 -1.711478e-01 5.573321e-01 5.929926e-01 1.169176e-01 1.470555e-01 -6.988261e-03
<VARIANCE> 39
 7.618422e+00 4.638458e+00 5.251675e+00 1.302649e+01 2.487115e+01 3.984269e+01 2.014327e+01 6.706925e+00 1.025009e+01 1.841016e+01 5.604015e+00 1.463183e+01 5.000000e-02 5.854110e-01 3.721740e-01 3.059153e-01 3.154420e-01 4.430798e-01 7.023299e-01 7.450791e-01 4.290271e-01 9.440746e-01 8.702503e-01 4.397825e-01 4.345644e-01 5.000000e-02 5.000000e-02 5.423161e-02 9.902315e-02 7.732458e-02 6.053088e-02 5.122178e-02 1.262874e-01 6.226285e-02 9.914421e-02 3.352949e-01 1.670588e-01 1.293726e-01 5.000000e-02
<GCONST> 5.526814e+01
<STATE> 9
<MEAN> 39
 -1.495788e+01 -2.683767e+01 -1.286420e+01 -7.593483e+00 -4.417735e-01 -1.741315e+00 1.449115e+01 -1.665866e+00 -4.844044e+00 -8.360752e+00 2.712293e+00 5.047340e-01 9.691982e-01 3.764851e-01 -3.603462e-01 -1.101860e+00 2.044544e+00 1.402283e+00 2.315062e-01 -1.183965e+00 -6.491969e-01 -6.670860e-03 -3.034749e-01 6.708428e-01 9.411415e-01 -1.259947e-02 9.487363e-02 4.627746e-01 3.222984e-02 -2.285634e-01 -4.783299e-01 1.019044e-02 -3.089781e-01 3.177659e-01 7.420360e-01 4.638045e-01 -3.420091e-01 -6.379999e-01 -4.110822e-03
<VARIANCE> 39
 3.827181e+00 5.314882e+00 7.861357e+00 6.571208e+00 2.495552e+01 2.228652e+01 2.342599e+01 3.652803e+00 1.864780e+01 1.487808e+01 3.895459e+00 5.672764e+00 5.000000e-02 2.407450e-01 6.412879e-01 6.788472e-01 8.273640e-01 3.326445e-01 2.829681e-01 3.213671e-01 3.892718e-01 5.983226e-01 1.063728e+00 5.538731e-01 1.077849e+00 5.000000e-02 7.582872e-02 5.724600e-02 8.804396e-02 8.146752e-02 5.000000e-02 5.931547e-02 1.096386e-01 9.588140e-02 5.942028e-02 1.101204e-01 1.302225e-01 5.237292e-02 5.000000e-02
<GCONST> 5.051407e+01
<STATE> 10
<MEAN> 39
 -1.345069e+01 -2.534714e+01 -1.552640e+01 -2.598273e+00 3.115777e+00 -1.958555e+00 1.185621e+01 -1.463068e+00 -2.780138e+00 -8.790472e+00 3.190903e+00 -1.089524e+00 9.267998e-01 -2.567043e-01 -1.553472e-01 -9.706479e-01 6.663669e-01 4.695832e-01 -6.247025e-02 -1.395038e+00 2.852571e-02 1.092461e+00 -1.376444e-01 -1.001263e-01 -6.791279e-01 -4.226227e-03 -2.362049e-01 8.039461e-03 8.783852e-02 -4.970416e-01 -2.939593e-01 -3.075772e-01 -9.301294e-02 5.604316e-03 -2.325108e-02 -2.002126e-01 -2.239929e-01 -2.364752e-01 5.670781e-03
<VARIANCE> 39
 1.867720e+00 4.366856e+00 5.282880e+00 2.511840e+00 1.816772e+01 2.231825e+01 1.462423e+01 6.932339e+00 2.006274e+01 8.766894e+00 5.855973e+00 3.891082e+00 5.000000e-02 3.413202e-01 1.802559e-01 4.269040e-01 6.293302e-01 3.778532e-01 6.426881e-01 7.010397e-01 4.008625e-01 4.405542e-01 5.092364e-01 4.170696e-01 3.343269e-01 5.000000e-02 5.153784e-02 5.000000e-02 1.393418e-01 1.055497e-01 8.640383e-02 9.602774e-02 1.027326e-01 5.809696e-02 6.905723e-02 5.000000e-02 1.079578e-01 1.097509e-01 5.000000e-02
<GCONST> 4.584439e+01
<STATE> 11
<MEAN> 39
 -1.600511e+01 -2.710562e+01 -1.800813e+01 -3.613702e+00 1.058777e+00 -1.554642e+00 5.390216e+00 -3.604642e+00 2.383009e+00 -9.162463e+00 2.045638e+00 -1.969890e+00 9.461111e-01 -4.505111e-01 4.009394e-01 1.921867e-02 -8.456631e-02 7.656700e-02 -8.222848e-01 -1.568724e+00 -7.474306e-02 4.219362e-01 -5.500026e-01 -4.805950e-01 -3.969944e-01 9.893297e-03 2.637638e-01 1.925747e-01 3.560607e-01 -1.676995e-02 3.584698e-03 2.000827e-01 2.585508e-01 2.660115e-01 -1.948447e-01 -8.859140e-02 -5.867971e-02 1.446935e-01 1.345640e-03
<VARIANCE> 39
 5.186710e+00 5.518569e+00 3.319959e+00 3.555833e+00 8.017238e+00 3.599118e+01 5.255188e+00 6.723604e+00 3.092898e+01 2.042628e+01 6.813401e+00 5.961670e+00 5.000000e-02 1.954258e-01 3.635929e-01 6.498775e-01 3.621626e-01 5.384911e-01 9.540604e-01 6.415395e-01 4.386215e-01 4.722799e-01 3.062899e-01 4.683656e-01 8.508843e-01 5.000000e-02 1.622804e-01 5.000000e-02 1.134503e-01 1.072079e-01 6.640501e-02 2.427662e-01 1.666616e-01 7.574756e-02 9.584673e-02 5.000000e-02 5.343636e-02 1.073339e-01 5.000000e-02
<GCONST> 5.079178e+01
<STATE> 12
<MEAN> 39
 -1.633018e+01 -2.465784e+01 -1.650584e+01 -2.738143e+00 1.665280e+00 -1.851097e+00 3.297049e+00 -2.490840e+00 1.673386e+00 -1.082026e+01 3.817014e-01 -3.032860e+00 9.727484e-01 7.686865e-01 7.441360e-02 2.701424e-01 -1.396547e-01 1.664963e-01 3.536716e-01 -4.189702e-01 9.458714e-01 2.428034e-01 -4.279349e-01 -6.031183e-02 1.307162e-01 7.212861e-03 5.701128e-01 -3.469267e-01 1.245411e-01 -2.403199e-01 2.248098e-02 2.797253e-01 2.227666e-01 2.528108e-01 1.329250e-01 6.857994e-02 1.358041e-01 2.103417e-01 -3.779863e-03
<VARIANCE> 39
 6.242965e+00 1.195667e+00 7.188130e+00 2.011001e+00 9.869491e+00 5.183154e+01 8.987187e+00 9.817964e+00 3.185766e+01 2.207363e+01 5.686762e+00 1.677971e+01 5.000000e-02 1.169952e+00 3.488108e-01 5.543510e-01 2.601081e-01 5.460880e-01 1.169679e+00 3.418787e-01 4.633194e-01 7.315543e-01 9.588373e-01 3.139248e-01 6.519735e-01 5.000000e-02 5.000000e-02 5.000000e-02 2.525072e-01 8.872002e-02 6.742623e-02 2.985607e-01 1.007895e-01 8.758897e-02 1.407136e-01 1.043129e-01 5.205305e-02 1.054695e-01 5.000000e-02
<GCONST> 5.428635e+01
<STATE> 13
<MEAN> 39
 -1.252271e+01 -2.645730e+01 -1.662966e+01 -4.331935e+00 3.398553e+00 -3.132712e+00 4.928904e+00 1.316544e+00 2.483223e-01 -1.109396e+01 1.047911e+00 -7.796396e-01 9.604047e-01 1.781894e+00 -7.058550e-01 3.233126e-01 -5.332597e-01 -8.040708e-02 8.421031e-01 -6.099357e-01 8.011499e-01 5.203876e-01 -7.598006e-01 -4.550519e-01 -2.750429e-02 -3.683344e-03 3.137140e-01 1.147925e-01 7.750146e-02 6.482941e-02 -2.418542e-01 1.155095e-01 -1.597097e-01 -3.061104e-01 1.372121e-01 -2.539048e-01 -1.751626e-01 -5.811694e-01 -1.017830e-02
<VARIANCE> 39
 1.057219e+01 4.273710e+00 5.160204e+00 2.032271e+00 2.230001e+01 2.556689e+01 1.643617e+01 6.444618e+00 2.185058e+01 3.006659e+01 4.743535e+00 7.875134e+00 5.000000e-02 3.290809e-01 2.599556e-01 1.487298e+00 9.289010e-01 9.066301e-01 1.043879e+00 8.454775e-01 4.489201e-01 4.995221e-01 7.467520e-01 3.256350e-01 7.095867e-01 5.000000e-02 1.004087e-01 8.141059e-02 1.954436e-01 1.193896e-01 5.000000e-02 2.174884e-01 5.000000e-02 9.679292e-02 8.575366e-02 2.493314e-01 6.217105e-02 1.354991e-01 5.000000e-02
<GCONST> 5.731831e+01
<STATE> 14
<MEAN> 39
 -8.064373e+00 -2.656312e+01 -1.586915e+01 -3.682359e+00 2.112025e+00 -7.374200e-02 2.828203e+00 1.589912e+00 3.686139e+00 -1.524297e+01 7.782335e-01 -3.834533e+00 9.475713e-01 1.708998e+00 2.235163e-01 1.745253e-01 -3.286014e-01 -9.343584e-01 -1.491339e-01 -1.054123e+00 -5.729544e-01 1.658170e+00 -1.060479e+00 -1.043106e+00 -2.039168e+00 -3.689145e-02 1.950632e-01 1.796038e-01 4.292632e-01 -2.831302e-01 -8.780609e-01 -9.662689e-01 -3.350785e-01 -8.578284e-01 -1.207304e-01 4.606319e-01 -3.138044e-01 -7.031719e-02 -1.578387e-02
<VARIANCE> 39
 9.958079e+00 6.348621e+00 1.269161e+01 1.166166e+01 3.053090e+01 2.058413e+01 1.171688e+01 5.005901e+00 1.386765e+01 4.467820e+01 1.142263e+01 1.974349e+01 5.000000e-02 3.141319e-01 3.690431e-01 9.830565e-01 1.325542e+00 1.187575e+00 2.364130e+00 6.200128e-01 1.239215e+00 5.879018e-01 1.169180e+00 6.569893e-01 2.013045e+00 5.000000e-02 1.566822e-01 8.863912e-02 5.214871e-01 3.178213e-01 3.264320e-01 1.133282e-01 1.959675e-01 7.998341e-02 2.315688e-01 3.835058e-01 2.330311e-01 5.012048e-01 5.000000e-02
<GCONST> 7.488426e+01
<STATE> 15
<MEAN> 39
 -4.573585e+00 -2.533412e+01 -1.411125e+01 -6.405670e+00 -1.816984e+00 -2.786506e+00 -1.147869e+00 -1.614408e+00 7.321941e+00 -1.521627e+01 -3.512538e+00 -9.230640e+00 8.132743e-01 3.121178e+00 3.550845e-01 2.628274e+00 -1.278824e+00 -3.413988e+00 -2.450734e+00 -1.579189e+00 -2.314553e+00 -4.540105e-01 9.464391e-01 -1.175393e+00 6.954482e-02 -6.833545e-02 1.184309e-01 -5.678335e-02 5.047737e-01 1.303063e-01 -4.279041e-01 -2.164985e-01 2.650502e-01 -1.700307e-01 -9.612548e-01 3.007385e-01 8.370565e-02 1.023725e+00 1.335642e-03
<VARIANCE> 39
 1.494586e+01 3.585335e+00 5.669953e+00 2.111208e+01 2.499288e+01 2.080647e+01 8.511902e+00 1.335619e+01 2.287441e+01 1.426491e+01 1.194787e+01 1.410611e+01 5.000000e-02 5.295004e-01 6.083312e-01 1.202822e+00 1.826104e+00 2.933727e+00 6.891128e-01 1.830437e+00 6.784054e-01 9.787040e-01 2.213397e+00 2.131735e+00 2.064859e+00 5.000000e-02 8.454497e-02 1.203702e-01 2.936114e-01 4.772981e-01 4.392794e-01 4.433937e-01 2.809968e-01 5.173876e-01 2.160331e-01 2.929519e-01 1.819957e-01 3.457189e-01 5.000000e-02
<GCONST> 8.054504e+01
<STATE> 16
<MEAN> 39
 2.789521e+00 -2.574848e+01 -6.191410e+00 -8.109028e+00 -1.041154e+01 -8.098698e+00 -3.401486e+00 -7.346959e+00 3.011098e+00 -1.161535e+01 -5.246276e+00 -4.430333e+00 6.784909e-01 1.744968e+00 -1.666685e-01 1.637993e+00 -5.812808e-02 -2.414900e+00 -9.824021e-01 -2.449576e-01 -1.189759e+00 -1.885457e+00 -2.401172e-01 -7.988326e-01 1.540185e+00 -3.174435e-02 -7.268016e-01 -2.024413e-02 -6.585336e-01 4.041461e-01 7.986124e-01 7.255790e-01 4.183993e-01 6.068245e-01 -1.083737e-01 -3.418284e-01 2.658590e-01 2.359026e-01 1.455152e-02
<VARIANCE> 39
 5.024829e+00 4.733434e+00 2.598277e+00 6.575903e+00 8.130504e+00 7.775346e+00 5.373063e+00 4.086907e+00 1.234306e+01 1.115892e+01 1.084459e+01 5.588798e+00 5.000000e-02 8.820750e-01 4.103394e-01 1.423611e+00 1.669692e+00 2.242022e+00 1.274205e+00 1.706529e+00 2.124519e+00 1.088143e+00 1.829840e+00 9.413428e-01 1.045800e+00 5.000000e-02 6.218395e-02 1.885011e-01 7.708876e-02 2.527037e-01 3.624679e-01 1.188345e-01 2.332112e-01 8.982120e-02 1.730666e-01 2.872710e-01 3.687774e-01 2.743741e-01 5.000000e-02
<GCONST> 6.713572e+01
<STATE> 17
<MEAN> 39
 3.729009e+00 -2.601556e+01 -6.295528e+00 -7.976274e+00 -1.318950e+01 -8.132421e+00 -4.323925e+00 -7.891887e+00 -7.273977e-01 -1.618697e+01 -7.151597e+00 -1.445599e+00 6.655043e-01 4.775609e-01 3.559096e-01 5.491752e-01 8.051769e-01 -1.326783e-01 5.023047e-01 4.329929e-01 -2.987037e-01 -1.019634e+00 4.103765e-01 -5.634752e-02 1.436803e+00 -1.358708e-02 -2.448540e-01 2.912646e-01 -2.114125e-01 3.887194e-01 7.179176e-01 1.200049e-01 1.654007e-01 1.397292e-01 4.372737e-01 3.980990e-01 3.915992e-01 -4.182160e-01 7.831419e-04
<VARIANCE> 39
 2.458821e+00 3.581939e+00 4.615903e+00 3.803992e+00 1.191014e+01 1.277978e+01 1.585861e+01 1.067203e+01 1.476347e+01 1.557857e+01 5.083057e+00 9.412078e+00 5.000000e-02 2.901566e-01 4.113228e-01 3.483263e-01 3.541388e-01 4.230698e-01 3.241162e-01 1.354407e+00 3.513442e-01 9.050700e-01 2.107309e+00 5.765397e-01 6.957754e-01 5.000000e-02 6.231558e-02 5.937151e-02 1.673304e-01 6.805541e-02 3.147576e-01 2.065830e-01 4.172728e-01 2.964330e-01 2.065828e-01 3.582183e-01 5.034846e-02 1.052102e-01 5.000000e-02
<GCONST> 5.723611e+01
<STATE> 18
<MEAN> 39
 5.202937e+00 -2.373726e+01 -4.439194e+00 -4.152926e+00 -1.132518e+01 -6.900206e+00 -1.925425e+00 -8.584186e+00 -3.088442e+00 -1.028528e+01 -4.316293e+00 9.173732e-02 6.056898e-01 -9.973871e-03 4.957803e-01 -7.491428e-03 6.979250e-01 5.516379e-01 -3.720131e-01 -2.518431e-01 -2.925554e-02 -3.622577e-01 3.193736e-01 4.378172e-01 -3.753143e-01 -1.876774e-02 -1.541693e-01 -1.409583e-01 -2.444998e-01 -5.379287e-03 1.880756e-01 -1.283231e-01 2.721359e-01 4.408601e-01 2.702350e-01 -1.452902e-01 -2.024555e-01 -3.785554e-01 -3.661300e-03
<VARIANCE> 39
 2.577858e+00 2.875403e+00 7.205469e+00 4.493903e+00 6.456883e+00 7.001338e+00 1.422393e+01 6.556383e+00 8.403521e+00 8.858094e+00 3.692336e+00 7.381992e+00 5.000000e-02 7.419555e-02 4.082290e-01 7.097945e-01 6.825604e-01 8.832161e-01 6.196939e-01 1.418108e+00 9.434181e-01 2.773858e-01 7.365631e-01 3.310860e-01 1.015932e+00 5.000000e-02 5.000000e-02 5.000000e-02 8.957773e-02 1.094442e-01 1.544185e-01 1.070041e-01 3.938891e-01 1.494828e-01 1.846157e-01 1.807040e-01 1.022417e-01 2.445855e-01 5.000000e-02
<GCONST> 5.228096e+01
<STATE> 19
<MEAN> 39
 4.650660e+00 -2.289431e+01 -5.993565e+00 -2.221306e+00 -9.219992e+00 -9.480622e+00 -1.346492e+00 -4.743498e+00 -2.046374e+00 -1.389680e+01 -5.612356e+00 -1.856138e+00 5.663211e-01 -9.807312e-02 3.879450e-01 -6.455959e-01 1.521593e+00 1.363652e+00 2.832952e-01 1.917220e+00 1.778580e+00 8.867254e-01 2.803600e-01 -1.091285e-01 -4.183748e-01 -3.138790e-02 -2.726596e-01 -2.150039e-01 -1.184179e-01 -8.994041e-02 1.301433e-01 3.900347e-01 1.076319e-01 -1.405477e-01 4.441661e-01 2.968365e-01 2.158761e-01 4.506243e-01 -3.771727e-03
<VARIANCE> 39
 1.602656e+00 4.777689e+00 4.341240e+00 7.435911e+00 1.056575e+01 1.274288e+01 9.851193e+00 1.419234e+01 1.859812e+01 1.502530e+01 2.332334e+00 8.412331e+00 5.000000e-02 1.302383e-01 3.795983e-01 5.580702e-01 5.199072e-01 5.000000e-02 9.730896e-01 6.147117e-01 1.062918e+00 1.550315e+00 1.161654e+00 1.014125e+00 7.778196e-01 5.000000e-02 5.000000e-02 8.093271e-02 1.127159e-01 1.761833e-01 2.054215e-01 1.472176e-01 3.184513e-01 3.337535e-01 2.858553e-01 3.818583e-01 8.582727e-02 1.412788e-01 5.000000e-02
<GCONST> 5.751385e+01
<STATE> 20
<MEAN> 39
 3.882556e+00 -2.292054e+01 -6.455643e+00 -2.429656e-01 -6.830335e+00 -6.141173e+00 2.365706e+00 -4.102196e+00 6.946731e-01 -9.850720e+00 -5.156650e+00 -1.791075e+00 4.806547e-01 -9.982532e-01 -3.888659e-01 -5.732479e-01 7.668905e-01 1.443558e+00 8.071821e-01 1.186342e+00 6.938698e-01 1.342179e+00 1.226821e+00 6.496434e-01 8.959352e-01 -3.809664e-02 -2.316761e-01 -2.044385e-01 -3.528260e-02 -2.351866e-01 -1.813872e-02 -1.245123e-02 -4.404059e-01 -3.089540e-01 -5.179084e-01 -4.476627e-02 2.827234e-01 2.757418e-01 6.690063e-04
<VARIANCE> 39
 1.239299e+00 6.452340e+00 6.832638e+00 9.548552e+00 1.091167e+01 9.971653e+00 4.542621e+00 6.992158e+00 2.075444e+01 6.906297e+00 1.435607e+01 3.091609e+00 5.000000e-02 1.346648e-01 4.972973e-01 5.845137e-01 8.900452e-01 1.547771e+00 6.045420e-01 9.281430e-01 9.005429e-01 1.827216e+00 1.697034e+00 8.724987e-01 3.652885e-01 5.000000e-02 5.000000e-02 5.133258e-02 5.824171e-02 2.161578e-01 1.300102e-01 1.531708e-01 8.215942e-02 1.311960e-01 3.514065e-01 1.484059e-01 2.326620e-01 1.630085e-01 5.000000e-02
<GCONST> 5.722613e+01
<STATE> 21
<MEAN> 39
 1.582842e+00 -2.321324e+01 -7.386664e+00 2.039813e+00 -2.663277e+00 -6.656215e+00 3.413759e+00 -2.478458e+00 1.193710e+00 -7.846545e+00 -2.257844e+00 8.514470e-01 4.067002e-01 -9.001708e-01 -6.118470e-01 -8.429785e-01 -1.159214e-01 4.079497e-01 1.948495e-01 9.867647e-02 3.610637e-01 -4.573407e-01 8.863118e-02 3.709403e-01 2.872449e-01 -2.512255e-02 1.036682e-01 6.808092e-02 1.214678e-03 -1.992898e-01 -3.824001e-01 -1.134487e-01 7.396579e-02 1.015168e-01 -4.713360e-01 -3.905607e-01 -1.924023e-01 -2.332704e-01 4.261304e-03
<VARIANCE> 39
 7.137919e-01 5.234542e+00 5.204185e+00 5.610580e+00 1.397260e+01 1.397900e+01 1.669046e+01 2.457285e+01 8.993898e+00 4.898058e+00 9.882467e+00 1.001673e+01 5.000000e-02 1.697447e-01 1.012579e-01 1.633776e-01 7.898306e-01 1.009278e+00 3.273269e-01 7.850085e-01 1.444200e+00 7.328771e-01 3.905414e-01 1.683334e+00 9.693001e-01 5.000000e-02 5.000000e-02 5.000000e-02 7.909962e-02 2.050933e-01 2.279918e-01 1.460618e-01 2.505366e-01 9.841514e-02 1.914710e-01 1.271273e-01 2.561667e-01 1.568171e-01 5.000000e-02
<GCONST> 5.505125e+01
<STATE> 22
<MEAN> 39
 -6.996735e-01 -2.582587e+01 -1.059439e+01 3.851033e-01 -4.656153e+00 -6.310009e+00 4.188512e+00 -1.799680e+00 -1.997578e+00 -9.589785e+00 -1.568734e+00 2.267017e+00 3.781069e-01 -4.697564e-01 2.636313e-01 -3.610287e-03 2.677763e-01 7.152742e-01 8.631401e-02 6.560303e-01 6.641192e-01 -8.086105e-01 -2.269228e-01 3.471675e-01 3.066591e-01 -2.238239e-02 1.505736e-01 4.007995e-01 3.688855e-01 6.118481e-03 2.166958e-01 -1.685390e-02 -1.312831e-01 -2.071290e-02 3.189290e-01 3.958326e-02 -1.387272e-01 -2.317029e-01 -2.687042e-04
<VARIANCE> 39
 1.957098e+00 5.156340e+00 4.134735e+00 8.663727e+00 5.772167e+00 5.715923e+00 1.167260e+01 3.305062e+01 3.928404e+00 4.082476e+00 1.331600e+01 5.590181e+00 5.000000e-02 2.672795e-01 3.343116e-01 4.089374e-01 6.622519e-01 7.749481e-01 8.492340e-01 1.068278e+00 1.472183e+00 1.736048e+00 5.087200e-01 9.688041e-01 9.509079e-01 5.000000e-02 5.000000e-02 5.000000e-02 5.773748e-02 1.591980e-01 6.030815e-02 1.150084e-01 1.802764e-01 5.475174e-01 2.471556e-01 5.000000e-02 2.377474e-01 1.931276e-01 5.000000e-02
<GCONST> 5.578144e+01
<STATE> 23
<MEAN> 39
 -1.225305e+00 -2.327778e+01 -7.807609e+00 2.404576e+00 3.270676e-01 -4.958788e+00 7.362563e+00 1.130168e+00 -1.516723e+00 -9.286946e+00 -3.052015e+00 -4.463268e-01 3.046116e-01 -4.028996e-01 9.715847e-01 4.871611e-01 6.441843e-02 1.033333e+00 -7.850452e-02 1.083530e-01 8.895539e-01 2.215146e-01 6.083753e-02 2.461762e-01 -2.163672e-01 -2.547441e-02 4.148682e-02 2.288839e-02 4.768368e-02 -9.218365e-02 -2.675334e-01 -2.145303e-01 -7.706591e-01 -4.984657e-01 3.694425e-04 4.205619e-02 2.085184e-01 1.535841e-01 1.270234e-03
<VARIANCE> 39
 1.216007e+00 1.434873e+00 7.413040e+00 3.219373e+00 5.546357e+00 2.688567e+00 7.622152e+00 1.164713e+01 1.095225e+01 8.523821e+00 8.987560e+00 1.875237e+01 5.000000e-02 3.162208e-01 4.925852e-01 5.602746e-01 8.257763e-01 8.853970e-01 4.477890e-01 1.587075e+00 2.402991e+00 6.829319e-01 3.775615e-01 5.172059e-01 8.478189e-01 5.000000e-02 5.463364e-02 1.325993e-01 8.556683e-02 7.636661e-02 1.161553e-01 7.717265e-02 1.809701e-01 2.856004e-01 8.867093e-02 1.605248e-01 7.358185e-02 2.517819e-01 5.000000e-02
<GCONST> 5.299844e+01
<STATE> 24
<MEAN> 39
 -1.660991e+00 -2.157120e+01 -8.266376e+00 -2.642807e-02 -8.284323e-01 -6.995605e+00 2.844111e+00 -6.562042e-01 -1.786071e+00 -9.050981e+00 -9.487220e-01 4.180336e-01 2.642902e-01 -3.563864e-01 7.693849e-01 6.001008e-01 4.205225e-01 5.945425e-01 -4.977766e-01 -1.329524e+00 -1.157012e+00 -1.553833e-01 3.684829e-01 4.935021e-01 1.740831e-01 -2.104823e-02 -8.579991e-02 1.021009e-01 9.965787e-02 2.035875e-01 1.438618e-01 1.452730e-01 2.534954e-01 -9.255261e-02 1.364972e-01 2.672177e-01 1.853492e-01 8.157007e-02 -2.904163e-03
<VARIANCE> 39
 1.976414e+00 8.551210e+00 5.022817e+00 4.822361e+00 8.357383e+00 9.013973e+00 1.322040e+01 1.546371e+01 1.844230e+01 7.875546e+00 3.061053e+00 3.884103e+00 5.000000e-02 2.458122e-01 6.401050e-01 7.610978e-01 6.313027e-01 4.627289e-01 2.549692e-01 4.656166e-01 5.328547e-01 2.833426e-01 7.999388e-01 9.234766e-01 1.817562e+00 5.000000e-02 1.120441e-01 9.805591e-02 1.154425e-01 1.106513e-01 9.420631e-02 1.266462e-01 1.773162e-01 2.532950e-01 1.897012e-01 1.119656e-01 9.241851e-02 2.148602e-01 5.000000e-02
<GCONST> 5.454687e+01
<STATE> 25
<MEAN> 39
 -2.797129e+00 -2.050857e+01 -6.054477e+00 4.113524e+00 2.349630e+00 -5.385599e+00 2.598230e+00 -2.974422e+00 -8.891626e-01 -7.969043e+00 6.552631e-02 1.918485e+00 2.291187e-01 -4.611646e-01 1.252239e+00 7.627240e-01 -5.712254e-02 8.279731e-01 6.015485e-01 4.113512e-01 1.895971e-01 6.117314e-01 6.929024e-01 8.621583e-01 -7.689521e-02 -2.910940e-02 -6.134394e-02 3.385777e-01 3.073975e-02 -5.841552e-01 -2.360610e-01 2.003707e-01 2.535864e-01 4.372605e-01 5.718768e-02 1.805862e-02 -2.054938e-01 -2.712683e-01 -6.245963e-03
<VARIANCE> 39
 2.109962e+00 4.786598e+00 5.077125e+00 4.885315e+00 6.749764e+00 5.339140e+00 2.872774e+00 9.202026e+00 1.204720e+01 5.991976e+00 4.401328e+00 6.817651e+00 5.000000e-02 6.219310e-01 5.547941e-01 4.052104e-01 9.979461e-01 7.709114e-01 5.624133e-01 5.749980e-01 1.155815e+00 9.671375e-01 5.257859e-01 5.319019e-01 1.617572e+00 5.000000e-02 5.000000e-02 1.308027e-01 1.143937e-01 6.895327e-02 6.214420e-02 1.539525e-01 7.458173e-02 1.140880e-01 5.316963e-02 1.824497e-01 1.524426e-01 2.840765e-01 5.000000e-02
<GCONST> 5.164969e+01
<STATE> 26
<MEAN> 39
 -3.765136e+00 -1.519108e+01 -4.089544e+00 2.190434e-01 2.382646e+00 -5.610710e+00 3.896179e+00 -4.255677e-01 -6.408813e-01 -5.829825e+00 2.421275e+00 5.682289e-02 1.270092e-01 -7.552724e-01 2.172967e+00 9.061888e-01 -1.253108e+00 -8.328551e-02 5.419817e-01 -8.163016e-02 4.393452e-01 4.279478e-01 7.661878e-01 -3.924612e-02 -7.143292e-01 -5.148567e-02 1.115181e-02 -1.514462e-01 -3.835140e-02 1.638162e-03 -2.764932e-01 -1.198123e-01 -2.230327e-01 -5.215090e-02 -7.092173e-02 -1.028517e-01 -4.211079e-01 4.224993e-02 1.700798e-03
<VARIANCE> 39
 4.822288e+00 4.981756e+00 5.631519e+00 4.004607e+00 7.328870e+00 4.958975e+00 2.020965e+00 3.106525e+00 4.113100e+00 7.155497e+00 4.455243e+00 1.478185e+01 5.000000e-02 1.837431e-01 2.808884e-01 2.352665e-01 1.368051e-01 6.458133e-01 8.764746e-01 3.942463e-01 6.217780e-01 1.177730e+00 1.091336e+00 7.752405e-01 8.260900e-01 5.000000e-02 7.300092e-02 1.119291e-01 5.000000e-02 1.095673e-01 1.301221e-01 1.321428e-01 1.608990e-01 2.144228e-01 1.028216e-01 8.169277e-02 1.485713e-01 2.872256e-01 5.000000e-02
<GCONST> 4.803675e+01
<STATE> 27
<MEAN> 39
 -5.955496e+00 -1.290592e+01 -3.135865e+00 -1.237206e+00 2.152625e+00 -4.080334e+00 1.410665e+00 -1.251637e+00 1.294971e+00 -4.956102e+00 -3.006337e-01 -2.379122e-01 2.271780e-02 -4.640632e-01 6.349865e-01 4.071342e-01 -3.693561e-01 -3.291739e-01 1.889157e-01 -3.642861e-01 -1.196990e-01 2.220621e-01 2.282608e-01 -1.020622e+00 4.230635e-03 -2.539483e-02 1.851197e-01 -5.078391e-01 -1.877629e-01 3.569804e-01 7.033788e-02 -2.579720e-01 -2.183177e-02 -1.941249e-01 -1.715776e-01 -2.998422e-01 6.601444e-02 2.086631e-01 1.348617e-02
<VARIANCE> 39
 2.301850e+00 2.323364e+00 4.875991e+00 9.162288e-01 7.282631e+00 1.229327e+01 8.841180e+00 6.343194e+00 2.491633e+01 7.671727e+00 6.245199e+00 6.734045e+00 5.000000e-02 1.807707e-01 5.804910e-01 3.441888e-01 5.206173e-01 7.905688e-01 7.627959e-01 1.085691e+00 6.479800e-01 4.900871e-01 3.319593e-01 5.295941e-01 7.749198e-01 5.000000e-02 5.000000e-02 1.317887e-01 1.129007e-01 5.000000e-02 1.423520e-01 1.999758e-01 7.590703e-02 1.388544e-01 3.238142e-01 1.485962e-01 2.071366e-01 3.957322e-01 5.000000e-02
<GCONST> 5.199286e+01
<TRANSP> 28
 0.000000e+00 1.000000e+00 0.000000e+00 0.000000e+00 0.000000e+00 0.000000e+00 0.000000e+00 0.000000e+00 0.000000e+00 0.000000e+00 0.000000e+00 0.000000e+00 0.000000e+00 0.000000e+00 0.000000e+00 0.000000e+00 0.000000e+00 0.000000e+00 0.000000e+00 0.000000e+00 0.000000e+00 0.000000e+00 0.000000e+00 0.000000e+00 0.000000e+00 0.000000e+00 0.000000e+00 0.000000e+00
 0.000000e+00 6.664844e-01 3.335157e-01 0.000000e+00 0.000000e+00 0.000000e+00 0.000000e+00 0.000000e+00 0.000000e+00 0.000000e+00 0.000000e+00 0.000000e+00 0.000000e+00 0.000000e+00 0.000000e+00 0.000000e+00 0.000000e+00 0.000000e+00 0.000000e+00 0.000000e+00 0.000000e+00 0.000000e+00 0.000000e+00 0.000000e+00 0.000000e+00 0.000000e+00 0.000000e+00 0.000000e+00
 0.000000e+00 0.000000e+00 4.456377e-01 5.543624e-01 0.000000e+00 0.000000e+00 0.000000e+00 0.000000e+00 0.000000e+00 0.000000e+00 0.000000e+00 0.000000e+00 0.000000e+00 0.000000e+00 0.000000e+00 0.000000e+00 0.000000e+00 0.000000e+00 0.000000e+00 0.000000e+00 0.000000e+00 0.000000e+00 0.000000e+00 0.000000e+00 0.000000e+00 0.000000e+00 0.000000e+00 0.000000e+00
 0.000000e+00 0.000000e+00 0.000000e+00 5.826662e-01 4.173338e-01 0.000000e+00 0.000000e+00 0.000000e+00 0.000000e+00 0.000000e+00 0.000000e+00 0.000000e+00 0.000000e+00 0.000000e+00 0.000000e+00 0.000000e+00 0.000000e+00 0.000000e+00 0.000000e+00 0.000000e+00 0.000000e+00 0.000000e+00 0.000000e+00 0.000000e+00 0.000000e+00 0.000000e+00 0.000000e+00 0.000000e+00
 0.000000e+00 0.000000e+00 0.000000e+00 0.000000e+00 5.454546e-01 4.545455e-01 0.000000e+00 0.000000e+00 0.000000e+00 0.000000e+00 0.000000e+00 0.000000e+00 0.000000e+00 0.000000e+00 0.000000e+00 0.000000e+00 0.000000e+00 0.000000e+00 0.000000e+00 0.000000e+00 0.000000e+00 0.000000e+00 0.000000e+00 0.000000e+00 0.000000e+00 0.000000e+00 0.000000e+00 0.000000e+00
 0.000000e+00 0.000000e+00 0.000000e+00 0.000000e+00 0.000000e+00 5.000000e-01 5.000000e-01 0.000000e+00 0.000000e+00 0.000000e+00 0.000000e+00 0.000000e+00 0.000000e+00 0.000000e+00 0.000000e+00 0.000000e+00 0.000000e+00 0.000000e+00 0.000000e+00 0.000000e+00 0.000000e+00 0.000000e+00 0.000000e+00 0.000000e+00 0.000000e+00 0.000000e+00 0.000000e+00 0.000000e+00
 0.000000e+00 0.000000e+00 0.000000e+00 0.000000e+00 0.000000e+00 0.000000e+00 5.000000e-01 5.000000e-01 0.000000e+00 0.000000e+00 0.000000e+00 0.000000e+00 0.000000e+00 0.000000e+00 0.000000e+00 0.000000e+00 0.000000e+00 0.000000e+00 0.000000e+00 0.000000e+00 0.000000e+00 0.000000e+00 0.000000e+00 0.000000e+00 0.000000e+00 0.000000e+00 0.000000e+00 0.000000e+00
 0.000000e+00 0.000000e+00 0.000000e+00 0.000000e+00 0.000000e+00 0.000000e+00 0.000000e+00 5.454525e-01 4.545475e-01 0.000000e+00 0.000000e+00 0.000000e+00 0.000000e+00 0.000000e+00 0.000000e+00 0.000000e+00 0.000000e+00 0.000000e+00 0.000000e+00 0.000000e+00 0.000000e+00 0.000000e+00 0.000000e+00 0.000000e+00 0.000000e+00 0.000000e+00 0.000000e+00 0.000000e+00
 0.000000e+00 0.000000e+00 0.000000e+00 0.000000e+00 0.000000e+00 0.000000e+00 0.000000e+00 0.000000e+00 5.835657e-01 4.164343e-01 0.000000e+00 0.000000e+00 0.000000e+00 0.000000e+00 0.000000e+00 0.000000e+00 0.000000e+00 0.000000e+00 0.000000e+00 0.000000e+00 0.000000e+00 0.000000e+00 0.000000e+00 0.000000e+00 0.000000e+00 0.000000e+00 0.000000e+00 0.000000e+00
 0.000000e+00 0.000000e+00 0.000000e+00 0.000000e+00 0.000000e+00 0.000000e+00 0.000000e+00 0.000000e+00 0.000000e+00 6.654163e-01 3.345837e-01 0.000000e+00 0.000000e+00 0.000000e+00 0.000000e+00 0.000000e+00 0.000000e+00 0.000000e+00 0.000000e+00 0.000000e+00 0.000000e+00 0.000000e+00 0.000000e+00 0.000000e+00 0.000000e+00 0.000000e+00 0.000000e+00 0.000000e+00
 0.000000e+00 0.000000e+00 0.000000e+00 0.000000e+00 0.000000e+00 0.000000e+00 0.000000e+00 0.000000e+00 0.000000e+00 0.000000e+00 5.467585e-01 4.532415e-01 0.000000e+00 0.000000e+00 0.000000e+00 0.000000e+00 0.000000e+00 0.000000e+00 0.000000e+00 0.000000e+00 0.000000e+00 0.000000e+00 0.000000e+00 0.000000e+00 0.000000e+00 0.000000e+00 0.000000e+00 0.000000e+00
 0.000000e+00 0.000000e+00 0.000000e+00 0.000000e+00 0.000000e+00 0.000000e+00 0.000000e+00 0.000000e+00 0.000000e+00 0.000000e+00 0.000000e+00 5.461738e-01 4.538263e-01 0.000000e+00 0.000000e+00 0.000000e+00 0.000000e+00 0.000000e+00 0.000000e+00 0.000000e+00 0.000000e+00 0.000000e+00 0.000000e+00 0.000000e+00 0.000000e+00 0.000000e+00 0.000000e+00 0.000000e+00
 0.000000e+00 0.000000e+00 0.000000e+00 0.000000e+00 0.000000e+00 0.000000e+00 0.000000e+00 0.000000e+00 0.000000e+00 0.000000e+00 0.000000e+00 0.000000e+00 5.001017e-01 4.998983e-01 0.000000e+00 0.000000e+00 0.000000e+00 0.000000e+00 0.000000e+00 0.000000e+00 0.000000e+00 0.000000e+00 0.000000e+00 0.000000e+00 0.000000e+00 0.000000e+00 0.000000e+00 0.000000e+00
 0.000000e+00 0.000000e+00 0.000000e+00 0.000000e+00 0.000000e+00 0.000000e+00 0.000000e+00 0.000000e+00 0.000000e+00 0.000000e+00 0.000000e+00 0.000000e+00 0.000000e+00 5.454072e-01 4.545929e-01 0.000000e+00 0.000000e+00 0.000000e+00 0.000000e+00 0.000000e+00 0.000000e+00 0.000000e+00 0.000000e+00 0.000000e+00 0.000000e+00 0.000000e+00 0.000000e+00 0.000000e+00
 0.000000e+00 0.000000e+00 0.000000e+00 0.000000e+00 0.000000e+00 0.000000e+00 0.000000e+00 0.000000e+00 0.000000e+00 0.000000e+00 0.000000e+00 0.000000e+00 0.000000e+00 0.000000e+00 4.999723e-01 5.000277e-01 0.000000e+00 0.000000e+00 0.000000e+00 0.000000e+00 0.000000e+00 0.000000e+00 0.000000e+00 0.000000e+00 0.000000e+00 0.000000e+00 0.000000e+00 0.000000e+00
 0.000000e+00 0.000000e+00 0.000000e+00 0.000000e+00 0.000000e+00 0.000000e+00 0.000000e+00 0.000000e+00 0.000000e+00 0.000000e+00 0.000000e+00 0.000000e+00 0.000000e+00 0.000000e+00 0.000000e+00 5.808091e-01 4.191909e-01 0.000000e+00 0.000000e+00 0.000000e+00 0.000000e+00 0.000000e+00 0.000000e+00 0.000000e+00 0.000000e+00 0.000000e+00 0.000000e+00 0.000000e+00
 0.000000e+00 0.000000e+00 0.000000e+00 0.000000e+00 0.000000e+00 0.000000e+00 0.000000e+00 0.000000e+00 0.000000e+00 0.000000e+00 0.000000e+00 0.000000e+00 0.000000e+00 0.000000e+00 0.000000e+00 0.000000e+00 5.482767e-01 4.517234e-01 0.000000e+00 0.000000e+00 0.000000e+00 0.000000e+00 0.000000e+00 0.000000e+00 0.000000e+00 0.000000e+00 0.000000e+00 0.000000e+00
 0.000000e+00 0.000000e+00 0.000000e+00 0.000000e+00 0.000000e+00 0.000000e+00 0.000000e+00 0.000000e+00 0.000000e+00 0.000000e+00 0.000000e+00 0.000000e+00 0.000000e+00 0.000000e+00 0.000000e+00 0.000000e+00 0.000000e+00 6.667455e-01 3.332545e-01 0.000000e+00 0.000000e+00 0.000000e+00 0.000000e+00 0.000000e+00 0.000000e+00 0.000000e+00 0.000000e+00 0.000000e+00
 0.000000e+00 0.000000e+00 0.000000e+00 0.000000e+00 0.000000e+00 0.000000e+00 0.000000e+00 0.000000e+00 0.000000e+00 0.000000e+00 0.000000e+00 0.000000e+00 0.000000e+00 0.000000e+00 0.000000e+00 0.000000e+00 0.000000e+00 0.000000e+00 4.836152e-01 5.163848e-01 0.000000e+00 0.000000e+00 0.000000e+00 0.000000e+00 0.000000e+00 0.000000e+00 0.000000e+00 0.000000e+00
 0.000000e+00 0.000000e+00 0.000000e+00 0.000000e+00 0.000000e+00 0.000000e+00 0.000000e+00 0.000000e+00 0.000000e+00 0.000000e+00 0.000000e+00 0.000000e+00 0.000000e+00 0.000000e+00 0.000000e+00 0.000000e+00 0.000000e+00 0.000000e+00 0.000000e+00 4.631293e-01 5.368707e-01 0.000000e+00 0.000000e+00 0.000000e+00 0.000000e+00 0.000000e+00 0.000000e+00 0.000000e+00
 0.000000e+00 0.000000e+00 0.000000e+00 0.000000e+00 0.000000e+00 0.000000e+00 0.000000e+00 0.000000e+00 0.000000e+00 0.000000e+00 0.000000e+00 0.000000e+00 0.000000e+00 0.000000e+00 0.000000e+00 0.000000e+00 0.000000e+00 0.000000e+00 0.000000e+00 0.000000e+00 5.447431e-01 4.552569e-01 0.000000e+00 0.000000e+00 0.000000e+00 0.000000e+00 0.000000e+00 0.000000e+00
 0.000000e+00 0.000000e+00 0.000000e+00 0.000000e+00 0.000000e+00 0.000000e+00 0.000000e+00 0.000000e+00 0.000000e+00 0.000000e+00 0.000000e+00 0.000000e+00 0.000000e+00 0.000000e+00 0.000000e+00 0.000000e+00 0.000000e+00 0.000000e+00 0.000000e+00 0.000000e+00 0.000000e+00 6.449207e-01 3.550794e-01 0.000000e+00 0.000000e+00 0.000000e+00 0.000000e+00 0.000000e+00
 0.000000e+00 0.000000e+00 0.000000e+00 0.000000e+00 0.000000e+00 0.000000e+00 0.000000e+00 0.000000e+00 0.000000e+00 0.000000e+00 0.000000e+00 0.000000e+00 0.000000e+00 0.000000e+00 0.000000e+00 0.000000e+00 0.000000e+00 0.000000e+00 0.000000e+00 0.000000e+00 0.000000e+00 0.000000e+00 4.425720e-01 5.574279e-01 0.000000e+00 0.000000e+00 0.000000e+00 0.000000e+00
 0.000000e+00 0.000000e+00 0.000000e+00 0.000000e+00 0.000000e+00 0.000000e+00 0.000000e+00 0.000000e+00 0.000000e+00 0.000000e+00 0.000000e+00 0.000000e+00 0.000000e+00 0.000000e+00 0.000000e+00 0.000000e+00 0.000000e+00 0.000000e+00 0.000000e+00 0.000000e+00 0.000000e+00 0.000000e+00 0.000000e+00 5.822975e-01 4.177025e-01 0.000000e+00 0.000000e+00 0.000000e+00
 0.000000e+00 0.000000e+00 0.000000e+00 0.000000e+00 0.000000e+00 0.000000e+00 0.000000e+00 0.000000e+00 0.000000e+00 0.000000e+00 0.000000e+00 0.000000e+00 0.000000e+00 0.000000e+00 0.000000e+00 0.000000e+00 0.000000e+00 0.000000e+00 0.000000e+00 0.000000e+00 0.000000e+00 0.000000e+00 0.000000e+00 0.000000e+00 5.003451e-01 4.996550e-01 0.000000e+00 0.000000e+00
 0.000000e+00 0.000000e+00 0.000000e+00 0.000000e+00 0.000000e+00 0.000000e+00 0.000000e+00 0.000000e+00 0.000000e+00 0.000000e+00 0.000000e+00 0.000000e+00 0.000000e+00 0.000000e+00 0.000000e+00 0.000000e+00 0.000000e+00 0.000000e+00 0.000000e+00 0.000000e+00 0.000000e+00 0.000000e+00 0.000000e+00 0.000000e+00 0.000000e+00 4.986574e-01 5.013427e-01 0.000000e+00
 0.000000e+00 0.000000e+00 0.000000e+00 0.000000e+00 0.000000e+00 0.000000e+00 0.000000e+00 0.000000e+00 0.000000e+00 0.000000e+00 0.000000e+00 0.000000e+00 0.000000e+00 0.000000e+00 0.000000e+00 0.000000e+00 0.000000e+00 0.000000e+00 0.000000e+00 0.000000e+00 0.000000e+00 0.000000e+00 0.000000e+00 0.000000e+00 0.000000e+00 0.000000e+00 4.438595e-01 5.561405e-01
 0.000000e+00 0.000000e+00 0.000000e+00 0.000000e+00 0.000000e+00 0.000000e+00 0.000000e+00 0.000000e+00 0.000000e+00 0.000000e+00 0.000000e+00 0.000000e+00 0.000000e+00 0.000000e+00 0.000000e+00 0.000000e+00 0.000000e+00 0.000000e+00 0.000000e+00 0.000000e+00 0.000000e+00 0.000000e+00 0.000000e+00 0.000000e+00 0.000000e+00 0.000000e+00 0.000000e+00 0.000000e+00
<ENDHMM>
