~o
<STREAMINFO> 1 39
<VECSIZE> 39<NULLD><MFCC_E_D_A><DIAGC>
~h "Gio*"
<BEGINHMM>
<NUMSTATES> 25
<STATE> 2
<MEAN> 39
 -7.959231e+00 -1.130077e+01 -1.434389e+00 -1.876689e+00 2.599431e+00 -1.074101e+00 2.066370e+00 4.261035e-01 2.881906e+00 -2.331796e+00 3.325162e+00 -7.871454e-01 -4.587014e-02 2.204470e-01 6.409510e-01 -2.321990e-01 -1.226364e+00 -2.553397e-01 -7.074727e-01 -2.234893e-01 -2.991341e-02 -9.135042e-01 -5.931999e-01 -9.645360e-01 -8.118976e-01 2.619820e-02 5.727525e-01 6.339648e-01 -2.314090e-02 -1.018862e+00 -3.812422e-01 -9.050607e-01 -6.304975e-01 -4.313496e-01 -5.662482e-01 -4.037682e-01 -5.840664e-01 -2.874157e-01 3.078237e-02
<VARIANCE> 39
 1.061528e+00 2.740898e+00 9.019776e+00 1.113610e+01 7.595125e+00 8.937255e+00 5.141309e+00 7.558106e+00 1.825229e+01 1.253329e+01 1.711198e+01 1.277001e+01 5.000000e-02 9.158975e-01 1.437243e+00 1.259322e+00 1.434574e+00 2.352292e+00 1.942567e+00 5.681577e-01 1.104413e+00 2.176006e+00 1.714605e+00 1.373355e+00 1.213348e+00 5.000000e-02 2.745530e-01 1.033725e-01 6.196373e-02 3.691380e-01 3.414516e-01 1.447742e-01 1.384908e-01 1.743820e-01 5.276514e-01 3.555538e-01 3.659385e-01 2.113494e-01 5.000000e-02
<GCONST> 7.250848e+01
<STATE> 3
<MEAN> 39
 -5.336817e+00 -5.187457e+00 -3.348006e-01 -1.187265e+01 9.185336e-01 -6.986723e+00 -1.741755e+00 -2.765375e+00 -2.477196e+00 -7.326422e+00 -2.189034e+00 -3.181674e+00 1.714728e-01 2.080870e+00 1.627307e+00 -3.069192e-01 -3.973821e+00 -7.083244e-01 -2.020813e+00 -2.639476e+00 -7.481347e-01 -1.758251e+00 -1.436995e+00 -1.875229e+00 -1.028000e+00 1.374576e-01 2.976317e-01 -3.905858e-01 -1.264293e-03 1.344809e-01 -3.307226e-01 3.486978e-01 -1.018499e-01 9.605587e-02 4.339478e-02 4.133537e-01 1.005536e-01 1.851384e-01 1.373167e-02
<VARIANCE> 39
 1.096549e+01 5.141825e+00 6.239287e+00 6.374894e+01 5.412173e+01 2.569591e+01 3.504600e+01 5.305830e+00 1.865958e+01 1.177309e+01 1.816827e+01 1.679836e+00 5.000000e-02 2.484867e+00 8.290313e-01 1.463494e+00 3.023118e+00 2.185930e+00 3.136269e+00 1.001227e+00 1.386536e+00 4.989769e+00 3.606132e+00 3.001482e+00 1.420885e+00 5.000000e-02 3.928252e-01 1.864210e-01 4.478194e-01 8.177500e-01 1.094940e+00 3.027109e-01 4.142113e-01 1.291772e-01 3.958545e-01 6.668881e-01 2.666489e-01 2.792917e-01 5.000000e-02
<GCONST> 9.120482e+01
<STATE> 4
<MEAN> 39
 4.357935e+00 -2.919966e+00 -6.340659e+00 -1.511297e+01 -2.486575e+00 -1.381850e+01 -5.382731e+00 -4.114561e+00 -1.104060e+01 -1.156398e+01 -6.293952e+00 -8.159599e+00 5.502920e-01 7.087924e-01 3.009351e-01 1.553251e-01 -2.042726e+00 -2.928168e-01 -4.539437e-01 -1.433219e-01 9.915090e-02 -7.697830e-01 2.926797e-01 -1.540481e-01 -3.294933e-01 7.327326e-02 -9.555038e-01 -5.263715e-01 5.415674e-01 7.108488e-02 -1.182348e-01 4.782655e-01 4.250762e-01 9.697705e-02 9.350917e-01 1.186572e+00 9.116328e-01 7.013093e-01 -1.829128e-02
<VARIANCE> 39
 1.996147e+01 3.201894e+00 3.166652e+01 2.468605e+01 8.130088e+00 5.090092e+01 1.191590e+01 1.699168e+01 3.252925e+01 1.241006e+01 7.026238e+00 2.270425e+01 5.000000e-02 4.385590e+00 5.976794e-01 3.883579e+00 3.200594e+00 4.189926e+00 3.430876e+00 3.464609e+00 2.025253e+00 2.496529e+00 4.141088e+00 2.674031e+00 2.009841e+00 5.000000e-02 3.758103e-01 1.605957e-01 2.632149e-01 9.838364e-01 1.209618e+00 1.933877e-01 8.008856e-01 4.524392e-01 4.897844e-01 1.664912e-01 2.608094e-01 2.639898e-01 5.000000e-02
<GCONST> 9.622406e+01
<STATE> 5
<MEAN> 39
 -5.290428e-01 -4.862946e+00 1.555134e+00 -2.460720e+01 -5.397707e+00 -8.068841e+00 -8.277057e+00 -3.737280e+00 -5.357731e+00 -2.983940e+00 -4.029555e+00 -2.425367e+00 6.538306e-01 -8.136697e-01 -1.716121e+00 8.197902e-01 -9.867172e-01 -3.946696e+00 -5.092631e-01 -6.205242e-01 -1.495450e+00 1.692469e+00 3.627364e+00 1.812059e+00 2.093304e+00 8.157694e-02 -1.965508e-01 -5.267769e-01 -8.466815e-01 1.264810e+00 -6.768386e-01 -7.263304e-01 9.755108e-01 -3.119345e-01 3.169694e-01 -1.586942e-01 6.176839e-01 -1.571464e-02 -2.549204e-03
<VARIANCE> 39
 7.767771e+00 8.943629e+00 4.463544e+01 8.734148e+00 2.922144e+01 1.057729e+02 5.928339e+01 1.499323e+01 2.761774e+01 5.482953e+01 1.956712e+01 2.564568e+01 5.000000e-02 1.110885e+00 7.392780e-01 1.103691e+00 3.313311e+00 3.710910e+00 2.994445e+00 4.408197e+00 1.913110e+00 2.553230e+00 3.028911e+00 3.236284e+00 1.687203e+00 5.000000e-02 9.342898e-02 1.231424e-01 2.929531e-01 1.628434e-01 7.791840e-01 5.657383e-01 1.016392e+00 5.182857e-01 2.621443e-01 8.541814e-01 4.530859e-01 3.988187e-01 5.000000e-02
<GCONST> 9.847153e+01
<STATE> 6
<MEAN> 39
 -2.505079e+00 -1.088316e+01 -1.790372e+00 -2.211874e+01 -1.510910e+01 -1.651616e+01 -2.825358e+00 -8.398532e+00 -5.883631e-01 3.870149e+00 4.925581e+00 8.669091e-01 8.724948e-01 -1.071706e+00 -2.136238e+00 -1.974634e+00 1.964760e+00 -2.176464e+00 -1.767269e+00 3.808101e+00 3.824421e-01 1.041229e+00 7.631112e-01 1.339700e+00 -5.285341e-01 4.278677e-02 6.231652e-02 1.614801e-01 -6.096865e-01 8.320818e-01 1.132902e+00 3.815947e-01 6.543705e-01 1.345417e+00 -4.933883e-01 -1.160345e+00 -1.310410e+00 -1.069649e+00 -1.983267e-02
<VARIANCE> 39
 5.470533e+00 1.368587e+01 2.877788e+01 7.713742e+00 2.453147e+01 5.639805e+01 5.943245e+01 1.982307e+01 2.615956e+01 3.058918e+01 3.507698e+01 1.876662e+01 5.000000e-02 3.817850e-01 6.332914e-01 1.288731e+00 1.378949e+00 1.824570e+00 2.618426e+00 2.239907e+00 2.442925e+00 1.646018e+00 5.527249e+00 7.159159e+00 4.017778e+00 5.000000e-02 1.897652e-01 1.329695e-01 1.339478e-01 1.812024e-01 3.290844e-01 4.797667e-01 7.208522e-01 2.892215e-01 3.156402e-01 6.524834e-01 6.943280e-01 5.097163e-01 5.000000e-02
<GCONST> 9.444224e+01
<STATE> 7
<MEAN> 39
 -6.081576e+00 -1.474040e+01 -6.980038e+00 -1.443583e+01 -1.733859e+01 -1.453526e+01 5.426396e+00 -1.400544e+00 3.331459e-01 1.823823e+00 -4.957321e-02 -4.000628e+00 8.734016e-01 -4.319972e-01 -1.322494e+00 -2.368450e+00 2.664088e+00 7.359207e-01 5.370892e-01 1.896504e+00 4.248001e+00 2.097249e-01 -1.017173e+00 -2.607130e+00 -1.125414e+00 8.127744e-03 3.842697e-01 1.290461e-01 8.179210e-02 -3.367159e-01 6.134108e-01 6.296830e-01 -1.222711e+00 3.920801e-01 2.541278e-01 -2.573305e-01 -7.695730e-01 4.838584e-01 2.065845e-03
<VARIANCE> 39
 4.367132e+00 6.914497e+00 8.162754e+00 7.248342e+00 1.552572e+01 1.794549e+01 3.178282e+01 1.684463e+01 2.117448e+01 6.735735e+00 1.292436e+01 2.485711e+01 5.000000e-02 2.922150e-01 2.668972e-01 1.266424e+00 6.802932e-01 4.373243e-01 1.376277e+00 3.090886e+00 2.498758e-01 7.514756e-01 1.346684e+00 9.927527e-01 1.696232e+00 5.000000e-02 5.000000e-02 5.801623e-02 1.508980e-01 1.774617e-01 2.271876e-01 3.094684e-01 3.238601e-01 6.064473e-01 2.293504e-01 3.483054e-01 5.299442e-01 2.914350e-01 5.000000e-02
<GCONST> 7.174972e+01
<STATE> 8
<MEAN> 39
 -4.757424e+00 -1.873386e+01 -1.197558e+01 -1.020049e+01 -1.230392e+01 -1.271743e+01 5.344693e+00 1.028039e+01 3.699169e+00 -9.393094e-01 -6.988919e+00 -3.018153e+00 9.570087e-01 4.186668e-01 -9.335191e-01 -1.857031e+00 1.120991e+00 1.327420e+00 1.090117e+00 -6.395140e-01 1.848993e+00 1.397131e+00 -1.033082e+00 -1.869922e+00 2.445733e-01 2.533384e-02 -1.792413e-03 3.939298e-01 -6.128668e-02 -4.008650e-01 1.343330e-01 -1.306140e-01 -4.623986e-01 -1.268172e+00 5.514897e-02 -9.157586e-02 3.834151e-01 1.944301e-01 -4.329254e-03
<VARIANCE> 39
 5.332135e+00 6.414355e+00 4.203578e+00 2.221255e+00 1.267053e+01 2.162275e+01 3.148544e+01 6.558028e+00 3.376881e+01 1.463110e+01 1.256583e+01 2.514786e+01 5.000000e-02 1.310340e-01 4.291342e-01 7.953797e-01 1.650064e+00 2.068641e-01 1.213581e+00 2.030622e+00 2.739928e+00 1.391813e+00 1.149282e+00 5.728158e-01 7.221109e-01 5.000000e-02 5.086457e-02 5.260640e-02 1.387037e-01 1.390095e-01 8.373473e-02 1.654370e-01 2.759036e-01 1.169625e-01 2.466115e-01 3.981747e-01 1.471716e-01 2.060610e-01 5.000000e-02
<GCONST> 6.527116e+01
<STATE> 9
<MEAN> 39
 -2.988105e+00 -1.840280e+01 -1.911992e+01 -7.345701e+00 -8.661027e+00 -1.356287e+01 6.159430e+00 7.315076e+00 4.140294e+00 -4.163746e+00 -1.043692e+01 -5.399108e+00 9.777405e-01 8.496640e-02 1.632947e-01 -2.075213e+00 5.208206e-01 1.219909e+00 3.727195e-01 -1.473959e+00 -1.202302e+00 6.503983e-01 -8.044938e-01 -1.848703e+00 5.600178e-01 -3.810603e-03 -6.249856e-02 2.197222e-01 3.240075e-01 -2.892358e-01 -1.110955e-01 -1.290121e-01 -2.269190e-01 -2.958716e-01 -2.865747e-01 3.454706e-01 2.966093e-01 -8.604538e-03 -6.338082e-03
<VARIANCE> 39
 4.969195e+00 5.354559e+00 5.174567e+00 4.636339e+00 2.771962e+01 4.178252e+01 4.159435e+01 1.091837e+01 1.175732e+01 6.948436e+00 8.106925e+00 2.597805e+01 5.000000e-02 1.201653e-01 2.679219e-01 4.147394e-01 1.556766e-01 5.393849e-01 9.768810e-01 1.787651e-01 8.576116e-01 4.545574e-01 1.448220e+00 8.418275e-01 1.063053e+00 5.000000e-02 5.000000e-02 6.440999e-02 5.000000e-02 9.367219e-02 1.258294e-01 1.706340e-01 1.940233e-01 3.555547e-01 1.165445e-01 1.234184e-01 9.471005e-02 1.221373e-01 5.000000e-02
<GCONST> 5.653571e+01
<STATE> 10
<MEAN> 39
 -4.566196e+00 -1.807311e+01 -2.167679e+01 -8.456286e+00 -7.043349e+00 -9.637156e+00 -1.695237e+00 6.009365e+00 7.596925e+00 -5.146209e+00 -1.380196e+01 -1.131597e+00 9.613351e-01 4.465155e-02 6.317886e-01 -8.139846e-01 -8.661368e-02 7.907837e-01 4.218422e-01 -8.742845e-01 -4.449559e-01 4.214195e-01 4.063086e-01 2.101422e-01 -1.530124e-01 -6.506957e-03 7.526417e-02 3.698861e-03 4.896696e-01 -4.403925e-02 -2.225720e-01 2.729566e-01 2.540541e-01 4.012244e-01 -9.911604e-03 6.002286e-01 6.857267e-01 -1.955828e-01 -2.792338e-05
<VARIANCE> 39
 4.480541e+00 4.542304e+00 1.288763e+01 5.538607e+00 3.255850e+01 3.423820e+01 2.983131e+01 4.158530e+00 1.665268e+01 4.280678e+00 2.572987e+00 1.456717e+01 5.000000e-02 1.805857e-01 1.799278e-01 2.740626e-01 8.300804e-02 1.108328e+00 3.489447e-01 3.587544e-01 8.255405e-01 4.753070e-01 6.648986e-01 7.577264e-01 2.784313e-01 5.000000e-02 5.000000e-02 8.072015e-02 8.711159e-02 5.000000e-02 9.566883e-02 8.524078e-02 5.000000e-02 6.358274e-02 1.844244e-01 7.299720e-02 1.835108e-01 9.058450e-02 5.000000e-02
<GCONST> 4.770021e+01
<STATE> 11
<MEAN> 39
 -4.453348e+00 -1.644165e+01 -2.251740e+01 -8.287661e+00 -5.975010e+00 -7.295995e+00 -2.169159e+00 5.507110e+00 8.978407e+00 -2.762260e+00 -9.925334e+00 -4.236146e+00 9.487239e-01 1.974998e-01 -8.434648e-02 -1.794840e-01 2.812102e-01 -2.008010e-01 1.632422e+00 -9.137213e-01 -1.310559e-01 6.746243e-01 4.932594e-01 5.373670e-01 -4.227680e-01 -6.447101e-03 4.604826e-02 -1.964884e-01 1.546969e-01 -2.164957e-02 -2.809440e-01 -8.592121e-03 -1.834208e-02 8.248518e-02 -2.052940e-01 -9.652059e-03 -2.215608e-01 -5.890496e-02 -5.918752e-04
<VARIANCE> 39
 3.893349e+00 3.116817e+00 2.074913e+01 5.292931e+00 2.382818e+01 6.056970e+01 3.415074e+01 4.463387e+00 1.611666e+01 1.542808e+00 5.508055e+00 9.511382e+00 5.000000e-02 5.992621e-02 2.910968e-01 2.709376e-01 1.561663e-01 7.402105e-01 1.264218e+00 4.419380e-01 4.321047e-01 1.803002e+00 8.344801e-01 4.477941e-01 1.352877e-01 5.000000e-02 5.000000e-02 5.000000e-02 6.962476e-02 5.000000e-02 1.654631e-01 2.881387e-01 7.120588e-02 7.760967e-02 2.419709e-01 1.203163e-01 1.988278e-01 5.000000e-02 5.000000e-02
<GCONST> 4.998870e+01
<STATE> 12
<MEAN> 39
 -2.062813e+00 -1.790221e+01 -2.274180e+01 -6.470459e+00 -6.068034e+00 -5.875260e+00 -1.786601e+00 5.211068e+00 7.853852e+00 -1.994917e+00 -1.202430e+01 -6.241254e+00 9.126793e-01 2.431706e-01 -2.084251e-01 2.858980e-01 -5.560230e-01 -1.980716e-02 3.099570e-01 -9.408100e-01 7.265338e-03 -1.892460e-01 6.492506e-01 -2.083149e-02 -6.079057e-01 -9.794136e-03 1.154294e-01 1.546633e-01 -4.565086e-02 -1.392855e-01 8.874063e-02 -4.392865e-01 -3.691158e-02 1.509116e-01 -3.827489e-01 1.624479e-01 8.479369e-03 -8.651684e-02 -1.071751e-03
<VARIANCE> 39
 4.085184e+00 4.455036e+00 6.156059e+00 4.720259e+00 2.106476e+01 3.632497e+01 2.504800e+01 1.019524e+01 3.071787e+01 1.942950e+01 8.602758e+00 1.789752e+01 5.000000e-02 1.779528e-01 3.426123e-01 4.858060e-01 2.229752e-01 6.229296e-01 4.841477e-01 1.176334e+00 1.708346e+00 2.020595e+00 1.858684e+00 1.389624e+00 2.563855e-01 5.000000e-02 5.000000e-02 5.000000e-02 7.387909e-02 8.227461e-02 1.561340e-01 2.165234e-01 3.625273e-01 4.605119e-01 5.815410e-01 4.407244e-01 1.097388e-01 6.740738e-02 5.000000e-02
<GCONST> 6.480259e+01
<STATE> 13
<MEAN> 39
 -2.615536e+00 -1.674676e+01 -2.203675e+01 -9.653781e+00 -7.779198e+00 -3.639283e+00 -8.529826e+00 7.664779e+00 6.853023e+00 2.360724e+00 -1.094114e+01 -4.673217e+00 9.069663e-01 4.532236e-01 3.547883e-01 -4.612777e-01 -4.607513e-02 -9.502690e-02 -2.690523e-01 -4.420103e-01 8.616456e-01 -8.288855e-01 8.929893e-01 2.239140e-01 -7.208744e-01 -9.603408e-03 7.902005e-02 -5.954959e-02 -6.412710e-02 1.560401e-01 -7.137525e-03 -2.355129e-03 2.514436e-01 -1.058371e-01 2.913626e-01 -2.776143e-01 7.962289e-02 1.552665e-01 -1.521773e-03
<VARIANCE> 39
 2.733002e+00 7.139096e+00 5.690300e+00 3.969674e+00 9.638798e+00 1.740082e+01 9.969315e+00 6.594463e+00 5.404974e+00 8.501446e+00 9.320745e+00 1.033740e+01 5.000000e-02 2.302288e-01 1.986738e-01 1.008540e+00 8.966802e-01 5.550137e-01 1.804351e+00 1.183234e+00 4.023804e-01 1.454597e+00 1.017793e+00 1.017697e+00 4.642096e-01 5.000000e-02 5.000000e-02 5.000000e-02 1.737804e-01 5.000000e-02 1.293739e-01 1.186235e-01 1.142302e-01 6.543460e-02 7.533389e-02 1.941120e-01 1.811385e-01 5.000000e-02 5.000000e-02
<GCONST> 5.345892e+01
<STATE> 14
<MEAN> 39
 4.386246e-01 -1.829911e+01 -2.371626e+01 -8.311052e+00 -4.892359e+00 -7.102109e+00 -4.203846e+00 6.707249e+00 4.589692e+00 2.121809e+00 -8.848400e+00 -8.707948e+00 8.450609e-01 9.116268e-01 -1.616992e-01 9.748095e-02 3.478603e-01 -3.983756e-01 6.884481e-01 -4.268074e-01 1.416221e-03 2.344929e-01 -4.104828e-01 7.008718e-02 4.325908e-01 -1.932076e-02 -9.327931e-02 -2.210282e-02 1.542807e-01 8.103593e-02 -7.568914e-02 2.537666e-01 -1.172598e-01 -9.363034e-03 3.811314e-01 -1.992177e-01 -2.144608e-01 4.253879e-01 -2.590708e-03
<VARIANCE> 39
 6.391303e+00 1.140983e+01 1.003540e+01 1.116618e+01 3.669812e+01 2.932013e+01 1.358571e+01 1.119529e+01 6.378625e+00 6.332518e+00 4.550316e+00 1.140187e+01 5.000000e-02 1.237931e-01 1.108290e-01 1.466779e+00 1.083347e+00 1.880238e+00 8.330947e-01 4.045523e-01 2.187560e-01 2.647738e-01 6.637012e-01 4.864272e-01 1.309381e+00 5.000000e-02 5.000000e-02 8.786142e-02 2.743602e-01 2.717266e-01 1.814535e-01 1.833608e-01 5.351922e-02 1.020832e-01 8.080730e-02 8.071872e-02 9.723948e-02 6.436653e-02 5.000000e-02
<GCONST> 5.661694e+01
<STATE> 15
<MEAN> 39
 -2.336012e-01 -1.646848e+01 -2.304036e+01 -8.465690e+00 -1.003090e+01 -3.539322e+00 -1.120768e+01 9.225133e+00 7.878756e+00 2.092043e+00 -1.281911e+01 -4.749627e+00 8.233981e-01 4.082126e-01 1.583267e-01 4.473632e-01 2.281048e-01 2.670060e-01 -1.816691e-01 -4.796426e-01 3.883319e-01 2.496076e-01 2.636201e-01 -3.337903e-01 8.895339e-01 -2.604114e-02 -1.970069e-02 1.781284e-01 1.607750e-01 2.244849e-01 2.865113e-01 7.885296e-02 2.550385e-01 -8.222093e-02 -6.589467e-02 -1.642258e-01 2.360858e-01 -5.471954e-02 -4.820643e-03
<VARIANCE> 39
 4.789274e+00 4.809430e+00 1.161811e+01 1.477065e+01 3.650290e+01 3.584167e+01 8.840262e+00 1.619141e+01 3.117002e+01 1.661272e+01 1.505233e+01 3.775886e+01 5.000000e-02 1.616068e-01 3.625885e-01 6.824014e-01 8.738695e-01 1.200071e+00 1.875063e+00 3.841586e-01 7.786525e-01 2.017801e+00 1.485361e+00 1.963583e+00 6.482651e-01 5.000000e-02 8.302137e-02 5.000000e-02 1.504165e-01 1.929664e-01 3.171522e-01 4.719853e-01 1.375191e-01 1.403830e-01 2.903056e-01 2.348401e-01 3.274409e-01 2.870427e-01 5.000000e-02
<GCONST> 7.337312e+01
<STATE> 16
<MEAN> 39
 2.607798e+00 -1.528464e+01 -2.155879e+01 -5.055006e+00 -6.567600e+00 -2.073462e+00 -9.061304e+00 9.038790e+00 7.515996e+00 2.206991e+00 -1.109326e+01 -3.611497e+00 7.295989e-01 3.758341e-01 3.539760e-01 6.481749e-01 3.841023e-01 1.119272e+00 -7.427396e-02 1.402293e+00 -8.890046e-01 3.258101e-03 -8.823125e-01 7.513353e-01 -4.020749e-01 -4.000323e-02 -8.882065e-02 -1.618409e-01 1.082227e-01 -3.545175e-01 3.598565e-01 -7.818608e-01 6.721092e-01 -3.577941e-01 -4.688592e-01 -3.178411e-01 1.084086e-03 -6.702123e-01 -3.283314e-03
<VARIANCE> 39
 5.342821e+00 1.010592e+01 2.793103e+00 6.021706e+00 1.512115e+01 8.859573e+00 1.777488e+01 1.275705e+01 3.609321e+01 9.786130e+00 3.111169e+00 2.425789e+01 5.000000e-02 1.213869e+00 8.064846e-01 4.801624e-01 2.230417e+00 2.314812e+00 4.086383e+00 6.793302e-01 1.675545e+00 1.959238e+00 4.424091e-01 1.353476e+00 3.223596e+00 5.000000e-02 1.132554e-01 1.091244e-01 8.339389e-02 2.320133e-01 2.309938e-01 4.787980e-01 3.262770e-01 1.811312e-01 3.932441e-01 7.713821e-02 1.442093e-01 4.075069e-01 5.000000e-02
<GCONST> 7.406908e+01
<STATE> 17
<MEAN> 39
 1.580102e+00 -1.431019e+01 -2.055121e+01 -5.546283e+00 -5.412791e-01 -7.115602e+00 -1.898268e+00 5.259083e+00 5.388335e+00 -1.748121e+00 -7.682613e+00 -9.947189e+00 6.259160e-01 7.622275e-01 -2.687407e-01 1.032213e+00 4.693340e-01 1.030181e+00 -1.121600e+00 2.002077e+00 -7.346677e-01 -6.579894e-01 -1.225674e+00 -2.949049e-01 -7.020298e-01 -3.840355e-02 2.043167e-01 -4.983557e-01 2.871439e-01 -1.259146e-01 -5.089463e-01 2.284989e-01 -1.282388e-01 9.893416e-02 4.254500e-01 1.845412e-01 -1.019799e-01 7.990535e-01 8.699374e-05
<VARIANCE> 39
 8.004138e+00 4.468025e+00 7.701245e+00 2.190550e+01 2.147416e+01 3.482848e+01 1.827190e+01 1.492753e+01 9.452295e+00 6.811391e+00 2.604433e+01 3.769800e+01 5.000000e-02 1.094859e+00 1.294825e+00 8.505016e-01 1.614567e+00 1.506615e+00 2.937625e+00 2.919203e+00 5.009920e-01 2.929539e+00 1.074361e+00 1.163648e+00 5.118258e+00 5.000000e-02 3.024457e-01 2.069017e-01 1.641038e-01 6.271260e-01 2.428430e-01 6.216316e-01 1.998331e-01 2.289739e-01 2.411529e-01 1.464101e-01 6.085131e-01 8.950564e-01 5.000000e-02
<GCONST> 8.616817e+01
<STATE> 18
<MEAN> 39
 5.710163e+00 -1.742066e+01 -1.730212e+01 -6.283967e+00 -3.111815e+00 -6.982751e+00 4.798418e-03 4.806495e+00 5.791688e+00 -2.684872e+00 -9.229075e+00 -7.272084e+00 5.707813e-01 -4.470805e-02 -5.772021e-01 1.225810e+00 3.757605e-01 9.892126e-03 -4.917282e-01 8.090656e-01 -4.435321e-01 -7.544918e-02 -7.610567e-01 3.928741e-01 2.338570e-01 -4.170211e-02 -3.455827e-01 6.956960e-02 -5.856729e-02 3.677294e-02 8.048860e-02 -1.783455e-01 -2.426413e-01 7.260205e-02 -8.444817e-02 2.339993e-01 2.817255e-01 5.547670e-02 -1.259263e-03
<VARIANCE> 39
 3.037688e+00 4.240012e+00 7.787037e+00 5.344932e+00 6.911537e+00 6.301951e+00 9.007317e+00 7.901760e+00 1.242317e+01 7.855841e+00 5.466360e+00 4.766700e+00 5.000000e-02 6.357282e-01 5.746534e-01 1.142940e+00 1.150438e+00 1.514648e+00 2.730769e+00 1.245255e+00 8.585898e-01 1.283523e+00 6.033924e-01 8.526046e-01 1.973835e+00 5.000000e-02 9.721598e-02 6.648060e-02 1.772500e-01 2.501776e-01 2.258736e-01 2.205622e-01 2.006468e-01 8.138092e-02 3.893665e-01 2.448556e-01 1.844308e-01 3.091240e-01 5.000000e-02
<GCONST> 6.538645e+01
<STATE> 19
<MEAN> 39
 3.205694e+00 -1.948685e+01 -1.394715e+01 -4.845396e+00 -1.673481e+00 -1.068048e+01 9.002646e-01 3.312498e+00 6.198441e+00 -3.994021e+00 -7.062459e+00 -3.573606e+00 3.966404e-01 -5.573020e-01 -4.150147e-01 3.074163e-01 -2.763545e-01 5.947313e-01 -1.272440e+00 -9.755598e-02 -3.093079e-01 4.077889e-01 8.996824e-01 1.099100e+00 7.666395e-01 -3.485671e-02 -7.611737e-02 2.620682e-01 -2.988317e-01 2.959837e-02 4.012018e-02 4.757997e-01 -3.100728e-01 1.684753e-01 2.473654e-01 2.469750e-01 -6.824626e-02 4.842274e-02 5.307491e-03
<VARIANCE> 39
 8.120733e-01 2.133651e+00 3.544485e+00 6.236444e+00 9.710868e+00 9.574787e+00 7.700160e+00 1.013909e+01 1.076742e+01 1.583788e+01 9.596205e+00 1.866588e+01 5.000000e-02 1.433195e-01 2.688579e-01 1.016917e+00 1.279717e+00 5.651392e-01 5.579765e-01 1.236929e+00 7.214449e-01 8.748711e-01 9.841259e-01 1.560237e+00 7.999620e-01 5.000000e-02 5.000000e-02 5.000000e-02 1.446511e-01 3.245021e-01 2.313763e-01 1.970181e-01 4.758080e-01 2.224201e-01 2.026561e-01 2.999523e-01 1.625907e-01 1.583931e-01 5.000000e-02
<GCONST> 6.051960e+01
<STATE> 20
<MEAN> 39
 1.369980e+00 -1.860018e+01 -1.327206e+01 -5.240818e+00 6.500849e-01 -1.103379e+01 6.472180e-01 3.834312e+00 6.598220e+00 -1.743685e+00 -4.210453e+00 -1.842804e+00 3.352818e-01 -3.638448e-01 6.008112e-01 1.768409e-01 -4.323893e-02 7.626078e-01 7.360984e-01 2.163380e-01 2.750487e-02 -6.886109e-02 -3.674227e-01 3.702821e-01 5.135645e-01 -2.755249e-02 1.664325e-01 3.175174e-01 1.232630e-01 1.940626e-01 -2.667771e-01 3.513500e-01 1.568289e-02 -1.258174e-01 -2.776510e-01 -6.920262e-01 -3.967806e-01 -2.162233e-01 3.100619e-03
<VARIANCE> 39
 2.165773e+00 1.176392e+01 1.426944e+01 7.765591e+00 1.267810e+01 1.359734e+01 8.455240e+00 3.097979e+00 1.066510e+01 1.080835e+01 1.057858e+01 1.431168e+01 5.000000e-02 2.207603e-01 4.159484e-01 8.763607e-01 7.330769e-01 2.452805e+00 7.720138e-01 1.084639e+00 1.168062e+00 1.659472e-01 4.893569e-01 5.631845e-01 8.833662e-01 5.000000e-02 8.580244e-02 6.103933e-02 3.353461e-01 2.672012e-01 2.897998e-01 1.164758e-01 1.777091e-01 1.686293e-01 1.131702e-01 1.893073e-01 3.738510e-01 2.957379e-01 5.000000e-02
<GCONST> 6.304792e+01
<STATE> 21
<MEAN> 39
 1.944919e+00 -1.616729e+01 -1.234335e+01 -3.692063e+00 1.027486e+00 -9.407414e+00 3.209723e-01 2.285678e+00 7.076359e+00 -4.934391e+00 -5.630879e+00 -2.185279e+00 2.956684e-01 -8.299011e-02 1.225211e+00 1.627640e+00 9.358808e-01 -2.153649e-01 8.403299e-01 1.186966e-01 -6.209693e-01 -4.202406e-01 -1.632995e+00 -6.365971e-01 -3.403706e-01 -2.132998e-02 -2.612664e-01 -1.350790e-01 3.028760e-01 -7.404186e-02 -2.869154e-01 -1.172534e-02 6.419822e-02 1.330375e-01 -1.726623e-01 1.626654e-01 2.119028e-01 -3.050810e-02 -5.704395e-03
<VARIANCE> 39
 2.586751e+00 9.159013e+00 7.356773e+00 5.262792e+00 1.491394e+01 2.073043e+01 1.438607e+01 2.563910e+01 1.034514e+01 1.101104e+01 1.409873e+01 8.439133e+00 5.000000e-02 8.864243e-01 2.464134e-01 9.351525e-01 7.084084e-01 1.563120e+00 9.691947e-01 7.765749e-01 8.470094e-01 7.353525e-01 7.144068e-01 1.336915e+00 9.524477e-01 5.000000e-02 7.613751e-02 9.090430e-02 1.619214e-01 1.376935e-01 4.994130e-01 1.716328e-01 1.789941e-01 2.664193e-01 5.000000e-02 1.207445e-01 2.252093e-01 1.718069e-01 5.000000e-02
<GCONST> 6.569315e+01
<STATE> 22
<MEAN> 39
 4.504627e-02 -1.543239e+01 -8.414438e+00 -2.826898e+00 -9.394802e-02 -7.772266e+00 1.088973e+00 2.984926e+00 5.213961e+00 -7.184861e+00 -4.426840e+00 -1.511051e+00 2.098066e-01 -1.192727e+00 3.089088e-01 9.307593e-01 -4.840959e-01 -5.341180e-01 6.953062e-01 3.704946e-01 1.130643e-01 -7.174783e-01 5.624883e-02 7.885101e-01 -2.468778e-02 -4.532831e-02 -2.311182e-01 -9.003810e-02 -2.354482e-01 -2.087783e-01 6.746122e-02 -5.516736e-02 -2.720111e-02 5.730055e-02 3.388523e-01 4.232409e-01 -2.317194e-02 -7.547174e-02 -6.630648e-03
<VARIANCE> 39
 3.312721e+00 8.256667e+00 1.584268e+01 6.033166e+00 5.373538e+00 2.568287e+01 3.788562e+00 4.395619e+00 1.067164e+01 7.190443e+00 9.878119e+00 6.015771e+00 5.000000e-02 1.889205e-01 5.708714e-01 4.417914e-01 7.933383e-01 9.648675e-01 7.779585e-01 6.255456e-01 4.999187e-01 1.204312e+00 1.145376e+00 4.896335e-01 4.880699e-01 5.000000e-02 5.191297e-02 1.567383e-01 2.452898e-01 2.318624e-01 2.193840e-01 1.311221e-01 6.618611e-02 5.000000e-02 2.036241e-01 1.501268e-01 2.228764e-01 1.799482e-01 5.000000e-02
<GCONST> 5.724742e+01
<STATE> 23
<MEAN> 39
 -3.752036e+00 -1.332063e+01 -7.444942e+00 -4.310735e+00 -8.839670e-01 -6.362043e+00 2.245270e+00 2.775558e+00 4.313237e+00 -5.459070e+00 -3.691708e+00 -4.396632e+00 5.771152e-02 -1.015443e+00 4.085118e-01 3.095426e-01 -1.437399e-01 1.557696e-01 3.411158e-01 -1.098598e-01 1.716604e-01 1.463403e+00 8.646542e-01 6.805512e-01 -4.183730e-01 -3.970568e-02 2.068348e-01 5.550501e-02 -3.283694e-02 6.282791e-02 2.232207e-01 5.845976e-02 -1.037508e-01 -7.876346e-02 1.699482e-01 1.952567e-01 1.458616e-01 1.628139e-02 8.963574e-03
<VARIANCE> 39
 1.641305e+00 3.082316e+00 4.599695e+00 1.183407e+01 5.006739e+00 1.771061e+01 1.341822e+01 2.311993e+01 2.948470e+01 1.415174e+01 1.230954e+01 1.048245e+01 5.000000e-02 2.561739e-01 7.701361e-01 9.493807e-01 7.841159e-01 7.284873e-01 1.505720e+00 1.177994e+00 1.374332e+00 2.010941e+00 1.214697e+00 8.457510e-01 8.562416e-01 5.000000e-02 5.000000e-02 5.000000e-02 1.461000e-01 2.473556e-01 2.044955e-01 1.368485e-01 2.984506e-01 2.786347e-01 6.374778e-01 2.878484e-01 1.510474e-01 8.056097e-02 5.000000e-02
<GCONST> 6.717117e+01
<STATE> 24
<MEAN> 39
 -6.779678e+00 -1.296862e+01 -4.937234e+00 -5.427347e+00 -6.599196e-01 -3.083740e+00 4.174066e-01 2.058859e+00 1.059308e+01 -3.753624e+00 -1.051793e+00 -1.280089e+00 -2.675320e-02 -2.399219e-01 5.211642e-01 8.213058e-01 2.865182e-01 5.588388e-02 2.379258e-02 -2.773547e-01 -4.490401e-01 -3.178675e-01 1.588479e-01 5.800385e-01 2.011408e-01 -1.169042e-02 2.825552e-01 8.995376e-02 1.154674e-01 7.559279e-02 -4.264172e-02 -6.051731e-02 6.940505e-02 -2.959930e-01 -5.188759e-01 -1.978734e-01 -1.305617e-01 3.215697e-02 9.282190e-03
<VARIANCE> 39
 1.709423e+00 2.643903e+00 6.138453e+00 4.955739e+00 6.479436e+00 1.634210e+01 1.077967e+01 9.475056e+00 6.981070e+00 1.732250e+01 1.442964e+01 1.849207e+01 5.000000e-02 4.206142e-01 3.673422e-01 7.895750e-01 8.667098e-01 1.191505e+00 8.034858e-01 1.287243e+00 1.679565e+00 1.510374e+00 2.085600e+00 1.270570e+00 4.833003e-01 5.000000e-02 5.000000e-02 6.909699e-02 1.435344e-01 1.463758e-01 9.358715e-02 1.935874e-01 1.788207e-01 2.151115e-01 2.653700e-01 4.250994e-01 2.941456e-01 1.224550e-01 5.000000e-02
<GCONST> 6.411914e+01
<TRANSP> 25
 0.000000e+00 1.000000e+00 0.000000e+00 0.000000e+00 0.000000e+00 0.000000e+00 0.000000e+00 0.000000e+00 0.000000e+00 0.000000e+00 0.000000e+00 0.000000e+00 0.000000e+00 0.000000e+00 0.000000e+00 0.000000e+00 0.000000e+00 0.000000e+00 0.000000e+00 0.000000e+00 0.000000e+00 0.000000e+00 0.000000e+00 0.000000e+00 0.000000e+00
 0.000000e+00 6.396737e-01 3.603263e-01 0.000000e+00 0.000000e+00 0.000000e+00 0.000000e+00 0.000000e+00 0.000000e+00 0.000000e+00 0.000000e+00 0.000000e+00 0.000000e+00 0.000000e+00 0.000000e+00 0.000000e+00 0.000000e+00 0.000000e+00 0.000000e+00 0.000000e+00 0.000000e+00 0.000000e+00 0.000000e+00 0.000000e+00 0.000000e+00
 0.000000e+00 0.000000e+00 6.152524e-01 3.847476e-01 0.000000e+00 0.000000e+00 0.000000e+00 0.000000e+00 0.000000e+00 0.000000e+00 0.000000e+00 0.000000e+00 0.000000e+00 0.000000e+00 0.000000e+00 0.000000e+00 0.000000e+00 0.000000e+00 0.000000e+00 0.000000e+00 0.000000e+00 0.000000e+00 0.000000e+00 0.000000e+00 0.000000e+00
 0.000000e+00 0.000000e+00 0.000000e+00 6.430025e-01 3.569976e-01 0.000000e+00 0.000000e+00 0.000000e+00 0.000000e+00 0.000000e+00 0.000000e+00 0.000000e+00 0.000000e+00 0.000000e+00 0.000000e+00 0.000000e+00 0.000000e+00 0.000000e+00 0.000000e+00 0.000000e+00 0.000000e+00 0.000000e+00 0.000000e+00 0.000000e+00 0.000000e+00
 0.000000e+00 0.000000e+00 0.000000e+00 0.000000e+00 5.832967e-01 4.167033e-01 0.000000e+00 0.000000e+00 0.000000e+00 0.000000e+00 0.000000e+00 0.000000e+00 0.000000e+00 0.000000e+00 0.000000e+00 0.000000e+00 0.000000e+00 0.000000e+00 0.000000e+00 0.000000e+00 0.000000e+00 0.000000e+00 0.000000e+00 0.000000e+00 0.000000e+00
 0.000000e+00 0.000000e+00 0.000000e+00 0.000000e+00 0.000000e+00 6.153858e-01 3.846142e-01 0.000000e+00 0.000000e+00 0.000000e+00 0.000000e+00 0.000000e+00 0.000000e+00 0.000000e+00 0.000000e+00 0.000000e+00 0.000000e+00 0.000000e+00 0.000000e+00 0.000000e+00 0.000000e+00 0.000000e+00 0.000000e+00 0.000000e+00 0.000000e+00
 0.000000e+00 0.000000e+00 0.000000e+00 0.000000e+00 0.000000e+00 0.000000e+00 5.833283e-01 4.166717e-01 0.000000e+00 0.000000e+00 0.000000e+00 0.000000e+00 0.000000e+00 0.000000e+00 0.000000e+00 0.000000e+00 0.000000e+00 0.000000e+00 0.000000e+00 0.000000e+00 0.000000e+00 0.000000e+00 0.000000e+00 0.000000e+00 0.000000e+00
 0.000000e+00 0.000000e+00 0.000000e+00 0.000000e+00 0.000000e+00 0.000000e+00 0.000000e+00 6.435803e-01 3.564198e-01 0.000000e+00 0.000000e+00 0.000000e+00 0.000000e+00 0.000000e+00 0.000000e+00 0.000000e+00 0.000000e+00 0.000000e+00 0.000000e+00 0.000000e+00 0.000000e+00 0.000000e+00 0.000000e+00 0.000000e+00 0.000000e+00
 0.000000e+00 0.000000e+00 0.000000e+00 0.000000e+00 0.000000e+00 0.000000e+00 0.000000e+00 0.000000e+00 6.144600e-01 3.855400e-01 0.000000e+00 0.000000e+00 0.000000e+00 0.000000e+00 0.000000e+00 0.000000e+00 0.000000e+00 0.000000e+00 0.000000e+00 0.000000e+00 0.000000e+00 0.000000e+00 0.000000e+00 0.000000e+00 0.000000e+00
 0.000000e+00 0.000000e+00 0.000000e+00 0.000000e+00 0.000000e+00 0.000000e+00 0.000000e+00 0.000000e+00 0.000000e+00 5.439812e-01 4.560188e-01 0.000000e+00 0.000000e+00 0.000000e+00 0.000000e+00 0.000000e+00 0.000000e+00 0.000000e+00 0.000000e+00 0.000000e+00 0.000000e+00 0.000000e+00 0.000000e+00 0.000000e+00 0.000000e+00
 0.000000e+00 0.000000e+00 0.000000e+00 0.000000e+00 0.000000e+00 0.000000e+00 0.000000e+00 0.000000e+00 0.000000e+00 0.000000e+00 6.672282e-01 3.327717e-01 0.000000e+00 0.000000e+00 0.000000e+00 0.000000e+00 0.000000e+00 0.000000e+00 0.000000e+00 0.000000e+00 0.000000e+00 0.000000e+00 0.000000e+00 0.000000e+00 0.000000e+00
 0.000000e+00 0.000000e+00 0.000000e+00 0.000000e+00 0.000000e+00 0.000000e+00 0.000000e+00 0.000000e+00 0.000000e+00 0.000000e+00 0.000000e+00 5.838327e-01 4.161673e-01 0.000000e+00 0.000000e+00 0.000000e+00 0.000000e+00 0.000000e+00 0.000000e+00 0.000000e+00 0.000000e+00 0.000000e+00 0.000000e+00 0.000000e+00 0.000000e+00
 0.000000e+00 0.000000e+00 0.000000e+00 0.000000e+00 0.000000e+00 0.000000e+00 0.000000e+00 0.000000e+00 0.000000e+00 0.000000e+00 0.000000e+00 0.000000e+00 6.666208e-01 3.333792e-01 0.000000e+00 0.000000e+00 0.000000e+00 0.000000e+00 0.000000e+00 0.000000e+00 0.000000e+00 0.000000e+00 0.000000e+00 0.000000e+00 0.000000e+00
 0.000000e+00 0.000000e+00 0.000000e+00 0.000000e+00 0.000000e+00 0.000000e+00 0.000000e+00 0.000000e+00 0.000000e+00 0.000000e+00 0.000000e+00 0.000000e+00 0.000000e+00 4.998969e-01 5.001031e-01 0.000000e+00 0.000000e+00 0.000000e+00 0.000000e+00 0.000000e+00 0.000000e+00 0.000000e+00 0.000000e+00 0.000000e+00 0.000000e+00
 0.000000e+00 0.000000e+00 0.000000e+00 0.000000e+00 0.000000e+00 0.000000e+00 0.000000e+00 0.000000e+00 0.000000e+00 0.000000e+00 0.000000e+00 0.000000e+00 0.000000e+00 0.000000e+00 6.667652e-01 3.332348e-01 0.000000e+00 0.000000e+00 0.000000e+00 0.000000e+00 0.000000e+00 0.000000e+00 0.000000e+00 0.000000e+00 0.000000e+00
 0.000000e+00 0.000000e+00 0.000000e+00 0.000000e+00 0.000000e+00 0.000000e+00 0.000000e+00 0.000000e+00 0.000000e+00 0.000000e+00 0.000000e+00 0.000000e+00 0.000000e+00 0.000000e+00 0.000000e+00 5.905095e-01 4.094906e-01 0.000000e+00 0.000000e+00 0.000000e+00 0.000000e+00 0.000000e+00 0.000000e+00 0.000000e+00 0.000000e+00
 0.000000e+00 0.000000e+00 0.000000e+00 0.000000e+00 0.000000e+00 0.000000e+00 0.000000e+00 0.000000e+00 0.000000e+00 0.000000e+00 0.000000e+00 0.000000e+00 0.000000e+00 0.000000e+00 0.000000e+00 0.000000e+00 4.451452e-01 5.548548e-01 0.000000e+00 0.000000e+00 0.000000e+00 0.000000e+00 0.000000e+00 0.000000e+00 0.000000e+00
 0.000000e+00 0.000000e+00 0.000000e+00 0.000000e+00 0.000000e+00 0.000000e+00 0.000000e+00 0.000000e+00 0.000000e+00 0.000000e+00 0.000000e+00 0.000000e+00 0.000000e+00 0.000000e+00 0.000000e+00 0.000000e+00 0.000000e+00 6.617613e-01 3.382386e-01 0.000000e+00 0.000000e+00 0.000000e+00 0.000000e+00 0.000000e+00 0.000000e+00
 0.000000e+00 0.000000e+00 0.000000e+00 0.000000e+00 0.000000e+00 0.000000e+00 0.000000e+00 0.000000e+00 0.000000e+00 0.000000e+00 0.000000e+00 0.000000e+00 0.000000e+00 0.000000e+00 0.000000e+00 0.000000e+00 0.000000e+00 0.000000e+00 6.663091e-01 3.336909e-01 0.000000e+00 0.000000e+00 0.000000e+00 0.000000e+00 0.000000e+00
 0.000000e+00 0.000000e+00 0.000000e+00 0.000000e+00 0.000000e+00 0.000000e+00 0.000000e+00 0.000000e+00 0.000000e+00 0.000000e+00 0.000000e+00 0.000000e+00 0.000000e+00 0.000000e+00 0.000000e+00 0.000000e+00 0.000000e+00 0.000000e+00 0.000000e+00 5.833677e-01 4.166323e-01 0.000000e+00 0.000000e+00 0.000000e+00 0.000000e+00
 0.000000e+00 0.000000e+00 0.000000e+00 0.000000e+00 0.000000e+00 0.000000e+00 0.000000e+00 0.000000e+00 0.000000e+00 0.000000e+00 0.000000e+00 0.000000e+00 0.000000e+00 0.000000e+00 0.000000e+00 0.000000e+00 0.000000e+00 0.000000e+00 0.000000e+00 0.000000e+00 5.459158e-01 4.540842e-01 0.000000e+00 0.000000e+00 0.000000e+00
 0.000000e+00 0.000000e+00 0.000000e+00 0.000000e+00 0.000000e+00 0.000000e+00 0.000000e+00 0.000000e+00 0.000000e+00 0.000000e+00 0.000000e+00 0.000000e+00 0.000000e+00 0.000000e+00 0.000000e+00 0.000000e+00 0.000000e+00 0.000000e+00 0.000000e+00 0.000000e+00 0.000000e+00 6.422043e-01 3.577957e-01 0.000000e+00 0.000000e+00
 0.000000e+00 0.000000e+00 0.000000e+00 0.000000e+00 0.000000e+00 0.000000e+00 0.000000e+00 0.000000e+00 0.000000e+00 0.000000e+00 0.000000e+00 0.000000e+00 0.000000e+00 0.000000e+00 0.000000e+00 0.000000e+00 0.000000e+00 0.000000e+00 0.000000e+00 0.000000e+00 0.000000e+00 0.000000e+00 6.186492e-01 3.813508e-01 0.000000e+00
 0.000000e+00 0.000000e+00 0.000000e+00 0.000000e+00 0.000000e+00 0.000000e+00 0.000000e+00 0.000000e+00 0.000000e+00 0.000000e+00 0.000000e+00 0.000000e+00 0.000000e+00 0.000000e+00 0.000000e+00 0.000000e+00 0.000000e+00 0.000000e+00 0.000000e+00 0.000000e+00 0.000000e+00 0.000000e+00 0.000000e+00 7.354938e-01 2.645061e-01
 0.000000e+00 0.000000e+00 0.000000e+00 0.000000e+00 0.000000e+00 0.000000e+00 0.000000e+00 0.000000e+00 0.000000e+00 0.000000e+00 0.000000e+00 0.000000e+00 0.000000e+00 0.000000e+00 0.000000e+00 0.000000e+00 0.000000e+00 0.000000e+00 0.000000e+00 0.000000e+00 0.000000e+00 0.000000e+00 0.000000e+00 0.000000e+00 0.000000e+00
<ENDHMM>
