~o
<STREAMINFO> 1 39
<VECSIZE> 39<NULLD><MFCC_E_D_A><DIAGC>
~h "Huy"
<BEGINHMM>
<NUMSTATES> 25
<STATE> 2
<MEAN> 39
 -6.079206e+00 -9.623161e+00 -2.796562e+00 -3.309830e+00 2.314776e+00 -2.886405e+00 2.756876e+00 -2.107449e+00 -9.355035e-01 -2.019104e+00 3.036011e+00 -2.157685e+00 2.799565e-02 -4.350267e-01 -4.548333e-01 -6.508031e-01 -3.197839e-01 1.521991e+00 6.896110e-01 3.821073e-01 3.805460e-01 6.577340e-01 3.181333e-01 1.940521e-01 1.427262e-01 8.460885e-03 -1.237400e-01 -2.368234e-01 -1.832044e-01 -9.014581e-02 6.651989e-01 7.135058e-02 -4.939303e-02 1.651883e-01 2.009139e-01 -2.145612e-01 -3.344695e-01 8.321354e-02 1.465109e-02
<VARIANCE> 39
 1.540445e+00 1.722178e+00 4.815777e+00 5.296252e+00 1.154055e+01 8.247569e+00 8.657165e+00 8.050241e+00 4.939881e+00 1.373726e+01 9.685861e+00 7.943238e+00 5.000000e-02 1.450674e-01 9.190709e-01 7.455815e-01 8.236799e-01 1.959226e+00 8.419686e-01 9.118018e-01 1.357186e+00 9.729733e-01 1.365799e+00 9.391270e-01 9.798801e-01 5.000000e-02 5.000000e-02 2.163005e-01 1.643535e-01 1.737987e-01 1.930846e-01 2.100631e-01 9.810429e-02 3.198388e-01 2.833650e-01 2.844394e-01 4.200646e-01 2.013257e-01 5.000000e-02
<GCONST> 6.293971e+01
<STATE> 3
<MEAN> 39
 -8.295034e+00 -9.918983e+00 -4.029196e+00 -4.411561e+00 9.786463e+00 -2.822059e+00 3.962743e+00 -5.455250e-01 1.268344e+00 -3.272197e+00 4.617759e+00 -1.780156e-01 6.995577e-02 -4.908845e-01 -1.548172e+00 -1.381914e+00 -1.392347e+00 1.922884e+00 2.998924e-01 4.230751e-01 6.696569e-01 -2.365902e-01 -5.033473e-01 -1.236105e+00 -1.871434e-01 5.728595e-02 4.286672e-01 -4.120309e-01 -2.028572e-01 -7.665389e-02 -7.029336e-01 5.174233e-02 -2.641843e-01 -7.414803e-02 -5.485003e-01 -4.731000e-02 -6.243495e-01 -3.913735e-01 1.785956e-02
<VARIANCE> 39
 4.682704e+00 1.284221e+01 3.266198e+00 1.537186e+01 1.685801e+00 2.246597e+01 4.275080e+01 1.016691e+01 1.590668e+01 1.163588e+01 1.091542e+01 5.023192e+00 5.000000e-02 7.067533e-01 2.056209e+00 8.278085e-01 3.329574e-01 2.043438e+00 1.726058e+00 1.927918e+00 1.930563e+00 1.313476e+00 9.074501e-01 3.539651e+00 2.538991e+00 5.000000e-02 1.277097e-01 5.000000e-02 1.274210e-01 2.134492e-01 4.456786e-01 1.632452e-01 7.753006e-01 5.006285e-01 4.845456e-01 2.033556e-01 4.327548e-01 8.506189e-02 5.000000e-02
<GCONST> 7.582307e+01
<STATE> 4
<MEAN> 39
 -7.027120e+00 -1.854975e+01 -9.995681e+00 -8.433728e+00 1.344497e+01 9.247391e-01 3.668901e+00 9.317153e-01 -2.310783e+00 -4.217251e+00 -4.155091e+00 -3.397846e+00 3.742205e-01 8.740705e-01 -9.018108e-01 -1.814658e+00 -4.608295e-01 -6.416280e-01 3.082295e-01 -5.131992e-01 -2.758590e-01 8.571687e-02 -5.423221e-01 -1.989903e+00 -8.309439e-01 8.545468e-02 2.946564e-01 8.490578e-01 3.393771e-02 3.352090e-01 -1.082762e+00 -3.307569e-01 -1.384841e-01 -4.186890e-01 7.748331e-01 9.900588e-02 1.948445e-01 -1.396942e-01 -3.479706e-03
<VARIANCE> 39
 3.986308e+00 2.330919e+01 1.867584e+01 1.173552e+01 2.727974e+01 1.632029e+01 2.522243e+01 1.259101e+01 1.414884e+01 2.049380e+01 1.603926e+01 1.844756e+01 5.000000e-02 6.868110e-01 3.402893e+00 2.176969e+00 9.385294e-01 5.065229e+00 1.055522e+00 4.669775e+00 3.421214e+00 5.356112e+00 8.245475e-01 1.843831e+00 1.159270e+00 5.000000e-02 7.852460e-02 2.988852e-01 2.162524e-01 1.529234e-01 4.703419e-01 1.932746e-01 2.233180e-01 4.142793e-01 7.655560e-01 1.870578e-01 4.660287e-01 5.732024e-01 5.000000e-02
<GCONST> 8.888349e+01
<STATE> 5
<MEAN> 39
 -4.043837e+00 -1.308176e+01 -1.007726e+01 -5.087510e+00 3.842793e+00 -3.124180e-01 -1.141560e+00 -2.204728e+00 8.697515e-01 -6.775258e+00 -4.409443e+00 -4.338366e+00 4.239343e-01 2.361905e-01 5.085065e-01 -1.598217e+00 2.602013e-01 -1.520838e+00 -6.647173e-01 2.448822e-01 -1.298546e+00 1.786461e+00 -1.602252e-01 -7.944768e-02 -8.645829e-01 6.210260e-02 -5.875888e-01 -2.823897e-01 3.270626e-02 -3.206200e-01 2.802985e-01 -5.620288e-01 6.479101e-01 3.139521e-01 3.403927e-01 3.183284e-01 2.770974e-01 5.794733e-02 -1.331604e-03
<VARIANCE> 39
 5.895434e+00 2.084998e+01 5.914015e+01 1.356327e+01 2.682082e+01 3.198937e+01 3.343628e+01 3.239661e+01 1.336593e+01 1.400004e+01 3.382197e+01 1.135779e+01 9.596224e-02 1.310109e+00 9.481143e-01 3.574180e+00 7.758917e-01 4.759000e+00 2.771067e+00 1.592997e+00 8.980711e-01 4.841751e+00 5.984232e-01 3.298991e+00 2.461897e+00 5.000000e-02 1.362811e-01 3.762830e-01 6.123383e-01 1.855360e-01 3.943518e-01 4.604425e-01 4.419225e-01 7.360345e-01 4.510613e-01 1.885501e-01 6.597154e-01 2.599042e-01 5.000000e-02
<GCONST> 9.489583e+01
<STATE> 6
<MEAN> 39
 -5.531693e+00 -1.588400e+01 -1.656851e+01 -8.992579e+00 4.636702e+00 -5.716299e+00 4.204678e+00 -1.892782e+00 8.366498e+00 -2.415206e+00 -5.962718e+00 -6.640253e+00 6.345229e-01 -1.105045e+00 -1.197466e+00 6.612864e-01 -1.367672e+00 -9.008701e-01 -1.603194e+00 5.082670e-01 2.349655e+00 8.840588e-01 1.076423e+00 -5.933933e-01 -3.227935e-01 5.121050e-02 -4.485320e-01 -2.210711e-01 1.020383e+00 -6.769635e-02 1.408814e-01 -2.395969e-02 1.833858e-01 7.497806e-01 -1.030101e+00 -1.685631e-01 2.857732e-01 2.658852e-01 -9.060094e-03
<VARIANCE> 39
 9.861416e+00 3.031746e+01 8.143918e+01 4.307714e+01 3.633139e+01 3.962018e+01 2.578517e+01 3.246755e+01 2.767999e+01 2.542821e+01 4.481831e+01 4.111885e+01 1.558094e-01 1.873956e+00 1.014396e+00 4.270962e+00 7.409190e-01 1.352440e+00 7.510868e+00 1.841044e+00 2.815090e+00 3.484111e+00 1.538861e+00 8.838714e-01 1.379854e+00 5.000000e-02 3.418324e-01 3.782639e-01 8.748860e-01 2.780496e-01 3.527149e-01 1.112697e+00 2.313938e-01 5.897983e-01 4.855563e-01 5.816288e-01 3.125362e-01 4.759454e-01 5.000000e-02
<GCONST> 1.038472e+02
<STATE> 7
<MEAN> 39
 -9.766680e+00 -1.977051e+01 -1.263193e+01 -1.176831e+01 5.981304e+00 -7.979461e+00 7.338750e+00 4.595902e+00 4.194657e+00 -4.516010e+00 -5.994063e+00 -6.664190e+00 7.115039e-01 -1.819773e+00 -9.784719e-01 9.474974e-01 -9.040028e-01 -4.254599e-01 -1.760363e+00 2.051775e+00 8.562074e-01 -6.496550e-01 -2.712887e-01 2.491711e-02 -4.427572e-02 5.122338e-02 1.126241e-01 7.109918e-01 1.329647e-01 3.827182e-01 -6.713790e-01 1.549786e-01 5.054909e-02 -8.027648e-01 -2.911662e-02 2.799852e-01 3.061992e-01 -5.986213e-02 -1.111914e-02
<VARIANCE> 39
 9.235006e+00 1.202142e+01 1.188396e+01 1.220861e+01 7.965523e+01 2.088363e+01 1.210934e+01 2.937193e+01 4.502664e+01 8.015831e+00 2.616679e+01 2.237321e+01 1.115887e-01 1.020520e+00 2.834216e+00 6.536008e+00 1.915185e+00 7.873415e+00 2.161113e+00 9.762760e-01 4.512644e+00 2.656484e+00 3.600199e+00 3.248999e+00 3.007388e+00 5.000000e-02 2.012487e-01 3.735315e-01 3.371508e-01 1.629220e-01 6.550592e-01 5.651588e-01 3.337852e-01 8.179931e-02 3.680347e-01 2.529247e-01 1.974152e-01 2.224099e-01 5.000000e-02
<GCONST> 9.559113e+01
<STATE> 8
<MEAN> 39
 -1.411190e+01 -1.834073e+01 -8.299858e+00 -1.435460e+01 -5.667945e+00 -1.423761e+01 1.280896e+01 9.061540e+00 4.989736e+00 8.414629e-02 -5.069095e+00 -8.106277e+00 9.070870e-01 -9.234720e-01 1.022361e+00 1.975837e+00 -2.469085e-01 -2.714159e+00 -7.980925e-01 1.136544e+00 -7.436097e-01 -1.094514e+00 1.714560e+00 1.773181e+00 -1.107515e-01 -1.260239e-02 5.194556e-01 1.027540e-01 -3.624128e-01 -1.144136e-01 4.847583e-02 3.116305e-01 -6.357792e-01 -8.674452e-01 1.522816e-01 3.677909e-01 1.174461e-01 9.947771e-02 -4.479612e-03
<VARIANCE> 39
 5.366534e+00 5.048114e+00 1.009068e+01 3.833863e+00 5.834814e+01 3.827692e+01 1.342402e+01 3.747667e+01 6.159955e+00 1.105773e+01 1.729687e+01 1.309957e+01 5.000000e-02 4.219233e-01 1.539922e-01 4.116472e-01 2.747188e-01 1.422270e+00 6.345215e-01 1.651134e+00 2.771523e+00 1.007071e+00 8.749189e-01 1.332289e+00 1.523893e+00 5.000000e-02 1.412572e-01 1.487091e-01 7.796059e-02 9.176740e-02 4.237875e-01 1.441289e-01 1.636790e-01 2.118418e-01 3.609464e-01 2.625838e-01 1.586276e-01 3.273921e-01 5.000000e-02
<GCONST> 7.003314e+01
<STATE> 9
<MEAN> 39
 -9.056989e+00 -1.693409e+01 -1.024055e+01 -1.225295e+01 -2.122620e+00 -1.087461e+01 8.952037e+00 -1.685681e+00 4.519855e-01 -1.625434e+00 -5.707924e+00 -8.436253e+00 7.833076e-01 9.866195e-01 6.537392e-01 -7.488716e-01 -4.181833e-01 -2.330378e+00 -1.419037e+00 -4.198321e-01 -1.683391e-01 4.140336e-01 1.307179e+00 1.045141e-01 4.119072e-01 3.564591e-02 -2.838471e-01 -3.181023e-01 -9.521621e-02 -2.473222e-01 2.494494e-01 -4.553391e-01 -1.738728e-02 6.926212e-01 5.140629e-01 2.717367e-01 -2.432533e-02 9.299481e-02 5.253553e-03
<VARIANCE> 39
 7.170669e+01 7.926186e+00 7.504733e+01 1.076703e+01 1.322861e+02 5.521568e+01 2.060349e+01 4.490463e+01 2.456842e+01 3.436709e+01 3.618150e+01 7.540222e+00 5.000000e-02 4.487695e+00 8.245354e-01 4.000159e+00 2.732602e-01 1.601605e+00 1.685139e+00 1.099463e+00 8.907347e+00 6.849690e-01 2.865027e+00 4.485092e+00 1.048198e+00 5.000000e-02 1.269298e+00 1.638091e-01 1.020484e+00 5.523322e-02 4.106255e-01 3.699504e-01 7.364734e-01 1.215876e+00 2.285188e-01 2.422582e-01 2.040746e-01 1.993364e-01 5.000000e-02
<GCONST> 9.815764e+01
<STATE> 10
<MEAN> 39
 -1.152050e+01 -1.830983e+01 -9.264257e+00 -1.463930e+01 -5.210772e+00 -2.099265e+01 1.322647e+01 4.898601e+00 3.435175e+00 4.071480e+00 -2.777002e+00 -6.833271e+00 9.011544e-01 -7.979694e-01 1.061222e-01 1.777692e+00 -1.097472e+00 -1.940260e+00 -1.573614e+00 7.655246e-01 -3.702351e-01 9.492838e-01 1.980015e+00 2.108548e+00 3.354813e-01 1.597654e-02 2.245715e-01 1.973499e-01 8.760643e-02 -1.439957e-01 -3.389647e-02 4.754377e-01 -1.560935e-01 -2.898575e-01 5.460729e-02 -2.328162e-01 -1.960299e-01 -2.784179e-01 7.401597e-05
<VARIANCE> 39
 2.356839e+01 5.171607e+00 4.414808e+01 1.225972e+01 8.810445e+01 2.830984e+01 1.536248e+01 1.426901e+01 8.396243e+00 1.977619e+01 7.848648e+01 1.087763e+01 5.000000e-02 1.888623e+00 4.802948e-01 1.283734e+00 3.834132e-01 1.375612e+00 2.324170e+00 3.725318e+00 4.505033e+00 7.483982e-01 6.118107e-01 3.538843e+00 1.976541e+00 5.000000e-02 2.349513e-01 5.657018e-02 4.426387e-01 5.000000e-02 3.449820e-01 1.081040e-01 2.944188e-01 4.954107e-01 2.364575e-01 1.039385e-01 1.532030e+00 3.178774e-01 5.000000e-02
<GCONST> 8.542997e+01
<STATE> 11
<MEAN> 39
 -1.654321e+01 -1.459417e+01 -3.965346e-01 -1.850930e+01 -1.961601e+01 -1.525411e+01 7.937950e+00 -3.626683e+00 6.813732e+00 1.161393e+01 1.902510e+00 -5.690996e+00 9.554859e-01 7.322215e-01 6.896628e-01 9.783210e-01 -7.977070e-01 -1.030379e+00 -2.582045e-01 -1.052227e+00 -1.125101e+00 2.753520e-01 9.051205e-01 -2.017243e-01 3.512478e-01 1.432752e-02 2.064388e-01 -9.155499e-02 -1.670212e-01 1.370336e-01 4.911159e-01 1.728005e-01 1.135755e-01 2.143108e-01 -1.185212e-01 -6.037204e-01 -3.650056e-01 -3.429263e-02 -4.752687e-03
<VARIANCE> 39
 9.216363e+00 4.568610e+00 9.067105e+00 5.554682e+00 1.231785e+01 2.600183e+01 1.859897e+01 1.635175e+01 2.617193e+00 1.035262e+01 4.316806e+00 8.066450e+00 5.000000e-02 6.358362e-01 4.396659e-01 1.027192e+00 6.238263e-01 1.252440e+00 5.741348e-01 7.302001e-01 1.548955e-01 5.089638e-01 1.204994e+00 3.066211e-01 6.470305e-01 5.000000e-02 7.279337e-02 1.141736e-01 2.362943e-01 6.592066e-02 2.277982e-01 1.573833e-01 2.764020e-01 1.042847e-01 7.375973e-02 2.173548e-01 1.247150e-01 2.275983e-01 5.000000e-02
<GCONST> 5.882834e+01
<STATE> 12
<MEAN> 39
 -1.140846e+01 -1.345121e+01 -2.356850e-02 -2.302455e+01 -1.474981e+01 -1.878652e+01 1.080136e+01 -2.063680e+00 6.738299e+00 9.667860e+00 1.477031e+00 -5.549120e+00 9.156911e-01 3.149075e-01 -2.850110e-01 1.709720e-01 -4.944495e-01 1.303965e+00 1.149430e+00 2.666510e-01 -2.270213e-01 -8.504809e-01 -2.021582e+00 -1.593747e+00 -7.242104e-01 -2.834189e-02 -8.853029e-02 -1.978717e-01 -9.480707e-02 3.462712e-01 8.491627e-02 2.933643e-01 -1.847511e-01 8.621406e-02 -4.265663e-01 -2.710906e-01 -3.056434e-01 7.557599e-02 -7.743972e-03
<VARIANCE> 39
 2.589887e+00 2.043444e+00 1.467512e+01 1.390973e+01 3.834278e+01 2.910476e+01 3.296711e+01 3.056898e+01 2.068457e+00 1.990248e+01 2.536527e+01 1.058021e+01 5.000000e-02 4.164481e-01 1.067909e+00 6.601475e-01 6.444525e-01 9.378798e-01 3.912588e-01 3.725058e-01 4.287708e-01 1.676403e+00 1.032423e+00 1.058895e+00 3.240875e-01 5.000000e-02 1.129034e-01 6.012380e-02 1.583635e-01 1.498664e-01 3.075211e-01 1.745850e-01 3.460451e-01 1.762760e-01 1.493845e-01 5.022713e-01 1.172913e-01 1.646847e-01 5.000000e-02
<GCONST> 6.690369e+01
<STATE> 13
<MEAN> 39
 -1.002708e+01 -1.608819e+01 7.423741e-01 -2.171569e+01 -1.355301e+01 -1.721068e+01 8.388609e+00 -2.622350e+00 2.540074e+00 6.491977e+00 -4.579073e+00 -5.964197e+00 8.636261e-01 6.006257e-01 2.872090e-02 -1.111515e-01 7.716544e-01 -9.553639e-01 1.315698e+00 -1.681989e+00 -6.401206e-01 -1.285070e-01 -2.503178e-01 -8.719923e-01 5.520295e-01 -1.519776e-02 -1.903262e-03 2.513771e-01 -2.528469e-01 2.029181e-01 -1.273659e-01 4.201248e-02 1.827645e-01 2.094758e-02 3.174382e-01 5.311728e-02 2.425628e-01 1.353653e-01 1.244631e-03
<VARIANCE> 39
 2.535391e+00 6.789970e+00 8.675822e+00 1.216069e+01 4.122862e+01 3.769060e+01 3.302173e+01 1.530262e+01 1.086439e+01 1.637957e+01 3.030714e+01 1.669373e+01 5.000000e-02 2.012334e-01 4.694842e-01 6.770965e-01 1.467275e+00 1.854499e+00 1.181945e+00 2.101023e+00 1.802799e+00 9.167826e-01 3.342742e+00 1.301898e+00 9.506249e-01 5.000000e-02 5.295915e-02 1.783562e-01 5.140016e-02 1.773068e-01 5.689403e-01 1.213074e-01 5.690303e-01 2.750052e-01 3.960740e-01 5.640881e-01 2.120254e-01 1.924929e-01 5.000000e-02
<GCONST> 7.767408e+01
<STATE> 14
<MEAN> 39
 -9.637177e+00 -1.348506e+01 -2.142439e+00 -1.817734e+01 -1.760389e+01 -1.193396e+01 7.304494e+00 -4.873254e+00 4.708892e+00 4.452980e+00 -4.747374e+00 -5.324998e+00 8.475528e-01 1.151940e-01 4.582793e-01 -4.719280e-01 2.038204e-01 9.295672e-01 6.662619e-01 8.443356e-01 -9.375912e-01 -4.455546e-01 -1.381775e+00 -1.257218e+00 -1.598065e-02 -2.982000e-02 4.657779e-02 -2.164931e-01 3.420115e-01 -3.543408e-01 2.657152e-01 -3.880613e-01 -1.313356e-02 -9.615738e-02 -2.601802e-01 1.656858e-01 -5.035495e-02 6.042277e-02 -4.031642e-03
<VARIANCE> 39
 3.641374e+00 5.711671e+00 5.228191e+00 1.827332e+01 1.897718e+01 2.651311e+01 1.826363e+01 2.349133e+01 4.957781e+00 1.717307e+01 1.624349e+01 5.555173e+00 5.000000e-02 2.225798e-01 4.931479e-01 2.561696e-01 1.528267e+00 1.368309e+00 8.422887e-01 6.811088e-01 1.149233e+00 1.832397e+00 5.875348e-01 7.907221e-01 1.349960e+00 5.000000e-02 1.046802e-01 8.524684e-02 9.611592e-02 4.334231e-01 3.665195e-01 8.766742e-02 3.165179e-01 3.774957e-01 2.076604e-01 1.739691e-01 1.719690e-01 2.020082e-01 5.000000e-02
<GCONST> 6.826199e+01
<STATE> 15
<MEAN> 39
 -9.020864e+00 -1.263408e+01 -3.356814e-01 -2.017435e+01 -1.239243e+01 -1.152304e+01 8.348788e+00 -8.529534e+00 7.586966e-01 8.706992e-01 -8.886723e+00 -5.238805e+00 7.357092e-01 9.766206e-01 -8.333729e-01 1.168568e+00 -9.172962e-01 2.010620e-01 -8.644086e-02 -8.916870e-01 5.747381e-02 -8.721789e-01 -2.260120e-02 -5.454960e-01 7.443516e-01 -3.933166e-02 3.629507e-01 -4.447597e-01 5.240638e-01 1.527116e-01 -7.807968e-01 1.833592e-01 -4.955231e-01 5.720754e-01 2.318933e-01 3.608409e-01 3.089464e-01 1.956332e-01 -4.117950e-03
<VARIANCE> 39
 4.886771e+00 4.563903e+00 8.511182e+00 1.337358e+01 4.690564e+00 1.506976e+01 1.260432e+01 8.419290e+00 6.172664e+00 3.550937e+00 1.669254e+01 2.785860e+01 5.000000e-02 2.637422e-01 3.310489e-01 5.777408e-01 1.346276e+00 4.072106e+00 4.107709e-01 9.885006e-01 1.076352e+00 6.456949e-01 9.163634e-01 7.093765e-01 6.372641e-01 5.000000e-02 5.000000e-02 1.250183e-01 5.000000e-02 3.150666e-01 1.338282e-01 1.328828e-01 3.335307e-01 2.943880e-01 1.566216e-01 1.354957e-01 2.400602e-01 2.585494e-01 5.000000e-02
<GCONST> 6.304145e+01
<STATE> 16
<MEAN> 39
 -4.930387e+00 -1.740514e+01 3.365487e+00 -2.011358e+01 -1.653221e+01 -1.051001e+01 2.490665e+00 -6.405391e+00 1.941885e-01 2.249074e+00 -1.019843e+01 -2.971923e+00 6.085739e-01 1.690485e+00 -9.811186e-01 1.524031e+00 1.052772e+00 -2.195385e+00 9.706669e-01 -9.572555e-01 9.993433e-01 2.926385e-01 -2.992581e-02 1.913279e-01 5.036349e-01 -4.626833e-02 -4.521930e-02 3.982376e-01 -2.368312e-01 6.658790e-01 -1.415323e-01 2.582679e-01 3.186831e-01 4.655962e-02 2.844147e-01 -1.944438e-01 5.725628e-01 -9.508663e-02 -3.884195e-04
<VARIANCE> 39
 3.737471e+00 3.754441e+00 1.056331e+01 1.206425e+01 1.229425e+01 1.138314e+01 1.156135e+01 3.093688e+01 5.852158e+00 1.283858e+01 1.064117e+01 1.180203e+01 5.000000e-02 3.214340e-01 6.957126e-01 9.155422e-01 1.180926e+00 1.312227e+00 1.048834e+00 2.265783e+00 2.133608e+00 1.583947e+00 8.569852e-01 9.702654e-01 9.408818e-01 5.000000e-02 7.202353e-02 1.093204e-01 1.081830e-01 3.604258e-01 8.040778e-01 8.673447e-02 1.560393e-01 2.969868e-01 1.726661e-01 9.636301e-02 2.042341e-01 7.029282e-02 5.000000e-02
<GCONST> 6.867912e+01
<STATE> 17
<MEAN> 39
 -1.571543e+00 -1.757010e+01 6.342744e+00 -1.588912e+01 -2.238049e+01 -6.987180e+00 3.436966e+00 -3.434475e+00 3.166813e+00 9.559339e-01 -6.990117e+00 -6.301935e-01 5.147720e-01 7.505176e-01 6.085375e-01 1.647173e-01 1.778355e+00 2.976033e-01 6.237443e-01 -2.266780e-01 -3.024519e-01 -3.721742e-02 -3.404352e-01 1.799745e+00 3.510324e-01 -4.187591e-02 -2.594242e-01 3.733318e-01 -5.695966e-01 2.567764e-01 1.135760e+00 -3.799921e-01 -1.351423e-02 -7.844154e-01 -2.070530e-01 1.088250e-01 8.120215e-02 -1.972250e-01 2.671212e-03
<VARIANCE> 39
 1.661604e+00 4.720439e+00 7.232208e+00 1.436062e+01 1.077492e+01 2.181270e+01 1.668270e+01 1.370865e+01 2.027378e+01 1.353002e+01 6.052431e+00 1.521740e+01 5.000000e-02 2.708879e-01 7.486427e-01 6.836531e-01 1.197401e+00 3.792866e+00 1.878148e+00 1.105633e+00 2.140960e+00 1.310081e+00 9.565404e-01 3.335335e-01 9.991922e-01 5.000000e-02 5.000000e-02 6.113568e-02 1.057254e-01 2.936030e-01 3.292745e-01 2.162485e-01 3.267854e-01 2.723021e-01 2.631448e-01 1.881214e-01 2.389604e-01 3.138278e-01 5.000000e-02
<GCONST> 7.065778e+01
<STATE> 18
<MEAN> 39
 -5.798939e-01 -1.432689e+01 3.934753e+00 -1.096940e+01 -1.650195e+01 -7.319679e+00 1.033550e+00 -8.838559e+00 2.532820e+00 2.263654e+00 -3.050464e+00 -2.772124e+00 4.037207e-01 4.969914e-01 8.759063e-01 -5.895314e-01 1.885433e+00 1.065369e+00 -3.741096e-01 -5.086087e-01 -1.252674e+00 -9.093677e-02 3.939165e-02 9.288287e-01 1.266216e-01 -2.439937e-02 -1.652061e-01 -4.538639e-02 -8.071905e-02 -3.293902e-01 -5.816217e-02 -8.623715e-02 2.677909e-01 3.197415e-01 1.077795e-02 -4.833849e-02 -3.936886e-01 -5.476258e-02 4.933587e-03
<VARIANCE> 39
 5.454245e-01 6.042153e+00 6.107310e+00 7.795444e+00 1.467183e+01 1.420538e+01 4.962978e+00 1.517442e+01 1.446066e+01 1.760722e+01 3.708615e+00 1.159359e+01 5.000000e-02 2.053422e-01 7.659726e-01 3.273617e-01 3.441782e+00 2.863501e+00 2.091765e+00 8.376711e-01 1.043528e+00 8.846859e-01 6.039933e-01 1.121198e+00 2.095289e+00 5.000000e-02 7.000856e-02 9.583362e-02 1.284582e-01 1.340946e-01 1.587625e-01 4.964883e-01 1.601729e-01 3.008007e-01 2.478242e-01 2.042699e-01 1.247621e-01 3.030590e-01 5.000000e-02
<GCONST> 6.596264e+01
<STATE> 19
<MEAN> 39
 1.310882e+00 -1.316997e+01 3.223001e+00 -5.943502e+00 -1.291766e+01 -9.498034e+00 2.036851e+00 -6.560597e+00 1.581042e+00 -7.339506e-01 -2.871262e+00 2.550043e-01 3.866640e-01 1.064588e-01 5.447144e-01 -5.642168e-01 1.790866e-01 4.217564e-01 2.678650e-01 5.966951e-01 3.288144e-01 2.024552e-01 3.328120e-01 5.603881e-02 -4.839217e-01 -2.016428e-02 -3.232540e-01 -5.253438e-02 -6.053893e-02 -5.479779e-01 -1.901653e-01 2.116853e-01 1.359932e-01 3.236130e-01 1.143676e-01 1.595850e-01 -2.198867e-01 -2.236807e-01 -6.856745e-03
<VARIANCE> 39
 2.431034e+00 1.116803e+01 5.628684e+00 1.326753e+01 2.240737e+01 6.668572e+00 5.720471e+00 1.212781e+01 1.393087e+01 8.186407e+00 7.935190e+00 6.024695e+00 5.000000e-02 1.833042e-01 5.217229e-01 8.647897e-01 1.600619e+00 2.039716e+00 1.708276e+00 6.583996e-01 8.040141e-01 1.734514e+00 8.732692e-01 1.757706e+00 6.581210e-01 5.000000e-02 6.273783e-02 1.871509e-01 1.376468e-01 3.644807e-01 5.530741e-01 3.034836e-01 7.023606e-02 2.297607e-01 2.324136e-01 1.134805e-01 4.390209e-01 1.425198e-01 5.000000e-02
<GCONST> 6.755051e+01
<STATE> 20
<MEAN> 39
 -4.757096e-01 -1.119951e+01 1.159951e+00 -1.008792e+01 -1.343377e+01 -5.045005e+00 4.275706e+00 -7.483059e+00 1.212862e+00 1.842541e+00 -4.422364e+00 -4.575475e+00 2.739044e-01 -1.236784e+00 2.571549e-01 -6.219620e-01 5.938241e-01 1.203208e+00 1.635695e-01 2.070843e-01 8.913016e-01 1.413199e-01 3.543056e-01 8.781079e-02 -3.818824e-01 -6.335059e-02 -3.218766e-01 -2.864989e-01 1.456764e-01 4.468504e-01 2.126421e-01 -5.032297e-01 -2.853836e-01 9.932978e-02 2.886021e-01 3.109970e-01 4.337491e-01 3.388438e-01 -5.995666e-03
<VARIANCE> 39
 2.011923e+00 3.422000e+00 6.633015e+00 3.395873e+00 1.195024e+01 9.557341e+00 6.773090e+00 1.987345e+01 4.223975e+00 7.127390e+00 1.007418e+01 4.348530e+00 5.000000e-02 3.648684e-01 6.816016e-01 3.118951e-01 1.446606e+00 1.421306e+00 9.671096e-01 8.272384e-01 7.673550e-01 1.139487e+00 7.956278e-01 1.286667e+00 5.748359e-01 5.000000e-02 5.287697e-02 5.000000e-02 1.226302e-01 1.801721e-01 2.866801e-01 1.312671e-01 1.793773e-01 4.136595e-01 4.033014e-01 1.954973e-01 1.359527e-01 1.433218e-01 5.000000e-02
<GCONST> 5.972826e+01
<STATE> 21
<MEAN> 39
 -4.410400e+00 -1.187756e+01 1.467581e+00 -6.222255e+00 -1.092178e+01 -8.435917e+00 3.865227e+00 -4.468857e+00 4.291949e+00 4.548018e+00 -8.924986e-01 -2.660579e+00 1.551040e-01 -9.745344e-01 6.846131e-02 -6.038591e-02 4.934065e-01 8.028659e-01 -4.049555e-01 6.453705e-03 6.529645e-01 6.179801e-01 1.122872e+00 1.131578e+00 5.432225e-01 -4.024130e-02 2.207037e-01 -9.300585e-03 7.520527e-02 -1.331471e-01 -6.175633e-02 1.297476e-01 -2.899218e-02 -1.383553e-01 -2.548039e-01 -2.090464e-01 1.276583e-01 9.717035e-02 1.215750e-02
<VARIANCE> 39
 2.987530e+00 4.070386e+00 4.391489e+00 6.593003e+00 1.690511e+01 7.257680e+00 8.966770e+00 1.133922e+01 1.184900e+01 1.217081e+01 5.491472e+00 6.500724e+00 5.000000e-02 4.160537e-01 5.300905e-01 4.942148e-01 9.218986e-01 6.814819e-01 7.368946e-01 1.061105e+00 2.323722e+00 2.200447e+00 1.022385e+00 7.875565e-01 6.128716e-01 5.000000e-02 5.000000e-02 7.090320e-02 8.504509e-02 2.211047e-01 1.448796e-01 9.447008e-02 1.205102e-01 1.985961e-01 2.851372e-01 2.002620e-01 1.439884e-01 1.689977e-01 5.000000e-02
<GCONST> 6.031153e+01
<STATE> 22
<MEAN> 39
 -4.876972e+00 -1.158060e+01 3.537130e-01 -6.575681e+00 -1.110040e+01 -9.296580e+00 4.529307e+00 -2.835913e+00 4.500412e+00 7.199401e+00 3.623558e+00 -9.188902e-01 1.241979e-01 -6.778418e-01 -3.015801e-01 -1.967891e-01 8.560907e-01 1.340340e+00 -9.559609e-02 -4.567565e-01 3.182979e-01 -9.682808e-03 -5.730901e-01 3.735904e-01 4.778763e-02 -2.783702e-02 4.963725e-02 2.214522e-02 1.449270e-01 9.188572e-02 2.312006e-01 2.931178e-01 -2.994198e-01 -2.929899e-01 -1.410152e-01 -6.826423e-01 -5.714895e-01 -2.223509e-01 -1.293439e-03
<VARIANCE> 39
 4.878412e+00 3.202278e+00 2.919222e+00 5.917366e+00 7.665294e+00 1.456516e+01 1.209539e+01 1.715984e+01 1.769139e+01 2.687391e+01 9.041673e+00 7.618956e+00 5.000000e-02 2.156270e-01 2.265617e-01 6.602011e-01 6.400948e-01 7.246123e-01 9.787043e-01 6.442358e-01 6.810787e-01 8.309236e-02 1.572275e+00 1.098741e+00 1.071019e+00 5.000000e-02 1.012633e-01 1.123783e-01 6.904570e-02 1.364440e-01 5.000000e-02 3.179722e-01 2.117756e-01 1.776302e-01 2.189634e-01 2.771955e-01 1.611533e-01 5.000000e-02 5.000000e-02
<GCONST> 5.762957e+01
<STATE> 23
<MEAN> 39
 -7.038939e+00 -1.244110e+01 1.715391e-01 -4.335017e+00 -6.125733e+00 -6.890097e+00 2.002443e+00 -4.128775e+00 3.634553e+00 3.472838e+00 3.418198e-01 -2.220673e+00 -1.014919e-02 -1.495567e-01 4.701692e-01 1.622828e-01 4.264759e-01 8.734580e-01 6.045491e-01 -7.876083e-01 -2.180463e-01 -2.372579e-02 -5.950150e-01 1.273636e-01 1.974961e-01 -1.263383e-02 2.700400e-01 2.522441e-01 4.333138e-02 -2.994236e-02 1.773435e-02 1.330307e-01 1.933864e-01 7.002428e-02 -5.389519e-02 8.806314e-02 1.627548e-01 8.207382e-02 1.322025e-02
<VARIANCE> 39
 7.439722e-01 3.009597e+00 3.599541e+00 3.458719e+00 7.173123e+00 1.783250e+01 8.432336e+00 1.343577e+01 1.191815e+01 8.906472e+00 7.375154e+00 5.418396e+00 5.000000e-02 3.403005e-01 4.996390e-01 7.618005e-02 3.392273e-01 7.963164e-01 1.764639e+00 1.052147e+00 3.995271e-01 8.514935e-01 1.890837e+00 1.530830e+00 4.361009e-01 5.000000e-02 5.000000e-02 5.000000e-02 5.000000e-02 5.000000e-02 1.345962e-01 2.949145e-01 1.584071e-01 5.000000e-02 1.409289e-01 1.735474e-01 2.173525e-01 1.319973e-01 5.000000e-02
<GCONST> 5.076025e+01
<STATE> 24
<MEAN> 39
 -6.370738e+00 -9.850077e+00 1.905035e+00 -1.846010e+00 -3.206112e+00 -6.207070e+00 1.462587e+00 -3.090260e+00 3.230069e+00 1.624014e+00 3.147115e+00 -1.226805e+00 5.445801e-02 1.232018e-01 1.699986e-01 3.301426e-02 7.304478e-01 1.616334e+00 1.029146e+00 6.737916e-01 -1.178999e-01 -7.906156e-01 -8.066480e-01 1.680049e-01 -4.113910e-01 1.130046e-02 -4.371624e-02 -2.671539e-01 -1.988851e-01 -1.835526e-01 -1.120797e-01 1.668648e-01 2.606548e-01 -1.919746e-01 -2.605674e-01 -2.307449e-02 -3.760526e-01 -2.681338e-01 -4.067439e-03
<VARIANCE> 39
 1.914104e+00 5.373594e-01 3.577949e+00 6.543248e+00 4.002013e+00 1.069193e+01 6.103605e+00 1.066517e+01 5.460552e+00 2.056471e+01 1.166342e+01 8.524874e+00 5.000000e-02 1.632696e-01 2.398327e-01 1.602797e-01 2.966979e-01 4.101869e-01 1.012031e+00 1.318598e-01 1.419050e+00 1.367596e+00 1.416047e+00 1.689941e+00 1.124006e+00 5.000000e-02 5.000000e-02 5.000000e-02 5.000000e-02 1.255964e-01 1.123299e-01 2.738482e-01 1.455970e-01 5.000000e-02 2.570487e-01 3.883607e-01 1.989551e-01 1.540453e-01 5.000000e-02
<GCONST> 5.032985e+01
<TRANSP> 25
 0.000000e+00 1.000000e+00 0.000000e+00 0.000000e+00 0.000000e+00 0.000000e+00 0.000000e+00 0.000000e+00 0.000000e+00 0.000000e+00 0.000000e+00 0.000000e+00 0.000000e+00 0.000000e+00 0.000000e+00 0.000000e+00 0.000000e+00 0.000000e+00 0.000000e+00 0.000000e+00 0.000000e+00 0.000000e+00 0.000000e+00 0.000000e+00 0.000000e+00
 0.000000e+00 6.855114e-01 3.144886e-01 0.000000e+00 0.000000e+00 0.000000e+00 0.000000e+00 0.000000e+00 0.000000e+00 0.000000e+00 0.000000e+00 0.000000e+00 0.000000e+00 0.000000e+00 0.000000e+00 0.000000e+00 0.000000e+00 0.000000e+00 0.000000e+00 0.000000e+00 0.000000e+00 0.000000e+00 0.000000e+00 0.000000e+00 0.000000e+00
 0.000000e+00 0.000000e+00 5.000941e-01 4.999059e-01 0.000000e+00 0.000000e+00 0.000000e+00 0.000000e+00 0.000000e+00 0.000000e+00 0.000000e+00 0.000000e+00 0.000000e+00 0.000000e+00 0.000000e+00 0.000000e+00 0.000000e+00 0.000000e+00 0.000000e+00 0.000000e+00 0.000000e+00 0.000000e+00 0.000000e+00 0.000000e+00 0.000000e+00
 0.000000e+00 0.000000e+00 0.000000e+00 6.426646e-01 3.573355e-01 0.000000e+00 0.000000e+00 0.000000e+00 0.000000e+00 0.000000e+00 0.000000e+00 0.000000e+00 0.000000e+00 0.000000e+00 0.000000e+00 0.000000e+00 0.000000e+00 0.000000e+00 0.000000e+00 0.000000e+00 0.000000e+00 0.000000e+00 0.000000e+00 0.000000e+00 0.000000e+00
 0.000000e+00 0.000000e+00 0.000000e+00 0.000000e+00 6.157722e-01 3.842278e-01 0.000000e+00 0.000000e+00 0.000000e+00 0.000000e+00 0.000000e+00 0.000000e+00 0.000000e+00 0.000000e+00 0.000000e+00 0.000000e+00 0.000000e+00 0.000000e+00 0.000000e+00 0.000000e+00 0.000000e+00 0.000000e+00 0.000000e+00 0.000000e+00 0.000000e+00
 0.000000e+00 0.000000e+00 0.000000e+00 0.000000e+00 0.000000e+00 6.661533e-01 3.338467e-01 0.000000e+00 0.000000e+00 0.000000e+00 0.000000e+00 0.000000e+00 0.000000e+00 0.000000e+00 0.000000e+00 0.000000e+00 0.000000e+00 0.000000e+00 0.000000e+00 0.000000e+00 0.000000e+00 0.000000e+00 0.000000e+00 0.000000e+00 0.000000e+00
 0.000000e+00 0.000000e+00 0.000000e+00 0.000000e+00 0.000000e+00 0.000000e+00 5.455504e-01 4.544496e-01 0.000000e+00 0.000000e+00 0.000000e+00 0.000000e+00 0.000000e+00 0.000000e+00 0.000000e+00 0.000000e+00 0.000000e+00 0.000000e+00 0.000000e+00 0.000000e+00 0.000000e+00 0.000000e+00 0.000000e+00 0.000000e+00 0.000000e+00
 0.000000e+00 0.000000e+00 0.000000e+00 0.000000e+00 0.000000e+00 0.000000e+00 0.000000e+00 6.431831e-01 3.568169e-01 0.000000e+00 0.000000e+00 0.000000e+00 0.000000e+00 0.000000e+00 0.000000e+00 0.000000e+00 0.000000e+00 0.000000e+00 0.000000e+00 0.000000e+00 0.000000e+00 0.000000e+00 0.000000e+00 0.000000e+00 0.000000e+00
 0.000000e+00 0.000000e+00 0.000000e+00 0.000000e+00 0.000000e+00 0.000000e+00 0.000000e+00 0.000000e+00 3.750070e-01 6.249930e-01 0.000000e+00 0.000000e+00 0.000000e+00 0.000000e+00 0.000000e+00 0.000000e+00 0.000000e+00 0.000000e+00 0.000000e+00 0.000000e+00 0.000000e+00 0.000000e+00 0.000000e+00 0.000000e+00 0.000000e+00
 0.000000e+00 0.000000e+00 0.000000e+00 0.000000e+00 0.000000e+00 0.000000e+00 0.000000e+00 0.000000e+00 0.000000e+00 5.454891e-01 4.545109e-01 0.000000e+00 0.000000e+00 0.000000e+00 0.000000e+00 0.000000e+00 0.000000e+00 0.000000e+00 0.000000e+00 0.000000e+00 0.000000e+00 0.000000e+00 0.000000e+00 0.000000e+00 0.000000e+00
 0.000000e+00 0.000000e+00 0.000000e+00 0.000000e+00 0.000000e+00 0.000000e+00 0.000000e+00 0.000000e+00 0.000000e+00 0.000000e+00 7.368612e-01 2.631389e-01 0.000000e+00 0.000000e+00 0.000000e+00 0.000000e+00 0.000000e+00 0.000000e+00 0.000000e+00 0.000000e+00 0.000000e+00 0.000000e+00 0.000000e+00 0.000000e+00 0.000000e+00
 0.000000e+00 0.000000e+00 0.000000e+00 0.000000e+00 0.000000e+00 0.000000e+00 0.000000e+00 0.000000e+00 0.000000e+00 0.000000e+00 0.000000e+00 6.151009e-01 3.848991e-01 0.000000e+00 0.000000e+00 0.000000e+00 0.000000e+00 0.000000e+00 0.000000e+00 0.000000e+00 0.000000e+00 0.000000e+00 0.000000e+00 0.000000e+00 0.000000e+00
 0.000000e+00 0.000000e+00 0.000000e+00 0.000000e+00 0.000000e+00 0.000000e+00 0.000000e+00 0.000000e+00 0.000000e+00 0.000000e+00 0.000000e+00 0.000000e+00 6.432064e-01 3.567936e-01 0.000000e+00 0.000000e+00 0.000000e+00 0.000000e+00 0.000000e+00 0.000000e+00 0.000000e+00 0.000000e+00 0.000000e+00 0.000000e+00 0.000000e+00
 0.000000e+00 0.000000e+00 0.000000e+00 0.000000e+00 0.000000e+00 0.000000e+00 0.000000e+00 0.000000e+00 0.000000e+00 0.000000e+00 0.000000e+00 0.000000e+00 0.000000e+00 6.665744e-01 3.334256e-01 0.000000e+00 0.000000e+00 0.000000e+00 0.000000e+00 0.000000e+00 0.000000e+00 0.000000e+00 0.000000e+00 0.000000e+00 0.000000e+00
 0.000000e+00 0.000000e+00 0.000000e+00 0.000000e+00 0.000000e+00 0.000000e+00 0.000000e+00 0.000000e+00 0.000000e+00 0.000000e+00 0.000000e+00 0.000000e+00 0.000000e+00 0.000000e+00 5.455809e-01 4.544192e-01 0.000000e+00 0.000000e+00 0.000000e+00 0.000000e+00 0.000000e+00 0.000000e+00 0.000000e+00 0.000000e+00 0.000000e+00
 0.000000e+00 0.000000e+00 0.000000e+00 0.000000e+00 0.000000e+00 0.000000e+00 0.000000e+00 0.000000e+00 0.000000e+00 0.000000e+00 0.000000e+00 0.000000e+00 0.000000e+00 0.000000e+00 0.000000e+00 5.829072e-01 4.170928e-01 0.000000e+00 0.000000e+00 0.000000e+00 0.000000e+00 0.000000e+00 0.000000e+00 0.000000e+00 0.000000e+00
 0.000000e+00 0.000000e+00 0.000000e+00 0.000000e+00 0.000000e+00 0.000000e+00 0.000000e+00 0.000000e+00 0.000000e+00 0.000000e+00 0.000000e+00 0.000000e+00 0.000000e+00 0.000000e+00 0.000000e+00 0.000000e+00 5.837272e-01 4.162728e-01 0.000000e+00 0.000000e+00 0.000000e+00 0.000000e+00 0.000000e+00 0.000000e+00 0.000000e+00
 0.000000e+00 0.000000e+00 0.000000e+00 0.000000e+00 0.000000e+00 0.000000e+00 0.000000e+00 0.000000e+00 0.000000e+00 0.000000e+00 0.000000e+00 0.000000e+00 0.000000e+00 0.000000e+00 0.000000e+00 0.000000e+00 0.000000e+00 5.806938e-01 4.193062e-01 0.000000e+00 0.000000e+00 0.000000e+00 0.000000e+00 0.000000e+00 0.000000e+00
 0.000000e+00 0.000000e+00 0.000000e+00 0.000000e+00 0.000000e+00 0.000000e+00 0.000000e+00 0.000000e+00 0.000000e+00 0.000000e+00 0.000000e+00 0.000000e+00 0.000000e+00 0.000000e+00 0.000000e+00 0.000000e+00 0.000000e+00 0.000000e+00 6.446547e-01 3.553453e-01 0.000000e+00 0.000000e+00 0.000000e+00 0.000000e+00 0.000000e+00
 0.000000e+00 0.000000e+00 0.000000e+00 0.000000e+00 0.000000e+00 0.000000e+00 0.000000e+00 0.000000e+00 0.000000e+00 0.000000e+00 0.000000e+00 0.000000e+00 0.000000e+00 0.000000e+00 0.000000e+00 0.000000e+00 0.000000e+00 0.000000e+00 0.000000e+00 5.455726e-01 4.544273e-01 0.000000e+00 0.000000e+00 0.000000e+00 0.000000e+00
 0.000000e+00 0.000000e+00 0.000000e+00 0.000000e+00 0.000000e+00 0.000000e+00 0.000000e+00 0.000000e+00 0.000000e+00 0.000000e+00 0.000000e+00 0.000000e+00 0.000000e+00 0.000000e+00 0.000000e+00 0.000000e+00 0.000000e+00 0.000000e+00 0.000000e+00 0.000000e+00 6.428075e-01 3.571925e-01 0.000000e+00 0.000000e+00 0.000000e+00
 0.000000e+00 0.000000e+00 0.000000e+00 0.000000e+00 0.000000e+00 0.000000e+00 0.000000e+00 0.000000e+00 0.000000e+00 0.000000e+00 0.000000e+00 0.000000e+00 0.000000e+00 0.000000e+00 0.000000e+00 0.000000e+00 0.000000e+00 0.000000e+00 0.000000e+00 0.000000e+00 0.000000e+00 3.751631e-01 6.248370e-01 0.000000e+00 0.000000e+00
 0.000000e+00 0.000000e+00 0.000000e+00 0.000000e+00 0.000000e+00 0.000000e+00 0.000000e+00 0.000000e+00 0.000000e+00 0.000000e+00 0.000000e+00 0.000000e+00 0.000000e+00 0.000000e+00 0.000000e+00 0.000000e+00 0.000000e+00 0.000000e+00 0.000000e+00 0.000000e+00 0.000000e+00 0.000000e+00 6.161796e-01 3.838203e-01 0.000000e+00
 0.000000e+00 0.000000e+00 0.000000e+00 0.000000e+00 0.000000e+00 0.000000e+00 0.000000e+00 0.000000e+00 0.000000e+00 0.000000e+00 0.000000e+00 0.000000e+00 0.000000e+00 0.000000e+00 0.000000e+00 0.000000e+00 0.000000e+00 0.000000e+00 0.000000e+00 0.000000e+00 0.000000e+00 0.000000e+00 0.000000e+00 5.824730e-01 4.175270e-01
 0.000000e+00 0.000000e+00 0.000000e+00 0.000000e+00 0.000000e+00 0.000000e+00 0.000000e+00 0.000000e+00 0.000000e+00 0.000000e+00 0.000000e+00 0.000000e+00 0.000000e+00 0.000000e+00 0.000000e+00 0.000000e+00 0.000000e+00 0.000000e+00 0.000000e+00 0.000000e+00 0.000000e+00 0.000000e+00 0.000000e+00 0.000000e+00 0.000000e+00
<ENDHMM>
