~o
<STREAMINFO> 1 39
<VECSIZE> 39<NULLD><MFCC_E_D_A><DIAGC>
~h "Lawp"
<BEGINHMM>
<NUMSTATES> 26
<STATE> 2
<MEAN> 39
 -7.577859e+00 -1.006079e+01 -2.549767e+00 -1.487938e+00 1.567989e-01 -4.548267e+00 9.786679e-01 -1.030941e+00 2.583453e+00 -1.671889e+00 1.862901e+00 -3.377803e-01 -1.060747e-01 1.138334e+00 -3.123385e-02 -1.071683e+00 -7.246230e-01 -1.389811e+00 -1.465175e+00 -7.948201e-01 8.344983e-01 5.239663e-01 -9.211647e-01 -3.625515e-01 -3.151376e-01 5.883126e-02 9.784881e-01 -1.434039e-01 -7.680112e-01 -2.556502e-01 -7.091934e-01 -9.345906e-01 -2.058502e-01 9.673468e-02 5.982761e-02 -6.704770e-01 -2.782225e-01 -2.225814e-01 4.920466e-02
<VARIANCE> 39
 1.076892e+00 2.068786e+00 5.336967e+00 6.857383e+00 8.526870e+00 3.207063e+00 7.428454e+00 8.116479e+00 9.620708e+00 4.651942e+00 1.200321e+01 9.783660e+00 5.000000e-02 1.646740e+00 3.388385e-01 1.459711e+00 9.141464e-01 1.318405e+00 1.424150e+00 1.220016e+00 1.354451e+00 1.237538e+00 2.346975e+00 9.948546e-01 1.496700e+00 5.000000e-02 1.772371e-01 1.127684e-01 1.877418e-01 1.102348e-01 2.990320e-01 1.396737e-01 3.287013e-01 3.155680e-01 2.439723e-01 8.975359e-02 3.075383e-01 2.446594e-01 5.000000e-02
<GCONST> 6.572695e+01
<STATE> 3
<MEAN> 39
 -2.598475e+00 -8.918056e+00 -5.233777e+00 -4.783203e+00 -4.848536e+00 -8.772931e+00 1.289123e-01 1.180403e+00 4.194355e+00 -6.196483e+00 1.155000e+00 -3.462337e+00 1.480810e-01 3.653565e+00 -6.317180e-01 -3.301307e+00 -6.018709e-01 -2.708918e+00 -4.443196e+00 -8.451399e-01 1.184717e+00 1.453641e+00 -1.996433e+00 -6.888588e-01 -2.937297e-01 1.865244e-01 1.733009e-01 -2.742446e-01 -5.428342e-01 2.352744e-01 -2.930967e-01 -6.362845e-01 -4.953059e-02 -7.274436e-01 1.020851e-01 1.924632e-01 2.387036e-01 3.245103e-01 2.300828e-02
<VARIANCE> 39
 1.474454e+01 8.248514e+00 7.744961e+00 9.194173e+00 3.731892e+00 5.704918e+00 4.663741e+00 1.368759e+01 1.411176e+01 3.946591e+00 3.396456e+00 2.758672e+00 5.000000e-02 1.636427e+00 1.130083e+00 1.004488e+00 1.138579e+00 2.164160e+00 7.538973e-01 1.043010e+00 1.708728e+00 1.323165e+00 1.471951e+00 1.358530e+00 1.943629e+00 5.000000e-02 2.197779e-01 5.000000e-02 1.684810e-01 2.877276e-01 5.428605e-02 5.751423e-02 3.271145e-01 3.987783e-01 1.074676e-01 1.611702e-01 1.803323e-01 4.453365e-01 5.000000e-02
<GCONST> 6.676116e+01
<STATE> 4
<MEAN> 39
 5.422120e+00 -1.244960e+01 -1.428231e+01 -4.164228e+00 -9.779078e+00 -2.007245e+01 -2.758723e+00 3.052041e+00 5.722733e+00 -9.072289e+00 -1.355291e+00 -1.360950e+00 5.027449e-01 2.045886e+00 -7.146217e-01 -3.211218e+00 3.002664e-01 -2.389144e+00 -3.706296e+00 -8.315785e-01 -1.371110e+00 7.393770e-01 -1.382964e+00 7.183778e-01 1.153054e-01 1.495623e-01 -1.304065e+00 -9.920159e-03 1.940334e-01 3.513409e-01 6.650960e-01 1.258129e+00 8.934364e-01 -8.385518e-01 -3.367929e-02 4.730426e-01 1.772652e-01 3.133475e-01 -2.346062e-02
<VARIANCE> 39
 1.177301e+01 7.280370e+00 5.410306e+00 7.347132e+00 4.210992e+00 1.408567e+01 3.581827e+00 1.041846e+01 6.773850e+00 1.084453e+01 1.727677e+01 1.699558e+01 5.000000e-02 2.185743e+00 5.979779e-01 1.141366e+00 9.589537e-01 1.119353e+00 1.322697e+00 1.885745e+00 2.913952e+00 1.269634e+00 1.622287e+00 3.309584e+00 4.108444e+00 5.000000e-02 3.597201e-01 2.332053e-01 1.521782e-01 3.876935e-01 2.969564e-01 5.452796e-01 3.912143e-01 1.715234e-01 4.486077e-01 2.209726e-01 5.913470e-01 4.594330e-01 5.000000e-02
<GCONST> 8.084662e+01
<STATE> 5
<MEAN> 39
 3.179543e+00 -1.231156e+01 -1.780274e+01 -3.754916e+00 -1.287551e+01 -2.167636e+01 -1.959073e+00 -6.433181e+00 8.760625e+00 -1.029313e+01 2.915615e+00 -2.465327e+00 6.921419e-01 -1.415911e+00 -1.369076e+00 -2.413094e+00 8.508504e-02 9.534447e-03 1.808443e+00 2.518414e+00 -1.403240e+00 4.440785e-01 1.219605e-01 -1.500381e+00 1.401184e+00 8.308145e-02 -9.729456e-01 -5.312343e-01 2.042916e-01 1.402331e-01 1.385550e+00 1.955460e+00 1.058241e+00 6.362789e-01 -7.828808e-01 3.007131e-01 -9.886512e-01 6.772612e-01 -2.154417e-02
<VARIANCE> 39
 2.239452e+01 1.404423e+01 1.533134e+01 5.105774e+00 3.942564e+00 1.279487e+01 1.967439e+01 3.799417e+01 1.847699e+01 2.923637e+01 2.829165e+01 4.742620e+01 5.000000e-02 1.215067e+00 1.961967e+00 1.330454e+00 1.470730e+00 3.811664e+00 7.678267e+00 4.086461e+00 2.817136e+00 4.100975e+00 1.547315e+00 2.764488e+00 5.257669e+00 5.000000e-02 1.732258e-01 2.705822e-01 4.419551e-01 1.922358e-01 5.219497e-02 6.047509e-01 5.029138e-01 3.284161e-01 5.198406e-01 5.368679e-01 9.082429e-01 1.453571e+00 5.000000e-02
<GCONST> 9.693590e+01
<STATE> 6
<MEAN> 39
 -2.487080e+00 -1.772516e+01 -2.482969e+01 -2.673831e+00 -7.969456e+00 -1.154542e+01 9.476989e+00 -2.949325e+00 6.944226e+00 -9.781426e+00 -6.162775e+00 4.700632e+00 8.465382e-01 -2.576977e+00 -2.374530e+00 -2.000873e+00 8.847988e-01 3.340692e+00 3.875424e+00 3.447465e+00 -6.595842e-02 -2.173126e+00 -2.521361e-01 -2.714601e+00 2.008975e+00 6.058465e-02 2.541040e-01 4.428361e-02 7.115638e-01 1.884230e-01 6.734446e-01 -2.335381e-01 -1.010626e+00 -2.622943e-01 -3.283054e-01 1.534429e-01 4.692122e-01 -5.241565e-01 -9.723517e-03
<VARIANCE> 39
 8.017797e+00 8.858633e+00 1.525170e+01 5.423356e+00 3.801626e+01 8.636361e+01 4.405621e+01 1.737768e+01 6.450739e+01 1.491321e+01 1.755376e+01 2.368436e+01 5.000000e-02 2.535993e-01 1.325678e+00 3.266829e+00 4.184796e-01 6.087812e-01 2.795823e+00 2.730993e+00 1.036429e+00 1.918893e+00 2.238975e+00 4.760966e+00 4.964943e+00 5.000000e-02 1.316964e-01 2.430362e-01 1.519517e-01 1.455978e-01 5.979520e-01 9.956715e-01 6.693605e-01 2.377371e-01 1.253377e+00 4.639983e-01 4.362240e-01 1.170545e+00 5.000000e-02
<GCONST> 9.359663e+01
<STATE> 7
<MEAN> 39
 -5.518824e+00 -2.198263e+01 -2.648636e+01 -1.506573e-01 -7.263221e-01 -7.792135e+00 1.022472e+01 -5.794202e+00 -1.515373e-01 -1.016551e+01 -8.678453e+00 6.611466e+00 9.548916e-01 -8.658766e-01 -1.205482e+00 3.715072e-01 1.085052e+00 2.983981e+00 1.881408e+00 -6.100602e-01 -1.698448e+00 -4.540311e-01 9.340645e-01 -4.170079e-03 3.888953e-02 2.976295e-02 6.869486e-01 5.632717e-01 6.871244e-01 -1.612729e-01 -4.308670e-01 -5.054082e-01 -1.211354e+00 -1.307777e-01 8.100528e-01 5.965362e-01 8.495755e-01 -8.074797e-01 -1.316255e-02
<VARIANCE> 39
 1.351541e+01 6.036203e+00 2.405925e+01 6.827890e+00 9.102628e+00 5.352556e+01 3.627522e+01 2.264470e+01 2.148650e+01 3.620787e+00 1.266567e+01 1.560018e+01 5.000000e-02 2.462887e-01 4.281054e-01 7.659340e-01 5.917407e-01 1.197747e+00 1.166709e+00 9.708225e-01 7.351957e-01 4.829864e+00 2.209156e+00 1.121195e+00 1.936584e+00 5.000000e-02 5.000000e-02 1.355963e-01 4.044997e-01 6.522234e-02 1.792705e-01 3.710356e-01 4.404349e-01 2.676269e-01 3.658033e-01 1.999064e-01 5.344181e-01 4.402961e-01 5.000000e-02
<GCONST> 7.729260e+01
<STATE> 8
<MEAN> 39
 -6.306334e+00 -2.301209e+01 -2.285484e+01 7.619027e-01 4.923790e+00 -1.965006e+00 6.693883e+00 -1.049629e+01 4.395957e+00 -6.215525e+00 -6.057923e+00 3.404573e+00 9.753975e-01 2.928289e-01 -2.392664e-01 4.693960e-01 7.323714e-02 1.479760e+00 1.761752e+00 -1.244974e+00 -4.366560e-01 1.532972e-01 1.556724e+00 4.908126e-02 -7.878535e-01 1.181895e-02 1.890747e-01 1.302838e-01 -6.324285e-02 -5.165990e-01 -6.339490e-01 -2.674042e-01 1.303584e-01 6.034859e-01 -2.825062e-02 1.840303e-03 -1.909204e-01 7.474566e-03 -6.636737e-03
<VARIANCE> 39
 8.637125e+00 3.000836e+00 2.100752e+01 1.406214e+01 8.163918e+00 2.810061e+01 1.717919e+01 2.246909e+01 1.084225e+01 9.261413e+00 1.637773e+01 1.252473e+01 5.000000e-02 1.376651e-01 5.648046e-01 4.491656e-01 3.463359e-01 7.734600e-01 6.206745e-01 9.651025e-01 7.998918e-01 9.913218e-01 5.049974e-01 9.269354e-01 1.382288e+00 5.000000e-02 9.688813e-02 5.000000e-02 1.484148e-01 8.419906e-02 1.597133e-01 1.621417e-01 1.439393e-01 1.006188e-01 3.751048e-01 1.922701e-01 5.404203e-02 2.303245e-01 5.000000e-02
<GCONST> 6.248965e+01
<STATE> 9
<MEAN> 39
 -4.884072e+00 -2.330044e+01 -2.350012e+01 2.849535e-01 6.222958e+00 4.569078e-01 5.158212e+00 -7.809433e+00 2.287949e+00 -2.462690e+00 -7.413339e+00 3.232118e+00 9.945720e-01 9.936222e-02 -5.504627e-01 4.099495e-01 -1.571575e+00 4.253305e-01 3.002876e-01 -1.961954e-01 9.354837e-01 -4.196335e-02 1.142069e+00 -4.654821e-01 -9.559539e-01 -3.056428e-03 2.093888e-01 -3.785588e-02 1.023327e-01 -5.619332e-01 -5.234131e-01 -6.048015e-01 2.228975e-01 5.224382e-02 2.717974e-01 -3.790033e-01 -1.197851e-01 -5.497656e-01 -1.068173e-02
<VARIANCE> 39
 7.661502e+00 6.921710e+00 2.270102e+01 1.437584e+01 1.874581e+01 1.921072e+01 1.299905e+01 2.610454e+01 1.266196e+01 2.355823e+00 4.547338e+00 1.159026e+01 5.000000e-02 2.152598e-01 2.093182e-01 1.201174e+00 4.948071e-01 6.524587e-01 1.220755e+00 1.052185e+00 2.834831e-01 4.392781e-01 1.189903e+00 5.601463e-01 1.296767e+00 5.000000e-02 5.000000e-02 5.000000e-02 1.133444e-01 1.590995e-01 1.143715e-01 1.592467e-01 7.060546e-02 1.587603e-01 1.307158e-01 8.754229e-02 5.219856e-02 1.711744e-01 5.000000e-02
<GCONST> 5.780487e+01
<STATE> 10
<MEAN> 39
 -5.050048e+00 -2.526088e+01 -2.197741e+01 -4.005128e+00 4.285197e+00 1.728362e+00 3.310440e+00 -5.319699e+00 4.139326e+00 -5.929475e-01 -9.675900e+00 4.168330e-01 9.715301e-01 1.299350e+00 -2.126810e-01 8.878406e-01 -1.950744e+00 -1.062583e+00 -6.546815e-01 -4.636438e-01 2.033165e-01 7.784249e-01 6.146099e-01 -1.683698e-01 -2.774070e+00 -3.705077e-02 5.029501e-01 9.393641e-02 6.170906e-01 5.034781e-01 -5.205948e-01 -3.269675e-01 -1.714090e-01 -2.660846e-01 7.611777e-02 -4.642470e-01 4.364490e-01 2.180264e-01 -2.600858e-02
<VARIANCE> 39
 8.134015e+00 5.238136e+00 9.727217e+00 1.354222e+01 4.806363e+01 3.600623e+01 4.176287e+01 2.917207e+01 1.492680e+01 5.555893e+00 1.763174e+01 1.698588e+01 5.000000e-02 5.023668e-01 5.791277e-01 8.419005e-01 2.124365e+00 3.019745e-01 2.116792e+00 8.496128e-01 9.739341e-01 1.195364e+00 1.559744e+00 1.783843e+00 1.085716e+00 5.000000e-02 6.849362e-02 1.259985e-01 1.249482e-01 3.233460e-01 4.183842e-01 4.247946e-01 2.843193e-01 2.138755e-01 9.815829e-02 4.971627e-01 2.239486e-01 5.628343e-01 5.000000e-02
<GCONST> 7.841808e+01
<STATE> 11
<MEAN> 39
 -2.887571e-01 -2.376360e+01 -1.927095e+01 -9.841025e+00 3.086908e+00 -3.206629e+00 4.360203e+00 -7.675748e+00 6.398971e+00 -9.997975e-01 -8.366629e+00 -8.876669e+00 8.371350e-01 2.119442e+00 -5.256945e-01 2.566796e+00 9.498627e-01 -2.419176e+00 -4.239800e-01 -1.262506e+00 1.746360e-01 4.678858e-01 -1.322972e+00 7.755206e-01 1.162878e-01 -1.142186e-01 -7.733351e-02 -2.906678e-01 -2.040469e-01 1.314894e+00 1.475159e-01 3.262730e-01 -3.536028e-02 3.213841e-01 -4.756955e-01 -1.833118e-01 4.073406e-01 1.562867e+00 -1.238081e-02
<VARIANCE> 39
 7.126879e+00 1.196033e+01 2.532166e+01 1.216396e+01 2.480429e+01 3.144795e+01 1.654825e+01 2.790803e+01 2.554945e+01 2.942424e+01 2.644073e+01 1.589978e+01 5.000000e-02 2.714770e-01 9.807837e-01 8.203302e-01 2.166976e+00 1.982472e+00 3.616012e+00 6.604499e-01 2.644520e+00 1.348162e+00 1.272283e+00 1.827900e+00 1.939785e+00 5.000000e-02 1.011939e-01 8.537681e-02 2.220950e-01 3.349180e-01 3.301178e-01 4.956107e-01 1.753501e-01 4.266818e-01 2.854362e-01 5.929949e-01 5.286201e-01 2.199532e-01 5.000000e-02
<GCONST> 8.622744e+01
<STATE> 12
<MEAN> 39
 3.352785e+00 -2.755733e+01 -1.316489e+01 -9.186902e-01 -2.000727e+00 -2.002428e+00 7.229297e-01 -5.480445e+00 4.399173e+00 -3.932028e+00 -5.500960e+00 -3.229172e-01 5.471227e-01 9.078763e-01 -1.079303e+00 3.575305e-01 2.035860e+00 -2.593521e-01 -1.311762e-01 -3.340140e-01 1.060900e+00 -7.855787e-01 -3.870716e-01 1.406860e+00 2.623022e+00 -8.332805e-02 -6.427915e-01 2.406940e-01 -8.582315e-01 -3.872071e-01 7.790611e-01 2.407691e-01 3.880678e-01 1.648961e-01 -8.551439e-02 3.575952e-01 -1.469560e-01 2.027088e-02 2.436836e-02
<VARIANCE> 39
 4.803642e+00 3.129945e+00 6.222126e+00 9.384360e+00 1.027041e+01 5.633708e+00 8.717708e+00 1.486328e+01 1.592868e+01 2.390622e+01 1.549344e+01 3.209465e+00 5.000000e-02 4.417009e-01 3.364515e-01 1.450987e+00 1.306769e+00 1.580998e+00 3.466084e+00 7.967878e-01 3.768039e+00 1.627615e+00 2.635700e+00 2.566358e+00 8.158284e-01 5.000000e-02 5.000000e-02 1.051078e-01 2.450209e-01 2.655154e-01 2.897010e-01 5.153143e-01 9.588765e-02 4.976138e-01 1.872253e-01 6.149484e-01 3.905203e-01 3.208825e-01 5.000000e-02
<GCONST> 7.480365e+01
<STATE> 13
<MEAN> 39
 2.922920e+00 -2.745484e+01 -1.761598e+01 -1.891932e+00 9.793615e-01 -2.369994e+00 2.373967e+00 -2.589819e+00 4.632695e+00 -1.834492e+00 -2.984982e+00 1.285049e+00 4.845673e-01 -2.351265e-01 5.158213e-01 -3.487066e-01 -4.782389e-01 3.658426e-01 3.339092e-01 2.958029e-01 3.725507e-01 2.350661e-01 1.477592e-01 -8.458722e-02 1.251424e-01 -2.409862e-02 -1.240203e-01 3.223319e-01 9.435324e-02 -3.474126e-01 4.665067e-02 1.586584e-02 1.848715e-01 -2.128233e-01 -6.948771e-02 -2.908976e-01 -4.427585e-01 -4.921939e-01 1.240000e-02
<VARIANCE> 39
 2.266938e+00 2.550293e+00 1.512687e+01 4.496774e+00 1.192987e+01 6.052326e+00 5.438522e+00 3.969506e+01 1.250318e+01 5.692817e+00 1.670952e+01 6.543583e+00 5.000000e-02 6.665346e-02 3.411326e-01 1.120902e+00 2.167260e-01 1.188336e+00 5.774566e-01 6.012873e-01 1.565911e+00 5.301256e-01 1.880766e+00 1.697395e+00 3.394612e-01 5.000000e-02 5.000000e-02 1.064863e-01 1.523136e-01 2.862600e-01 2.498809e-01 3.497036e-01 7.650575e-02 8.082426e-01 2.116747e-01 1.986417e-01 3.497743e-01 2.755556e-01 5.000000e-02
<GCONST> 6.199132e+01
<STATE> 14
<MEAN> 39
 2.888130e+00 -2.555884e+01 -1.504266e+01 -1.792655e+00 9.822776e-01 -1.089696e+00 2.726018e+00 -2.714192e+00 2.198890e+00 -4.998272e+00 -5.450381e+00 2.030496e+00 4.433492e-01 -1.308402e-01 2.481456e-01 -2.868982e-01 1.170090e-01 8.885975e-01 7.478724e-02 6.342880e-01 2.806929e-01 -8.135937e-01 -2.354268e-01 3.068386e-01 2.325531e-02 -1.124602e-02 -2.080532e-02 -5.508763e-02 2.496671e-02 1.537302e-01 1.635654e-01 -9.824855e-02 1.697261e-02 4.958608e-02 1.107554e-01 2.392430e-01 1.626018e-01 -2.985536e-01 2.357885e-03
<VARIANCE> 39
 1.196152e+00 2.132010e+00 9.852235e+00 7.290693e+00 1.489753e+01 4.916749e+00 7.056677e+00 1.666141e+01 5.289332e+00 9.229049e+00 2.640167e+00 1.180056e+01 5.000000e-02 2.196347e-01 7.588588e-01 1.280214e+00 9.183725e-01 1.689664e+00 5.166296e-01 3.848758e-01 2.101674e+00 1.150213e+00 5.558513e-01 5.045599e-01 1.580916e+00 5.000000e-02 5.000000e-02 1.369066e-01 9.468061e-02 3.423977e-01 3.121119e-01 1.216106e-01 6.123719e-02 2.967699e-01 1.715158e-01 2.450244e-01 5.704241e-02 2.858388e-01 5.000000e-02
<GCONST> 5.865909e+01
<STATE> 15
<MEAN> 39
 2.759286e+00 -2.480291e+01 -1.637916e+01 -1.284734e+00 3.758969e+00 -2.278228e+00 4.300198e+00 -2.242851e+00 2.735982e+00 -3.314072e+00 -3.508016e+00 -1.603801e-01 4.261461e-01 1.458219e-01 9.115335e-01 7.352993e-01 6.485661e-01 6.793846e-01 -8.541137e-02 9.170073e-02 5.596101e-01 -3.162989e-01 -8.575060e-02 -5.793354e-03 -5.738673e-01 -1.442943e-02 4.685918e-02 4.579951e-02 1.368684e-01 2.524572e-01 -2.240676e-01 -2.463555e-01 -5.242885e-01 -5.158486e-03 -1.715217e-01 -2.641723e-01 -2.700448e-03 1.743701e-01 -1.018253e-05
<VARIANCE> 39
 2.730556e+00 1.158720e+01 3.181282e+01 9.263311e+00 4.597380e+00 4.254709e+00 2.758092e+00 1.722542e+01 5.470056e+00 3.464864e+00 1.036592e+01 1.343410e+01 5.000000e-02 2.453744e-01 7.696990e-01 1.765015e+00 1.817427e+00 7.247128e-01 7.082020e-01 1.061299e+00 1.987076e+00 4.734697e-01 5.313113e-01 8.448721e-01 1.189358e+00 5.000000e-02 5.000000e-02 1.577308e-01 2.890593e-01 1.821661e-01 1.780636e-01 1.255545e-01 1.561067e-01 2.709405e-01 6.972098e-02 6.987970e-02 6.952868e-02 2.398773e-01 5.000000e-02
<GCONST> 6.057771e+01
<STATE> 16
<MEAN> 39
 2.171313e+00 -2.429946e+01 -1.594663e+01 -5.181624e-01 3.981887e+00 -2.495623e+00 3.509786e+00 1.765858e-01 2.064761e+00 -4.618320e+00 -3.056424e+00 1.019667e+00 3.922500e-01 -1.793050e-01 4.774221e-01 4.041915e-01 1.083912e+00 6.235101e-01 -8.604298e-01 -5.329117e-01 -2.628280e-03 -6.996258e-01 -1.018610e+00 2.161611e-01 -1.872576e-01 -1.595162e-02 -6.519540e-02 7.402244e-02 1.597396e-01 1.031328e-02 1.298311e-01 1.414419e-01 -1.630390e-01 -4.128133e-01 3.958761e-02 6.782184e-02 2.095161e-01 9.665159e-03 -1.494023e-03
<VARIANCE> 39
 3.053456e+00 7.039798e+00 2.584173e+01 9.059139e+00 1.286650e+01 1.023695e+01 9.503322e+00 9.140617e+00 3.402334e+00 5.374779e+00 4.706609e+00 6.158248e+00 5.000000e-02 1.880468e-01 2.599755e-01 7.196766e-01 6.306211e-01 4.215593e-01 6.734350e-01 1.052537e+00 2.105502e+00 1.142235e+00 1.288465e+00 2.561143e-01 7.326542e-01 5.000000e-02 7.494563e-02 2.086216e-01 4.754128e-01 3.138869e-01 1.824562e-01 1.772830e-01 9.232509e-02 1.459924e-01 5.822687e-02 1.649609e-01 2.338278e-01 2.287307e-01 5.000000e-02
<GCONST> 5.990089e+01
<STATE> 17
<MEAN> 39
 2.348614e+00 -2.304421e+01 -1.466071e+01 2.067893e+00 4.528127e+00 -3.794176e+00 1.768365e+00 -3.175686e+00 -1.953563e+00 -8.125626e+00 -3.559256e+00 -8.608990e-01 3.872070e-01 -7.515471e-02 6.955674e-01 4.628025e-01 1.260359e-01 3.656879e-01 -1.567313e-01 -6.623453e-01 -3.625716e-01 -4.471406e-02 1.894486e-01 1.125737e+00 -1.645647e-01 -1.486632e-02 -2.052015e-02 5.431753e-02 1.496287e-02 -4.001342e-01 -6.597303e-02 1.812548e-01 2.248651e-01 2.471081e-01 4.719040e-01 4.729826e-01 5.369713e-02 -4.188389e-03 -2.853794e-03
<VARIANCE> 39
 2.015107e+00 2.130663e+00 5.450422e+00 2.333169e+00 3.931407e+00 6.585687e+00 1.436715e+01 1.542284e+01 1.819300e+01 9.927027e+00 9.825001e+00 6.280540e+00 5.000000e-02 3.288918e-01 1.015494e+00 3.769302e+00 1.217734e+00 1.535812e+00 5.742930e-01 1.256694e+00 6.951038e-01 1.704012e-01 9.379222e-01 7.674752e-01 6.153902e-01 5.000000e-02 5.000000e-02 8.817691e-02 2.721548e-01 1.016547e-01 5.000000e-02 2.421851e-01 5.408717e-01 2.194631e-01 2.795037e-01 2.759560e-01 1.353221e-01 1.399207e-01 5.000000e-02
<GCONST> 6.016036e+01
<STATE> 18
<MEAN> 39
 2.297431e+00 -2.049142e+01 -1.176904e+01 1.587875e+00 6.669572e+00 -2.568272e+00 1.720971e+00 -1.415149e+00 1.845256e+00 -4.182039e+00 -5.551198e-01 -5.337833e-01 3.358909e-01 -2.881301e-01 7.512767e-01 1.036606e+00 2.276515e-02 2.018100e-01 1.155214e-01 1.461418e-01 7.825018e-01 2.926443e-01 -2.095588e-01 -2.013725e-01 -1.716455e-01 -2.620441e-02 -1.358255e-01 -2.060460e-01 -2.714007e-01 -2.354315e-01 -2.511716e-01 -1.432370e-01 1.625238e-01 1.356171e-01 -9.836333e-02 -2.159971e-01 -3.791509e-01 5.377270e-02 -7.594456e-05
<VARIANCE> 39
 6.456264e+00 4.125645e+00 9.010768e+00 9.051159e+00 7.644629e+00 3.580262e+00 1.182438e+01 8.176991e+00 5.453631e+00 4.585208e+00 6.584123e+00 1.097630e+01 5.000000e-02 3.223834e-01 5.117713e-01 1.135825e+00 8.660982e-01 5.292484e-01 1.100928e+00 1.828089e+00 8.573560e-01 9.743511e-01 1.354603e+00 1.250117e+00 7.074996e-01 5.000000e-02 9.841804e-02 1.433150e-01 5.932098e-01 2.828306e-01 2.115573e-01 8.975052e-02 2.647541e-01 2.283261e-01 5.000000e-02 1.649876e-01 1.753532e-01 1.663868e-01 5.000000e-02
<GCONST> 6.285141e+01
<STATE> 19
<MEAN> 39
 4.833401e-01 -2.030664e+01 -1.242083e+01 4.613970e-01 5.227929e+00 -4.195475e+00 2.624769e+00 4.158484e-01 9.783296e-01 -6.960505e+00 -2.391104e+00 -4.131825e-01 2.511144e-01 -3.121515e-01 1.295534e-02 -5.800883e-01 -1.011104e+00 3.647734e-02 -4.547534e-02 -3.437713e-01 -8.795264e-01 -4.216018e-01 8.533096e-02 1.634922e-01 -2.840135e-02 -6.563178e-03 2.521141e-01 8.831809e-02 -9.231382e-03 2.988205e-02 2.374265e-01 2.843475e-01 -3.046774e-01 -6.090419e-01 -2.661384e-01 2.339748e-01 2.812207e-01 -4.665360e-02 8.727259e-03
<VARIANCE> 39
 1.748005e+00 6.587615e+00 1.879549e+01 6.531260e+00 4.650899e+00 6.195639e+00 1.018220e+01 9.420972e+00 3.095372e+00 5.782402e+00 1.673351e+01 9.595278e+00 5.000000e-02 4.180457e-01 5.461580e-01 2.308669e+00 8.246471e-01 8.743964e-01 1.027612e+00 2.691626e+00 1.406084e+00 4.915193e-01 5.385094e-01 1.119470e+00 9.346648e-01 5.000000e-02 5.000000e-02 1.661980e-01 4.578753e-01 1.989720e-01 1.279433e-01 2.353596e-01 5.964020e-01 1.794544e-01 5.000000e-02 6.532018e-02 2.005261e-01 1.597768e-01 5.000000e-02
<GCONST> 6.285016e+01
<STATE> 20
<MEAN> 39
 6.713020e-01 -1.953708e+01 -1.385210e+01 -3.204507e+00 7.482313e+00 -2.250208e+00 1.658534e-01 -5.223320e+00 -1.117825e+00 -4.253021e+00 -5.141129e-01 -1.590347e+00 2.671859e-01 3.360314e-01 5.861336e-01 2.116890e-01 7.282006e-03 9.774696e-01 6.992684e-01 -7.769849e-01 -1.285872e+00 -9.144842e-01 2.241445e-01 4.237214e-01 -1.260795e-01 6.278245e-03 -1.448579e-01 9.984358e-02 3.825924e-01 4.973735e-01 -8.740496e-02 -1.289990e-01 2.624909e-01 5.160730e-01 9.997254e-02 -2.314462e-01 -4.346677e-02 2.277364e-01 -7.123231e-03
<VARIANCE> 39
 3.568458e+00 9.591961e+00 2.224238e+01 3.529455e+00 7.278455e+00 1.110946e+01 1.383739e+01 3.611570e+00 1.465032e+01 8.747668e+00 8.201392e+00 7.771890e+00 5.000000e-02 2.189403e-01 9.066281e-01 1.498624e+00 1.054258e+00 7.168208e-01 9.216415e-01 1.081020e+00 8.305178e-01 6.496027e-01 9.857332e-01 1.206334e+00 4.925795e-01 5.000000e-02 5.974037e-02 1.416220e-01 7.368746e-01 1.799707e-01 2.227536e-01 3.869637e-01 5.904846e-01 9.916747e-02 3.332517e-01 1.383547e-01 1.639462e-01 1.725665e-01 5.000000e-02
<GCONST> 6.652682e+01
<STATE> 21
<MEAN> 39
 1.593628e+00 -1.866511e+01 -1.161056e+01 6.988061e-01 8.481504e+00 -1.423781e+00 -9.026142e-02 -4.566065e+00 -2.175974e+00 -7.049158e+00 -1.334554e+00 -8.610527e-03 2.891087e-01 -5.328386e-01 4.929649e-01 7.654102e-01 7.396810e-01 -5.634946e-02 5.967858e-03 5.342157e-01 3.394268e-01 -4.673998e-01 -6.263881e-01 3.351200e-01 6.490651e-01 -2.381293e-02 -5.521005e-01 1.044819e-01 2.042573e-01 -1.499200e-01 -4.545185e-01 -2.909067e-01 2.035421e-01 3.545829e-01 3.617655e-01 1.448158e-01 1.973314e-02 -3.281652e-02 -2.142622e-02
<VARIANCE> 39
 6.069213e+00 1.026140e+01 2.734400e+01 9.358324e+00 9.752170e+00 6.469745e+00 5.719757e+00 3.759841e+00 1.146974e+01 1.275169e+01 1.448892e+01 9.070168e+00 5.000000e-02 4.929110e-01 9.098904e-01 2.802439e+00 7.176496e-01 1.079062e+00 1.454899e+00 1.539170e+00 7.012532e-01 2.273920e+00 1.545075e+00 1.882984e-01 3.429468e-01 5.000000e-02 9.443093e-02 5.060433e-02 2.423670e-01 2.789553e-01 1.748765e-01 2.073460e-01 3.060685e-01 1.631589e-01 2.545170e-01 1.532215e-01 1.303755e-01 1.076020e-01 5.000000e-02
<GCONST> 6.652144e+01
<STATE> 22
<MEAN> 39
 -1.022938e+00 -1.717312e+01 -1.019355e+01 -4.707836e-01 6.851785e+00 -3.595187e+00 -4.367077e-01 -3.507574e+00 -1.342217e+00 -5.497811e+00 9.490481e-01 -6.649237e-01 1.708458e-01 -1.545118e+00 1.082428e+00 1.181646e+00 -2.300598e-01 -9.325267e-01 -7.465751e-01 -6.514570e-02 5.238447e-01 9.010833e-01 9.019455e-01 -2.174007e-01 -5.833780e-01 -6.888053e-02 -1.500929e-01 1.994288e-01 1.040138e-01 -1.308074e-01 -2.911202e-02 2.289796e-01 2.139066e-01 3.630918e-02 9.115242e-02 1.980853e-01 -7.251830e-02 -8.323388e-02 -8.647750e-03
<VARIANCE> 39
 3.765804e+00 1.255572e+01 1.628068e+01 4.316986e+00 1.206135e+01 1.050784e+01 1.241366e+01 1.460114e+01 1.784116e+01 1.351748e+01 1.138525e+01 5.693147e+00 5.000000e-02 4.998701e-01 4.379142e-01 1.901562e+00 1.090608e+00 8.722262e-01 6.045188e-01 1.178537e+00 6.232669e-01 1.948497e+00 4.930745e-01 8.121171e-01 6.814846e-01 5.000000e-02 8.877456e-02 2.996295e-01 5.504197e-01 2.174626e-01 2.062179e-01 1.833388e-01 3.441251e-01 1.643425e-01 3.439913e-01 3.989521e-01 1.571515e-01 1.526278e-01 5.000000e-02
<GCONST> 7.051409e+01
<STATE> 23
<MEAN> 39
 -4.750034e+00 -1.391354e+01 -6.784459e+00 -4.434316e-01 5.748064e+00 -2.522261e+00 1.404145e+00 -3.932781e+00 -7.149847e-01 -4.968118e+00 -8.148660e-01 -1.570531e+00 3.118134e-03 -9.537125e-01 1.050734e+00 8.282900e-01 -5.343763e-01 -4.817751e-01 5.533803e-01 8.019530e-01 2.904431e-01 3.029755e-01 3.577293e-01 4.664898e-01 2.467714e-01 -5.283719e-02 3.277869e-01 -2.741165e-01 -4.125865e-01 -2.086749e-01 1.146741e-01 1.250232e-01 -1.227112e-01 7.316766e-02 2.385322e-02 6.597964e-02 2.342209e-01 1.999879e-01 1.237178e-02
<VARIANCE> 39
 5.465550e-01 1.347136e+01 9.308311e+00 3.548071e+00 4.535038e+00 9.617574e+00 7.716779e+00 6.902080e+00 1.366578e+01 8.330359e+00 1.162297e+01 4.243464e+00 5.000000e-02 5.335792e-01 1.906801e+00 2.727079e+00 1.027830e+00 2.763056e-01 3.101332e-01 1.249324e+00 7.392567e-01 1.343771e-01 1.069197e+00 1.308734e+00 7.692180e-01 5.000000e-02 5.000000e-02 1.668941e-01 2.497639e-01 1.311268e-01 1.138297e-01 9.813779e-02 3.258650e-01 1.286242e-01 2.353895e-01 1.147785e-01 1.065885e-01 1.368254e-01 5.000000e-02
<GCONST> 5.743490e+01
<STATE> 24
<MEAN> 39
 -5.743712e+00 -1.390664e+01 -7.706731e+00 -2.940934e+00 4.319463e+00 -1.612447e+00 2.598008e+00 -5.391069e-01 1.207070e+00 -1.780703e+00 1.951238e+00 8.578940e-01 -6.206064e-02 -3.262663e-01 3.883134e-01 8.017825e-02 -5.432310e-01 1.093241e-01 2.476292e-01 -2.290175e-01 2.765850e-01 -1.729554e-01 2.956375e-01 6.785403e-01 3.195516e-01 -2.103852e-02 1.752616e-01 -4.274118e-02 1.133531e-01 3.417766e-01 1.165838e-01 -1.987561e-01 -1.697569e-01 -2.989834e-01 -3.787468e-01 -4.308341e-01 -3.060144e-01 -4.209029e-01 9.503345e-03
<VARIANCE> 39
 2.936168e-01 2.963288e+00 1.861355e+00 4.315326e+00 2.854244e+00 3.241811e+00 8.541546e+00 5.392080e+00 7.460474e+00 7.290362e+00 1.082996e+01 9.214897e+00 5.000000e-02 6.241005e-02 2.651252e-01 2.812257e-01 2.220019e-01 5.040912e-01 7.849348e-01 4.387651e-01 1.019542e+00 7.328210e-01 1.666742e+00 9.057276e-01 5.856367e-01 5.000000e-02 5.000000e-02 1.559331e-01 1.769125e-01 1.366103e-01 5.000000e-02 1.029757e-01 2.028910e-01 8.928675e-02 7.592589e-02 2.536208e-01 1.612309e-01 1.576764e-01 5.000000e-02
<GCONST> 4.476871e+01
<STATE> 25
<MEAN> 39
 -6.223225e+00 -1.221958e+01 -6.226473e+00 -1.825763e+00 6.163259e+00 -1.245319e+00 1.911925e+00 -2.987470e+00 -1.729842e+00 -4.996928e+00 1.112457e+00 -6.423419e-01 -9.771684e-02 -1.668041e-01 2.955223e-01 6.286413e-01 5.514785e-01 2.128887e-02 -7.062007e-03 2.083618e-01 -6.133100e-01 -6.677886e-01 -6.512567e-02 -1.654122e-01 -6.588067e-01 -7.045813e-03 1.292646e-01 -8.142570e-02 5.707954e-02 5.215583e-02 -2.138589e-01 -2.214105e-01 -1.743567e-01 -2.158102e-02 1.282274e-01 1.494273e-01 -2.343516e-02 -2.886989e-03 7.339360e-03
<VARIANCE> 39
 1.165586e+00 2.767289e+00 4.340664e+00 6.821194e+00 3.525800e+00 9.755479e+00 1.287309e+01 7.267692e+00 7.720577e+00 9.281422e+00 5.849272e+00 1.303729e+00 5.000000e-02 1.083796e-01 2.348462e-01 3.355442e-01 5.687478e-01 4.359240e-01 9.226748e-01 9.180711e-01 4.722690e-01 3.689961e-01 1.106988e+00 2.903228e-01 8.570704e-01 5.000000e-02 5.000000e-02 6.898943e-02 1.345396e-01 1.598725e-01 9.088735e-02 1.047905e-01 1.734746e-01 6.468523e-02 1.207798e-01 3.041877e-01 6.268446e-02 1.088464e-01 5.000000e-02
<GCONST> 4.532505e+01
<TRANSP> 26
 0.000000e+00 1.000000e+00 0.000000e+00 0.000000e+00 0.000000e+00 0.000000e+00 0.000000e+00 0.000000e+00 0.000000e+00 0.000000e+00 0.000000e+00 0.000000e+00 0.000000e+00 0.000000e+00 0.000000e+00 0.000000e+00 0.000000e+00 0.000000e+00 0.000000e+00 0.000000e+00 0.000000e+00 0.000000e+00 0.000000e+00 0.000000e+00 0.000000e+00 0.000000e+00
 0.000000e+00 5.941266e-01 4.058735e-01 0.000000e+00 0.000000e+00 0.000000e+00 0.000000e+00 0.000000e+00 0.000000e+00 0.000000e+00 0.000000e+00 0.000000e+00 0.000000e+00 0.000000e+00 0.000000e+00 0.000000e+00 0.000000e+00 0.000000e+00 0.000000e+00 0.000000e+00 0.000000e+00 0.000000e+00 0.000000e+00 0.000000e+00 0.000000e+00 0.000000e+00
 0.000000e+00 0.000000e+00 1.666651e-01 8.333349e-01 0.000000e+00 0.000000e+00 0.000000e+00 0.000000e+00 0.000000e+00 0.000000e+00 0.000000e+00 0.000000e+00 0.000000e+00 0.000000e+00 0.000000e+00 0.000000e+00 0.000000e+00 0.000000e+00 0.000000e+00 0.000000e+00 0.000000e+00 0.000000e+00 0.000000e+00 0.000000e+00 0.000000e+00 0.000000e+00
 0.000000e+00 0.000000e+00 0.000000e+00 4.999634e-01 5.000366e-01 0.000000e+00 0.000000e+00 0.000000e+00 0.000000e+00 0.000000e+00 0.000000e+00 0.000000e+00 0.000000e+00 0.000000e+00 0.000000e+00 0.000000e+00 0.000000e+00 0.000000e+00 0.000000e+00 0.000000e+00 0.000000e+00 0.000000e+00 0.000000e+00 0.000000e+00 0.000000e+00 0.000000e+00
 0.000000e+00 0.000000e+00 0.000000e+00 0.000000e+00 5.833592e-01 4.166408e-01 0.000000e+00 0.000000e+00 0.000000e+00 0.000000e+00 0.000000e+00 0.000000e+00 0.000000e+00 0.000000e+00 0.000000e+00 0.000000e+00 0.000000e+00 0.000000e+00 0.000000e+00 0.000000e+00 0.000000e+00 0.000000e+00 0.000000e+00 0.000000e+00 0.000000e+00 0.000000e+00
 0.000000e+00 0.000000e+00 0.000000e+00 0.000000e+00 0.000000e+00 5.002112e-01 4.997889e-01 0.000000e+00 0.000000e+00 0.000000e+00 0.000000e+00 0.000000e+00 0.000000e+00 0.000000e+00 0.000000e+00 0.000000e+00 0.000000e+00 0.000000e+00 0.000000e+00 0.000000e+00 0.000000e+00 0.000000e+00 0.000000e+00 0.000000e+00 0.000000e+00 0.000000e+00
 0.000000e+00 0.000000e+00 0.000000e+00 0.000000e+00 0.000000e+00 0.000000e+00 4.997904e-01 5.002096e-01 0.000000e+00 0.000000e+00 0.000000e+00 0.000000e+00 0.000000e+00 0.000000e+00 0.000000e+00 0.000000e+00 0.000000e+00 0.000000e+00 0.000000e+00 0.000000e+00 0.000000e+00 0.000000e+00 0.000000e+00 0.000000e+00 0.000000e+00 0.000000e+00
 0.000000e+00 0.000000e+00 0.000000e+00 0.000000e+00 0.000000e+00 0.000000e+00 0.000000e+00 6.155190e-01 3.844810e-01 0.000000e+00 0.000000e+00 0.000000e+00 0.000000e+00 0.000000e+00 0.000000e+00 0.000000e+00 0.000000e+00 0.000000e+00 0.000000e+00 0.000000e+00 0.000000e+00 0.000000e+00 0.000000e+00 0.000000e+00 0.000000e+00 0.000000e+00
 0.000000e+00 0.000000e+00 0.000000e+00 0.000000e+00 0.000000e+00 0.000000e+00 0.000000e+00 0.000000e+00 5.454969e-01 4.545031e-01 0.000000e+00 0.000000e+00 0.000000e+00 0.000000e+00 0.000000e+00 0.000000e+00 0.000000e+00 0.000000e+00 0.000000e+00 0.000000e+00 0.000000e+00 0.000000e+00 0.000000e+00 0.000000e+00 0.000000e+00 0.000000e+00
 0.000000e+00 0.000000e+00 0.000000e+00 0.000000e+00 0.000000e+00 0.000000e+00 0.000000e+00 0.000000e+00 0.000000e+00 5.449491e-01 4.550509e-01 0.000000e+00 0.000000e+00 0.000000e+00 0.000000e+00 0.000000e+00 0.000000e+00 0.000000e+00 0.000000e+00 0.000000e+00 0.000000e+00 0.000000e+00 0.000000e+00 0.000000e+00 0.000000e+00 0.000000e+00
 0.000000e+00 0.000000e+00 0.000000e+00 0.000000e+00 0.000000e+00 0.000000e+00 0.000000e+00 0.000000e+00 0.000000e+00 0.000000e+00 4.448524e-01 5.551476e-01 0.000000e+00 0.000000e+00 0.000000e+00 0.000000e+00 0.000000e+00 0.000000e+00 0.000000e+00 0.000000e+00 0.000000e+00 0.000000e+00 0.000000e+00 0.000000e+00 0.000000e+00 0.000000e+00
 0.000000e+00 0.000000e+00 0.000000e+00 0.000000e+00 0.000000e+00 0.000000e+00 0.000000e+00 0.000000e+00 0.000000e+00 0.000000e+00 0.000000e+00 5.000001e-01 5.000000e-01 0.000000e+00 0.000000e+00 0.000000e+00 0.000000e+00 0.000000e+00 0.000000e+00 0.000000e+00 0.000000e+00 0.000000e+00 0.000000e+00 0.000000e+00 0.000000e+00 0.000000e+00
 0.000000e+00 0.000000e+00 0.000000e+00 0.000000e+00 0.000000e+00 0.000000e+00 0.000000e+00 0.000000e+00 0.000000e+00 0.000000e+00 0.000000e+00 0.000000e+00 6.161634e-01 3.838365e-01 0.000000e+00 0.000000e+00 0.000000e+00 0.000000e+00 0.000000e+00 0.000000e+00 0.000000e+00 0.000000e+00 0.000000e+00 0.000000e+00 0.000000e+00 0.000000e+00
 0.000000e+00 0.000000e+00 0.000000e+00 0.000000e+00 0.000000e+00 0.000000e+00 0.000000e+00 0.000000e+00 0.000000e+00 0.000000e+00 0.000000e+00 0.000000e+00 0.000000e+00 5.817930e-01 4.182071e-01 0.000000e+00 0.000000e+00 0.000000e+00 0.000000e+00 0.000000e+00 0.000000e+00 0.000000e+00 0.000000e+00 0.000000e+00 0.000000e+00 0.000000e+00
 0.000000e+00 0.000000e+00 0.000000e+00 0.000000e+00 0.000000e+00 0.000000e+00 0.000000e+00 0.000000e+00 0.000000e+00 0.000000e+00 0.000000e+00 0.000000e+00 0.000000e+00 0.000000e+00 4.455937e-01 5.544063e-01 0.000000e+00 0.000000e+00 0.000000e+00 0.000000e+00 0.000000e+00 0.000000e+00 0.000000e+00 0.000000e+00 0.000000e+00 0.000000e+00
 0.000000e+00 0.000000e+00 0.000000e+00 0.000000e+00 0.000000e+00 0.000000e+00 0.000000e+00 0.000000e+00 0.000000e+00 0.000000e+00 0.000000e+00 0.000000e+00 0.000000e+00 0.000000e+00 0.000000e+00 4.998275e-01 5.001726e-01 0.000000e+00 0.000000e+00 0.000000e+00 0.000000e+00 0.000000e+00 0.000000e+00 0.000000e+00 0.000000e+00 0.000000e+00
 0.000000e+00 0.000000e+00 0.000000e+00 0.000000e+00 0.000000e+00 0.000000e+00 0.000000e+00 0.000000e+00 0.000000e+00 0.000000e+00 0.000000e+00 0.000000e+00 0.000000e+00 0.000000e+00 0.000000e+00 0.000000e+00 3.752956e-01 6.247044e-01 0.000000e+00 0.000000e+00 0.000000e+00 0.000000e+00 0.000000e+00 0.000000e+00 0.000000e+00 0.000000e+00
 0.000000e+00 0.000000e+00 0.000000e+00 0.000000e+00 0.000000e+00 0.000000e+00 0.000000e+00 0.000000e+00 0.000000e+00 0.000000e+00 0.000000e+00 0.000000e+00 0.000000e+00 0.000000e+00 0.000000e+00 0.000000e+00 0.000000e+00 6.424967e-01 3.575033e-01 0.000000e+00 0.000000e+00 0.000000e+00 0.000000e+00 0.000000e+00 0.000000e+00 0.000000e+00
 0.000000e+00 0.000000e+00 0.000000e+00 0.000000e+00 0.000000e+00 0.000000e+00 0.000000e+00 0.000000e+00 0.000000e+00 0.000000e+00 0.000000e+00 0.000000e+00 0.000000e+00 0.000000e+00 0.000000e+00 0.000000e+00 0.000000e+00 0.000000e+00 6.429543e-01 3.570457e-01 0.000000e+00 0.000000e+00 0.000000e+00 0.000000e+00 0.000000e+00 0.000000e+00
 0.000000e+00 0.000000e+00 0.000000e+00 0.000000e+00 0.000000e+00 0.000000e+00 0.000000e+00 0.000000e+00 0.000000e+00 0.000000e+00 0.000000e+00 0.000000e+00 0.000000e+00 0.000000e+00 0.000000e+00 0.000000e+00 0.000000e+00 0.000000e+00 0.000000e+00 4.434264e-01 5.565736e-01 0.000000e+00 0.000000e+00 0.000000e+00 0.000000e+00 0.000000e+00
 0.000000e+00 0.000000e+00 0.000000e+00 0.000000e+00 0.000000e+00 0.000000e+00 0.000000e+00 0.000000e+00 0.000000e+00 0.000000e+00 0.000000e+00 0.000000e+00 0.000000e+00 0.000000e+00 0.000000e+00 0.000000e+00 0.000000e+00 0.000000e+00 0.000000e+00 0.000000e+00 4.459705e-01 5.540295e-01 0.000000e+00 0.000000e+00 0.000000e+00 0.000000e+00
 0.000000e+00 0.000000e+00 0.000000e+00 0.000000e+00 0.000000e+00 0.000000e+00 0.000000e+00 0.000000e+00 0.000000e+00 0.000000e+00 0.000000e+00 0.000000e+00 0.000000e+00 0.000000e+00 0.000000e+00 0.000000e+00 0.000000e+00 0.000000e+00 0.000000e+00 0.000000e+00 0.000000e+00 5.000495e-01 4.999506e-01 0.000000e+00 0.000000e+00 0.000000e+00
 0.000000e+00 0.000000e+00 0.000000e+00 0.000000e+00 0.000000e+00 0.000000e+00 0.000000e+00 0.000000e+00 0.000000e+00 0.000000e+00 0.000000e+00 0.000000e+00 0.000000e+00 0.000000e+00 0.000000e+00 0.000000e+00 0.000000e+00 0.000000e+00 0.000000e+00 0.000000e+00 0.000000e+00 0.000000e+00 5.833393e-01 4.166607e-01 0.000000e+00 0.000000e+00
 0.000000e+00 0.000000e+00 0.000000e+00 0.000000e+00 0.000000e+00 0.000000e+00 0.000000e+00 0.000000e+00 0.000000e+00 0.000000e+00 0.000000e+00 0.000000e+00 0.000000e+00 0.000000e+00 0.000000e+00 0.000000e+00 0.000000e+00 0.000000e+00 0.000000e+00 0.000000e+00 0.000000e+00 0.000000e+00 0.000000e+00 5.000955e-01 4.999045e-01 0.000000e+00
 0.000000e+00 0.000000e+00 0.000000e+00 0.000000e+00 0.000000e+00 0.000000e+00 0.000000e+00 0.000000e+00 0.000000e+00 0.000000e+00 0.000000e+00 0.000000e+00 0.000000e+00 0.000000e+00 0.000000e+00 0.000000e+00 0.000000e+00 0.000000e+00 0.000000e+00 0.000000e+00 0.000000e+00 0.000000e+00 0.000000e+00 0.000000e+00 5.751816e-01 4.248184e-01
 0.000000e+00 0.000000e+00 0.000000e+00 0.000000e+00 0.000000e+00 0.000000e+00 0.000000e+00 0.000000e+00 0.000000e+00 0.000000e+00 0.000000e+00 0.000000e+00 0.000000e+00 0.000000e+00 0.000000e+00 0.000000e+00 0.000000e+00 0.000000e+00 0.000000e+00 0.000000e+00 0.000000e+00 0.000000e+00 0.000000e+00 0.000000e+00 0.000000e+00 0.000000e+00
<ENDHMM>
