~o
<STREAMINFO> 1 39
<VECSIZE> 39<NULLD><MFCC_E_D_A><DIAGC>
~h "Lui"
<BEGINHMM>
<NUMSTATES> 25
<STATE> 2
<MEAN> 39
 -6.891701e+00 -8.155800e+00 9.222142e-03 3.720397e-01 8.386945e-01 -4.219923e+00 1.976964e+00 -1.129469e+00 3.238231e-01 -1.476651e+00 4.648777e+00 -6.226477e-01 -4.552212e-02 9.680756e-01 1.379286e-01 -6.543309e-01 -7.598036e-01 -8.875815e-01 -8.568166e-01 -8.628207e-01 -4.469860e-01 5.006674e-01 2.521073e-01 -1.998021e-01 -5.725715e-01 4.847416e-02 8.420135e-01 -6.020943e-02 -1.082113e+00 -8.973117e-01 -4.388807e-01 -7.192872e-01 -7.605315e-01 -3.012667e-01 5.677754e-01 -2.738627e-02 -7.364157e-01 -6.855261e-01 3.791195e-02
<VARIANCE> 39
 3.006416e+00 1.581123e+00 2.266642e+00 4.991039e+00 7.302107e+00 1.634696e+01 6.731339e+00 1.012651e+01 7.106410e+00 4.846063e+00 6.668520e+00 4.957489e+00 5.000000e-02 1.001884e+00 2.964588e-01 1.264901e+00 1.808303e+00 7.471534e-01 2.159663e+00 1.662231e+00 1.211246e+00 6.103096e-01 7.371810e-01 1.442773e+00 1.540142e+00 5.000000e-02 9.271889e-02 5.000000e-02 2.585357e-01 2.814097e-01 1.572499e-01 4.405089e-01 1.644138e-01 1.785524e-01 1.035795e-01 6.069008e-02 1.439814e-01 6.299333e-02 5.000000e-02
<GCONST> 5.954311e+01
<STATE> 3
<MEAN> 39
 -2.478442e+00 -7.778182e+00 -4.270376e+00 -6.176997e+00 -2.173685e+00 -6.833972e+00 -4.370358e-01 -2.437350e+00 2.871722e+00 -2.297280e+00 2.672328e-01 -4.002492e+00 1.517175e-01 3.407620e+00 -1.134899e-01 -4.349990e+00 -2.935320e+00 -1.715672e+00 -2.849479e+00 -2.544213e+00 -1.323136e+00 1.800910e+00 5.740266e-01 -1.835014e+00 -1.918496e+00 1.588855e-01 2.409450e-01 6.119522e-02 -7.587780e-01 3.845637e-01 -2.388223e-01 -4.014080e-01 -3.875352e-01 -3.764741e-01 2.522900e-01 -1.890168e-01 2.800632e-01 -1.060992e-01 2.348312e-02
<VARIANCE> 39
 8.032219e+00 7.234509e-01 1.980133e+01 1.988184e+01 4.705601e+00 1.194829e+01 2.071515e+01 1.403827e+01 1.699926e+01 1.335948e+01 5.990657e+00 1.060939e+01 5.000000e-02 5.624757e-01 1.925514e-01 1.107762e+00 2.123706e+00 8.925192e-01 1.307204e+00 8.096096e-01 8.894175e-01 1.244262e+00 1.096410e+00 9.995342e-01 5.132124e-01 5.000000e-02 2.927460e-01 5.000000e-02 3.863064e-01 4.147553e-01 1.614137e-01 4.185322e-01 1.126043e-01 1.113646e+00 3.714030e-01 3.714513e-01 2.591836e-01 1.903929e-01 5.000000e-02
<GCONST> 7.199007e+01
<STATE> 4
<MEAN> 39
 6.024991e+00 -8.340480e+00 -1.626635e+01 -9.777091e+00 -6.064878e+00 -1.558775e+01 -8.007103e+00 -6.607400e+00 7.212986e+00 -5.321812e-01 -1.788425e+00 -8.952343e+00 5.676813e-01 1.608397e+00 4.949176e-01 -3.359817e+00 4.241079e-01 -1.728590e+00 -1.603323e+00 -2.222795e+00 -1.645548e+00 1.763087e+00 -6.138784e-01 4.384282e-01 -1.099342e+00 1.300673e-01 -1.122580e+00 2.647931e-02 9.221226e-01 7.700291e-01 1.523654e-01 1.136849e+00 4.549458e-01 3.295504e-01 6.649443e-02 2.229251e-01 5.570486e-01 9.891939e-01 -2.242084e-02
<VARIANCE> 39
 2.202889e+00 4.728437e+00 1.005126e+01 1.282982e+01 9.182108e+00 3.656511e+00 1.389565e+01 6.660300e+00 1.222624e+01 1.781477e+01 1.342402e+01 4.260762e+00 5.000000e-02 1.886129e+00 5.403444e-01 2.472224e+00 2.125288e+00 1.190540e+00 2.579838e+00 1.434789e+00 7.191693e+00 2.063133e+00 4.583561e+00 3.530314e+00 9.494681e-01 5.000000e-02 1.347574e-01 1.147748e-01 2.141283e-01 3.613353e-01 3.096184e-01 2.012689e-01 1.856905e-01 3.212397e-01 3.667432e-01 6.746711e-01 3.194119e-01 1.788014e-01 5.000000e-02
<GCONST> 7.937242e+01
<STATE> 5
<MEAN> 39
 5.246307e+00 -5.700567e+00 -1.984131e+01 -5.975907e+00 -9.531050e+00 -1.322208e+01 -1.046327e+01 -1.068980e+01 1.053787e+01 -2.345559e+00 1.800436e+00 -7.077545e+00 7.521715e-01 -1.013846e+00 -3.363357e-01 -1.257351e+00 -2.898670e-01 -1.075038e+00 1.122260e+00 -1.042908e+00 7.120919e-01 1.580459e+00 2.599139e+00 -3.269496e-01 1.846155e+00 7.455108e-02 -5.136852e-01 -5.268133e-01 3.840811e-01 -7.393255e-01 5.709602e-01 2.692864e-01 4.397003e-01 7.018638e-01 -4.361242e-01 1.004701e+00 -4.567353e-01 4.776849e-01 -1.401591e-02
<VARIANCE> 39
 1.033654e+01 3.761249e+00 1.105366e+01 2.724585e+01 8.487574e+00 1.296876e+01 2.960809e+01 5.976046e+01 3.337275e+01 3.374089e+01 4.860522e+01 1.024396e+01 5.000000e-02 1.169664e+00 6.299203e-01 1.863599e+00 1.174564e+00 1.734080e+00 1.778792e+00 1.644011e+00 3.031833e+00 3.932204e+00 2.993984e+00 2.812538e+00 1.901731e+00 5.000000e-02 2.535208e-01 1.353309e-01 3.984409e-01 6.877722e-01 3.138189e-01 3.069463e-01 6.133472e-01 1.223562e+00 5.998235e-01 6.523806e-01 7.571369e-01 4.865729e-01 5.000000e-02
<GCONST> 9.559712e+01
<STATE> 6
<MEAN> 39
 4.151762e-01 -8.703279e+00 -2.158542e+01 -9.058900e+00 -9.828838e+00 -1.403889e+01 -9.569204e+00 -6.480550e+00 1.408234e+01 6.486941e+00 -2.655753e+00 -2.896633e+00 9.100375e-01 -9.061607e-01 -1.611197e+00 -3.181500e-01 -2.665209e+00 1.295794e+00 2.963924e-01 2.048578e-01 2.202684e-01 -3.179017e-01 2.893606e+00 -2.557405e-01 1.554399e+00 5.347613e-02 5.196259e-01 -2.221575e-01 6.906208e-01 -6.341830e-01 7.204592e-01 3.905829e-01 -2.229732e-01 -2.091973e-01 -1.272587e+00 -3.061297e-01 5.118009e-01 -2.824538e-01 -1.633667e-02
<VARIANCE> 39
 2.350834e+01 5.290148e+00 4.087632e+01 1.294423e+01 1.557982e+01 1.615557e+01 2.065632e+01 2.602469e+01 2.771312e+01 1.438935e+01 1.948459e+01 1.149212e+01 5.000000e-02 1.132259e+00 8.493393e-01 1.907687e+00 5.367836e+00 1.624451e+00 2.665228e+00 3.389918e+00 2.435971e+00 2.552608e+00 2.337831e+00 1.527203e+00 1.934348e+00 5.000000e-02 1.091867e-01 7.582709e-02 2.770387e-01 3.077200e-01 4.175499e-01 3.393932e-01 2.567607e-01 1.596308e-01 3.500982e-01 7.927436e-02 5.077183e-01 6.012451e-01 5.000000e-02
<GCONST> 8.855720e+01
<STATE> 7
<MEAN> 39
 2.296204e-01 -1.278526e+01 -1.945629e+01 -1.625409e+01 -7.118064e+00 -7.312307e+00 -1.581927e+01 -4.942577e+00 1.101427e+01 9.539017e+00 -2.107368e+00 -1.347516e+00 9.645462e-01 2.709195e-01 -5.912138e-01 7.916910e-01 -2.480316e+00 1.421665e+00 2.212343e+00 -8.469479e-01 1.902763e-01 -2.619002e+00 1.529553e+00 8.352904e-01 6.187708e-01 1.633343e-02 2.357020e-01 4.932117e-01 4.730228e-01 5.475518e-03 1.182402e-02 4.115677e-02 3.324000e-01 2.248766e-01 -3.380526e-01 -2.892886e-01 5.233654e-01 3.579792e-02 -9.950923e-03
<VARIANCE> 39
 2.134949e+01 8.959950e+00 3.792991e+01 1.647805e+01 5.748391e+00 4.507518e+01 2.984278e+01 2.024905e+01 1.043271e+01 5.434097e+01 2.059436e+01 1.374106e+01 5.000000e-02 2.719630e-01 1.385792e+00 8.698655e-01 1.641571e+00 7.494923e-01 4.333595e-01 7.215051e-01 1.591857e+00 5.014349e-01 1.368256e+00 1.871648e+00 2.410768e+00 5.000000e-02 8.121107e-02 1.931588e-01 2.617293e-01 2.147328e-01 1.894220e-01 3.821003e-01 3.317049e-01 3.741018e-01 2.183830e-01 8.588750e-01 4.457413e-01 6.256811e-01 5.000000e-02
<GCONST> 8.315596e+01
<STATE> 8
<MEAN> 39
 4.474393e+00 -1.196833e+01 -1.993393e+01 -1.933103e+01 -3.838227e+00 -7.760814e+00 -1.205685e+01 -4.070335e+00 2.387159e+00 1.552395e+01 6.664705e+00 1.631340e+00 9.879467e-01 7.228974e-02 -8.563247e-02 1.945682e+00 -2.073335e+00 3.216449e-01 9.884927e-01 -1.202303e-01 2.903487e+00 -1.190080e+00 8.326970e-01 1.016682e+00 5.656427e-01 6.313696e-03 -1.435757e-01 2.112650e-01 1.457628e-01 2.264981e-01 -5.240999e-01 -3.031050e-01 2.271952e-01 7.031922e-01 6.514735e-01 -4.437942e-01 -9.317030e-01 -3.810396e-01 -4.692032e-03
<VARIANCE> 39
 1.458681e+01 4.646307e+00 3.131700e+01 2.973206e+01 1.194090e+01 3.114990e+01 2.278294e+01 2.306103e+01 9.508019e+00 1.883389e+01 4.498617e+01 1.038381e+00 5.000000e-02 2.381516e-01 3.562547e-01 9.878808e-01 1.609746e+00 2.207797e+00 1.496841e+00 1.468749e+00 3.835026e+00 2.580657e+00 3.745067e+00 5.603726e+00 2.243745e+00 5.000000e-02 5.000000e-02 7.620136e-02 1.250533e-01 7.761008e-02 7.490521e-02 2.316951e-01 2.215299e-01 2.953905e-01 2.391725e-01 2.867878e-01 7.439179e-01 3.597973e-01 5.000000e-02
<GCONST> 7.969493e+01
<STATE> 9
<MEAN> 39
 1.949631e+00 -1.260622e+01 -1.171614e+01 -2.641906e+01 -2.203932e+00 -3.776597e+00 -1.249950e+01 2.888794e+00 2.365357e+00 1.665609e+01 1.475489e+00 1.561180e+00 9.884263e-01 -1.761213e-01 5.272162e-01 1.433804e+00 -1.666476e+00 1.800472e-01 2.766473e-01 7.894309e-01 1.848647e+00 1.190595e-03 5.690003e-01 -5.116617e-01 -8.828516e-02 7.873298e-04 -1.370104e-01 1.561997e-01 -5.106213e-01 5.957029e-01 -1.708660e-01 -7.160924e-01 1.837094e-01 -4.636230e-01 7.191595e-01 -5.488408e-01 -2.416269e-01 -4.611120e-01 -2.376856e-03
<VARIANCE> 39
 1.073545e+01 5.084228e+00 1.964036e+01 3.312758e+01 4.095682e+01 2.733418e+01 1.994551e+01 6.229664e+01 2.002911e+00 7.680459e+00 1.072274e+01 2.513483e+01 5.000000e-02 1.508498e-01 6.777400e-01 1.061843e+00 1.313696e+00 2.387873e+00 8.374451e-01 1.773423e+00 3.027823e+00 7.638369e-01 2.174914e+00 4.180013e+00 2.552689e+00 5.000000e-02 6.357432e-02 6.561700e-02 1.952956e-01 1.465358e-01 2.776784e-01 1.842430e-01 2.432507e-01 7.002490e-01 3.262250e-01 1.981910e-01 5.690933e-01 2.274854e-01 5.000000e-02
<GCONST> 8.038528e+01
<STATE> 10
<MEAN> 39
 2.479436e-02 -9.760518e+00 -1.032863e+01 -2.923580e+01 -3.489569e+00 -3.903873e+00 -1.230075e+01 6.670165e+00 4.544101e+00 1.337780e+01 -9.029621e-01 1.160195e+00 9.800589e-01 -2.128735e-01 2.052400e-01 3.859231e-01 6.342029e-02 6.364919e-02 -1.106443e+00 4.137898e-01 8.555453e-01 5.035168e-01 4.546193e-02 -1.447522e+00 -1.068475e+00 -7.722627e-03 1.018177e-01 -3.733135e-01 -1.772541e-01 6.317921e-01 1.355547e-01 -1.846661e-01 -4.221916e-01 -6.726558e-01 1.413303e-02 2.989836e-01 -1.800205e-01 -4.739258e-01 -2.116185e-03
<VARIANCE> 39
 1.467347e+01 3.278982e+00 2.351389e+01 5.730535e+01 4.331652e+01 1.708690e+01 3.610804e+01 5.000583e+01 7.075360e+00 7.981579e+00 1.190750e+01 1.520251e+01 5.000000e-02 1.648891e-01 3.498203e-01 5.468926e-01 1.319437e+00 4.725240e-01 9.812956e-01 1.743605e+00 2.240680e+00 1.523298e+00 1.461067e+00 3.907508e-01 1.005631e+00 5.000000e-02 5.000000e-02 8.686054e-02 1.527282e-01 4.492990e-01 2.893108e-01 1.985595e-01 1.631706e-01 2.262790e-01 2.331143e-01 2.879281e-01 1.672411e-01 1.621762e-01 5.000000e-02
<GCONST> 7.380560e+01
<STATE> 11
<MEAN> 39
 3.050800e+00 -1.109893e+01 -1.224536e+01 -2.430856e+01 -4.306796e+00 -9.811635e+00 -9.811077e+00 8.423661e+00 3.029236e+00 1.535506e+01 -1.939956e+00 -3.131766e+00 9.652765e-01 -1.582182e-01 -7.140884e-01 8.408429e-01 -2.022865e-02 1.228838e+00 -1.786541e+00 -5.373030e-01 -9.611052e-01 6.412814e-01 1.440723e+00 -1.837222e+00 -2.566545e+00 -9.637048e-03 -1.105147e-01 -2.717166e-01 1.355396e-01 4.857788e-01 -2.795800e-01 -4.108315e-01 2.188420e-01 -1.066145e-01 2.876872e-01 -2.754325e-01 -7.788142e-02 4.783107e-01 -2.502019e-03
<VARIANCE> 39
 2.102328e+01 8.724508e-01 2.822090e+01 4.699118e+01 3.166549e+01 3.661665e+01 4.612872e+01 2.390259e+01 9.888542e+00 1.139464e+01 1.960967e+01 2.571150e+01 5.000000e-02 4.158033e-01 4.803206e-01 1.406014e+00 5.785291e+00 3.068152e+00 1.284905e+00 1.313962e+00 1.545955e+00 1.185880e+00 3.205628e+00 9.591030e-01 1.203773e+00 5.000000e-02 5.000000e-02 7.936648e-02 6.536821e-02 5.400810e-01 8.389846e-01 4.036539e-01 3.393029e-01 2.289947e-01 1.716253e-01 1.387848e+00 1.487845e-01 8.813607e-01 5.000000e-02
<GCONST> 8.586555e+01
<STATE> 12
<MEAN> 39
 5.757282e-01 -1.344403e+01 -9.660927e+00 -2.382526e+01 -1.286129e+00 -1.153392e+01 -1.384223e+01 3.477196e+00 8.189943e+00 1.937241e+01 -8.725822e+00 -7.928169e+00 9.326769e-01 -2.008907e-01 -1.489019e+00 1.002455e+00 2.570916e+00 -1.631724e+00 -2.635102e+00 1.521600e+00 5.076898e-01 7.179523e-01 -1.988031e+00 -1.037751e+00 1.172735e+00 -1.779125e-02 -8.386380e-02 -2.850132e-01 5.951536e-01 7.295767e-02 -9.679945e-01 -3.685201e-01 1.407210e+00 4.213903e-01 -8.862728e-01 -1.200353e+00 9.959109e-01 1.004979e+00 -2.709131e-03
<VARIANCE> 39
 1.047467e+01 4.325350e+00 1.533688e+01 1.522116e+01 2.339981e+01 3.088966e+01 3.416252e+01 2.013387e+01 3.151901e+00 1.999063e+01 1.832430e+01 1.335241e+01 5.000000e-02 2.605161e-01 3.041131e-01 1.123096e+00 1.081778e+00 1.119050e+00 1.332218e+00 4.383774e+00 1.032843e+00 1.180552e+00 6.034750e+00 2.061094e+00 3.407943e+00 5.000000e-02 5.000000e-02 1.416724e-01 1.165133e-01 5.170235e-01 3.770611e-01 2.184817e-01 2.116872e-01 1.352496e-01 1.860193e-01 5.208385e-01 2.739298e-01 3.514613e-01 5.000000e-02
<GCONST> 7.971411e+01
<STATE> 13
<MEAN> 39
 1.147693e-01 -1.656203e+01 -5.318589e+00 -1.633086e+01 -8.543608e+00 -1.865191e+01 -4.986539e+00 7.607957e+00 8.092634e+00 7.734296e+00 -6.075954e+00 1.034473e-01 8.923181e-01 -4.558341e-01 -1.999972e+00 2.439801e+00 1.333156e+00 -3.340467e+00 -2.479723e+00 4.709239e+00 7.178731e-01 -2.364209e+00 -2.728592e+00 2.209001e+00 1.261523e+00 -1.928871e-02 4.050883e-02 3.283605e-02 1.469254e-01 -7.619601e-01 -2.024485e-01 1.160499e+00 2.049023e-02 -6.547545e-01 -9.825451e-01 1.090741e+00 4.047349e-01 -1.050581e+00 -3.336753e-03
<VARIANCE> 39
 7.714978e+00 4.121256e+00 3.119080e+01 3.297035e+01 3.473701e+01 8.247074e+00 2.628015e+01 2.157330e+01 1.912032e+01 5.062676e+01 7.094073e+01 6.165674e+00 5.000000e-02 8.826480e-02 4.495791e-01 2.135077e-01 1.197894e+00 1.223440e+00 1.113030e+00 6.540249e-01 1.787461e+00 2.553030e+00 3.161152e+00 1.554854e+00 1.913930e+00 5.000000e-02 7.156052e-02 7.318196e-02 1.434517e-01 2.958758e-01 2.686279e-01 1.599911e-01 4.032693e-01 4.130508e-01 1.587886e-01 9.389248e-01 5.937402e-01 4.194343e-01 5.000000e-02
<GCONST> 8.044804e+01
<STATE> 14
<MEAN> 39
 4.057789e-01 -2.113184e+01 -1.758366e+00 -1.676702e+01 -1.613364e+01 -2.099176e+01 2.925764e+00 6.938518e+00 -1.159046e-01 8.505061e+00 -8.650780e-01 -2.589546e+00 8.557339e-01 -4.677229e-02 -6.780682e-01 1.645564e+00 2.533508e-02 -2.095828e+00 7.188246e-01 1.856399e+00 -1.766104e+00 -2.516446e+00 5.637546e-01 7.257299e-01 -1.450650e+00 -2.829745e-02 2.734059e-01 7.335563e-01 -3.644634e-01 -2.433901e-01 8.451782e-01 9.248128e-01 -1.143398e+00 -9.545222e-01 5.556771e-01 6.550736e-01 -6.760877e-01 -4.433435e-01 -3.484055e-03
<VARIANCE> 39
 1.577496e+01 3.123384e+00 2.031175e+01 2.928156e+01 4.645672e+01 2.190784e+01 8.141991e+00 2.226462e+01 3.169847e+01 1.614119e+01 3.773071e+01 5.721951e+00 5.000000e-02 3.105322e-01 1.467965e+00 6.351331e-01 2.308824e+00 3.890024e+00 1.426914e+00 2.207540e+00 2.021662e+00 1.162473e+00 3.164752e+00 1.830608e+00 2.692433e+00 5.000000e-02 5.611616e-02 9.398741e-02 1.005031e-01 2.484942e-01 5.386031e-01 6.141434e-01 1.826071e-01 6.148845e-01 4.030522e-01 7.986034e-01 2.883388e-01 4.174361e-01 5.000000e-02
<GCONST> 8.693932e+01
<STATE> 15
<MEAN> 39
 -7.001373e-01 -1.990228e+01 2.692488e+00 -1.745842e+01 -1.449822e+01 -1.403517e+01 3.573512e+00 -2.663155e+00 -3.468985e+00 1.223917e+01 -4.273270e+00 -7.903384e+00 7.463284e-01 9.002568e-01 6.188736e-01 1.007766e+00 3.523245e-01 1.355300e-01 1.938047e+00 -7.153787e-01 -2.807060e+00 2.552478e-01 7.806900e-01 -1.052295e+00 -1.116012e-01 -3.555599e-02 2.135635e-01 4.125559e-01 -3.582911e-01 -1.830528e-01 7.314108e-01 -1.400012e-01 -9.418749e-01 5.877382e-01 8.982300e-01 -2.541564e-01 -2.443962e-01 8.697495e-01 -4.343888e-05
<VARIANCE> 39
 1.573908e+01 2.313921e+00 1.703600e+01 1.832576e+01 1.933015e+01 1.366935e+01 4.938200e+00 4.962689e+01 8.995555e+00 4.537008e+00 2.185033e+01 1.400693e+01 5.000000e-02 4.056617e-01 3.965680e-01 1.528137e+00 1.115951e+00 4.554424e+00 1.450868e+00 1.551592e+00 3.549172e+00 1.368309e+00 1.094756e+00 8.108367e-01 1.765356e+00 5.000000e-02 7.004531e-02 1.009878e-01 1.645905e-01 2.789237e-01 4.428661e-01 1.297502e-01 3.138257e-01 8.686728e-01 1.489802e-01 4.004005e-01 3.535504e-01 2.656870e-01 5.000000e-02
<GCONST> 7.823028e+01
<STATE> 16
<MEAN> 39
 3.854441e+00 -1.626039e+01 1.014856e+00 -1.619453e+01 -1.530572e+01 -1.480388e+01 -7.971638e-01 -4.895478e+00 -5.114344e-01 1.000393e+01 -5.406672e+00 -4.043621e+00 6.699855e-01 5.017208e-01 1.245205e+00 -4.298759e-01 5.667137e-01 1.661741e+00 1.222787e+00 -1.355902e+00 -5.546046e-01 6.003961e-01 -1.075460e+00 4.065605e-02 1.077543e-01 -4.354503e-02 -1.566151e-01 2.794074e-02 -3.250687e-01 4.575117e-01 3.390833e-01 1.163735e-01 1.558780e-01 4.699795e-01 8.072527e-02 -4.946805e-01 5.218711e-01 -1.502175e-01 -3.252353e-03
<VARIANCE> 39
 1.263273e+01 8.403133e+00 3.693688e+01 1.307791e+01 3.519354e+01 1.658731e+01 1.474269e+01 7.614530e+00 7.731776e+00 2.243007e+01 1.725244e+01 1.411225e+01 5.000000e-02 2.256123e-01 3.492810e-01 8.505943e-01 1.884352e+00 2.742730e+00 1.518983e+00 2.087066e+00 3.359839e+00 1.728159e+00 1.071431e+00 2.654599e+00 2.777275e+00 5.000000e-02 5.000000e-02 8.221573e-02 5.794142e-01 1.497826e-01 6.415127e-01 2.963497e-01 3.053902e-01 2.505546e-01 1.469057e-01 3.497539e-01 2.581463e-01 4.457332e-01 5.000000e-02
<GCONST> 8.189590e+01
<STATE> 17
<MEAN> 39
 3.901125e+00 -1.359116e+01 -1.412215e-01 -1.124355e+01 -7.187501e+00 -6.941327e+00 -3.837181e+00 -4.983881e+00 2.967549e+00 5.819750e+00 -3.901837e+00 -5.726948e+00 5.086963e-01 2.568926e-01 9.515795e-01 -9.487992e-01 1.766087e+00 8.137209e-01 6.023559e-01 -8.592017e-01 -4.274103e-01 7.478393e-01 -1.337306e+00 1.339666e+00 1.924076e-01 -3.801331e-02 -8.767414e-02 -7.277506e-02 -2.730466e-01 -1.228503e-01 -5.787531e-01 -7.002156e-01 2.816890e-01 -2.044108e-01 -3.702397e-01 2.763672e-02 1.206778e-01 2.904026e-02 4.245456e-03
<VARIANCE> 39
 8.283635e+00 1.190771e+01 1.862186e+01 5.472878e+01 1.724732e+01 1.680348e+01 1.724726e+01 4.135107e+00 2.621427e+01 2.794294e+01 6.395676e+00 3.364887e+00 5.000000e-02 2.887876e-01 3.923520e-01 2.984997e+00 1.926029e+00 6.259922e-01 1.797979e+00 3.652003e-01 5.050915e-01 8.518909e-01 2.740670e+00 1.671396e+00 1.299528e+00 5.000000e-02 5.000000e-02 5.768697e-02 1.754977e-01 7.710756e-01 1.227169e-01 3.213090e-01 2.965358e-01 1.025513e-01 5.092088e-01 3.128085e-01 4.970659e-01 4.602050e-01 5.000000e-02
<GCONST> 7.554604e+01
<STATE> 18
<MEAN> 39
 3.811398e+00 -1.086603e+01 -2.439663e+00 -9.676847e+00 -6.407235e+00 -9.146186e+00 -4.811021e+00 -6.657632e+00 2.001111e+00 4.731627e+00 9.147734e-01 -4.333601e+00 4.692977e-01 3.038401e-03 6.673088e-01 -1.361953e+00 6.371644e-01 3.283196e-01 -5.382891e-01 4.331051e-01 -3.451397e-02 -2.489359e-01 -1.683142e+00 8.669243e-01 3.343121e-01 -3.063715e-02 -2.177808e-01 -3.892819e-01 2.565295e-01 -9.409634e-02 -9.649038e-02 -1.300429e-01 4.133606e-01 2.911043e-01 -2.526309e-01 1.887600e-01 -5.247698e-01 -3.565678e-01 -1.204774e-04
<VARIANCE> 39
 6.903636e+00 4.248678e+00 2.086819e+01 1.693749e+01 1.933320e+01 1.356684e+01 1.515140e+01 7.170154e+00 2.166910e+01 1.110847e+01 2.073157e+01 1.128242e+01 5.000000e-02 9.433550e-02 4.872136e-01 1.268762e+00 2.219089e+00 2.993311e-01 1.451737e+00 8.162253e-01 6.799824e-01 3.647271e+00 1.866448e+00 1.809487e+00 1.570081e+00 5.000000e-02 5.000000e-02 5.000000e-02 2.647032e-01 3.452704e-01 9.397663e-02 2.512047e-01 1.242588e-01 1.220481e-01 1.847836e-01 4.764065e-01 1.721986e-01 3.078356e-01 5.000000e-02
<GCONST> 7.094122e+01
<STATE> 19
<MEAN> 39
 3.360476e+00 -1.206703e+01 -3.854742e+00 -9.255850e+00 -8.963136e+00 -1.183658e+01 -2.216478e+00 -4.825637e+00 9.728969e-01 1.464135e+00 1.480857e-01 -3.492454e+00 4.168721e-01 -4.625498e-01 -1.069336e-01 2.504213e-01 1.090116e+00 2.489129e-01 3.497091e-01 4.734663e-01 -4.677864e-03 -1.294013e-01 -3.316035e-01 -2.548351e-01 -5.370113e-01 -3.691673e-02 -1.837624e-01 8.892947e-02 2.535445e-01 8.757393e-02 2.857073e-01 4.093864e-01 3.828427e-02 -3.667765e-03 1.037643e-01 6.883554e-01 1.687592e-01 -2.091672e-01 -3.211897e-03
<VARIANCE> 39
 6.936497e+00 1.280141e+01 2.716467e+01 2.186691e+01 1.792857e+01 1.302298e+01 3.037859e+00 6.408176e+00 1.633266e+01 6.604903e+00 2.894055e+01 5.099787e+00 5.000000e-02 3.763942e-01 1.310170e+00 1.142775e+00 1.569797e+00 1.023145e+00 2.778891e+00 5.067114e-01 1.173766e+00 1.300125e+00 1.513174e+00 9.459045e-01 1.159370e+00 5.000000e-02 1.357972e-01 2.001166e-01 3.085159e-01 2.981567e-01 1.016345e-01 3.798382e-01 1.266843e-01 4.272217e-01 4.144467e-01 1.849875e-01 3.210103e-01 1.267538e-01 5.000000e-02
<GCONST> 7.489970e+01
<STATE> 20
<MEAN> 39
 2.236398e+00 -1.143000e+01 -2.476160e+00 -7.096596e+00 -4.496899e+00 -7.515055e+00 -3.152246e+00 -7.107909e+00 1.571930e+00 4.380901e+00 -1.228247e+00 -8.328531e+00 3.457625e-01 -6.872519e-01 1.155070e+00 -5.720685e-01 1.027088e+00 1.328650e+00 5.062876e-01 2.530152e-01 6.402183e-02 2.405625e-01 1.966771e-01 1.584322e+00 3.258452e-01 -4.570239e-02 -9.524563e-02 -4.289408e-02 -1.552177e-02 -2.387494e-01 -2.001609e-01 -3.274329e-01 -3.814969e-02 4.106695e-01 2.479483e-01 -6.279998e-02 2.429113e-01 6.689601e-01 5.937341e-04
<VARIANCE> 39
 3.068703e+00 1.798038e+01 2.475056e+01 6.019759e+00 1.597459e+01 7.702045e+00 1.242428e+01 2.049848e+01 1.533737e+01 1.373684e+01 1.968633e+01 1.586762e+01 5.000000e-02 1.524974e+00 5.072724e-01 2.246013e+00 1.684329e+00 1.788331e+00 2.625332e+00 8.768452e-01 2.728070e+00 8.632478e-01 1.921606e+00 9.968908e-01 3.378437e+00 5.000000e-02 7.531297e-02 2.810386e-01 2.869723e-01 1.811778e-01 1.750929e-01 4.262516e-01 1.261369e-01 6.807920e-01 3.763094e-01 3.383698e-01 3.879487e-01 3.569871e-01 5.000000e-02
<GCONST> 8.246440e+01
<STATE> 21
<MEAN> 39
 -8.693531e-01 -9.206785e+00 -3.592792e+00 -5.471094e+00 -5.092080e+00 -8.749186e+00 3.726351e-01 -2.459746e+00 1.926706e+00 4.617326e+00 6.155335e+00 -2.404504e+00 2.136451e-01 -5.687046e-01 -5.724432e-02 -2.155082e-01 -3.013479e-01 -3.097124e-01 -1.229681e+00 -4.974952e-01 1.065512e+00 8.224821e-01 4.872559e-01 1.172554e+00 1.127276e+00 -2.575507e-02 1.961543e-01 -1.763715e-01 1.396692e-01 1.458625e-02 -9.925901e-02 -1.821022e-01 -2.640845e-01 -2.338506e-01 1.217789e-01 -2.122047e-01 -6.020717e-01 -1.917323e-01 6.175446e-03
<VARIANCE> 39
 5.894195e+00 3.898642e+00 4.172458e+00 1.181653e+01 8.613037e+00 1.464375e+01 6.542893e+00 2.034347e+01 1.189208e+01 1.995187e+01 2.549100e+01 1.947518e+01 5.000000e-02 5.615427e-01 2.109455e-01 1.428622e-01 1.294033e+00 6.530411e-01 6.901287e-01 1.189492e+00 4.024469e+00 2.992850e+00 2.256944e+00 1.504578e+00 7.244720e-01 5.000000e-02 3.123783e-01 7.441653e-02 1.762033e-01 4.487802e-01 2.444303e-01 3.761946e-01 1.297202e-01 4.586201e-01 1.489373e-01 5.023856e-01 2.953743e-01 5.076521e-01 5.000000e-02
<GCONST> 7.407431e+01
<STATE> 22
<MEAN> 39
 -3.207501e-01 -9.755660e+00 -4.190254e+00 -6.474700e+00 -5.373229e+00 -1.200942e+01 -4.210302e+00 -2.987951e+00 4.994127e+00 4.256417e+00 4.399302e+00 -1.756981e+00 1.937300e-01 -3.942593e-01 3.463909e-01 6.020098e-01 7.120410e-01 7.909812e-01 5.598161e-01 1.159278e-01 4.604124e-01 8.732157e-01 -4.258960e-01 -5.988664e-01 -3.562544e-01 -2.632028e-02 -1.943552e-01 2.214088e-02 2.173585e-01 2.099562e-01 5.088862e-01 7.615596e-01 4.928510e-01 -1.770599e-01 -3.784231e-01 -1.129077e-01 -1.502253e-01 -4.842387e-01 -4.125793e-03
<VARIANCE> 39
 4.194588e+00 6.561592e+00 4.276880e+00 7.686476e+00 8.200981e+00 7.680206e+00 3.971050e+00 1.085530e+01 1.747042e+01 5.275624e+00 4.310668e+00 1.251780e+01 5.000000e-02 4.184448e-01 2.230993e-01 4.275407e-01 9.244630e-01 3.123594e-01 1.423957e+00 8.101379e-01 2.023235e+00 1.202970e+00 2.689364e+00 1.824766e+00 2.067873e+00 5.000000e-02 7.643001e-02 5.000000e-02 6.143653e-02 2.152450e-01 6.244076e-02 1.500660e-01 2.093408e-01 3.010646e-01 5.278836e-01 4.140634e-01 2.028645e-01 4.403729e-01 5.000000e-02
<GCONST> 6.353934e+01
<STATE> 23
<MEAN> 39
 -2.084404e+00 -7.819120e+00 -9.142191e-01 -2.003786e+00 -8.761248e-01 -6.724415e+00 -5.633165e-01 -2.999000e+00 3.790374e+00 1.590186e+00 3.356147e+00 -4.108812e+00 1.223777e-01 -9.216179e-01 -5.340518e-02 3.087431e-01 5.927850e-01 1.233914e+00 1.388610e+00 1.080279e+00 4.080677e-01 6.058464e-02 -1.763597e-01 1.949349e-01 -1.253183e-01 -3.852047e-02 -3.532042e-02 -1.846216e-01 -3.538778e-01 -4.664744e-01 -3.561053e-01 -2.294605e-01 -8.592582e-02 -1.257327e-01 -1.715023e-01 1.707924e-01 1.266634e-01 2.293305e-01 -6.219772e-05
<VARIANCE> 39
 2.113529e+00 9.269767e-01 4.943519e+00 7.088892e+00 2.381442e+00 4.872817e+00 3.638178e+00 2.898744e+00 1.355988e+01 2.335411e+01 8.772112e+00 8.102298e+00 5.000000e-02 5.009262e-01 2.687869e-01 7.563550e-01 1.661859e+00 1.024855e+00 8.835521e-01 1.021607e+00 1.214997e+00 3.496007e+00 1.285010e+00 1.223675e+00 1.734243e+00 5.000000e-02 5.142877e-02 5.000000e-02 9.358232e-02 2.343122e-01 7.748819e-02 2.149221e-01 2.255625e-01 3.615765e-01 7.971877e-01 4.150684e-01 2.172863e-01 2.455580e-01 5.000000e-02
<GCONST> 6.192154e+01
<STATE> 24
<MEAN> 39
 -5.605636e+00 -1.066434e+01 -4.088437e+00 -4.377304e+00 -2.926728e-01 -5.780316e+00 1.568127e+00 -1.311148e+00 5.548872e+00 4.116139e+00 5.146019e+00 -3.633284e+00 -3.583406e-02 -4.520994e-01 -1.433051e-01 -2.435748e-01 -2.719276e-01 -5.362428e-01 -2.074579e-01 3.773237e-01 -2.287743e-01 -1.150653e-01 -6.573154e-02 1.064627e-01 6.579816e-01 -2.081835e-02 2.109247e-01 9.328929e-02 7.923684e-02 -5.424207e-02 -2.566372e-01 -1.883169e-01 -2.356393e-01 -1.189226e-01 -7.174307e-02 -1.034031e-02 -1.694706e-01 4.429447e-02 8.119217e-03
<VARIANCE> 39
 2.298478e+00 1.761250e+00 4.030711e+00 5.676385e+00 7.195758e+00 9.018408e+00 1.451882e+01 2.190549e+01 2.167997e+01 4.842711e+00 5.653480e+00 9.389618e+00 5.000000e-02 5.034438e-01 2.506696e-01 3.270985e-01 4.884397e-01 6.149651e-01 7.638806e-01 1.700436e+00 1.900406e+00 2.497992e+00 6.946581e-01 7.001128e-01 4.153912e-01 5.000000e-02 7.474083e-02 5.000000e-02 6.957825e-02 5.936701e-02 2.601581e-01 2.791605e-01 3.401907e-01 5.321531e-01 7.693704e-01 1.848642e-01 1.425913e-01 1.886275e-01 5.000000e-02
<GCONST> 6.063244e+01
<TRANSP> 25
 0.000000e+00 1.000000e+00 0.000000e+00 0.000000e+00 0.000000e+00 0.000000e+00 0.000000e+00 0.000000e+00 0.000000e+00 0.000000e+00 0.000000e+00 0.000000e+00 0.000000e+00 0.000000e+00 0.000000e+00 0.000000e+00 0.000000e+00 0.000000e+00 0.000000e+00 0.000000e+00 0.000000e+00 0.000000e+00 0.000000e+00 0.000000e+00 0.000000e+00
 0.000000e+00 6.152318e-01 3.847682e-01 0.000000e+00 0.000000e+00 0.000000e+00 0.000000e+00 0.000000e+00 0.000000e+00 0.000000e+00 0.000000e+00 0.000000e+00 0.000000e+00 0.000000e+00 0.000000e+00 0.000000e+00 0.000000e+00 0.000000e+00 0.000000e+00 0.000000e+00 0.000000e+00 0.000000e+00 0.000000e+00 0.000000e+00 0.000000e+00
 0.000000e+00 0.000000e+00 4.444439e-01 5.555562e-01 0.000000e+00 0.000000e+00 0.000000e+00 0.000000e+00 0.000000e+00 0.000000e+00 0.000000e+00 0.000000e+00 0.000000e+00 0.000000e+00 0.000000e+00 0.000000e+00 0.000000e+00 0.000000e+00 0.000000e+00 0.000000e+00 0.000000e+00 0.000000e+00 0.000000e+00 0.000000e+00 0.000000e+00
 0.000000e+00 0.000000e+00 0.000000e+00 5.833312e-01 4.166689e-01 0.000000e+00 0.000000e+00 0.000000e+00 0.000000e+00 0.000000e+00 0.000000e+00 0.000000e+00 0.000000e+00 0.000000e+00 0.000000e+00 0.000000e+00 0.000000e+00 0.000000e+00 0.000000e+00 0.000000e+00 0.000000e+00 0.000000e+00 0.000000e+00 0.000000e+00 0.000000e+00
 0.000000e+00 0.000000e+00 0.000000e+00 0.000000e+00 5.810297e-01 4.189703e-01 0.000000e+00 0.000000e+00 0.000000e+00 0.000000e+00 0.000000e+00 0.000000e+00 0.000000e+00 0.000000e+00 0.000000e+00 0.000000e+00 0.000000e+00 0.000000e+00 0.000000e+00 0.000000e+00 0.000000e+00 0.000000e+00 0.000000e+00 0.000000e+00 0.000000e+00
 0.000000e+00 0.000000e+00 0.000000e+00 0.000000e+00 0.000000e+00 4.485029e-01 5.514971e-01 0.000000e+00 0.000000e+00 0.000000e+00 0.000000e+00 0.000000e+00 0.000000e+00 0.000000e+00 0.000000e+00 0.000000e+00 0.000000e+00 0.000000e+00 0.000000e+00 0.000000e+00 0.000000e+00 0.000000e+00 0.000000e+00 0.000000e+00 0.000000e+00
 0.000000e+00 0.000000e+00 0.000000e+00 0.000000e+00 0.000000e+00 0.000000e+00 5.833363e-01 4.166637e-01 0.000000e+00 0.000000e+00 0.000000e+00 0.000000e+00 0.000000e+00 0.000000e+00 0.000000e+00 0.000000e+00 0.000000e+00 0.000000e+00 0.000000e+00 0.000000e+00 0.000000e+00 0.000000e+00 0.000000e+00 0.000000e+00 0.000000e+00
 0.000000e+00 0.000000e+00 0.000000e+00 0.000000e+00 0.000000e+00 0.000000e+00 0.000000e+00 5.453838e-01 4.546162e-01 0.000000e+00 0.000000e+00 0.000000e+00 0.000000e+00 0.000000e+00 0.000000e+00 0.000000e+00 0.000000e+00 0.000000e+00 0.000000e+00 0.000000e+00 0.000000e+00 0.000000e+00 0.000000e+00 0.000000e+00 0.000000e+00
 0.000000e+00 0.000000e+00 0.000000e+00 0.000000e+00 0.000000e+00 0.000000e+00 0.000000e+00 0.000000e+00 5.007607e-01 4.992393e-01 0.000000e+00 0.000000e+00 0.000000e+00 0.000000e+00 0.000000e+00 0.000000e+00 0.000000e+00 0.000000e+00 0.000000e+00 0.000000e+00 0.000000e+00 0.000000e+00 0.000000e+00 0.000000e+00 0.000000e+00
 0.000000e+00 0.000000e+00 0.000000e+00 0.000000e+00 0.000000e+00 0.000000e+00 0.000000e+00 0.000000e+00 0.000000e+00 6.422886e-01 3.577113e-01 0.000000e+00 0.000000e+00 0.000000e+00 0.000000e+00 0.000000e+00 0.000000e+00 0.000000e+00 0.000000e+00 0.000000e+00 0.000000e+00 0.000000e+00 0.000000e+00 0.000000e+00 0.000000e+00
 0.000000e+00 0.000000e+00 0.000000e+00 0.000000e+00 0.000000e+00 0.000000e+00 0.000000e+00 0.000000e+00 0.000000e+00 0.000000e+00 4.449632e-01 5.550368e-01 0.000000e+00 0.000000e+00 0.000000e+00 0.000000e+00 0.000000e+00 0.000000e+00 0.000000e+00 0.000000e+00 0.000000e+00 0.000000e+00 0.000000e+00 0.000000e+00 0.000000e+00
 0.000000e+00 0.000000e+00 0.000000e+00 0.000000e+00 0.000000e+00 0.000000e+00 0.000000e+00 0.000000e+00 0.000000e+00 0.000000e+00 0.000000e+00 5.833347e-01 4.166653e-01 0.000000e+00 0.000000e+00 0.000000e+00 0.000000e+00 0.000000e+00 0.000000e+00 0.000000e+00 0.000000e+00 0.000000e+00 0.000000e+00 0.000000e+00 0.000000e+00
 0.000000e+00 0.000000e+00 0.000000e+00 0.000000e+00 0.000000e+00 0.000000e+00 0.000000e+00 0.000000e+00 0.000000e+00 0.000000e+00 0.000000e+00 0.000000e+00 3.750929e-01 6.249071e-01 0.000000e+00 0.000000e+00 0.000000e+00 0.000000e+00 0.000000e+00 0.000000e+00 0.000000e+00 0.000000e+00 0.000000e+00 0.000000e+00 0.000000e+00
 0.000000e+00 0.000000e+00 0.000000e+00 0.000000e+00 0.000000e+00 0.000000e+00 0.000000e+00 0.000000e+00 0.000000e+00 0.000000e+00 0.000000e+00 0.000000e+00 0.000000e+00 5.833753e-01 4.166247e-01 0.000000e+00 0.000000e+00 0.000000e+00 0.000000e+00 0.000000e+00 0.000000e+00 0.000000e+00 0.000000e+00 0.000000e+00 0.000000e+00
 0.000000e+00 0.000000e+00 0.000000e+00 0.000000e+00 0.000000e+00 0.000000e+00 0.000000e+00 0.000000e+00 0.000000e+00 0.000000e+00 0.000000e+00 0.000000e+00 0.000000e+00 0.000000e+00 5.458784e-01 4.541216e-01 0.000000e+00 0.000000e+00 0.000000e+00 0.000000e+00 0.000000e+00 0.000000e+00 0.000000e+00 0.000000e+00 0.000000e+00
 0.000000e+00 0.000000e+00 0.000000e+00 0.000000e+00 0.000000e+00 0.000000e+00 0.000000e+00 0.000000e+00 0.000000e+00 0.000000e+00 0.000000e+00 0.000000e+00 0.000000e+00 0.000000e+00 0.000000e+00 6.663355e-01 3.336645e-01 0.000000e+00 0.000000e+00 0.000000e+00 0.000000e+00 0.000000e+00 0.000000e+00 0.000000e+00 0.000000e+00
 0.000000e+00 0.000000e+00 0.000000e+00 0.000000e+00 0.000000e+00 0.000000e+00 0.000000e+00 0.000000e+00 0.000000e+00 0.000000e+00 0.000000e+00 0.000000e+00 0.000000e+00 0.000000e+00 0.000000e+00 0.000000e+00 4.999279e-01 5.000721e-01 0.000000e+00 0.000000e+00 0.000000e+00 0.000000e+00 0.000000e+00 0.000000e+00 0.000000e+00
 0.000000e+00 0.000000e+00 0.000000e+00 0.000000e+00 0.000000e+00 0.000000e+00 0.000000e+00 0.000000e+00 0.000000e+00 0.000000e+00 0.000000e+00 0.000000e+00 0.000000e+00 0.000000e+00 0.000000e+00 0.000000e+00 0.000000e+00 3.753925e-01 6.246076e-01 0.000000e+00 0.000000e+00 0.000000e+00 0.000000e+00 0.000000e+00 0.000000e+00
 0.000000e+00 0.000000e+00 0.000000e+00 0.000000e+00 0.000000e+00 0.000000e+00 0.000000e+00 0.000000e+00 0.000000e+00 0.000000e+00 0.000000e+00 0.000000e+00 0.000000e+00 0.000000e+00 0.000000e+00 0.000000e+00 0.000000e+00 0.000000e+00 5.838459e-01 4.161541e-01 0.000000e+00 0.000000e+00 0.000000e+00 0.000000e+00 0.000000e+00
 0.000000e+00 0.000000e+00 0.000000e+00 0.000000e+00 0.000000e+00 0.000000e+00 0.000000e+00 0.000000e+00 0.000000e+00 0.000000e+00 0.000000e+00 0.000000e+00 0.000000e+00 0.000000e+00 0.000000e+00 0.000000e+00 0.000000e+00 0.000000e+00 0.000000e+00 6.149063e-01 3.850938e-01 0.000000e+00 0.000000e+00 0.000000e+00 0.000000e+00
 0.000000e+00 0.000000e+00 0.000000e+00 0.000000e+00 0.000000e+00 0.000000e+00 0.000000e+00 0.000000e+00 0.000000e+00 0.000000e+00 0.000000e+00 0.000000e+00 0.000000e+00 0.000000e+00 0.000000e+00 0.000000e+00 0.000000e+00 0.000000e+00 0.000000e+00 0.000000e+00 4.443811e-01 5.556189e-01 0.000000e+00 0.000000e+00 0.000000e+00
 0.000000e+00 0.000000e+00 0.000000e+00 0.000000e+00 0.000000e+00 0.000000e+00 0.000000e+00 0.000000e+00 0.000000e+00 0.000000e+00 0.000000e+00 0.000000e+00 0.000000e+00 0.000000e+00 0.000000e+00 0.000000e+00 0.000000e+00 0.000000e+00 0.000000e+00 0.000000e+00 0.000000e+00 5.000467e-01 4.999533e-01 0.000000e+00 0.000000e+00
 0.000000e+00 0.000000e+00 0.000000e+00 0.000000e+00 0.000000e+00 0.000000e+00 0.000000e+00 0.000000e+00 0.000000e+00 0.000000e+00 0.000000e+00 0.000000e+00 0.000000e+00 0.000000e+00 0.000000e+00 0.000000e+00 0.000000e+00 0.000000e+00 0.000000e+00 0.000000e+00 0.000000e+00 0.000000e+00 6.101977e-01 3.898023e-01 0.000000e+00
 0.000000e+00 0.000000e+00 0.000000e+00 0.000000e+00 0.000000e+00 0.000000e+00 0.000000e+00 0.000000e+00 0.000000e+00 0.000000e+00 0.000000e+00 0.000000e+00 0.000000e+00 0.000000e+00 0.000000e+00 0.000000e+00 0.000000e+00 0.000000e+00 0.000000e+00 0.000000e+00 0.000000e+00 0.000000e+00 0.000000e+00 6.747373e-01 3.252626e-01
 0.000000e+00 0.000000e+00 0.000000e+00 0.000000e+00 0.000000e+00 0.000000e+00 0.000000e+00 0.000000e+00 0.000000e+00 0.000000e+00 0.000000e+00 0.000000e+00 0.000000e+00 0.000000e+00 0.000000e+00 0.000000e+00 0.000000e+00 0.000000e+00 0.000000e+00 0.000000e+00 0.000000e+00 0.000000e+00 0.000000e+00 0.000000e+00 0.000000e+00
<ENDHMM>
