~o
<STREAMINFO> 1 39
<VECSIZE> 39<NULLD><MFCC_E_D_A><DIAGC>
~h "Nawm"
<BEGINHMM>
<NUMSTATES> 37
<STATE> 2
<MEAN> 39
 -6.490119e+00 -1.017440e+01 -1.038839e+00 -1.271384e+00 1.632671e+00 -2.216952e+00 2.464938e+00 -4.442479e+00 -8.868133e-01 -3.964139e+00 1.141387e+00 -2.605335e+00 -2.093086e-02 -6.306995e-01 -4.089104e-01 3.627875e-02 2.501765e-01 -3.230309e-01 -4.453196e-01 3.522271e-01 2.576312e-01 -2.820724e-02 -8.939149e-01 -6.339943e-02 1.177105e-01 -2.626501e-02 1.801129e-01 1.962404e-01 -2.750740e-01 -2.918293e-01 -3.878189e-01 -4.788637e-01 -1.669054e-01 2.800564e-01 2.567173e-01 1.297365e-01 -6.288710e-02 -3.417511e-02 9.817459e-03
<VARIANCE> 39
 1.509002e+00 1.045861e+00 5.826531e+00 5.783452e+00 9.955127e+00 3.692730e+00 7.740696e+00 6.369670e+00 2.057273e+01 1.443509e+01 2.824409e+00 2.003195e+00 5.000000e-02 1.447466e-01 8.718487e-02 2.207408e-01 8.698100e-01 1.059565e+00 1.859672e+00 7.673312e-01 9.676464e-01 1.427639e+00 1.418095e+00 1.582501e+00 1.165289e-01 5.000000e-02 1.470358e-01 6.405579e-02 9.880732e-02 3.324417e-01 3.351147e-01 2.311457e-01 2.923596e-01 1.326239e-01 2.810188e-01 2.776252e-01 1.398362e-01 5.000000e-02 5.000000e-02
<GCONST> 5.356260e+01
<STATE> 3
<MEAN> 39
 -6.829429e+00 -9.184853e+00 -2.145495e+00 -1.404428e+00 7.683051e-01 -5.648809e+00 7.772343e-01 -1.542791e+00 1.275717e+00 -3.862739e+00 3.117747e+00 -1.818110e+00 -6.837711e-02 1.388300e-01 6.426282e-01 -1.344174e+00 -7.425442e-01 -1.131529e+00 -5.137265e-01 -5.593468e-01 5.183360e-01 -6.152143e-01 -2.309003e-01 -9.329546e-01 -4.984368e-02 2.038642e-02 6.724986e-01 1.916231e-01 -2.899005e-01 -6.558321e-01 -2.008615e-01 1.235075e-01 -6.666169e-02 -1.006582e-01 -3.747422e-01 -9.675588e-02 -4.908383e-01 -2.365072e-01 2.870473e-02
<VARIANCE> 39
 2.880755e+00 2.954709e+00 9.518595e+00 6.229116e+00 1.221326e+01 9.750425e+00 2.601156e+00 8.544269e+00 1.523952e+01 1.666147e+01 7.919021e+00 9.485643e+00 5.000000e-02 1.394874e+00 5.177526e-01 5.359102e-01 3.648918e+00 1.855239e+00 2.746576e+00 4.083938e-01 5.044822e-01 1.204753e+00 1.710124e+00 2.143057e+00 3.619498e-01 5.000000e-02 2.234581e-01 7.590095e-02 4.206592e-01 4.306447e-01 4.306683e-01 1.661858e-01 1.128352e-01 1.848879e-01 1.661815e-01 1.538689e-01 1.658575e-01 1.507026e-01 5.000000e-02
<GCONST> 6.786610e+01
<STATE> 4
<MEAN> 39
 -7.401338e+00 -8.975598e+00 -3.308230e+00 -2.979787e+00 -2.658638e+00 -3.763356e+00 1.505023e+00 -1.697545e+00 7.489519e-03 -5.559574e+00 -1.257717e+00 -1.415478e+00 -3.699627e-02 1.570242e+00 3.591504e-01 -3.498568e-01 -1.962335e+00 -7.063009e-01 -9.965099e-02 -3.886772e-01 -2.753706e-01 -4.720286e-01 -8.104287e-01 -8.363555e-01 -3.898104e-01 6.884678e-02 4.857130e-01 -2.114140e-01 1.222124e-01 -3.239644e-01 3.103881e-01 -2.060199e-01 4.420282e-02 -7.497764e-02 7.117585e-02 1.670634e-01 3.168692e-01 -1.682559e-01 2.350022e-02
<VARIANCE> 39
 5.995639e+00 7.783308e+00 1.963195e+01 1.541285e+01 6.596330e+00 9.701344e+00 4.791603e+00 1.421865e+01 1.007802e+01 1.465759e+01 1.849978e+01 5.838155e+00 5.000000e-02 1.750854e+00 5.770694e-01 3.452580e+00 4.276817e+00 3.169735e+00 8.019843e-01 7.197487e-01 1.634430e+00 2.849170e+00 1.515488e+00 1.267155e+00 1.094229e+00 5.000000e-02 2.686271e-01 1.341412e-01 4.349156e-01 3.609342e-01 1.698278e-01 3.940253e-01 1.368751e-01 2.242134e-01 2.851630e-01 2.168073e-01 2.660786e-01 1.785423e-01 5.000000e-02
<GCONST> 7.869727e+01
<STATE> 5
<MEAN> 39
 6.151813e-01 -6.459269e+00 -6.727615e+00 -1.022177e+01 -5.616049e+00 -7.170711e+00 9.862722e-01 -3.677660e+00 -3.869152e+00 -6.418067e+00 -2.148733e+00 -5.820765e+00 2.555045e-01 2.747054e+00 -2.162818e-01 -1.494065e+00 -2.043552e+00 -6.916527e-01 -6.957818e-01 -1.044064e-01 -1.462414e-01 -5.369555e-01 -6.638631e-01 -9.980953e-01 -1.337957e+00 1.179380e-01 -5.628369e-01 -7.427881e-01 -8.767319e-02 1.092823e+00 5.133480e-01 -8.177239e-02 4.102896e-01 1.851360e-01 3.274211e-01 -1.083158e-01 3.357008e-01 2.220858e-01 -3.530062e-03
<VARIANCE> 39
 3.645105e+01 5.994096e+00 1.199723e+01 5.254263e+01 1.784107e+01 6.124963e+00 1.170475e+01 1.560959e+01 4.156787e+01 1.938579e+01 7.131633e+00 2.112779e+00 5.000000e-02 3.418959e+00 4.892214e-01 3.361754e+00 2.038870e+00 3.348141e+00 6.524994e-01 6.054844e-01 1.042035e+00 1.483865e+00 1.270700e+00 1.975753e+00 1.582426e+00 5.000000e-02 4.996710e-01 4.783185e-01 3.717246e-01 1.244521e+00 2.871975e-01 1.354320e-01 2.364053e-01 2.516148e-01 2.132829e-01 2.831782e-01 1.064346e-01 8.284356e-02 5.000000e-02
<GCONST> 8.255458e+01
<STATE> 6
<MEAN> 39
 -2.556511e+00 -9.133633e+00 -4.461512e+00 -7.831969e+00 -1.913315e+00 -4.354334e+00 6.233189e-01 -9.038854e-01 2.036054e+00 -3.159970e+00 5.373098e-01 -3.252541e+00 1.664947e-01 6.586442e-01 -2.634019e-01 -7.164976e-01 -8.846791e-01 1.405925e-01 -4.254712e-01 3.854413e-01 -7.656126e-02 -1.895281e-01 -2.604906e-01 3.522640e-02 -1.765590e-03 6.678337e-02 -5.147308e-01 -1.350349e-01 -4.735839e-01 5.623770e-01 6.170952e-02 -1.071628e-01 4.798315e-01 -2.135244e-01 -7.731848e-02 -7.713166e-01 -1.286473e-01 -8.977236e-03 9.240643e-03
<VARIANCE> 39
 4.500541e+01 3.892148e+00 2.152974e+01 3.726084e+01 1.344796e+01 1.126785e+01 8.969568e+00 1.538749e+01 1.500898e+01 2.457036e+01 3.414924e+01 1.394825e+01 5.174446e-02 9.617490e-01 2.999357e+00 1.147943e+00 4.155847e+00 5.198353e-01 9.699512e-01 8.209922e-01 2.669638e+00 1.307955e+00 2.188144e+00 1.456073e+00 7.086103e-01 5.000000e-02 1.049653e+00 4.732282e-01 5.126104e-01 1.193522e+00 4.183689e-01 5.000000e-02 5.379784e-01 3.952312e-01 4.250201e-01 3.868361e-01 7.162328e-01 5.219386e-01 5.000000e-02
<GCONST> 9.101079e+01
<STATE> 7
<MEAN> 39
 1.426491e+00 -9.256963e+00 -7.654436e+00 -1.036933e+01 -7.675049e-01 -9.490287e+00 1.277075e+00 -1.911011e+00 -4.433075e+00 -9.187433e+00 -4.426135e+00 -5.717449e+00 4.266796e-01 -9.690610e-01 -1.639369e+00 -2.239841e+00 1.503617e+00 2.434688e-02 -1.169325e+00 1.825356e+00 -2.503273e-01 3.983543e-01 -3.012616e+00 -7.981479e-01 -4.135238e-01 1.017079e-01 -1.079939e+00 -4.965305e-01 -3.598090e-01 1.070067e+00 -1.285103e-01 2.195508e-01 6.962007e-01 -3.300371e-01 6.049008e-01 -4.230365e-01 4.396386e-01 3.582394e-01 -2.765550e-03
<VARIANCE> 39
 3.763030e+01 1.999653e+01 1.937198e+01 2.935325e+01 4.130147e+01 1.360779e+01 1.163771e+01 1.257873e+01 2.444257e+01 8.324138e+00 1.174823e+01 6.137388e+00 5.000000e-02 2.331695e+00 8.566135e+00 1.559780e+00 6.858566e+00 6.993445e-01 4.594675e-01 2.489747e+00 8.092523e-01 9.975858e-01 2.024957e+00 1.583111e+00 2.115778e+00 5.000000e-02 1.137170e+00 3.759191e-01 4.453736e-01 7.052499e-01 1.049033e+00 5.189018e-01 8.858395e-01 7.599932e-01 1.679721e-01 1.373240e-01 7.024360e-01 3.762027e-01 5.000000e-02
<GCONST> 9.529768e+01
<STATE> 8
<MEAN> 39
 9.568565e-01 -1.277356e+01 -8.508512e+00 -1.070244e+01 -5.290945e+00 -8.113711e+00 1.411709e+00 -2.549013e+00 -1.757750e+00 -1.284298e+01 -2.926385e+00 -4.739343e+00 5.267394e-01 -1.398870e+00 -2.555175e+00 -2.283863e+00 2.188009e+00 -9.259163e-01 -5.445766e-01 2.225558e+00 -5.132851e-01 7.197474e-01 -2.765645e+00 -8.556445e-03 1.237175e-02 1.022921e-01 -9.697265e-01 -2.424777e-01 -2.889380e-01 7.396982e-01 1.567484e-01 4.426697e-01 5.656959e-01 -1.268784e-01 3.331537e-01 3.886813e-01 4.362304e-01 4.563975e-01 -2.267702e-03
<VARIANCE> 39
 3.818862e+01 2.938303e+01 1.329631e+01 2.297187e+01 3.202776e+01 2.063173e+01 2.355088e+01 5.218847e+00 2.668950e+01 2.017535e+01 1.237370e+01 5.124204e+00 5.000000e-02 4.885622e+00 6.325755e+00 3.954472e+00 6.360928e+00 4.801198e+00 7.061406e-01 7.754707e+00 1.415906e+00 7.559974e-01 1.816906e+00 3.584325e+00 2.122383e+00 5.000000e-02 5.420306e-01 6.522244e-01 1.755922e-01 3.993375e-01 4.420785e-01 4.007342e-01 3.718478e-01 4.155245e-01 2.278130e-01 4.035710e-01 2.275874e-01 5.000000e-02 5.000000e-02
<GCONST> 9.563920e+01
<STATE> 9
<MEAN> 39
 -4.333738e+00 -1.530526e+01 -1.704852e+01 -4.228401e+00 -3.559745e+00 -1.113798e+01 1.217774e+01 -6.394038e+00 4.028477e-01 -1.710090e+01 -3.072178e+00 -4.998985e+00 7.269230e-01 -2.898395e+00 -1.924803e+00 -3.257132e+00 2.970889e+00 2.291258e-01 6.089414e-01 3.291934e+00 -1.672212e+00 1.513700e+00 -1.864529e+00 1.168747e+00 9.909876e-01 9.806687e-02 5.282530e-02 1.523015e-01 5.333088e-01 -1.618315e-01 2.049258e-01 7.728356e-01 -8.254404e-01 3.426671e-01 2.789551e-02 3.917669e-01 2.914174e-01 3.320120e-01 -8.919259e-03
<VARIANCE> 39
 2.071025e+01 9.491767e+01 1.857807e+01 2.185271e+01 1.368952e+01 1.742928e+01 3.886815e+01 2.737512e+01 7.954180e+00 1.805287e+01 8.961363e+00 1.718940e+01 5.000000e-02 3.814424e+00 1.390757e+00 5.242868e-01 3.992673e+00 4.345831e+00 3.264910e+00 3.473093e+00 3.909877e+00 2.812366e+00 2.054717e+00 3.497511e+00 1.204785e+00 5.000000e-02 4.137644e-01 1.992884e+00 4.477868e-01 4.471802e-01 5.836129e-01 1.884959e-01 6.666906e-01 2.421679e-01 1.799708e-01 1.061845e-01 2.450666e-01 4.116575e-01 5.000000e-02
<GCONST> 9.750648e+01
<STATE> 10
<MEAN> 39
 -6.542322e+00 -1.564747e+01 -1.726585e+01 -2.424331e+00 -3.674921e+00 -8.320251e+00 1.029181e+01 -3.871952e+00 7.334498e-01 -1.619027e+01 -2.582342e+00 -2.702552e+00 7.736063e-01 -2.394948e+00 -3.226395e+00 -5.431913e-01 1.813174e+00 7.799146e-01 1.412070e+00 1.168401e+00 4.389141e-01 4.853382e-01 -1.532121e+00 7.995524e-01 1.920806e+00 8.121157e-02 7.262149e-02 -1.267823e-02 9.474434e-01 -2.922307e-01 4.600852e-01 6.164528e-01 -7.284299e-01 3.745966e-01 -5.288972e-02 3.396676e-01 2.452131e-01 -2.443852e-02 -1.584860e-02
<VARIANCE> 39
 1.628857e+01 6.724062e+01 2.026057e+01 4.087431e+01 9.481809e+00 2.108786e+01 5.080846e+01 2.297144e+01 3.263196e+00 2.594177e+01 3.196095e+01 2.589891e+01 5.000000e-02 3.225733e+00 6.319269e+00 3.188313e+00 1.564417e+00 2.235768e+00 2.696858e+00 1.908945e+00 3.716693e-01 2.637198e+00 1.625276e+00 2.330447e+00 1.008127e+00 5.000000e-02 6.391557e-01 1.599258e+00 4.245336e-01 1.009057e+00 2.519255e-01 5.913656e-01 8.767830e-01 4.772756e-01 2.032892e-01 1.786508e-01 7.081442e-01 6.535876e-01 5.000000e-02
<GCONST> 1.006236e+02
<STATE> 11
<MEAN> 39
 -1.104913e+01 -2.239938e+01 -1.818330e+01 1.727487e+00 -3.414557e+00 -3.190744e+00 1.148563e+01 -5.038735e+00 2.133452e+00 -2.015986e+01 5.231803e-01 -6.477187e-01 9.183275e-01 -1.406326e+00 -1.127745e+00 -1.326424e-01 1.545546e+00 1.305226e+00 1.814331e+00 3.791959e-03 1.035896e+00 7.143277e-01 -6.979439e-01 1.128554e+00 2.558426e-01 5.004450e-02 7.954171e-01 6.748865e-01 3.901174e-01 -8.826924e-01 2.915239e-01 -7.045366e-01 -8.210938e-01 2.729485e-01 -2.812757e-01 4.109941e-01 -4.040038e-01 -6.027266e-01 -1.792794e-02
<VARIANCE> 39
 2.724444e+01 2.116525e+00 3.123033e+01 3.708182e+01 1.495793e+01 1.605687e+01 2.874971e+01 2.705088e+01 1.205068e+01 2.266220e+01 1.134840e+01 7.694634e+00 5.000000e-02 1.174417e+00 4.489047e-01 6.497664e-01 1.544372e+00 1.221443e+00 2.150391e+00 9.271497e-01 6.459617e-01 9.296666e-01 1.871209e+00 1.125761e+00 6.106943e-01 5.000000e-02 2.509298e-01 3.891801e-01 4.544927e-01 3.060959e-01 3.884967e-01 1.421474e-01 2.273728e-01 4.649251e-01 5.449067e-01 2.871453e-01 1.304262e-01 1.763012e-01 5.000000e-02
<GCONST> 8.094205e+01
<STATE> 12
<MEAN> 39
 -9.325707e+00 -2.376081e+01 -1.797819e+01 3.449541e+00 2.745808e+00 -5.481879e+00 1.363937e+01 -2.041695e+00 2.567998e+00 -2.140839e+01 3.462537e+00 -2.201217e+00 9.781626e-01 -3.250380e-01 -4.654051e-01 1.623780e-01 -3.534698e-01 1.247862e+00 -1.691990e-01 -1.332677e+00 4.647761e-01 1.155908e-02 1.285115e-01 5.002704e-01 -5.120988e-01 1.720676e-02 3.685168e-01 2.391301e-01 -3.156471e-02 -2.958277e-01 -3.453331e-01 -4.358745e-01 -3.043161e-01 -4.742301e-01 -4.740116e-02 1.580969e-01 -2.889794e-01 -3.055668e-01 -1.239734e-02
<VARIANCE> 39
 7.125620e+00 4.045139e+00 2.526872e+01 8.296281e+00 1.206187e+01 2.248528e+01 1.412171e+01 1.164813e+01 1.172786e+01 2.799376e+01 9.617934e+00 1.513343e+01 5.000000e-02 1.694636e-01 1.191529e-01 2.190624e-01 7.247018e-01 1.330257e+00 6.529394e-01 5.796033e-01 3.555796e+00 1.627695e+00 9.211930e-01 8.299227e-01 5.239144e-01 5.000000e-02 1.317406e-01 5.739584e-02 7.009771e-02 2.876145e-01 1.802240e-01 2.218714e-01 1.276291e-01 1.527453e-01 1.513625e-01 2.672045e-01 2.396852e-01 1.419868e-01 5.000000e-02
<GCONST> 6.475469e+01
<STATE> 13
<MEAN> 39
 -1.265021e+01 -2.421912e+01 -1.816900e+01 2.222968e-02 -1.415311e-01 -3.481253e+00 7.053196e+00 -3.394825e+00 5.993499e+00 -1.836587e+01 9.707441e-01 -7.047957e-01 9.804128e-01 -9.356848e-02 -1.121425e-01 -7.022871e-01 -9.225097e-02 8.863587e-01 -3.993961e-01 -4.759552e-01 2.708755e-02 7.597554e-01 -3.485328e-01 1.504646e-01 -4.246955e-01 8.342225e-03 2.304018e-01 8.257582e-02 -8.113657e-02 -3.832481e-02 -1.557164e-02 4.795613e-02 5.228610e-02 -3.291158e-02 6.009232e-02 5.740216e-02 -1.158192e-01 3.598098e-02 -7.323676e-03
<VARIANCE> 39
 9.512787e+00 3.950656e+00 8.286851e+00 5.007471e+00 1.271589e+01 2.053137e+01 9.070141e+00 1.014739e+01 3.789312e+01 1.354776e+01 1.204850e+01 1.344537e+01 5.000000e-02 3.922505e-01 4.363654e-01 1.902051e-01 7.378356e-01 2.480471e-01 4.754975e-01 9.023337e-01 7.201485e-01 4.888775e-01 1.017480e+00 1.003526e+00 5.065280e-01 5.000000e-02 5.000000e-02 7.500979e-02 5.445156e-02 1.542394e-01 1.859960e-01 5.000000e-02 2.787012e-01 4.423050e-01 2.156233e-01 1.404092e-01 1.736612e-01 1.065505e-01 5.000000e-02
<GCONST> 5.916141e+01
<STATE> 14
<MEAN> 39
 -1.209064e+01 -2.423848e+01 -1.956637e+01 1.456011e+00 2.084516e+00 -5.373095e+00 8.248358e+00 -3.093288e+00 4.613627e+00 -2.023870e+01 1.732193e+00 -2.300255e+00 9.954799e-01 3.264039e-01 -3.083995e-01 -2.348829e-02 1.669385e-01 7.170470e-01 3.012953e-01 -8.917105e-01 -3.978123e-01 8.580815e-01 -9.053787e-02 -1.585773e-01 -1.570361e-01 -5.304048e-03 3.137895e-01 3.759355e-02 3.924093e-01 -2.768001e-01 -7.108791e-02 3.373786e-01 -4.233729e-01 -1.222805e-01 1.152575e-01 2.910851e-02 -8.736998e-02 -2.975094e-01 -8.883738e-03
<VARIANCE> 39
 2.435131e+01 5.174466e+00 2.633831e+01 2.483337e+01 6.115705e+00 3.219568e+01 1.448945e+01 9.153162e+00 2.065424e+01 2.101575e+01 1.942607e+01 1.698608e+01 5.000000e-02 5.000000e-02 2.954353e-01 8.580683e-01 1.028165e-01 1.268365e+00 4.135665e-01 2.657359e-01 1.620607e+00 1.090641e+00 7.889293e-01 7.029311e-01 1.367883e+00 5.000000e-02 5.924915e-02 9.486342e-02 5.000000e-02 2.436303e-01 1.493870e-01 1.462086e-01 1.221428e-01 4.425898e-01 2.604432e-01 3.478464e-01 1.370299e-01 2.174657e-01 5.000000e-02
<GCONST> 6.548647e+01
<STATE> 15
<MEAN> 39
 -1.185598e+01 -2.496411e+01 -1.561302e+01 -4.538545e-01 4.693932e+00 -8.438452e-01 3.562599e+00 -1.313218e+00 5.980629e+00 -1.943125e+01 5.881355e-01 -1.962877e+00 9.610513e-01 9.755764e-01 1.416061e-01 5.169552e-01 -8.615299e-01 9.430044e-01 -2.701107e-01 -1.692683e+00 -1.054399e+00 1.089812e+00 7.407195e-02 -1.518782e-02 -1.872571e+00 -2.255877e-02 3.955434e-01 1.799764e-01 2.204494e-01 -4.254634e-01 -4.734904e-01 -5.255290e-01 7.264121e-03 -3.552470e-01 3.800255e-01 1.374160e-01 2.462706e-02 -3.365773e-01 -8.063260e-03
<VARIANCE> 39
 8.110690e+00 1.136359e+00 3.331863e+01 1.352732e+01 4.631053e+00 2.544702e+01 1.096436e+01 1.417838e+01 1.897811e+01 1.274433e+01 5.603853e+00 2.088518e+01 5.000000e-02 5.001392e-01 5.298023e-01 5.343255e-01 1.912493e-01 1.084470e+00 1.962213e+00 6.125956e-01 1.980689e+00 1.662257e+00 6.087211e-01 5.671900e-01 1.275750e+00 5.000000e-02 8.009344e-02 5.083781e-02 3.170465e-01 1.707207e-01 4.922154e-01 1.677251e-01 1.834731e-01 5.475382e-01 1.962645e-01 1.170215e-01 8.699422e-02 2.944090e-01 5.000000e-02
<GCONST> 6.746545e+01
<STATE> 16
<MEAN> 39
 -7.435437e+00 -2.474788e+01 -1.706820e+01 -2.077240e+00 7.435389e+00 -4.484357e+00 1.278146e+00 -5.567027e+00 8.901519e+00 -1.953290e+01 1.857702e+00 -1.004268e+01 9.109026e-01 2.054986e+00 3.136711e-01 1.226429e+00 -2.679768e+00 -2.074338e+00 -1.292874e+00 -1.598552e+00 -6.668659e-01 1.568236e+00 1.064698e+00 8.033453e-02 -1.270919e+00 -4.214725e-02 5.861919e-01 3.321285e-02 5.384483e-01 -4.772896e-03 -1.609432e+00 -4.886858e-01 2.835865e-01 4.605752e-01 -5.832698e-01 6.796560e-01 -1.657484e-01 8.025133e-01 -7.920172e-03
<VARIANCE> 39
 7.490831e+00 1.756842e+00 2.558294e+01 1.710390e+01 8.061268e+00 2.659505e+01 3.134792e+01 1.452223e+01 2.007433e+01 2.755854e+01 3.415400e+00 1.352483e+01 5.000000e-02 6.433135e-01 4.183528e-01 1.315786e+00 1.271834e+00 5.166087e+00 1.847010e+00 2.016515e+00 3.170642e+00 7.030070e-01 1.264593e+00 1.162678e+00 9.440263e-01 5.000000e-02 5.000000e-02 1.099068e-01 1.322161e-01 3.382467e-01 1.588355e-01 3.104990e-01 1.188262e-01 2.469448e-01 2.283028e-01 2.756927e-01 1.714522e-01 2.140815e-01 5.000000e-02
<GCONST> 7.535477e+01
<STATE> 17
<MEAN> 39
 -3.227441e+00 -2.268500e+01 -1.492755e+01 -7.652945e+00 3.935867e-01 -8.855603e+00 1.282085e-01 -9.345157e+00 1.190197e+01 -1.885275e+01 4.059112e+00 -1.240048e+01 8.210546e-01 3.186126e+00 3.197418e-01 2.136638e+00 -1.219893e+00 -4.540718e+00 -2.036976e+00 -6.536683e-01 -1.396378e-01 7.595173e-02 2.342053e+00 -1.155431e+00 2.114436e-01 -5.435035e-02 1.378770e-01 -3.701416e-01 2.254269e-01 7.279651e-01 -6.145693e-01 4.456838e-01 2.798475e-01 7.944128e-01 -1.016780e+00 5.543866e-01 -5.936708e-01 1.309897e+00 2.948090e-03
<VARIANCE> 39
 1.322412e+01 6.373960e+00 1.555191e+01 1.845141e+01 4.565385e+01 3.123339e+01 1.516470e+01 1.885079e+01 2.395343e+01 1.360971e+01 5.685524e+00 4.475903e+00 5.000000e-02 5.000000e-02 4.409790e-01 1.757724e+00 5.099116e-01 6.742146e-01 6.651689e-01 1.693585e-01 3.724276e+00 1.169989e+00 2.222501e+00 1.130960e+00 4.814594e-01 5.000000e-02 1.253386e-01 1.133845e-01 1.389577e-01 3.268779e-01 1.012256e+00 3.620724e-01 3.561835e-01 3.570255e-01 2.985922e-01 1.596106e-01 9.116822e-02 3.548026e-01 5.000000e-02
<GCONST> 7.299983e+01
<STATE> 18
<MEAN> 39
 2.515769e-01 -2.180818e+01 -1.188539e+01 -6.428478e+00 -6.525572e+00 -1.093730e+01 -4.347191e-01 -8.862999e+00 1.260875e+01 -1.491456e+01 -2.255863e-01 -7.207831e+00 7.389700e-01 2.816395e+00 -4.835374e-01 2.324916e+00 -3.279295e-01 -3.894432e+00 -7.736802e-01 -7.556090e-01 1.301778e+00 -1.617592e+00 2.074294e+00 -1.242072e+00 2.177205e+00 -3.961253e-02 -4.056283e-01 -4.064299e-01 -2.944753e-01 4.279496e-01 7.187805e-01 8.400415e-01 1.136839e-01 8.223504e-01 -9.038941e-01 3.008625e-02 -1.870697e-01 5.870678e-01 1.128649e-02
<VARIANCE> 39
 1.178158e+01 6.383987e+00 1.168719e+01 2.209900e+01 2.726927e+01 6.973621e+00 3.483197e+00 5.318924e+01 2.888383e+01 1.580914e+01 1.342643e+01 5.040235e+00 5.000000e-02 4.545519e-01 5.046464e-01 8.573474e-01 4.009952e-01 3.427127e+00 1.589859e+00 6.665442e-01 1.703094e+00 1.260060e+00 3.467936e+00 1.710887e+00 1.304785e+00 5.000000e-02 7.835814e-02 7.049134e-02 1.793564e-01 1.985093e-01 4.952490e-01 1.070876e-01 1.957617e-01 1.299911e+00 4.215902e-01 8.683532e-02 1.166444e-01 1.931521e-01 5.000000e-02
<GCONST> 7.499271e+01
<STATE> 19
<MEAN> 39
 4.298094e+00 -2.491774e+01 -8.082823e+00 -5.721593e+00 -1.046792e+01 -1.058839e+01 -1.347409e+00 -2.423583e+00 6.395028e+00 -9.808015e+00 -2.512533e+00 -6.193834e+00 7.244506e-01 1.679967e+00 -7.513310e-01 1.104656e+00 -1.466696e-02 -2.129888e+00 7.906599e-01 -3.887347e-01 1.046898e+00 -1.854943e+00 1.950533e+00 -1.435953e+00 1.669792e+00 -2.111123e-02 -7.284856e-01 3.429046e-02 -6.146093e-01 1.408573e-01 1.208084e+00 5.512242e-01 1.238358e-01 -5.110846e-01 6.776637e-02 -6.659645e-01 4.235908e-01 -3.585874e-01 9.290507e-03
<VARIANCE> 39
 1.401691e+01 4.375785e+00 1.840656e+01 5.859248e+00 8.898962e+00 2.629001e+01 1.883370e+01 2.074549e+01 2.418632e+01 3.267845e+01 1.682814e+01 1.886973e+01 5.000000e-02 5.095718e-01 3.646156e-01 8.959306e-01 6.221706e-01 3.624857e+00 9.035832e-01 8.861968e-01 3.504224e+00 3.659977e+00 1.294120e+00 1.316828e+00 1.514263e+00 5.000000e-02 5.000000e-02 5.000000e-02 1.634616e-01 9.930801e-02 5.000000e-02 3.392964e-01 5.000000e-02 3.191429e-01 2.133842e-01 4.851684e-01 3.559591e-01 9.296340e-02 5.000000e-02
<GCONST> 7.363773e+01
<STATE> 20
<MEAN> 39
 5.670054e+00 -2.540897e+01 -7.987884e+00 -7.129790e+00 -1.138002e+01 -7.529667e+00 -2.723961e+00 -4.332217e+00 3.298888e+00 -9.155406e+00 -3.956918e+00 -4.013036e+00 6.945502e-01 4.025189e-01 1.149831e-02 3.151332e-01 1.453725e-01 -1.237227e-01 5.380123e-01 -5.182247e-01 -4.531684e-01 -6.849843e-01 2.505804e-01 -2.752074e-01 3.612657e-01 -1.476297e-02 -2.417978e-01 3.585018e-01 -1.745855e-01 3.792089e-01 5.480632e-01 -2.544852e-01 2.424416e-01 -8.260246e-02 4.728774e-01 -2.077164e-01 1.280458e-01 -4.022152e-01 2.299181e-04
<VARIANCE> 39
 6.080389e+00 4.756591e+00 5.407039e+00 4.512622e+00 2.329423e+01 1.603856e+01 8.150131e+00 8.770803e+00 1.846540e+01 2.577575e+01 7.662216e+00 2.108610e+01 5.000000e-02 4.018079e-01 2.498569e-01 8.056558e-01 5.590009e-01 7.442691e-01 2.085266e+00 7.870165e-01 2.785514e+00 7.072486e-01 2.535613e+00 9.391693e-01 7.980824e-01 5.000000e-02 7.044394e-02 7.286630e-02 8.699807e-02 9.831280e-02 4.113408e-01 2.799917e-01 2.787641e-01 3.313461e-01 3.404143e-01 4.118870e-01 1.477346e-01 3.059816e-01 5.000000e-02
<GCONST> 6.947797e+01
<STATE> 21
<MEAN> 39
 4.740199e+00 -2.527157e+01 -7.951900e+00 -7.009536e+00 -1.053861e+01 -7.182033e+00 -2.823324e+00 -4.590049e+00 6.256090e+00 -9.827796e+00 -3.071800e+00 -2.983129e+00 6.843242e-01 5.306546e-01 9.870937e-01 1.005535e-01 1.192774e+00 7.912703e-01 -5.114313e-01 6.941587e-01 4.680565e-01 -3.174191e-01 8.564431e-01 -2.990865e-01 -6.643229e-01 -1.710869e-02 -1.505173e-01 3.173537e-01 -9.929752e-02 3.414993e-01 5.174958e-01 -3.600824e-01 2.782632e-01 8.600143e-02 3.254318e-01 -2.524013e-01 6.503198e-02 -2.567730e-01 5.588970e-05
<VARIANCE> 39
 1.045175e+01 8.067911e+00 2.980018e+00 4.032851e+00 2.262404e+01 2.412488e+00 5.825639e+00 2.299206e+01 3.005727e+01 6.110789e+00 1.153974e+01 2.144981e+01 5.000000e-02 5.000000e-02 5.136072e-01 6.018628e-01 7.086106e-01 5.789822e-01 3.599188e+00 6.650270e-01 3.164031e-01 4.298430e-01 1.595204e+00 7.822962e-01 8.155053e-01 5.000000e-02 1.290437e-01 1.456298e-01 1.229880e-01 6.984439e-02 4.746967e-01 1.798347e-01 2.326897e-01 5.077921e-01 2.865676e-01 2.128065e-01 1.158503e-01 4.002651e-01 5.000000e-02
<GCONST> 6.387117e+01
<STATE> 22
<MEAN> 39
 6.767959e+00 -2.295544e+01 -7.961812e+00 -3.381200e+00 -9.042144e+00 -8.571383e+00 -1.483073e+00 -3.429081e+00 4.004226e+00 -8.378484e+00 -4.889963e+00 -4.264614e+00 6.400686e-01 4.799633e-01 5.977687e-01 2.456484e-02 1.411638e+00 6.182232e-01 -6.310338e-01 5.050427e-01 1.012845e+00 1.839305e-01 2.106188e-02 -2.821581e-01 3.331470e-01 -1.569952e-02 -1.347028e-01 -4.316690e-02 -6.026836e-02 -2.342329e-01 1.596865e-02 -9.450959e-02 -1.715343e-01 -3.159992e-02 -1.812565e-01 -4.809043e-01 4.886641e-02 8.759516e-03 -8.139332e-04
<VARIANCE> 39
 7.379018e+00 1.069971e+01 6.991271e+00 3.339747e+00 9.245066e+00 2.870797e+01 6.097817e+00 7.207936e+00 2.077213e+01 3.925651e+00 7.164035e+00 1.071103e+01 5.000000e-02 2.052411e-01 3.830593e-01 4.333646e-01 6.451001e-01 7.453657e-01 6.476302e-01 1.146751e+00 5.956357e-01 1.798178e+00 1.298234e+00 5.313930e-01 8.702648e-01 5.000000e-02 5.000000e-02 7.985834e-02 2.211660e-01 1.051804e-01 8.416633e-02 8.649799e-01 7.293502e-02 1.368964e-01 1.837238e-01 3.021920e-01 2.476678e-01 2.995153e-01 5.000000e-02
<GCONST> 6.146154e+01
<STATE> 23
<MEAN> 39
 6.388390e+00 -2.255096e+01 -6.884092e+00 -1.110143e+00 -7.510870e+00 -9.686735e+00 -1.996212e+00 -1.598824e+00 5.411145e+00 -8.332912e+00 -3.877819e+00 -2.851256e+00 6.233813e-01 -3.014536e-02 4.632868e-01 2.151014e-01 -1.802011e-01 6.429000e-01 1.100076e-01 -4.357725e-01 -1.509216e-01 -5.908482e-01 -1.087343e+00 6.286714e-04 1.363449e-01 -1.806411e-02 -2.722047e-01 -2.312546e-01 -3.893209e-02 -5.330439e-01 -9.725051e-02 3.582936e-01 -4.658645e-02 -2.960970e-01 -5.761939e-01 -5.033505e-01 6.152173e-03 -3.433118e-01 -2.877160e-03
<VARIANCE> 39
 4.334347e+00 4.027748e+00 4.437512e+00 4.989264e+00 1.717707e+01 3.425113e+00 1.444337e+01 7.678601e+00 1.193534e+01 2.656608e+01 9.788238e+00 1.385882e+01 5.000000e-02 1.343233e-01 4.405952e-01 5.508906e-01 5.279917e-01 3.198788e-01 2.510600e+00 2.561033e-01 7.580022e-01 8.672289e-01 5.934592e-01 9.280081e-01 1.661679e+00 5.000000e-02 5.000000e-02 1.173271e-01 1.299295e-01 2.119609e-01 2.126120e-01 1.451589e-01 2.247973e-01 1.419595e-01 4.723913e-01 5.043514e-01 2.047074e-01 2.179421e-01 5.000000e-02
<GCONST> 6.175035e+01
<STATE> 24
<MEAN> 39
 6.810275e+00 -2.175331e+01 -8.006020e+00 -3.885521e+00 -8.688659e+00 -1.031955e+01 -2.728152e+00 -3.685466e+00 1.689877e+00 -1.179856e+01 -5.179534e+00 -4.885252e+00 6.092703e-01 -3.563851e-01 3.639179e-01 1.304657e-01 -1.997679e-01 6.263419e-01 2.309344e-01 3.450466e-01 1.721178e-02 -1.503200e+00 -9.792138e-01 -1.419124e-01 -1.079172e+00 -2.480982e-02 -9.395053e-02 -5.021127e-02 2.425798e-02 5.135022e-01 2.337419e-01 1.558048e-01 3.318079e-01 4.460172e-02 -2.111418e-01 -2.907209e-02 -8.889732e-02 -1.921768e-01 -2.549884e-03
<VARIANCE> 39
 5.158142e+00 4.759696e+00 1.030291e+01 4.944064e+00 1.529660e+01 1.640863e+01 4.815114e+00 1.122484e+01 1.720244e+01 3.618536e+00 7.846429e+00 1.566661e+01 5.000000e-02 6.814837e-02 3.208429e-01 1.345199e+00 6.258601e-01 5.634069e-01 1.988026e+00 6.237407e-01 8.502443e-01 1.582075e+00 1.490700e+00 9.531726e-01 1.367103e+00 5.000000e-02 5.000000e-02 5.743350e-02 1.055734e-01 1.637631e-01 1.056055e-01 3.253533e-01 5.000000e-02 1.370019e-01 2.168995e-01 1.496352e-01 1.959180e-01 1.640880e-01 5.000000e-02
<GCONST> 5.975611e+01
<STATE> 25
<MEAN> 39
 5.340549e+00 -2.149911e+01 -7.856193e+00 -3.614075e+00 -6.619923e+00 -8.460299e+00 3.041849e-01 -2.354490e+00 -1.329600e+00 -1.375503e+01 -4.297050e+00 -6.895862e+00 5.396754e-01 -3.369013e-01 2.476786e-02 -1.925882e-01 2.053497e+00 1.220987e+00 2.590669e-01 8.659323e-01 1.466778e-01 -1.811574e+00 -1.389313e+00 -1.099891e+00 -1.000160e+00 -2.813581e-02 -4.328083e-02 1.499680e-02 2.061777e-02 5.576233e-01 3.408585e-01 9.551641e-02 1.479108e-01 2.170505e-01 4.534450e-01 3.349223e-01 -1.885444e-01 3.438726e-01 -3.639413e-03
<VARIANCE> 39
 2.255739e+00 4.585853e+00 2.603208e+01 4.887851e+00 2.738871e+00 2.127143e+01 2.375109e+00 1.572221e+01 1.370841e+01 3.423330e+00 8.605907e+00 1.111665e+01 5.000000e-02 1.815684e-01 2.178611e-01 1.121672e+00 7.638894e-01 8.991976e-01 1.592736e+00 2.039462e-01 4.161938e-01 1.459604e+00 2.372388e+00 2.166916e+00 1.079643e+00 5.000000e-02 5.000000e-02 7.200709e-02 2.808258e-01 1.836499e-01 5.465179e-02 4.275150e-01 6.577346e-02 3.840075e-01 2.559913e-01 1.541504e-01 2.166980e-01 2.696041e-01 5.000000e-02
<GCONST> 6.046813e+01
<STATE> 26
<MEAN> 39
 5.030007e+00 -2.145786e+01 -6.405595e+00 2.725885e+00 -2.131843e+00 -7.282880e+00 -5.877631e-01 -2.649251e+00 -1.976570e+00 -1.515589e+01 -7.540299e+00 -7.941248e+00 4.863841e-01 -4.829046e-01 -7.240090e-03 1.222933e-01 1.970317e+00 1.553220e+00 7.447867e-01 1.162388e+00 1.686160e-01 -8.709286e-01 -7.598627e-01 -9.378927e-01 7.194716e-02 -3.360672e-02 -2.430944e-01 -1.488900e-01 -2.948609e-01 -4.423353e-01 -1.786163e-01 -2.097809e-01 -3.446261e-02 1.630039e-01 5.346285e-01 5.992335e-01 4.671650e-01 9.154149e-01 -4.478902e-03
<VARIANCE> 39
 2.590338e+00 3.446711e+00 2.623595e+01 4.972702e+00 2.075838e+01 2.028903e+01 9.748563e+00 8.055763e+00 1.859717e+01 3.695340e+01 3.044751e+01 4.985740e+00 5.000000e-02 6.715703e-02 1.164703e-01 3.837844e-01 4.603673e-01 6.541513e-01 1.137940e+00 3.078010e-01 1.759102e+00 1.433675e+00 1.291303e+00 4.384643e-01 1.434645e+00 5.000000e-02 5.000000e-02 8.175041e-02 3.854018e-01 1.813920e-01 2.708059e-01 3.540548e-01 1.110571e-01 1.166829e-01 2.360784e-01 4.733407e-01 5.203996e-01 1.182145e-01 5.000000e-02
<GCONST> 6.454053e+01
<STATE> 27
<MEAN> 39
 3.914133e+00 -2.099889e+01 -7.593601e+00 3.168647e+00 -1.273120e+00 -6.683358e+00 3.508480e+00 -1.053597e+00 -3.326210e+00 -1.597821e+01 -7.296913e+00 -5.665602e+00 4.282200e-01 -1.219246e+00 -1.320746e-01 -7.719902e-01 3.934548e-02 9.136391e-01 -7.824361e-02 5.405672e-01 6.736287e-01 3.809749e-01 1.001906e+00 1.164946e+00 1.495187e+00 -4.440114e-02 -1.661027e-01 -1.143048e-01 -2.433877e-01 -6.776913e-01 -3.007464e-01 -2.445157e-01 -4.957074e-01 -6.966206e-02 4.823122e-01 8.165578e-01 8.379486e-01 4.320218e-01 4.055327e-04
<VARIANCE> 39
 2.148522e+00 2.760284e+00 1.479343e+01 9.175703e+00 9.352682e+00 1.331091e+01 1.656658e+00 4.219002e+00 6.352889e+00 1.065464e+01 8.115258e+00 1.439105e+01 5.000000e-02 6.745866e-02 5.373825e-01 1.793437e+00 6.678814e-01 1.587573e+00 1.117159e+00 1.187138e+00 7.011332e-01 4.885741e-01 1.040343e+00 8.576666e-01 5.866738e-01 5.000000e-02 5.000000e-02 9.636392e-02 8.879141e-02 1.229567e-01 1.900819e-01 2.418932e-01 1.500271e-01 1.396922e-01 1.234470e-01 1.786123e-01 2.057053e-01 3.108011e-01 5.000000e-02
<GCONST> 5.765194e+01
<STATE> 28
<MEAN> 39
 1.202062e+00 -2.163167e+01 -9.645219e+00 2.283220e+00 9.324723e-01 -8.691673e+00 1.790426e+00 -4.677033e-01 -1.569228e+00 -1.121757e+01 -2.948995e+00 -3.014206e+00 3.506700e-01 -1.270817e+00 -4.312102e-01 -9.079558e-01 -6.730007e-01 1.898540e-01 -6.809590e-01 -7.342731e-01 3.476597e-01 1.120273e+00 2.182030e+00 2.222899e+00 1.904852e+00 -3.731734e-02 2.268742e-01 -2.544207e-02 6.971148e-02 -1.665713e-01 -1.816345e-01 8.272977e-02 -2.711346e-01 -1.989863e-01 9.338445e-02 1.209736e-01 8.487280e-02 -1.660174e-01 9.063892e-03
<VARIANCE> 39
 4.634801e+00 1.067910e+01 4.594834e+00 2.008921e+00 1.335235e+01 3.251222e+00 6.893614e+00 1.477000e+01 1.327060e+01 1.101742e+01 6.078995e+00 3.605797e+00 5.000000e-02 1.389893e-01 5.871835e-01 8.400410e-01 9.256451e-01 1.366379e+00 1.130816e+00 5.243877e-01 1.623397e-01 3.821138e-01 8.833695e-01 1.626018e+00 1.282306e+00 5.000000e-02 5.000000e-02 2.844847e-01 2.527424e-01 1.026285e-01 2.954437e-01 7.266913e-02 2.689680e-01 1.221778e-01 5.007496e-02 6.639384e-02 5.000000e-02 1.523257e-01 5.000000e-02
<GCONST> 5.439843e+01
<STATE> 29
<MEAN> 39
 -3.137890e-02 -2.293091e+01 -1.087290e+01 1.984450e+00 2.097982e-01 -8.025029e+00 1.713753e+00 -9.728350e-02 -3.424407e-01 -9.363523e+00 -3.958023e-01 -2.306449e-01 3.278756e-01 -5.220693e-01 -1.247148e-01 -2.770290e-01 -2.468120e-01 6.085581e-01 1.902110e-01 -3.343349e-01 -1.948235e-01 6.815066e-01 1.424052e+00 1.237861e+00 8.042713e-01 -1.568802e-02 2.612655e-01 3.311023e-01 3.918452e-01 -1.183264e-01 -1.405853e-01 1.241431e-01 -2.902853e-02 -2.221911e-01 -2.726800e-01 -3.674922e-01 -5.174856e-01 -3.832094e-01 5.257388e-03
<VARIANCE> 39
 3.438345e+00 6.696739e+00 5.656250e+00 1.040247e+01 8.405457e+00 3.313011e+00 5.265919e+00 7.940171e+00 3.161814e+00 1.639595e+01 2.002829e+01 1.078768e+00 5.000000e-02 3.362152e-01 1.493118e+00 1.594623e+00 6.733426e-01 1.367428e+00 1.023763e+00 1.719107e+00 9.107496e-01 9.828630e-01 1.754004e+00 9.627690e-01 1.804608e+00 5.000000e-02 6.963456e-02 1.665133e-01 1.335906e-01 2.078740e-01 2.650056e-01 1.576539e-01 1.340394e-01 1.772568e-01 5.000000e-02 1.656111e-01 2.245153e-01 9.580594e-02 5.000000e-02
<GCONST> 6.165705e+01
<STATE> 30
<MEAN> 39
 -4.180483e-02 -2.238880e+01 -1.071181e+01 1.424895e+00 2.256718e+00 -7.269439e+00 1.041143e+00 -1.733988e+00 5.511007e-01 -8.827220e+00 -9.889205e-01 -9.534782e-01 3.029056e-01 -1.340388e-02 9.164822e-01 1.399341e-01 -1.257105e+00 -1.885523e-01 2.709012e-01 -3.123335e-01 -5.303776e-01 -2.648092e-01 6.394603e-01 5.768078e-01 5.729173e-01 -1.462288e-02 2.533315e-02 2.341802e-01 2.539110e-01 1.740076e-02 -1.439311e-01 3.604737e-02 1.540007e-01 1.149027e-01 -2.339830e-01 -2.668988e-01 -1.607108e-01 -1.634524e-01 -2.283273e-03
<VARIANCE> 39
 1.225520e+00 1.295589e+01 6.164308e+00 7.657258e+00 9.778378e+00 1.477899e+01 2.120701e+01 8.822330e+00 5.291560e+00 1.138868e+01 7.395541e+00 1.170933e+01 5.000000e-02 4.467328e-01 6.912342e-01 8.143598e-01 6.549546e-01 5.697581e-01 4.053355e-01 3.093568e-01 1.382153e+00 2.559283e-01 3.150500e-01 9.137074e-01 4.622885e-01 5.000000e-02 6.176067e-02 3.206684e-01 2.853739e-01 1.811723e-01 3.000611e-01 1.899274e-01 4.216849e-01 1.661928e-01 1.710092e-01 4.397350e-01 3.607536e-01 3.648663e-01 5.000000e-02
<GCONST> 6.355334e+01
<STATE> 31
<MEAN> 39
 -3.858169e-01 -1.986983e+01 -9.578744e+00 -1.152177e+00 -1.561453e-01 -7.091573e+00 6.625564e-01 -1.672299e+00 -3.317826e-01 -6.309485e+00 1.533749e+00 1.056208e+00 2.820224e-01 -3.580016e-01 7.021027e-01 6.399363e-01 -1.239968e-01 5.377226e-02 -8.495198e-02 -4.637189e-01 1.012290e-01 -2.019912e-01 3.742795e-01 4.154045e-01 1.323501e-01 -2.258153e-02 -8.490919e-02 -1.745838e-01 7.175158e-02 5.007008e-01 1.890849e-01 7.784551e-02 2.916191e-01 2.935489e-01 2.946944e-02 -4.580112e-01 -3.096185e-01 -1.872978e-01 -2.001864e-03
<VARIANCE> 39
 8.310810e-01 7.208784e+00 6.109459e+00 2.426600e+00 3.729823e+00 7.458374e+00 6.644815e+00 1.206729e+01 8.929981e+00 3.062479e+00 1.667256e+00 3.343414e+00 5.000000e-02 7.610056e-02 9.162142e-01 9.449254e-01 7.648861e-01 1.090079e+00 8.089138e-01 1.331958e+00 1.111185e+00 3.128277e-01 7.151020e-01 1.867449e+00 5.425693e-01 5.000000e-02 1.237431e-01 1.744749e-01 1.866166e-01 5.653651e-02 1.584795e-01 1.682197e-01 2.485391e-01 3.896830e-01 7.047929e-02 8.239499e-02 1.559327e-01 1.556608e-01 5.000000e-02
<GCONST> 5.249419e+01
<STATE> 32
<MEAN> 39
 -1.585684e+00 -2.023599e+01 -8.283123e+00 1.528006e-01 1.373160e+00 -8.350214e+00 1.511393e-01 -3.743681e-01 -1.027722e+00 -8.764444e+00 7.859521e-01 1.075380e+00 2.345670e-01 -9.410770e-01 6.373667e-02 2.614081e-01 6.751264e-01 6.656629e-01 7.425438e-01 9.774570e-01 9.356977e-01 4.277534e-01 -4.916453e-01 -3.616488e-01 3.145196e-01 -3.492604e-02 -2.058218e-01 1.662262e-01 -4.072569e-02 1.327050e-01 3.621421e-02 2.265599e-01 2.021109e-01 -7.210912e-03 4.941534e-01 1.300085e-01 -1.605430e-01 4.860877e-02 -9.199629e-03
<VARIANCE> 39
 1.616540e+00 2.474796e+00 5.198609e+00 4.291247e+00 6.939610e+00 1.475298e+01 1.451676e+01 1.354150e+01 7.158249e+00 8.937216e+00 1.898942e+01 5.789903e+00 5.000000e-02 5.039194e-01 3.847713e-01 3.267996e-01 3.783717e-01 2.838232e-01 4.968508e-01 9.999073e-01 1.388978e+00 8.580558e-01 1.084244e+00 4.871142e-01 7.914183e-01 5.000000e-02 5.000000e-02 5.291337e-02 1.394226e-01 1.025758e-01 1.484769e-01 2.085484e-01 3.935749e-01 2.873289e-01 6.310912e-02 1.956123e-01 3.560267e-01 5.000000e-02 5.000000e-02
<GCONST> 5.530340e+01
<STATE> 33
<MEAN> 39
 -1.985747e+00 -1.953709e+01 -8.552454e+00 1.477873e+00 2.215697e+00 -5.282266e+00 2.821185e+00 6.243824e-01 1.634807e-01 -8.913457e+00 -1.549020e-01 4.902233e-02 1.829622e-01 -8.653616e-01 8.378650e-01 3.118567e-01 2.121795e-01 -1.681890e-01 1.906523e-01 5.031276e-01 3.437077e-01 1.118796e+00 -1.540849e-01 -4.517461e-01 2.246512e-01 -4.155736e-02 -1.059464e-01 3.405884e-01 1.528737e-01 -3.194435e-01 -3.052656e-01 -1.684505e-01 -3.826746e-01 -9.735345e-02 2.380881e-01 3.355617e-01 6.452021e-02 -6.462143e-02 -7.871062e-03
<VARIANCE> 39
 4.849352e+00 2.412077e+00 1.136814e+00 2.315683e+00 6.837156e+00 1.139618e+01 1.190452e+01 4.121119e+00 8.720056e+00 1.439507e+01 9.700204e+00 4.967333e+00 5.000000e-02 5.333475e-01 1.958089e-01 5.417044e-01 6.526906e-01 9.461087e-01 1.831037e+00 7.957532e-01 9.361133e-01 1.472310e+00 2.106158e+00 7.711086e-01 6.517158e-01 5.000000e-02 1.019388e-01 6.846802e-02 8.641374e-02 6.546625e-02 9.620751e-02 1.764691e-01 1.367081e-01 2.778687e-01 1.517157e-01 2.679441e-01 2.498537e-01 1.814630e-01 5.000000e-02
<GCONST> 5.669095e+01
<STATE> 34
<MEAN> 39
 -5.172429e+00 -1.769893e+01 -8.169599e+00 1.345230e+00 1.679516e+00 -5.810926e+00 2.513658e+00 8.788793e-01 4.744558e+00 -5.822848e+00 -1.850311e-01 2.247702e+00 6.595951e-02 -7.959456e-01 1.245175e+00 9.762786e-01 4.587542e-02 -2.903978e-01 4.016923e-03 -4.691257e-01 4.475500e-02 6.887362e-01 2.937346e-01 -2.291747e-01 -5.706055e-01 -4.752946e-02 2.937246e-01 2.412399e-01 3.239657e-01 -3.337390e-01 -1.334437e-01 -2.246864e-01 -3.588473e-01 -2.299045e-01 -4.247492e-01 7.797410e-02 1.785895e-01 -3.085178e-01 1.000718e-02
<VARIANCE> 39
 3.585737e+00 1.817193e+00 2.169661e+00 3.608067e+00 4.834588e+00 9.474293e+00 5.250792e+00 8.924025e+00 9.713375e+00 1.759316e+01 4.173793e+00 9.436954e+00 5.000000e-02 2.941275e-01 1.246781e-01 3.592729e-01 4.975819e-01 4.492230e-01 1.120596e+00 1.462278e+00 9.511878e-01 6.430966e-01 6.082132e-01 9.552282e-01 1.068898e+00 5.000000e-02 8.961308e-02 5.000000e-02 5.000000e-02 1.116796e-01 1.759208e-01 3.216592e-01 1.435165e-01 2.023883e-01 2.094102e-01 3.204142e-01 1.756636e-01 1.966111e-01 5.000000e-02
<GCONST> 5.373223e+01
<STATE> 35
<MEAN> 39
 -5.607719e+00 -1.452060e+01 -4.666693e+00 5.331816e-01 3.713094e-01 -6.281600e+00 -1.058193e-01 5.345405e-01 1.535457e+00 -7.450047e+00 -7.105083e-01 2.743151e-01 1.100309e-03 -4.380780e-01 1.602962e+00 1.358154e+00 -7.546758e-01 2.522168e-01 4.284760e-01 -8.078645e-01 -3.881416e-01 6.424214e-01 1.317833e+00 2.540684e-01 -4.978091e-01 -3.321564e-02 3.312547e-01 -1.126775e-01 -1.776453e-01 -8.730958e-02 1.780401e-01 3.757158e-04 1.496352e-01 -1.521886e-01 -2.237234e-01 1.767681e-01 2.749979e-01 4.679837e-02 1.693854e-02
<VARIANCE> 39
 1.614332e+00 1.971840e+00 2.991779e+00 3.637304e+00 6.614107e+00 3.860451e+00 1.811226e+01 4.905018e+00 6.671330e-01 3.305975e+00 8.733689e+00 5.656747e+00 5.000000e-02 5.245339e-01 4.584219e-01 5.180324e-01 2.611790e-01 8.812841e-01 1.638986e+00 3.916537e-01 6.641255e-01 2.082815e+00 1.935213e+00 2.098526e+00 3.445911e-01 5.000000e-02 5.000000e-02 6.229549e-02 6.226207e-02 9.654610e-02 1.398847e-01 1.769811e-01 1.851663e-01 9.753893e-02 1.230999e-01 2.719493e-01 2.179945e-01 1.692603e-01 5.000000e-02
<GCONST> 5.002329e+01
<STATE> 36
<MEAN> 39
 -5.130570e+00 -1.278274e+01 -2.675868e+00 1.517783e-01 2.677336e+00 -3.792012e+00 4.595373e-01 3.065023e-01 6.510820e+00 -4.000301e+00 2.020450e-01 -1.367034e+00 -9.193206e-03 1.922511e-01 1.179049e+00 6.173016e-01 -8.128595e-01 -6.795514e-02 -3.163394e-01 -7.605956e-02 -4.052742e-01 -5.721967e-02 8.156111e-01 4.785703e-01 -6.529384e-02 5.111945e-03 2.248317e-01 -2.023230e-01 -2.698614e-01 1.184044e-01 -6.144530e-02 -1.888134e-01 2.148795e-01 6.724808e-02 -5.054194e-01 -2.468588e-01 3.186440e-01 2.395700e-01 1.635695e-02
<VARIANCE> 39
 3.412294e-01 1.277585e+00 3.415227e+00 3.351725e+00 4.821400e+00 2.273060e+01 2.513554e+00 4.966322e+00 3.338325e+00 1.102663e+01 1.277242e+01 2.687419e+00 5.000000e-02 3.404562e-01 7.890308e-01 1.104231e+00 2.315153e-01 5.728299e-01 1.845875e-01 4.283445e-01 2.295443e-01 7.414246e-02 4.442023e-01 5.000000e-02 7.028937e-01 5.000000e-02 5.000000e-02 7.747954e-02 1.210788e-01 7.076617e-02 1.469507e-01 4.175856e-01 5.772481e-02 5.000000e-02 2.298398e-01 2.847770e-01 4.423133e-01 8.977982e-02 5.000000e-02
<GCONST> 3.974966e+01
<TRANSP> 37
 0.000000e+00 1.000000e+00 0.000000e+00 0.000000e+00 0.000000e+00 0.000000e+00 0.000000e+00 0.000000e+00 0.000000e+00 0.000000e+00 0.000000e+00 0.000000e+00 0.000000e+00 0.000000e+00 0.000000e+00 0.000000e+00 0.000000e+00 0.000000e+00 0.000000e+00 0.000000e+00 0.000000e+00 0.000000e+00 0.000000e+00 0.000000e+00 0.000000e+00 0.000000e+00 0.000000e+00 0.000000e+00 0.000000e+00 0.000000e+00 0.000000e+00 0.000000e+00 0.000000e+00 0.000000e+00 0.000000e+00 0.000000e+00 0.000000e+00
 0.000000e+00 4.478183e-01 5.521817e-01 0.000000e+00 0.000000e+00 0.000000e+00 0.000000e+00 0.000000e+00 0.000000e+00 0.000000e+00 0.000000e+00 0.000000e+00 0.000000e+00 0.000000e+00 0.000000e+00 0.000000e+00 0.000000e+00 0.000000e+00 0.000000e+00 0.000000e+00 0.000000e+00 0.000000e+00 0.000000e+00 0.000000e+00 0.000000e+00 0.000000e+00 0.000000e+00 0.000000e+00 0.000000e+00 0.000000e+00 0.000000e+00 0.000000e+00 0.000000e+00 0.000000e+00 0.000000e+00 0.000000e+00 0.000000e+00
 0.000000e+00 0.000000e+00 4.177182e-01 5.822818e-01 0.000000e+00 0.000000e+00 0.000000e+00 0.000000e+00 0.000000e+00 0.000000e+00 0.000000e+00 0.000000e+00 0.000000e+00 0.000000e+00 0.000000e+00 0.000000e+00 0.000000e+00 0.000000e+00 0.000000e+00 0.000000e+00 0.000000e+00 0.000000e+00 0.000000e+00 0.000000e+00 0.000000e+00 0.000000e+00 0.000000e+00 0.000000e+00 0.000000e+00 0.000000e+00 0.000000e+00 0.000000e+00 0.000000e+00 0.000000e+00 0.000000e+00 0.000000e+00 0.000000e+00
 0.000000e+00 0.000000e+00 0.000000e+00 4.075502e-01 5.924498e-01 0.000000e+00 0.000000e+00 0.000000e+00 0.000000e+00 0.000000e+00 0.000000e+00 0.000000e+00 0.000000e+00 0.000000e+00 0.000000e+00 0.000000e+00 0.000000e+00 0.000000e+00 0.000000e+00 0.000000e+00 0.000000e+00 0.000000e+00 0.000000e+00 0.000000e+00 0.000000e+00 0.000000e+00 0.000000e+00 0.000000e+00 0.000000e+00 0.000000e+00 0.000000e+00 0.000000e+00 0.000000e+00 0.000000e+00 0.000000e+00 0.000000e+00 0.000000e+00
 0.000000e+00 0.000000e+00 0.000000e+00 0.000000e+00 2.857150e-01 7.142850e-01 0.000000e+00 0.000000e+00 0.000000e+00 0.000000e+00 0.000000e+00 0.000000e+00 0.000000e+00 0.000000e+00 0.000000e+00 0.000000e+00 0.000000e+00 0.000000e+00 0.000000e+00 0.000000e+00 0.000000e+00 0.000000e+00 0.000000e+00 0.000000e+00 0.000000e+00 0.000000e+00 0.000000e+00 0.000000e+00 0.000000e+00 0.000000e+00 0.000000e+00 0.000000e+00 0.000000e+00 0.000000e+00 0.000000e+00 0.000000e+00 0.000000e+00
 0.000000e+00 0.000000e+00 0.000000e+00 0.000000e+00 0.000000e+00 4.986766e-01 5.013235e-01 0.000000e+00 0.000000e+00 0.000000e+00 0.000000e+00 0.000000e+00 0.000000e+00 0.000000e+00 0.000000e+00 0.000000e+00 0.000000e+00 0.000000e+00 0.000000e+00 0.000000e+00 0.000000e+00 0.000000e+00 0.000000e+00 0.000000e+00 0.000000e+00 0.000000e+00 0.000000e+00 0.000000e+00 0.000000e+00 0.000000e+00 0.000000e+00 0.000000e+00 0.000000e+00 0.000000e+00 0.000000e+00 0.000000e+00 0.000000e+00
 0.000000e+00 0.000000e+00 0.000000e+00 0.000000e+00 0.000000e+00 0.000000e+00 2.076938e-18 1.000000e+00 0.000000e+00 0.000000e+00 0.000000e+00 0.000000e+00 0.000000e+00 0.000000e+00 0.000000e+00 0.000000e+00 0.000000e+00 0.000000e+00 0.000000e+00 0.000000e+00 0.000000e+00 0.000000e+00 0.000000e+00 0.000000e+00 0.000000e+00 0.000000e+00 0.000000e+00 0.000000e+00 0.000000e+00 0.000000e+00 0.000000e+00 0.000000e+00 0.000000e+00 0.000000e+00 0.000000e+00 0.000000e+00 0.000000e+00
 0.000000e+00 0.000000e+00 0.000000e+00 0.000000e+00 0.000000e+00 0.000000e+00 0.000000e+00 2.860780e-01 7.139220e-01 0.000000e+00 0.000000e+00 0.000000e+00 0.000000e+00 0.000000e+00 0.000000e+00 0.000000e+00 0.000000e+00 0.000000e+00 0.000000e+00 0.000000e+00 0.000000e+00 0.000000e+00 0.000000e+00 0.000000e+00 0.000000e+00 0.000000e+00 0.000000e+00 0.000000e+00 0.000000e+00 0.000000e+00 0.000000e+00 0.000000e+00 0.000000e+00 0.000000e+00 0.000000e+00 0.000000e+00 0.000000e+00
 0.000000e+00 0.000000e+00 0.000000e+00 0.000000e+00 0.000000e+00 0.000000e+00 0.000000e+00 0.000000e+00 1.667621e-01 8.332379e-01 0.000000e+00 0.000000e+00 0.000000e+00 0.000000e+00 0.000000e+00 0.000000e+00 0.000000e+00 0.000000e+00 0.000000e+00 0.000000e+00 0.000000e+00 0.000000e+00 0.000000e+00 0.000000e+00 0.000000e+00 0.000000e+00 0.000000e+00 0.000000e+00 0.000000e+00 0.000000e+00 0.000000e+00 0.000000e+00 0.000000e+00 0.000000e+00 0.000000e+00 0.000000e+00 0.000000e+00
 0.000000e+00 0.000000e+00 0.000000e+00 0.000000e+00 0.000000e+00 0.000000e+00 0.000000e+00 0.000000e+00 0.000000e+00 2.863638e-01 7.136362e-01 0.000000e+00 0.000000e+00 0.000000e+00 0.000000e+00 0.000000e+00 0.000000e+00 0.000000e+00 0.000000e+00 0.000000e+00 0.000000e+00 0.000000e+00 0.000000e+00 0.000000e+00 0.000000e+00 0.000000e+00 0.000000e+00 0.000000e+00 0.000000e+00 0.000000e+00 0.000000e+00 0.000000e+00 0.000000e+00 0.000000e+00 0.000000e+00 0.000000e+00 0.000000e+00
 0.000000e+00 0.000000e+00 0.000000e+00 0.000000e+00 0.000000e+00 0.000000e+00 0.000000e+00 0.000000e+00 0.000000e+00 0.000000e+00 3.741667e-01 6.258333e-01 0.000000e+00 0.000000e+00 0.000000e+00 0.000000e+00 0.000000e+00 0.000000e+00 0.000000e+00 0.000000e+00 0.000000e+00 0.000000e+00 0.000000e+00 0.000000e+00 0.000000e+00 0.000000e+00 0.000000e+00 0.000000e+00 0.000000e+00 0.000000e+00 0.000000e+00 0.000000e+00 0.000000e+00 0.000000e+00 0.000000e+00 0.000000e+00 0.000000e+00
 0.000000e+00 0.000000e+00 0.000000e+00 0.000000e+00 0.000000e+00 0.000000e+00 0.000000e+00 0.000000e+00 0.000000e+00 0.000000e+00 0.000000e+00 4.444299e-01 5.555701e-01 0.000000e+00 0.000000e+00 0.000000e+00 0.000000e+00 0.000000e+00 0.000000e+00 0.000000e+00 0.000000e+00 0.000000e+00 0.000000e+00 0.000000e+00 0.000000e+00 0.000000e+00 0.000000e+00 0.000000e+00 0.000000e+00 0.000000e+00 0.000000e+00 0.000000e+00 0.000000e+00 0.000000e+00 0.000000e+00 0.000000e+00 0.000000e+00
 0.000000e+00 0.000000e+00 0.000000e+00 0.000000e+00 0.000000e+00 0.000000e+00 0.000000e+00 0.000000e+00 0.000000e+00 0.000000e+00 0.000000e+00 0.000000e+00 4.993702e-01 5.006298e-01 0.000000e+00 0.000000e+00 0.000000e+00 0.000000e+00 0.000000e+00 0.000000e+00 0.000000e+00 0.000000e+00 0.000000e+00 0.000000e+00 0.000000e+00 0.000000e+00 0.000000e+00 0.000000e+00 0.000000e+00 0.000000e+00 0.000000e+00 0.000000e+00 0.000000e+00 0.000000e+00 0.000000e+00 0.000000e+00 0.000000e+00
 0.000000e+00 0.000000e+00 0.000000e+00 0.000000e+00 0.000000e+00 0.000000e+00 0.000000e+00 0.000000e+00 0.000000e+00 0.000000e+00 0.000000e+00 0.000000e+00 0.000000e+00 3.760738e-01 6.239262e-01 0.000000e+00 0.000000e+00 0.000000e+00 0.000000e+00 0.000000e+00 0.000000e+00 0.000000e+00 0.000000e+00 0.000000e+00 0.000000e+00 0.000000e+00 0.000000e+00 0.000000e+00 0.000000e+00 0.000000e+00 0.000000e+00 0.000000e+00 0.000000e+00 0.000000e+00 0.000000e+00 0.000000e+00 0.000000e+00
 0.000000e+00 0.000000e+00 0.000000e+00 0.000000e+00 0.000000e+00 0.000000e+00 0.000000e+00 0.000000e+00 0.000000e+00 0.000000e+00 0.000000e+00 0.000000e+00 0.000000e+00 0.000000e+00 5.832725e-01 4.167275e-01 0.000000e+00 0.000000e+00 0.000000e+00 0.000000e+00 0.000000e+00 0.000000e+00 0.000000e+00 0.000000e+00 0.000000e+00 0.000000e+00 0.000000e+00 0.000000e+00 0.000000e+00 0.000000e+00 0.000000e+00 0.000000e+00 0.000000e+00 0.000000e+00 0.000000e+00 0.000000e+00 0.000000e+00
 0.000000e+00 0.000000e+00 0.000000e+00 0.000000e+00 0.000000e+00 0.000000e+00 0.000000e+00 0.000000e+00 0.000000e+00 0.000000e+00 0.000000e+00 0.000000e+00 0.000000e+00 0.000000e+00 0.000000e+00 4.444942e-01 5.555058e-01 0.000000e+00 0.000000e+00 0.000000e+00 0.000000e+00 0.000000e+00 0.000000e+00 0.000000e+00 0.000000e+00 0.000000e+00 0.000000e+00 0.000000e+00 0.000000e+00 0.000000e+00 0.000000e+00 0.000000e+00 0.000000e+00 0.000000e+00 0.000000e+00 0.000000e+00 0.000000e+00
 0.000000e+00 0.000000e+00 0.000000e+00 0.000000e+00 0.000000e+00 0.000000e+00 0.000000e+00 0.000000e+00 0.000000e+00 0.000000e+00 0.000000e+00 0.000000e+00 0.000000e+00 0.000000e+00 0.000000e+00 0.000000e+00 0.000000e+00 1.000000e+00 0.000000e+00 0.000000e+00 0.000000e+00 0.000000e+00 0.000000e+00 0.000000e+00 0.000000e+00 0.000000e+00 0.000000e+00 0.000000e+00 0.000000e+00 0.000000e+00 0.000000e+00 0.000000e+00 0.000000e+00 0.000000e+00 0.000000e+00 0.000000e+00 0.000000e+00
 0.000000e+00 0.000000e+00 0.000000e+00 0.000000e+00 0.000000e+00 0.000000e+00 0.000000e+00 0.000000e+00 0.000000e+00 0.000000e+00 0.000000e+00 0.000000e+00 0.000000e+00 0.000000e+00 0.000000e+00 0.000000e+00 0.000000e+00 1.666669e-01 8.333331e-01 0.000000e+00 0.000000e+00 0.000000e+00 0.000000e+00 0.000000e+00 0.000000e+00 0.000000e+00 0.000000e+00 0.000000e+00 0.000000e+00 0.000000e+00 0.000000e+00 0.000000e+00 0.000000e+00 0.000000e+00 0.000000e+00 0.000000e+00 0.000000e+00
 0.000000e+00 0.000000e+00 0.000000e+00 0.000000e+00 0.000000e+00 0.000000e+00 0.000000e+00 0.000000e+00 0.000000e+00 0.000000e+00 0.000000e+00 0.000000e+00 0.000000e+00 0.000000e+00 0.000000e+00 0.000000e+00 0.000000e+00 0.000000e+00 3.751447e-01 6.248553e-01 0.000000e+00 0.000000e+00 0.000000e+00 0.000000e+00 0.000000e+00 0.000000e+00 0.000000e+00 0.000000e+00 0.000000e+00 0.000000e+00 0.000000e+00 0.000000e+00 0.000000e+00 0.000000e+00 0.000000e+00 0.000000e+00 0.000000e+00
 0.000000e+00 0.000000e+00 0.000000e+00 0.000000e+00 0.000000e+00 0.000000e+00 0.000000e+00 0.000000e+00 0.000000e+00 0.000000e+00 0.000000e+00 0.000000e+00 0.000000e+00 0.000000e+00 0.000000e+00 0.000000e+00 0.000000e+00 0.000000e+00 0.000000e+00 5.453525e-01 4.546475e-01 0.000000e+00 0.000000e+00 0.000000e+00 0.000000e+00 0.000000e+00 0.000000e+00 0.000000e+00 0.000000e+00 0.000000e+00 0.000000e+00 0.000000e+00 0.000000e+00 0.000000e+00 0.000000e+00 0.000000e+00 0.000000e+00
 0.000000e+00 0.000000e+00 0.000000e+00 0.000000e+00 0.000000e+00 0.000000e+00 0.000000e+00 0.000000e+00 0.000000e+00 0.000000e+00 0.000000e+00 0.000000e+00 0.000000e+00 0.000000e+00 0.000000e+00 0.000000e+00 0.000000e+00 0.000000e+00 0.000000e+00 0.000000e+00 1.672971e-01 8.327028e-01 0.000000e+00 0.000000e+00 0.000000e+00 0.000000e+00 0.000000e+00 0.000000e+00 0.000000e+00 0.000000e+00 0.000000e+00 0.000000e+00 0.000000e+00 0.000000e+00 0.000000e+00 0.000000e+00 0.000000e+00
 0.000000e+00 0.000000e+00 0.000000e+00 0.000000e+00 0.000000e+00 0.000000e+00 0.000000e+00 0.000000e+00 0.000000e+00 0.000000e+00 0.000000e+00 0.000000e+00 0.000000e+00 0.000000e+00 0.000000e+00 0.000000e+00 0.000000e+00 0.000000e+00 0.000000e+00 0.000000e+00 0.000000e+00 4.442019e-01 5.557981e-01 0.000000e+00 0.000000e+00 0.000000e+00 0.000000e+00 0.000000e+00 0.000000e+00 0.000000e+00 0.000000e+00 0.000000e+00 0.000000e+00 0.000000e+00 0.000000e+00 0.000000e+00 0.000000e+00
 0.000000e+00 0.000000e+00 0.000000e+00 0.000000e+00 0.000000e+00 0.000000e+00 0.000000e+00 0.000000e+00 0.000000e+00 0.000000e+00 0.000000e+00 0.000000e+00 0.000000e+00 0.000000e+00 0.000000e+00 0.000000e+00 0.000000e+00 0.000000e+00 0.000000e+00 0.000000e+00 0.000000e+00 0.000000e+00 3.750668e-01 6.249332e-01 0.000000e+00 0.000000e+00 0.000000e+00 0.000000e+00 0.000000e+00 0.000000e+00 0.000000e+00 0.000000e+00 0.000000e+00 0.000000e+00 0.000000e+00 0.000000e+00 0.000000e+00
 0.000000e+00 0.000000e+00 0.000000e+00 0.000000e+00 0.000000e+00 0.000000e+00 0.000000e+00 0.000000e+00 0.000000e+00 0.000000e+00 0.000000e+00 0.000000e+00 0.000000e+00 0.000000e+00 0.000000e+00 0.000000e+00 0.000000e+00 0.000000e+00 0.000000e+00 0.000000e+00 0.000000e+00 0.000000e+00 0.000000e+00 4.998952e-01 5.001048e-01 0.000000e+00 0.000000e+00 0.000000e+00 0.000000e+00 0.000000e+00 0.000000e+00 0.000000e+00 0.000000e+00 0.000000e+00 0.000000e+00 0.000000e+00 0.000000e+00
 0.000000e+00 0.000000e+00 0.000000e+00 0.000000e+00 0.000000e+00 0.000000e+00 0.000000e+00 0.000000e+00 0.000000e+00 0.000000e+00 0.000000e+00 0.000000e+00 0.000000e+00 0.000000e+00 0.000000e+00 0.000000e+00 0.000000e+00 0.000000e+00 0.000000e+00 0.000000e+00 0.000000e+00 0.000000e+00 0.000000e+00 0.000000e+00 2.858372e-01 7.141628e-01 0.000000e+00 0.000000e+00 0.000000e+00 0.000000e+00 0.000000e+00 0.000000e+00 0.000000e+00 0.000000e+00 0.000000e+00 0.000000e+00 0.000000e+00
 0.000000e+00 0.000000e+00 0.000000e+00 0.000000e+00 0.000000e+00 0.000000e+00 0.000000e+00 0.000000e+00 0.000000e+00 0.000000e+00 0.000000e+00 0.000000e+00 0.000000e+00 0.000000e+00 0.000000e+00 0.000000e+00 0.000000e+00 0.000000e+00 0.000000e+00 0.000000e+00 0.000000e+00 0.000000e+00 0.000000e+00 0.000000e+00 0.000000e+00 2.857224e-01 7.142776e-01 0.000000e+00 0.000000e+00 0.000000e+00 0.000000e+00 0.000000e+00 0.000000e+00 0.000000e+00 0.000000e+00 0.000000e+00 0.000000e+00
 0.000000e+00 0.000000e+00 0.000000e+00 0.000000e+00 0.000000e+00 0.000000e+00 0.000000e+00 0.000000e+00 0.000000e+00 0.000000e+00 0.000000e+00 0.000000e+00 0.000000e+00 0.000000e+00 0.000000e+00 0.000000e+00 0.000000e+00 0.000000e+00 0.000000e+00 0.000000e+00 0.000000e+00 0.000000e+00 0.000000e+00 0.000000e+00 0.000000e+00 0.000000e+00 4.999984e-01 5.000016e-01 0.000000e+00 0.000000e+00 0.000000e+00 0.000000e+00 0.000000e+00 0.000000e+00 0.000000e+00 0.000000e+00 0.000000e+00
 0.000000e+00 0.000000e+00 0.000000e+00 0.000000e+00 0.000000e+00 0.000000e+00 0.000000e+00 0.000000e+00 0.000000e+00 0.000000e+00 0.000000e+00 0.000000e+00 0.000000e+00 0.000000e+00 0.000000e+00 0.000000e+00 0.000000e+00 0.000000e+00 0.000000e+00 0.000000e+00 0.000000e+00 0.000000e+00 0.000000e+00 0.000000e+00 0.000000e+00 0.000000e+00 0.000000e+00 3.352243e-14 1.000000e+00 0.000000e+00 0.000000e+00 0.000000e+00 0.000000e+00 0.000000e+00 0.000000e+00 0.000000e+00 0.000000e+00
 0.000000e+00 0.000000e+00 0.000000e+00 0.000000e+00 0.000000e+00 0.000000e+00 0.000000e+00 0.000000e+00 0.000000e+00 0.000000e+00 0.000000e+00 0.000000e+00 0.000000e+00 0.000000e+00 0.000000e+00 0.000000e+00 0.000000e+00 0.000000e+00 0.000000e+00 0.000000e+00 0.000000e+00 0.000000e+00 0.000000e+00 0.000000e+00 0.000000e+00 0.000000e+00 0.000000e+00 0.000000e+00 4.999156e-01 5.000843e-01 0.000000e+00 0.000000e+00 0.000000e+00 0.000000e+00 0.000000e+00 0.000000e+00 0.000000e+00
 0.000000e+00 0.000000e+00 0.000000e+00 0.000000e+00 0.000000e+00 0.000000e+00 0.000000e+00 0.000000e+00 0.000000e+00 0.000000e+00 0.000000e+00 0.000000e+00 0.000000e+00 0.000000e+00 0.000000e+00 0.000000e+00 0.000000e+00 0.000000e+00 0.000000e+00 0.000000e+00 0.000000e+00 0.000000e+00 0.000000e+00 0.000000e+00 0.000000e+00 0.000000e+00 0.000000e+00 0.000000e+00 0.000000e+00 1.767433e-01 8.232568e-01 0.000000e+00 0.000000e+00 0.000000e+00 0.000000e+00 0.000000e+00 0.000000e+00
 0.000000e+00 0.000000e+00 0.000000e+00 0.000000e+00 0.000000e+00 0.000000e+00 0.000000e+00 0.000000e+00 0.000000e+00 0.000000e+00 0.000000e+00 0.000000e+00 0.000000e+00 0.000000e+00 0.000000e+00 0.000000e+00 0.000000e+00 0.000000e+00 0.000000e+00 0.000000e+00 0.000000e+00 0.000000e+00 0.000000e+00 0.000000e+00 0.000000e+00 0.000000e+00 0.000000e+00 0.000000e+00 0.000000e+00 0.000000e+00 4.963004e-01 5.036997e-01 0.000000e+00 0.000000e+00 0.000000e+00 0.000000e+00 0.000000e+00
 0.000000e+00 0.000000e+00 0.000000e+00 0.000000e+00 0.000000e+00 0.000000e+00 0.000000e+00 0.000000e+00 0.000000e+00 0.000000e+00 0.000000e+00 0.000000e+00 0.000000e+00 0.000000e+00 0.000000e+00 0.000000e+00 0.000000e+00 0.000000e+00 0.000000e+00 0.000000e+00 0.000000e+00 0.000000e+00 0.000000e+00 0.000000e+00 0.000000e+00 0.000000e+00 0.000000e+00 0.000000e+00 0.000000e+00 0.000000e+00 0.000000e+00 3.768289e-01 6.231711e-01 0.000000e+00 0.000000e+00 0.000000e+00 0.000000e+00
 0.000000e+00 0.000000e+00 0.000000e+00 0.000000e+00 0.000000e+00 0.000000e+00 0.000000e+00 0.000000e+00 0.000000e+00 0.000000e+00 0.000000e+00 0.000000e+00 0.000000e+00 0.000000e+00 0.000000e+00 0.000000e+00 0.000000e+00 0.000000e+00 0.000000e+00 0.000000e+00 0.000000e+00 0.000000e+00 0.000000e+00 0.000000e+00 0.000000e+00 0.000000e+00 0.000000e+00 0.000000e+00 0.000000e+00 0.000000e+00 0.000000e+00 0.000000e+00 2.834852e-01 7.165148e-01 0.000000e+00 0.000000e+00 0.000000e+00
 0.000000e+00 0.000000e+00 0.000000e+00 0.000000e+00 0.000000e+00 0.000000e+00 0.000000e+00 0.000000e+00 0.000000e+00 0.000000e+00 0.000000e+00 0.000000e+00 0.000000e+00 0.000000e+00 0.000000e+00 0.000000e+00 0.000000e+00 0.000000e+00 0.000000e+00 0.000000e+00 0.000000e+00 0.000000e+00 0.000000e+00 0.000000e+00 0.000000e+00 0.000000e+00 0.000000e+00 0.000000e+00 0.000000e+00 0.000000e+00 0.000000e+00 0.000000e+00 0.000000e+00 4.444430e-01 5.555570e-01 0.000000e+00 0.000000e+00
 0.000000e+00 0.000000e+00 0.000000e+00 0.000000e+00 0.000000e+00 0.000000e+00 0.000000e+00 0.000000e+00 0.000000e+00 0.000000e+00 0.000000e+00 0.000000e+00 0.000000e+00 0.000000e+00 0.000000e+00 0.000000e+00 0.000000e+00 0.000000e+00 0.000000e+00 0.000000e+00 0.000000e+00 0.000000e+00 0.000000e+00 0.000000e+00 0.000000e+00 0.000000e+00 0.000000e+00 0.000000e+00 0.000000e+00 0.000000e+00 0.000000e+00 0.000000e+00 0.000000e+00 0.000000e+00 2.857146e-01 7.142854e-01 0.000000e+00
 0.000000e+00 0.000000e+00 0.000000e+00 0.000000e+00 0.000000e+00 0.000000e+00 0.000000e+00 0.000000e+00 0.000000e+00 0.000000e+00 0.000000e+00 0.000000e+00 0.000000e+00 0.000000e+00 0.000000e+00 0.000000e+00 0.000000e+00 0.000000e+00 0.000000e+00 0.000000e+00 0.000000e+00 0.000000e+00 0.000000e+00 0.000000e+00 0.000000e+00 0.000000e+00 0.000000e+00 0.000000e+00 0.000000e+00 0.000000e+00 0.000000e+00 0.000000e+00 0.000000e+00 0.000000e+00 0.000000e+00 0.000000e+00 1.000000e+00
 0.000000e+00 0.000000e+00 0.000000e+00 0.000000e+00 0.000000e+00 0.000000e+00 0.000000e+00 0.000000e+00 0.000000e+00 0.000000e+00 0.000000e+00 0.000000e+00 0.000000e+00 0.000000e+00 0.000000e+00 0.000000e+00 0.000000e+00 0.000000e+00 0.000000e+00 0.000000e+00 0.000000e+00 0.000000e+00 0.000000e+00 0.000000e+00 0.000000e+00 0.000000e+00 0.000000e+00 0.000000e+00 0.000000e+00 0.000000e+00 0.000000e+00 0.000000e+00 0.000000e+00 0.000000e+00 0.000000e+00 0.000000e+00 0.000000e+00
<ENDHMM>
