~o
<STREAMINFO> 1 39
<VECSIZE> 39<NULLD><MFCC_E_D_A><DIAGC>
~h "Sau"
<BEGINHMM>
<NUMSTATES> 5
<STATE> 2
<MEAN> 39
 -1.330191e+01 -5.916348e+00 -1.559889e+01 1.094149e+00 -1.997635e+00 -3.517339e+00 4.628183e+00 -1.894446e+00 2.605292e+00 -6.665015e+00 6.417464e-01 -2.104279e+00 3.705157e-01 2.746092e-01 -1.322397e+00 -1.211690e+00 3.780028e-02 3.793527e-01 -3.378170e-02 2.839797e-01 -6.660233e-01 2.828039e-01 -3.061658e-01 -4.935351e-01 1.021907e-01 6.573682e-02 8.650459e-02 -1.857092e-01 1.357092e-01 -8.746253e-04 1.347881e-01 3.804797e-02 -1.341717e-01 -1.493005e-01 7.688266e-03 1.279132e-01 9.406094e-02 -4.556918e-03 1.756841e-04
<VARIANCE> 39
 6.706907e+01 1.245628e+02 6.861260e+01 7.651269e+01 3.940276e+01 3.051139e+01 3.998482e+01 5.946867e+01 2.576510e+01 3.019594e+01 4.490721e+01 1.238103e+01 1.110505e-01 8.435785e+00 9.139475e+00 6.426842e+00 7.364192e+00 3.735321e+00 2.619076e+00 3.911538e+00 7.381258e+00 1.664231e+00 3.146794e+00 5.665569e+00 1.223178e+00 5.000000e-02 1.334573e+00 9.839045e-01 1.430116e+00 1.398100e+00 6.371534e-01 5.358642e-01 9.029036e-01 1.657947e+00 2.822681e-01 6.002544e-01 1.245136e+00 2.343939e-01 5.000000e-02
<GCONST> 1.236524e+02
<STATE> 3
<MEAN> 39
 -5.415877e-01 -2.591494e+01 -1.805194e+01 -1.181819e+01 6.939857e+00 3.660384e+00 1.795947e+00 -7.055237e+00 3.006954e+00 -3.251499e+00 -4.653472e+00 -5.890196e+00 8.691756e-01 3.232633e-01 1.078880e-01 1.136580e-01 -2.513345e-01 -4.125956e-02 1.401688e-01 -2.847573e-01 2.131480e-01 -1.185690e-01 1.839365e-01 -6.050128e-02 -9.203614e-02 -1.547037e-02 8.346977e-03 7.202291e-02 -2.344222e-02 2.268240e-02 -2.813584e-02 -7.030866e-02 4.003966e-02 3.757054e-02 -2.926698e-02 -7.412130e-02 -2.059521e-02 2.666800e-02 -2.211842e-03
<VARIANCE> 39
 2.014994e+01 7.337619e+00 1.549009e+01 7.423287e+01 1.957540e+01 2.573204e+01 2.139589e+01 3.795508e+01 3.733464e+01 2.753555e+01 1.961788e+01 1.673793e+01 5.000000e-02 5.756544e-01 7.020049e-01 8.325833e-01 4.108143e+00 1.591405e+00 1.749672e+00 1.799017e+00 2.570429e+00 2.461589e+00 1.957676e+00 1.317012e+00 1.392386e+00 5.000000e-02 9.288536e-02 1.279797e-01 1.248395e-01 5.428784e-01 2.625768e-01 2.357626e-01 3.239430e-01 4.176494e-01 4.325709e-01 3.624611e-01 2.517649e-01 2.484231e-01 5.000000e-02
<GCONST> 8.891171e+01
<STATE> 4
<MEAN> 39
 1.155914e+00 -1.936159e+01 -1.622057e+01 -5.228680e+00 5.301297e+00 -9.140245e-01 2.011162e-01 -4.013402e+00 1.199549e+00 -2.924552e+00 -1.768469e+00 -3.982155e+00 2.762341e-01 -4.514337e-01 4.635478e-01 5.147164e-01 1.639687e-01 1.101525e-01 3.381203e-02 1.235551e-01 4.852517e-02 -8.128340e-02 4.431398e-02 2.293406e-01 1.444470e-01 -2.413273e-02 -4.531768e-02 2.022540e-02 9.470335e-02 -7.653725e-02 -4.553066e-02 4.141151e-02 3.132094e-02 5.105290e-02 1.799369e-02 1.077509e-02 -3.792191e-02 2.230577e-02 2.215143e-04
<VARIANCE> 39
 8.019307e+00 9.634971e+00 1.679900e+01 1.126018e+01 6.485323e+00 1.015165e+01 1.029775e+01 1.022885e+01 1.260585e+01 9.256974e+00 9.831140e+00 7.107770e+00 5.000000e-02 2.457446e-01 7.384002e-01 1.322325e+00 6.839243e-01 6.037980e-01 1.041217e+00 1.238131e+00 1.178140e+00 1.357680e+00 1.032308e+00 9.308468e-01 6.253333e-01 5.000000e-02 5.000000e-02 1.289023e-01 2.100421e-01 2.247863e-01 1.283035e-01 2.043214e-01 2.709889e-01 2.476508e-01 2.938668e-01 2.150702e-01 1.908055e-01 1.054119e-01 5.000000e-02
<GCONST> 6.692493e+01
<TRANSP> 5
 0.000000e+00 1.000000e+00 0.000000e+00 0.000000e+00 0.000000e+00
 0.000000e+00 9.334317e-01 6.656833e-02 0.000000e+00 0.000000e+00
 0.000000e+00 0.000000e+00 9.648013e-01 3.519876e-02 0.000000e+00
 0.000000e+00 0.000000e+00 0.000000e+00 9.498734e-01 5.012657e-02
 0.000000e+00 0.000000e+00 0.000000e+00 0.000000e+00 0.000000e+00
<ENDHMM>
