~o
<STREAMINFO> 1 39
<VECSIZE> 39<NULLD><MFCC_E_D_A><DIAGC>
~h "Sil"
<BEGINHMM>
<NUMSTATES> 26
<STATE> 2
<MEAN> 39
 -6.107774e+00 -1.009159e+01 -2.761898e+00 -2.019961e+00 1.604058e+00 -3.586331e+00 1.907429e+00 -1.651143e+00 5.472386e-01 -3.177292e+00 1.788892e+00 -1.468018e+00 -3.562259e-02 9.489954e-02 2.707753e-01 2.565082e-01 7.802854e-02 4.236383e-02 -6.417294e-02 -1.174880e-01 -7.641116e-02 -2.096734e-02 -2.557733e-02 3.068516e-02 -3.096042e-02 3.559270e-03 6.873152e-02 1.658905e-02 4.185851e-02 -6.801168e-03 -7.516265e-03 -2.965247e-03 -2.073539e-03 -7.549183e-03 1.520680e-02 3.423342e-02 1.788522e-02 -1.722528e-02 3.034940e-03
<VARIANCE> 39
 2.731606e+00 5.914691e+00 8.445748e+00 6.479820e+00 9.768124e+00 1.150086e+01 1.060240e+01 1.180219e+01 1.396477e+01 1.344527e+01 1.077961e+01 1.149594e+01 5.000000e-02 3.237482e-01 5.018306e-01 6.472992e-01 6.754106e-01 8.384375e-01 1.140958e+00 1.038976e+00 1.166617e+00 1.308674e+00 1.313980e+00 1.187088e+00 1.172886e+00 5.000000e-02 5.000000e-02 8.646319e-02 9.440991e-02 1.224215e-01 1.410795e-01 2.023251e-01 1.665256e-01 2.039516e-01 2.307585e-01 2.203743e-01 2.058156e-01 2.013695e-01 5.000000e-02
<GCONST> 6.445162e+01
<STATE> 3
<MEAN> 39
 -4.519657e+00 -7.960894e+00 -3.400781e-01 -1.805842e+00 1.415668e+00 -4.284305e+00 1.056329e+00 -2.685899e+00 5.869502e-01 -2.448442e+00 2.436196e+00 -2.147911e+00 3.926013e-02 -1.063461e-01 -1.128856e-01 -3.770521e-02 3.034817e-03 -1.933696e-02 5.381851e-02 1.265727e-02 2.643736e-02 -2.881511e-02 5.529361e-02 -2.031764e-02 -4.127246e-02 -4.671815e-03 -1.458986e-01 -1.404409e-01 -1.537548e-01 -2.928251e-02 -3.613887e-02 3.678131e-02 7.992136e-02 9.975084e-02 2.883145e-02 -1.560221e-02 -2.536725e-02 4.220286e-02 -5.562790e-03
<VARIANCE> 39
 1.869238e+00 2.903040e+00 4.803915e+00 5.104523e+00 6.707458e+00 7.556557e+00 8.184606e+00 9.492378e+00 1.101864e+01 1.034635e+01 8.957307e+00 9.571348e+00 5.000000e-02 2.652456e-01 3.507785e-01 5.190648e-01 5.679372e-01 6.848058e-01 7.979569e-01 9.921637e-01 1.013203e+00 1.116451e+00 1.068797e+00 1.070052e+00 9.711815e-01 5.000000e-02 5.000000e-02 6.627306e-02 9.632222e-02 1.238128e-01 1.416460e-01 1.652807e-01 2.037137e-01 2.024882e-01 2.255201e-01 2.309127e-01 2.218560e-01 2.140806e-01 5.000000e-02
<GCONST> 5.798302e+01
<STATE> 4
<MEAN> 39
 -6.873240e+00 -1.011274e+01 -2.282538e+00 -1.774236e+00 1.153587e+00 -3.593446e+00 2.169097e+00 -1.345313e+00 1.002226e+00 -2.809824e+00 1.766304e+00 -1.518559e+00 -6.850456e-02 -3.373396e-01 -1.891036e-01 -2.316390e-01 5.756786e-03 -2.930334e-02 1.047878e-01 1.950708e-01 2.642033e-01 2.058903e-01 8.912665e-02 5.220549e-02 1.015533e-01 -1.127177e-02 1.351488e-01 1.342857e-01 1.089233e-01 -9.630270e-03 1.191884e-02 -8.431653e-02 -9.749135e-02 -1.017191e-01 -2.294766e-02 1.313545e-02 3.519612e-02 -2.008959e-02 5.674329e-03
<VARIANCE> 39
 1.553639e+00 2.905089e+00 4.503019e+00 5.930083e+00 8.255918e+00 1.013550e+01 9.916571e+00 1.215702e+01 1.346515e+01 1.090814e+01 9.699012e+00 9.798027e+00 5.000000e-02 1.935667e-01 2.417625e-01 4.179006e-01 6.231999e-01 7.388516e-01 8.971508e-01 9.862109e-01 1.146224e+00 1.316624e+00 1.160260e+00 9.771437e-01 1.030547e+00 5.000000e-02 5.000000e-02 5.000000e-02 7.922182e-02 1.230550e-01 1.590154e-01 1.897572e-01 2.147091e-01 2.414794e-01 2.846499e-01 2.417249e-01 1.983860e-01 2.102216e-01 5.000000e-02
<GCONST> 5.904362e+01
<STATE> 5
<MEAN> 39
 -7.370577e+00 -1.049372e+01 -2.951320e+00 -2.267107e+00 9.560136e-01 -3.741443e+00 2.255092e+00 -9.197045e-01 1.723254e+00 -2.011349e+00 2.296639e+00 -1.089065e+00 -7.466155e-02 4.200037e-01 5.071990e-01 4.284146e-01 -5.295299e-02 -3.189915e-02 -4.196036e-01 -4.756965e-01 -4.327323e-01 -2.790079e-01 -8.070510e-02 7.070542e-02 -4.336132e-02 1.524236e-02 2.659315e-01 2.335852e-01 2.577237e-01 6.875198e-02 5.880985e-02 -4.385830e-02 -9.139010e-02 -1.434857e-01 -9.617171e-02 -9.365763e-02 -5.565633e-02 -1.006299e-01 9.252511e-03
<VARIANCE> 39
 2.078120e+00 3.234251e+00 5.085533e+00 5.960088e+00 8.499978e+00 1.064414e+01 1.044777e+01 1.216681e+01 1.285898e+01 1.192347e+01 1.148356e+01 1.044927e+01 5.000000e-02 2.427084e-01 2.343390e-01 4.497420e-01 5.584193e-01 7.718433e-01 8.573118e-01 1.006550e+00 1.095831e+00 1.145599e+00 1.239012e+00 1.132779e+00 1.076403e+00 5.000000e-02 5.000000e-02 5.000000e-02 8.777668e-02 1.237306e-01 1.526924e-01 2.116293e-01 2.182465e-01 2.404791e-01 2.555430e-01 2.443100e-01 2.256438e-01 1.931789e-01 5.000000e-02
<GCONST> 6.036177e+01
<STATE> 6
<MEAN> 39
 -5.188977e+00 -8.169789e+00 -7.306021e-01 -2.241621e+00 1.062280e+00 -5.076064e+00 2.227524e-01 -2.956229e+00 3.988270e-01 -2.887292e+00 2.471092e+00 -1.502188e+00 1.497656e-04 6.417516e-01 6.551890e-01 6.887966e-01 2.044903e-01 2.086835e-01 1.063193e-03 -1.254243e-01 -2.316753e-01 -7.970349e-02 -1.141034e-01 -4.766576e-02 -2.455096e-01 2.564919e-02 -1.120973e-01 -1.510561e-01 -1.030916e-01 7.145671e-02 4.332764e-02 1.516047e-01 1.846103e-01 1.788956e-01 6.730699e-02 1.327605e-02 -6.689514e-02 -5.404297e-02 -4.111811e-03
<VARIANCE> 39
 1.935348e+00 2.431199e+00 4.134421e+00 5.495898e+00 6.333608e+00 7.532504e+00 8.834722e+00 9.476843e+00 1.021778e+01 1.192462e+01 1.194925e+01 9.825413e+00 5.000000e-02 2.227169e-01 2.392589e-01 4.336848e-01 5.359741e-01 7.177253e-01 9.437298e-01 1.017882e+00 1.181546e+00 1.135891e+00 1.237292e+00 1.102123e+00 9.368063e-01 5.000000e-02 5.000000e-02 5.000000e-02 8.013827e-02 1.196169e-01 1.503635e-01 1.666522e-01 1.879145e-01 2.176051e-01 2.092017e-01 2.605269e-01 2.557005e-01 2.384125e-01 5.000000e-02
<GCONST> 5.776982e+01
<STATE> 7
<MEAN> 39
 -4.323411e+00 -7.271888e+00 4.071272e-01 -1.187921e+00 1.717105e+00 -3.943326e+00 1.543039e+00 -2.168284e+00 1.211083e+00 -2.370840e+00 2.261591e+00 -2.419085e+00 4.506997e-02 -2.708828e-02 -1.407443e-01 -1.058945e-01 2.376311e-02 8.183363e-03 8.219620e-03 1.275270e-02 5.824635e-02 -1.058970e-01 -1.259722e-01 -1.231359e-01 -1.083500e-01 -2.334567e-03 -2.338892e-01 -2.406280e-01 -2.588292e-01 -9.363472e-02 -1.046050e-01 -5.471536e-02 -1.166704e-02 3.075398e-02 -4.114431e-02 -3.196540e-02 -1.249854e-03 8.788447e-02 -9.992871e-03
<VARIANCE> 39
 1.652937e+00 2.568760e+00 4.253567e+00 4.538248e+00 5.685799e+00 7.115881e+00 8.554211e+00 9.742419e+00 9.487255e+00 9.709295e+00 9.039437e+00 8.683841e+00 5.000000e-02 1.883536e-01 2.482055e-01 3.728527e-01 5.789797e-01 6.733018e-01 8.741647e-01 9.392288e-01 1.026996e+00 9.755591e-01 1.077732e+00 1.012573e+00 9.743108e-01 5.000000e-02 5.000000e-02 5.691801e-02 8.277799e-02 1.046299e-01 1.327379e-01 1.713481e-01 1.997174e-01 2.184095e-01 2.035203e-01 2.260264e-01 2.040333e-01 1.957527e-01 5.000000e-02
<GCONST> 5.515413e+01
<STATE> 8
<MEAN> 39
 -5.773547e+00 -9.150373e+00 -1.492049e+00 -1.916889e+00 1.231041e+00 -4.650588e+00 7.155023e-01 -2.542458e+00 -3.119422e-01 -3.687779e+00 1.413306e+00 -2.320047e+00 -2.770204e-02 -5.381042e-01 -4.400292e-01 -4.539855e-01 -7.916977e-02 -2.338044e-01 -8.219934e-02 9.195925e-02 1.577878e-01 -4.977535e-03 -4.321814e-03 9.328320e-03 1.577497e-01 -2.249750e-02 -5.220051e-02 3.524306e-02 2.077143e-02 1.304983e-02 -6.365946e-03 6.206444e-02 1.219414e-01 1.111664e-01 1.737730e-01 1.579753e-01 1.297804e-01 1.037045e-01 -8.667248e-05
<VARIANCE> 39
 1.707592e+00 2.331618e+00 3.565125e+00 4.972054e+00 7.246202e+00 8.632442e+00 8.322548e+00 9.827565e+00 1.100815e+01 9.048361e+00 9.709656e+00 8.379293e+00 5.000000e-02 1.823637e-01 2.623190e-01 4.075083e-01 5.089896e-01 7.334339e-01 7.984769e-01 9.065375e-01 1.153473e+00 1.187570e+00 1.137127e+00 1.158952e+00 9.781953e-01 5.000000e-02 5.000000e-02 5.000000e-02 6.586618e-02 1.104566e-01 1.477070e-01 1.673934e-01 1.672849e-01 2.268921e-01 2.318278e-01 2.190318e-01 2.254637e-01 1.928988e-01 5.000000e-02
<GCONST> 5.580796e+01
<STATE> 9
<MEAN> 39
 -7.265050e+00 -1.027025e+01 -2.806390e+00 -2.193092e+00 2.868142e-01 -4.636684e+00 1.942761e+00 -1.181046e+00 1.008317e+00 -2.415621e+00 2.206618e+00 -1.380389e+00 -8.129631e-02 -3.699151e-01 -1.394270e-01 -1.624462e-01 1.334610e-02 -5.982590e-02 1.703425e-01 4.630044e-01 5.023401e-01 4.845940e-01 4.405667e-01 3.399116e-01 3.275051e-01 -9.762364e-03 2.328480e-01 2.593150e-01 2.749690e-01 7.675398e-02 1.671611e-01 6.525191e-02 -5.054222e-02 -8.950926e-02 -2.978501e-02 -3.882568e-02 -3.710248e-02 -9.300098e-02 9.341146e-03
<VARIANCE> 39
 1.661724e+00 3.054617e+00 4.388202e+00 5.953318e+00 7.906363e+00 8.671858e+00 9.085521e+00 9.844250e+00 1.066502e+01 1.031339e+01 1.053226e+01 9.858499e+00 5.000000e-02 1.931061e-01 1.988642e-01 3.971404e-01 5.029364e-01 7.532175e-01 7.723774e-01 8.579918e-01 1.129976e+00 1.078788e+00 1.056261e+00 1.087154e+00 1.016353e+00 5.000000e-02 5.000000e-02 5.000000e-02 7.599203e-02 1.083701e-01 1.520576e-01 1.594976e-01 1.878424e-01 2.378692e-01 2.098842e-01 2.095029e-01 2.368211e-01 1.970026e-01 5.000000e-02
<GCONST> 5.662176e+01
<STATE> 10
<MEAN> 39
 -7.480110e+00 -9.783416e+00 -2.005324e+00 -1.565222e+00 1.094058e+00 -3.807994e+00 2.736090e+00 -1.118634e-01 2.181914e+00 -1.557773e+00 2.704379e+00 -1.129000e+00 -7.629903e-02 2.682783e-01 3.801059e-01 3.409424e-01 2.211365e-02 1.258075e-01 -4.283307e-02 -2.107279e-01 -2.981831e-01 -2.197385e-01 -1.481246e-01 -5.134657e-02 -1.254887e-01 9.704122e-03 2.250458e-01 1.355801e-01 1.137373e-01 -1.092670e-02 3.071368e-02 -6.876229e-02 -1.962024e-01 -2.659222e-01 -2.343665e-01 -1.834813e-01 -9.334019e-02 -1.110422e-01 6.797160e-03
<VARIANCE> 39
 1.817092e+00 2.737910e+00 4.409472e+00 5.007009e+00 8.711454e+00 9.714345e+00 1.024664e+01 1.153431e+01 1.072590e+01 1.029674e+01 1.103012e+01 1.013562e+01 5.000000e-02 2.621678e-01 2.739946e-01 4.028242e-01 5.449969e-01 7.630158e-01 9.954690e-01 1.094298e+00 1.231887e+00 1.256696e+00 1.179213e+00 1.160408e+00 9.502847e-01 5.000000e-02 5.000000e-02 5.000000e-02 8.253396e-02 1.012530e-01 1.701880e-01 2.062876e-01 2.242653e-01 2.432742e-01 2.314059e-01 2.285904e-01 2.434481e-01 2.171003e-01 5.000000e-02
<GCONST> 5.947221e+01
<STATE> 11
<MEAN> 39
 -5.406385e+00 -7.870951e+00 -5.558261e-01 -1.930429e+00 8.695478e-01 -5.187819e+00 2.718141e-01 -3.214939e+00 -2.263224e-01 -3.064586e+00 2.429678e+00 -1.857692e+00 -9.070338e-03 5.179989e-01 4.420858e-01 4.455798e-01 1.526737e-01 3.010854e-01 1.321954e-01 -7.788109e-02 -2.936102e-01 -2.990619e-01 -3.406771e-01 -2.109992e-01 -2.343349e-01 2.013162e-02 -8.490748e-02 -1.313384e-01 -8.745968e-02 4.397100e-02 3.712592e-02 1.204849e-01 1.990561e-01 2.326071e-01 1.405703e-01 6.527154e-02 -1.234041e-02 -7.694785e-04 -2.136239e-03
<VARIANCE> 39
 2.343898e+00 2.215855e+00 3.898616e+00 5.102918e+00 6.860345e+00 7.779822e+00 8.247506e+00 9.485580e+00 8.985337e+00 1.069047e+01 1.061465e+01 8.271386e+00 5.000000e-02 2.399553e-01 2.480598e-01 4.035368e-01 4.538729e-01 7.801871e-01 9.043362e-01 1.200670e+00 1.245318e+00 1.007851e+00 1.063785e+00 1.061172e+00 9.781243e-01 5.000000e-02 5.000000e-02 5.000000e-02 7.519978e-02 1.081265e-01 1.386677e-01 1.813755e-01 2.142028e-01 2.251025e-01 2.060163e-01 2.368209e-01 2.342809e-01 1.984067e-01 5.000000e-02
<GCONST> 5.673909e+01
<STATE> 12
<MEAN> 39
 -4.940403e+00 -7.498312e+00 1.406951e-01 -8.887932e-01 2.518524e+00 -3.063717e+00 2.364876e+00 -1.860832e+00 2.787107e-01 -3.527602e+00 1.449352e+00 -2.560638e+00 2.236446e-02 -1.154042e-02 -1.363640e-01 -1.139830e-01 -5.113370e-02 1.089992e-02 9.737843e-02 1.307331e-01 2.177030e-01 1.740544e-01 1.893151e-01 1.479516e-01 3.594833e-02 7.367592e-04 -1.701016e-01 -1.774695e-01 -1.877718e-01 -1.310931e-01 -2.217001e-01 -1.954776e-01 -1.353273e-01 1.260106e-02 8.622551e-02 1.618371e-01 1.592729e-01 1.141217e-01 -7.028942e-03
<VARIANCE> 39
 1.997387e+00 2.204486e+00 3.916351e+00 4.544043e+00 5.726377e+00 7.562230e+00 8.159995e+00 8.846860e+00 9.515717e+00 1.023058e+01 8.431680e+00 9.043438e+00 5.000000e-02 2.074119e-01 2.350938e-01 3.719379e-01 5.297581e-01 7.765583e-01 1.009162e+00 1.026595e+00 1.035221e+00 9.573712e-01 1.202302e+00 1.093125e+00 1.002967e+00 5.000000e-02 5.000000e-02 5.000000e-02 6.676132e-02 9.336016e-02 1.211394e-01 1.754183e-01 1.977997e-01 2.089620e-01 1.950204e-01 2.364610e-01 2.030953e-01 2.062364e-01 5.000000e-02
<GCONST> 5.505949e+01
<STATE> 13
<MEAN> 39
 -6.423315e+00 -9.210618e+00 -1.691787e+00 -1.937804e+00 8.209199e-01 -4.336339e+00 2.025980e+00 -9.881481e-01 8.673795e-01 -2.323749e+00 2.757131e+00 -1.641455e+00 -4.164909e-02 -1.174424e-02 -7.708648e-03 -4.057731e-03 -5.466074e-02 -1.466674e-01 -1.820204e-01 -1.806973e-01 -1.132277e-01 -1.154407e-02 6.739126e-02 1.025360e-01 3.165141e-02 -1.838616e-03 3.733157e-02 7.498908e-02 8.079335e-02 4.797285e-02 4.475324e-02 9.055247e-03 -3.335687e-02 -9.923288e-02 -6.240331e-02 -8.175755e-02 -9.184495e-02 -4.626729e-02 1.137736e-03
<VARIANCE> 39
 1.964715e+00 2.349216e+00 3.493941e+00 5.213904e+00 6.671406e+00 8.463433e+00 8.587070e+00 1.051428e+01 1.105068e+01 1.033293e+01 1.010431e+01 9.805641e+00 5.000000e-02 2.471108e-01 2.841815e-01 3.958086e-01 5.706657e-01 6.710213e-01 8.724377e-01 8.749448e-01 1.059550e+00 1.033040e+00 1.121684e+00 1.174859e+00 1.161789e+00 5.000000e-02 5.000000e-02 5.181517e-02 7.318267e-02 1.143552e-01 1.449129e-01 1.876766e-01 1.890483e-01 2.159179e-01 2.088320e-01 2.252292e-01 2.500256e-01 2.359552e-01 5.000000e-02
<GCONST> 5.726607e+01
<STATE> 14
<MEAN> 39
 -4.569314e+00 -7.272846e+00 4.714998e-01 -1.351882e+00 1.413672e+00 -4.730074e+00 4.653282e-01 -3.057326e+00 3.557828e-01 -2.578422e+00 2.635031e+00 -2.207828e+00 3.313753e-02 -7.585201e-02 -7.677536e-02 -5.973963e-02 -1.386288e-03 -2.782120e-02 1.396796e-03 -8.622109e-02 -1.509089e-01 -1.206919e-01 -1.755689e-01 -1.845575e-01 -8.353639e-02 -4.329134e-03 -1.798418e-01 -1.547157e-01 -1.802139e-01 -3.656358e-02 -2.648175e-02 7.153883e-02 1.457739e-01 1.500307e-01 3.226126e-02 -1.844843e-02 -3.388181e-02 5.153411e-02 -6.259376e-03
<VARIANCE> 39
 1.969341e+00 2.539701e+00 4.263380e+00 4.988838e+00 5.852987e+00 7.099859e+00 7.552617e+00 8.553449e+00 1.009867e+01 9.897176e+00 9.164968e+00 8.085588e+00 5.000000e-02 2.870722e-01 3.589475e-01 5.456907e-01 6.194642e-01 6.660521e-01 8.088031e-01 7.995530e-01 9.823831e-01 1.061466e+00 1.036934e+00 1.094544e+00 8.550166e-01 5.000000e-02 5.000000e-02 5.572655e-02 8.919632e-02 1.289705e-01 1.342148e-01 1.751887e-01 1.595991e-01 2.054572e-01 2.238389e-01 2.197129e-01 2.312741e-01 1.951253e-01 5.000000e-02
<GCONST> 5.634828e+01
<STATE> 15
<MEAN> 39
 -6.393722e+00 -9.267834e+00 -1.829056e+00 -2.204996e+00 6.180650e-01 -4.846741e+00 8.911616e-01 -2.692567e+00 -3.356635e-01 -3.777827e+00 1.383206e+00 -2.160947e+00 -5.155651e-02 -5.847317e-01 -3.556049e-01 -4.029979e-01 1.779735e-02 -6.936376e-02 2.198864e-01 4.698219e-01 5.091454e-01 3.296036e-01 1.353931e-01 5.086098e-03 2.342844e-01 -1.870891e-02 2.903611e-02 8.490273e-02 9.531566e-02 6.190726e-02 7.804111e-02 9.260336e-02 1.289883e-01 1.392665e-01 1.875219e-01 1.987173e-01 1.604415e-01 7.260377e-02 3.592370e-03
<VARIANCE> 39
 1.726366e+00 2.675780e+00 4.280355e+00 5.676918e+00 7.491833e+00 9.610273e+00 8.274199e+00 9.360872e+00 9.998714e+00 9.038927e+00 1.036318e+01 1.021102e+01 5.000000e-02 2.125966e-01 3.146526e-01 5.392991e-01 6.542342e-01 8.319569e-01 1.147276e+00 9.485466e-01 1.090936e+00 1.157225e+00 1.088810e+00 1.202412e+00 1.019855e+00 5.000000e-02 5.000000e-02 5.075847e-02 8.468855e-02 1.168365e-01 1.551272e-01 2.171916e-01 1.673927e-01 2.060187e-01 2.203625e-01 2.008557e-01 2.214670e-01 2.068735e-01 5.000000e-02
<GCONST> 5.832843e+01
<STATE> 16
<MEAN> 39
 -7.594820e+00 -9.665804e+00 -1.961181e+00 -1.467058e+00 1.139176e+00 -3.406345e+00 2.949106e+00 -3.439524e-01 1.954180e+00 -1.953295e+00 2.579381e+00 -1.136839e+00 -8.073700e-02 -1.651887e-01 -6.914005e-02 -7.160980e-02 1.193107e-02 1.586678e-02 9.405526e-02 1.786124e-01 1.818800e-01 1.331450e-01 1.429269e-01 7.371116e-02 7.848520e-02 -3.124897e-03 2.287602e-01 1.488955e-01 1.360006e-01 -4.144287e-02 -1.355759e-02 -1.528962e-01 -2.406378e-01 -2.601588e-01 -2.005806e-01 -1.168988e-01 -4.849314e-02 -9.428388e-02 7.045303e-03
<VARIANCE> 39
 1.500441e+00 3.117347e+00 4.789123e+00 5.963572e+00 7.797122e+00 1.084212e+01 9.935287e+00 1.127376e+01 1.197594e+01 1.106631e+01 1.113241e+01 9.068605e+00 5.000000e-02 1.686924e-01 2.399277e-01 3.542902e-01 5.441465e-01 8.152990e-01 1.069107e+00 1.000726e+00 1.105102e+00 1.192093e+00 1.197698e+00 1.173564e+00 9.383506e-01 5.000000e-02 5.000000e-02 6.150052e-02 9.422733e-02 1.266869e-01 1.715080e-01 2.265848e-01 2.074457e-01 2.193390e-01 2.386788e-01 2.428626e-01 2.527848e-01 1.794872e-01 5.000000e-02
<GCONST> 5.931349e+01
<STATE> 17
<MEAN> 39
 -7.494282e+00 -9.633794e+00 -2.325284e+00 -1.973419e+00 9.290553e-01 -4.154324e+00 2.212089e+00 -1.341225e+00 9.128590e-01 -2.548805e+00 2.015991e+00 -1.532172e+00 -7.615023e-02 6.228822e-01 5.425376e-01 4.981195e-01 -6.858958e-02 5.380148e-02 -3.559782e-01 -5.685691e-01 -5.965258e-01 -4.112025e-01 -1.967635e-01 3.463809e-02 -7.896512e-02 2.101581e-02 2.537302e-01 1.630092e-01 1.998603e-01 3.988253e-02 5.660943e-02 -1.155303e-02 -7.975741e-02 -9.399477e-02 2.059053e-02 -1.810205e-02 3.706425e-02 -3.416943e-02 8.633417e-03
<VARIANCE> 39
 2.279944e+00 4.034041e+00 5.002539e+00 6.881094e+00 7.985884e+00 1.021492e+01 9.907020e+00 1.136683e+01 1.280902e+01 1.055909e+01 1.078442e+01 9.174903e+00 5.000000e-02 1.858291e-01 2.236122e-01 4.042014e-01 5.978063e-01 6.752632e-01 8.902673e-01 9.735222e-01 1.081447e+00 1.178779e+00 1.374413e+00 1.313390e+00 8.738365e-01 5.000000e-02 5.000000e-02 6.610002e-02 7.858650e-02 1.364791e-01 1.466232e-01 1.938701e-01 2.044087e-01 2.390001e-01 2.531555e-01 2.381679e-01 2.371080e-01 1.869957e-01 5.000000e-02
<GCONST> 5.988529e+01
<STATE> 18
<MEAN> 39
 -5.167985e+00 -7.602259e+00 -9.995122e-02 -2.100196e+00 1.045833e+00 -4.953263e+00 3.496258e-01 -3.080070e+00 7.570531e-02 -3.115642e+00 2.412782e+00 -1.616013e+00 5.058491e-03 7.945979e-01 5.905871e-01 6.088980e-01 1.136009e-01 1.333196e-01 -9.604266e-02 -2.315312e-01 -3.901039e-01 2.283768e-02 -6.528817e-02 1.150136e-01 -1.554610e-01 2.953216e-02 -1.379159e-01 -1.802273e-01 -1.508625e-01 4.856886e-02 1.428843e-02 1.361077e-01 1.887638e-01 1.974004e-01 1.139816e-01 5.217497e-02 -2.092729e-02 -2.191139e-02 -5.007504e-03
<VARIANCE> 39
 1.578419e+00 1.778852e+00 3.148863e+00 4.792089e+00 5.930425e+00 7.979921e+00 8.601530e+00 9.673417e+00 1.146116e+01 1.285620e+01 1.299177e+01 8.591866e+00 5.000000e-02 1.957479e-01 2.765788e-01 4.161789e-01 6.130940e-01 6.907461e-01 8.615420e-01 9.685535e-01 1.088342e+00 1.117213e+00 1.096258e+00 1.115389e+00 8.495072e-01 5.000000e-02 5.000000e-02 5.000000e-02 6.580056e-02 1.204892e-01 1.451907e-01 1.796759e-01 1.857988e-01 2.037523e-01 2.339115e-01 2.898085e-01 2.830697e-01 1.722631e-01 5.000000e-02
<GCONST> 5.636195e+01
<STATE> 19
<MEAN> 39
 -4.217753e+00 -7.089093e+00 5.393482e-01 -1.197497e+00 1.618684e+00 -4.263030e+00 1.380060e+00 -2.572818e+00 9.776486e-01 -2.363068e+00 2.751569e+00 -2.145576e+00 5.135101e-02 -2.070826e-02 -2.240293e-01 -1.655208e-01 -4.464785e-02 -2.586718e-02 -1.203830e-02 -2.114025e-02 7.742313e-02 -2.739438e-02 -1.972546e-02 -6.974386e-02 -7.586796e-02 -2.332446e-03 -2.754511e-01 -2.285357e-01 -2.242180e-01 -8.084109e-02 -6.769519e-02 -4.538292e-04 3.757649e-02 1.143885e-01 -3.772228e-02 -3.215217e-02 -4.618457e-02 4.846190e-02 -1.099797e-02
<VARIANCE> 39
 1.476005e+00 2.293811e+00 4.428663e+00 4.326514e+00 5.775523e+00 7.295261e+00 8.862573e+00 9.989604e+00 9.211834e+00 9.765941e+00 8.905102e+00 8.200850e+00 5.000000e-02 1.997928e-01 2.679527e-01 4.147353e-01 6.050250e-01 6.731508e-01 7.475207e-01 9.316429e-01 1.012498e+00 1.087095e+00 1.213492e+00 1.169301e+00 9.487572e-01 5.000000e-02 5.000000e-02 5.097355e-02 8.760758e-02 1.054749e-01 1.306817e-01 1.446729e-01 2.031174e-01 2.283361e-01 2.060005e-01 2.318568e-01 2.366026e-01 1.887421e-01 5.000000e-02
<GCONST> 5.535676e+01
<STATE> 20
<MEAN> 39
 -5.677140e+00 -9.057450e+00 -1.504383e+00 -2.607978e+00 5.149813e-01 -5.232323e+00 3.303939e-01 -2.757437e+00 -3.001838e-02 -3.352381e+00 2.031371e+00 -2.003176e+00 -2.273370e-02 -5.649043e-01 -4.341915e-01 -3.774589e-01 -3.698274e-02 -4.024160e-02 1.921735e-01 2.822725e-01 3.576628e-01 8.479525e-02 1.012082e-01 -1.415111e-02 8.443802e-02 -2.174501e-02 -7.270719e-02 8.621427e-02 7.769749e-02 1.310894e-01 9.854974e-02 1.581078e-01 2.010255e-01 1.469023e-01 1.596363e-01 1.220195e-01 3.730748e-02 4.420339e-02 -2.983244e-04
<VARIANCE> 39
 1.693636e+00 2.579881e+00 4.335223e+00 5.173662e+00 6.038489e+00 7.365348e+00 8.402290e+00 9.106876e+00 1.190042e+01 9.803833e+00 9.931319e+00 9.563916e+00 5.000000e-02 1.743568e-01 2.349367e-01 4.311445e-01 5.460179e-01 7.185495e-01 8.379749e-01 1.030020e+00 1.148285e+00 1.279426e+00 1.180579e+00 1.137656e+00 9.506167e-01 5.000000e-02 5.000000e-02 5.000000e-02 7.945117e-02 1.218650e-01 1.345292e-01 1.589940e-01 1.749750e-01 2.095254e-01 2.503291e-01 2.433588e-01 2.345656e-01 2.060899e-01 5.000000e-02
<GCONST> 5.662282e+01
<STATE> 21
<MEAN> 39
 -7.128534e+00 -9.450644e+00 -1.603262e+00 -1.383670e+00 1.471722e+00 -3.387604e+00 2.915198e+00 -1.893847e-01 2.101020e+00 -1.484481e+00 2.799262e+00 -1.429778e+00 -6.033331e-02 -2.336080e-01 1.045805e-02 3.721963e-02 2.208885e-01 1.747653e-01 2.420356e-01 3.025950e-01 2.868929e-01 1.693785e-01 5.395929e-02 -9.063207e-02 1.517209e-02 -6.451812e-03 1.645140e-01 1.238236e-01 8.431765e-02 -4.099625e-02 -5.867334e-02 -1.407394e-01 -1.897002e-01 -2.360629e-01 -2.008038e-01 -1.685685e-01 -7.578924e-02 -6.804980e-02 4.621755e-03
<VARIANCE> 39
 1.694687e+00 2.520491e+00 4.212495e+00 5.264472e+00 7.732539e+00 8.585084e+00 8.408623e+00 1.120485e+01 1.155761e+01 1.030250e+01 1.079737e+01 9.825767e+00 5.000000e-02 2.098983e-01 2.167899e-01 3.999668e-01 4.832018e-01 7.202106e-01 9.990345e-01 9.591188e-01 1.173084e+00 1.205721e+00 1.236361e+00 1.089893e+00 1.004368e+00 5.000000e-02 5.000000e-02 5.000000e-02 8.573920e-02 1.103895e-01 1.610116e-01 1.784182e-01 1.881661e-01 2.163035e-01 2.396820e-01 2.390666e-01 2.144463e-01 2.172146e-01 5.000000e-02
<GCONST> 5.764177e+01
<STATE> 22
<MEAN> 39
 -6.127153e+00 -8.344386e+00 -6.796604e-01 -1.134162e+00 1.576277e+00 -3.932448e+00 1.829988e+00 -1.900581e+00 -2.244675e-01 -3.469265e+00 1.623582e+00 -2.396764e+00 -3.438810e-02 -1.687497e-02 -1.993888e-02 -5.800084e-02 -9.140225e-02 -1.255396e-01 -5.062440e-02 -2.258127e-02 -7.312933e-02 -9.356420e-02 -8.519361e-02 -1.686774e-02 1.139829e-02 -1.565983e-03 2.587096e-02 -1.820272e-02 -2.697487e-02 -7.052527e-02 -6.621615e-02 -4.484529e-02 -1.707027e-02 -2.172885e-03 7.540996e-02 1.134627e-01 9.519288e-02 5.746169e-02 1.358450e-03
<VARIANCE> 39
 2.179093e+00 2.489728e+00 3.833110e+00 5.024639e+00 6.739811e+00 8.933356e+00 8.643490e+00 1.036025e+01 1.008509e+01 9.850836e+00 9.410175e+00 8.959008e+00 5.000000e-02 2.385558e-01 2.463180e-01 3.844770e-01 5.421389e-01 6.963480e-01 9.615719e-01 9.876363e-01 1.141129e+00 1.160706e+00 1.174189e+00 1.139318e+00 1.105521e+00 5.000000e-02 5.019007e-02 5.000000e-02 7.779934e-02 1.065884e-01 1.363769e-01 2.056669e-01 2.038934e-01 2.360188e-01 2.283141e-01 2.263102e-01 2.222546e-01 2.272780e-01 5.000000e-02
<GCONST> 5.748494e+01
<STATE> 23
<MEAN> 39
 -7.372761e+00 -9.771229e+00 -2.330495e+00 -2.344380e+00 2.031205e-01 -4.089137e+00 2.561074e+00 -9.426149e-01 1.483124e+00 -2.220464e+00 2.404028e+00 -1.242403e+00 -7.851824e-02 2.499253e-01 2.201795e-01 1.514372e-01 -1.099061e-01 -5.652148e-02 -1.922931e-01 -1.923137e-01 -1.910284e-01 4.886989e-02 2.081556e-01 1.857646e-01 3.508221e-02 1.007155e-02 1.908495e-01 1.659742e-01 1.928767e-01 1.071333e-01 1.586777e-01 5.742411e-03 -8.861630e-02 -1.100475e-01 -8.167172e-02 -5.811614e-02 -3.733005e-02 -8.908970e-02 7.286681e-03
<VARIANCE> 39
 2.023905e+00 2.278334e+00 4.172864e+00 5.615655e+00 7.741323e+00 1.110153e+01 9.843102e+00 1.209402e+01 1.151572e+01 1.130373e+01 1.202474e+01 1.032121e+01 5.000000e-02 2.985151e-01 2.947043e-01 4.832287e-01 5.707848e-01 7.428828e-01 9.929716e-01 1.024251e+00 1.200535e+00 1.119812e+00 1.268850e+00 1.174934e+00 1.244173e+00 5.000000e-02 5.000000e-02 5.000000e-02 7.788258e-02 1.152334e-01 1.508134e-01 2.217637e-01 2.164474e-01 2.417327e-01 2.182107e-01 2.534696e-01 2.562556e-01 2.263255e-01 5.000000e-02
<GCONST> 6.041531e+01
<STATE> 24
<MEAN> 39
 -4.736674e+00 -7.361045e+00 2.725212e-01 -1.646482e+00 1.293614e+00 -4.637520e+00 8.737974e-01 -2.769462e+00 6.845046e-01 -2.154148e+00 2.756400e+00 -1.979922e+00 2.840040e-02 3.174128e-01 1.806334e-01 2.270401e-01 1.062456e-01 1.880780e-01 3.641142e-02 -1.215056e-01 -2.155920e-01 -1.378655e-01 -7.169891e-02 -5.537913e-02 -9.719606e-02 1.236859e-02 -1.743795e-01 -1.671154e-01 -1.612766e-01 1.019870e-03 -1.519879e-02 7.729125e-02 1.095537e-01 1.028465e-01 -3.211836e-02 -8.365306e-02 -6.920160e-02 1.618290e-02 -6.336572e-03
<VARIANCE> 39
 2.340912e+00 2.213398e+00 4.324060e+00 4.789280e+00 5.567358e+00 8.167218e+00 9.580468e+00 1.025155e+01 9.807520e+00 1.018498e+01 1.114510e+01 9.847833e+00 5.000000e-02 3.460616e-01 3.471808e-01 5.443363e-01 5.703269e-01 7.557005e-01 9.067167e-01 1.119290e+00 1.204305e+00 1.098005e+00 1.186578e+00 1.231238e+00 1.099197e+00 5.000000e-02 5.591791e-02 5.867847e-02 9.526849e-02 1.095200e-01 1.346681e-01 1.779536e-01 2.102579e-01 2.466716e-01 2.239700e-01 2.589289e-01 2.691486e-01 2.640142e-01 5.000000e-02
<GCONST> 5.980689e+01
<STATE> 25
<MEAN> 39
 -6.034434e+00 -8.887930e+00 -1.294495e+00 -1.920993e+00 1.303759e+00 -3.880682e+00 1.922383e+00 -1.679179e+00 5.099437e-01 -2.875594e+00 2.101008e+00 -1.885512e+00 -2.482713e-02 -1.798699e-01 -1.317653e-01 -1.387216e-01 2.578229e-02 -2.008401e-02 3.256953e-02 1.095534e-01 1.563540e-01 2.454355e-02 -3.499203e-02 -6.341816e-02 6.209596e-02 -6.460532e-03 -3.742064e-03 5.066674e-02 -8.280918e-03 -1.512612e-02 -5.654725e-02 -7.040063e-02 -3.022189e-02 -1.594580e-03 4.334486e-02 4.150474e-02 -1.080993e-03 -5.567297e-03 2.053117e-03
<VARIANCE> 39
 2.844545e+00 3.517416e+00 5.384386e+00 6.526628e+00 8.303926e+00 9.704678e+00 9.942880e+00 1.138123e+01 1.215248e+01 1.102253e+01 9.529469e+00 8.721749e+00 5.000000e-02 3.404798e-01 3.659875e-01 5.826767e-01 6.587356e-01 8.084967e-01 1.052236e+00 1.025008e+00 1.323590e+00 1.282823e+00 1.274957e+00 1.112895e+00 1.041969e+00 5.000000e-02 7.007081e-02 7.106538e-02 1.117675e-01 1.311811e-01 1.519964e-01 1.915593e-01 1.897774e-01 2.358293e-01 2.299739e-01 2.262470e-01 1.970887e-01 1.765740e-01 5.000000e-02
<GCONST> 6.224975e+01
<TRANSP> 26
 0.000000e+00 1.000000e+00 0.000000e+00 0.000000e+00 0.000000e+00 0.000000e+00 0.000000e+00 0.000000e+00 0.000000e+00 0.000000e+00 0.000000e+00 0.000000e+00 0.000000e+00 0.000000e+00 0.000000e+00 0.000000e+00 0.000000e+00 0.000000e+00 0.000000e+00 0.000000e+00 0.000000e+00 0.000000e+00 0.000000e+00 0.000000e+00 0.000000e+00 0.000000e+00
 0.000000e+00 6.608452e-01 3.391548e-01 0.000000e+00 0.000000e+00 0.000000e+00 0.000000e+00 0.000000e+00 0.000000e+00 0.000000e+00 0.000000e+00 0.000000e+00 0.000000e+00 0.000000e+00 0.000000e+00 0.000000e+00 0.000000e+00 0.000000e+00 0.000000e+00 0.000000e+00 0.000000e+00 0.000000e+00 0.000000e+00 0.000000e+00 0.000000e+00 0.000000e+00
 0.000000e+00 0.000000e+00 7.277567e-01 2.722433e-01 0.000000e+00 0.000000e+00 0.000000e+00 0.000000e+00 0.000000e+00 0.000000e+00 0.000000e+00 0.000000e+00 0.000000e+00 0.000000e+00 0.000000e+00 0.000000e+00 0.000000e+00 0.000000e+00 0.000000e+00 0.000000e+00 0.000000e+00 0.000000e+00 0.000000e+00 0.000000e+00 0.000000e+00 0.000000e+00
 0.000000e+00 0.000000e+00 0.000000e+00 6.923630e-01 3.076370e-01 0.000000e+00 0.000000e+00 0.000000e+00 0.000000e+00 0.000000e+00 0.000000e+00 0.000000e+00 0.000000e+00 0.000000e+00 0.000000e+00 0.000000e+00 0.000000e+00 0.000000e+00 0.000000e+00 0.000000e+00 0.000000e+00 0.000000e+00 0.000000e+00 0.000000e+00 0.000000e+00 0.000000e+00
 0.000000e+00 0.000000e+00 0.000000e+00 0.000000e+00 4.224445e-01 5.775555e-01 0.000000e+00 0.000000e+00 0.000000e+00 0.000000e+00 0.000000e+00 0.000000e+00 0.000000e+00 0.000000e+00 0.000000e+00 0.000000e+00 0.000000e+00 0.000000e+00 0.000000e+00 0.000000e+00 0.000000e+00 0.000000e+00 0.000000e+00 0.000000e+00 0.000000e+00 0.000000e+00
 0.000000e+00 0.000000e+00 0.000000e+00 0.000000e+00 0.000000e+00 4.135474e-01 5.864526e-01 0.000000e+00 0.000000e+00 0.000000e+00 0.000000e+00 0.000000e+00 0.000000e+00 0.000000e+00 0.000000e+00 0.000000e+00 0.000000e+00 0.000000e+00 0.000000e+00 0.000000e+00 0.000000e+00 0.000000e+00 0.000000e+00 0.000000e+00 0.000000e+00 0.000000e+00
 0.000000e+00 0.000000e+00 0.000000e+00 0.000000e+00 0.000000e+00 0.000000e+00 6.184728e-01 3.815273e-01 0.000000e+00 0.000000e+00 0.000000e+00 0.000000e+00 0.000000e+00 0.000000e+00 0.000000e+00 0.000000e+00 0.000000e+00 0.000000e+00 0.000000e+00 0.000000e+00 0.000000e+00 0.000000e+00 0.000000e+00 0.000000e+00 0.000000e+00 0.000000e+00
 0.000000e+00 0.000000e+00 0.000000e+00 0.000000e+00 0.000000e+00 0.000000e+00 0.000000e+00 5.780826e-01 4.219174e-01 0.000000e+00 0.000000e+00 0.000000e+00 0.000000e+00 0.000000e+00 0.000000e+00 0.000000e+00 0.000000e+00 0.000000e+00 0.000000e+00 0.000000e+00 0.000000e+00 0.000000e+00 0.000000e+00 0.000000e+00 0.000000e+00 0.000000e+00
 0.000000e+00 0.000000e+00 0.000000e+00 0.000000e+00 0.000000e+00 0.000000e+00 0.000000e+00 0.000000e+00 3.739165e-01 6.260836e-01 0.000000e+00 0.000000e+00 0.000000e+00 0.000000e+00 0.000000e+00 0.000000e+00 0.000000e+00 0.000000e+00 0.000000e+00 0.000000e+00 0.000000e+00 0.000000e+00 0.000000e+00 0.000000e+00 0.000000e+00 0.000000e+00
 0.000000e+00 0.000000e+00 0.000000e+00 0.000000e+00 0.000000e+00 0.000000e+00 0.000000e+00 0.000000e+00 0.000000e+00 5.470013e-01 4.529987e-01 0.000000e+00 0.000000e+00 0.000000e+00 0.000000e+00 0.000000e+00 0.000000e+00 0.000000e+00 0.000000e+00 0.000000e+00 0.000000e+00 0.000000e+00 0.000000e+00 0.000000e+00 0.000000e+00 0.000000e+00
 0.000000e+00 0.000000e+00 0.000000e+00 0.000000e+00 0.000000e+00 0.000000e+00 0.000000e+00 0.000000e+00 0.000000e+00 0.000000e+00 4.574430e-01 5.425569e-01 0.000000e+00 0.000000e+00 0.000000e+00 0.000000e+00 0.000000e+00 0.000000e+00 0.000000e+00 0.000000e+00 0.000000e+00 0.000000e+00 0.000000e+00 0.000000e+00 0.000000e+00 0.000000e+00
 0.000000e+00 0.000000e+00 0.000000e+00 0.000000e+00 0.000000e+00 0.000000e+00 0.000000e+00 0.000000e+00 0.000000e+00 0.000000e+00 0.000000e+00 5.155146e-01 4.844854e-01 0.000000e+00 0.000000e+00 0.000000e+00 0.000000e+00 0.000000e+00 0.000000e+00 0.000000e+00 0.000000e+00 0.000000e+00 0.000000e+00 0.000000e+00 0.000000e+00 0.000000e+00
 0.000000e+00 0.000000e+00 0.000000e+00 0.000000e+00 0.000000e+00 0.000000e+00 0.000000e+00 0.000000e+00 0.000000e+00 0.000000e+00 0.000000e+00 0.000000e+00 7.008963e-01 2.991037e-01 0.000000e+00 0.000000e+00 0.000000e+00 0.000000e+00 0.000000e+00 0.000000e+00 0.000000e+00 0.000000e+00 0.000000e+00 0.000000e+00 0.000000e+00 0.000000e+00
 0.000000e+00 0.000000e+00 0.000000e+00 0.000000e+00 0.000000e+00 0.000000e+00 0.000000e+00 0.000000e+00 0.000000e+00 0.000000e+00 0.000000e+00 0.000000e+00 0.000000e+00 6.287524e-01 3.712476e-01 0.000000e+00 0.000000e+00 0.000000e+00 0.000000e+00 0.000000e+00 0.000000e+00 0.000000e+00 0.000000e+00 0.000000e+00 0.000000e+00 0.000000e+00
 0.000000e+00 0.000000e+00 0.000000e+00 0.000000e+00 0.000000e+00 0.000000e+00 0.000000e+00 0.000000e+00 0.000000e+00 0.000000e+00 0.000000e+00 0.000000e+00 0.000000e+00 0.000000e+00 4.821505e-01 5.178496e-01 0.000000e+00 0.000000e+00 0.000000e+00 0.000000e+00 0.000000e+00 0.000000e+00 0.000000e+00 0.000000e+00 0.000000e+00 0.000000e+00
 0.000000e+00 0.000000e+00 0.000000e+00 0.000000e+00 0.000000e+00 0.000000e+00 0.000000e+00 0.000000e+00 0.000000e+00 0.000000e+00 0.000000e+00 0.000000e+00 0.000000e+00 0.000000e+00 0.000000e+00 6.184907e-01 3.815093e-01 0.000000e+00 0.000000e+00 0.000000e+00 0.000000e+00 0.000000e+00 0.000000e+00 0.000000e+00 0.000000e+00 0.000000e+00
 0.000000e+00 0.000000e+00 0.000000e+00 0.000000e+00 0.000000e+00 0.000000e+00 0.000000e+00 0.000000e+00 0.000000e+00 0.000000e+00 0.000000e+00 0.000000e+00 0.000000e+00 0.000000e+00 0.000000e+00 0.000000e+00 3.768490e-01 6.231511e-01 0.000000e+00 0.000000e+00 0.000000e+00 0.000000e+00 0.000000e+00 0.000000e+00 0.000000e+00 0.000000e+00
 0.000000e+00 0.000000e+00 0.000000e+00 0.000000e+00 0.000000e+00 0.000000e+00 0.000000e+00 0.000000e+00 0.000000e+00 0.000000e+00 0.000000e+00 0.000000e+00 0.000000e+00 0.000000e+00 0.000000e+00 0.000000e+00 0.000000e+00 3.677533e-01 6.322467e-01 0.000000e+00 0.000000e+00 0.000000e+00 0.000000e+00 0.000000e+00 0.000000e+00 0.000000e+00
 0.000000e+00 0.000000e+00 0.000000e+00 0.000000e+00 0.000000e+00 0.000000e+00 0.000000e+00 0.000000e+00 0.000000e+00 0.000000e+00 0.000000e+00 0.000000e+00 0.000000e+00 0.000000e+00 0.000000e+00 0.000000e+00 0.000000e+00 0.000000e+00 6.094383e-01 3.905617e-01 0.000000e+00 0.000000e+00 0.000000e+00 0.000000e+00 0.000000e+00 0.000000e+00
 0.000000e+00 0.000000e+00 0.000000e+00 0.000000e+00 0.000000e+00 0.000000e+00 0.000000e+00 0.000000e+00 0.000000e+00 0.000000e+00 0.000000e+00 0.000000e+00 0.000000e+00 0.000000e+00 0.000000e+00 0.000000e+00 0.000000e+00 0.000000e+00 0.000000e+00 5.031682e-01 4.968318e-01 0.000000e+00 0.000000e+00 0.000000e+00 0.000000e+00 0.000000e+00
 0.000000e+00 0.000000e+00 0.000000e+00 0.000000e+00 0.000000e+00 0.000000e+00 0.000000e+00 0.000000e+00 0.000000e+00 0.000000e+00 0.000000e+00 0.000000e+00 0.000000e+00 0.000000e+00 0.000000e+00 0.000000e+00 0.000000e+00 0.000000e+00 0.000000e+00 0.000000e+00 5.454474e-01 4.545526e-01 0.000000e+00 0.000000e+00 0.000000e+00 0.000000e+00
 0.000000e+00 0.000000e+00 0.000000e+00 0.000000e+00 0.000000e+00 0.000000e+00 0.000000e+00 0.000000e+00 0.000000e+00 0.000000e+00 0.000000e+00 0.000000e+00 0.000000e+00 0.000000e+00 0.000000e+00 0.000000e+00 0.000000e+00 0.000000e+00 0.000000e+00 0.000000e+00 0.000000e+00 7.149002e-01 2.850998e-01 0.000000e+00 0.000000e+00 0.000000e+00
 0.000000e+00 0.000000e+00 0.000000e+00 0.000000e+00 0.000000e+00 0.000000e+00 0.000000e+00 0.000000e+00 0.000000e+00 0.000000e+00 0.000000e+00 0.000000e+00 0.000000e+00 0.000000e+00 0.000000e+00 0.000000e+00 0.000000e+00 0.000000e+00 0.000000e+00 0.000000e+00 0.000000e+00 0.000000e+00 5.655724e-01 4.344276e-01 0.000000e+00 0.000000e+00
 0.000000e+00 0.000000e+00 0.000000e+00 0.000000e+00 0.000000e+00 0.000000e+00 0.000000e+00 0.000000e+00 0.000000e+00 0.000000e+00 0.000000e+00 0.000000e+00 0.000000e+00 0.000000e+00 0.000000e+00 0.000000e+00 0.000000e+00 0.000000e+00 0.000000e+00 0.000000e+00 0.000000e+00 0.000000e+00 0.000000e+00 6.155071e-01 3.844929e-01 0.000000e+00
 0.000000e+00 0.000000e+00 0.000000e+00 0.000000e+00 0.000000e+00 0.000000e+00 0.000000e+00 0.000000e+00 0.000000e+00 0.000000e+00 0.000000e+00 0.000000e+00 0.000000e+00 0.000000e+00 0.000000e+00 0.000000e+00 0.000000e+00 0.000000e+00 0.000000e+00 0.000000e+00 0.000000e+00 0.000000e+00 0.000000e+00 0.000000e+00 6.645957e-01 3.354043e-01
 0.000000e+00 0.000000e+00 0.000000e+00 0.000000e+00 0.000000e+00 0.000000e+00 0.000000e+00 0.000000e+00 0.000000e+00 0.000000e+00 0.000000e+00 0.000000e+00 0.000000e+00 0.000000e+00 0.000000e+00 0.000000e+00 0.000000e+00 0.000000e+00 0.000000e+00 0.000000e+00 0.000000e+00 0.000000e+00 0.000000e+00 0.000000e+00 0.000000e+00 0.000000e+00
<ENDHMM>
