~o
<STREAMINFO> 1 39
<VECSIZE> 39<NULLD><MFCC_E_D_A><DIAGC>
~h "Sil"
<BEGINHMM>
<NUMSTATES> 28
<STATE> 2
<MEAN> 39
 -6.011619e+00 -1.019567e+01 -2.858365e+00 -2.088140e+00 1.748848e+00 -3.331588e+00 1.969448e+00 -1.793690e+00 4.685530e-01 -3.339225e+00 1.669687e+00 -1.459079e+00 -2.958193e-02 1.046355e-01 2.940540e-01 2.680387e-01 9.464860e-02 8.323950e-02 -6.222396e-02 -1.467238e-01 -9.568816e-02 -3.187814e-02 -1.675339e-02 2.764097e-02 -2.556648e-02 3.624702e-03 6.458152e-02 1.468924e-02 4.683217e-02 -9.885662e-04 -2.085299e-02 -2.006172e-02 -6.477484e-03 -6.263644e-03 3.658400e-02 4.881444e-02 2.546195e-02 -6.522514e-03 2.909743e-03
<VARIANCE> 39
 2.847908e+00 6.293311e+00 8.495698e+00 6.446584e+00 1.004687e+01 1.170017e+01 1.121383e+01 1.219763e+01 1.467424e+01 1.340425e+01 1.086086e+01 1.119691e+01 5.000000e-02 3.246109e-01 5.288054e-01 6.743627e-01 6.767511e-01 8.097437e-01 1.104661e+00 1.084985e+00 1.211270e+00 1.331905e+00 1.347323e+00 1.206286e+00 1.189214e+00 5.000000e-02 5.000000e-02 9.197901e-02 9.513614e-02 1.234905e-01 1.319783e-01 1.860049e-01 1.715189e-01 2.097522e-01 2.354814e-01 2.221849e-01 2.070749e-01 2.028468e-01 5.000000e-02
<GCONST> 6.492921e+01
<STATE> 3
<MEAN> 39
 -4.504413e+00 -8.040783e+00 -4.244252e-01 -1.775955e+00 1.512622e+00 -4.215686e+00 1.006671e+00 -2.738851e+00 6.081988e-01 -2.487815e+00 2.343819e+00 -2.146848e+00 3.907567e-02 -1.129783e-01 -1.168262e-01 -3.598809e-02 -6.836036e-03 -4.880688e-02 2.907369e-02 3.182033e-05 2.142939e-02 -1.887538e-02 6.586011e-02 -6.117194e-03 -2.853972e-02 -4.837369e-03 -1.564029e-01 -1.618952e-01 -1.787608e-01 -4.692051e-02 -5.384579e-02 3.691183e-02 9.800167e-02 1.171125e-01 2.818419e-02 -2.038921e-02 -4.125877e-02 4.249805e-02 -5.946564e-03
<VARIANCE> 39
 1.880157e+00 3.073502e+00 5.164211e+00 5.080457e+00 6.817946e+00 7.660236e+00 8.681319e+00 9.880558e+00 1.142325e+01 1.035986e+01 9.025389e+00 9.739990e+00 5.000000e-02 2.611517e-01 3.682717e-01 5.430532e-01 5.551795e-01 6.958277e-01 8.255820e-01 1.028265e+00 1.064873e+00 1.172949e+00 1.100590e+00 1.128064e+00 9.830300e-01 5.000000e-02 5.000000e-02 6.789773e-02 9.812038e-02 1.190127e-01 1.429827e-01 1.719251e-01 2.102446e-01 2.112514e-01 2.289762e-01 2.297389e-01 2.299255e-01 2.177444e-01 5.000000e-02
<GCONST> 5.882825e+01
<STATE> 4
<MEAN> 39
 -6.777824e+00 -1.000265e+01 -2.187703e+00 -1.800285e+00 9.813600e-01 -3.856386e+00 2.113406e+00 -1.398696e+00 9.232830e-01 -2.725845e+00 1.741766e+00 -1.582015e+00 -6.366801e-02 -3.357188e-01 -1.918556e-01 -2.326375e-01 -1.083175e-02 -6.947293e-02 7.963176e-02 2.163804e-01 2.998657e-01 2.002413e-01 9.330726e-02 5.665036e-02 1.123669e-01 -1.119452e-02 1.176764e-01 1.139213e-01 9.346953e-02 2.412437e-03 3.374302e-02 -5.142601e-02 -8.421124e-02 -8.212645e-02 -1.584283e-02 6.543978e-03 4.359518e-02 -1.409695e-02 5.170320e-03
<VARIANCE> 39
 1.659296e+00 3.001819e+00 4.500941e+00 5.692700e+00 8.250712e+00 9.882455e+00 9.217204e+00 1.057606e+01 1.178747e+01 1.080836e+01 9.584371e+00 9.729194e+00 5.000000e-02 1.924015e-01 2.388556e-01 4.272511e-01 6.061544e-01 7.739204e-01 9.203293e-01 9.654474e-01 1.067492e+00 1.170316e+00 1.077004e+00 1.011526e+00 1.008684e+00 5.000000e-02 5.000000e-02 5.000000e-02 7.651714e-02 1.170675e-01 1.654704e-01 1.944627e-01 1.978338e-01 2.173408e-01 2.432625e-01 2.345163e-01 2.056531e-01 2.034783e-01 5.000000e-02
<GCONST> 5.808633e+01
<STATE> 5
<MEAN> 39
 -7.375367e+00 -1.067321e+01 -3.203094e+00 -2.342967e+00 8.151436e-01 -3.776369e+00 2.328840e+00 -6.463246e-01 1.934582e+00 -1.955504e+00 2.363599e+00 -9.400942e-01 -7.509054e-02 3.331684e-01 4.195687e-01 3.783140e-01 -1.717255e-02 1.370851e-02 -3.166913e-01 -4.129251e-01 -3.852198e-01 -2.407856e-01 -1.081879e-01 7.666731e-02 -6.833949e-02 1.216218e-02 2.670518e-01 2.531019e-01 2.815342e-01 7.983377e-02 7.305083e-02 -3.871400e-02 -1.004058e-01 -1.802325e-01 -1.282251e-01 -1.048523e-01 -7.600121e-02 -1.306060e-01 8.994923e-03
<VARIANCE> 39
 2.048153e+00 3.283468e+00 5.110068e+00 6.293901e+00 8.544841e+00 1.094981e+01 1.118161e+01 1.324725e+01 1.459626e+01 1.183468e+01 1.149602e+01 1.064697e+01 5.000000e-02 2.390740e-01 2.375145e-01 4.367426e-01 5.523371e-01 7.228313e-01 8.741802e-01 9.676335e-01 1.109986e+00 1.128043e+00 1.256504e+00 1.155490e+00 1.069149e+00 5.000000e-02 5.000000e-02 5.000000e-02 8.476985e-02 1.249520e-01 1.521368e-01 2.164074e-01 2.310782e-01 2.452708e-01 2.740212e-01 2.357588e-01 2.295934e-01 1.967847e-01 5.000000e-02
<GCONST> 6.078484e+01
<STATE> 6
<MEAN> 39
 -5.445696e+00 -8.441334e+00 -9.303131e-01 -2.163733e+00 1.173930e+00 -4.883683e+00 4.557623e-01 -2.767331e+00 4.547448e-01 -2.999333e+00 2.215305e+00 -1.621878e+00 -1.042168e-02 6.371964e-01 7.057233e-01 7.429628e-01 2.235658e-01 1.937554e-01 -7.900136e-03 -1.559674e-01 -2.575873e-01 -1.375930e-01 -1.232242e-01 -7.161666e-02 -2.988252e-01 2.502790e-02 -6.299269e-02 -9.995643e-02 -6.860489e-02 6.434640e-02 3.200168e-02 1.274450e-01 1.699851e-01 1.644218e-01 6.593864e-02 3.221349e-02 -4.294110e-02 -3.637448e-02 -2.056093e-03
<VARIANCE> 39
 2.161035e+00 2.521263e+00 4.494836e+00 5.505414e+00 6.271015e+00 8.066153e+00 9.419534e+00 1.050713e+01 1.059394e+01 1.145563e+01 1.109362e+01 1.006978e+01 5.000000e-02 2.518602e-01 2.499950e-01 4.170452e-01 5.562932e-01 7.344915e-01 1.010759e+00 1.051863e+00 1.223612e+00 1.209947e+00 1.200399e+00 1.087698e+00 9.468654e-01 5.000000e-02 5.000000e-02 5.000000e-02 7.005913e-02 1.177528e-01 1.418532e-01 1.816505e-01 1.841521e-01 2.196644e-01 2.064213e-01 2.429044e-01 2.411059e-01 2.291360e-01 5.000000e-02
<GCONST> 5.821389e+01
<STATE> 7
<MEAN> 39
 -4.313083e+00 -7.090016e+00 5.826630e-01 -1.192098e+00 1.585048e+00 -4.015381e+00 1.492936e+00 -2.163713e+00 1.240570e+00 -2.515898e+00 2.078126e+00 -2.522520e+00 3.943881e-02 1.794054e-01 5.747487e-02 1.363186e-01 1.541035e-01 1.365444e-01 1.028341e-01 1.145569e-01 1.119118e-01 -5.268355e-02 -4.369021e-02 -1.080655e-01 -1.361924e-01 7.396432e-03 -2.871872e-01 -3.442015e-01 -3.533656e-01 -1.226561e-01 -9.368789e-02 -3.831737e-02 1.059879e-02 6.630085e-02 -2.311209e-02 -2.060505e-02 5.453295e-03 1.479624e-01 -1.180347e-02
<VARIANCE> 39
 1.700085e+00 2.441256e+00 3.983732e+00 4.571090e+00 6.348017e+00 7.466671e+00 8.683327e+00 9.786488e+00 9.421843e+00 1.143991e+01 1.016444e+01 9.045472e+00 5.000000e-02 2.109216e-01 2.201425e-01 3.400406e-01 5.641190e-01 6.961849e-01 9.106195e-01 8.990353e-01 9.973099e-01 1.011478e+00 1.093389e+00 1.006347e+00 1.043671e+00 5.000000e-02 5.000000e-02 5.000000e-02 6.444316e-02 1.080586e-01 1.464158e-01 1.778559e-01 2.029589e-01 2.278280e-01 2.207684e-01 2.301406e-01 2.294134e-01 1.957212e-01 5.000000e-02
<GCONST> 5.561790e+01
<STATE> 8
<MEAN> 39
 -5.028882e+00 -8.235130e+00 -5.068552e-01 -1.490049e+00 1.551452e+00 -4.126037e+00 1.518129e+00 -2.168118e+00 4.553005e-01 -2.613963e+00 2.368883e+00 -2.046146e+00 2.343936e-02 -2.343260e-01 -2.667187e-01 -2.803220e-01 -8.591887e-02 -9.321634e-02 -5.793678e-02 -5.395950e-02 -5.123192e-02 -1.721063e-01 -1.553459e-01 -1.062496e-01 4.745103e-03 -1.194324e-02 -1.151877e-01 -6.172472e-02 -7.390843e-02 -2.855914e-02 -5.908615e-02 -2.362725e-02 -3.528130e-03 1.942280e-02 3.350555e-02 6.630381e-03 8.442556e-03 3.027530e-02 -4.696961e-03
<VARIANCE> 39
 2.117077e+00 2.932958e+00 4.225996e+00 5.346897e+00 5.757052e+00 7.771406e+00 7.615085e+00 9.905692e+00 1.015972e+01 9.137463e+00 9.064797e+00 8.317704e+00 5.000000e-02 2.029354e-01 3.030947e-01 3.848866e-01 5.718752e-01 6.182588e-01 7.660350e-01 8.362851e-01 1.027598e+00 1.036362e+00 1.115234e+00 1.034297e+00 9.189677e-01 5.000000e-02 5.000000e-02 5.022954e-02 6.793752e-02 1.173023e-01 1.199562e-01 1.665217e-01 1.734511e-01 2.183336e-01 2.062284e-01 2.191764e-01 2.048014e-01 1.987464e-01 5.000000e-02
<GCONST> 5.520038e+01
<STATE> 9
<MEAN> 39
 -6.317014e+00 -9.628538e+00 -2.095830e+00 -2.126846e+00 8.492485e-01 -4.838940e+00 6.237686e-01 -2.753724e+00 -6.519490e-01 -4.207496e+00 9.834933e-01 -2.369298e+00 -5.713356e-02 -5.687921e-01 -3.595029e-01 -3.682350e-01 -4.919714e-02 -2.369832e-01 2.764112e-02 2.471627e-01 3.617802e-01 3.676930e-01 2.719116e-01 2.163717e-01 2.782159e-01 -2.064722e-02 6.520312e-02 1.404015e-01 1.356210e-01 4.253319e-02 5.635782e-02 9.416474e-02 1.435690e-01 1.406066e-01 2.248234e-01 2.368290e-01 1.834979e-01 9.009612e-02 5.177613e-03
<VARIANCE> 39
 1.819058e+00 2.648159e+00 3.895262e+00 5.145088e+00 8.167739e+00 8.501322e+00 8.420902e+00 9.364054e+00 1.117839e+01 9.723351e+00 9.261968e+00 9.594873e+00 5.000000e-02 1.796690e-01 2.494853e-01 3.982716e-01 5.283825e-01 7.762753e-01 8.369099e-01 9.618742e-01 1.148769e+00 1.166716e+00 1.144135e+00 1.141587e+00 1.037879e+00 5.000000e-02 5.000000e-02 5.000000e-02 6.547347e-02 1.116390e-01 1.710209e-01 1.637444e-01 1.766643e-01 2.047975e-01 2.402856e-01 2.166339e-01 1.982397e-01 2.150279e-01 5.000000e-02
<GCONST> 5.659162e+01
<STATE> 10
<MEAN> 39
 -7.505576e+00 -9.989675e+00 -2.296546e+00 -1.833614e+00 7.562491e-01 -3.778884e+00 2.896783e+00 1.132941e-01 2.607712e+00 -1.110682e+00 3.138866e+00 -8.419617e-01 -7.979897e-02 -1.479213e-01 3.014440e-02 2.492798e-02 9.624031e-03 1.103442e-02 7.827888e-02 1.982887e-01 2.140458e-01 2.447207e-01 2.620236e-01 1.689021e-01 1.365985e-01 -2.068307e-03 2.532656e-01 1.977884e-01 1.771306e-01 1.736970e-02 8.479764e-02 -8.601028e-02 -2.306662e-01 -3.199408e-01 -3.148201e-01 -2.498897e-01 -1.659377e-01 -1.729728e-01 7.960729e-03
<VARIANCE> 39
 1.566976e+00 2.803922e+00 4.500923e+00 4.627831e+00 7.848431e+00 9.279044e+00 9.010253e+00 1.055722e+01 1.018899e+01 9.686547e+00 1.036724e+01 1.072817e+01 5.000000e-02 1.915963e-01 2.151551e-01 3.579131e-01 4.725218e-01 7.859836e-01 1.005937e+00 1.000414e+00 1.219274e+00 1.258116e+00 1.114722e+00 1.103418e+00 1.124703e+00 5.000000e-02 5.000000e-02 5.459259e-02 8.946300e-02 9.316596e-02 1.528691e-01 1.889592e-01 1.862907e-01 2.313277e-01 2.167290e-01 2.229859e-01 2.412756e-01 2.178745e-01 5.000000e-02
<GCONST> 5.755030e+01
<STATE> 11
<MEAN> 39
 -7.190125e+00 -9.453468e+00 -1.813528e+00 -1.727851e+00 8.690174e-01 -4.305934e+00 1.834952e+00 -1.565913e+00 8.504381e-01 -2.399456e+00 2.077170e+00 -1.657893e+00 -7.066008e-02 4.834903e-01 5.151175e-01 4.056354e-01 4.681660e-03 1.138798e-01 -1.903151e-01 -4.520393e-01 -5.646688e-01 -4.835838e-01 -3.259716e-01 -7.649275e-02 -1.521796e-01 1.588290e-02 1.848584e-01 1.024910e-01 9.245926e-02 7.567984e-03 6.246364e-02 1.877688e-02 -2.346403e-02 -2.369184e-02 -1.127927e-02 -5.205375e-02 -3.981592e-03 -4.537936e-02 6.953733e-03
<VARIANCE> 39
 2.025558e+00 2.713160e+00 4.335525e+00 5.365530e+00 8.454956e+00 9.333502e+00 1.039335e+01 1.116535e+01 1.030852e+01 9.036954e+00 1.045396e+01 9.120134e+00 5.000000e-02 2.281204e-01 2.389579e-01 4.080150e-01 5.377109e-01 8.061863e-01 8.532971e-01 1.006497e+00 1.131398e+00 1.161966e+00 1.225312e+00 1.155134e+00 1.096480e+00 5.000000e-02 5.000000e-02 5.000000e-02 7.687630e-02 1.117267e-01 1.907834e-01 1.963350e-01 2.229393e-01 2.411651e-01 2.086790e-01 1.948944e-01 2.160727e-01 2.285656e-01 5.000000e-02
<GCONST> 5.850741e+01
<STATE> 12
<MEAN> 39
 -4.986026e+00 -7.603291e+00 -2.888362e-01 -2.056744e+00 9.327522e-01 -5.292440e+00 2.672450e-02 -3.346266e+00 -2.533441e-01 -3.129785e+00 2.454712e+00 -1.827307e+00 6.711582e-03 5.086293e-01 3.964050e-01 4.093153e-01 1.439099e-01 3.162329e-01 1.545685e-01 3.479089e-02 -1.214823e-01 -1.631384e-01 -2.701882e-01 -1.780398e-01 -2.550618e-01 2.092452e-02 -1.531396e-01 -1.832927e-01 -1.235674e-01 4.755722e-02 3.950337e-02 1.536987e-01 2.290305e-01 2.395997e-01 1.616280e-01 8.756123e-02 -1.567902e-02 -5.203263e-03 -4.867743e-03
<VARIANCE> 39
 1.749827e+00 2.205627e+00 4.076663e+00 5.016843e+00 7.012150e+00 7.637672e+00 7.543479e+00 9.169714e+00 9.443508e+00 1.108654e+01 1.065224e+01 9.444838e+00 5.000000e-02 2.212271e-01 2.474185e-01 4.497821e-01 4.811395e-01 8.183839e-01 9.129430e-01 1.040339e+00 1.140443e+00 9.604050e-01 9.998862e-01 1.020805e+00 1.035219e+00 5.000000e-02 5.000000e-02 5.000000e-02 8.116395e-02 1.110487e-01 1.462703e-01 1.746886e-01 1.846530e-01 2.206575e-01 2.147247e-01 2.504714e-01 2.325177e-01 2.288413e-01 5.000000e-02
<GCONST> 5.657223e+01
<STATE> 13
<MEAN> 39
 -4.833231e+00 -7.461832e+00 1.494176e-01 -9.455045e-01 2.507977e+00 -3.145317e+00 2.304945e+00 -1.774507e+00 4.474158e-01 -3.477904e+00 1.420137e+00 -2.663616e+00 2.405445e-02 -4.305298e-02 -1.971739e-01 -1.615400e-01 -3.688688e-02 8.914556e-02 1.777959e-01 2.270267e-01 2.787167e-01 2.437189e-01 1.946577e-01 1.224900e-01 4.407529e-03 -7.696060e-05 -1.891132e-01 -1.804309e-01 -1.844387e-01 -1.264578e-01 -2.099002e-01 -1.725937e-01 -1.440851e-01 -1.214973e-02 5.520549e-02 1.542140e-01 1.639367e-01 1.439667e-01 -7.797298e-03
<VARIANCE> 39
 1.951545e+00 2.205076e+00 4.143342e+00 4.958144e+00 5.827341e+00 7.444236e+00 8.371911e+00 8.492943e+00 9.541734e+00 1.055718e+01 8.589462e+00 9.101579e+00 5.000000e-02 1.947132e-01 2.336918e-01 3.927906e-01 5.653736e-01 7.463002e-01 9.662603e-01 1.011181e+00 1.010514e+00 9.606150e-01 1.206802e+00 1.119179e+00 9.594644e-01 5.000000e-02 5.000000e-02 5.000000e-02 7.573337e-02 1.021458e-01 1.339062e-01 1.821762e-01 1.902633e-01 1.917467e-01 1.852679e-01 2.367581e-01 2.117567e-01 1.924902e-01 5.000000e-02
<GCONST> 5.529203e+01
<STATE> 14
<MEAN> 39
 -6.251626e+00 -9.139544e+00 -1.662124e+00 -1.936817e+00 1.008319e+00 -4.249973e+00 2.087975e+00 -9.575515e-01 9.154788e-01 -2.371080e+00 2.866382e+00 -1.602358e+00 -3.945749e-02 -6.067079e-02 -3.878110e-02 -3.570116e-03 -4.351674e-02 -1.354219e-01 -1.543187e-01 -2.055725e-01 -1.095283e-01 5.532530e-03 8.595606e-02 1.159680e-01 6.619043e-02 -3.365669e-03 1.675797e-02 6.981713e-02 8.036750e-02 4.301045e-02 3.751009e-03 -1.778771e-02 -6.256996e-02 -1.227718e-01 -7.610365e-02 -7.559523e-02 -9.261978e-02 -3.791628e-02 -1.165916e-05
<VARIANCE> 39
 2.016822e+00 2.344547e+00 3.719069e+00 5.257717e+00 6.650306e+00 8.474186e+00 8.632162e+00 1.013983e+01 1.084802e+01 9.756691e+00 9.742277e+00 9.242250e+00 5.000000e-02 2.485304e-01 2.702643e-01 3.947158e-01 5.613570e-01 6.569674e-01 8.684834e-01 8.321648e-01 1.051608e+00 9.996549e-01 1.046650e+00 1.113215e+00 1.010057e+00 5.000000e-02 5.000000e-02 5.000000e-02 7.179385e-02 1.132161e-01 1.381634e-01 1.907681e-01 1.788120e-01 2.213909e-01 2.037951e-01 2.126167e-01 2.328209e-01 1.995835e-01 5.000000e-02
<GCONST> 5.626603e+01
<STATE> 15
<MEAN> 39
 -4.737123e+00 -7.380386e+00 4.348348e-01 -1.333411e+00 1.482928e+00 -4.600209e+00 3.926580e-01 -3.097211e+00 4.387713e-01 -2.590843e+00 2.593718e+00 -2.199918e+00 2.278524e-02 -1.216157e-01 -8.681718e-02 -8.761065e-02 -3.951773e-02 -1.358973e-01 -8.137996e-02 -1.464007e-01 -1.782544e-01 -1.596784e-01 -1.137779e-01 -1.527863e-01 -6.497328e-02 -7.215676e-03 -1.557855e-01 -1.290517e-01 -1.713009e-01 -3.728758e-02 -3.344997e-02 5.886024e-02 1.676322e-01 1.787389e-01 3.741532e-02 -1.171720e-02 -3.960966e-02 2.353803e-02 -5.288193e-03
<VARIANCE> 39
 2.111186e+00 2.665563e+00 4.164785e+00 5.027396e+00 5.891848e+00 7.446571e+00 7.763866e+00 8.383613e+00 1.006795e+01 9.438483e+00 9.134496e+00 7.930876e+00 5.000000e-02 2.525620e-01 3.250821e-01 5.257468e-01 6.219829e-01 6.943831e-01 8.570854e-01 8.484779e-01 9.839540e-01 1.063217e+00 1.049658e+00 1.142279e+00 8.547319e-01 5.000000e-02 5.000000e-02 5.758660e-02 8.700697e-02 1.278438e-01 1.357930e-01 1.703035e-01 1.722669e-01 1.961112e-01 2.194104e-01 2.126102e-01 2.343404e-01 1.894724e-01 5.000000e-02
<GCONST> 5.633903e+01
<STATE> 16
<MEAN> 39
 -6.446287e+00 -9.242279e+00 -1.831588e+00 -2.407079e+00 3.336904e-01 -5.066189e+00 5.962474e-01 -2.807852e+00 -2.736197e-01 -3.461585e+00 1.569994e+00 -2.176940e+00 -5.536048e-02 -5.345082e-01 -3.111810e-01 -3.469326e-01 3.922316e-02 -4.051798e-02 2.377812e-01 5.082121e-01 5.519793e-01 3.180943e-01 1.196042e-01 -4.071796e-02 1.508718e-01 -1.766287e-02 4.127684e-02 8.246223e-02 9.512156e-02 1.069064e-01 1.435994e-01 1.537898e-01 2.021543e-01 1.776505e-01 1.703774e-01 1.214518e-01 1.040460e-01 6.687127e-02 4.113572e-03
<VARIANCE> 39
 1.978361e+00 3.034804e+00 4.532908e+00 6.384595e+00 7.504850e+00 1.003609e+01 8.819753e+00 9.175426e+00 1.049016e+01 9.755631e+00 1.086068e+01 9.989139e+00 5.000000e-02 2.257121e-01 3.270015e-01 5.403585e-01 6.398902e-01 8.151377e-01 1.053615e+00 9.997244e-01 1.056582e+00 1.112171e+00 1.091874e+00 1.141310e+00 9.901032e-01 5.000000e-02 5.000000e-02 5.530710e-02 9.220994e-02 1.319599e-01 1.618586e-01 2.087988e-01 1.738159e-01 2.008810e-01 2.301703e-01 2.249745e-01 2.410805e-01 2.044962e-01 5.000000e-02
<GCONST> 5.941636e+01
<STATE> 17
<MEAN> 39
 -7.387752e+00 -9.481827e+00 -1.675557e+00 -1.236020e+00 1.393859e+00 -3.291200e+00 3.069686e+00 -7.895741e-02 1.671796e+00 -2.135638e+00 2.463046e+00 -1.291728e+00 -7.452326e-02 -1.839584e-01 -7.746668e-02 -1.276015e-01 5.828660e-02 4.741300e-02 1.668704e-01 3.155454e-01 2.649925e-01 1.769961e-01 7.852880e-02 3.540404e-02 9.767216e-02 -2.905780e-03 1.805448e-01 1.135820e-01 8.797666e-02 -7.294634e-02 -5.334791e-02 -1.624023e-01 -2.500920e-01 -2.682638e-01 -1.584633e-01 -8.587152e-02 -3.502186e-02 -7.638716e-02 5.798135e-03
<VARIANCE> 39
 1.298757e+00 2.378959e+00 4.324138e+00 5.453060e+00 7.571655e+00 1.013818e+01 9.206428e+00 9.915453e+00 1.169223e+01 1.072821e+01 1.066925e+01 9.346104e+00 5.000000e-02 1.870847e-01 2.709538e-01 4.010078e-01 6.169270e-01 8.289450e-01 1.061843e+00 1.014684e+00 1.129307e+00 1.226970e+00 1.201276e+00 1.254281e+00 9.629843e-01 5.000000e-02 5.000000e-02 5.000000e-02 9.393726e-02 1.182362e-01 1.622252e-01 2.099646e-01 1.903149e-01 1.964732e-01 2.261059e-01 2.494890e-01 2.536460e-01 1.890455e-01 5.000000e-02
<GCONST> 5.840367e+01
<STATE> 18
<MEAN> 39
 -7.762179e+00 -9.802917e+00 -2.627987e+00 -2.013844e+00 9.495908e-01 -3.737635e+00 2.639596e+00 -9.147351e-01 1.493880e+00 -2.403584e+00 1.867158e+00 -1.522281e+00 -7.934750e-02 4.951416e-01 4.166805e-01 3.607224e-01 -1.333276e-01 -2.271610e-02 -3.391002e-01 -5.174580e-01 -5.691885e-01 -3.900253e-01 -1.810944e-01 -2.534650e-02 -1.087183e-01 1.571306e-02 2.873865e-01 1.902917e-01 2.517360e-01 3.954441e-02 6.006791e-02 -7.776479e-02 -1.753337e-01 -1.843535e-01 -9.440079e-02 -3.894732e-02 6.584086e-02 -3.250893e-02 8.734604e-03
<VARIANCE> 39
 2.734397e+00 5.670741e+00 5.679444e+00 7.140499e+00 8.868593e+00 1.121725e+01 1.118146e+01 1.241457e+01 1.495562e+01 1.269811e+01 1.151081e+01 9.894852e+00 5.000000e-02 2.403593e-01 2.762223e-01 4.471569e-01 6.558830e-01 7.292265e-01 9.570548e-01 1.020633e+00 9.833506e-01 1.140391e+00 1.373567e+00 1.297333e+00 9.484397e-01 5.000000e-02 5.170833e-02 9.254942e-02 8.888017e-02 1.522193e-01 1.717491e-01 2.146216e-01 2.304000e-01 2.403697e-01 2.979881e-01 2.715604e-01 2.553698e-01 1.906397e-01 5.000000e-02
<GCONST> 6.363428e+01
<STATE> 19
<MEAN> 39
 -5.562794e+00 -7.975115e+00 -6.538667e-01 -2.193528e+00 8.435404e-01 -4.829940e+00 7.499560e-01 -2.751063e+00 6.740741e-02 -3.189956e+00 2.104697e+00 -1.842655e+00 -1.519340e-02 7.311167e-01 5.652810e-01 6.281495e-01 1.141028e-01 1.238452e-01 -1.936574e-01 -3.544631e-01 -4.626856e-01 -1.028980e-01 -7.293745e-02 1.215014e-01 -1.153619e-01 2.691315e-02 -7.653154e-02 -1.103303e-01 -5.510282e-02 8.513212e-02 6.025454e-02 1.267059e-01 1.475496e-01 1.652470e-01 1.099728e-01 5.104214e-02 2.314932e-02 -1.846411e-03 -2.124240e-03
<VARIANCE> 39
 1.937753e+00 2.168332e+00 3.332593e+00 5.164639e+00 5.985651e+00 8.397724e+00 8.580502e+00 1.005093e+01 1.126001e+01 1.141691e+01 1.199216e+01 8.495295e+00 5.000000e-02 2.299823e-01 3.027012e-01 4.002529e-01 5.766460e-01 7.376252e-01 8.856481e-01 9.889125e-01 1.126993e+00 1.212139e+00 1.219016e+00 1.102690e+00 8.659298e-01 5.000000e-02 5.000000e-02 5.000000e-02 6.830811e-02 1.236499e-01 1.344171e-01 1.879905e-01 1.933043e-01 2.120830e-01 2.266757e-01 2.517721e-01 2.525924e-01 1.846762e-01 5.000000e-02
<GCONST> 5.715509e+01
<STATE> 20
<MEAN> 39
 -4.231870e+00 -6.851736e+00 8.562433e-01 -1.070104e+00 1.661886e+00 -4.458544e+00 1.197569e+00 -2.825986e+00 7.798486e-01 -2.509214e+00 2.776037e+00 -2.091709e+00 4.915387e-02 9.344319e-02 -1.204167e-01 -2.791143e-02 5.061143e-02 7.164770e-02 6.080828e-02 -2.970254e-02 -3.671074e-02 -8.737580e-02 -8.572280e-02 -4.450631e-02 -9.565856e-02 2.899736e-03 -3.167548e-01 -3.033254e-01 -3.171145e-01 -1.153286e-01 -8.575281e-02 3.686727e-02 7.558509e-02 1.530256e-01 -1.435322e-02 -2.012126e-02 -5.872166e-02 4.574264e-02 -1.263339e-02
<VARIANCE> 39
 1.630705e+00 2.018206e+00 3.909892e+00 3.809360e+00 5.256121e+00 7.525532e+00 9.154723e+00 9.647913e+00 9.375158e+00 1.032088e+01 9.746693e+00 7.970488e+00 5.000000e-02 2.410705e-01 2.915225e-01 4.387125e-01 6.517584e-01 7.086393e-01 7.890226e-01 9.428517e-01 1.099465e+00 1.157792e+00 1.166566e+00 1.196961e+00 9.019978e-01 5.000000e-02 5.000000e-02 5.000000e-02 7.086826e-02 9.667143e-02 1.319751e-01 1.614572e-01 2.067162e-01 2.304041e-01 2.225187e-01 2.347806e-01 2.325557e-01 1.758670e-01 5.000000e-02
<GCONST> 5.557403e+01
<STATE> 21
<MEAN> 39
 -5.502260e+00 -8.669991e+00 -9.076737e-01 -1.856098e+00 1.266156e+00 -4.562699e+00 5.718402e-01 -2.852113e+00 -3.411973e-01 -3.508309e+00 1.985539e+00 -2.203461e+00 -1.128524e-02 -4.653818e-01 -4.542544e-01 -4.229589e-01 -1.091806e-01 -1.393466e-01 8.505643e-02 2.014795e-01 2.468466e-01 3.726406e-02 6.828913e-02 8.497033e-03 1.240510e-01 -1.885262e-02 -1.010920e-01 1.703398e-02 -1.586108e-02 2.448559e-02 -1.399784e-02 5.644199e-02 1.643195e-01 1.479708e-01 1.920778e-01 1.581054e-01 7.324275e-02 9.665658e-02 -2.285867e-03
<VARIANCE> 39
 1.993871e+00 2.560348e+00 4.586304e+00 5.172264e+00 6.773077e+00 8.536923e+00 8.505512e+00 9.652421e+00 1.099162e+01 9.918122e+00 9.414902e+00 8.587721e+00 5.000000e-02 2.118287e-01 2.497052e-01 4.425553e-01 4.927816e-01 6.709043e-01 8.898041e-01 1.017089e+00 1.098769e+00 1.081633e+00 1.117035e+00 1.121554e+00 8.932586e-01 5.000000e-02 5.000000e-02 5.000000e-02 7.604014e-02 1.102013e-01 1.390656e-01 1.679088e-01 1.851717e-01 2.282581e-01 2.399634e-01 2.395994e-01 2.373229e-01 1.809116e-01 5.000000e-02
<GCONST> 5.666149e+01
<STATE> 22
<MEAN> 39
 -7.006627e+00 -9.813701e+00 -2.221462e+00 -2.114677e+00 8.249170e-01 -3.887321e+00 2.519743e+00 -1.088193e+00 1.276253e+00 -2.262455e+00 2.429830e+00 -1.404140e+00 -6.535628e-02 -4.011353e-01 -1.737695e-01 -1.769946e-01 3.121076e-02 -5.156167e-03 2.421317e-01 4.626343e-01 5.622419e-01 5.708039e-01 4.762816e-01 2.326088e-01 2.697987e-01 -1.091779e-02 1.849435e-01 2.160526e-01 2.197496e-01 6.817276e-02 5.304877e-02 -6.743227e-02 -1.613045e-01 -1.413509e-01 -7.323407e-02 -4.380509e-02 -4.740563e-03 -7.285433e-02 7.103382e-03
<VARIANCE> 39
 1.902584e+00 2.909731e+00 4.218283e+00 5.788408e+00 7.937613e+00 1.034898e+01 9.372840e+00 1.080003e+01 1.082145e+01 9.388385e+00 1.086069e+01 9.026578e+00 5.000000e-02 1.970288e-01 2.009488e-01 3.772318e-01 4.639206e-01 6.701413e-01 9.763162e-01 9.523197e-01 1.223288e+00 1.215711e+00 1.171421e+00 1.032769e+00 8.902113e-01 5.000000e-02 5.000000e-02 5.000000e-02 7.525530e-02 1.166203e-01 1.632317e-01 2.230292e-01 2.000744e-01 2.082084e-01 2.192079e-01 2.181583e-01 2.233483e-01 1.761109e-01 5.000000e-02
<GCONST> 5.736023e+01
<STATE> 23
<MEAN> 39
 -7.206600e+00 -9.279503e+00 -1.470574e+00 -1.476175e+00 1.171528e+00 -3.564567e+00 2.709699e+00 -3.817878e-01 2.228716e+00 -1.238631e+00 3.246450e+00 -9.773294e-01 -6.047439e-02 2.640307e-01 3.645544e-01 3.307922e-01 9.511527e-02 1.201271e-01 -1.274983e-01 -2.810417e-01 -2.627497e-01 -1.681433e-01 -1.053983e-01 -7.680714e-02 -1.248013e-01 9.808674e-03 1.998253e-01 9.868316e-02 6.143008e-02 -4.009774e-02 4.700848e-03 -1.052866e-01 -1.769226e-01 -2.355668e-01 -2.352396e-01 -2.309098e-01 -1.660632e-01 -1.574641e-01 5.547752e-03
<VARIANCE> 39
 2.073100e+00 2.527124e+00 4.502605e+00 5.656496e+00 7.716774e+00 1.003532e+01 9.333325e+00 1.276501e+01 1.190012e+01 1.127852e+01 1.092406e+01 9.085947e+00 5.000000e-02 2.573780e-01 2.169663e-01 3.700564e-01 5.607048e-01 7.938476e-01 1.036597e+00 8.857901e-01 1.014963e+00 1.117264e+00 1.231431e+00 1.159009e+00 9.068716e-01 5.000000e-02 5.000000e-02 5.000000e-02 8.534228e-02 1.140155e-01 1.536042e-01 1.947666e-01 1.894041e-01 2.574380e-01 2.381830e-01 2.458322e-01 2.241888e-01 1.876785e-01 5.000000e-02
<GCONST> 5.865991e+01
<STATE> 24
<MEAN> 39
 -4.952764e+00 -7.433163e+00 6.619424e-02 -1.384869e+00 1.636895e+00 -4.373697e+00 1.088171e+00 -2.501887e+00 3.633680e-01 -2.748663e+00 2.195519e+00 -2.249354e+00 1.868113e-02 1.669227e-01 -5.832852e-03 -2.989346e-02 -1.111266e-01 -8.123341e-02 -1.074387e-01 -1.063116e-01 -1.347957e-01 -2.151389e-01 -2.573695e-01 -1.961832e-01 -1.773062e-01 4.030098e-03 -1.465560e-01 -1.638651e-01 -1.437602e-01 -4.929287e-02 -8.587237e-02 2.287257e-02 7.486887e-02 8.625700e-02 4.133146e-02 3.649145e-02 3.886461e-02 7.128192e-02 -5.844478e-03
<VARIANCE> 39
 2.172220e+00 2.001959e+00 3.891277e+00 4.826630e+00 6.203403e+00 8.531198e+00 8.289763e+00 9.714206e+00 1.036123e+01 1.143580e+01 1.001780e+01 9.517367e+00 5.000000e-02 3.396060e-01 3.422455e-01 5.059596e-01 5.719420e-01 7.503158e-01 8.860611e-01 9.666888e-01 1.194473e+00 1.023717e+00 1.240345e+00 1.139649e+00 1.034211e+00 5.000000e-02 5.078000e-02 5.000000e-02 8.387993e-02 1.135387e-01 1.349405e-01 1.837534e-01 1.887346e-01 2.213735e-01 2.158027e-01 2.723777e-01 2.399753e-01 2.224297e-01 5.000000e-02
<GCONST> 5.826239e+01
<STATE> 25
<MEAN> 39
 -6.750369e+00 -9.382194e+00 -1.970435e+00 -2.038749e+00 4.000809e-01 -4.499755e+00 2.035009e+00 -1.425405e+00 4.167249e-01 -3.057093e+00 1.962249e+00 -1.977378e+00 -6.115977e-02 -8.300377e-03 1.788522e-02 -1.310941e-02 -5.488625e-02 -5.391897e-02 -3.866660e-02 -1.411254e-02 -4.760795e-02 -1.066756e-02 4.976420e-02 4.836780e-02 2.655533e-02 -1.032399e-03 8.869082e-02 1.058592e-01 1.287402e-01 7.785512e-02 1.057592e-01 4.858442e-02 8.026512e-04 -4.919798e-03 5.056465e-02 6.669281e-02 5.310785e-02 2.539518e-02 4.573271e-03
<VARIANCE> 39
 1.894410e+00 2.174016e+00 3.864681e+00 5.583671e+00 7.373359e+00 8.654161e+00 8.734523e+00 1.069289e+01 1.022680e+01 1.029186e+01 1.083643e+01 1.014338e+01 5.000000e-02 3.198619e-01 2.889287e-01 4.374064e-01 5.249986e-01 6.668927e-01 8.687237e-01 9.339695e-01 1.095057e+00 1.063319e+00 1.202092e+00 1.190634e+00 1.313734e+00 5.000000e-02 5.247280e-02 5.000000e-02 7.717379e-02 1.154549e-01 1.429304e-01 1.857222e-01 1.917223e-01 2.243972e-01 2.139903e-01 2.404711e-01 2.428798e-01 2.676064e-01 5.000000e-02
<GCONST> 5.840372e+01
<STATE> 26
<MEAN> 39
 -4.721344e+00 -7.457398e+00 2.295240e-01 -1.623689e+00 1.285174e+00 -4.542265e+00 9.191167e-01 -2.754185e+00 4.663006e-01 -2.545095e+00 2.581430e+00 -1.997890e+00 2.781514e-02 9.961344e-02 5.584621e-02 1.648107e-01 1.862426e-01 2.139537e-01 1.549374e-01 3.694553e-02 -9.212628e-04 2.785106e-02 2.492267e-02 1.570589e-02 1.804731e-02 5.629086e-03 -1.525598e-01 -1.183178e-01 -1.221662e-01 1.359947e-02 -1.044930e-02 5.870524e-02 9.765781e-02 9.797979e-02 1.667809e-02 -1.364851e-02 -3.605285e-02 -5.454007e-04 -4.814100e-03
<VARIANCE> 39
 2.173951e+00 2.290339e+00 4.292862e+00 4.680229e+00 5.249182e+00 7.395217e+00 9.862805e+00 1.037050e+01 1.081672e+01 1.013033e+01 1.052351e+01 9.817479e+00 5.000000e-02 3.605143e-01 3.316724e-01 5.453540e-01 5.294880e-01 6.610460e-01 8.707553e-01 1.148161e+00 1.141119e+00 1.173444e+00 1.165357e+00 1.209479e+00 1.137515e+00 5.000000e-02 5.217008e-02 5.928472e-02 9.665704e-02 9.862572e-02 1.263131e-01 1.702959e-01 2.290489e-01 2.448035e-01 2.542614e-01 2.483183e-01 2.578177e-01 2.566028e-01 5.000000e-02
<GCONST> 5.927031e+01
<STATE> 27
<MEAN> 39
 -6.442980e+00 -9.076601e+00 -1.278550e+00 -1.751454e+00 1.527761e+00 -3.613934e+00 2.186247e+00 -1.241878e+00 1.075965e+00 -2.607585e+00 2.114193e+00 -1.697156e+00 -3.300028e-02 -1.523111e-01 -6.381121e-02 -1.152327e-01 2.084668e-02 -1.166030e-02 4.267846e-03 8.848191e-02 1.072403e-01 2.599269e-02 2.680302e-02 -7.950420e-03 8.796801e-02 -4.506398e-03 6.145812e-02 7.605785e-02 -1.497797e-02 -7.226896e-02 -9.304009e-02 -1.339120e-01 -8.705454e-02 -8.628207e-02 -5.552455e-02 -2.433665e-02 -3.719493e-02 -3.915691e-02 3.928320e-03
<VARIANCE> 39
 3.068946e+00 3.509503e+00 5.330530e+00 7.249206e+00 8.409388e+00 1.044491e+01 1.012506e+01 1.150662e+01 1.249354e+01 1.126707e+01 1.031961e+01 8.849914e+00 5.000000e-02 3.773387e-01 3.864842e-01 5.807956e-01 7.065019e-01 8.312021e-01 1.152725e+00 1.103818e+00 1.450178e+00 1.323354e+00 1.249931e+00 1.098723e+00 9.964963e-01 5.000000e-02 7.072385e-02 6.918582e-02 1.052062e-01 1.295149e-01 1.439265e-01 1.978074e-01 1.789699e-01 2.244794e-01 2.192069e-01 2.247264e-01 1.953475e-01 1.619323e-01 5.000000e-02
<GCONST> 6.276835e+01
<TRANSP> 28
 0.000000e+00 1.000000e+00 0.000000e+00 0.000000e+00 0.000000e+00 0.000000e+00 0.000000e+00 0.000000e+00 0.000000e+00 0.000000e+00 0.000000e+00 0.000000e+00 0.000000e+00 0.000000e+00 0.000000e+00 0.000000e+00 0.000000e+00 0.000000e+00 0.000000e+00 0.000000e+00 0.000000e+00 0.000000e+00 0.000000e+00 0.000000e+00 0.000000e+00 0.000000e+00 0.000000e+00 0.000000e+00
 0.000000e+00 6.083580e-01 3.916419e-01 0.000000e+00 0.000000e+00 0.000000e+00 0.000000e+00 0.000000e+00 0.000000e+00 0.000000e+00 0.000000e+00 0.000000e+00 0.000000e+00 0.000000e+00 0.000000e+00 0.000000e+00 0.000000e+00 0.000000e+00 0.000000e+00 0.000000e+00 0.000000e+00 0.000000e+00 0.000000e+00 0.000000e+00 0.000000e+00 0.000000e+00 0.000000e+00 0.000000e+00
 0.000000e+00 0.000000e+00 6.624587e-01 3.375413e-01 0.000000e+00 0.000000e+00 0.000000e+00 0.000000e+00 0.000000e+00 0.000000e+00 0.000000e+00 0.000000e+00 0.000000e+00 0.000000e+00 0.000000e+00 0.000000e+00 0.000000e+00 0.000000e+00 0.000000e+00 0.000000e+00 0.000000e+00 0.000000e+00 0.000000e+00 0.000000e+00 0.000000e+00 0.000000e+00 0.000000e+00 0.000000e+00
 0.000000e+00 0.000000e+00 0.000000e+00 6.849651e-01 3.150349e-01 0.000000e+00 0.000000e+00 0.000000e+00 0.000000e+00 0.000000e+00 0.000000e+00 0.000000e+00 0.000000e+00 0.000000e+00 0.000000e+00 0.000000e+00 0.000000e+00 0.000000e+00 0.000000e+00 0.000000e+00 0.000000e+00 0.000000e+00 0.000000e+00 0.000000e+00 0.000000e+00 0.000000e+00 0.000000e+00 0.000000e+00
 0.000000e+00 0.000000e+00 0.000000e+00 0.000000e+00 4.331301e-01 5.668700e-01 0.000000e+00 0.000000e+00 0.000000e+00 0.000000e+00 0.000000e+00 0.000000e+00 0.000000e+00 0.000000e+00 0.000000e+00 0.000000e+00 0.000000e+00 0.000000e+00 0.000000e+00 0.000000e+00 0.000000e+00 0.000000e+00 0.000000e+00 0.000000e+00 0.000000e+00 0.000000e+00 0.000000e+00 0.000000e+00
 0.000000e+00 0.000000e+00 0.000000e+00 0.000000e+00 0.000000e+00 3.767431e-01 6.232569e-01 0.000000e+00 0.000000e+00 0.000000e+00 0.000000e+00 0.000000e+00 0.000000e+00 0.000000e+00 0.000000e+00 0.000000e+00 0.000000e+00 0.000000e+00 0.000000e+00 0.000000e+00 0.000000e+00 0.000000e+00 0.000000e+00 0.000000e+00 0.000000e+00 0.000000e+00 0.000000e+00 0.000000e+00
 0.000000e+00 0.000000e+00 0.000000e+00 0.000000e+00 0.000000e+00 0.000000e+00 3.685808e-01 6.314192e-01 0.000000e+00 0.000000e+00 0.000000e+00 0.000000e+00 0.000000e+00 0.000000e+00 0.000000e+00 0.000000e+00 0.000000e+00 0.000000e+00 0.000000e+00 0.000000e+00 0.000000e+00 0.000000e+00 0.000000e+00 0.000000e+00 0.000000e+00 0.000000e+00 0.000000e+00 0.000000e+00
 0.000000e+00 0.000000e+00 0.000000e+00 0.000000e+00 0.000000e+00 0.000000e+00 0.000000e+00 6.750463e-01 3.249537e-01 0.000000e+00 0.000000e+00 0.000000e+00 0.000000e+00 0.000000e+00 0.000000e+00 0.000000e+00 0.000000e+00 0.000000e+00 0.000000e+00 0.000000e+00 0.000000e+00 0.000000e+00 0.000000e+00 0.000000e+00 0.000000e+00 0.000000e+00 0.000000e+00 0.000000e+00
 0.000000e+00 0.000000e+00 0.000000e+00 0.000000e+00 0.000000e+00 0.000000e+00 0.000000e+00 0.000000e+00 4.608696e-01 5.391304e-01 0.000000e+00 0.000000e+00 0.000000e+00 0.000000e+00 0.000000e+00 0.000000e+00 0.000000e+00 0.000000e+00 0.000000e+00 0.000000e+00 0.000000e+00 0.000000e+00 0.000000e+00 0.000000e+00 0.000000e+00 0.000000e+00 0.000000e+00 0.000000e+00
 0.000000e+00 0.000000e+00 0.000000e+00 0.000000e+00 0.000000e+00 0.000000e+00 0.000000e+00 0.000000e+00 0.000000e+00 4.886296e-01 5.113703e-01 0.000000e+00 0.000000e+00 0.000000e+00 0.000000e+00 0.000000e+00 0.000000e+00 0.000000e+00 0.000000e+00 0.000000e+00 0.000000e+00 0.000000e+00 0.000000e+00 0.000000e+00 0.000000e+00 0.000000e+00 0.000000e+00 0.000000e+00
 0.000000e+00 0.000000e+00 0.000000e+00 0.000000e+00 0.000000e+00 0.000000e+00 0.000000e+00 0.000000e+00 0.000000e+00 0.000000e+00 4.440855e-01 5.559145e-01 0.000000e+00 0.000000e+00 0.000000e+00 0.000000e+00 0.000000e+00 0.000000e+00 0.000000e+00 0.000000e+00 0.000000e+00 0.000000e+00 0.000000e+00 0.000000e+00 0.000000e+00 0.000000e+00 0.000000e+00 0.000000e+00
 0.000000e+00 0.000000e+00 0.000000e+00 0.000000e+00 0.000000e+00 0.000000e+00 0.000000e+00 0.000000e+00 0.000000e+00 0.000000e+00 0.000000e+00 4.127809e-01 5.872191e-01 0.000000e+00 0.000000e+00 0.000000e+00 0.000000e+00 0.000000e+00 0.000000e+00 0.000000e+00 0.000000e+00 0.000000e+00 0.000000e+00 0.000000e+00 0.000000e+00 0.000000e+00 0.000000e+00 0.000000e+00
 0.000000e+00 0.000000e+00 0.000000e+00 0.000000e+00 0.000000e+00 0.000000e+00 0.000000e+00 0.000000e+00 0.000000e+00 0.000000e+00 0.000000e+00 0.000000e+00 4.478476e-01 5.521525e-01 0.000000e+00 0.000000e+00 0.000000e+00 0.000000e+00 0.000000e+00 0.000000e+00 0.000000e+00 0.000000e+00 0.000000e+00 0.000000e+00 0.000000e+00 0.000000e+00 0.000000e+00 0.000000e+00
 0.000000e+00 0.000000e+00 0.000000e+00 0.000000e+00 0.000000e+00 0.000000e+00 0.000000e+00 0.000000e+00 0.000000e+00 0.000000e+00 0.000000e+00 0.000000e+00 0.000000e+00 6.524569e-01 3.475431e-01 0.000000e+00 0.000000e+00 0.000000e+00 0.000000e+00 0.000000e+00 0.000000e+00 0.000000e+00 0.000000e+00 0.000000e+00 0.000000e+00 0.000000e+00 0.000000e+00 0.000000e+00
 0.000000e+00 0.000000e+00 0.000000e+00 0.000000e+00 0.000000e+00 0.000000e+00 0.000000e+00 0.000000e+00 0.000000e+00 0.000000e+00 0.000000e+00 0.000000e+00 0.000000e+00 0.000000e+00 5.910177e-01 4.089823e-01 0.000000e+00 0.000000e+00 0.000000e+00 0.000000e+00 0.000000e+00 0.000000e+00 0.000000e+00 0.000000e+00 0.000000e+00 0.000000e+00 0.000000e+00 0.000000e+00
 0.000000e+00 0.000000e+00 0.000000e+00 0.000000e+00 0.000000e+00 0.000000e+00 0.000000e+00 0.000000e+00 0.000000e+00 0.000000e+00 0.000000e+00 0.000000e+00 0.000000e+00 0.000000e+00 0.000000e+00 4.512973e-01 5.487027e-01 0.000000e+00 0.000000e+00 0.000000e+00 0.000000e+00 0.000000e+00 0.000000e+00 0.000000e+00 0.000000e+00 0.000000e+00 0.000000e+00 0.000000e+00
 0.000000e+00 0.000000e+00 0.000000e+00 0.000000e+00 0.000000e+00 0.000000e+00 0.000000e+00 0.000000e+00 0.000000e+00 0.000000e+00 0.000000e+00 0.000000e+00 0.000000e+00 0.000000e+00 0.000000e+00 0.000000e+00 6.162090e-01 3.837911e-01 0.000000e+00 0.000000e+00 0.000000e+00 0.000000e+00 0.000000e+00 0.000000e+00 0.000000e+00 0.000000e+00 0.000000e+00 0.000000e+00
 0.000000e+00 0.000000e+00 0.000000e+00 0.000000e+00 0.000000e+00 0.000000e+00 0.000000e+00 0.000000e+00 0.000000e+00 0.000000e+00 0.000000e+00 0.000000e+00 0.000000e+00 0.000000e+00 0.000000e+00 0.000000e+00 0.000000e+00 3.572828e-01 6.427172e-01 0.000000e+00 0.000000e+00 0.000000e+00 0.000000e+00 0.000000e+00 0.000000e+00 0.000000e+00 0.000000e+00 0.000000e+00
 0.000000e+00 0.000000e+00 0.000000e+00 0.000000e+00 0.000000e+00 0.000000e+00 0.000000e+00 0.000000e+00 0.000000e+00 0.000000e+00 0.000000e+00 0.000000e+00 0.000000e+00 0.000000e+00 0.000000e+00 0.000000e+00 0.000000e+00 0.000000e+00 4.130876e-01 5.869123e-01 0.000000e+00 0.000000e+00 0.000000e+00 0.000000e+00 0.000000e+00 0.000000e+00 0.000000e+00 0.000000e+00
 0.000000e+00 0.000000e+00 0.000000e+00 0.000000e+00 0.000000e+00 0.000000e+00 0.000000e+00 0.000000e+00 0.000000e+00 0.000000e+00 0.000000e+00 0.000000e+00 0.000000e+00 0.000000e+00 0.000000e+00 0.000000e+00 0.000000e+00 0.000000e+00 0.000000e+00 4.918656e-01 5.081344e-01 0.000000e+00 0.000000e+00 0.000000e+00 0.000000e+00 0.000000e+00 0.000000e+00 0.000000e+00
 0.000000e+00 0.000000e+00 0.000000e+00 0.000000e+00 0.000000e+00 0.000000e+00 0.000000e+00 0.000000e+00 0.000000e+00 0.000000e+00 0.000000e+00 0.000000e+00 0.000000e+00 0.000000e+00 0.000000e+00 0.000000e+00 0.000000e+00 0.000000e+00 0.000000e+00 0.000000e+00 5.546553e-01 4.453448e-01 0.000000e+00 0.000000e+00 0.000000e+00 0.000000e+00 0.000000e+00 0.000000e+00
 0.000000e+00 0.000000e+00 0.000000e+00 0.000000e+00 0.000000e+00 0.000000e+00 0.000000e+00 0.000000e+00 0.000000e+00 0.000000e+00 0.000000e+00 0.000000e+00 0.000000e+00 0.000000e+00 0.000000e+00 0.000000e+00 0.000000e+00 0.000000e+00 0.000000e+00 0.000000e+00 0.000000e+00 4.403700e-01 5.596300e-01 0.000000e+00 0.000000e+00 0.000000e+00 0.000000e+00 0.000000e+00
 0.000000e+00 0.000000e+00 0.000000e+00 0.000000e+00 0.000000e+00 0.000000e+00 0.000000e+00 0.000000e+00 0.000000e+00 0.000000e+00 0.000000e+00 0.000000e+00 0.000000e+00 0.000000e+00 0.000000e+00 0.000000e+00 0.000000e+00 0.000000e+00 0.000000e+00 0.000000e+00 0.000000e+00 0.000000e+00 5.066066e-01 4.933934e-01 0.000000e+00 0.000000e+00 0.000000e+00 0.000000e+00
 0.000000e+00 0.000000e+00 0.000000e+00 0.000000e+00 0.000000e+00 0.000000e+00 0.000000e+00 0.000000e+00 0.000000e+00 0.000000e+00 0.000000e+00 0.000000e+00 0.000000e+00 0.000000e+00 0.000000e+00 0.000000e+00 0.000000e+00 0.000000e+00 0.000000e+00 0.000000e+00 0.000000e+00 0.000000e+00 0.000000e+00 6.335227e-01 3.664772e-01 0.000000e+00 0.000000e+00 0.000000e+00
 0.000000e+00 0.000000e+00 0.000000e+00 0.000000e+00 0.000000e+00 0.000000e+00 0.000000e+00 0.000000e+00 0.000000e+00 0.000000e+00 0.000000e+00 0.000000e+00 0.000000e+00 0.000000e+00 0.000000e+00 0.000000e+00 0.000000e+00 0.000000e+00 0.000000e+00 0.000000e+00 0.000000e+00 0.000000e+00 0.000000e+00 0.000000e+00 7.155583e-01 2.844417e-01 0.000000e+00 0.000000e+00
 0.000000e+00 0.000000e+00 0.000000e+00 0.000000e+00 0.000000e+00 0.000000e+00 0.000000e+00 0.000000e+00 0.000000e+00 0.000000e+00 0.000000e+00 0.000000e+00 0.000000e+00 0.000000e+00 0.000000e+00 0.000000e+00 0.000000e+00 0.000000e+00 0.000000e+00 0.000000e+00 0.000000e+00 0.000000e+00 0.000000e+00 0.000000e+00 0.000000e+00 5.957416e-01 4.042584e-01 0.000000e+00
 0.000000e+00 0.000000e+00 0.000000e+00 0.000000e+00 0.000000e+00 0.000000e+00 0.000000e+00 0.000000e+00 0.000000e+00 0.000000e+00 0.000000e+00 0.000000e+00 0.000000e+00 0.000000e+00 0.000000e+00 0.000000e+00 0.000000e+00 0.000000e+00 0.000000e+00 0.000000e+00 0.000000e+00 0.000000e+00 0.000000e+00 0.000000e+00 0.000000e+00 0.000000e+00 5.844418e-01 4.155581e-01
 0.000000e+00 0.000000e+00 0.000000e+00 0.000000e+00 0.000000e+00 0.000000e+00 0.000000e+00 0.000000e+00 0.000000e+00 0.000000e+00 0.000000e+00 0.000000e+00 0.000000e+00 0.000000e+00 0.000000e+00 0.000000e+00 0.000000e+00 0.000000e+00 0.000000e+00 0.000000e+00 0.000000e+00 0.000000e+00 0.000000e+00 0.000000e+00 0.000000e+00 0.000000e+00 0.000000e+00 0.000000e+00
<ENDHMM>
