~o
<STREAMINFO> 1 39
<VECSIZE> 39<NULLD><MFCC_E_D_A><DIAGC>
~h "To"
<BEGINHMM>
<NUMSTATES> 28
<STATE> 2
<MEAN> 39
 -7.224462e+00 -8.509836e+00 -2.530753e+00 -2.079493e+00 1.506135e+00 -3.586920e+00 7.118955e-01 -3.846883e+00 3.302644e+00 -4.657581e+00 8.515760e-01 -1.077250e-01 -7.405441e-02 -1.120125e-01 5.735458e-01 -2.914351e-01 -8.506195e-02 1.158401e-01 -3.292616e-01 -2.893023e-01 -1.669974e-01 -8.355963e-02 -1.710550e-01 1.196283e-01 -3.127627e-01 1.461840e-02 -1.265712e-01 2.430754e-02 -3.670079e-01 -1.985738e-01 2.468766e-02 -2.770910e-01 9.994374e-02 3.312869e-01 1.075257e-01 6.483393e-02 6.191524e-03 -1.536040e-01 1.467710e-02
<VARIANCE> 39
 7.250712e+00 1.171715e+01 2.176342e+01 6.963126e+00 1.003092e+01 3.235146e+01 1.551700e+01 1.479186e+01 1.975045e+01 1.191164e+01 1.278951e+01 1.369685e+01 5.000000e-02 1.237925e+00 1.669313e+00 1.271282e+00 5.511175e-01 1.407321e+00 2.357745e+00 1.215557e+00 1.723029e+00 1.458890e+00 1.313491e+00 6.412989e-01 5.807592e-01 5.000000e-02 2.744879e-01 3.997126e-01 5.969234e-01 1.206826e-01 2.236265e-01 5.284391e-01 2.706299e-01 3.540860e-01 3.383916e-01 3.284363e-01 1.526934e-01 1.246226e-01 5.000000e-02
<GCONST> 8.048930e+01
<STATE> 3
<MEAN> 39
 -7.996912e+00 -5.358252e+00 -3.695988e+00 -4.875189e+00 2.017349e+00 -5.517799e+00 1.692311e+00 -2.228244e+00 2.537717e+00 -3.852326e+00 2.393253e+00 -2.546469e+00 4.751902e-02 -8.144692e-01 -4.183694e-01 -4.252544e+00 -2.159585e+00 1.178046e+00 -2.787190e+00 1.509273e+00 1.319056e+00 7.740794e-02 -1.736710e-01 -9.965690e-01 -9.378980e-01 1.780887e-01 3.430927e-01 -1.401736e+00 -1.053714e+00 1.158182e-02 3.478797e-01 6.811402e-02 4.917493e-01 -1.548073e-01 -1.701230e-02 -3.122441e-01 -5.882275e-01 -5.234478e-02 4.628398e-02
<VARIANCE> 39
 1.201249e+01 5.963227e+00 1.926891e+01 2.837935e+01 1.130441e+01 2.479948e+01 2.273435e+01 1.848025e+01 2.546173e+01 7.953621e+00 6.061552e+00 1.816398e+01 5.000000e-02 1.605107e+00 3.005496e+00 7.045809e+00 8.337461e-01 7.152300e-01 1.941852e+00 1.303427e+00 1.947954e+00 2.405345e+00 1.583412e+00 1.712134e+00 1.886010e+00 5.000000e-02 1.587746e-01 3.427477e-01 7.191582e-01 4.399123e-01 3.236243e-01 7.493208e-01 3.200663e-01 3.731845e-01 4.538454e-01 4.109816e-01 2.468475e-01 2.117307e-01 5.000000e-02
<GCONST> 8.983431e+01
<STATE> 4
<MEAN> 39
 -8.866010e+00 -1.426922e+01 -2.039313e+01 -9.224545e+00 4.914678e+00 -1.132037e+01 7.674707e+00 2.787230e+00 3.978401e+00 -6.529570e+00 -4.962066e+00 -4.907974e+00 6.907683e-01 7.862012e-01 -4.542415e+00 -3.657497e+00 -2.136179e-01 1.634919e+00 2.111538e-01 1.508412e+00 -1.461698e+00 5.967904e-01 -1.206184e+00 -1.170940e+00 -9.488002e-01 1.630132e-01 5.284529e-01 -8.402030e-02 1.256228e+00 5.339179e-01 5.172263e-02 1.524192e+00 -5.274738e-01 -1.261883e+00 -1.276850e-01 3.443546e-01 7.915125e-01 2.918373e-05 -4.295792e-02
<VARIANCE> 39
 2.593265e+01 5.090343e+01 6.502015e+01 2.473318e+01 2.161052e+01 3.754816e+01 3.353966e+01 3.488503e+01 2.570067e+01 2.274357e+01 1.083681e+01 1.254728e+01 7.868841e-02 1.173318e+00 1.453742e+00 6.681912e+00 1.698284e+00 2.092918e+00 4.065986e+00 1.358733e+00 6.115080e+00 3.224802e+00 2.743625e+00 2.203653e+00 1.973303e+00 5.000000e-02 3.421190e-01 1.199571e+00 7.319794e-01 2.724857e-01 1.845369e-01 4.374243e-01 2.775700e-01 5.081724e-01 6.382049e-01 5.333967e-01 3.232372e-01 3.275902e-01 5.000000e-02
<GCONST> 1.033290e+02
<STATE> 5
<MEAN> 39
 -6.268067e+00 -2.085102e+01 -2.009252e+01 -7.733481e+00 9.637889e+00 -5.012685e+00 7.244068e+00 -5.154830e+00 4.789080e+00 -5.805110e+00 -3.882518e-01 -5.332449e+00 7.967575e-01 1.113420e+00 -1.149179e+00 2.438020e-01 1.627545e-01 1.340000e+00 3.059870e+00 -3.928680e-01 -2.594329e+00 -8.417961e-01 1.488519e+00 1.604941e+00 -1.332279e+00 3.591082e-02 -8.319078e-02 1.156504e+00 8.041670e-01 -5.065827e-01 -5.393617e-01 1.495155e-01 -2.553774e-01 1.258051e-01 -3.278346e-01 5.637079e-01 2.294817e-01 2.299502e-02 -2.624279e-02
<VARIANCE> 39
 1.968514e+00 2.973213e+01 4.965333e+01 9.520001e+00 2.027808e+01 3.424207e+01 1.716106e+01 1.161459e+01 1.992296e+01 1.675821e+01 9.430024e+00 1.095308e+01 1.215702e-01 1.348231e+00 7.624601e-01 3.211398e-01 8.015814e-01 2.042246e-01 1.053393e+00 1.060207e+00 1.880257e+00 1.845555e+00 7.419916e-01 7.965698e-01 7.009313e-01 5.000000e-02 1.108777e-01 3.016588e-01 1.000742e+00 1.271348e-01 1.452925e-01 2.715340e-01 1.163644e-01 3.344952e-01 3.434346e-01 5.689363e-01 2.315136e-01 5.585539e-01 5.000000e-02
<GCONST> 7.803144e+01
<STATE> 6
<MEAN> 39
 -4.367018e+00 -2.039318e+01 -2.091530e+01 -9.626696e+00 8.043242e+00 1.126539e+00 5.825133e+00 -1.077156e+01 3.044379e+00 -1.766432e+00 1.629856e+00 -1.036412e+01 8.854080e-01 4.198610e-01 3.165767e-01 6.241875e-02 -1.260766e+00 4.487333e-01 1.198538e+00 7.815827e-01 -1.130193e+00 -4.719223e-01 1.487862e+00 4.619420e-01 -5.201523e-01 1.659383e-02 -3.284075e-01 2.341488e-01 -2.189432e-01 -3.110344e-01 -1.667126e-01 -5.819632e-01 2.295632e-01 4.434720e-01 -1.233579e-02 -3.504291e-01 -3.751884e-01 5.733904e-01 -1.218548e-03
<VARIANCE> 39
 4.587539e+00 2.271129e+01 5.186473e+01 2.155186e+01 1.791830e+01 2.606354e+01 2.797068e+01 1.289070e+01 6.834246e+00 2.538482e+01 1.146682e+01 2.725684e+00 7.915340e-02 5.330873e-01 1.509453e-01 5.284563e-01 7.776386e-01 7.107170e-01 1.759689e+00 7.189673e-01 4.605474e-01 5.907874e-01 1.671109e+00 6.840465e-01 1.305671e+00 5.000000e-02 1.140795e-01 2.545746e-01 5.005206e-01 1.758634e-01 1.676322e-01 1.212646e-01 1.320743e-01 1.678501e-01 1.650017e-01 2.887245e-01 5.852634e-02 1.068448e-01 5.000000e-02
<GCONST> 6.923759e+01
<STATE> 7
<MEAN> 39
 -4.477445e+00 -1.712852e+01 -1.849897e+01 -1.062882e+01 9.543629e+00 -6.926620e-01 1.012974e+01 -1.011224e+01 2.144648e+00 -6.934467e-01 -4.401106e-01 -7.807902e+00 7.361240e-01 -6.515033e-02 -8.557468e-01 -1.726611e+00 -1.995230e+00 -6.386948e-01 -5.470898e-02 4.786580e-01 -5.063370e-01 -6.261674e-01 -2.322648e-01 -7.503917e-01 1.347461e+00 6.935407e-02 -1.436608e-01 -4.303367e-01 -1.802088e-01 -2.908316e-02 -3.875596e-02 -1.246613e-01 -3.591696e-01 3.991504e-01 7.118883e-02 -4.893673e-01 1.749958e-01 5.213455e-02 8.698378e-03
<VARIANCE> 39
 1.142274e+01 3.536367e+01 9.368426e+01 2.884547e+01 5.686726e+01 3.143478e+01 3.263087e+01 3.938816e+01 2.500595e+01 2.483868e+01 1.012542e+01 2.867126e+01 1.566851e-01 4.051110e-01 2.617452e+00 1.077853e+01 5.649313e-01 2.943897e+00 2.374011e+00 4.963199e-01 5.780622e-01 1.547015e-01 2.459946e+00 2.888910e+00 2.160927e-01 5.000000e-02 5.000000e-02 1.785102e-01 7.595333e-01 1.652351e-01 3.703602e-01 2.596084e-01 2.246318e-01 7.714795e-02 2.274062e-01 2.942835e-01 1.678309e-01 1.973800e-01 5.000000e-02
<GCONST> 8.630564e+01
<STATE> 8
<MEAN> 39
 -5.461730e+00 -2.204315e+01 -2.213911e+01 -1.301892e+01 7.439178e+00 -2.848623e+00 7.609984e+00 -7.366875e+00 1.743315e+00 -2.526602e+00 -1.607642e+00 -5.129303e+00 9.247990e-01 3.230586e-01 -1.270548e+00 3.424744e-01 -1.544241e+00 1.497640e+00 1.188164e+00 -2.557685e-01 1.210514e-01 -4.292140e-01 4.555928e-01 1.273326e+00 -3.080384e-01 4.790302e-02 1.460438e-01 2.043393e-01 5.376762e-01 1.714322e-01 1.153912e-01 1.019217e-01 -3.130035e-01 -6.033944e-02 9.891474e-02 9.996767e-02 2.539698e-01 -4.491549e-01 -2.236729e-02
<VARIANCE> 39
 1.477429e+01 6.385433e+00 1.451479e+01 1.746280e+01 6.715955e+01 3.713415e+01 1.229718e+01 4.015761e+01 1.079232e+01 2.765015e+01 2.936425e+01 6.260778e+00 5.000000e-02 1.356316e+00 1.993093e+00 5.491067e+00 8.744383e-01 2.697863e+00 1.805107e+00 1.041840e+00 3.256264e-01 7.543908e-01 2.681082e+00 2.246077e+00 1.423900e+00 5.000000e-02 1.764103e-01 1.092749e-01 1.539998e+00 1.912405e-01 1.133271e+00 5.038083e-01 6.968549e-02 6.579233e-02 6.512668e-02 8.537788e-01 9.082206e-01 2.290681e-01 5.000000e-02
<GCONST> 8.706468e+01
<STATE> 9
<MEAN> 39
 -2.400645e+00 -2.094533e+01 -2.291584e+01 -1.627201e+01 1.667976e+01 1.463733e+00 9.556160e+00 -9.829894e+00 -2.343356e+00 -2.381477e+00 6.277046e+00 -1.004073e+01 9.767480e-01 -1.129142e-02 1.988165e-01 -2.480464e-01 -4.492278e-01 1.094628e-01 -2.381472e-01 -3.855982e-01 -4.502160e-01 -5.570358e-02 -6.723127e-01 3.947111e-01 -8.348573e-01 -4.553697e-03 2.648912e-02 6.862012e-02 -7.117236e-02 1.679033e-01 -5.858131e-02 -1.256573e-01 2.530344e-02 -7.346420e-03 1.090994e-01 3.095933e-02 -2.837412e-01 2.535083e-03 -1.739601e-03
<VARIANCE> 39
 6.407583e+00 9.805422e+00 9.707129e+00 7.934632e+00 2.057806e+01 7.462408e+00 4.462347e+00 1.180125e+01 1.211720e+01 6.988191e+00 1.396193e+01 6.997905e+00 5.000000e-02 2.705224e-01 3.855439e-01 2.306869e-01 9.315534e-01 2.815775e-01 7.358334e-01 4.598511e-01 4.516485e-01 6.499369e-01 1.358224e+00 7.643434e-01 4.097912e-01 5.000000e-02 5.000000e-02 5.000000e-02 5.680031e-02 1.874467e-01 7.644834e-02 8.682328e-02 8.715276e-02 8.563085e-02 1.232387e-01 1.417663e-01 7.637603e-02 1.792307e-01 5.000000e-02
<GCONST> 5.217870e+01
<STATE> 10
<MEAN> 39
 -6.159669e+00 -2.146610e+01 -1.878100e+01 -1.984861e+01 1.287331e+01 2.990698e+00 6.819163e+00 -1.490958e+01 3.279543e+00 -3.731298e+00 1.335553e+00 -1.204043e+01 9.322240e-01 4.682234e-01 2.524487e-01 4.537137e-01 -5.474345e-02 3.148977e-01 5.653867e-01 -7.478877e-02 -1.300611e-01 1.975225e-01 2.064632e-01 -6.391948e-01 9.872254e-02 -4.727510e-03 1.692988e-01 -3.739983e-02 4.008117e-02 9.038706e-02 -5.808489e-02 1.528092e-01 8.365902e-02 3.649167e-01 -2.340599e-01 3.081413e-01 7.929000e-02 2.969873e-01 2.584299e-04
<VARIANCE> 39
 1.080033e+01 9.218182e+00 2.842978e+01 1.193388e+01 2.703641e+01 2.782877e+01 3.160372e+00 1.767619e+01 2.229152e+01 1.106248e+01 1.235077e+01 6.956413e+00 5.000000e-02 1.712746e-01 6.568184e-01 3.846603e-01 1.167679e+00 2.514807e-01 6.335697e-01 4.501533e-01 6.538289e-01 5.489231e-01 7.310373e-01 2.492169e-01 2.928219e-01 5.000000e-02 5.000000e-02 1.449447e-01 5.000000e-02 3.299079e-01 7.135077e-02 9.199603e-02 6.903174e-02 5.000000e-02 9.931254e-02 2.131804e-01 1.027666e-01 5.000000e-02 5.000000e-02
<GCONST> 5.529610e+01
<STATE> 11
<MEAN> 39
 -1.901233e+00 -2.180254e+01 -1.931512e+01 -1.728274e+01 8.898816e+00 7.850540e+00 4.474650e+00 -9.756169e+00 -1.408450e-01 2.279222e+00 7.222162e-01 -8.503093e+00 9.481695e-01 5.040159e-01 -1.312234e-01 -1.529875e-01 -9.391154e-02 -2.796046e-01 6.569489e-01 -4.896570e-01 8.258443e-01 -5.598512e-01 7.964678e-01 3.049270e-02 4.100016e-01 -3.054072e-03 -6.656741e-02 6.441677e-02 -1.147783e-01 1.806614e-04 9.073367e-02 -2.466447e-01 -2.612292e-02 -9.854144e-02 9.191067e-02 -2.998575e-01 1.444948e-01 -6.322686e-02 -4.205295e-04
<VARIANCE> 39
 3.547221e+00 1.790048e+01 4.174751e+01 2.137820e+01 3.275604e+01 1.891825e+01 1.365929e+01 2.835267e+01 8.522354e+00 8.128715e+00 6.899688e+00 3.384862e+00 5.000000e-02 1.746041e-01 3.147208e-01 3.900719e-01 8.932498e-01 3.328771e-01 1.027098e+00 3.782313e-01 6.984081e-01 9.243888e-01 4.932186e-01 4.864480e-01 4.752674e-01 5.000000e-02 5.000000e-02 5.000000e-02 9.978743e-02 1.126666e-01 1.255919e-01 1.489317e-01 1.531938e-01 5.000000e-02 8.726461e-02 1.867580e-01 8.685976e-02 5.000000e-02 5.000000e-02
<GCONST> 5.591605e+01
<STATE> 12
<MEAN> 39
 -4.604973e-01 -2.107014e+01 -2.143777e+01 -1.741833e+01 1.279267e+01 4.088503e+00 5.641832e+00 -1.170298e+01 -1.593316e-01 1.990072e-01 2.155268e+00 -9.674834e+00 9.379338e-01 2.411934e-01 2.869432e-01 -1.554455e-01 -6.863383e-01 6.996057e-01 -6.955412e-01 8.539931e-02 -3.738242e-01 1.161824e-01 -7.830376e-01 1.279671e-01 -4.059986e-02 -8.286296e-03 -1.770184e-02 -3.044902e-02 4.665625e-02 4.211789e-02 -1.508269e-01 -3.172090e-02 -4.463303e-02 -7.968074e-02 -8.189880e-03 -1.986722e-01 -2.745097e-01 5.656854e-02 -2.336371e-03
<VARIANCE> 39
 1.601688e+00 2.041894e+01 2.404305e+01 2.477819e+01 3.485261e+01 3.565914e+01 2.956160e+01 4.502483e+01 4.431257e+00 1.056172e+01 1.164405e+01 1.227821e+01 5.000000e-02 9.041709e-02 1.431922e-01 4.189056e-01 3.545359e-01 7.157587e-01 1.688220e+00 1.990479e+00 7.917385e-01 6.641803e-01 8.672314e-01 2.790896e-01 5.363393e-01 5.000000e-02 5.000000e-02 5.000000e-02 5.000000e-02 2.160478e-01 1.601791e-01 2.501760e-01 1.912859e-01 1.551014e-01 5.000000e-02 9.887917e-02 8.113055e-02 1.827968e-01 5.000000e-02
<GCONST> 6.085918e+01
<STATE> 13
<MEAN> 39
 6.312045e-01 -1.939369e+01 -2.312858e+01 -1.865115e+01 1.563848e+01 1.791728e+00 7.299907e+00 -1.163495e+01 -5.482923e-01 -2.543544e+00 2.089495e+00 -1.006269e+01 8.767223e-01 6.832265e-01 -2.093720e-01 8.655953e-02 5.140747e-01 -1.042838e+00 5.190173e-01 -5.275298e-01 9.394224e-02 7.503695e-02 -2.991333e-01 -1.176337e+00 5.384083e-01 -1.873583e-02 1.501061e-01 -6.866571e-02 -2.425407e-02 4.002261e-01 -4.288741e-01 2.230607e-01 -1.044243e-01 -2.458492e-02 5.182574e-02 3.244305e-02 -2.771537e-01 1.247649e-01 -2.769223e-03
<VARIANCE> 39
 2.462758e+00 1.521781e+01 2.260031e+01 1.667182e+01 2.293572e+01 1.898416e+01 3.146003e+01 3.985896e+01 1.490878e+01 3.655687e+00 2.500757e+01 5.491040e+00 5.000000e-02 1.559922e-01 4.020359e-01 2.230273e-01 7.002367e-01 1.742076e+00 1.741190e+00 1.211925e+00 1.764481e+00 5.765119e-01 6.652192e-01 2.605458e+00 6.321426e-01 5.000000e-02 5.000000e-02 5.116208e-02 8.679124e-02 1.195991e-01 2.046107e-01 1.177764e-01 3.679600e-01 2.668783e-01 1.160118e-01 6.960756e-02 4.188909e-01 5.000000e-02 5.000000e-02
<GCONST> 6.589312e+01
<STATE> 14
<MEAN> 39
 2.885920e+00 -2.056731e+01 -2.280069e+01 -1.566738e+01 6.947788e+00 2.028826e+00 4.511712e+00 -1.326442e+01 2.584554e+00 -4.771378e+00 -2.596872e+00 -6.806303e+00 7.934745e-01 8.167841e-01 -4.151434e-01 2.129975e-01 1.143394e+00 -1.188578e+00 9.343268e-01 -7.567253e-01 2.675453e-01 2.198384e-01 -1.577738e-01 -1.117382e+00 4.251169e-01 -2.498576e-02 -2.269801e-01 6.969445e-03 4.328638e-01 -2.806928e-01 5.712937e-01 2.619963e-01 -8.581372e-02 5.106389e-01 -2.370044e-01 5.229664e-01 6.286378e-01 -3.034351e-01 -9.154934e-04
<VARIANCE> 39
 3.424008e+00 1.767516e+01 2.561702e+01 2.203482e+01 1.798826e+01 1.908949e+01 1.638213e+01 3.198854e+01 2.685547e+01 1.667317e+01 8.582139e+00 5.654063e+00 5.000000e-02 2.650232e-01 3.211384e-01 1.893143e+00 9.526642e-01 9.175152e-01 2.923565e+00 9.566793e-01 1.720953e+00 1.446220e+00 9.244947e-01 1.142660e+00 7.461749e-01 5.000000e-02 5.000000e-02 1.017635e-01 3.536650e-01 3.042627e-01 2.288029e-01 7.525802e-01 6.172208e-02 2.434577e-01 2.242088e-01 1.305042e-01 6.676190e-01 1.781755e-01 5.000000e-02
<GCONST> 7.583014e+01
<STATE> 15
<MEAN> 39
 2.603042e+00 -2.433307e+01 -1.710477e+01 -1.843772e+01 9.037375e+00 1.014292e+01 -3.682680e-01 -6.734738e+00 -1.110661e+00 -3.341520e-01 -1.797119e+00 -5.004395e+00 8.574857e-01 2.995599e-01 2.791978e-01 1.262282e-01 4.893839e-01 -3.953230e-01 2.914313e-01 -5.687607e-02 8.662686e-02 4.243377e-01 -1.144976e-01 3.771857e-01 8.649456e-02 -2.648167e-02 -1.184469e-01 3.441017e-02 -4.629854e-03 -2.450310e-03 1.389563e-01 -3.162770e-01 5.906470e-03 1.669693e-01 8.267570e-02 -1.198328e-01 1.602347e-01 -6.344039e-02 -5.334179e-03
<VARIANCE> 39
 3.608071e+00 7.000419e+00 1.022629e+01 1.422635e+01 1.248356e+01 6.883741e+00 8.706422e+00 2.118946e+01 5.925545e+00 7.402171e+00 1.495239e+01 3.348912e+00 5.000000e-02 1.490698e-01 3.685102e-01 1.400427e+00 1.642261e+00 8.668787e-01 1.126391e+00 1.307368e+00 1.960660e+00 8.227904e-01 1.135518e+00 1.151319e+00 2.758303e-01 5.000000e-02 5.000000e-02 5.000000e-02 5.000000e-02 1.921803e-01 2.120738e-01 1.872206e-01 1.417653e-01 3.484219e-01 1.118544e-01 6.323618e-02 1.397532e-01 8.117619e-02 5.000000e-02
<GCONST> 5.959735e+01
<STATE> 16
<MEAN> 39
 4.424479e+00 -2.060564e+01 -2.010836e+01 -1.524305e+01 1.014517e+01 4.889866e+00 2.143002e+00 -6.016064e+00 2.894432e-01 -2.206644e+00 -9.645778e-02 -7.790548e+00 6.727303e-01 -2.281921e-01 -1.161655e-01 7.024718e-01 1.019792e-01 8.027930e-01 -1.201733e+00 -1.248370e+00 1.743288e+00 -3.678643e-01 -2.416179e-01 6.916344e-01 -1.770116e-01 -4.518303e-02 3.144475e-02 2.004886e-01 -2.831549e-01 5.741992e-01 -7.107527e-02 -3.318895e-01 7.114680e-02 -6.072598e-01 -3.555186e-02 -3.549400e-01 -2.682445e-01 1.687929e-01 -1.785559e-03
<VARIANCE> 39
 6.256638e+00 3.741931e+00 3.400367e+01 1.580944e+01 2.034631e+01 1.878913e+01 1.974085e+01 1.947973e+01 2.855842e+01 1.044925e+01 2.542378e+01 6.986082e+00 5.000000e-02 2.640908e-01 1.702703e-01 8.149983e-01 2.081219e+00 5.439976e-01 8.088354e-01 8.976297e-01 1.327449e+00 1.064789e+00 1.915052e+00 2.569981e+00 7.556946e-01 5.000000e-02 1.081285e-01 1.063306e-01 3.894865e-01 4.269814e-01 5.085458e-01 4.730695e-01 1.565088e-01 3.080307e-01 2.049064e-01 1.383893e-01 4.494972e-01 1.519895e-01 5.000000e-02
<GCONST> 7.610085e+01
<STATE> 17
<MEAN> 39
 3.303916e+00 -2.181083e+01 -1.761605e+01 -1.194113e+01 6.852222e+00 4.119696e+00 -1.774445e+00 -5.380381e+00 1.287957e+00 -3.862434e+00 -8.129552e-01 -6.406256e+00 5.771036e-01 5.439999e-01 6.863698e-01 -7.790216e-01 2.295115e+00 1.986866e-02 -6.593407e-01 -7.398452e-03 -2.149511e-01 -5.594439e-01 -1.422045e+00 -1.165302e+00 6.625091e-01 -3.471383e-02 1.541861e-01 2.174500e-01 -1.503619e-01 2.811037e-03 5.437883e-02 3.736440e-01 4.472003e-01 -5.295675e-01 -1.367155e-01 -3.378818e-02 -2.588198e-01 2.564216e-01 4.985466e-03
<VARIANCE> 39
 4.269335e+00 5.345214e+00 2.135341e+01 3.683821e+01 1.971853e+01 1.620363e+01 1.017903e+01 1.112734e+01 1.991678e+01 2.105586e+01 2.568128e+01 1.743132e+01 5.000000e-02 6.817005e-01 5.633245e-01 1.085609e+00 1.103458e+00 2.293429e+00 1.491564e+00 1.799870e+00 8.498522e-01 9.709175e-01 1.613196e+00 1.504845e+00 4.480907e-01 5.000000e-02 1.360043e-01 9.432586e-02 1.690964e-01 7.057251e-01 2.519448e-01 1.709640e-01 3.030259e-01 2.732624e-01 4.506697e-01 5.568569e-01 5.813907e-01 3.514305e-01 5.000000e-02
<GCONST> 8.096922e+01
<STATE> 18
<MEAN> 39
 5.504480e+00 -1.937355e+01 -2.016538e+01 -8.666264e+00 9.189640e+00 3.613529e+00 1.388461e+00 -7.824494e+00 -7.067568e-01 -6.101122e+00 -2.905239e+00 -4.834457e+00 5.392898e-01 2.056690e-01 9.018674e-01 4.919282e-01 9.573026e-01 -1.752660e-01 -1.894996e-02 2.231414e-01 -7.446481e-01 -7.394978e-01 3.324001e-01 4.172638e-01 9.932560e-01 -3.601921e-02 -2.000688e-01 -7.229759e-02 2.551679e-01 -4.904746e-01 -2.263101e-01 6.818863e-02 -4.039328e-03 2.208865e-01 -3.100478e-02 4.910770e-01 5.558360e-01 2.290351e-02 3.355501e-03
<VARIANCE> 39
 4.305019e+00 7.349808e+00 7.789824e+00 3.732404e+00 4.166724e+00 5.670038e+00 1.262710e+01 4.617563e+00 7.606742e+00 1.555738e+01 9.185506e+00 1.130698e+01 5.000000e-02 4.851165e-01 2.073908e-01 1.966783e+00 2.990733e+00 1.196958e+00 4.786876e-01 1.153073e+00 1.675565e+00 1.577093e+00 1.208402e+00 1.644534e+00 2.206270e+00 5.000000e-02 1.103404e-01 1.266475e-01 2.724981e-01 1.388466e-01 2.372810e-01 6.326544e-02 3.508847e-01 1.778676e-01 2.558382e-01 3.859278e-01 1.776877e-01 3.095892e-01 5.000000e-02
<GCONST> 6.793618e+01
<STATE> 19
<MEAN> 39
 5.286057e+00 -1.714521e+01 -1.774782e+01 -7.034622e+00 8.011041e+00 3.203333e+00 3.146245e-01 -7.948179e+00 -3.279788e+00 -3.000591e+00 7.572137e-01 -2.659054e+00 4.360943e-01 -4.099813e-01 -1.807922e-01 3.272003e-02 -1.399856e-01 -7.843670e-01 -1.556739e-01 5.492088e-01 4.462409e-01 5.168144e-01 6.933001e-01 3.381441e-01 -5.848443e-02 -1.801256e-02 -1.594547e-01 -3.118681e-01 -2.326775e-01 -2.655043e-01 -1.097495e-01 2.095427e-02 8.513183e-02 1.776122e-01 4.814710e-01 -1.260713e-01 -3.317814e-01 -3.000780e-01 2.013065e-03
<VARIANCE> 39
 4.962397e+00 2.069865e+00 4.898692e+00 1.052456e+01 5.755003e+00 9.589486e+00 5.786066e+00 1.161901e+01 2.150273e+01 1.719565e+01 1.173740e+01 1.445942e+01 5.000000e-02 3.215589e-01 6.025184e-01 1.809558e+00 8.115486e-01 4.272143e-01 1.037728e+00 8.083282e-01 8.383448e-01 1.274874e+00 1.710140e+00 1.534944e+00 1.180020e+00 5.000000e-02 5.000000e-02 7.850087e-02 5.218926e-01 3.082958e-01 1.242905e-01 1.023447e-01 9.231307e-02 2.510680e-01 2.591316e-01 2.510442e-01 2.186486e-01 3.388247e-01 5.000000e-02
<GCONST> 6.631021e+01
<STATE> 20
<MEAN> 39
 2.841552e+00 -1.963746e+01 -2.024126e+01 -9.849646e+00 5.261986e+00 4.544394e+00 3.154675e+00 -6.003557e+00 1.273351e+00 -1.689183e+00 8.721597e-02 -3.407907e+00 3.751314e-01 -7.440526e-01 -4.871866e-01 -8.437203e-04 -1.744376e-01 -3.659990e-01 8.957333e-02 6.585319e-02 6.529018e-01 9.884676e-01 1.950792e-01 2.476965e-01 2.815172e-01 -2.820005e-02 9.174521e-02 1.350563e-01 2.142193e-01 4.321429e-01 4.416481e-01 -1.937298e-01 -2.466199e-01 -1.553305e-01 -3.661781e-01 -1.016521e-01 3.758846e-02 -8.804088e-03 -7.047434e-04
<VARIANCE> 39
 1.808390e+00 2.478306e+00 2.753996e+01 1.037489e+00 1.351060e+01 7.151501e+00 7.042411e+00 7.071348e+00 2.145854e+01 1.408601e+01 6.834311e+00 8.182510e+00 5.000000e-02 8.949782e-02 2.637577e-01 1.755458e+00 9.844318e-01 8.393517e-01 4.127190e-01 9.421030e-01 1.673945e+00 6.119577e-01 1.008938e+00 1.214593e+00 9.102417e-01 5.000000e-02 5.000000e-02 6.218623e-02 5.700722e-01 1.585602e-01 1.164351e-01 9.246666e-02 1.344655e-01 1.266433e-01 4.547012e-01 2.185438e-01 1.619495e-01 1.657963e-01 5.000000e-02
<GCONST> 5.886343e+01
<STATE> 21
<MEAN> 39
 1.897615e+00 -1.959331e+01 -1.770332e+01 -7.500843e+00 6.567280e+00 1.903771e+00 8.497714e-01 -5.499437e+00 1.218394e-01 -4.019425e+00 -2.315275e-02 -2.037227e+00 3.349875e-01 -1.256691e-01 4.004898e-01 5.822104e-01 9.476975e-01 6.547076e-01 -4.634091e-01 -1.099445e-01 -1.847865e-01 -5.316539e-01 -7.061837e-02 -1.148124e-01 -3.326611e-01 -2.065180e-02 1.678426e-01 3.097395e-01 1.826228e-01 9.000211e-02 1.469003e-01 2.008732e-01 3.751847e-02 -1.800963e-01 -1.164657e-01 1.889126e-01 -9.363990e-04 -2.825368e-01 3.757906e-03
<VARIANCE> 39
 1.850027e+00 1.855130e+00 9.050242e+00 1.113010e+01 1.063691e+01 3.815989e+00 1.145321e+01 1.674719e+01 1.404798e+01 1.600474e+01 7.570262e+00 6.754564e+00 5.000000e-02 1.063127e-01 5.514568e-01 2.121835e+00 7.038815e-01 1.036658e+00 1.107955e+00 1.109899e+00 8.468176e-01 2.620565e+00 1.302764e+00 4.156621e-01 5.658458e-01 5.000000e-02 5.000000e-02 5.000000e-02 4.575527e-01 1.897734e-01 8.750793e-02 8.654314e-02 1.904934e-01 2.765678e-01 3.254248e-01 2.857569e-01 1.809826e-01 1.525228e-01 5.000000e-02
<GCONST> 6.204024e+01
<STATE> 22
<MEAN> 39
 2.379125e+00 -1.769236e+01 -1.654446e+01 -5.621876e+00 7.907195e+00 3.340073e+00 2.822809e+00 -6.214325e+00 -3.708569e-01 -2.187788e+00 -5.297773e-01 -5.971197e+00 2.939223e-01 -3.276297e-02 7.482588e-01 2.841648e-01 -4.842042e-02 3.181235e-01 3.735951e-01 -4.830903e-01 -3.303984e-01 -6.829695e-01 3.785154e-01 1.703996e-01 -7.430947e-01 -9.229172e-03 -8.203195e-03 2.926610e-02 3.441258e-02 -1.967684e-01 -2.906972e-01 -1.246750e-01 -2.076938e-01 1.346659e-01 -1.489388e-01 -4.999278e-02 2.377886e-01 1.998608e-01 1.073065e-03
<VARIANCE> 39
 3.113483e+00 6.358403e+00 1.703187e+01 5.109941e+00 1.748968e+01 2.568681e+01 7.743573e+00 1.231312e+01 1.700116e+01 1.387800e+01 9.073931e+00 6.341834e+00 5.000000e-02 2.194723e-01 4.314498e-01 1.163109e+00 8.773839e-01 2.513386e-01 9.544055e-01 6.110154e-01 1.608467e+00 9.310779e-01 1.377204e+00 8.514854e-01 4.084613e-01 5.000000e-02 5.000000e-02 1.288849e-01 3.009743e-01 2.070220e-01 1.765706e-01 4.044302e-01 1.888199e-01 2.862777e-01 2.603374e-01 1.106408e-01 9.451982e-02 5.119124e-02 5.000000e-02
<GCONST> 6.347809e+01
<STATE> 23
<MEAN> 39
 1.761826e+00 -1.589814e+01 -1.424230e+01 -5.663158e+00 6.742943e+00 1.879880e+00 -5.160528e-01 -6.345898e+00 -1.533810e+00 -1.511282e+00 1.179961e+00 -5.486398e+00 2.591728e-01 9.498094e-02 5.536066e-01 1.330528e+00 7.701445e-01 -2.808799e-01 -2.225314e-01 -3.563901e-01 -1.465227e-01 -5.569125e-02 -1.690951e-01 2.648399e-01 3.779986e-01 -9.744100e-03 -1.997142e-02 -1.180257e-01 2.138457e-02 -6.610821e-03 -8.901919e-02 7.903868e-03 1.023712e-01 -6.787034e-02 2.554675e-01 -1.840665e-01 -2.975073e-02 4.110375e-01 -6.674267e-04
<VARIANCE> 39
 1.391493e+00 5.077060e+00 1.781514e+01 6.249998e+00 6.542752e+00 4.380999e+00 1.028287e+01 1.854223e+01 5.745728e+00 9.838076e+00 9.940000e+00 8.379530e+00 5.000000e-02 2.740065e-01 5.324250e-01 1.321029e+00 7.694694e-01 1.408647e+00 1.293870e+00 4.280330e-01 8.354781e-01 8.728192e-01 1.761879e+00 1.201066e+00 8.914197e-01 5.000000e-02 5.000000e-02 7.976100e-02 1.687602e-01 1.865002e-01 1.715793e-01 1.499268e-01 1.024291e-01 2.579726e-01 1.785846e-01 3.898081e-01 3.360291e-01 1.203036e-01 5.000000e-02
<GCONST> 6.243309e+01
<STATE> 24
<MEAN> 39
 1.944422e+00 -1.481505e+01 -1.163494e+01 -4.087683e+00 6.765902e+00 2.993680e+00 8.487093e-01 -7.033186e+00 -1.624221e+00 -4.369930e+00 1.887151e-01 -1.835669e+00 2.440092e-01 -5.461590e-01 3.700774e-01 2.760242e-01 -5.956150e-01 -6.945570e-01 -5.758807e-01 -3.673464e-01 1.789766e-02 6.506258e-01 -5.848461e-01 3.539869e-01 1.295506e+00 -2.732184e-02 -2.963395e-01 5.267259e-02 -2.469681e-01 -3.324037e-01 9.742636e-02 -1.280973e-01 -7.654040e-02 6.510700e-02 6.721793e-02 3.112296e-01 7.814875e-02 -3.264573e-01 -9.076850e-03
<VARIANCE> 39
 2.728945e+00 4.740505e+00 2.348886e+01 8.407352e+00 1.419480e+01 7.300586e+00 1.386608e+01 1.665778e+01 8.991649e+00 1.432491e+01 7.130958e+00 2.317986e+01 5.000000e-02 3.484660e-01 8.876790e-01 6.666079e-01 8.033396e-01 4.337455e-01 1.379089e-01 1.571068e+00 8.589788e-01 6.857631e-01 7.506307e-01 1.756667e+00 1.201303e+00 5.000000e-02 5.000000e-02 1.873715e-01 4.402471e-01 1.901661e-01 3.291023e-01 8.806241e-02 9.565215e-02 1.271194e-01 2.464756e-01 3.051726e-01 1.478320e-01 1.772562e-01 5.000000e-02
<GCONST> 6.502239e+01
<STATE> 25
<MEAN> 39
 -1.287730e-03 -1.417794e+01 -1.146722e+01 -5.226004e+00 5.440193e+00 -4.675454e-01 -2.656752e+00 -8.249261e+00 7.283826e-01 -1.537534e+00 4.365502e+00 -4.826503e-01 1.563286e-01 -1.337578e+00 2.239161e-01 -4.959720e-02 -3.957214e-01 5.034651e-01 1.326236e-01 2.213073e-01 -2.020786e-01 -7.348865e-02 1.589196e-01 -2.598628e-01 -1.070854e-01 -4.765093e-02 -2.066003e-01 3.873476e-02 2.492318e-01 1.659277e-01 1.044493e-01 4.371796e-01 4.229090e-01 2.743492e-01 -2.189942e-01 -4.682603e-02 -3.152008e-01 -2.233274e-01 -8.786715e-03
<VARIANCE> 39
 7.282715e+00 6.072672e+00 6.311320e+00 8.042525e+00 8.109371e+00 4.672781e+00 7.711551e+00 8.602303e+00 1.993485e+01 8.933344e+00 1.567866e+01 2.111287e+01 5.000000e-02 3.643843e-01 7.412865e-01 1.094943e+00 3.835517e-01 6.574822e-01 1.613253e+00 9.328330e-01 5.673215e-01 1.062832e+00 1.216871e+00 1.169258e+00 8.618119e-01 5.000000e-02 1.308851e-01 1.988693e-01 4.151303e-01 1.455969e-01 1.963697e-01 1.444357e-01 1.128497e-01 1.343665e-01 2.619486e-01 1.853281e-01 2.239677e-01 1.913722e-01 5.000000e-02
<GCONST> 6.635010e+01
<STATE> 26
<MEAN> 39
 -4.331787e+00 -1.327987e+01 -1.004877e+01 -5.776307e+00 8.358047e+00 3.178421e+00 1.984798e+00 -5.738174e+00 -1.631838e+00 -2.587302e+00 1.364025e+00 -2.705958e+00 -1.472075e-04 -8.034048e-01 6.655204e-01 1.608282e+00 6.723981e-01 -2.397596e-01 5.937775e-01 5.864187e-01 8.151160e-01 4.121499e-02 2.123794e-01 3.194345e-01 -7.678511e-03 -3.715631e-02 2.437996e-01 1.661862e-01 2.355933e-01 2.575106e-01 -2.531909e-01 -4.067393e-01 -2.111235e-01 -2.272315e-02 2.357364e-01 3.779565e-02 2.003872e-01 1.923911e-01 9.228294e-03
<VARIANCE> 39
 4.496879e+00 4.403804e+00 1.334639e+01 4.476469e+00 3.314702e+00 1.787973e+01 9.684446e+00 5.093391e+00 7.363604e+00 1.084489e+01 1.297413e+01 8.903976e+00 5.000000e-02 1.445759e-01 5.063161e-01 9.396800e-01 6.924021e-01 4.875699e-01 7.641603e-01 1.142592e+00 6.703123e-01 9.697534e-01 4.973268e-01 5.383742e-01 4.144491e-01 5.000000e-02 8.085455e-02 1.253310e-01 2.102327e-01 1.154280e-01 1.068497e-01 3.097474e-01 1.252979e-01 1.149674e-01 9.854938e-02 2.614228e-01 1.100265e-01 1.577138e-01 5.000000e-02
<GCONST> 5.667666e+01
<STATE> 27
<MEAN> 39
 -5.005592e+00 -1.027722e+01 -4.113666e+00 -2.415792e+00 5.328397e+00 2.220776e+00 1.341695e+00 -4.354164e+00 1.065905e-01 -2.207272e+00 2.009040e+00 -8.628365e-01 -6.673621e-02 -2.136939e-01 8.278173e-01 1.135484e+00 6.389508e-01 -5.115368e-01 -1.051915e+00 4.860849e-02 7.975895e-02 6.548124e-01 6.351342e-01 4.466792e-01 6.504518e-01 -9.436902e-03 2.555562e-01 -2.382520e-01 -4.903299e-01 -2.291855e-01 7.792635e-02 -2.205415e-01 -1.214828e-01 -3.124796e-01 -2.735706e-02 1.766085e-01 1.260819e-01 -7.774755e-02 1.282452e-02
<VARIANCE> 39
 1.217688e+00 2.852062e+00 1.248325e+01 6.581575e+00 9.381660e+00 8.474782e+00 7.773734e+00 1.126618e+01 4.653123e+00 1.616397e+01 1.975685e+01 7.577116e+00 5.000000e-02 2.802076e-01 8.595994e-01 1.603727e+00 5.837898e-01 7.676177e-01 1.301209e+00 4.881667e-01 1.030276e+00 2.589163e-01 1.713634e+00 5.057359e-01 4.410086e-01 5.000000e-02 5.000000e-02 5.277837e-02 2.479256e-01 1.720640e-01 1.462475e-01 1.706602e-01 1.029007e-01 8.064226e-02 5.505728e-02 1.898102e-01 1.573396e-01 1.082260e-01 5.000000e-02
<GCONST> 5.582196e+01
<TRANSP> 28
 0.000000e+00 1.000000e+00 0.000000e+00 0.000000e+00 0.000000e+00 0.000000e+00 0.000000e+00 0.000000e+00 0.000000e+00 0.000000e+00 0.000000e+00 0.000000e+00 0.000000e+00 0.000000e+00 0.000000e+00 0.000000e+00 0.000000e+00 0.000000e+00 0.000000e+00 0.000000e+00 0.000000e+00 0.000000e+00 0.000000e+00 0.000000e+00 0.000000e+00 0.000000e+00 0.000000e+00 0.000000e+00
 0.000000e+00 7.828770e-01 2.171230e-01 0.000000e+00 0.000000e+00 0.000000e+00 0.000000e+00 0.000000e+00 0.000000e+00 0.000000e+00 0.000000e+00 0.000000e+00 0.000000e+00 0.000000e+00 0.000000e+00 0.000000e+00 0.000000e+00 0.000000e+00 0.000000e+00 0.000000e+00 0.000000e+00 0.000000e+00 0.000000e+00 0.000000e+00 0.000000e+00 0.000000e+00 0.000000e+00 0.000000e+00
 0.000000e+00 0.000000e+00 4.999451e-01 5.000549e-01 0.000000e+00 0.000000e+00 0.000000e+00 0.000000e+00 0.000000e+00 0.000000e+00 0.000000e+00 0.000000e+00 0.000000e+00 0.000000e+00 0.000000e+00 0.000000e+00 0.000000e+00 0.000000e+00 0.000000e+00 0.000000e+00 0.000000e+00 0.000000e+00 0.000000e+00 0.000000e+00 0.000000e+00 0.000000e+00 0.000000e+00 0.000000e+00
 0.000000e+00 0.000000e+00 0.000000e+00 5.442551e-01 4.557449e-01 0.000000e+00 0.000000e+00 0.000000e+00 0.000000e+00 0.000000e+00 0.000000e+00 0.000000e+00 0.000000e+00 0.000000e+00 0.000000e+00 0.000000e+00 0.000000e+00 0.000000e+00 0.000000e+00 0.000000e+00 0.000000e+00 0.000000e+00 0.000000e+00 0.000000e+00 0.000000e+00 0.000000e+00 0.000000e+00 0.000000e+00
 0.000000e+00 0.000000e+00 0.000000e+00 0.000000e+00 3.750477e-01 6.249523e-01 0.000000e+00 0.000000e+00 0.000000e+00 0.000000e+00 0.000000e+00 0.000000e+00 0.000000e+00 0.000000e+00 0.000000e+00 0.000000e+00 0.000000e+00 0.000000e+00 0.000000e+00 0.000000e+00 0.000000e+00 0.000000e+00 0.000000e+00 0.000000e+00 0.000000e+00 0.000000e+00 0.000000e+00 0.000000e+00
 0.000000e+00 0.000000e+00 0.000000e+00 0.000000e+00 0.000000e+00 6.156051e-01 3.843949e-01 0.000000e+00 0.000000e+00 0.000000e+00 0.000000e+00 0.000000e+00 0.000000e+00 0.000000e+00 0.000000e+00 0.000000e+00 0.000000e+00 0.000000e+00 0.000000e+00 0.000000e+00 0.000000e+00 0.000000e+00 0.000000e+00 0.000000e+00 0.000000e+00 0.000000e+00 0.000000e+00 0.000000e+00
 0.000000e+00 0.000000e+00 0.000000e+00 0.000000e+00 0.000000e+00 0.000000e+00 2.850817e-01 7.149183e-01 0.000000e+00 0.000000e+00 0.000000e+00 0.000000e+00 0.000000e+00 0.000000e+00 0.000000e+00 0.000000e+00 0.000000e+00 0.000000e+00 0.000000e+00 0.000000e+00 0.000000e+00 0.000000e+00 0.000000e+00 0.000000e+00 0.000000e+00 0.000000e+00 0.000000e+00 0.000000e+00
 0.000000e+00 0.000000e+00 0.000000e+00 0.000000e+00 0.000000e+00 0.000000e+00 0.000000e+00 4.999618e-01 5.000383e-01 0.000000e+00 0.000000e+00 0.000000e+00 0.000000e+00 0.000000e+00 0.000000e+00 0.000000e+00 0.000000e+00 0.000000e+00 0.000000e+00 0.000000e+00 0.000000e+00 0.000000e+00 0.000000e+00 0.000000e+00 0.000000e+00 0.000000e+00 0.000000e+00 0.000000e+00
 0.000000e+00 0.000000e+00 0.000000e+00 0.000000e+00 0.000000e+00 0.000000e+00 0.000000e+00 0.000000e+00 7.219800e-01 2.780201e-01 0.000000e+00 0.000000e+00 0.000000e+00 0.000000e+00 0.000000e+00 0.000000e+00 0.000000e+00 0.000000e+00 0.000000e+00 0.000000e+00 0.000000e+00 0.000000e+00 0.000000e+00 0.000000e+00 0.000000e+00 0.000000e+00 0.000000e+00 0.000000e+00
 0.000000e+00 0.000000e+00 0.000000e+00 0.000000e+00 0.000000e+00 0.000000e+00 0.000000e+00 0.000000e+00 0.000000e+00 6.154733e-01 3.845267e-01 0.000000e+00 0.000000e+00 0.000000e+00 0.000000e+00 0.000000e+00 0.000000e+00 0.000000e+00 0.000000e+00 0.000000e+00 0.000000e+00 0.000000e+00 0.000000e+00 0.000000e+00 0.000000e+00 0.000000e+00 0.000000e+00 0.000000e+00
 0.000000e+00 0.000000e+00 0.000000e+00 0.000000e+00 0.000000e+00 0.000000e+00 0.000000e+00 0.000000e+00 0.000000e+00 0.000000e+00 6.674653e-01 3.325347e-01 0.000000e+00 0.000000e+00 0.000000e+00 0.000000e+00 0.000000e+00 0.000000e+00 0.000000e+00 0.000000e+00 0.000000e+00 0.000000e+00 0.000000e+00 0.000000e+00 0.000000e+00 0.000000e+00 0.000000e+00 0.000000e+00
 0.000000e+00 0.000000e+00 0.000000e+00 0.000000e+00 0.000000e+00 0.000000e+00 0.000000e+00 0.000000e+00 0.000000e+00 0.000000e+00 0.000000e+00 5.819837e-01 4.180163e-01 0.000000e+00 0.000000e+00 0.000000e+00 0.000000e+00 0.000000e+00 0.000000e+00 0.000000e+00 0.000000e+00 0.000000e+00 0.000000e+00 0.000000e+00 0.000000e+00 0.000000e+00 0.000000e+00 0.000000e+00
 0.000000e+00 0.000000e+00 0.000000e+00 0.000000e+00 0.000000e+00 0.000000e+00 0.000000e+00 0.000000e+00 0.000000e+00 0.000000e+00 0.000000e+00 0.000000e+00 6.668178e-01 3.331822e-01 0.000000e+00 0.000000e+00 0.000000e+00 0.000000e+00 0.000000e+00 0.000000e+00 0.000000e+00 0.000000e+00 0.000000e+00 0.000000e+00 0.000000e+00 0.000000e+00 0.000000e+00 0.000000e+00
 0.000000e+00 0.000000e+00 0.000000e+00 0.000000e+00 0.000000e+00 0.000000e+00 0.000000e+00 0.000000e+00 0.000000e+00 0.000000e+00 0.000000e+00 0.000000e+00 0.000000e+00 4.444450e-01 5.555550e-01 0.000000e+00 0.000000e+00 0.000000e+00 0.000000e+00 0.000000e+00 0.000000e+00 0.000000e+00 0.000000e+00 0.000000e+00 0.000000e+00 0.000000e+00 0.000000e+00 0.000000e+00
 0.000000e+00 0.000000e+00 0.000000e+00 0.000000e+00 0.000000e+00 0.000000e+00 0.000000e+00 0.000000e+00 0.000000e+00 0.000000e+00 0.000000e+00 0.000000e+00 0.000000e+00 0.000000e+00 7.223382e-01 2.776618e-01 0.000000e+00 0.000000e+00 0.000000e+00 0.000000e+00 0.000000e+00 0.000000e+00 0.000000e+00 0.000000e+00 0.000000e+00 0.000000e+00 0.000000e+00 0.000000e+00
 0.000000e+00 0.000000e+00 0.000000e+00 0.000000e+00 0.000000e+00 0.000000e+00 0.000000e+00 0.000000e+00 0.000000e+00 0.000000e+00 0.000000e+00 0.000000e+00 0.000000e+00 0.000000e+00 0.000000e+00 4.999002e-01 5.000998e-01 0.000000e+00 0.000000e+00 0.000000e+00 0.000000e+00 0.000000e+00 0.000000e+00 0.000000e+00 0.000000e+00 0.000000e+00 0.000000e+00 0.000000e+00
 0.000000e+00 0.000000e+00 0.000000e+00 0.000000e+00 0.000000e+00 0.000000e+00 0.000000e+00 0.000000e+00 0.000000e+00 0.000000e+00 0.000000e+00 0.000000e+00 0.000000e+00 0.000000e+00 0.000000e+00 0.000000e+00 4.445700e-01 5.554300e-01 0.000000e+00 0.000000e+00 0.000000e+00 0.000000e+00 0.000000e+00 0.000000e+00 0.000000e+00 0.000000e+00 0.000000e+00 0.000000e+00
 0.000000e+00 0.000000e+00 0.000000e+00 0.000000e+00 0.000000e+00 0.000000e+00 0.000000e+00 0.000000e+00 0.000000e+00 0.000000e+00 0.000000e+00 0.000000e+00 0.000000e+00 0.000000e+00 0.000000e+00 0.000000e+00 0.000000e+00 6.150970e-01 3.849030e-01 0.000000e+00 0.000000e+00 0.000000e+00 0.000000e+00 0.000000e+00 0.000000e+00 0.000000e+00 0.000000e+00 0.000000e+00
 0.000000e+00 0.000000e+00 0.000000e+00 0.000000e+00 0.000000e+00 0.000000e+00 0.000000e+00 0.000000e+00 0.000000e+00 0.000000e+00 0.000000e+00 0.000000e+00 0.000000e+00 0.000000e+00 0.000000e+00 0.000000e+00 0.000000e+00 0.000000e+00 6.550539e-01 3.449461e-01 0.000000e+00 0.000000e+00 0.000000e+00 0.000000e+00 0.000000e+00 0.000000e+00 0.000000e+00 0.000000e+00
 0.000000e+00 0.000000e+00 0.000000e+00 0.000000e+00 0.000000e+00 0.000000e+00 0.000000e+00 0.000000e+00 0.000000e+00 0.000000e+00 0.000000e+00 0.000000e+00 0.000000e+00 0.000000e+00 0.000000e+00 0.000000e+00 0.000000e+00 0.000000e+00 0.000000e+00 5.657095e-01 4.342905e-01 0.000000e+00 0.000000e+00 0.000000e+00 0.000000e+00 0.000000e+00 0.000000e+00 0.000000e+00
 0.000000e+00 0.000000e+00 0.000000e+00 0.000000e+00 0.000000e+00 0.000000e+00 0.000000e+00 0.000000e+00 0.000000e+00 0.000000e+00 0.000000e+00 0.000000e+00 0.000000e+00 0.000000e+00 0.000000e+00 0.000000e+00 0.000000e+00 0.000000e+00 0.000000e+00 0.000000e+00 5.849335e-01 4.150666e-01 0.000000e+00 0.000000e+00 0.000000e+00 0.000000e+00 0.000000e+00 0.000000e+00
 0.000000e+00 0.000000e+00 0.000000e+00 0.000000e+00 0.000000e+00 0.000000e+00 0.000000e+00 0.000000e+00 0.000000e+00 0.000000e+00 0.000000e+00 0.000000e+00 0.000000e+00 0.000000e+00 0.000000e+00 0.000000e+00 0.000000e+00 0.000000e+00 0.000000e+00 0.000000e+00 0.000000e+00 5.471263e-01 4.528737e-01 0.000000e+00 0.000000e+00 0.000000e+00 0.000000e+00 0.000000e+00
 0.000000e+00 0.000000e+00 0.000000e+00 0.000000e+00 0.000000e+00 0.000000e+00 0.000000e+00 0.000000e+00 0.000000e+00 0.000000e+00 0.000000e+00 0.000000e+00 0.000000e+00 0.000000e+00 0.000000e+00 0.000000e+00 0.000000e+00 0.000000e+00 0.000000e+00 0.000000e+00 0.000000e+00 0.000000e+00 7.044513e-01 2.955487e-01 0.000000e+00 0.000000e+00 0.000000e+00 0.000000e+00
 0.000000e+00 0.000000e+00 0.000000e+00 0.000000e+00 0.000000e+00 0.000000e+00 0.000000e+00 0.000000e+00 0.000000e+00 0.000000e+00 0.000000e+00 0.000000e+00 0.000000e+00 0.000000e+00 0.000000e+00 0.000000e+00 0.000000e+00 0.000000e+00 0.000000e+00 0.000000e+00 0.000000e+00 0.000000e+00 0.000000e+00 4.447282e-01 5.552719e-01 0.000000e+00 0.000000e+00 0.000000e+00
 0.000000e+00 0.000000e+00 0.000000e+00 0.000000e+00 0.000000e+00 0.000000e+00 0.000000e+00 0.000000e+00 0.000000e+00 0.000000e+00 0.000000e+00 0.000000e+00 0.000000e+00 0.000000e+00 0.000000e+00 0.000000e+00 0.000000e+00 0.000000e+00 0.000000e+00 0.000000e+00 0.000000e+00 0.000000e+00 0.000000e+00 0.000000e+00 6.426551e-01 3.573450e-01 0.000000e+00 0.000000e+00
 0.000000e+00 0.000000e+00 0.000000e+00 0.000000e+00 0.000000e+00 0.000000e+00 0.000000e+00 0.000000e+00 0.000000e+00 0.000000e+00 0.000000e+00 0.000000e+00 0.000000e+00 0.000000e+00 0.000000e+00 0.000000e+00 0.000000e+00 0.000000e+00 0.000000e+00 0.000000e+00 0.000000e+00 0.000000e+00 0.000000e+00 0.000000e+00 0.000000e+00 6.512588e-01 3.487412e-01 0.000000e+00
 0.000000e+00 0.000000e+00 0.000000e+00 0.000000e+00 0.000000e+00 0.000000e+00 0.000000e+00 0.000000e+00 0.000000e+00 0.000000e+00 0.000000e+00 0.000000e+00 0.000000e+00 0.000000e+00 0.000000e+00 0.000000e+00 0.000000e+00 0.000000e+00 0.000000e+00 0.000000e+00 0.000000e+00 0.000000e+00 0.000000e+00 0.000000e+00 0.000000e+00 0.000000e+00 5.547413e-01 4.452588e-01
 0.000000e+00 0.000000e+00 0.000000e+00 0.000000e+00 0.000000e+00 0.000000e+00 0.000000e+00 0.000000e+00 0.000000e+00 0.000000e+00 0.000000e+00 0.000000e+00 0.000000e+00 0.000000e+00 0.000000e+00 0.000000e+00 0.000000e+00 0.000000e+00 0.000000e+00 0.000000e+00 0.000000e+00 0.000000e+00 0.000000e+00 0.000000e+00 0.000000e+00 0.000000e+00 0.000000e+00 0.000000e+00
<ENDHMM>
