~o
<STREAMINFO> 1 39
<VECSIZE> 39<NULLD><MFCC_E_D_A><DIAGC>
~h "Tru*o*c"
<BEGINHMM>
<NUMSTATES> 25
<STATE> 2
<MEAN> 39
 -6.519699e+00 -7.818669e+00 2.789073e+00 -4.008822e+00 2.358856e+00 2.547676e-02 -2.043636e+00 -2.807997e-01 4.231836e+00 -7.264826e+00 2.892717e+00 1.513284e+00 -1.313432e-02 -2.158369e-01 -5.426301e-02 6.508998e-02 1.236896e-01 1.891861e-01 -1.155512e-01 9.122860e-02 2.069092e-01 -5.292287e-01 2.073125e-01 2.757773e-01 8.482242e-02 -5.157139e-03 -1.953824e-01 -5.188310e-02 -7.284793e-02 -1.676372e-01 -5.659040e-02 8.079685e-02 -1.322598e-01 -1.054876e-01 -1.135133e-01 -7.773835e-02 -1.863299e-02 -1.529001e-01 1.036037e-02
<VARIANCE> 39
 4.865193e+00 2.463341e+00 3.062665e+00 7.147952e+00 3.774542e+00 1.616999e+01 1.274776e+01 1.236431e+01 1.265376e+01 1.465877e+01 8.795840e+00 7.129043e+00 5.000000e-02 6.618179e-01 2.877678e-01 2.133445e-01 4.003288e-01 2.998638e-01 8.496809e-01 1.271984e+00 1.475317e+00 1.133962e+00 8.776063e-01 9.756194e-01 6.914355e-01 5.000000e-02 1.770446e-01 6.146086e-02 6.276125e-02 2.230273e-01 8.204006e-02 2.374497e-01 3.212120e-01 3.531853e-01 2.178691e-01 2.985696e-01 2.234854e-01 1.772504e-01 5.000000e-02
<GCONST> 6.067220e+01
<STATE> 3
<MEAN> 39
 -6.057199e+00 -7.903193e+00 1.099287e+00 -1.105772e+00 3.185729e+00 -3.694546e+00 1.145516e-01 -2.325325e+00 -1.053963e+00 -1.967505e+00 4.689753e+00 -2.127473e+00 2.602183e-02 -2.251959e+00 -4.815286e-01 -1.689344e-01 -2.412434e+00 -2.154053e-01 6.957648e-01 -1.510222e+00 -9.375615e-01 -2.467092e-01 -7.851481e-01 4.149033e-01 -7.560433e-01 1.227111e-01 -6.872872e-01 5.276320e-02 -3.893264e-01 -1.114207e+00 -8.593989e-01 -2.488937e-01 3.662971e-02 2.606328e-01 4.515689e-01 -3.003864e-01 5.140105e-03 -2.806227e-02 4.739053e-02
<VARIANCE> 39
 5.372591e+00 3.364323e+00 2.550085e+00 5.784041e+00 2.324268e+00 2.742272e+00 8.270288e+00 7.264901e+00 7.874380e+00 1.270643e+01 4.372803e+00 8.564866e+00 5.000000e-02 2.756998e+00 4.362016e-01 7.929323e-01 2.711694e+00 1.234644e+00 2.863931e+00 1.850385e+00 9.345315e-01 1.773732e+00 3.507886e+00 4.770553e-01 1.164674e+00 5.000000e-02 3.234051e-01 5.000000e-02 2.175730e-01 1.078072e-01 2.113125e-01 6.407443e-01 4.811721e-01 2.192399e-01 1.449903e-01 3.616134e-01 5.878814e-02 1.441706e-01 5.000000e-02
<GCONST> 6.660889e+01
<STATE> 4
<MEAN> 39
 -1.898686e+01 -7.673236e+00 2.581528e-01 -1.431784e+01 -1.015845e+00 -1.325900e+00 -4.241852e+00 -3.253433e+00 -4.601522e-01 -6.079295e+00 5.959174e+00 -2.699540e+00 5.903885e-01 -8.655009e-01 -2.148048e-01 -1.042261e+00 -2.742546e+00 -3.770159e+00 -3.352000e+00 6.200078e-01 1.416826e+00 7.356684e-01 -4.955638e-01 1.161972e-01 -4.706753e-01 1.602350e-01 1.997629e+00 -8.865889e-01 1.302609e-01 6.992941e-01 -4.735183e-01 -1.714032e+00 8.762207e-01 1.057160e+00 6.475301e-01 8.604210e-01 -4.398665e-01 1.662273e-01 -2.156427e-02
<VARIANCE> 39
 2.594238e+01 2.152836e+01 1.288533e+01 5.501773e+00 2.189433e+01 4.481053e+01 1.825017e+01 2.110669e+01 1.900513e+01 2.816750e+01 8.519054e+00 1.114717e+01 5.000000e-02 8.630216e+00 1.285110e+00 2.076819e+00 2.684160e+00 1.722528e+00 7.298547e+00 2.434819e+00 1.987948e+00 2.097735e+00 1.990179e+00 1.095477e+00 7.074561e-01 5.000000e-02 3.947579e-01 3.362485e-01 1.693404e-01 1.104679e-01 6.921952e-01 6.309820e-01 3.586043e-01 4.907707e-01 3.996858e-01 1.336077e+00 1.929894e-01 1.175692e-01 5.000000e-02
<GCONST> 9.338503e+01
<STATE> 5
<MEAN> 39
 -7.972840e+00 -1.374281e+01 -4.231112e+00 -1.467064e+01 -1.453999e+01 -1.816623e+01 1.277867e+00 4.255385e+00 5.002104e+00 -3.465613e+00 4.420179e+00 -3.329793e+00 8.233487e-01 4.299347e+00 -4.139649e+00 1.475869e-01 -9.821631e-01 -1.853812e+00 -5.105531e+00 1.827151e+00 3.712193e+00 3.044375e+00 3.190375e+00 -1.383324e+00 2.474678e-01 8.958687e-02 9.724797e-02 -3.533162e-01 2.799038e-01 1.913055e-01 1.921258e+00 1.068413e+00 -3.111813e-01 -1.824365e-01 9.416740e-02 5.702176e-01 -6.353630e-01 1.136322e-01 -3.069069e-02
<VARIANCE> 39
 7.238371e+00 2.401722e+01 1.913346e+01 2.117785e+00 1.362063e+01 2.210917e+01 1.377586e+01 2.393037e+01 1.344355e+01 1.835654e+01 2.404302e+01 1.061918e+01 5.000000e-02 4.221988e-01 6.369919e-01 1.506462e+00 9.458230e-01 3.691799e+00 2.199984e+00 1.653550e+00 4.601475e+00 2.207775e+00 5.585984e+00 3.218344e+00 1.292462e+00 5.000000e-02 5.775114e-01 3.890179e-01 2.386322e-01 3.650402e-01 8.103051e-02 3.021127e-01 1.713987e-01 5.686294e-01 4.516569e-01 5.839179e-01 6.179563e-02 7.989002e-02 5.000000e-02
<GCONST> 8.459317e+01
<STATE> 6
<MEAN> 39
 -4.598489e+00 -2.063229e+01 -6.992455e-01 -1.879174e+01 -8.450703e+00 -2.277707e+01 2.235065e+00 9.625723e+00 9.114314e+00 3.119355e+00 4.828686e-01 -3.405335e+00 9.355188e-01 7.683286e-01 -1.605479e+00 -7.717524e-01 -1.450241e+00 2.630075e+00 -5.743566e-01 8.910234e-02 7.700392e-01 1.324773e+00 1.102021e+00 -2.301986e+00 2.051728e-01 2.771058e-02 -9.600881e-01 9.229463e-01 -6.001619e-01 1.073323e-01 8.174372e-01 1.578087e+00 -6.432606e-01 -9.456933e-01 -7.199109e-01 -5.296361e-01 -2.739763e-01 1.907027e-01 -1.976093e-02
<VARIANCE> 39
 9.770927e+00 9.146492e+00 2.770464e+01 5.646224e+00 2.544499e+01 1.165982e+01 1.143725e+01 2.066774e+01 2.052663e+01 2.203097e+01 4.051537e+01 1.481277e+01 5.000000e-02 7.564948e-01 2.384090e+00 1.533636e+00 6.440384e-01 1.543734e+00 1.965762e+00 5.090979e-01 2.543217e+00 1.416873e+00 2.472387e+00 3.160803e-01 4.597344e-01 5.000000e-02 1.450657e-01 1.672651e-01 1.927560e-01 1.282891e-01 7.557006e-01 2.997304e-01 2.711081e-01 3.403588e-01 3.993799e-01 6.411554e-01 2.682336e-01 1.724251e-01 5.000000e-02
<GCONST> 8.145288e+01
<STATE> 7
<MEAN> 39
 -4.681488e+00 -2.100659e+01 -6.268400e+00 -2.173568e+01 -2.679767e-01 -2.100990e+01 2.446767e+00 7.926087e+00 1.194226e+01 3.521880e+00 -4.267705e+00 -3.596547e+00 9.469033e-01 1.532294e-01 -5.024657e-01 -1.654494e+00 -6.944435e-01 1.866486e+00 1.724780e+00 -1.168309e+00 -9.539357e-02 -5.866551e-01 1.422692e+00 -2.829125e+00 1.167546e+00 2.171673e-03 -4.496299e-02 3.005833e-01 3.359722e-02 5.682824e-01 -8.831088e-01 6.790678e-01 -5.223604e-01 1.459190e-01 -6.315361e-01 3.850532e-01 2.369797e-01 2.822998e-01 -3.893608e-03
<VARIANCE> 39
 2.396371e+00 8.418265e+00 4.182519e+01 7.240896e+00 3.774995e+01 1.296376e+01 1.018309e+01 1.127146e+01 1.170461e+01 1.359206e+01 3.076678e+01 1.420363e+01 5.000000e-02 2.896474e-01 3.051736e-01 4.538246e-01 2.085238e-01 9.077403e-01 3.262809e-01 1.144965e+00 1.731896e-01 2.165916e+00 1.000013e+00 5.461295e-01 6.448008e-01 5.000000e-02 5.000000e-02 1.236303e-01 1.275340e-01 6.398503e-02 9.675033e-02 1.340263e-01 1.456122e-01 5.000000e-02 1.761844e-01 4.695419e-01 1.641454e-01 1.532153e-01 5.000000e-02
<GCONST> 6.026611e+01
<STATE> 8
<MEAN> 39
 -4.270218e+00 -2.230847e+01 -9.668098e+00 -2.137046e+01 -8.700219e-01 -1.590069e+01 -1.426671e+00 9.463620e+00 7.718101e+00 7.591808e+00 -1.067658e+01 8.597159e-01 9.504762e-01 3.123855e-02 2.872860e-01 -1.290087e+00 6.425824e-01 -1.675505e-01 2.695241e+00 -2.168734e+00 7.099448e-01 -1.264662e+00 1.934168e+00 -1.823219e+00 9.266756e-01 2.769151e-03 1.518394e-02 4.711867e-01 2.026513e-01 4.707925e-01 -5.507420e-01 1.069904e-01 -4.098880e-02 -1.007311e-01 3.908863e-01 -4.266223e-01 8.430986e-01 -8.527249e-01 8.292203e-04
<VARIANCE> 39
 1.602268e+00 6.588105e+00 2.225971e+01 5.174285e+00 2.647494e+01 1.088694e+01 8.073850e+00 2.653297e+01 7.799461e+00 1.247723e+01 1.971993e+01 5.418410e+00 5.000000e-02 3.629515e-01 3.101372e-01 1.302933e+00 2.879029e-01 2.197116e-01 6.289598e-01 6.396611e-01 4.374982e-01 4.894088e-01 2.422388e+00 1.041268e+00 1.296451e+00 5.000000e-02 5.000000e-02 5.825689e-02 5.000000e-02 8.097785e-02 1.010324e-01 6.186404e-02 2.908484e-01 1.763592e-01 1.569898e-01 1.635096e-01 1.997395e-01 1.222407e-01 5.000000e-02
<GCONST> 5.735801e+01
<STATE> 9
<MEAN> 39
 -3.914093e+00 -2.108029e+01 -8.992174e+00 -1.948791e+01 -1.572261e+00 -1.061481e+01 -5.779658e+00 1.033193e+01 6.348355e+00 1.121926e+01 -1.293431e+01 1.622574e+00 9.602525e-01 4.583887e-02 1.180089e+00 -1.124954e+00 1.059836e+00 -3.987375e-01 2.228956e+00 -1.411261e+00 -4.421587e-01 7.471765e-01 -9.516820e-02 4.934509e-01 -1.951512e+00 7.086003e-03 -9.254522e-02 3.504561e-01 -6.108474e-02 -2.807651e-04 -6.884027e-02 -2.028764e-01 5.116913e-01 -6.465376e-01 8.442721e-01 -1.053420e+00 8.052124e-01 -1.147993e+00 -2.145401e-04
<VARIANCE> 39
 1.839773e+00 4.512553e+00 3.538007e+01 1.304825e+01 2.820637e+01 3.991372e+01 9.091657e+00 5.669729e+00 6.877363e+00 9.382043e+00 8.899884e+00 1.205067e+01 5.000000e-02 4.063584e-01 6.442807e-01 5.663868e-01 6.931204e-01 4.984571e-01 6.201271e-01 7.065498e-01 8.142695e-01 1.568511e+00 1.132750e+00 2.330123e+00 8.994464e-01 5.000000e-02 5.000000e-02 7.469212e-02 2.215240e-01 1.991770e-01 1.177746e-01 1.716781e-01 1.082356e-01 1.524839e-01 1.367863e-01 2.631819e-01 1.637453e-01 1.617636e-01 5.000000e-02
<GCONST> 6.439347e+01
<STATE> 10
<MEAN> 39
 -4.078513e+00 -1.757010e+01 -1.299119e+01 -1.688353e+01 -2.158728e+00 -1.020933e+01 -6.043331e+00 5.986040e+00 1.249171e+01 5.440445e+00 -5.808105e+00 -7.323169e+00 9.658928e-01 -1.933802e-01 1.027000e+00 -1.548605e+00 5.485827e-01 -3.801828e-01 1.299269e+00 -5.154943e-02 -2.182227e+00 2.057294e+00 -1.894469e+00 8.763070e-01 -3.327243e+00 2.361571e-03 7.009494e-02 -2.942299e-01 2.145928e-01 -3.805027e-01 5.894161e-02 -1.498572e-01 3.528185e-01 2.193876e-01 -4.039390e-01 -1.159713e-01 -1.452617e-01 -8.635759e-02 -3.066025e-03
<VARIANCE> 39
 1.015628e+00 6.945262e+00 2.024512e+01 7.330174e+00 9.992340e+00 1.719030e+01 8.469829e+00 1.644604e+01 3.189303e+01 2.047951e+01 2.445614e+01 1.289880e+01 5.000000e-02 7.740307e-02 1.632096e+00 9.323421e-01 1.146290e+00 5.645027e-01 9.769906e-01 6.719468e-01 1.391319e+00 1.562597e+00 4.284033e-01 1.237133e+00 1.607717e-01 5.000000e-02 6.758284e-02 2.011499e-01 9.780540e-02 6.596733e-02 1.545764e-01 1.953073e-01 8.271614e-02 4.992558e-01 6.729583e-01 2.854761e-01 3.411107e-01 1.795794e-01 5.000000e-02
<GCONST> 6.680992e+01
<STATE> 11
<MEAN> 39
 -3.794322e+00 -1.711563e+01 -1.487448e+01 -1.680027e+01 -3.784769e+00 -2.372698e+00 -8.079700e+00 5.360112e+00 1.229928e+01 3.078025e+00 -6.858054e+00 -1.230463e+01 9.735909e-01 6.155162e-01 2.842913e-01 -1.536971e-01 -6.370237e-01 1.269866e-01 1.381682e+00 7.398223e-01 2.469570e-01 -5.946114e-01 -5.435575e-01 3.194810e-01 -1.214983e+00 -6.236948e-03 1.962944e-01 -3.065109e-01 3.819580e-01 -3.329626e-01 3.612728e-01 -4.012453e-01 2.293430e-01 1.574156e-01 -7.532311e-01 1.519441e-01 -3.671620e-01 9.607428e-01 -8.839096e-03
<VARIANCE> 39
 2.466507e+00 1.377190e+00 6.116186e+00 9.710811e+00 1.073600e+01 5.116989e+01 4.642765e+01 1.924343e+01 2.510042e+01 1.722157e+01 4.308278e+01 3.908298e+01 5.000000e-02 3.440381e-01 3.667657e-01 3.970616e-01 9.705950e-01 5.757153e-01 1.491319e+00 2.506313e+00 4.454929e-01 1.812064e+00 7.385505e-01 1.583138e+00 2.236711e+00 5.000000e-02 6.039221e-02 1.192453e-01 8.074742e-02 1.845888e-01 1.470018e-01 1.877797e-01 5.365821e-01 2.320859e-01 3.056341e-01 6.456380e-02 2.345712e-01 2.071714e-01 5.000000e-02
<GCONST> 7.132658e+01
<STATE> 12
<MEAN> 39
 -2.718746e+00 -1.686617e+01 -1.449429e+01 -2.019567e+01 -1.574654e+00 -2.887091e+00 -2.720158e+00 4.868927e+00 8.505092e+00 2.916786e+00 -9.059637e+00 -1.167702e+01 9.314047e-01 7.611879e-01 -5.116505e-01 5.380931e-01 -6.161181e-01 1.191956e+00 -2.777721e-01 -3.238444e-01 -7.510839e-01 -1.530002e+00 -7.099904e-01 -9.341280e-01 4.878431e-01 -3.513135e-02 2.733664e-01 -2.118423e-01 4.454011e-01 3.781386e-01 3.258217e-01 -8.549935e-01 -7.284235e-01 -1.093413e-01 -5.304299e-02 3.886869e-01 -8.962033e-03 5.095616e-01 -1.218014e-02
<VARIANCE> 39
 6.298656e+00 4.903239e+00 3.117733e+00 1.001953e+01 1.622573e+01 8.064154e+00 1.398680e+01 1.146544e+01 2.061756e+01 1.851263e+01 3.292939e+01 2.327025e+01 5.000000e-02 6.884907e-01 5.156692e-01 6.520268e-01 1.167274e+00 1.687993e+00 2.211403e+00 2.895600e+00 5.538998e-01 1.589616e+00 1.092303e+00 1.425162e+00 2.956355e+00 5.000000e-02 5.000000e-02 7.318474e-02 2.411823e-01 3.663917e-01 3.480633e-01 2.158734e-01 2.185197e-01 8.564425e-02 4.596960e-01 9.270544e-02 1.674733e-01 3.557888e-01 5.000000e-02
<GCONST> 7.399106e+01
<STATE> 13
<MEAN> 39
 -1.382535e+00 -1.759785e+01 -1.300381e+01 -2.021426e+01 2.118102e+00 -4.491615e+00 -6.428403e+00 3.810413e+00 7.601201e+00 3.651993e+00 -1.099698e+01 -1.175360e+01 8.713378e-01 1.383518e+00 -2.659205e-01 1.328046e+00 3.903691e-01 1.609800e+00 -1.370882e+00 -1.131653e+00 -4.665202e-01 -9.979748e-01 1.332980e-01 1.884671e-01 5.287463e-01 -5.396188e-02 2.552573e-01 2.353629e-02 1.047466e-01 7.833581e-01 -5.255626e-01 -4.869800e-01 -9.174100e-02 2.320437e-01 -6.907286e-02 2.113290e-01 4.638161e-01 5.109082e-01 -1.273903e-02
<VARIANCE> 39
 1.202847e+01 9.140086e+00 7.966907e+00 1.427576e+01 2.546458e+01 1.683099e+01 1.448316e+01 1.563471e+01 8.155451e+00 2.221348e+01 2.101973e+01 1.379078e+01 5.000000e-02 2.352985e-01 2.291699e-01 1.073389e+00 2.112942e+00 1.864529e+00 8.053499e-01 5.351663e-01 1.113161e+00 1.956608e+00 2.278914e-01 5.830962e-01 2.589731e+00 5.000000e-02 1.172713e-01 7.718046e-02 2.744493e-01 4.354536e-01 6.094263e-01 2.531264e-01 3.354647e-01 2.527736e-01 4.970893e-01 3.076848e-01 2.720256e-01 4.047653e-01 5.000000e-02
<GCONST> 7.661759e+01
<STATE> 14
<MEAN> 39
 1.444402e+00 -1.829195e+01 -9.369824e+00 -2.032408e+01 3.933137e+00 -7.977987e+00 -8.402824e+00 3.407171e+00 5.177706e+00 3.497855e+00 -8.978431e+00 -8.874828e+00 7.555002e-01 1.623416e+00 -1.433990e-01 9.346061e-01 2.478816e+00 -6.408082e-01 -2.090457e+00 -3.986635e-01 -1.194106e-01 -1.202287e+00 2.161739e-01 9.305385e-01 1.555628e+00 -7.525932e-02 -1.964975e-01 8.723855e-02 -4.601926e-01 1.058069e+00 -1.062507e+00 3.062387e-02 5.515050e-01 2.560443e-01 3.702280e-01 -1.485349e-01 2.466150e-01 5.115707e-03 -4.315621e-03
<VARIANCE> 39
 8.966120e+00 5.029191e+00 2.680660e+01 1.529070e+01 4.674797e+01 2.312265e+01 1.243333e+01 4.305510e+00 6.102911e+00 1.321325e+01 1.467843e+01 8.317480e+00 5.000000e-02 1.735943e-01 2.090138e-01 2.494209e+00 5.601560e+00 3.892736e+00 1.781845e+00 8.239743e-01 2.848559e+00 2.398090e+00 1.027811e+00 1.466681e+00 2.322541e+00 5.000000e-02 1.280452e-01 1.048986e-01 4.245445e-01 4.259974e-01 3.917964e-01 3.017298e-01 4.135646e-01 1.226321e-01 3.161412e-01 2.641068e-01 1.388375e-01 2.864537e-01 5.000000e-02
<GCONST> 8.006902e+01
<STATE> 15
<MEAN> 39
 4.617978e+00 -1.902861e+01 -1.057100e+01 -1.004113e+01 -2.069836e+00 -1.183122e+01 -5.970091e+00 3.019039e+00 5.186290e+00 2.936371e+00 -6.109710e+00 -5.941818e+00 5.897835e-01 3.050331e-01 -2.669973e-01 1.354602e-01 2.820363e+00 -1.673463e+00 -8.946027e-01 1.068745e+00 4.583432e-01 1.717878e-01 -6.455635e-01 8.497899e-01 8.712337e-01 -6.589588e-02 -4.848072e-01 3.897355e-02 -1.696280e-02 -2.953389e-01 -2.169887e-02 5.405535e-01 3.394540e-01 -1.168660e-01 4.927011e-01 -4.771467e-02 8.521264e-02 -3.588123e-01 9.106306e-03
<VARIANCE> 39
 7.901925e+00 4.526319e+00 2.510404e+01 3.993202e+01 2.501509e+01 9.982160e+00 7.111500e+00 7.109578e+00 6.644356e+00 4.953670e+00 1.265346e+01 7.205954e+00 5.000000e-02 1.064576e+00 3.524936e-01 2.068289e+00 3.498288e+00 3.617982e+00 2.169356e+00 3.514978e+00 2.714185e-01 3.725689e+00 1.831808e+00 1.776092e+00 4.631227e-01 5.000000e-02 8.650194e-02 9.834490e-02 7.977296e-01 7.795899e-01 7.214440e-01 3.262938e-01 2.195540e-01 4.067016e-01 1.003466e-01 1.432454e-01 8.400953e-02 2.183785e-01 5.000000e-02
<GCONST> 7.801997e+01
<STATE> 16
<MEAN> 39
 4.074110e+00 -1.921534e+01 -1.002511e+01 -5.856222e+00 -5.371377e+00 -1.366644e+01 -1.904729e+00 3.922990e+00 7.821332e+00 1.097788e+00 -3.999362e+00 -5.510805e+00 4.801156e-01 -2.271610e-01 1.674058e-01 3.043976e-01 1.161877e+00 -8.999857e-02 5.626180e-01 5.054540e-02 -9.307497e-01 8.190176e-02 1.226970e-02 6.747547e-01 3.242079e-01 -3.455612e-02 -1.004846e-01 1.839217e-01 -8.524514e-02 -4.041774e-01 3.953740e-01 4.305208e-01 -2.928969e-01 -6.821201e-02 -7.851876e-02 5.796906e-02 -1.554452e-01 -7.670268e-02 5.663849e-03
<VARIANCE> 39
 1.589409e+00 2.127900e+00 4.006907e+00 3.159799e+01 1.931907e+01 1.624229e+01 2.056633e+01 2.981581e+00 2.485262e+01 1.057223e+01 2.128495e+01 3.180149e+00 5.000000e-02 2.350862e-01 9.120892e-01 1.915172e+00 1.082390e+00 1.994321e+00 1.509968e+00 2.181444e+00 9.921721e-01 4.296546e+00 7.352033e-01 4.874173e-01 6.190073e-01 5.000000e-02 1.320579e-01 1.259889e-01 1.228743e-01 6.771448e-01 7.102353e-01 2.002772e-01 7.430058e-01 2.607996e-01 1.080989e+00 2.211391e-01 2.615734e-01 1.293747e-01 5.000000e-02
<GCONST> 7.442518e+01
<STATE> 17
<MEAN> 39
 2.189532e+00 -1.797224e+01 -8.294671e+00 -4.461233e+00 -1.756706e+00 -7.448205e+00 -4.331451e+00 -3.787650e-01 5.178852e+00 3.472512e-01 -2.411942e+00 -3.916260e+00 4.077545e-01 -4.054172e-01 5.778251e-01 -1.929219e-01 8.242649e-01 2.803266e-01 6.567765e-01 -6.775994e-01 5.853546e-01 2.152817e-01 -1.373561e-01 3.945230e-01 6.044446e-02 -3.184386e-02 6.797629e-02 -1.886828e-02 -2.487782e-01 -2.779624e-01 -6.187776e-02 -5.050126e-01 5.134845e-02 5.795916e-01 5.125303e-01 1.130095e-01 -2.434191e-01 -3.956255e-01 6.802144e-03
<VARIANCE> 39
 4.425389e+00 1.178613e+01 1.025265e+01 2.282237e+01 1.439916e+01 1.859900e+01 5.641141e+01 1.154610e+01 3.633800e+01 2.382639e+01 9.755688e+00 1.376128e+01 5.000000e-02 2.035880e-01 6.166238e-01 7.650167e-01 2.523884e+00 4.311646e+00 2.768275e-01 9.416353e-01 1.444274e+00 4.076818e-01 2.626209e+00 1.499827e+00 1.117002e+00 5.000000e-02 5.000000e-02 2.395493e-01 2.832295e-01 6.874084e-02 3.069337e-01 5.000000e-02 1.135480e+00 2.458107e-01 1.365008e+00 4.093273e-01 1.777534e-01 2.035175e-01 5.000000e-02
<GCONST> 7.776562e+01
<STATE> 18
<MEAN> 39
 2.290768e+00 -1.666954e+01 -9.634590e+00 -4.421587e+00 -1.762738e+00 -8.322008e+00 -6.794890e+00 4.347901e+00 7.615470e+00 1.606664e+00 -4.096978e+00 -6.177732e+00 3.966473e-01 9.364104e-02 2.454097e-01 -4.860815e-01 2.570908e-01 -5.110507e-01 -6.779127e-01 5.002729e-01 1.333142e+00 1.906234e+00 6.529635e-01 1.590580e-01 -9.181816e-01 -1.241633e-02 -1.141832e-02 -4.495988e-02 1.269882e-01 -3.424656e-01 -3.558358e-01 -4.236283e-01 5.370559e-01 -3.105898e-01 3.486771e-01 -3.237331e-01 -5.304421e-02 -1.001408e-01 1.066015e-03
<VARIANCE> 39
 4.644938e+00 2.226973e+00 1.358606e+00 6.624038e+00 1.853961e+01 6.967385e+00 5.120555e+01 1.643061e+00 2.476217e+01 1.655578e+01 1.911089e+01 1.454527e+01 5.000000e-02 1.354259e-01 7.623473e-01 1.565235e-01 2.389263e+00 2.141360e+00 9.845015e-01 5.743830e+00 1.299263e+00 3.920474e+00 1.347273e+00 1.439636e+00 9.346705e-01 5.000000e-02 6.628146e-02 1.618057e-01 1.509748e-01 8.297563e-02 6.173637e-01 1.345149e-01 7.282065e-01 5.000000e-02 6.258733e-01 4.953571e-01 2.023443e-01 1.023594e-01 5.000000e-02
<GCONST> 6.985887e+01
<STATE> 19
<MEAN> 39
 2.851116e+00 -1.797654e+01 -1.065624e+01 -5.429181e+00 -4.660201e+00 -1.219249e+01 -3.035623e+00 6.369250e+00 1.130397e+01 2.351602e+00 -4.337397e+00 -6.988596e+00 3.989785e-01 -2.561375e-01 -2.428301e-01 -1.597163e-01 -2.387858e-01 -3.543424e-01 -8.262980e-01 9.387122e-01 -7.978385e-01 9.766092e-01 -1.028397e+00 1.137988e-01 5.867727e-02 -3.223555e-02 -2.038423e-01 1.324863e-01 2.576779e-01 -8.975234e-02 4.298349e-01 3.995359e-01 -1.789711e-01 -7.235479e-01 -8.735655e-01 -2.041536e-01 2.182728e-01 4.342061e-01 -5.797377e-03
<VARIANCE> 39
 9.403285e-01 3.323266e+00 9.987289e-01 7.124148e+00 1.100079e+01 6.725608e+00 1.026484e+01 2.524405e+01 1.326227e+01 1.723550e+01 1.960304e+01 8.216451e+00 5.000000e-02 7.383165e-01 8.960232e-01 3.060971e-01 4.052357e-01 1.511623e+00 1.865548e+00 5.578824e+00 1.407899e+00 4.320394e+00 1.418672e+00 1.209495e+00 5.468239e-01 5.000000e-02 5.000000e-02 1.413998e-01 6.649138e-02 2.017492e-01 4.215409e-01 2.607366e-01 9.465613e-01 2.436356e-01 5.314973e-01 4.431953e-01 3.217478e-01 1.155337e-01 5.000000e-02
<GCONST> 7.048734e+01
<STATE> 20
<MEAN> 39
 8.010385e-01 -1.668328e+01 -1.013849e+01 -5.601129e+00 -3.414584e+00 -1.071670e+01 -3.869918e+00 7.617716e-01 8.771833e+00 -1.157156e+00 -2.290724e+00 -5.195740e+00 2.698041e-01 -2.429379e-01 1.285012e+00 1.119698e+00 4.537903e-01 7.863592e-01 1.077723e+00 3.912185e-01 -1.048581e+00 -1.181445e+00 -2.453781e-01 5.782003e-01 7.305744e-01 -3.110117e-02 1.369322e-01 2.075009e-01 3.221984e-01 1.814838e-01 1.794394e-01 3.173659e-01 1.781820e-01 2.651607e-01 -3.595005e-02 3.238457e-01 -1.769424e-03 4.687968e-03 6.034407e-03
<VARIANCE> 39
 3.628933e+00 1.023996e+01 3.670184e+00 1.640685e+00 1.062567e+01 3.429850e+00 2.574870e+00 9.635840e+00 8.080967e+00 5.016932e+00 5.946798e+00 3.096914e+00 5.000000e-02 4.851434e-01 3.227189e-01 5.218833e-01 3.925005e-01 1.100383e+00 3.555089e-01 1.477436e+00 1.408693e+00 7.046452e-01 1.199455e+00 1.244982e+00 3.945467e-01 5.000000e-02 5.000000e-02 1.536347e-01 6.762343e-02 7.304233e-02 1.200527e-01 2.379873e-01 3.936048e-01 9.942732e-02 1.635315e-01 1.821993e-01 1.561896e-01 5.657227e-02 5.000000e-02
<GCONST> 5.178092e+01
<STATE> 21
<MEAN> 39
 1.741346e+00 -1.333341e+01 -5.588241e+00 -3.687847e+00 -1.539205e+00 -7.833302e+00 2.563969e-02 1.028061e+00 7.794891e+00 4.107225e-01 -5.648833e-01 -3.747135e+00 2.607905e-01 -4.021449e-01 3.075915e-01 4.317327e-01 1.980195e-01 3.509033e-01 4.242781e-01 7.249623e-01 1.685587e-01 -2.367925e-01 5.557272e-02 3.218316e-01 1.097411e-01 -1.898222e-02 -1.989880e-01 -2.351748e-01 -3.656313e-01 -1.313692e-01 -6.815096e-02 -1.982437e-01 -3.138176e-01 1.087624e-01 6.868646e-02 -1.360881e-01 -2.401083e-01 -1.885927e-01 -2.167377e-03
<VARIANCE> 39
 4.877377e+00 6.812128e+00 6.529538e+00 4.771679e+00 5.014708e+00 8.958790e+00 1.365409e+01 9.090933e+00 1.233498e+01 6.862506e+00 5.108473e+00 2.949939e+00 5.000000e-02 2.524376e-01 7.018863e-01 1.049397e+00 6.822175e-01 4.595087e-01 1.762330e+00 1.633636e+00 2.268266e+00 6.889151e-01 3.158188e-01 1.009293e+00 5.047079e-01 5.000000e-02 5.033724e-02 1.810356e-01 9.541991e-02 5.000000e-02 1.236522e-01 1.829883e-01 4.346862e-01 5.266770e-01 1.519324e-01 5.977046e-02 2.381099e-01 6.118701e-02 5.000000e-02
<GCONST> 5.800761e+01
<STATE> 22
<MEAN> 39
 -1.675524e+00 -1.253650e+01 -5.943499e+00 -3.527768e+00 4.000035e-01 -6.754574e+00 -2.680962e+00 -4.809736e-01 4.765113e+00 -1.290227e+00 -1.288207e+00 -4.265136e+00 1.399085e-01 -7.345064e-01 7.971126e-01 3.154449e-01 -1.103062e-01 3.696349e-01 6.008100e-01 -1.204071e-01 3.093556e-01 -1.324884e-01 -4.388677e-01 -2.009854e-01 -2.509163e-01 -2.538973e-02 4.317978e-02 9.063004e-03 6.355876e-02 -8.405395e-02 -1.671082e-01 -1.137906e-01 3.325191e-01 4.303935e-01 5.549911e-01 2.775696e-01 1.928276e-02 -1.572474e-01 3.430925e-03
<VARIANCE> 39
 6.406781e+00 6.099165e+00 7.184417e+00 9.792021e+00 1.418120e+01 1.224091e+01 2.046823e+01 1.366611e+01 2.193489e+01 9.094595e+00 1.397888e+01 1.325128e+01 5.000000e-02 1.737449e-01 4.420784e-01 6.080926e-01 4.828673e-01 2.512217e-01 1.026506e+00 2.491611e+00 1.483104e+00 8.015243e-01 4.246551e-01 1.044760e+00 5.349849e-01 5.000000e-02 1.388637e-01 1.521090e-01 6.160576e-02 2.012953e-01 1.073295e-01 2.588325e-01 2.996615e-01 4.896488e-01 2.016262e-01 1.954322e-01 2.618686e-01 1.411997e-01 5.000000e-02
<GCONST> 6.613599e+01
<STATE> 23
<MEAN> 39
 -7.392184e-01 -1.196747e+01 -7.277434e+00 -5.341175e+00 -4.403604e-01 -7.961296e+00 -2.841397e-01 2.949260e+00 9.897679e+00 5.763075e-01 -2.812043e+00 -6.159616e+00 1.868242e-01 -8.369604e-01 2.120448e-01 3.209166e-01 -1.114479e-01 -1.127315e-01 9.756652e-02 8.594812e-01 4.709332e-01 5.935766e-01 8.844098e-01 3.992818e-01 -2.911283e-01 -2.721233e-02 -2.140283e-01 3.596133e-02 2.614151e-01 2.380502e-01 -4.910615e-02 8.063892e-02 -1.203901e-01 -3.668535e-01 -3.678423e-01 -1.463282e-01 2.911288e-01 2.444328e-01 -9.806355e-03
<VARIANCE> 39
 6.044046e+00 2.578483e+00 2.499685e+01 1.269164e+01 5.284647e+00 2.331223e+01 6.932308e+00 1.010256e+01 1.751027e+01 1.423057e+01 7.296264e+00 5.259812e+00 5.000000e-02 9.287001e-01 5.194352e-01 1.241261e+00 5.586900e-01 4.754513e-01 1.361461e+00 6.528044e-01 4.654228e+00 5.588353e+00 1.773097e+00 1.158460e+00 9.818781e-01 5.000000e-02 1.128277e-01 1.110980e-01 3.226956e-01 9.439515e-02 9.893053e-02 3.453759e-01 1.714189e-01 3.057236e-01 3.330988e-01 4.166066e-01 1.061629e-01 8.853600e-02 5.000000e-02
<GCONST> 7.059016e+01
<STATE> 24
<MEAN> 39
 -5.211287e+00 -1.054213e+01 -3.889514e+00 -3.143508e+00 -1.939634e-01 -5.881395e+00 1.359417e+00 2.958140e+00 8.176566e+00 3.448892e-01 6.663023e-01 -5.044968e+00 1.137977e-02 -4.611494e-01 7.249714e-01 1.157089e+00 9.683572e-01 5.226941e-01 3.396172e-01 -2.491370e-01 -7.109089e-01 -2.433787e-01 -1.636914e-01 4.853464e-01 4.701186e-01 -2.495503e-02 4.067398e-01 -2.210921e-02 -4.682569e-02 6.916895e-02 7.863158e-02 -2.841518e-01 -3.528579e-01 -4.414047e-01 -2.644574e-01 -9.868226e-02 -1.298300e-01 1.207220e-01 1.195183e-02
<VARIANCE> 39
 2.001120e+00 2.692495e+00 5.159104e+00 5.647657e+00 1.157640e+01 8.178098e+00 9.678595e+00 1.714156e+01 2.226580e+01 7.608948e+00 5.191709e+00 5.747428e+00 5.000000e-02 9.140233e-01 5.549681e-01 1.626912e+00 1.044559e+00 9.480065e-01 8.628547e-01 5.702465e-01 7.379608e-01 8.502527e-01 1.241397e+00 5.791334e-01 5.891001e-01 5.000000e-02 8.108217e-02 6.272334e-02 8.469958e-02 1.272364e-01 1.455437e-01 5.723019e-02 1.302405e-01 5.275429e-01 5.587080e-01 2.295517e-01 1.732770e-01 1.203391e-01 5.000000e-02
<GCONST> 6.049839e+01
<TRANSP> 25
 0.000000e+00 1.000000e+00 0.000000e+00 0.000000e+00 0.000000e+00 0.000000e+00 0.000000e+00 0.000000e+00 0.000000e+00 0.000000e+00 0.000000e+00 0.000000e+00 0.000000e+00 0.000000e+00 0.000000e+00 0.000000e+00 0.000000e+00 0.000000e+00 0.000000e+00 0.000000e+00 0.000000e+00 0.000000e+00 0.000000e+00 0.000000e+00 0.000000e+00
 0.000000e+00 7.512643e-01 2.487358e-01 0.000000e+00 0.000000e+00 0.000000e+00 0.000000e+00 0.000000e+00 0.000000e+00 0.000000e+00 0.000000e+00 0.000000e+00 0.000000e+00 0.000000e+00 0.000000e+00 0.000000e+00 0.000000e+00 0.000000e+00 0.000000e+00 0.000000e+00 0.000000e+00 0.000000e+00 0.000000e+00 0.000000e+00 0.000000e+00
 0.000000e+00 0.000000e+00 6.121452e-01 3.878548e-01 0.000000e+00 0.000000e+00 0.000000e+00 0.000000e+00 0.000000e+00 0.000000e+00 0.000000e+00 0.000000e+00 0.000000e+00 0.000000e+00 0.000000e+00 0.000000e+00 0.000000e+00 0.000000e+00 0.000000e+00 0.000000e+00 0.000000e+00 0.000000e+00 0.000000e+00 0.000000e+00 0.000000e+00
 0.000000e+00 0.000000e+00 0.000000e+00 6.153849e-01 3.846151e-01 0.000000e+00 0.000000e+00 0.000000e+00 0.000000e+00 0.000000e+00 0.000000e+00 0.000000e+00 0.000000e+00 0.000000e+00 0.000000e+00 0.000000e+00 0.000000e+00 0.000000e+00 0.000000e+00 0.000000e+00 0.000000e+00 0.000000e+00 0.000000e+00 0.000000e+00 0.000000e+00
 0.000000e+00 0.000000e+00 0.000000e+00 0.000000e+00 4.444480e-01 5.555520e-01 0.000000e+00 0.000000e+00 0.000000e+00 0.000000e+00 0.000000e+00 0.000000e+00 0.000000e+00 0.000000e+00 0.000000e+00 0.000000e+00 0.000000e+00 0.000000e+00 0.000000e+00 0.000000e+00 0.000000e+00 0.000000e+00 0.000000e+00 0.000000e+00 0.000000e+00
 0.000000e+00 0.000000e+00 0.000000e+00 0.000000e+00 0.000000e+00 6.153709e-01 3.846291e-01 0.000000e+00 0.000000e+00 0.000000e+00 0.000000e+00 0.000000e+00 0.000000e+00 0.000000e+00 0.000000e+00 0.000000e+00 0.000000e+00 0.000000e+00 0.000000e+00 0.000000e+00 0.000000e+00 0.000000e+00 0.000000e+00 0.000000e+00 0.000000e+00
 0.000000e+00 0.000000e+00 0.000000e+00 0.000000e+00 0.000000e+00 0.000000e+00 4.444723e-01 5.555277e-01 0.000000e+00 0.000000e+00 0.000000e+00 0.000000e+00 0.000000e+00 0.000000e+00 0.000000e+00 0.000000e+00 0.000000e+00 0.000000e+00 0.000000e+00 0.000000e+00 0.000000e+00 0.000000e+00 0.000000e+00 0.000000e+00 0.000000e+00
 0.000000e+00 0.000000e+00 0.000000e+00 0.000000e+00 0.000000e+00 0.000000e+00 0.000000e+00 4.440691e-01 5.559309e-01 0.000000e+00 0.000000e+00 0.000000e+00 0.000000e+00 0.000000e+00 0.000000e+00 0.000000e+00 0.000000e+00 0.000000e+00 0.000000e+00 0.000000e+00 0.000000e+00 0.000000e+00 0.000000e+00 0.000000e+00 0.000000e+00
 0.000000e+00 0.000000e+00 0.000000e+00 0.000000e+00 0.000000e+00 0.000000e+00 0.000000e+00 0.000000e+00 4.448138e-01 5.551862e-01 0.000000e+00 0.000000e+00 0.000000e+00 0.000000e+00 0.000000e+00 0.000000e+00 0.000000e+00 0.000000e+00 0.000000e+00 0.000000e+00 0.000000e+00 0.000000e+00 0.000000e+00 0.000000e+00 0.000000e+00
 0.000000e+00 0.000000e+00 0.000000e+00 0.000000e+00 0.000000e+00 0.000000e+00 0.000000e+00 0.000000e+00 0.000000e+00 5.000008e-01 4.999991e-01 0.000000e+00 0.000000e+00 0.000000e+00 0.000000e+00 0.000000e+00 0.000000e+00 0.000000e+00 0.000000e+00 0.000000e+00 0.000000e+00 0.000000e+00 0.000000e+00 0.000000e+00 0.000000e+00
 0.000000e+00 0.000000e+00 0.000000e+00 0.000000e+00 0.000000e+00 0.000000e+00 0.000000e+00 0.000000e+00 0.000000e+00 0.000000e+00 5.832813e-01 4.167187e-01 0.000000e+00 0.000000e+00 0.000000e+00 0.000000e+00 0.000000e+00 0.000000e+00 0.000000e+00 0.000000e+00 0.000000e+00 0.000000e+00 0.000000e+00 0.000000e+00 0.000000e+00
 0.000000e+00 0.000000e+00 0.000000e+00 0.000000e+00 0.000000e+00 0.000000e+00 0.000000e+00 0.000000e+00 0.000000e+00 0.000000e+00 0.000000e+00 4.433627e-01 5.566372e-01 0.000000e+00 0.000000e+00 0.000000e+00 0.000000e+00 0.000000e+00 0.000000e+00 0.000000e+00 0.000000e+00 0.000000e+00 0.000000e+00 0.000000e+00 0.000000e+00
 0.000000e+00 0.000000e+00 0.000000e+00 0.000000e+00 0.000000e+00 0.000000e+00 0.000000e+00 0.000000e+00 0.000000e+00 0.000000e+00 0.000000e+00 0.000000e+00 3.309447e-01 6.690553e-01 0.000000e+00 0.000000e+00 0.000000e+00 0.000000e+00 0.000000e+00 0.000000e+00 0.000000e+00 0.000000e+00 0.000000e+00 0.000000e+00 0.000000e+00
 0.000000e+00 0.000000e+00 0.000000e+00 0.000000e+00 0.000000e+00 0.000000e+00 0.000000e+00 0.000000e+00 0.000000e+00 0.000000e+00 0.000000e+00 0.000000e+00 0.000000e+00 3.377158e-01 6.622842e-01 0.000000e+00 0.000000e+00 0.000000e+00 0.000000e+00 0.000000e+00 0.000000e+00 0.000000e+00 0.000000e+00 0.000000e+00 0.000000e+00
 0.000000e+00 0.000000e+00 0.000000e+00 0.000000e+00 0.000000e+00 0.000000e+00 0.000000e+00 0.000000e+00 0.000000e+00 0.000000e+00 0.000000e+00 0.000000e+00 0.000000e+00 0.000000e+00 5.449502e-01 4.550498e-01 0.000000e+00 0.000000e+00 0.000000e+00 0.000000e+00 0.000000e+00 0.000000e+00 0.000000e+00 0.000000e+00 0.000000e+00
 0.000000e+00 0.000000e+00 0.000000e+00 0.000000e+00 0.000000e+00 0.000000e+00 0.000000e+00 0.000000e+00 0.000000e+00 0.000000e+00 0.000000e+00 0.000000e+00 0.000000e+00 0.000000e+00 0.000000e+00 5.834464e-01 4.165537e-01 0.000000e+00 0.000000e+00 0.000000e+00 0.000000e+00 0.000000e+00 0.000000e+00 0.000000e+00 0.000000e+00
 0.000000e+00 0.000000e+00 0.000000e+00 0.000000e+00 0.000000e+00 0.000000e+00 0.000000e+00 0.000000e+00 0.000000e+00 0.000000e+00 0.000000e+00 0.000000e+00 0.000000e+00 0.000000e+00 0.000000e+00 0.000000e+00 4.447557e-01 5.552443e-01 0.000000e+00 0.000000e+00 0.000000e+00 0.000000e+00 0.000000e+00 0.000000e+00 0.000000e+00
 0.000000e+00 0.000000e+00 0.000000e+00 0.000000e+00 0.000000e+00 0.000000e+00 0.000000e+00 0.000000e+00 0.000000e+00 0.000000e+00 0.000000e+00 0.000000e+00 0.000000e+00 0.000000e+00 0.000000e+00 0.000000e+00 0.000000e+00 1.729784e-01 8.270215e-01 0.000000e+00 0.000000e+00 0.000000e+00 0.000000e+00 0.000000e+00 0.000000e+00
 0.000000e+00 0.000000e+00 0.000000e+00 0.000000e+00 0.000000e+00 0.000000e+00 0.000000e+00 0.000000e+00 0.000000e+00 0.000000e+00 0.000000e+00 0.000000e+00 0.000000e+00 0.000000e+00 0.000000e+00 0.000000e+00 0.000000e+00 0.000000e+00 5.431170e-01 4.568830e-01 0.000000e+00 0.000000e+00 0.000000e+00 0.000000e+00 0.000000e+00
 0.000000e+00 0.000000e+00 0.000000e+00 0.000000e+00 0.000000e+00 0.000000e+00 0.000000e+00 0.000000e+00 0.000000e+00 0.000000e+00 0.000000e+00 0.000000e+00 0.000000e+00 0.000000e+00 0.000000e+00 0.000000e+00 0.000000e+00 0.000000e+00 0.000000e+00 6.158153e-01 3.841847e-01 0.000000e+00 0.000000e+00 0.000000e+00 0.000000e+00
 0.000000e+00 0.000000e+00 0.000000e+00 0.000000e+00 0.000000e+00 0.000000e+00 0.000000e+00 0.000000e+00 0.000000e+00 0.000000e+00 0.000000e+00 0.000000e+00 0.000000e+00 0.000000e+00 0.000000e+00 0.000000e+00 0.000000e+00 0.000000e+00 0.000000e+00 0.000000e+00 6.156554e-01 3.843446e-01 0.000000e+00 0.000000e+00 0.000000e+00
 0.000000e+00 0.000000e+00 0.000000e+00 0.000000e+00 0.000000e+00 0.000000e+00 0.000000e+00 0.000000e+00 0.000000e+00 0.000000e+00 0.000000e+00 0.000000e+00 0.000000e+00 0.000000e+00 0.000000e+00 0.000000e+00 0.000000e+00 0.000000e+00 0.000000e+00 0.000000e+00 0.000000e+00 5.449123e-01 4.550877e-01 0.000000e+00 0.000000e+00
 0.000000e+00 0.000000e+00 0.000000e+00 0.000000e+00 0.000000e+00 0.000000e+00 0.000000e+00 0.000000e+00 0.000000e+00 0.000000e+00 0.000000e+00 0.000000e+00 0.000000e+00 0.000000e+00 0.000000e+00 0.000000e+00 0.000000e+00 0.000000e+00 0.000000e+00 0.000000e+00 0.000000e+00 0.000000e+00 5.000075e-01 4.999925e-01 0.000000e+00
 0.000000e+00 0.000000e+00 0.000000e+00 0.000000e+00 0.000000e+00 0.000000e+00 0.000000e+00 0.000000e+00 0.000000e+00 0.000000e+00 0.000000e+00 0.000000e+00 0.000000e+00 0.000000e+00 0.000000e+00 0.000000e+00 0.000000e+00 0.000000e+00 0.000000e+00 0.000000e+00 0.000000e+00 0.000000e+00 0.000000e+00 5.835615e-01 4.164384e-01
 0.000000e+00 0.000000e+00 0.000000e+00 0.000000e+00 0.000000e+00 0.000000e+00 0.000000e+00 0.000000e+00 0.000000e+00 0.000000e+00 0.000000e+00 0.000000e+00 0.000000e+00 0.000000e+00 0.000000e+00 0.000000e+00 0.000000e+00 0.000000e+00 0.000000e+00 0.000000e+00 0.000000e+00 0.000000e+00 0.000000e+00 0.000000e+00 0.000000e+00
<ENDHMM>
