~o
<STREAMINFO> 1 39
<VECSIZE> 39<NULLD><MFCC_E_D_A><DIAGC>
~h "Vao"
<BEGINHMM>
<NUMSTATES> 5
<STATE> 2
<MEAN> 39
 4.962977e-01 -1.192846e+01 -1.121285e+01 -5.744504e+00 -1.913703e+00 -8.511632e+00 1.855996e+00 -1.169363e+00 -9.385973e-01 -3.768624e+00 -4.651452e+00 -6.011440e+00 4.745337e-01 7.528379e-03 -1.742822e+00 -2.239732e+00 -9.924155e-02 3.247708e-01 4.388863e-03 1.299512e+00 1.507470e-01 1.310477e-01 -2.122068e-01 -1.278145e+00 5.611371e-01 9.299890e-02 -2.837653e-01 -1.498152e-01 8.111466e-02 2.899727e-01 2.970396e-01 2.353666e-01 2.030233e-01 -1.581247e-01 3.642264e-03 -3.433090e-02 1.472880e-01 2.780895e-01 2.812779e-04
<VARIANCE> 39
 1.887391e+01 4.279785e+01 6.016385e+01 2.116272e+01 1.619630e+01 1.848791e+01 4.161946e+01 1.770240e+01 2.439365e+01 2.194221e+01 2.984076e+01 1.286001e+01 9.366519e-02 2.225433e+00 2.559011e+00 3.761179e+00 3.286237e+00 2.951866e+00 3.096698e+00 4.322145e+00 1.740731e+00 2.749503e+00 2.621669e+00 1.878251e+00 2.444168e+00 5.000000e-02 2.194287e-01 4.884335e-01 9.576488e-01 7.727169e-01 4.751278e-01 4.658793e-01 8.223844e-01 3.316864e-01 5.837656e-01 5.077239e-01 6.407930e-01 2.898685e-01 5.000000e-02
<GCONST> 1.054414e+02
<STATE> 3
<MEAN> 39
 -1.810544e+00 -2.474474e+01 -2.252455e+01 -3.902352e+00 4.010108e+00 1.058163e+00 6.358730e+00 -8.234926e+00 2.891533e+00 -1.929219e+00 -9.250924e+00 1.252214e+00 9.064592e-01 3.408890e-01 -6.289497e-03 -1.466224e-02 -2.102956e-01 -1.044482e-01 1.306465e-01 -2.977909e-01 4.091646e-03 1.284154e-01 1.475165e-01 2.063717e-01 -3.357543e-02 -8.791716e-03 5.798304e-02 7.048900e-02 4.342047e-02 -3.240382e-02 -6.740333e-02 -1.045051e-01 -3.295431e-02 7.236101e-02 7.641989e-03 -1.620297e-02 7.744662e-03 -3.839574e-02 -3.038049e-03
<VARIANCE> 39
 3.166277e+01 7.038158e+00 9.931124e+00 3.912043e+01 1.398082e+01 1.827873e+01 2.580339e+01 4.642127e+01 4.049477e+01 2.895802e+01 2.067643e+01 2.232286e+01 5.000000e-02 5.936207e-01 5.533045e-01 7.759455e-01 1.367229e+00 1.056490e+00 1.456820e+00 1.081897e+00 1.696399e+00 1.537259e+00 1.475149e+00 1.549977e+00 1.355366e+00 5.000000e-02 7.234266e-02 8.315662e-02 1.666788e-01 1.631284e-01 1.908834e-01 1.815542e-01 2.534747e-01 1.962655e-01 2.862484e-01 2.427859e-01 2.146435e-01 2.307951e-01 5.000000e-02
<GCONST> 8.068456e+01
<STATE> 4
<MEAN> 39
 3.138042e+00 -1.862935e+01 -1.487667e+01 -3.967841e+00 3.531891e+00 -3.522553e+00 1.434049e+00 -1.786396e+00 1.330916e+00 -4.972263e+00 -2.432324e+00 -2.020810e+00 3.746490e-01 -5.552831e-01 5.609736e-01 9.607604e-01 6.036443e-01 3.892591e-01 -1.482510e-03 -1.592155e-01 -7.975753e-02 -1.384154e-01 -2.290349e-01 2.520546e-01 -8.397862e-02 -3.134149e-02 -5.319009e-02 2.336164e-02 5.484664e-02 -4.783018e-02 1.822885e-03 1.341873e-01 -4.633084e-04 -5.891845e-02 7.857576e-03 4.866445e-02 -6.808827e-03 -2.561583e-02 -2.089367e-05
<VARIANCE> 39
 1.173944e+01 1.278560e+01 3.547422e+01 2.284408e+01 2.795057e+01 1.218801e+01 1.051508e+01 1.224842e+01 9.912645e+00 1.021156e+01 1.168504e+01 8.599977e+00 5.000000e-02 2.409944e-01 7.946872e-01 1.017993e+00 1.106915e+00 1.792055e+00 1.898532e+00 1.021442e+00 1.426435e+00 1.484911e+00 1.397050e+00 1.010533e+00 1.058392e+00 5.000000e-02 5.845280e-02 1.539850e-01 2.073485e-01 1.933652e-01 3.986436e-01 3.625726e-01 2.023908e-01 3.320894e-01 2.983995e-01 2.270134e-01 2.329285e-01 2.233462e-01 5.000000e-02
<GCONST> 7.697045e+01
<TRANSP> 5
 0.000000e+00 1.000000e+00 0.000000e+00 0.000000e+00 0.000000e+00
 0.000000e+00 8.862589e-01 1.137411e-01 0.000000e+00 0.000000e+00
 0.000000e+00 0.000000e+00 9.655788e-01 3.442119e-02 0.000000e+00
 0.000000e+00 0.000000e+00 0.000000e+00 9.436117e-01 5.638826e-02
 0.000000e+00 0.000000e+00 0.000000e+00 0.000000e+00 0.000000e+00
<ENDHMM>
