~o
<STREAMINFO> 1 39
<VECSIZE> 39<NULLD><MFCC_E_D_A><DIAGC>
~h "Ve^"
<BEGINHMM>
<NUMSTATES> 5
<STATE> 2
<MEAN> 39
 -6.462492e-01 -8.496360e+00 -6.498656e+00 -6.367553e+00 -4.881397e+00 -9.084238e+00 1.127476e+00 9.940010e-01 -2.267645e+00 -6.833062e+00 -4.702565e+00 -4.827770e+00 5.539160e-01 -1.144385e-01 -9.306112e-01 -1.206074e+00 -6.125240e-01 -8.789676e-01 -7.852904e-01 8.087225e-01 6.656367e-01 5.541498e-02 8.854855e-02 -6.812569e-01 1.468161e-01 7.259168e-02 -1.557160e-01 -1.758925e-01 5.225949e-02 -2.255789e-02 4.439957e-02 1.125242e-01 1.679928e-01 -8.656491e-02 6.447700e-02 1.522111e-01 1.719236e-01 6.085668e-02 -1.599927e-03
<VARIANCE> 39
 2.200750e+01 3.425758e+01 4.272212e+01 2.459526e+01 2.032230e+01 3.975520e+01 4.465961e+01 3.813975e+01 2.926523e+01 2.483600e+01 1.731465e+01 3.507520e+01 6.835704e-02 2.682104e+00 2.792589e+00 2.415747e+00 4.192110e+00 2.805613e+00 3.436457e+00 5.399530e+00 4.079857e+00 2.787672e+00 3.442767e+00 2.080563e+00 3.530458e+00 5.000000e-02 3.935607e-01 4.389572e-01 6.328647e-01 9.364279e-01 6.541081e-01 8.906944e-01 8.542626e-01 7.487088e-01 5.422353e-01 4.969037e-01 5.200932e-01 6.616724e-01 5.000000e-02
<GCONST> 1.120162e+02
<STATE> 3
<MEAN> 39
 -5.288921e+00 -1.721992e+01 -1.075042e+01 -1.240067e+01 -1.351843e+01 -8.926730e+00 1.191096e+01 2.498063e+00 3.055823e-01 2.258476e+00 -4.334071e+00 -4.753834e+00 9.539939e-01 9.034222e-02 -6.503621e-03 2.459644e-01 4.372017e-03 -5.854652e-01 3.197240e-01 -7.727077e-02 -1.923484e-01 1.928170e-01 4.941342e-01 3.314689e-01 -1.066624e-01 -3.969576e-03 8.579151e-02 5.051753e-02 -6.962195e-03 6.823999e-02 -8.236414e-02 2.064415e-02 -1.697991e-01 -1.302367e-02 2.773078e-02 -5.002738e-02 3.115426e-02 2.524963e-02 -3.131962e-03
<VARIANCE> 39
 4.944744e+00 4.433377e+00 8.075648e+00 7.690737e+00 2.320312e+01 3.622623e+01 1.793602e+01 4.172836e+01 1.767588e+01 3.267627e+01 9.055702e+00 2.074403e+01 5.000000e-02 3.028398e-01 3.565554e-01 5.373687e-01 6.669961e-01 1.080870e+00 1.073320e+00 9.724583e-01 9.248373e-01 9.224098e-01 7.448312e-01 6.168256e-01 8.151482e-01 5.000000e-02 5.000000e-02 5.622721e-02 1.079104e-01 1.364745e-01 1.888429e-01 1.741293e-01 1.708028e-01 2.085297e-01 1.759834e-01 1.604343e-01 1.000733e-01 1.347367e-01 5.000000e-02
<GCONST> 6.586520e+01
<STATE> 4
<MEAN> 39
 -2.611308e-01 -1.315076e+01 -4.422458e+00 -8.949609e+00 -1.646128e+01 -3.493736e+00 8.388140e+00 -1.094540e+00 2.472058e+00 2.385437e+00 3.092947e-01 -5.054533e+00 5.010813e-01 -4.075964e-02 4.122404e-01 4.347365e-01 2.907503e-01 1.045340e+00 1.006083e-01 -1.077437e-01 -2.163818e-01 -1.922393e-01 -4.270100e-01 7.315539e-02 -1.683745e-02 -4.200472e-02 -7.710270e-02 3.820850e-03 3.173362e-02 -2.522262e-03 1.588872e-01 -9.438848e-02 5.452003e-02 2.253767e-02 -1.938884e-02 -1.599474e-03 -4.630166e-02 2.092341e-02 7.209579e-05
<VARIANCE> 39
 6.272798e+00 1.383849e+01 1.991228e+01 1.360661e+01 8.895261e+01 1.561721e+01 2.096884e+01 1.595747e+01 1.600640e+01 1.827513e+01 9.970225e+00 1.208150e+01 5.517644e-02 7.868294e-01 7.038778e-01 1.404538e+00 1.226704e+00 4.197039e+00 1.758510e+00 2.071062e+00 1.462707e+00 1.890123e+00 1.638923e+00 1.398994e+00 8.835079e-01 5.000000e-02 1.237340e-01 1.398837e-01 2.615407e-01 2.299404e-01 5.895704e-01 2.989388e-01 3.945310e-01 3.023303e-01 3.840875e-01 3.483793e-01 2.717617e-01 1.806872e-01 5.000000e-02
<GCONST> 8.502125e+01
<TRANSP> 5
 0.000000e+00 1.000000e+00 0.000000e+00 0.000000e+00 0.000000e+00
 0.000000e+00 9.054319e-01 9.456804e-02 0.000000e+00 0.000000e+00
 0.000000e+00 0.000000e+00 9.502194e-01 4.978063e-02 0.000000e+00
 0.000000e+00 0.000000e+00 0.000000e+00 9.387363e-01 6.126375e-02
 0.000000e+00 0.000000e+00 0.000000e+00 0.000000e+00 0.000000e+00
<ENDHMM>
