~o
<STREAMINFO> 1 39
<VECSIZE> 39<NULLD><MFCC_E_D_A><DIAGC>
~h "Xoa"
<BEGINHMM>
<NUMSTATES> 25
<STATE> 2
<MEAN> 39
 -8.270501e+00 -7.930120e+00 -4.099102e+00 -1.001907e-01 1.196916e+00 -3.626040e+00 4.468511e+00 -1.044585e+00 2.715366e+00 -3.806121e+00 1.967244e+00 -2.745027e+00 -7.000486e-02 -1.443293e+00 1.952936e+00 -1.618914e+00 8.274934e-01 -3.291981e-02 -4.195096e-01 1.079253e+00 -3.119821e-01 4.711967e-01 -3.625404e-01 4.001308e-01 -2.479308e-01 2.469356e-02 -4.881530e-01 7.970546e-01 -5.072228e-01 1.614836e-01 -4.265101e-02 -1.212355e-01 9.249675e-02 -1.521191e-01 1.526394e-02 2.746120e-02 1.053134e-01 1.399109e-01 1.382749e-02
<VARIANCE> 39
 6.625040e+00 5.535012e+00 5.912582e+00 1.989094e+00 9.648433e+00 6.753122e+00 9.955887e+00 3.500113e+01 4.106376e+00 9.365652e+00 3.012842e+00 4.364005e+00 5.000000e-02 9.318701e-01 1.462772e+00 1.512916e+00 4.300465e-01 1.268736e+00 5.616568e-01 7.183300e-01 1.906098e+00 4.753653e-01 1.178078e+00 4.551710e-01 1.068584e+00 5.000000e-02 1.162008e-01 1.165690e-01 1.733755e-01 1.141343e-01 3.498335e-01 1.428189e-01 2.218321e-01 5.547404e-01 1.348863e-01 2.949900e-01 6.971317e-02 1.761582e-01 5.000000e-02
<GCONST> 6.262788e+01
<STATE> 3
<MEAN> 39
 -1.421205e+01 1.997219e-01 -1.012566e+01 3.008588e+00 1.204214e+00 -7.374037e+00 6.972633e+00 -1.615143e+00 5.236527e+00 -3.286199e+00 3.815293e+00 -2.108018e+00 3.125919e-02 -2.413730e+00 3.001521e+00 -2.712155e+00 7.906124e-01 4.583144e-02 -1.132878e-02 5.220571e-01 -4.569862e-01 2.881604e-01 -8.464868e-02 1.307897e-01 -3.393066e-01 6.507042e-02 1.790228e-01 -2.531078e-01 -3.940390e-02 -2.455073e-01 -6.856567e-02 3.118667e-01 -5.250298e-01 -7.224248e-02 -2.393603e-01 -2.859239e-02 -8.055384e-02 -2.337493e-01 1.369080e-02
<VARIANCE> 39
 9.834081e+00 5.936904e+00 6.991214e+00 5.485998e+00 9.333467e+00 9.383777e+00 1.203092e+01 1.189746e+01 4.971858e+00 1.141394e+01 1.309443e+01 9.688702e+00 5.000000e-02 1.695173e+00 1.540928e+00 6.398954e-01 1.079167e+00 3.246022e+00 2.838405e+00 1.941167e+00 4.072157e+00 1.567771e+00 1.849032e+00 2.033051e+00 1.510639e+00 5.000000e-02 6.243389e-01 1.294790e-01 1.548871e-01 8.655515e-02 2.992325e-01 1.465397e-01 3.114770e-01 2.922284e-01 1.559770e-01 3.731169e-01 3.769520e-01 2.620189e-01 5.000000e-02
<GCONST> 7.827666e+01
<STATE> 4
<MEAN> 39
 -2.077106e+01 7.962111e+00 -1.851052e+01 3.489750e+00 1.519265e+00 -5.339069e+00 5.758513e+00 -3.883075e+00 4.028999e+00 -5.398421e+00 2.984184e+00 -4.579545e+00 3.358610e-01 -9.738194e-01 9.706517e-01 -1.164433e+00 5.153065e-01 -3.764528e-01 -5.311837e-01 -9.622561e-01 -3.680762e-01 3.087998e-02 -5.323325e-01 1.686751e-01 1.412114e-03 6.355814e-02 6.082863e-01 -9.037608e-01 7.064286e-01 -1.133486e-01 -2.399357e-01 -3.551643e-01 -1.634387e-01 1.338432e-01 1.573721e-01 -5.268374e-02 -3.895751e-02 2.555351e-01 -1.254688e-02
<VARIANCE> 39
 3.915611e+01 2.073796e+01 2.003380e+01 1.720400e+01 1.980443e+01 4.156067e+01 2.436093e+01 3.515462e+01 2.016255e+01 2.281597e+01 1.331584e+01 6.431381e+00 5.000000e-02 3.187165e+00 3.096473e+00 3.806528e+00 8.133308e-01 1.917264e+00 1.942277e+00 2.055720e+00 3.904477e+00 1.268389e+00 1.983090e+00 1.802895e+00 1.037224e+00 5.000000e-02 5.959668e-01 3.671650e-01 4.925526e-01 2.906584e-01 3.850183e-01 5.416451e-01 5.065278e-01 6.199120e-01 4.236100e-01 3.847357e-01 4.104846e-01 2.107588e-01 5.000000e-02
<GCONST> 9.719382e+01
<STATE> 5
<MEAN> 39
 -1.957509e+01 5.689915e+00 -1.727316e+01 4.765001e+00 -2.354106e+00 -9.640580e+00 2.440280e+00 -4.755962e+00 6.217327e+00 -6.100022e+00 3.939657e+00 -1.801025e+00 4.137720e-01 3.165824e+00 -3.828030e+00 -7.196014e-02 -3.063678e+00 -1.048981e+00 -1.160602e+00 -6.386427e-01 8.013186e-01 1.189863e+00 2.675756e-01 -2.090193e+00 -1.603316e-01 5.897244e-02 1.277465e+00 -1.783164e+00 -1.434140e-01 -1.501944e+00 5.743390e-01 3.173214e-01 2.628482e-01 3.939535e-01 -7.929467e-03 3.603719e-01 -9.631162e-01 -4.594658e-01 2.105089e-02
<VARIANCE> 39
 4.508044e+01 4.070716e+01 2.227823e+01 3.419265e+01 2.473628e+01 3.325217e+01 9.505969e+00 2.701383e+01 1.006215e+01 2.427118e+01 1.355098e+01 1.651400e+01 5.000000e-02 7.850847e+00 8.545777e+00 2.745894e+00 8.110788e+00 2.484973e+00 3.686735e+00 1.986197e+00 3.266035e+00 1.307542e+00 3.203508e+00 4.330405e+00 2.529308e+00 5.000000e-02 8.515727e-01 4.671184e-01 6.344772e-01 5.102291e-01 8.547023e-01 6.389110e-01 3.279510e-01 6.532360e-01 2.228545e-01 5.602050e-01 3.568079e-01 3.962963e-01 5.000000e-02
<GCONST> 1.069978e+02
<STATE> 6
<MEAN> 39
 -1.910962e+00 -1.774235e+01 -2.070114e+01 -1.275851e+01 -2.728949e+00 -1.066768e+01 1.325152e+00 9.629471e-01 9.747117e+00 -4.556492e+00 -9.291120e+00 -5.551340e+00 7.702367e-01 3.640054e+00 -6.625876e+00 -3.636360e-01 -3.863831e+00 2.694754e+00 1.359011e+00 3.140500e-01 -3.599316e-02 -6.643306e-01 1.151698e+00 -1.748702e+00 -1.572764e+00 1.161272e-01 -1.280847e+00 1.344595e+00 1.984806e-01 1.200115e+00 8.564087e-01 8.388584e-01 4.394928e-01 -1.086859e+00 -9.743180e-01 3.778803e-01 1.566646e+00 -1.880685e-01 -1.490242e-02
<VARIANCE> 39
 2.785170e+01 5.561467e+01 1.711028e+01 1.845346e+01 1.364739e+01 3.316691e+01 1.952929e+01 1.908423e+01 2.470040e+01 2.288042e+00 1.911438e+01 1.874008e+01 5.000000e-02 4.688497e+00 3.903928e+00 3.226470e+00 4.404466e+00 2.685024e+00 2.813673e+00 9.797633e-01 4.462953e+00 4.407912e+00 1.049479e+00 4.595817e+00 1.598583e+00 5.000000e-02 6.379727e-01 1.060893e+00 4.104647e-01 3.376002e-01 4.881418e-01 4.526717e-01 1.306407e-01 2.374747e-01 7.881540e-01 2.244340e-01 3.375625e-01 3.411272e-01 5.000000e-02
<GCONST> 9.908321e+01
<STATE> 7
<MEAN> 39
 -5.118670e-01 -2.426830e+01 -1.915232e+01 -1.583696e+01 7.679582e+00 -5.095642e+00 5.135293e+00 -5.238814e+00 3.632242e+00 -2.500043e-01 -3.914845e+00 -1.001114e+01 9.206564e-01 1.093115e-01 -7.959937e-01 -7.341607e-02 -4.622742e-01 2.316338e+00 2.337553e+00 1.272374e+00 -2.075120e+00 -2.451612e+00 2.271776e+00 2.432151e+00 -1.542955e+00 3.659816e-02 -6.175703e-01 1.433158e+00 6.554875e-02 6.097457e-01 -8.262613e-01 1.524543e-01 -6.891289e-02 -1.153990e-04 3.616984e-01 -1.334020e-01 3.490109e-01 6.591353e-01 -2.403384e-02
<VARIANCE> 39
 6.539633e+00 1.133922e+01 1.479963e+01 1.878156e+01 1.554026e+01 2.199645e+01 3.497875e+01 3.075334e+01 3.810886e+01 2.430075e+01 1.212852e+01 1.461560e+01 5.000000e-02 7.426815e-01 8.833336e-01 2.240493e+00 2.564539e+00 2.883996e+00 1.235196e+00 1.046088e+00 4.577619e-01 5.150554e+00 1.500337e+00 1.467733e+00 1.040674e+00 5.000000e-02 2.529714e-01 3.462819e-01 4.562332e-01 6.332064e-01 2.844537e-01 3.080636e-01 2.426818e-01 2.237877e-01 6.433698e-01 2.591149e-01 6.131447e-01 2.401256e-01 5.000000e-02
<GCONST> 8.904502e+01
<STATE> 8
<MEAN> 39
 -3.952118e-01 -2.370603e+01 -1.999827e+01 -1.659988e+01 8.446980e+00 1.383070e+00 7.336608e+00 -8.955185e+00 1.826694e+00 3.248757e+00 1.039015e-01 -9.811321e+00 9.624888e-01 -9.963778e-02 3.281013e-01 5.125589e-02 -2.716870e-01 -2.505583e-02 2.030776e+00 2.217919e-01 -9.004992e-01 5.172495e-01 2.492007e-01 7.480085e-01 1.033525e+00 7.830813e-03 2.147757e-02 3.017357e-02 -1.584027e-02 2.478797e-01 -4.219263e-01 -2.416666e-01 -3.803251e-01 2.957532e-01 4.311011e-01 -6.258639e-01 -4.451618e-01 3.059731e-01 -5.023815e-03
<VARIANCE> 39
 7.859693e+00 7.515177e+00 6.828486e+00 4.039890e+00 4.313269e+00 1.458078e+01 2.557980e+01 2.488832e+01 7.125432e+01 1.884508e+01 1.312956e+01 7.238466e+00 5.000000e-02 3.272320e-01 2.690762e-01 5.294120e-01 5.068219e-01 6.355456e-01 2.358404e-01 1.145263e+00 3.444691e-01 2.135787e+00 1.418000e+00 4.875756e-01 4.618650e-01 5.000000e-02 8.345428e-02 1.414193e-01 8.855968e-02 1.782522e-01 2.682122e-01 8.130585e-02 1.486853e-01 7.482336e-02 8.821096e-01 2.311621e-01 6.560088e-02 2.675948e-01 5.000000e-02
<GCONST> 6.293954e+01
<STATE> 9
<MEAN> 39
 -5.487868e-01 -2.587199e+01 -1.805864e+01 -1.728460e+01 9.070461e+00 5.911379e+00 3.277366e+00 -6.987634e+00 7.441297e-01 2.161707e+00 -1.676014e+00 -8.305995e+00 9.811190e-01 -1.658314e-01 -3.849537e-01 2.268087e-01 3.621137e-01 1.826456e-01 5.899066e-01 -4.239854e-02 -6.287637e-02 -2.896191e-01 -7.958728e-01 -2.916433e-02 -2.327927e-02 2.766189e-04 -9.904698e-02 -1.368200e-01 8.761629e-02 3.865670e-02 1.710368e-01 -2.882723e-01 1.192856e-01 1.113037e-01 -5.905049e-02 6.694820e-03 -1.164352e-01 -1.846698e-01 -1.139934e-03
<VARIANCE> 39
 9.097851e+00 6.845776e+00 7.773800e+00 5.812744e+00 1.172379e+01 1.092455e+01 1.319434e+01 3.879082e+01 6.431415e+01 2.629809e+01 1.759912e+01 1.063251e+01 5.000000e-02 2.345899e-01 2.643631e-01 6.487684e-01 3.718566e-01 4.828299e-01 8.278046e-01 7.040187e-01 4.195604e-01 5.565222e-01 2.014820e-01 5.477051e-01 8.667724e-01 5.000000e-02 5.000000e-02 6.542482e-02 8.777121e-02 5.000000e-02 8.491216e-02 1.276653e-01 1.105387e-01 6.884202e-02 6.231983e-02 5.548246e-02 1.347027e-01 1.813084e-01 5.000000e-02
<GCONST> 5.518261e+01
<STATE> 10
<MEAN> 39
 -1.012262e+00 -2.465608e+01 -1.985587e+01 -1.472346e+01 9.500326e+00 6.393973e+00 8.250473e+00 -1.194470e+01 3.013800e+00 -1.567742e-02 3.824095e-01 -7.634671e+00 9.841180e-01 -5.226657e-01 -7.604924e-01 1.250168e-01 1.619172e-01 4.237143e-01 -1.623553e-01 -3.921995e-01 -3.865145e-02 -1.423819e-01 -2.946343e-01 -6.827226e-01 -8.292025e-02 2.188871e-04 -3.775717e-02 3.757938e-02 -9.669857e-02 2.427183e-01 -1.996913e-01 -1.227650e-01 -2.951975e-01 5.540681e-02 -1.281369e-01 -1.738379e-01 -2.395530e-01 -1.835793e-02 -1.229052e-03
<VARIANCE> 39
 2.734442e+01 8.901268e+00 1.490733e+01 4.431687e+00 4.387751e+00 6.384476e+00 1.083159e+01 2.658169e+01 6.070645e+01 2.258269e+01 9.321570e+00 4.956664e+00 5.000000e-02 3.124524e-01 1.618416e-01 3.109838e-01 3.105119e-01 6.623958e-01 4.031333e-01 7.779862e-01 4.374824e-01 8.902072e-01 1.835572e-01 1.774047e-01 2.203548e-01 5.000000e-02 5.000000e-02 5.739075e-02 5.000000e-02 1.497685e-01 1.488162e-01 1.152501e-01 5.000000e-02 1.394624e-01 1.023665e-01 1.111905e-01 5.000000e-02 8.456746e-02 5.000000e-02
<GCONST> 4.993246e+01
<STATE> 11
<MEAN> 39
 -2.383045e+00 -2.880235e+01 -1.748476e+01 -1.278848e+01 1.056330e+01 6.379184e+00 3.321662e+00 -8.331267e+00 5.409646e-01 -2.282026e+00 -4.106322e+00 -8.524670e+00 9.730320e-01 -1.457777e-01 -3.909687e-01 -3.494225e-01 1.449413e+00 -2.638796e-01 -1.891053e-01 -6.801516e-01 2.098701e-02 9.434476e-02 -1.204055e+00 -6.209756e-01 -1.081378e-01 -7.671972e-04 6.102246e-02 1.336066e-01 -9.211456e-02 1.112164e-01 -1.789433e-01 -2.060127e-01 -6.748584e-02 9.652850e-02 4.271646e-02 -1.920630e-01 1.490676e-01 4.778593e-02 -1.397437e-03
<VARIANCE> 39
 2.413431e+01 1.116882e+01 2.140425e+01 1.241696e+01 1.625550e+01 2.057808e+01 1.227341e+01 3.362798e+01 5.005480e+01 2.304864e+01 8.847126e+00 4.349683e+00 5.000000e-02 2.664460e-01 5.377024e-01 5.948927e-01 5.881705e-01 1.655111e+00 5.311643e-01 2.318519e-01 9.521843e-01 6.749595e-01 7.671724e-01 2.965360e-01 3.031311e-01 5.000000e-02 5.000000e-02 1.180015e-01 1.155081e-01 8.072291e-02 2.523985e-01 8.251407e-02 8.439770e-02 9.633208e-02 1.604501e-01 6.204079e-02 5.000000e-02 1.524283e-01 5.000000e-02
<GCONST> 6.072768e+01
<STATE> 12
<MEAN> 39
 -2.972812e+00 -2.740439e+01 -1.998812e+01 -6.333226e+00 8.716447e+00 3.851501e+00 1.717471e+00 -1.022437e+01 2.425634e+00 -8.610929e+00 -3.293709e+00 -9.597572e+00 9.459416e-01 1.264723e-01 5.198365e-02 7.614043e-01 1.053434e+00 2.302157e-01 -6.629834e-01 -1.142142e+00 1.414310e+00 -4.095133e-01 -6.719236e-01 -3.200271e-01 5.231145e-01 -1.009709e-02 1.103379e-01 1.089486e-02 3.416964e-01 -3.188626e-01 2.931989e-02 1.381776e-01 -1.018291e-01 5.309239e-01 -2.953787e-01 3.423169e-01 4.744191e-02 4.553296e-01 -1.387679e-03
<VARIANCE> 39
 3.376387e+01 4.273477e+00 1.227227e+01 1.595764e+01 9.976812e+00 1.071061e+01 1.727640e+01 2.858303e+01 4.076261e+01 3.028691e+01 7.874925e+00 7.147761e+00 5.000000e-02 3.754645e-01 6.281516e-01 6.581405e-01 2.335340e-01 1.090357e+00 1.246050e+00 1.406562e+00 1.482798e+00 7.875428e-01 1.473202e+00 3.397839e-01 1.895685e+00 5.000000e-02 8.812459e-02 6.351548e-02 1.648175e-01 6.425853e-02 3.080294e-01 1.746148e-01 2.320093e-01 1.895097e-01 1.277217e-01 1.633643e-01 7.021426e-02 1.416993e-01 5.000000e-02
<GCONST> 6.813450e+01
<STATE> 13
<MEAN> 39
 -2.517353e+00 -2.907485e+01 -1.470098e+01 -6.945694e+00 8.662127e+00 3.653808e+00 -4.106052e+00 -2.245075e+00 -8.541716e-01 -8.512153e+00 -5.481645e+00 -4.044557e+00 9.062299e-01 -7.718080e-02 -3.008853e-01 8.293269e-01 -5.084915e-01 -6.332095e-01 -8.522218e-02 -6.402245e-01 1.846832e+00 -1.323609e+00 -8.229825e-01 1.591124e-01 1.699334e+00 -1.812316e-02 -3.085666e-01 4.538923e-02 -1.656218e-01 -2.684031e-01 1.190674e-01 -1.315313e-01 4.395740e-01 -2.737328e-01 1.831348e-01 -8.006662e-02 1.884759e-01 -1.281821e-01 -3.914322e-03
<VARIANCE> 39
 1.051802e+01 5.501573e+00 1.444825e+01 1.472753e+01 9.780637e+00 2.629185e+01 1.526982e+01 1.003200e+01 2.307805e+01 1.581049e+01 1.367206e+01 1.148251e+01 5.000000e-02 5.448704e-01 4.232966e-01 5.451386e-01 4.552100e-01 2.058115e-01 7.197850e-01 3.026560e+00 5.213145e-01 5.839787e-01 1.095099e+00 5.542567e-01 7.041117e-01 5.000000e-02 1.024738e-01 1.345308e-01 1.803166e-01 7.859244e-02 8.565528e-02 1.859277e-01 2.048238e-01 6.294717e-02 1.100551e-01 2.242157e-01 6.290246e-02 1.481131e-01 5.000000e-02
<GCONST> 6.253394e+01
<STATE> 14
<MEAN> 39
 -4.783734e+00 -2.739369e+01 -1.374300e+01 -8.755982e+00 1.075456e+01 -1.306899e+00 -2.819392e-01 2.330582e+00 -4.996093e+00 -1.060946e+01 -3.779224e+00 2.226146e-01 8.318138e-01 -7.741764e-01 2.973367e-01 4.557485e-01 -3.599099e-01 2.033051e-01 -1.039347e+00 2.027313e-01 2.839341e-02 5.689825e-01 9.246735e-02 -1.276458e-01 3.566063e-01 -4.645761e-02 4.261644e-01 -1.742239e-01 -1.743079e-01 3.172888e-01 -3.985961e-01 2.229557e-01 -1.316485e-01 -5.704858e-01 4.307030e-01 2.920806e-01 -3.104242e-01 -3.881384e-01 -9.279748e-03
<VARIANCE> 39
 2.240817e+01 7.020725e+00 7.486999e+00 2.383551e+01 3.385728e+01 4.779767e+01 4.108804e+01 1.902307e+01 1.242274e+01 7.397724e+00 2.633699e+00 1.095734e+01 5.000000e-02 1.625678e+00 8.307808e-01 5.699054e-01 1.690405e+00 3.351774e+00 2.154216e+00 4.425551e-01 2.819991e+00 7.831714e-01 1.516167e+00 1.161234e+00 2.875437e-01 5.000000e-02 5.256251e-01 2.017773e-01 8.941913e-02 4.870624e-01 6.778998e-01 7.063215e-01 2.342660e-01 4.733986e-01 1.654580e-01 1.897189e-01 1.158012e-01 1.243031e-01 5.000000e-02
<GCONST> 8.038755e+01
<STATE> 15
<MEAN> 39
 -4.550079e+00 -3.007858e+01 -1.244701e+01 -8.897045e+00 5.269824e+00 2.578136e+00 -4.844537e+00 1.109458e+00 -1.960829e-01 -9.654479e+00 -5.601009e+00 -1.218197e+00 6.847200e-01 1.221981e+00 -3.355828e-01 -3.316136e-01 7.846719e-01 -1.424131e+00 5.857631e-02 7.699194e-02 -1.374413e+00 3.200217e-01 -2.526564e-01 -6.466032e-01 -4.140373e-01 -4.966006e-02 3.091763e-01 3.477204e-01 -1.245107e-01 5.648019e-01 -1.005224e-01 1.365402e-01 3.898393e-02 -5.350934e-01 -4.537944e-02 2.190289e-02 5.324785e-02 -2.768002e-02 7.996017e-04
<VARIANCE> 39
 9.158251e+00 3.950061e+00 1.177949e+01 4.758215e+00 8.412136e+00 1.478364e+01 2.462200e+01 8.012281e+00 1.358497e+01 3.835565e+00 2.080699e+01 6.818352e+00 5.000000e-02 4.044213e+00 1.553052e+00 4.896260e-01 3.444445e+00 1.311393e+00 3.114084e+00 1.595828e+00 2.793866e+00 1.303461e+00 1.542749e+00 9.715756e-01 1.023621e+00 5.000000e-02 2.491787e-01 1.949632e-01 2.199366e-01 2.012686e-01 7.343636e-02 1.061293e-01 1.093086e-01 7.743070e-01 1.127903e-01 1.717572e-01 2.431002e-01 1.167580e-01 5.000000e-02
<GCONST> 7.430403e+01
<STATE> 16
<MEAN> 39
 -2.492613e+00 -2.774670e+01 -1.357003e+01 -5.768789e+00 2.823259e+00 2.105894e-01 -3.489412e+00 -3.164112e+00 -9.695575e-01 -1.149914e+01 -7.098191e+00 -1.276394e+00 6.008446e-01 1.451962e+00 8.685446e-01 -2.718735e-01 1.672087e+00 -7.012437e-01 1.407548e-01 3.434715e-01 -1.381616e+00 9.042313e-01 8.851884e-01 -6.228371e-02 4.535327e-01 -5.471433e-02 1.562115e-01 9.281253e-02 -8.027302e-02 1.250253e-01 6.839634e-01 4.433167e-02 2.843778e-01 2.135634e-01 9.907062e-02 4.025604e-01 3.372836e-01 8.434530e-02 3.888940e-03
<VARIANCE> 39
 1.931221e+01 5.897997e+00 4.339840e+00 1.327635e+01 1.677269e+01 5.006221e+01 2.280929e+01 4.068813e+01 1.289221e+01 2.091380e+01 1.123763e+01 1.124254e+01 5.000000e-02 9.448022e-01 6.284645e-01 1.262143e+00 8.616627e-01 1.478765e+00 1.698648e+00 1.816151e+00 3.228255e+00 4.424762e-01 7.688724e-01 5.849295e-01 5.349024e-01 5.000000e-02 8.934705e-01 2.413188e-01 1.212245e-01 4.430007e-01 2.261334e-01 6.517344e-01 2.913864e-01 8.741657e-01 2.512115e-01 3.020227e-01 1.324970e-01 2.660909e-01 5.000000e-02
<GCONST> 8.182879e+01
<STATE> 17
<MEAN> 39
 2.208875e+00 -2.615872e+01 -1.440442e+01 -3.461999e-01 5.803440e+00 6.934862e-01 -9.743358e-01 -5.628406e+00 1.912556e+00 -6.719135e+00 -4.459577e+00 4.486822e-01 4.806639e-01 6.561179e-01 4.794285e-01 -6.053689e-01 1.212226e+00 5.502051e-01 -6.303577e-01 6.052398e-01 7.714936e-02 -1.653156e-02 2.972300e-01 6.203480e-01 -1.927414e-01 -2.495235e-02 -4.026433e-01 -1.360439e-01 -1.236172e-01 -5.073317e-01 1.620162e-02 -3.714734e-01 -1.289216e-01 3.195608e-01 -1.403837e-01 -2.580133e-01 -5.094674e-02 -1.412076e-01 6.664802e-03
<VARIANCE> 39
 3.728552e+00 6.440804e+00 8.293203e+00 1.233752e+01 1.170850e+01 1.791025e+01 7.264366e+00 1.743178e+01 1.505714e+01 1.303507e+01 7.223054e+00 7.084974e+00 5.000000e-02 1.740136e+00 6.421551e-01 6.527476e-01 1.615251e+00 1.493598e+00 2.238984e+00 1.107102e+00 2.373614e+00 2.310504e+00 1.709148e+00 5.501304e-01 7.176723e-01 5.000000e-02 1.553879e-01 8.856709e-02 1.202624e-01 2.271906e-01 2.206337e-01 2.783158e-01 1.441585e-01 3.783892e-01 5.223621e-01 2.551914e-01 6.705467e-02 1.109592e-01 5.000000e-02
<GCONST> 7.217914e+01
<STATE> 18
<MEAN> 39
 2.483229e+00 -2.514321e+01 -1.765636e+01 -8.843359e-01 5.803955e+00 -1.270618e+00 1.111531e+00 -4.385230e+00 -3.928103e-01 -6.891193e+00 -4.640945e+00 -9.574626e-01 4.047295e-01 -1.970825e-01 2.164512e-01 -4.269740e-01 -1.975133e-01 1.714133e-01 1.099055e-01 -2.257487e-02 1.227470e-01 1.649056e-01 2.268125e-01 8.502577e-02 2.981657e-01 -1.631103e-02 -1.900290e-01 -8.159284e-03 1.524415e-01 3.108283e-02 6.710035e-02 1.957057e-01 4.800916e-02 2.255882e-01 4.192393e-02 2.992665e-02 4.997132e-02 8.977928e-02 2.554928e-04
<VARIANCE> 39
 2.469233e+00 4.843357e+00 4.612840e+00 3.737367e+00 5.190669e+00 9.331637e+00 1.493462e+01 5.165735e+00 1.265943e+01 4.001393e+00 8.190389e+00 5.932577e+00 5.000000e-02 2.392002e-01 2.378918e-01 5.314797e-01 2.490407e-01 4.446839e-01 8.794631e-01 1.214984e+00 1.328237e+00 8.376433e-01 7.123966e-01 7.298911e-01 9.302175e-01 5.000000e-02 9.986313e-02 5.007956e-02 1.198978e-01 1.371473e-01 1.702702e-01 2.325443e-01 3.550018e-01 3.165026e-01 1.979512e-01 1.698988e-01 1.728946e-01 1.852535e-01 5.000000e-02
<GCONST> 5.614648e+01
<STATE> 19
<MEAN> 39
 6.591950e-01 -2.443438e+01 -1.720471e+01 -7.346621e-01 6.370283e+00 -1.228934e+00 9.261128e-01 -2.253941e+00 4.481929e+00 -3.999365e+00 -3.025740e+00 -1.279187e+00 3.690398e-01 -2.177276e-01 6.105438e-01 4.718460e-01 4.021151e-01 1.015797e-01 -3.147767e-01 3.889280e-01 5.651858e-01 2.114053e-01 1.874834e-01 4.917005e-01 -4.573782e-01 -1.493360e-02 1.466581e-01 1.270590e-01 2.592341e-01 9.088760e-02 -1.019034e-02 -1.490411e-01 -1.643520e-01 -3.870639e-01 -5.257056e-01 -4.262846e-01 6.127173e-02 1.234200e-01 2.561506e-03
<VARIANCE> 39
 2.548348e+00 6.106987e+00 1.194913e+01 1.855116e+00 3.096357e+00 1.944016e+01 2.783453e+00 1.524385e+01 1.264329e+01 6.188738e+00 4.703300e+00 1.070448e+01 5.000000e-02 7.661297e-01 7.470450e-01 2.049835e+00 6.318869e-01 5.165184e-01 1.120652e+00 1.127416e+00 1.085259e+00 2.261967e+00 1.757725e+00 4.934217e-01 9.450755e-01 5.000000e-02 1.057459e-01 1.407280e-01 3.896022e-01 1.197085e-01 5.000000e-02 2.817592e-01 2.565168e-01 3.104619e-01 2.915137e-01 2.750056e-01 8.666319e-02 2.279852e-01 5.000000e-02
<GCONST> 6.411729e+01
<STATE> 20
<MEAN> 39
 4.171954e-01 -2.216757e+01 -1.501310e+01 1.714668e+00 7.758707e+00 -2.675570e+00 1.160009e+00 -2.997771e+00 -9.473804e-01 -8.173549e+00 -2.017544e+00 -4.207475e-02 3.110428e-01 -2.910496e-02 3.668895e-01 -8.266232e-04 -4.867862e-01 -1.914412e-02 -9.527804e-02 -1.501901e-01 -2.019144e-01 -7.993166e-01 -4.668181e-01 4.562753e-01 3.859989e-01 -9.701731e-03 7.797384e-02 -1.721463e-02 -1.669230e-01 -4.036913e-01 -1.529422e-01 1.044039e-01 -1.884542e-02 3.927152e-02 1.869152e-01 3.051483e-01 -1.254797e-01 -2.730348e-01 3.544275e-05
<VARIANCE> 39
 3.211502e+00 1.011874e+01 1.249766e+01 6.932813e+00 4.109174e+00 6.484680e+00 1.186414e+01 1.865383e+01 9.536547e+00 3.357793e+00 4.680146e+00 1.111858e+01 5.000000e-02 6.722123e-01 8.345731e-01 1.510913e+00 2.176210e+00 4.446092e-01 1.932244e+00 1.626985e+00 1.764115e+00 1.999745e+00 1.052071e+00 5.737165e-01 6.357601e-01 5.000000e-02 2.076258e-01 2.078280e-01 4.113544e-01 2.660764e-01 9.556698e-02 2.857015e-01 4.175288e-01 3.696778e-01 4.037557e-01 1.853784e-01 1.296795e-01 1.511155e-01 5.000000e-02
<GCONST> 7.063425e+01
<STATE> 21
<MEAN> 39
 6.818017e-01 -2.184808e+01 -1.659817e+01 -1.906994e+00 6.411512e+00 -2.818691e+00 3.578169e-01 -2.255899e+00 -2.843046e-01 -6.513934e+00 -1.540920e+00 -1.531846e+00 2.825853e-01 -2.245774e-01 8.396322e-01 9.063621e-01 7.989869e-02 -1.816872e-01 -9.780392e-02 -3.125713e-01 -1.554756e-01 3.764526e-01 5.091561e-01 -2.730031e-01 -8.670443e-01 -2.901967e-02 -7.868037e-02 2.858861e-01 4.633193e-01 3.617815e-01 5.166524e-02 5.916351e-02 3.123117e-02 -4.088122e-02 3.073298e-01 6.370173e-02 8.142750e-04 1.435768e-01 -5.297324e-03
<VARIANCE> 39
 2.100353e+00 5.265467e+00 9.048603e+00 7.162964e+00 6.512460e+00 4.238513e+00 6.567473e+00 7.055193e+00 8.523278e+00 4.422772e+00 7.573049e+00 6.759598e+00 5.000000e-02 7.644767e-01 9.291927e-01 1.235011e+00 7.187032e-01 4.717123e-01 4.065351e-01 1.043559e+00 1.693278e+00 1.902134e+00 1.065436e+00 3.224528e-01 3.262561e-01 5.000000e-02 1.053909e-01 1.317173e-01 2.196698e-01 1.792048e-01 5.000000e-02 9.502013e-02 1.073077e-01 2.774980e-01 2.882271e-01 1.800236e-01 1.004858e-01 1.750566e-01 5.000000e-02
<GCONST> 5.752037e+01
<STATE> 22
<MEAN> 39
 2.464611e-01 -1.725358e+01 -1.197296e+01 -1.180259e+00 5.494306e+00 -2.350821e+00 1.179772e-01 -3.370580e+00 1.501955e+00 -5.702075e+00 -8.454457e-01 -9.137167e-01 1.968151e-01 -7.041895e-01 6.941406e-01 5.011193e-01 -4.970348e-02 -8.616775e-02 1.894332e-01 6.772574e-01 4.455977e-01 1.083869e+00 9.426093e-01 7.738476e-01 7.036435e-01 -3.067037e-02 -1.347807e-01 -1.985704e-01 -2.357553e-01 -5.654139e-02 4.315372e-02 -1.028209e-01 1.478233e-02 5.133184e-02 -1.220478e-01 -5.944514e-02 7.757955e-02 1.534322e-01 6.195415e-04
<VARIANCE> 39
 7.291687e+00 3.405159e+00 3.152333e+00 8.551364e+00 7.966837e+00 6.688119e+00 1.870362e+01 1.119011e+01 1.703356e+01 1.336792e+01 4.640604e+00 8.914614e+00 5.000000e-02 5.647080e-01 6.765816e-01 1.483743e+00 7.141041e-01 5.251343e-01 5.449236e-01 1.053311e+00 9.902991e-01 4.644662e-01 1.093040e+00 5.352925e-01 4.643145e-01 5.000000e-02 1.759608e-01 8.440951e-02 1.555492e-01 2.373883e-01 8.690876e-02 1.094549e-01 3.372609e-01 2.415965e-01 3.294392e-01 5.230509e-01 1.765790e-01 2.202105e-01 5.000000e-02
<GCONST> 6.380629e+01
<STATE> 23
<MEAN> 39
 -2.582128e+00 -1.701007e+01 -1.179974e+01 -3.996209e-01 6.588246e+00 -3.080890e+00 4.193877e-01 -2.446055e+00 2.732393e+00 -4.866037e+00 -1.770112e-01 9.313172e-01 1.036831e-01 -4.813527e-01 9.678986e-01 1.237717e+00 8.568582e-02 4.374414e-02 -1.650642e-01 -5.826511e-01 -3.434181e-01 -9.750612e-01 -1.240190e+00 -4.157723e-01 5.140805e-03 -2.572181e-02 2.948709e-02 2.087382e-01 3.146954e-01 -9.301791e-02 -2.108168e-02 1.466960e-01 -8.876387e-02 -5.464237e-02 -3.738421e-01 -1.763441e-01 -1.030386e-01 -3.771327e-01 -1.468165e-03
<VARIANCE> 39
 2.791991e+00 9.028082e+00 9.837212e+00 8.456255e+00 9.759475e+00 1.154718e+01 1.277298e+01 9.382865e+00 1.372180e+01 2.255351e+01 1.775770e+01 7.671889e+00 5.000000e-02 6.880302e-01 6.140563e-01 8.798834e-01 1.162598e+00 7.800288e-01 9.267896e-01 1.188231e+00 1.281570e+00 1.936185e+00 1.774135e+00 1.326688e+00 1.284977e+00 5.000000e-02 8.508851e-02 1.722104e-01 3.234050e-01 2.565408e-01 1.141581e-01 1.303406e-01 2.087254e-01 1.625132e-01 3.737820e-01 9.265676e-01 4.378177e-01 1.968065e-01 5.000000e-02
<GCONST> 7.370720e+01
<STATE> 24
<MEAN> 39
 -4.727890e+00 -1.239303e+01 -6.493038e+00 -2.194631e+00 5.566863e+00 -1.615569e+00 2.234675e-01 -2.900864e+00 3.655028e-01 -6.523179e+00 -4.498067e-01 -1.735006e+00 -1.264081e-02 -6.259881e-01 8.201293e-01 8.276517e-01 -3.627343e-01 -8.408915e-02 2.459645e-01 -2.077462e-02 -7.704110e-02 -6.802940e-01 6.038653e-01 4.907668e-01 -4.142091e-01 -3.458532e-02 8.685505e-02 -2.909366e-01 -4.026534e-01 6.780235e-02 2.337761e-02 -6.653219e-02 1.820890e-01 -1.246447e-02 8.781849e-02 3.436058e-01 2.434864e-01 3.366179e-01 3.348970e-03
<VARIANCE> 39
 5.810936e+00 3.293023e+00 7.877987e+00 1.167841e+01 9.712863e+00 5.461026e+00 6.785778e+00 9.228454e+00 1.692970e+01 7.487429e+00 5.290091e+00 7.083784e+00 5.000000e-02 4.590142e-01 8.335527e-01 1.305363e+00 7.358478e-01 4.663188e-01 6.848707e-01 5.442924e-01 6.399668e-01 1.383597e+00 1.939188e+00 1.579986e+00 1.145973e+00 5.000000e-02 1.186142e-01 1.070746e-01 1.810819e-01 1.452525e-01 9.406294e-02 1.225470e-01 1.394915e-01 1.768809e-01 4.106362e-01 1.781209e-01 1.569189e-01 1.804143e-01 5.000000e-02
<GCONST> 6.277198e+01
<TRANSP> 25
 0.000000e+00 1.000000e+00 0.000000e+00 0.000000e+00 0.000000e+00 0.000000e+00 0.000000e+00 0.000000e+00 0.000000e+00 0.000000e+00 0.000000e+00 0.000000e+00 0.000000e+00 0.000000e+00 0.000000e+00 0.000000e+00 0.000000e+00 0.000000e+00 0.000000e+00 0.000000e+00 0.000000e+00 0.000000e+00 0.000000e+00 0.000000e+00 0.000000e+00
 0.000000e+00 7.054783e-01 2.945217e-01 0.000000e+00 0.000000e+00 0.000000e+00 0.000000e+00 0.000000e+00 0.000000e+00 0.000000e+00 0.000000e+00 0.000000e+00 0.000000e+00 0.000000e+00 0.000000e+00 0.000000e+00 0.000000e+00 0.000000e+00 0.000000e+00 0.000000e+00 0.000000e+00 0.000000e+00 0.000000e+00 0.000000e+00 0.000000e+00
 0.000000e+00 0.000000e+00 5.453211e-01 4.546789e-01 0.000000e+00 0.000000e+00 0.000000e+00 0.000000e+00 0.000000e+00 0.000000e+00 0.000000e+00 0.000000e+00 0.000000e+00 0.000000e+00 0.000000e+00 0.000000e+00 0.000000e+00 0.000000e+00 0.000000e+00 0.000000e+00 0.000000e+00 0.000000e+00 0.000000e+00 0.000000e+00 0.000000e+00
 0.000000e+00 0.000000e+00 0.000000e+00 7.223626e-01 2.776373e-01 0.000000e+00 0.000000e+00 0.000000e+00 0.000000e+00 0.000000e+00 0.000000e+00 0.000000e+00 0.000000e+00 0.000000e+00 0.000000e+00 0.000000e+00 0.000000e+00 0.000000e+00 0.000000e+00 0.000000e+00 0.000000e+00 0.000000e+00 0.000000e+00 0.000000e+00 0.000000e+00
 0.000000e+00 0.000000e+00 0.000000e+00 0.000000e+00 7.058004e-01 2.941996e-01 0.000000e+00 0.000000e+00 0.000000e+00 0.000000e+00 0.000000e+00 0.000000e+00 0.000000e+00 0.000000e+00 0.000000e+00 0.000000e+00 0.000000e+00 0.000000e+00 0.000000e+00 0.000000e+00 0.000000e+00 0.000000e+00 0.000000e+00 0.000000e+00 0.000000e+00
 0.000000e+00 0.000000e+00 0.000000e+00 0.000000e+00 0.000000e+00 6.153846e-01 3.846155e-01 0.000000e+00 0.000000e+00 0.000000e+00 0.000000e+00 0.000000e+00 0.000000e+00 0.000000e+00 0.000000e+00 0.000000e+00 0.000000e+00 0.000000e+00 0.000000e+00 0.000000e+00 0.000000e+00 0.000000e+00 0.000000e+00 0.000000e+00 0.000000e+00
 0.000000e+00 0.000000e+00 0.000000e+00 0.000000e+00 0.000000e+00 0.000000e+00 5.454758e-01 4.545242e-01 0.000000e+00 0.000000e+00 0.000000e+00 0.000000e+00 0.000000e+00 0.000000e+00 0.000000e+00 0.000000e+00 0.000000e+00 0.000000e+00 0.000000e+00 0.000000e+00 0.000000e+00 0.000000e+00 0.000000e+00 0.000000e+00 0.000000e+00
 0.000000e+00 0.000000e+00 0.000000e+00 0.000000e+00 0.000000e+00 0.000000e+00 0.000000e+00 6.864166e-01 3.135835e-01 0.000000e+00 0.000000e+00 0.000000e+00 0.000000e+00 0.000000e+00 0.000000e+00 0.000000e+00 0.000000e+00 0.000000e+00 0.000000e+00 0.000000e+00 0.000000e+00 0.000000e+00 0.000000e+00 0.000000e+00 0.000000e+00
 0.000000e+00 0.000000e+00 0.000000e+00 0.000000e+00 0.000000e+00 0.000000e+00 0.000000e+00 0.000000e+00 7.622716e-01 2.377284e-01 0.000000e+00 0.000000e+00 0.000000e+00 0.000000e+00 0.000000e+00 0.000000e+00 0.000000e+00 0.000000e+00 0.000000e+00 0.000000e+00 0.000000e+00 0.000000e+00 0.000000e+00 0.000000e+00 0.000000e+00
 0.000000e+00 0.000000e+00 0.000000e+00 0.000000e+00 0.000000e+00 0.000000e+00 0.000000e+00 0.000000e+00 0.000000e+00 5.467024e-01 4.532977e-01 0.000000e+00 0.000000e+00 0.000000e+00 0.000000e+00 0.000000e+00 0.000000e+00 0.000000e+00 0.000000e+00 0.000000e+00 0.000000e+00 0.000000e+00 0.000000e+00 0.000000e+00 0.000000e+00
 0.000000e+00 0.000000e+00 0.000000e+00 0.000000e+00 0.000000e+00 0.000000e+00 0.000000e+00 0.000000e+00 0.000000e+00 0.000000e+00 7.362866e-01 2.637135e-01 0.000000e+00 0.000000e+00 0.000000e+00 0.000000e+00 0.000000e+00 0.000000e+00 0.000000e+00 0.000000e+00 0.000000e+00 0.000000e+00 0.000000e+00 0.000000e+00 0.000000e+00
 0.000000e+00 0.000000e+00 0.000000e+00 0.000000e+00 0.000000e+00 0.000000e+00 0.000000e+00 0.000000e+00 0.000000e+00 0.000000e+00 0.000000e+00 7.023295e-01 2.976705e-01 0.000000e+00 0.000000e+00 0.000000e+00 0.000000e+00 0.000000e+00 0.000000e+00 0.000000e+00 0.000000e+00 0.000000e+00 0.000000e+00 0.000000e+00 0.000000e+00
 0.000000e+00 0.000000e+00 0.000000e+00 0.000000e+00 0.000000e+00 0.000000e+00 0.000000e+00 0.000000e+00 0.000000e+00 0.000000e+00 0.000000e+00 0.000000e+00 6.721550e-01 3.278450e-01 0.000000e+00 0.000000e+00 0.000000e+00 0.000000e+00 0.000000e+00 0.000000e+00 0.000000e+00 0.000000e+00 0.000000e+00 0.000000e+00 0.000000e+00
 0.000000e+00 0.000000e+00 0.000000e+00 0.000000e+00 0.000000e+00 0.000000e+00 0.000000e+00 0.000000e+00 0.000000e+00 0.000000e+00 0.000000e+00 0.000000e+00 0.000000e+00 6.666616e-01 3.333384e-01 0.000000e+00 0.000000e+00 0.000000e+00 0.000000e+00 0.000000e+00 0.000000e+00 0.000000e+00 0.000000e+00 0.000000e+00 0.000000e+00
 0.000000e+00 0.000000e+00 0.000000e+00 0.000000e+00 0.000000e+00 0.000000e+00 0.000000e+00 0.000000e+00 0.000000e+00 0.000000e+00 0.000000e+00 0.000000e+00 0.000000e+00 0.000000e+00 4.991955e-01 5.008045e-01 0.000000e+00 0.000000e+00 0.000000e+00 0.000000e+00 0.000000e+00 0.000000e+00 0.000000e+00 0.000000e+00 0.000000e+00
 0.000000e+00 0.000000e+00 0.000000e+00 0.000000e+00 0.000000e+00 0.000000e+00 0.000000e+00 0.000000e+00 0.000000e+00 0.000000e+00 0.000000e+00 0.000000e+00 0.000000e+00 0.000000e+00 0.000000e+00 5.000551e-01 4.999449e-01 0.000000e+00 0.000000e+00 0.000000e+00 0.000000e+00 0.000000e+00 0.000000e+00 0.000000e+00 0.000000e+00
 0.000000e+00 0.000000e+00 0.000000e+00 0.000000e+00 0.000000e+00 0.000000e+00 0.000000e+00 0.000000e+00 0.000000e+00 0.000000e+00 0.000000e+00 0.000000e+00 0.000000e+00 0.000000e+00 0.000000e+00 0.000000e+00 6.873360e-01 3.126640e-01 0.000000e+00 0.000000e+00 0.000000e+00 0.000000e+00 0.000000e+00 0.000000e+00 0.000000e+00
 0.000000e+00 0.000000e+00 0.000000e+00 0.000000e+00 0.000000e+00 0.000000e+00 0.000000e+00 0.000000e+00 0.000000e+00 0.000000e+00 0.000000e+00 0.000000e+00 0.000000e+00 0.000000e+00 0.000000e+00 0.000000e+00 0.000000e+00 7.620270e-01 2.379730e-01 0.000000e+00 0.000000e+00 0.000000e+00 0.000000e+00 0.000000e+00 0.000000e+00
 0.000000e+00 0.000000e+00 0.000000e+00 0.000000e+00 0.000000e+00 0.000000e+00 0.000000e+00 0.000000e+00 0.000000e+00 0.000000e+00 0.000000e+00 0.000000e+00 0.000000e+00 0.000000e+00 0.000000e+00 0.000000e+00 0.000000e+00 0.000000e+00 6.153845e-01 3.846155e-01 0.000000e+00 0.000000e+00 0.000000e+00 0.000000e+00 0.000000e+00
 0.000000e+00 0.000000e+00 0.000000e+00 0.000000e+00 0.000000e+00 0.000000e+00 0.000000e+00 0.000000e+00 0.000000e+00 0.000000e+00 0.000000e+00 0.000000e+00 0.000000e+00 0.000000e+00 0.000000e+00 0.000000e+00 0.000000e+00 0.000000e+00 0.000000e+00 6.870139e-01 3.129861e-01 0.000000e+00 0.000000e+00 0.000000e+00 0.000000e+00
 0.000000e+00 0.000000e+00 0.000000e+00 0.000000e+00 0.000000e+00 0.000000e+00 0.000000e+00 0.000000e+00 0.000000e+00 0.000000e+00 0.000000e+00 0.000000e+00 0.000000e+00 0.000000e+00 0.000000e+00 0.000000e+00 0.000000e+00 0.000000e+00 0.000000e+00 0.000000e+00 6.671081e-01 3.328919e-01 0.000000e+00 0.000000e+00 0.000000e+00
 0.000000e+00 0.000000e+00 0.000000e+00 0.000000e+00 0.000000e+00 0.000000e+00 0.000000e+00 0.000000e+00 0.000000e+00 0.000000e+00 0.000000e+00 0.000000e+00 0.000000e+00 0.000000e+00 0.000000e+00 0.000000e+00 0.000000e+00 0.000000e+00 0.000000e+00 0.000000e+00 0.000000e+00 6.983894e-01 3.016107e-01 0.000000e+00 0.000000e+00
 0.000000e+00 0.000000e+00 0.000000e+00 0.000000e+00 0.000000e+00 0.000000e+00 0.000000e+00 0.000000e+00 0.000000e+00 0.000000e+00 0.000000e+00 0.000000e+00 0.000000e+00 0.000000e+00 0.000000e+00 0.000000e+00 0.000000e+00 0.000000e+00 0.000000e+00 0.000000e+00 0.000000e+00 0.000000e+00 6.532158e-01 3.467842e-01 0.000000e+00
 0.000000e+00 0.000000e+00 0.000000e+00 0.000000e+00 0.000000e+00 0.000000e+00 0.000000e+00 0.000000e+00 0.000000e+00 0.000000e+00 0.000000e+00 0.000000e+00 0.000000e+00 0.000000e+00 0.000000e+00 0.000000e+00 0.000000e+00 0.000000e+00 0.000000e+00 0.000000e+00 0.000000e+00 0.000000e+00 0.000000e+00 6.504214e-01 3.495786e-01
 0.000000e+00 0.000000e+00 0.000000e+00 0.000000e+00 0.000000e+00 0.000000e+00 0.000000e+00 0.000000e+00 0.000000e+00 0.000000e+00 0.000000e+00 0.000000e+00 0.000000e+00 0.000000e+00 0.000000e+00 0.000000e+00 0.000000e+00 0.000000e+00 0.000000e+00 0.000000e+00 0.000000e+00 0.000000e+00 0.000000e+00 0.000000e+00 0.000000e+00
<ENDHMM>
