~o
<STREAMINFO> 1 39
<VECSIZE> 39<NULLD><MFCC_E_D_A><DIAGC>
~h "Gio*"
<BEGINHMM>
<NUMSTATES> 37
<STATE> 2
<MEAN> 39
 -8.074073e+00 -1.116886e+01 -6.419570e-01 -1.674736e+00 3.145105e+00 -2.650281e-01 2.303243e+00 3.449333e-01 3.533050e+00 -2.706933e+00 3.186199e+00 -4.692115e-01 -4.943520e-02 -2.183960e-02 2.813594e-01 -3.194964e-01 -9.063867e-01 -1.074462e-02 -1.013807e-01 -2.687461e-02 3.002010e-01 -6.353630e-01 -3.201644e-01 -6.473566e-01 -8.581594e-01 1.270713e-02 4.051913e-01 6.129318e-01 -1.155230e-02 -1.116394e+00 -3.400918e-01 -8.791478e-01 -6.081975e-01 -3.872996e-01 -4.470456e-01 -2.837685e-01 -5.184772e-01 -2.635426e-01 2.697702e-02
<VARIANCE> 39
 1.171518e+00 3.234663e+00 5.577574e+00 1.230527e+01 6.377063e+00 7.251024e+00 3.911013e+00 6.552338e+00 1.659523e+01 1.279321e+01 2.075256e+01 1.399935e+01 1.000000e-02 7.357988e-01 1.167275e+00 1.363347e+00 1.059520e+00 1.350336e+00 9.168099e-01 3.932123e-01 9.525929e-01 2.454703e+00 1.827300e+00 1.347309e+00 1.466663e+00 1.000000e-02 1.652678e-01 1.154537e-01 6.951314e-02 4.111013e-01 4.070756e-01 1.275556e-01 1.685899e-01 1.458047e-01 4.905414e-01 2.449871e-01 3.824950e-01 1.736910e-01 1.000000e-02
<GCONST> 6.415071e+01
<STATE> 3
<MEAN> 39
 -6.978168e+00 -8.205059e+00 -6.419417e-01 -5.593278e+00 1.258775e+00 -4.176524e+00 2.160355e+00 -9.869527e-01 -1.873847e+00 -4.417640e+00 6.238759e-01 -2.408212e+00 -8.662473e-04 1.462964e+00 1.979896e+00 -1.326148e-01 -3.931784e+00 -5.667187e-01 -2.795918e+00 -2.107553e+00 -9.648618e-01 -1.669412e+00 -1.596800e+00 -2.291378e+00 -1.110463e+00 1.105241e-01 7.650797e-01 1.310624e-01 -2.108373e-01 -4.865636e-01 -4.387074e-01 -3.835195e-01 -6.549178e-01 -2.556606e-01 -2.648329e-01 -1.343145e-01 -2.948728e-01 -9.094530e-02 3.548882e-02
<VARIANCE> 39
 6.157071e+00 8.642049e+00 1.273336e+01 1.591581e+01 2.487336e+01 9.905087e+00 9.549892e+00 7.036696e+00 1.959548e+01 1.669192e+01 1.777003e+01 2.836708e+00 1.000000e-02 1.726524e+00 6.182920e-01 1.180326e+00 3.767604e+00 4.255338e+00 6.111218e-01 1.743685e+00 8.161498e-01 3.033665e+00 1.542688e+00 2.116972e+00 9.919224e-01 1.000000e-02 4.905558e-01 2.732366e-01 1.274029e-01 2.769662e-01 3.907145e-01 3.574873e-01 8.366550e-02 2.028161e-01 8.533071e-01 9.920059e-01 3.664961e-01 3.991151e-01 1.000000e-02
<GCONST> 7.823598e+01
<STATE> 4
<MEAN> 39
 -1.818713e+00 -3.744823e+00 -2.872851e+00 -1.609052e+01 -6.110616e-01 -9.908636e+00 -6.425523e+00 -3.549532e+00 -3.784782e+00 -9.393128e+00 -3.796724e+00 -4.634528e+00 3.592617e-01 2.728772e+00 9.990941e-01 -5.382781e-01 -2.836931e+00 -1.386680e+00 -1.340066e+00 -2.395516e+00 -6.389420e-01 -1.938968e+00 -1.193561e+00 -1.641481e+00 -9.931887e-01 1.443555e-01 -2.327018e-01 -6.248572e-01 2.624506e-01 6.849512e-01 -1.372307e-01 6.285764e-01 4.857668e-01 2.297434e-01 2.429708e-01 6.832439e-01 3.983739e-01 3.573920e-01 -9.373449e-03
<VARIANCE> 39
 2.577347e+01 4.724018e+00 1.631031e+01 5.430658e+01 5.173173e+01 3.723889e+01 2.411064e+01 7.697609e+00 3.521010e+01 9.928813e+00 1.480030e+01 4.218260e+00 1.409378e-02 2.944844e+00 8.398058e-01 4.089860e+00 2.315630e+00 1.516221e+00 4.784477e+00 7.654130e-01 1.912282e+00 4.171744e+00 4.462835e+00 2.065589e+00 1.748213e+00 1.000000e-02 3.671067e-01 1.405212e-01 4.036825e-01 6.777973e-01 1.358544e+00 2.450447e-01 3.500007e-01 1.873829e-01 2.904541e-01 3.424390e-01 3.859148e-01 1.689800e-01 1.000000e-02
<GCONST> 8.917252e+01
<STATE> 5
<MEAN> 39
 1.365026e+00 -5.114513e+00 -9.175708e-01 -1.802552e+01 -3.440217e+00 -1.031397e+01 -7.704985e+00 -3.973097e+00 -5.174171e+00 -7.758142e+00 -6.875343e+00 -4.988251e+00 5.227436e-01 1.312300e+00 -5.114148e-01 2.362834e-01 -1.129277e+00 -2.859591e+00 -8.685396e-02 -5.477550e-01 -2.879602e-01 -1.187429e+00 1.562962e+00 -7.765157e-01 1.056559e-01 8.781755e-02 -8.031607e-01 -4.854416e-01 8.094258e-02 6.479109e-01 -2.023304e-01 9.213597e-02 1.039549e+00 -2.250019e-01 4.271702e-01 7.257262e-01 1.032074e+00 4.267096e-01 -2.357924e-02
<VARIANCE> 39
 2.918073e+01 1.893110e+00 6.644393e+01 4.069344e+01 1.959293e+01 6.244438e+01 2.500522e+00 7.073471e+00 3.887022e+01 3.115374e+01 1.123872e+01 2.410050e+01 1.000000e-02 8.458071e-01 1.271172e+00 2.792897e+00 4.801641e+00 1.020512e+01 2.056122e+00 1.486049e+00 7.705178e-01 2.665080e+00 9.532572e+00 7.962647e-01 2.088833e+00 1.000000e-02 6.343501e-01 7.608557e-02 5.359645e-01 7.487134e-01 1.510281e+00 9.057649e-01 2.880377e-01 7.976205e-01 6.456893e-01 3.645209e-01 1.916015e-01 1.139600e-01 1.000000e-02
<GCONST> 9.167783e+01
<STATE> 6
<MEAN> 39
 3.548122e+00 -3.495379e+00 -4.630046e+00 -1.659393e+01 -4.388605e+00 -1.301587e+01 -5.786938e+00 -4.279625e+00 -1.046450e+01 -9.334298e+00 -6.902417e+00 -7.789415e+00 6.187422e-01 -7.341885e-01 -1.359500e-01 8.301427e-01 -1.819282e+00 -1.761932e-01 -7.119339e-01 6.720455e-01 -3.860986e-02 7.002726e-02 1.285673e+00 1.362311e+00 5.292287e-01 5.061555e-02 -8.663058e-01 -4.551964e-01 2.710425e-01 -1.746033e-01 -4.106820e-02 -1.983014e-02 4.890746e-01 -8.099314e-02 9.042282e-01 8.186567e-01 1.033206e+00 6.806583e-01 -1.136669e-02
<VARIANCE> 39
 2.302976e+01 8.209335e+00 5.920639e+01 3.830777e+01 1.675330e+01 6.682409e+01 1.622515e+01 1.653612e+01 3.840401e+01 6.468148e+01 8.761182e+00 4.203952e+01 1.000000e-02 8.703145e-01 1.641962e+00 1.060989e+00 3.269026e+00 6.791739e+00 2.267626e+00 3.253635e+00 3.807109e+00 6.152540e-01 2.021785e+00 8.956369e-01 1.391878e+00 1.000000e-02 2.647584e-01 1.846226e-01 1.017624e+00 8.997285e-01 8.533652e-01 6.906857e-01 6.737514e-01 5.068168e-01 3.326121e-01 1.308630e+00 1.381473e-01 5.320264e-01 1.000000e-02
<GCONST> 9.630824e+01
<STATE> 7
<MEAN> 39
 1.062676e+00 -3.883510e+00 -1.617540e+00 -2.257266e+01 -4.634097e+00 -1.263421e+01 -3.969447e+00 -4.131672e+00 -8.754800e+00 -2.952445e+00 -3.472743e+00 -3.975679e+00 6.687391e-01 -1.022658e+00 -1.678885e+00 5.671794e-01 -1.899971e+00 -2.155874e+00 -7.692788e-01 1.866600e-01 -1.537921e+00 1.846631e+00 3.362703e+00 2.158796e+00 1.954206e+00 6.682992e-02 -3.264156e-01 -5.148470e-01 -5.418132e-01 8.768476e-01 -6.393228e-01 -1.670090e-01 2.179810e-01 -1.439734e-01 7.747416e-01 -1.483949e-02 5.102920e-01 7.191743e-02 6.709910e-04
<VARIANCE> 39
 6.481694e+00 1.780704e+01 4.495116e+01 6.296609e+00 4.750943e+01 1.042517e+02 7.724853e+01 2.884693e+01 3.523102e+01 8.447636e+01 1.243410e+01 2.749379e+01 1.000000e-02 3.815821e-01 1.591943e+00 1.686847e+00 3.285629e+00 1.797249e+00 5.456864e+00 6.068558e+00 2.207777e+00 8.379365e-01 4.646216e+00 2.665633e+00 2.565413e+00 1.000000e-02 1.023135e-01 2.280120e-01 3.762829e-01 2.789150e-01 1.806327e+00 4.137433e-01 1.538502e+00 4.063499e-01 3.334402e-01 1.493088e+00 1.073957e-01 5.322537e-01 1.000000e-02
<GCONST> 9.734682e+01
<STATE> 8
<MEAN> 39
 -1.372127e+00 -8.164426e+00 1.429524e+00 -2.480844e+01 -1.166645e+01 -9.945555e+00 -9.704893e+00 -7.646069e+00 -2.766873e+00 1.031567e+00 1.067199e+00 3.513633e-01 7.956113e-01 -1.285495e+00 -1.933166e+00 -1.041597e+00 9.483951e-01 -3.727829e+00 -1.489624e+00 1.499081e+00 -9.390699e-01 2.575489e+00 2.180434e+00 2.974258e+00 1.445144e+00 7.150882e-02 2.202065e-02 -1.320300e-01 -1.000142e+00 1.354870e+00 2.654370e-01 -3.297468e-01 1.446511e+00 9.166052e-01 -4.058312e-01 -7.936364e-01 -6.456409e-01 -8.507478e-01 -1.234134e-02
<VARIANCE> 39
 7.014937e+00 1.475382e+01 1.535200e+01 1.098338e+01 3.897951e+01 7.204793e+01 3.603435e+01 2.037374e+01 3.107875e+01 5.237145e+01 3.526226e+01 2.757959e+01 1.000000e-02 3.160688e-01 6.601805e-01 2.138523e+00 2.540480e+00 1.615931e+00 2.355808e+00 7.713473e+00 9.295242e-01 8.017527e-01 3.924073e+00 1.413775e+00 1.660810e+00 1.000000e-02 8.942952e-02 1.562790e-01 5.557204e-02 1.702690e-01 9.334002e-01 6.197956e-01 4.384446e-01 4.867354e-01 3.479763e-01 9.729857e-01 9.920931e-01 6.317311e-01 1.000000e-02
<GCONST> 8.930164e+01
<STATE> 9
<MEAN> 39
 -3.972330e+00 -1.207106e+01 -4.519145e+00 -1.998391e+01 -1.690342e+01 -1.710533e+01 1.422235e+00 -6.731441e+00 7.970142e-01 3.365207e+00 6.555480e+00 3.482535e-01 8.974586e-01 -1.180003e+00 -1.748759e+00 -2.456616e+00 2.606518e+00 -8.375102e-01 -9.714246e-01 4.169739e+00 2.246938e+00 9.901805e-02 -2.448048e-01 -6.207315e-01 -1.699669e+00 1.503067e-02 2.444763e-01 2.139118e-01 -2.057125e-01 4.499396e-01 1.140716e+00 8.134353e-01 -2.622700e-01 1.460433e+00 -4.791482e-01 -8.502102e-01 -1.689898e+00 -6.950107e-01 -1.628286e-02
<VARIANCE> 39
 5.952016e+00 1.107707e+01 1.405009e+01 8.929215e+00 3.223431e+01 4.981017e+01 3.194246e+01 1.743340e+01 2.407019e+01 1.036706e+01 1.020515e+01 9.601557e+00 1.000000e-02 2.315122e-01 6.159952e-01 1.419438e+00 7.835789e-01 1.493155e+00 2.201281e+00 1.624688e+00 1.724662e+00 1.328413e+00 4.077178e+00 5.791098e+00 2.481405e+00 1.000000e-02 9.143889e-02 1.016351e-01 6.303830e-02 2.662311e-01 2.043509e-01 1.859996e-01 6.530161e-01 2.026848e-01 1.823271e-01 5.268565e-01 1.374342e-01 6.749865e-01 1.000000e-02
<GCONST> 7.664533e+01
<STATE> 10
<MEAN> 39
 -6.105799e+00 -1.551541e+01 -7.614732e+00 -1.358461e+01 -1.578715e+01 -1.629730e+01 7.874223e+00 -1.195771e+00 -6.947780e-01 1.037549e+00 -1.126780e+00 -5.578505e+00 8.683539e-01 -2.009953e-01 -1.389272e+00 -1.919749e+00 2.538706e+00 7.032347e-01 9.873620e-01 1.097034e+00 4.357330e+00 4.435963e-01 -1.257720e+00 -3.102982e+00 -1.106361e+00 1.164864e-02 4.629472e-01 1.167856e-01 1.312701e-01 -4.399662e-01 5.539840e-01 4.649740e-01 -1.294765e+00 1.902042e-01 3.815586e-01 -2.051109e-01 -5.007968e-01 6.164912e-01 5.284312e-03
<VARIANCE> 39
 4.989321e+00 5.986840e+00 2.851920e+00 6.498986e+00 7.960844e+00 1.520211e+01 2.024866e+01 1.149424e+01 2.339107e+01 3.201146e+00 1.155523e+01 2.925569e+01 1.000000e-02 1.929800e-01 2.304799e-01 1.171818e+00 5.040137e-01 4.247317e-01 1.009391e+00 2.579382e+00 3.284085e-01 4.436215e-01 1.315243e+00 4.113393e-01 2.023189e+00 1.000000e-02 2.216814e-02 6.935769e-02 2.010504e-01 2.293637e-01 7.514357e-02 3.611229e-01 2.426943e-01 1.613925e-01 1.551328e-01 4.155033e-01 4.524736e-01 3.749348e-01 1.000000e-02
<GCONST> 5.827173e+01
<STATE> 11
<MEAN> 39
 -5.778488e+00 -1.832087e+01 -1.088416e+01 -1.129971e+01 -1.424327e+01 -1.257979e+01 3.418226e+00 8.724200e+00 3.383175e+00 -1.392556e+00 -6.964781e+00 -2.431263e+00 9.382752e-01 4.281445e-01 -1.316511e+00 -1.561619e+00 1.068613e+00 1.390419e+00 1.050914e+00 -6.135890e-01 2.997269e+00 8.673148e-01 -4.403289e-01 -2.092397e+00 3.777283e-01 2.705438e-02 9.265752e-02 3.248395e-01 -1.716486e-02 -2.881840e-01 1.729170e-01 7.114799e-02 -4.429221e-01 -1.123125e+00 1.393972e-01 2.947549e-04 3.593855e-01 2.591456e-01 -1.385997e-03
<VARIANCE> 39
 4.556913e+00 7.953253e+00 1.408264e+00 1.639584e+00 7.109848e+00 1.365954e+01 2.526109e+01 4.300368e+00 4.684401e+01 1.950399e+01 1.143106e+01 1.978293e+01 1.000000e-02 1.527198e-01 2.180301e-01 6.406681e-01 2.246569e+00 1.453605e-01 1.584117e+00 3.110527e+00 1.552488e+00 5.198395e-01 1.146459e+00 4.665096e-01 7.440830e-01 1.000000e-02 4.352286e-02 5.791597e-02 1.919113e-01 1.082422e-01 7.850267e-02 1.770836e-01 1.920634e-01 7.636712e-02 3.703689e-01 4.913868e-01 2.120413e-01 1.819549e-01 1.000000e-02
<GCONST> 5.596962e+01
<STATE> 12
<MEAN> 39
 -3.412909e+00 -1.836459e+01 -1.383718e+01 -9.145690e+00 -1.047874e+01 -1.419475e+01 8.034635e+00 1.091780e+01 2.934030e+00 -8.887197e-01 -6.392614e+00 -4.841774e+00 9.747567e-01 3.077218e-01 -3.392305e-01 -2.486747e+00 1.344424e+00 1.309284e+00 9.459680e-01 -2.195310e-01 4.910489e-01 1.932050e+00 -1.608918e+00 -1.578166e+00 1.809081e-01 2.019396e-02 -7.347181e-02 4.278981e-01 -1.276961e-01 -4.268455e-01 3.381354e-03 -1.174874e-01 -5.459532e-01 -1.359269e+00 -6.801278e-03 -1.560941e-01 2.957861e-01 1.314251e-01 -6.852672e-03
<VARIANCE> 39
 2.441920e+00 6.502567e+00 4.103714e+00 7.837191e-01 1.468197e+01 4.264233e+01 2.973819e+01 1.136851e+01 1.249686e+01 1.074465e+01 1.360079e+01 3.406588e+01 1.000000e-02 1.375539e-01 1.315528e-01 5.142257e-01 8.155098e-01 2.488390e-01 5.238045e-01 1.672733e+00 1.090697e+00 1.723579e+00 2.659271e-01 3.816366e-01 4.937092e-01 1.000000e-02 3.920328e-02 3.424762e-02 4.015648e-02 1.718249e-01 7.095439e-02 3.117052e-01 3.649754e-01 1.432838e-01 9.689625e-02 2.719561e-01 1.276931e-01 1.718958e-01 1.000000e-02
<GCONST> 5.052238e+01
<STATE> 13
<MEAN> 39
 -3.573585e+00 -1.906765e+01 -1.879918e+01 -7.529222e+00 -1.014380e+01 -1.141133e+01 4.842911e+00 8.614637e+00 5.199354e+00 -4.273453e+00 -1.015626e+01 -4.143477e+00 9.855471e-01 5.716423e-02 8.771868e-02 -2.193115e+00 5.461757e-01 1.236691e+00 4.795904e-01 -1.424098e+00 -1.418207e+00 6.731104e-01 -1.166906e+00 -1.881248e+00 2.500735e-01 -1.529303e-03 -8.296563e-02 3.301728e-01 3.322862e-01 -3.765574e-01 -3.096919e-02 -2.257268e-01 -2.792008e-01 -5.119466e-01 -3.232027e-01 4.154339e-01 2.587112e-01 6.894882e-02 -7.952712e-03
<VARIANCE> 39
 5.724912e+00 6.074142e+00 4.812196e+00 5.113447e+00 2.459262e+01 3.655726e+01 5.106224e+01 8.830013e+00 1.326466e+01 7.995316e+00 9.424997e+00 2.933237e+01 1.000000e-02 1.159628e-01 3.179765e-01 4.573207e-01 2.006031e-01 3.866867e-01 1.282258e+00 1.953865e-01 9.354227e-01 4.774803e-01 1.351927e+00 1.147301e+00 1.105637e+00 1.000000e-02 2.664561e-02 3.649937e-02 5.108075e-02 1.054412e-01 1.518494e-01 1.064169e-01 2.670465e-01 2.211911e-01 1.590616e-01 1.092433e-01 1.262698e-01 1.030294e-01 1.000000e-02
<GCONST> 5.201355e+01
<STATE> 14
<MEAN> 39
 -4.692914e+00 -1.824668e+01 -2.079837e+01 -8.720619e+00 -7.386921e+00 -1.019923e+01 -4.416878e-01 5.945673e+00 6.819972e+00 -5.267448e+00 -1.354019e+01 -2.053833e+00 9.677308e-01 3.222937e-02 7.673846e-01 -1.010841e+00 -9.028855e-02 1.091962e+00 3.541968e-01 -1.076698e+00 -7.852641e-01 5.728966e-01 3.161978e-01 -1.281169e-01 1.103109e-01 -8.232280e-03 5.394719e-02 6.876514e-02 4.812671e-01 -3.044284e-02 -2.051677e-01 1.739876e-01 2.139108e-01 4.051903e-01 3.272988e-04 5.845144e-01 6.770664e-01 -8.923855e-02 -1.049965e-03
<VARIANCE> 39
 4.621509e+00 2.327847e+00 1.039914e+01 5.097299e+00 2.470502e+01 3.148051e+01 3.647241e+01 5.563938e+00 1.915799e+01 4.686190e+00 1.680840e+00 1.920747e+01 1.000000e-02 1.645651e-01 9.172679e-02 4.224241e-01 1.146568e-01 1.398293e+00 4.428014e-01 2.432613e-01 4.715889e-01 3.638883e-01 7.848776e-01 1.512522e+00 7.585062e-01 1.000000e-02 1.044164e-02 6.724562e-02 6.812892e-02 2.207972e-02 5.451677e-02 1.011730e-01 3.220507e-02 6.922209e-02 1.851239e-01 9.497143e-02 2.081437e-01 4.640821e-02 1.000000e-02
<GCONST> 3.941985e+01
<STATE> 15
<MEAN> 39
 -3.353595e+00 -1.611077e+01 -2.380103e+01 -7.359386e+00 -4.332600e+00 -1.211005e+01 1.524646e+00 5.062376e+00 5.849782e+00 -3.211019e+00 -1.164889e+01 -4.039819e+00 9.460192e-01 9.816603e-02 2.867277e-01 -5.239724e-01 2.965971e-01 2.862545e-01 1.150749e+00 -9.757164e-01 -1.117659e-01 7.559075e-01 6.637168e-01 4.784419e-01 -1.258977e-01 -7.634839e-03 3.002295e-02 -2.671559e-01 2.885922e-01 3.806599e-03 -4.889434e-01 3.686953e-01 4.603354e-02 2.227936e-01 4.011574e-02 2.442124e-02 1.816570e-01 -2.579581e-01 8.628730e-04
<VARIANCE> 39
 4.233869e+00 4.191053e+00 9.146934e+00 4.995791e+00 3.625864e+01 6.879506e+01 4.185054e+01 2.620460e+00 1.625010e+01 1.029027e+00 4.709313e+00 9.999069e+00 1.000000e-02 1.261982e-01 2.015413e-01 4.912840e-01 8.063941e-02 4.899374e-01 1.103873e+00 4.792655e-01 5.324999e-01 1.202404e+00 1.581143e-01 1.171570e+00 4.309548e-01 1.000000e-02 2.041456e-02 1.006219e-02 6.808739e-02 3.841933e-02 1.970765e-01 2.240577e-01 2.543399e-02 6.758913e-02 1.144403e-01 1.679984e-01 1.196927e-01 1.112047e-01 1.000000e-02
<GCONST> 4.033044e+01
<STATE> 16
<MEAN> 39
 -3.051455e+00 -1.691546e+01 -2.222354e+01 -6.475530e+00 -5.621002e+00 -7.172736e+00 -1.691549e+00 6.040688e+00 8.173569e+00 -1.873043e+00 -1.174593e+01 -2.854887e+00 9.377128e-01 1.361766e-01 -1.579629e-01 4.759436e-02 -1.081501e-01 -2.304427e-01 1.271827e+00 -6.809428e-01 3.083950e-01 1.733566e-01 9.856102e-01 4.158327e-01 -6.008054e-01 -5.034456e-03 -7.828673e-03 -1.491276e-01 1.584551e-01 -1.706035e-01 -9.241839e-02 -7.059268e-02 6.805406e-02 7.853472e-02 -1.214325e-01 -5.556444e-02 1.077370e-02 -1.951831e-01 2.818609e-04
<VARIANCE> 39
 5.599361e+00 3.356139e+00 1.259814e+01 3.366683e+00 1.331176e+01 3.953419e+01 1.357939e+01 1.135771e+01 2.824887e+01 2.351196e+00 8.665209e+00 2.242235e+01 1.000000e-02 1.085810e-02 1.644022e-01 3.335383e-01 4.870363e-01 4.976258e-01 2.094948e+00 5.608231e-01 4.641010e-01 2.027212e+00 1.132657e+00 8.014227e-02 1.467166e-01 1.000000e-02 2.717047e-02 2.061156e-02 6.258070e-02 2.183126e-02 1.261506e-01 7.141007e-02 2.625390e-01 2.681690e-01 2.205454e-01 9.695089e-02 2.870844e-01 8.350701e-02 1.000000e-02
<GCONST> 4.322786e+01
<STATE> 17
<MEAN> 39
 -4.187748e+00 -1.712746e+01 -2.190441e+01 -8.696563e+00 -8.384768e+00 -3.667491e+00 -5.217274e+00 6.046690e+00 1.003041e+01 -2.258402e+00 -9.719243e+00 -4.222256e+00 9.466403e-01 2.524140e-01 -2.163926e-01 3.349815e-03 9.474691e-02 -2.139072e-01 9.761840e-01 -8.020990e-01 1.233327e-02 -9.829739e-02 3.498650e-01 -4.726694e-02 -5.555927e-01 -7.742215e-03 4.478995e-02 -1.476129e-02 6.151830e-02 -7.759681e-02 2.168206e-02 -3.756664e-01 -1.257905e-01 1.388125e-02 -3.738229e-01 1.821338e-02 -3.184231e-01 -5.139630e-02 -1.700675e-03
<VARIANCE> 39
 4.726249e+00 3.034630e+00 2.117075e+01 6.081417e+00 1.491503e+01 2.540322e+01 1.715982e+01 4.605438e+00 2.399164e+01 8.025205e+00 6.906754e+00 9.424675e+00 1.000000e-02 1.005608e-01 1.850025e-01 2.139906e-01 2.556796e-01 8.547162e-01 8.495765e-01 9.149244e-01 7.217818e-01 1.158022e+00 1.481566e+00 8.495966e-01 3.634963e-01 1.000000e-02 1.544961e-02 2.318041e-02 7.959979e-02 2.446774e-02 6.394526e-02 1.765648e-01 1.008589e-01 2.806930e-01 5.945944e-01 2.474983e-01 1.951516e-01 1.707235e-02 1.000000e-02
<GCONST> 4.702122e+01
<STATE> 18
<MEAN> 39
 -2.887946e+00 -1.725678e+01 -2.195532e+01 -7.582814e+00 -5.875011e+00 -4.630464e+00 -3.644464e+00 6.277491e+00 7.957123e+00 -1.514828e-01 -1.161236e+01 -5.712471e+00 9.172123e-01 3.384684e-01 -2.203528e-01 1.854952e-01 -3.316214e-01 -2.324529e-01 1.299106e-01 -1.100629e+00 5.697868e-03 -3.992976e-01 7.792882e-01 -2.597996e-01 -7.769423e-01 -1.101450e-02 1.343324e-01 1.257665e-01 -1.708218e-01 -5.364269e-02 3.819985e-02 -3.889229e-01 -3.275408e-03 8.453143e-02 -1.954673e-01 -2.413922e-02 5.836520e-02 -4.834979e-02 -1.012308e-03
<VARIANCE> 39
 2.738135e+00 7.360046e+00 9.010562e+00 7.586261e+00 1.967259e+01 3.978189e+01 4.813597e+01 7.871303e+00 1.293278e+01 2.410323e+01 5.585018e+00 5.697034e+00 1.000000e-02 1.831764e-01 4.098772e-01 4.892301e-01 2.360384e-01 4.832157e-01 8.327394e-01 1.110538e+00 2.211442e+00 3.143599e+00 1.490254e+00 1.957512e+00 4.583811e-01 1.000000e-02 1.695686e-02 1.879539e-02 1.480100e-01 1.179104e-01 1.582549e-01 3.115445e-01 3.176990e-01 1.218671e-01 2.815822e-01 4.062068e-01 4.648777e-02 4.798221e-02 1.000000e-02
<GCONST> 5.693352e+01
<STATE> 19
<MEAN> 39
 -1.717605e+00 -1.874799e+01 -2.274225e+01 -8.306024e+00 -6.880676e+00 -6.047112e+00 -6.022028e+00 4.671065e+00 7.476761e+00 4.731842e-01 -1.090101e+01 -8.145136e+00 8.896438e-01 5.909477e-01 1.965059e-01 -9.323998e-02 -6.502064e-01 1.995075e-01 -2.321618e-01 -9.124905e-01 5.719123e-01 -6.892161e-01 6.275995e-01 3.009685e-01 -6.042975e-01 -1.151797e-02 1.136987e-01 1.509962e-01 -1.866486e-01 1.758624e-01 1.048570e-01 -8.307484e-02 3.235393e-01 1.708131e-01 -1.087624e-01 -9.629136e-02 6.449069e-02 2.344082e-01 -8.349074e-04
<VARIANCE> 39
 3.411856e+00 5.647052e+00 6.401394e+00 6.432108e-01 1.112446e+01 1.270037e+01 2.234554e+01 7.699286e+00 3.963577e+00 1.703739e+01 1.310239e+01 1.354763e+01 1.000000e-02 2.384389e-01 3.027801e-01 1.248119e+00 1.026318e+00 7.069440e-01 1.892894e+00 1.493759e+00 5.849839e-01 1.385388e+00 1.621314e+00 2.426202e-01 2.948341e-01 1.000000e-02 2.573819e-02 4.384299e-02 1.401460e-01 5.759659e-02 1.758301e-01 1.165141e-01 6.821822e-02 2.913204e-01 4.382683e-01 3.964573e-01 1.472073e-01 7.173680e-02 1.000000e-02
<GCONST> 5.195927e+01
<STATE> 20
<MEAN> 39
 -1.316226e+00 -1.667503e+01 -2.274626e+01 -9.748955e+00 -5.736601e+00 -4.953300e+00 -6.847904e+00 8.255894e+00 5.718522e+00 2.571289e+00 -1.032477e+01 -6.794634e+00 8.811699e-01 6.824709e-01 1.622356e-01 -5.650057e-01 3.126740e-01 -1.596797e-01 5.310496e-02 -9.732129e-02 4.389372e-01 -3.650088e-01 1.223541e-01 3.009388e-01 -1.854575e-01 -1.275500e-02 1.289386e-02 -1.230587e-01 6.755546e-02 1.970747e-01 -2.105625e-01 1.697014e-01 4.622899e-02 -1.070639e-01 3.138300e-01 -2.019110e-01 -4.726476e-02 3.431235e-01 -2.275323e-03
<VARIANCE> 39
 4.561388e+00 1.014842e+01 7.161028e+00 7.454890e+00 2.930302e+01 2.531491e+01 1.574117e+01 6.193973e+00 7.751259e+00 4.778749e+00 8.036278e+00 1.398630e+01 1.000000e-02 3.057967e-01 2.654655e-01 1.552178e+00 9.569754e-01 1.431095e+00 1.590921e+00 4.628369e-01 6.224590e-01 7.725326e-01 1.037441e+00 5.483426e-01 7.748892e-01 1.000000e-02 2.633009e-02 4.669860e-02 1.493714e-01 1.558907e-01 1.150824e-01 1.372505e-01 1.307235e-01 5.707419e-02 6.177393e-02 1.334897e-01 1.412411e-01 5.695825e-02 1.000000e-02
<GCONST> 5.245499e+01
<STATE> 21
<MEAN> 39
 1.655687e-01 -1.720958e+01 -2.497297e+01 -6.134883e+00 -1.083414e+01 -2.654592e+00 -8.810542e+00 7.470638e+00 7.020765e+00 2.195249e-01 -1.079853e+01 -8.185622e+00 8.546940e-01 4.595727e-01 -1.458687e-01 1.732881e-02 7.944475e-02 -5.142105e-01 2.103800e-01 -6.998172e-01 5.232659e-01 1.860616e-01 1.818133e-01 -2.545833e-02 4.336825e-01 -1.848441e-02 -1.319832e-01 1.144406e-01 4.822672e-01 -1.528019e-01 2.937792e-01 -2.620222e-02 -7.320765e-02 1.077974e-01 5.520627e-02 2.397375e-01 -1.985082e-01 3.861256e-01 -3.129818e-03
<VARIANCE> 39
 7.116284e+00 8.744152e+00 9.264925e+00 1.279309e+01 4.419609e+01 4.118147e+01 2.017816e+01 1.833980e+01 1.729332e+01 1.391750e+01 1.481805e+01 1.246016e+01 1.000000e-02 1.264808e-01 1.686442e-01 3.829880e-01 7.175987e-01 9.894314e-01 1.303566e+00 3.330573e-01 2.408098e-01 1.334437e+00 7.999319e-01 4.210652e-01 6.278067e-01 1.000000e-02 7.675413e-02 7.899264e-02 1.886491e-01 1.461483e-01 2.153909e-01 2.548956e-01 8.941436e-02 1.691742e-01 2.426030e-01 1.360715e-01 1.769476e-01 2.560730e-02 1.000000e-02
<GCONST> 5.761887e+01
<STATE> 22
<MEAN> 39
 1.056174e+00 -1.693954e+01 -2.309026e+01 -8.623561e+00 -6.881108e+00 -5.668166e+00 -8.830993e+00 9.251356e+00 4.792967e+00 2.994159e+00 -1.028033e+01 -5.888890e+00 8.144026e-01 3.067328e-01 3.652011e-01 9.305932e-01 1.927361e-01 3.570090e-01 2.753055e-01 -1.575321e-01 3.686640e-01 1.846725e-01 5.402639e-01 -5.057271e-01 1.310557e+00 -2.573721e-02 -5.102445e-02 1.384841e-01 8.426359e-02 2.952535e-02 3.746036e-01 -1.530626e-01 4.201995e-01 -2.828851e-01 1.803190e-01 -3.261956e-01 1.239782e-01 -1.953491e-01 -3.624932e-03
<VARIANCE> 39
 7.810797e+00 6.312584e+00 6.743868e+00 6.493871e+00 2.872013e+01 3.017086e+01 1.613666e+01 1.833452e+01 3.013139e+01 9.044626e+00 1.027294e+01 2.593291e+01 1.000000e-02 3.987068e-01 3.907959e-01 6.107967e-01 4.809012e-01 9.833600e-01 2.047303e+00 3.405838e-01 1.001889e+00 1.915949e+00 7.311767e-01 2.456666e+00 5.730359e-01 1.000000e-02 1.435705e-01 7.422782e-02 8.033776e-02 2.738608e-01 2.407353e-01 7.261887e-01 8.299119e-02 1.085919e-01 3.207933e-01 6.052299e-02 2.524134e-01 5.007088e-01 1.000000e-02
<GCONST> 6.558434e+01
<STATE> 23
<MEAN> 39
 1.270736e+00 -1.710791e+01 -2.061422e+01 -8.854149e+00 -5.760816e+00 -4.767170e+00 -7.841860e+00 9.329620e+00 8.473779e+00 3.206139e+00 -1.238145e+01 -1.424939e+00 7.520625e-01 2.364375e-01 4.668180e-01 1.421040e-01 3.366458e-01 5.518365e-01 -4.313108e-01 5.080912e-01 -5.351641e-01 5.941496e-01 -1.195600e+00 6.985687e-01 -3.901190e-01 -3.177516e-02 5.906010e-02 9.095804e-02 -8.145998e-02 3.153762e-01 -1.323037e-04 1.963944e-02 2.679307e-01 -4.267425e-01 -2.046699e-01 -4.306727e-01 3.191785e-01 -6.833709e-01 -2.721799e-03
<VARIANCE> 39
 8.530147e+00 6.317356e+00 3.326924e+00 1.485240e+01 2.451376e+01 1.912148e+01 2.580206e+01 1.340619e+01 1.961734e+01 1.296591e+01 1.612731e+01 2.150301e+01 1.000000e-02 1.133753e+00 6.736152e-01 5.195177e-01 1.791458e+00 1.358817e+00 3.953339e+00 1.216750e+00 6.671360e-01 9.245746e-01 1.018436e+00 1.890839e+00 3.319754e+00 1.000000e-02 5.080709e-02 3.621750e-02 3.163474e-02 1.745829e-01 3.520646e-01 5.954519e-01 1.064855e-01 1.693370e-01 3.582360e-01 1.068431e-01 3.757233e-01 3.970488e-01 1.000000e-02
<GCONST> 6.980012e+01
<STATE> 24
<MEAN> 39
 9.954041e-01 -1.499772e+01 -2.222841e+01 -7.531640e+00 -5.156744e+00 -6.092589e+00 -6.727427e+00 6.111012e+00 7.793228e+00 -1.144302e+00 -7.869894e+00 -8.009068e+00 7.006012e-01 5.843986e-01 7.130042e-01 5.009506e-01 1.206818e+00 1.209411e+00 -2.776220e-01 1.067618e+00 -8.135285e-01 -3.763109e-01 -8.064309e-01 1.831642e-01 -1.009671e+00 -3.453431e-02 2.852190e-01 -4.198979e-01 3.340234e-01 2.115719e-01 -4.305334e-02 1.542021e-01 4.879076e-01 -4.101917e-02 -8.762818e-02 3.705654e-02 -4.144139e-01 2.454806e-01 -3.670021e-03
<VARIANCE> 39
 7.893849e+00 5.389034e+00 3.822369e+00 1.762580e+01 5.910102e+01 4.920770e+01 4.747577e+01 1.331575e+01 4.182037e+01 6.366679e+00 2.643060e+01 4.889420e+01 1.000000e-02 5.590453e-01 5.902178e-01 3.763233e-01 8.286847e-01 3.474812e+00 2.820475e+00 9.468479e-01 1.654201e+00 2.349255e+00 5.399256e-01 1.390636e+00 4.546074e+00 1.000000e-02 2.679965e-01 1.237831e-01 7.302994e-02 3.896943e-01 3.708636e-01 7.496315e-01 7.286542e-01 1.397219e-01 5.621521e-01 2.388510e-01 3.196408e-01 9.428110e-01 1.000000e-02
<GCONST> 8.179704e+01
<STATE> 25
<MEAN> 39
 3.664980e+00 -1.362194e+01 -1.980777e+01 -3.579649e+00 -4.082429e+00 -2.641907e+00 -5.851012e+00 7.580418e+00 4.903338e+00 -2.792058e-02 -1.084181e+01 -5.789609e+00 6.629145e-01 7.855795e-01 -6.050591e-01 1.400747e+00 4.567966e-02 6.039344e-01 -2.705631e-01 2.065665e+00 -1.075253e+00 -3.322071e-01 -8.023539e-01 -1.743519e-01 -2.563241e-01 -4.353884e-02 -1.976453e-01 -3.794236e-01 6.264450e-02 -5.109153e-01 -1.877066e-01 -5.074711e-01 8.154389e-02 8.586042e-02 1.503053e-02 -4.031852e-02 1.386686e-02 2.260964e-01 -2.040245e-03
<VARIANCE> 39
 9.796310e+00 4.715020e+00 5.240306e+00 7.346558e+00 6.475348e+00 1.486345e+01 2.268937e+01 9.948207e+00 1.255180e+01 1.477196e+01 1.176253e+01 2.856032e+01 1.000000e-02 4.627833e-01 2.286805e-01 4.428871e-01 2.101905e+00 1.752570e+00 2.919375e+00 2.626342e+00 7.746840e-01 1.877748e+00 8.867816e-01 1.221466e+00 1.350379e+00 1.000000e-02 1.638829e-01 1.975420e-01 1.373665e-01 2.362808e-01 4.529919e-01 6.828190e-01 3.682548e-01 1.910788e-01 5.700907e-01 1.041039e-01 2.442579e-01 7.987351e-01 1.000000e-02
<GCONST> 7.226211e+01
<STATE> 26
<MEAN> 39
 4.813361e+00 -1.707258e+01 -1.790381e+01 -5.020302e+00 -3.479813e+00 -6.138237e+00 -2.328709e-01 4.324886e+00 7.160009e+00 -1.449834e+00 -9.661556e+00 -8.752094e+00 5.912707e-01 2.831515e-01 -9.075747e-01 8.333876e-01 2.799504e-01 3.740709e-01 -4.549745e-01 1.175899e+00 -4.816528e-01 6.268850e-02 -1.039896e+00 4.468071e-02 8.704754e-01 -4.694644e-02 -2.795235e-01 -1.529887e-01 1.304547e-02 -2.256874e-01 1.268726e-01 -3.736967e-01 -1.354616e-01 5.757498e-02 -1.737841e-01 5.048923e-04 4.478182e-01 3.297918e-01 -4.699205e-03
<VARIANCE> 39
 6.865138e+00 3.044097e+00 1.381048e+01 8.841171e+00 1.582157e+01 6.222457e+00 1.609350e+01 1.121602e+01 9.667877e+00 5.971647e+00 2.192444e+00 1.713245e+01 1.000000e-02 1.622825e+00 9.044338e-01 1.009686e+00 1.866454e+00 1.529248e+00 3.554857e+00 1.467263e+00 3.301566e-01 2.762192e+00 9.187106e-01 9.821934e-01 2.835004e+00 1.000000e-02 8.330826e-02 6.856292e-02 2.651799e-01 2.634949e-01 2.976637e-01 1.501129e-01 3.616530e-01 1.250682e-01 2.769701e-01 1.545124e-01 1.650026e-01 2.344698e-01 1.000000e-02
<GCONST> 6.668038e+01
<STATE> 27
<MEAN> 39
 4.121324e+00 -1.787930e+01 -1.663514e+01 -5.917617e+00 -2.384778e+00 -8.117218e+00 1.460436e-01 4.764439e+00 6.324368e+00 -5.302318e+00 -9.094557e+00 -3.484435e+00 4.895995e-01 -9.005824e-02 -6.600934e-01 1.274732e+00 -1.259469e-01 2.696713e-01 -1.526429e+00 9.527304e-01 -3.075369e-01 -2.877937e-01 -5.148697e-01 9.811543e-01 5.793246e-01 -4.213142e-02 -2.924492e-01 1.896328e-01 -8.175053e-02 1.664519e-01 2.089729e-02 -2.968775e-03 -5.422347e-01 1.883868e-01 1.533003e-01 5.963069e-01 1.730387e-01 -1.360797e-01 4.958103e-03
<VARIANCE> 39
 1.922650e+00 7.605192e+00 3.544476e+00 5.018519e+00 4.868464e+00 8.413976e+00 8.377598e+00 6.920066e+00 1.652890e+01 7.454824e+00 9.587082e+00 9.114857e+00 1.000000e-02 3.144947e-01 1.711869e-01 1.005355e+00 1.238717e+00 1.706725e+00 1.942042e+00 1.997244e+00 1.242883e+00 1.404033e+00 7.523593e-01 5.044448e-01 1.454290e+00 1.000000e-02 1.060561e-01 8.695108e-02 1.786043e-01 5.096582e-01 1.086689e-01 3.208056e-01 2.017042e-01 3.828216e-02 5.489357e-01 2.603523e-01 1.722074e-01 3.322610e-01 1.000000e-02
<GCONST> 5.952060e+01
<STATE> 28
<MEAN> 39
 3.736658e+00 -1.863151e+01 -1.338049e+01 -4.742667e+00 -2.244591e+00 -9.988122e+00 1.013501e+00 3.402898e+00 5.175898e+00 -3.888601e+00 -6.961764e+00 -5.555678e+00 4.282098e-01 -6.125416e-01 -3.871719e-01 9.594765e-01 4.638591e-01 7.671937e-01 -1.100827e+00 -1.689572e-02 -2.742853e-01 1.822532e-01 7.572810e-01 1.151406e+00 3.128265e-01 -3.872911e-02 -1.134389e-01 2.006621e-01 -2.941804e-01 -1.617683e-01 1.832012e-01 3.781530e-01 -1.709017e-01 1.036529e-01 1.981920e-01 3.538362e-01 -4.695290e-02 1.637111e-01 2.509298e-03
<VARIANCE> 39
 1.148416e+00 2.789998e+00 4.342683e+00 5.104613e+00 5.811349e+00 1.163643e+01 9.900759e+00 7.347204e+00 9.468033e+00 1.523172e+01 9.039659e+00 2.796466e+01 1.000000e-02 5.842497e-02 1.335180e-01 6.674615e-01 1.133453e+00 4.183856e-01 3.935606e-01 7.289816e-01 5.877048e-01 1.132289e+00 1.302576e+00 1.438795e+00 9.797005e-01 1.000000e-02 2.981963e-02 3.230520e-02 2.557867e-01 1.583639e-01 2.036520e-01 2.803129e-01 3.829280e-01 3.006707e-01 1.540132e-01 7.233856e-02 1.606248e-01 2.626423e-01 1.000000e-02
<GCONST> 5.123836e+01
<STATE> 29
<MEAN> 39
 1.752498e+00 -1.938354e+01 -1.349260e+01 -4.779113e+00 -4.175428e-01 -1.158672e+01 8.393423e-01 4.602946e+00 8.187263e+00 -1.066133e+00 -4.374784e+00 -2.665140e+00 3.601746e-01 -7.562482e-01 1.688409e-01 -1.416895e-01 -5.213796e-01 1.042007e+00 1.196420e-01 7.807368e-02 1.905164e-01 2.450350e-01 5.419052e-01 7.716369e-01 8.097829e-01 -3.499294e-02 1.712414e-01 3.915578e-01 -1.835096e-01 8.217417e-02 -9.935722e-02 4.703356e-01 -1.567011e-01 -1.708663e-01 -1.723679e-01 -6.275584e-01 -4.526482e-01 -6.017676e-02 4.990111e-03
<VARIANCE> 39
 1.908973e+00 1.055182e+01 1.096141e+01 8.776054e+00 1.207504e+01 9.930699e+00 2.550763e+00 2.863738e+00 1.094024e+01 9.793799e+00 1.144467e+01 1.635179e+01 1.000000e-02 9.963542e-02 4.876282e-01 1.402870e+00 7.072269e-01 1.394415e+00 1.575375e+00 1.469826e+00 7.454783e-01 2.602727e-01 5.510581e-01 1.139088e+00 1.506687e+00 1.000000e-02 5.050159e-02 5.761000e-02 1.908479e-01 3.419792e-01 3.103840e-01 1.028406e-01 1.189032e-01 9.174575e-02 1.283853e-01 2.909347e-01 2.532029e-01 2.079245e-01 1.000000e-02
<GCONST> 5.579326e+01
<STATE> 30
<MEAN> 39
 1.435789e+00 -1.835061e+01 -1.361991e+01 -5.718746e+00 1.659701e+00 -1.089966e+01 1.169857e-01 2.194716e+00 4.462740e+00 -1.620772e+00 -4.879430e+00 -1.900868e+00 3.005254e-01 -1.805623e-02 6.880736e-01 -1.013881e-01 1.867557e-01 4.520726e-01 3.983605e-01 -5.039331e-01 -6.926668e-01 -3.370083e-02 -5.577153e-01 -2.861541e-02 4.919852e-01 -1.898162e-02 1.717616e-01 2.860030e-01 3.860613e-01 3.715977e-01 -4.540358e-01 3.646126e-01 2.484036e-01 5.189452e-02 -1.018349e-01 -6.334509e-01 -2.676263e-01 -3.593805e-01 3.953461e-03
<VARIANCE> 39
 2.120600e+00 9.776517e+00 1.390239e+01 3.419960e+00 1.636344e+01 1.656264e+01 1.791121e+01 8.230680e+00 4.666613e+00 1.088843e+01 9.005433e+00 5.998882e+00 1.000000e-02 1.309958e-01 3.647163e-01 3.928418e-01 5.230936e-01 2.540540e+00 6.908675e-01 4.803728e-01 1.096000e+00 3.241489e-01 1.123949e+00 4.344589e-01 3.733852e-01 1.000000e-02 8.374118e-02 5.551304e-02 2.399886e-01 1.030989e-01 2.437349e-01 1.197047e-01 3.297285e-01 2.709916e-01 1.410440e-01 1.021851e-01 4.144121e-01 2.498923e-01 1.000000e-02
<GCONST> 5.420987e+01
<STATE> 31
<MEAN> 39
 1.843314e+00 -1.688591e+01 -1.350651e+01 -4.117675e+00 1.329578e+00 -9.885227e+00 -3.972410e-01 2.753571e+00 7.340695e+00 -4.126897e+00 -5.221957e+00 -2.266061e+00 2.946624e-01 -3.433926e-02 1.129180e+00 1.262135e+00 9.673532e-01 -3.051199e-01 9.018934e-01 3.730287e-01 -3.116342e-01 -3.273543e-01 -1.726964e+00 -5.337803e-01 -3.531981e-01 -2.052771e-02 -1.826948e-01 -7.599519e-02 4.006013e-01 2.626752e-02 -2.733913e-01 5.799137e-02 1.360900e-01 1.214620e-01 -1.981408e-01 3.711636e-02 9.434198e-02 -7.329609e-02 -3.568639e-03
<VARIANCE> 39
 2.708326e+00 8.964211e+00 2.765435e+00 5.243154e+00 1.547085e+01 2.051554e+01 1.211904e+01 1.698308e+01 7.872485e+00 7.050178e+00 1.332520e+01 7.490930e+00 1.000000e-02 9.356408e-01 2.291834e-01 8.862850e-01 7.689511e-01 1.180838e+00 2.889112e-01 7.308232e-01 1.062360e+00 7.897937e-01 6.919313e-01 1.629839e+00 8.672506e-01 1.000000e-02 4.522752e-02 7.307670e-02 9.351639e-02 8.448334e-02 5.665213e-01 1.761658e-01 1.722581e-01 2.631508e-01 4.994134e-02 1.241665e-01 1.367937e-01 1.064114e-01 1.000000e-02
<GCONST> 5.465815e+01
<STATE> 32
<MEAN> 39
 6.223660e-01 -1.454751e+01 -9.166684e+00 -3.243892e+00 -2.315844e-01 -6.538102e+00 2.759680e+00 2.941069e+00 5.290363e+00 -7.189406e+00 -6.374043e+00 -3.457898e+00 2.254894e-01 -9.101754e-01 4.712871e-01 1.450764e+00 3.168349e-02 -1.336748e-01 8.317219e-01 3.429651e-01 2.172816e-01 -7.455572e-01 -2.959732e-01 4.997665e-01 1.876690e-01 -3.833913e-02 -2.738204e-01 -2.303537e-01 -2.020557e-01 -3.643202e-01 -2.852681e-02 -2.293647e-01 -6.898273e-02 4.006705e-02 1.188852e-01 5.205513e-01 3.902716e-01 8.245365e-03 -5.484984e-03
<VARIANCE> 39
 7.185656e+00 6.989376e+00 1.131477e+01 4.676336e+00 2.076233e+00 1.195203e+01 3.459246e+00 1.506213e+01 1.221805e+01 9.066506e+00 1.369509e+01 1.170185e+01 1.000000e-02 2.519552e-01 6.338865e-01 7.537578e-01 4.478582e-01 1.524081e+00 1.081999e+00 1.100636e+00 1.126184e+00 7.448696e-01 1.038049e+00 5.679706e-01 3.654642e-01 1.000000e-02 1.439988e-01 8.808824e-02 2.181849e-01 1.787859e-01 1.820857e-01 3.167748e-02 7.499192e-02 1.165969e-01 2.370544e-01 1.086620e-01 2.647925e-01 1.695110e-01 1.000000e-02
<GCONST> 5.439207e+01
<STATE> 33
<MEAN> 39
 -9.865228e-01 -1.571378e+01 -8.296469e+00 -2.175029e+00 6.285444e-01 -8.236769e+00 -8.336065e-02 3.029200e+00 4.167847e+00 -6.203759e+00 -4.105795e+00 -2.811884e-01 1.849237e-01 -1.138966e+00 4.911013e-02 4.429476e-01 -6.414781e-01 -8.847520e-01 -1.698682e-02 1.387343e-01 -1.908081e-01 -9.269067e-02 4.092895e-01 9.737209e-01 -9.432682e-02 -4.188284e-02 -1.150814e-01 4.456085e-02 -2.822610e-01 -2.783712e-01 1.189418e-01 -2.202967e-02 -8.366759e-02 -1.135040e-03 5.116808e-01 3.892483e-01 2.595623e-02 -2.530523e-01 -3.042556e-03
<VARIANCE> 39
 2.505671e+00 1.039248e+01 8.221909e+00 8.188482e+00 7.975576e+00 2.722223e+01 2.331117e+00 4.174428e+00 3.573676e+00 1.753704e+01 7.042140e+00 3.653167e+00 1.000000e-02 2.934199e-01 7.010590e-01 8.008850e-01 7.168162e-01 7.518840e-01 4.264447e-01 5.866570e-01 3.219461e-01 1.911867e+00 9.604047e-01 5.790537e-01 6.485431e-01 1.000000e-02 3.276151e-02 1.513259e-01 1.840773e-01 1.875961e-01 2.030301e-01 1.282967e-01 5.922250e-02 5.551567e-02 1.483639e-01 1.421781e-01 1.581157e-01 7.313097e-02 1.000000e-02
<GCONST> 4.870316e+01
<STATE> 34
<MEAN> 39
 -2.794274e+00 -1.400510e+01 -7.557984e+00 -4.918404e+00 -1.650437e+00 -6.948228e+00 2.291508e+00 1.539924e+00 4.823349e+00 -5.671238e+00 -2.619640e+00 -3.171468e+00 9.763778e-02 -1.058722e+00 4.960125e-01 4.797125e-01 -2.292461e-01 -1.593121e-01 2.702242e-01 2.033686e-02 4.200062e-02 9.777710e-01 4.501333e-01 5.945972e-01 -4.876688e-01 -3.940869e-02 6.765143e-02 8.580639e-02 -7.138263e-02 1.401647e-01 2.324669e-01 1.229008e-01 -5.908243e-02 1.088985e-01 3.453388e-01 2.323172e-01 -3.372861e-04 -6.389234e-03 2.536523e-03
<VARIANCE> 39
 5.763195e+00 4.407839e+00 7.975346e+00 1.075331e+01 6.365402e+00 1.913052e+01 6.872444e+00 8.371755e+00 4.219166e+01 1.181353e+01 5.895607e+00 7.204584e+00 1.000000e-02 8.908720e-02 9.152920e-01 9.830509e-01 1.324302e+00 2.694367e-01 1.864496e+00 1.246407e+00 1.308351e+00 2.670222e+00 8.560923e-01 8.140286e-01 5.179207e-01 1.000000e-02 8.784445e-02 1.057198e-01 2.358715e-01 2.180607e-01 2.117154e-01 1.097434e-01 1.561073e-01 1.244135e-01 5.401230e-01 2.799957e-01 1.429085e-01 1.676345e-01 1.000000e-02
<GCONST> 6.091338e+01
<STATE> 35
<MEAN> 39
 -4.468466e+00 -1.324230e+01 -6.652372e+00 -4.353994e+00 3.118950e-01 -5.193833e+00 1.659947e+00 3.951964e+00 7.925128e+00 -4.262275e+00 -1.928992e+00 -3.074419e+00 3.794822e-02 -9.050657e-01 5.803009e-01 6.042137e-01 -2.041662e-02 5.267259e-01 8.050681e-01 -1.392649e-01 2.351748e-01 7.415097e-01 9.769864e-01 7.304888e-01 -2.761770e-01 -3.595270e-02 1.994305e-01 1.516107e-02 1.369760e-01 1.588934e-01 -1.322299e-03 8.432231e-03 -1.280670e-01 -3.040531e-01 -5.316401e-01 -2.113141e-01 -1.233693e-01 5.631011e-02 6.266834e-03
<VARIANCE> 39
 2.870297e+00 3.722678e+00 4.046986e+00 1.014550e+01 2.079492e+00 2.704192e+01 1.908297e+01 2.519091e+01 1.616085e+01 1.681598e+01 1.691514e+01 1.690166e+01 1.000000e-02 5.702592e-01 3.497382e-01 8.188809e-01 1.277400e+00 1.579121e+00 8.406374e-01 9.122694e-01 1.162947e+00 2.094204e+00 1.278571e+00 8.201246e-01 9.966586e-01 1.000000e-02 2.441970e-02 6.529705e-02 8.262828e-02 1.657649e-01 1.586189e-01 2.046204e-01 3.749918e-01 2.897678e-01 6.569351e-01 3.572330e-01 1.412806e-01 7.078090e-02 1.000000e-02
<GCONST> 6.253552e+01
<STATE> 36
<MEAN> 39
 -6.030654e+00 -1.240965e+01 -5.981400e+00 -4.478835e+00 2.759405e-01 -5.800929e+00 1.462037e+00 2.382987e+00 8.525761e+00 -1.579814e+00 -3.097270e-01 -4.989802e+00 -2.897663e-02 -4.651482e-01 5.367897e-01 9.311303e-01 1.865995e-01 -2.040978e-01 5.237247e-01 -3.246030e-01 -9.277826e-01 -7.657136e-01 1.019727e-01 3.445426e-01 -1.290980e-01 -2.197196e-02 2.983931e-01 -2.429226e-03 6.122105e-02 5.618056e-02 -2.035207e-01 -1.483739e-01 -3.503314e-03 -3.498321e-01 -4.888758e-01 -4.085404e-01 -1.411343e-01 1.155485e-01 1.069835e-02
<VARIANCE> 39
 8.683677e-01 1.598195e+00 4.766191e+00 4.200790e+00 1.030028e+01 1.637275e+01 1.047381e+01 1.362610e+01 3.603904e+00 1.227486e+01 1.406302e+01 4.521776e+00 1.000000e-02 3.593658e-01 3.177649e-01 1.745848e-01 6.289834e-01 1.010708e+00 6.946608e-01 1.856852e+00 1.759631e+00 2.665787e+00 2.395871e+00 1.106105e+00 5.275837e-01 1.000000e-02 4.949183e-02 6.283554e-02 8.370772e-02 2.218068e-01 1.541141e-01 6.675242e-02 9.825940e-02 3.618372e-01 1.721330e-01 3.609562e-02 1.810567e-01 2.759076e-01 1.000000e-02
<GCONST> 5.123320e+01
<TRANSP> 37
 0.000000e+00 1.000000e+00 0.000000e+00 0.000000e+00 0.000000e+00 0.000000e+00 0.000000e+00 0.000000e+00 0.000000e+00 0.000000e+00 0.000000e+00 0.000000e+00 0.000000e+00 0.000000e+00 0.000000e+00 0.000000e+00 0.000000e+00 0.000000e+00 0.000000e+00 0.000000e+00 0.000000e+00 0.000000e+00 0.000000e+00 0.000000e+00 0.000000e+00 0.000000e+00 0.000000e+00 0.000000e+00 0.000000e+00 0.000000e+00 0.000000e+00 0.000000e+00 0.000000e+00 0.000000e+00 0.000000e+00 0.000000e+00 0.000000e+00
 0.000000e+00 5.454546e-01 4.545455e-01 0.000000e+00 0.000000e+00 0.000000e+00 0.000000e+00 0.000000e+00 0.000000e+00 0.000000e+00 0.000000e+00 0.000000e+00 0.000000e+00 0.000000e+00 0.000000e+00 0.000000e+00 0.000000e+00 0.000000e+00 0.000000e+00 0.000000e+00 0.000000e+00 0.000000e+00 0.000000e+00 0.000000e+00 0.000000e+00 0.000000e+00 0.000000e+00 0.000000e+00 0.000000e+00 0.000000e+00 0.000000e+00 0.000000e+00 0.000000e+00 0.000000e+00 0.000000e+00 0.000000e+00 0.000000e+00
 0.000000e+00 0.000000e+00 4.444444e-01 5.555556e-01 0.000000e+00 0.000000e+00 0.000000e+00 0.000000e+00 0.000000e+00 0.000000e+00 0.000000e+00 0.000000e+00 0.000000e+00 0.000000e+00 0.000000e+00 0.000000e+00 0.000000e+00 0.000000e+00 0.000000e+00 0.000000e+00 0.000000e+00 0.000000e+00 0.000000e+00 0.000000e+00 0.000000e+00 0.000000e+00 0.000000e+00 0.000000e+00 0.000000e+00 0.000000e+00 0.000000e+00 0.000000e+00 0.000000e+00 0.000000e+00 0.000000e+00 0.000000e+00 0.000000e+00
 0.000000e+00 0.000000e+00 0.000000e+00 5.000000e-01 5.000000e-01 0.000000e+00 0.000000e+00 0.000000e+00 0.000000e+00 0.000000e+00 0.000000e+00 0.000000e+00 0.000000e+00 0.000000e+00 0.000000e+00 0.000000e+00 0.000000e+00 0.000000e+00 0.000000e+00 0.000000e+00 0.000000e+00 0.000000e+00 0.000000e+00 0.000000e+00 0.000000e+00 0.000000e+00 0.000000e+00 0.000000e+00 0.000000e+00 0.000000e+00 0.000000e+00 0.000000e+00 0.000000e+00 0.000000e+00 0.000000e+00 0.000000e+00 0.000000e+00
 0.000000e+00 0.000000e+00 0.000000e+00 0.000000e+00 1.666667e-01 8.333333e-01 0.000000e+00 0.000000e+00 0.000000e+00 0.000000e+00 0.000000e+00 0.000000e+00 0.000000e+00 0.000000e+00 0.000000e+00 0.000000e+00 0.000000e+00 0.000000e+00 0.000000e+00 0.000000e+00 0.000000e+00 0.000000e+00 0.000000e+00 0.000000e+00 0.000000e+00 0.000000e+00 0.000000e+00 0.000000e+00 0.000000e+00 0.000000e+00 0.000000e+00 0.000000e+00 0.000000e+00 0.000000e+00 0.000000e+00 0.000000e+00 0.000000e+00
 0.000000e+00 0.000000e+00 0.000000e+00 0.000000e+00 0.000000e+00 3.750000e-01 6.250000e-01 0.000000e+00 0.000000e+00 0.000000e+00 0.000000e+00 0.000000e+00 0.000000e+00 0.000000e+00 0.000000e+00 0.000000e+00 0.000000e+00 0.000000e+00 0.000000e+00 0.000000e+00 0.000000e+00 0.000000e+00 0.000000e+00 0.000000e+00 0.000000e+00 0.000000e+00 0.000000e+00 0.000000e+00 0.000000e+00 0.000000e+00 0.000000e+00 0.000000e+00 0.000000e+00 0.000000e+00 0.000000e+00 0.000000e+00 0.000000e+00
 0.000000e+00 0.000000e+00 0.000000e+00 0.000000e+00 0.000000e+00 0.000000e+00 2.857143e-01 7.142857e-01 0.000000e+00 0.000000e+00 0.000000e+00 0.000000e+00 0.000000e+00 0.000000e+00 0.000000e+00 0.000000e+00 0.000000e+00 0.000000e+00 0.000000e+00 0.000000e+00 0.000000e+00 0.000000e+00 0.000000e+00 0.000000e+00 0.000000e+00 0.000000e+00 0.000000e+00 0.000000e+00 0.000000e+00 0.000000e+00 0.000000e+00 0.000000e+00 0.000000e+00 0.000000e+00 0.000000e+00 0.000000e+00 0.000000e+00
 0.000000e+00 0.000000e+00 0.000000e+00 0.000000e+00 0.000000e+00 0.000000e+00 0.000000e+00 3.750000e-01 6.250000e-01 0.000000e+00 0.000000e+00 0.000000e+00 0.000000e+00 0.000000e+00 0.000000e+00 0.000000e+00 0.000000e+00 0.000000e+00 0.000000e+00 0.000000e+00 0.000000e+00 0.000000e+00 0.000000e+00 0.000000e+00 0.000000e+00 0.000000e+00 0.000000e+00 0.000000e+00 0.000000e+00 0.000000e+00 0.000000e+00 0.000000e+00 0.000000e+00 0.000000e+00 0.000000e+00 0.000000e+00 0.000000e+00
 0.000000e+00 0.000000e+00 0.000000e+00 0.000000e+00 0.000000e+00 0.000000e+00 0.000000e+00 0.000000e+00 5.000000e-01 5.000000e-01 0.000000e+00 0.000000e+00 0.000000e+00 0.000000e+00 0.000000e+00 0.000000e+00 0.000000e+00 0.000000e+00 0.000000e+00 0.000000e+00 0.000000e+00 0.000000e+00 0.000000e+00 0.000000e+00 0.000000e+00 0.000000e+00 0.000000e+00 0.000000e+00 0.000000e+00 0.000000e+00 0.000000e+00 0.000000e+00 0.000000e+00 0.000000e+00 0.000000e+00 0.000000e+00 0.000000e+00
 0.000000e+00 0.000000e+00 0.000000e+00 0.000000e+00 0.000000e+00 0.000000e+00 0.000000e+00 0.000000e+00 0.000000e+00 3.750000e-01 6.250000e-01 0.000000e+00 0.000000e+00 0.000000e+00 0.000000e+00 0.000000e+00 0.000000e+00 0.000000e+00 0.000000e+00 0.000000e+00 0.000000e+00 0.000000e+00 0.000000e+00 0.000000e+00 0.000000e+00 0.000000e+00 0.000000e+00 0.000000e+00 0.000000e+00 0.000000e+00 0.000000e+00 0.000000e+00 0.000000e+00 0.000000e+00 0.000000e+00 0.000000e+00 0.000000e+00
 0.000000e+00 0.000000e+00 0.000000e+00 0.000000e+00 0.000000e+00 0.000000e+00 0.000000e+00 0.000000e+00 0.000000e+00 0.000000e+00 4.444444e-01 5.555556e-01 0.000000e+00 0.000000e+00 0.000000e+00 0.000000e+00 0.000000e+00 0.000000e+00 0.000000e+00 0.000000e+00 0.000000e+00 0.000000e+00 0.000000e+00 0.000000e+00 0.000000e+00 0.000000e+00 0.000000e+00 0.000000e+00 0.000000e+00 0.000000e+00 0.000000e+00 0.000000e+00 0.000000e+00 0.000000e+00 0.000000e+00 0.000000e+00 0.000000e+00
 0.000000e+00 0.000000e+00 0.000000e+00 0.000000e+00 0.000000e+00 0.000000e+00 0.000000e+00 0.000000e+00 0.000000e+00 0.000000e+00 0.000000e+00 2.857143e-01 7.142857e-01 0.000000e+00 0.000000e+00 0.000000e+00 0.000000e+00 0.000000e+00 0.000000e+00 0.000000e+00 0.000000e+00 0.000000e+00 0.000000e+00 0.000000e+00 0.000000e+00 0.000000e+00 0.000000e+00 0.000000e+00 0.000000e+00 0.000000e+00 0.000000e+00 0.000000e+00 0.000000e+00 0.000000e+00 0.000000e+00 0.000000e+00 0.000000e+00
 0.000000e+00 0.000000e+00 0.000000e+00 0.000000e+00 0.000000e+00 0.000000e+00 0.000000e+00 0.000000e+00 0.000000e+00 0.000000e+00 0.000000e+00 0.000000e+00 4.444444e-01 5.555556e-01 0.000000e+00 0.000000e+00 0.000000e+00 0.000000e+00 0.000000e+00 0.000000e+00 0.000000e+00 0.000000e+00 0.000000e+00 0.000000e+00 0.000000e+00 0.000000e+00 0.000000e+00 0.000000e+00 0.000000e+00 0.000000e+00 0.000000e+00 0.000000e+00 0.000000e+00 0.000000e+00 0.000000e+00 0.000000e+00 0.000000e+00
 0.000000e+00 0.000000e+00 0.000000e+00 0.000000e+00 0.000000e+00 0.000000e+00 0.000000e+00 0.000000e+00 0.000000e+00 0.000000e+00 0.000000e+00 0.000000e+00 0.000000e+00 5.000000e-01 5.000000e-01 0.000000e+00 0.000000e+00 0.000000e+00 0.000000e+00 0.000000e+00 0.000000e+00 0.000000e+00 0.000000e+00 0.000000e+00 0.000000e+00 0.000000e+00 0.000000e+00 0.000000e+00 0.000000e+00 0.000000e+00 0.000000e+00 0.000000e+00 0.000000e+00 0.000000e+00 0.000000e+00 0.000000e+00 0.000000e+00
 0.000000e+00 0.000000e+00 0.000000e+00 0.000000e+00 0.000000e+00 0.000000e+00 0.000000e+00 0.000000e+00 0.000000e+00 0.000000e+00 0.000000e+00 0.000000e+00 0.000000e+00 0.000000e+00 4.444444e-01 5.555556e-01 0.000000e+00 0.000000e+00 0.000000e+00 0.000000e+00 0.000000e+00 0.000000e+00 0.000000e+00 0.000000e+00 0.000000e+00 0.000000e+00 0.000000e+00 0.000000e+00 0.000000e+00 0.000000e+00 0.000000e+00 0.000000e+00 0.000000e+00 0.000000e+00 0.000000e+00 0.000000e+00 0.000000e+00
 0.000000e+00 0.000000e+00 0.000000e+00 0.000000e+00 0.000000e+00 0.000000e+00 0.000000e+00 0.000000e+00 0.000000e+00 0.000000e+00 0.000000e+00 0.000000e+00 0.000000e+00 0.000000e+00 0.000000e+00 2.857143e-01 7.142857e-01 0.000000e+00 0.000000e+00 0.000000e+00 0.000000e+00 0.000000e+00 0.000000e+00 0.000000e+00 0.000000e+00 0.000000e+00 0.000000e+00 0.000000e+00 0.000000e+00 0.000000e+00 0.000000e+00 0.000000e+00 0.000000e+00 0.000000e+00 0.000000e+00 0.000000e+00 0.000000e+00
 0.000000e+00 0.000000e+00 0.000000e+00 0.000000e+00 0.000000e+00 0.000000e+00 0.000000e+00 0.000000e+00 0.000000e+00 0.000000e+00 0.000000e+00 0.000000e+00 0.000000e+00 0.000000e+00 0.000000e+00 0.000000e+00 3.750000e-01 6.250000e-01 0.000000e+00 0.000000e+00 0.000000e+00 0.000000e+00 0.000000e+00 0.000000e+00 0.000000e+00 0.000000e+00 0.000000e+00 0.000000e+00 0.000000e+00 0.000000e+00 0.000000e+00 0.000000e+00 0.000000e+00 0.000000e+00 0.000000e+00 0.000000e+00 0.000000e+00
 0.000000e+00 0.000000e+00 0.000000e+00 0.000000e+00 0.000000e+00 0.000000e+00 0.000000e+00 0.000000e+00 0.000000e+00 0.000000e+00 0.000000e+00 0.000000e+00 0.000000e+00 0.000000e+00 0.000000e+00 0.000000e+00 0.000000e+00 4.444444e-01 5.555556e-01 0.000000e+00 0.000000e+00 0.000000e+00 0.000000e+00 0.000000e+00 0.000000e+00 0.000000e+00 0.000000e+00 0.000000e+00 0.000000e+00 0.000000e+00 0.000000e+00 0.000000e+00 0.000000e+00 0.000000e+00 0.000000e+00 0.000000e+00 0.000000e+00
 0.000000e+00 0.000000e+00 0.000000e+00 0.000000e+00 0.000000e+00 0.000000e+00 0.000000e+00 0.000000e+00 0.000000e+00 0.000000e+00 0.000000e+00 0.000000e+00 0.000000e+00 0.000000e+00 0.000000e+00 0.000000e+00 0.000000e+00 0.000000e+00 2.857143e-01 7.142857e-01 0.000000e+00 0.000000e+00 0.000000e+00 0.000000e+00 0.000000e+00 0.000000e+00 0.000000e+00 0.000000e+00 0.000000e+00 0.000000e+00 0.000000e+00 0.000000e+00 0.000000e+00 0.000000e+00 0.000000e+00 0.000000e+00 0.000000e+00
 0.000000e+00 0.000000e+00 0.000000e+00 0.000000e+00 0.000000e+00 0.000000e+00 0.000000e+00 0.000000e+00 0.000000e+00 0.000000e+00 0.000000e+00 0.000000e+00 0.000000e+00 0.000000e+00 0.000000e+00 0.000000e+00 0.000000e+00 0.000000e+00 0.000000e+00 5.454546e-01 4.545455e-01 0.000000e+00 0.000000e+00 0.000000e+00 0.000000e+00 0.000000e+00 0.000000e+00 0.000000e+00 0.000000e+00 0.000000e+00 0.000000e+00 0.000000e+00 0.000000e+00 0.000000e+00 0.000000e+00 0.000000e+00 0.000000e+00
 0.000000e+00 0.000000e+00 0.000000e+00 0.000000e+00 0.000000e+00 0.000000e+00 0.000000e+00 0.000000e+00 0.000000e+00 0.000000e+00 0.000000e+00 0.000000e+00 0.000000e+00 0.000000e+00 0.000000e+00 0.000000e+00 0.000000e+00 0.000000e+00 0.000000e+00 0.000000e+00 3.750000e-01 6.250000e-01 0.000000e+00 0.000000e+00 0.000000e+00 0.000000e+00 0.000000e+00 0.000000e+00 0.000000e+00 0.000000e+00 0.000000e+00 0.000000e+00 0.000000e+00 0.000000e+00 0.000000e+00 0.000000e+00 0.000000e+00
 0.000000e+00 0.000000e+00 0.000000e+00 0.000000e+00 0.000000e+00 0.000000e+00 0.000000e+00 0.000000e+00 0.000000e+00 0.000000e+00 0.000000e+00 0.000000e+00 0.000000e+00 0.000000e+00 0.000000e+00 0.000000e+00 0.000000e+00 0.000000e+00 0.000000e+00 0.000000e+00 0.000000e+00 4.444444e-01 5.555556e-01 0.000000e+00 0.000000e+00 0.000000e+00 0.000000e+00 0.000000e+00 0.000000e+00 0.000000e+00 0.000000e+00 0.000000e+00 0.000000e+00 0.000000e+00 0.000000e+00 0.000000e+00 0.000000e+00
 0.000000e+00 0.000000e+00 0.000000e+00 0.000000e+00 0.000000e+00 0.000000e+00 0.000000e+00 0.000000e+00 0.000000e+00 0.000000e+00 0.000000e+00 0.000000e+00 0.000000e+00 0.000000e+00 0.000000e+00 0.000000e+00 0.000000e+00 0.000000e+00 0.000000e+00 0.000000e+00 0.000000e+00 0.000000e+00 4.444444e-01 5.555556e-01 0.000000e+00 0.000000e+00 0.000000e+00 0.000000e+00 0.000000e+00 0.000000e+00 0.000000e+00 0.000000e+00 0.000000e+00 0.000000e+00 0.000000e+00 0.000000e+00 0.000000e+00
 0.000000e+00 0.000000e+00 0.000000e+00 0.000000e+00 0.000000e+00 0.000000e+00 0.000000e+00 0.000000e+00 0.000000e+00 0.000000e+00 0.000000e+00 0.000000e+00 0.000000e+00 0.000000e+00 0.000000e+00 0.000000e+00 0.000000e+00 0.000000e+00 0.000000e+00 0.000000e+00 0.000000e+00 0.000000e+00 0.000000e+00 2.857143e-01 7.142857e-01 0.000000e+00 0.000000e+00 0.000000e+00 0.000000e+00 0.000000e+00 0.000000e+00 0.000000e+00 0.000000e+00 0.000000e+00 0.000000e+00 0.000000e+00 0.000000e+00
 0.000000e+00 0.000000e+00 0.000000e+00 0.000000e+00 0.000000e+00 0.000000e+00 0.000000e+00 0.000000e+00 0.000000e+00 0.000000e+00 0.000000e+00 0.000000e+00 0.000000e+00 0.000000e+00 0.000000e+00 0.000000e+00 0.000000e+00 0.000000e+00 0.000000e+00 0.000000e+00 0.000000e+00 0.000000e+00 0.000000e+00 0.000000e+00 3.750000e-01 6.250000e-01 0.000000e+00 0.000000e+00 0.000000e+00 0.000000e+00 0.000000e+00 0.000000e+00 0.000000e+00 0.000000e+00 0.000000e+00 0.000000e+00 0.000000e+00
 0.000000e+00 0.000000e+00 0.000000e+00 0.000000e+00 0.000000e+00 0.000000e+00 0.000000e+00 0.000000e+00 0.000000e+00 0.000000e+00 0.000000e+00 0.000000e+00 0.000000e+00 0.000000e+00 0.000000e+00 0.000000e+00 0.000000e+00 0.000000e+00 0.000000e+00 0.000000e+00 0.000000e+00 0.000000e+00 0.000000e+00 0.000000e+00 0.000000e+00 3.750000e-01 6.250000e-01 0.000000e+00 0.000000e+00 0.000000e+00 0.000000e+00 0.000000e+00 0.000000e+00 0.000000e+00 0.000000e+00 0.000000e+00 0.000000e+00
 0.000000e+00 0.000000e+00 0.000000e+00 0.000000e+00 0.000000e+00 0.000000e+00 0.000000e+00 0.000000e+00 0.000000e+00 0.000000e+00 0.000000e+00 0.000000e+00 0.000000e+00 0.000000e+00 0.000000e+00 0.000000e+00 0.000000e+00 0.000000e+00 0.000000e+00 0.000000e+00 0.000000e+00 0.000000e+00 0.000000e+00 0.000000e+00 0.000000e+00 0.000000e+00 4.444444e-01 5.555556e-01 0.000000e+00 0.000000e+00 0.000000e+00 0.000000e+00 0.000000e+00 0.000000e+00 0.000000e+00 0.000000e+00 0.000000e+00
 0.000000e+00 0.000000e+00 0.000000e+00 0.000000e+00 0.000000e+00 0.000000e+00 0.000000e+00 0.000000e+00 0.000000e+00 0.000000e+00 0.000000e+00 0.000000e+00 0.000000e+00 0.000000e+00 0.000000e+00 0.000000e+00 0.000000e+00 0.000000e+00 0.000000e+00 0.000000e+00 0.000000e+00 0.000000e+00 0.000000e+00 0.000000e+00 0.000000e+00 0.000000e+00 0.000000e+00 4.444444e-01 5.555556e-01 0.000000e+00 0.000000e+00 0.000000e+00 0.000000e+00 0.000000e+00 0.000000e+00 0.000000e+00 0.000000e+00
 0.000000e+00 0.000000e+00 0.000000e+00 0.000000e+00 0.000000e+00 0.000000e+00 0.000000e+00 0.000000e+00 0.000000e+00 0.000000e+00 0.000000e+00 0.000000e+00 0.000000e+00 0.000000e+00 0.000000e+00 0.000000e+00 0.000000e+00 0.000000e+00 0.000000e+00 0.000000e+00 0.000000e+00 0.000000e+00 0.000000e+00 0.000000e+00 0.000000e+00 0.000000e+00 0.000000e+00 0.000000e+00 4.444444e-01 5.555556e-01 0.000000e+00 0.000000e+00 0.000000e+00 0.000000e+00 0.000000e+00 0.000000e+00 0.000000e+00
 0.000000e+00 0.000000e+00 0.000000e+00 0.000000e+00 0.000000e+00 0.000000e+00 0.000000e+00 0.000000e+00 0.000000e+00 0.000000e+00 0.000000e+00 0.000000e+00 0.000000e+00 0.000000e+00 0.000000e+00 0.000000e+00 0.000000e+00 0.000000e+00 0.000000e+00 0.000000e+00 0.000000e+00 0.000000e+00 0.000000e+00 0.000000e+00 0.000000e+00 0.000000e+00 0.000000e+00 0.000000e+00 0.000000e+00 1.666667e-01 8.333333e-01 0.000000e+00 0.000000e+00 0.000000e+00 0.000000e+00 0.000000e+00 0.000000e+00
 0.000000e+00 0.000000e+00 0.000000e+00 0.000000e+00 0.000000e+00 0.000000e+00 0.000000e+00 0.000000e+00 0.000000e+00 0.000000e+00 0.000000e+00 0.000000e+00 0.000000e+00 0.000000e+00 0.000000e+00 0.000000e+00 0.000000e+00 0.000000e+00 0.000000e+00 0.000000e+00 0.000000e+00 0.000000e+00 0.000000e+00 0.000000e+00 0.000000e+00 0.000000e+00 0.000000e+00 0.000000e+00 0.000000e+00 0.000000e+00 5.000000e-01 5.000000e-01 0.000000e+00 0.000000e+00 0.000000e+00 0.000000e+00 0.000000e+00
 0.000000e+00 0.000000e+00 0.000000e+00 0.000000e+00 0.000000e+00 0.000000e+00 0.000000e+00 0.000000e+00 0.000000e+00 0.000000e+00 0.000000e+00 0.000000e+00 0.000000e+00 0.000000e+00 0.000000e+00 0.000000e+00 0.000000e+00 0.000000e+00 0.000000e+00 0.000000e+00 0.000000e+00 0.000000e+00 0.000000e+00 0.000000e+00 0.000000e+00 0.000000e+00 0.000000e+00 0.000000e+00 0.000000e+00 0.000000e+00 0.000000e+00 4.444444e-01 5.555556e-01 0.000000e+00 0.000000e+00 0.000000e+00 0.000000e+00
 0.000000e+00 0.000000e+00 0.000000e+00 0.000000e+00 0.000000e+00 0.000000e+00 0.000000e+00 0.000000e+00 0.000000e+00 0.000000e+00 0.000000e+00 0.000000e+00 0.000000e+00 0.000000e+00 0.000000e+00 0.000000e+00 0.000000e+00 0.000000e+00 0.000000e+00 0.000000e+00 0.000000e+00 0.000000e+00 0.000000e+00 0.000000e+00 0.000000e+00 0.000000e+00 0.000000e+00 0.000000e+00 0.000000e+00 0.000000e+00 0.000000e+00 0.000000e+00 1.666667e-01 8.333333e-01 0.000000e+00 0.000000e+00 0.000000e+00
 0.000000e+00 0.000000e+00 0.000000e+00 0.000000e+00 0.000000e+00 0.000000e+00 0.000000e+00 0.000000e+00 0.000000e+00 0.000000e+00 0.000000e+00 0.000000e+00 0.000000e+00 0.000000e+00 0.000000e+00 0.000000e+00 0.000000e+00 0.000000e+00 0.000000e+00 0.000000e+00 0.000000e+00 0.000000e+00 0.000000e+00 0.000000e+00 0.000000e+00 0.000000e+00 0.000000e+00 0.000000e+00 0.000000e+00 0.000000e+00 0.000000e+00 0.000000e+00 0.000000e+00 4.444444e-01 5.555556e-01 0.000000e+00 0.000000e+00
 0.000000e+00 0.000000e+00 0.000000e+00 0.000000e+00 0.000000e+00 0.000000e+00 0.000000e+00 0.000000e+00 0.000000e+00 0.000000e+00 0.000000e+00 0.000000e+00 0.000000e+00 0.000000e+00 0.000000e+00 0.000000e+00 0.000000e+00 0.000000e+00 0.000000e+00 0.000000e+00 0.000000e+00 0.000000e+00 0.000000e+00 0.000000e+00 0.000000e+00 0.000000e+00 0.000000e+00 0.000000e+00 0.000000e+00 0.000000e+00 0.000000e+00 0.000000e+00 0.000000e+00 0.000000e+00 5.000000e-01 5.000000e-01 0.000000e+00
 0.000000e+00 0.000000e+00 0.000000e+00 0.000000e+00 0.000000e+00 0.000000e+00 0.000000e+00 0.000000e+00 0.000000e+00 0.000000e+00 0.000000e+00 0.000000e+00 0.000000e+00 0.000000e+00 0.000000e+00 0.000000e+00 0.000000e+00 0.000000e+00 0.000000e+00 0.000000e+00 0.000000e+00 0.000000e+00 0.000000e+00 0.000000e+00 0.000000e+00 0.000000e+00 0.000000e+00 0.000000e+00 0.000000e+00 0.000000e+00 0.000000e+00 0.000000e+00 0.000000e+00 0.000000e+00 0.000000e+00 0.000000e+00 1.000000e+00
 0.000000e+00 0.000000e+00 0.000000e+00 0.000000e+00 0.000000e+00 0.000000e+00 0.000000e+00 0.000000e+00 0.000000e+00 0.000000e+00 0.000000e+00 0.000000e+00 0.000000e+00 0.000000e+00 0.000000e+00 0.000000e+00 0.000000e+00 0.000000e+00 0.000000e+00 0.000000e+00 0.000000e+00 0.000000e+00 0.000000e+00 0.000000e+00 0.000000e+00 0.000000e+00 0.000000e+00 0.000000e+00 0.000000e+00 0.000000e+00 0.000000e+00 0.000000e+00 0.000000e+00 0.000000e+00 0.000000e+00 0.000000e+00 0.000000e+00
<ENDHMM>
