~o
<STREAMINFO> 1 39
<VECSIZE> 39<NULLD><MFCC_E_D_A><DIAGC>
~h "Hai"
<BEGINHMM>
<NUMSTATES> 5
<STATE> 2
<MEAN> 39
 -9.518235e+00 -1.528286e+01 -6.996102e+00 -1.608901e+00 4.736120e+00 -1.873074e+00 2.144018e+00 -2.078178e+00 1.189608e+00 -8.548467e+00 5.718533e-01 -2.086273e+00 1.882207e-01 -8.924726e-02 -4.443703e-01 -9.265087e-01 2.681665e-01 -2.266831e-01 1.747463e-01 5.003933e-03 -2.448907e-01 2.743974e-01 -5.668249e-01 -8.119759e-02 -1.145474e-01 2.879572e-02 4.115415e-02 -1.752541e-02 -5.850088e-02 2.698630e-02 -2.094912e-02 5.125138e-02 1.986779e-02 1.159682e-02 7.861467e-02 3.722925e-02 5.472799e-02 1.884487e-02 2.181213e-03
<VARIANCE> 39
 3.066830e+01 3.441207e+01 5.482360e+01 1.591740e+01 2.235918e+01 4.409785e+01 2.004499e+01 2.273216e+01 1.403405e+01 4.611525e+01 1.395512e+01 1.375869e+01 6.800959e-02 2.440054e+00 1.874289e+00 3.813088e+00 1.659791e+00 1.681977e+00 2.028972e+00 1.224535e+00 2.337661e+00 1.813054e+00 2.023224e+00 1.618914e+00 1.080834e+00 1.000000e-02 4.162195e-01 3.396908e-01 5.139727e-01 3.056759e-01 2.776185e-01 3.102189e-01 2.391008e-01 4.737044e-01 3.148000e-01 4.497751e-01 2.988070e-01 2.051800e-01 1.000000e-02
<GCONST> 9.257753e+01
<STATE> 3
<MEAN> 39
 -1.077493e+01 -2.348299e+01 -1.922688e+01 1.871830e+00 -1.573572e+00 1.267750e+00 3.886093e+00 -2.313905e+00 3.279235e+00 -1.728681e+01 2.468464e+00 -4.943377e+00 9.367791e-01 -1.507273e-01 -4.841963e-02 6.721538e-01 -6.742705e-01 -4.676430e-01 -2.207886e-01 4.587446e-01 4.909635e-01 -3.139513e-01 5.961868e-01 -7.437287e-02 -4.622848e-01 2.226386e-03 -1.038083e-02 3.521337e-02 1.539239e-01 -1.326873e-01 -6.478763e-02 -9.220821e-02 -9.792401e-03 3.846027e-03 -6.442940e-03 1.021407e-01 -1.090924e-01 -2.137592e-02 -4.774778e-03
<VARIANCE> 39
 9.674295e+00 6.066150e+00 2.935802e+01 1.807701e+01 2.833380e+01 5.966014e+01 4.853432e+01 1.653266e+01 4.357161e+01 2.538652e+01 1.628556e+01 3.233923e+01 1.000000e-02 2.716688e-01 6.725607e-01 1.022521e+00 1.400128e+00 2.005694e+00 1.721609e+00 1.190498e+00 8.310456e-01 2.429805e+00 1.869998e+00 1.226661e+00 1.015373e+00 1.000000e-02 9.590345e-02 9.085413e-02 2.767321e-01 2.816028e-01 2.115003e-01 2.375721e-01 1.760236e-01 1.589884e-01 4.247136e-01 2.799698e-01 1.771510e-01 1.739846e-01 1.000000e-02
<GCONST> 7.775375e+01
<STATE> 4
<MEAN> 39
 -3.064035e+00 -2.158634e+01 -5.074115e+00 -4.049779e+00 -6.244174e+00 -4.663706e+00 6.396126e+00 -7.084256e-01 6.084165e-01 -5.549542e+00 -2.128135e+00 -3.373136e+00 3.843180e-01 1.924565e-01 3.270181e-01 3.141745e-01 2.463622e-01 4.542969e-01 -2.146173e-03 -2.553053e-01 -9.500213e-02 -3.461140e-02 1.374561e-01 5.919258e-02 4.409097e-01 -2.973544e-02 -2.651352e-02 5.745817e-03 -5.084589e-02 7.295921e-02 6.432893e-02 2.567532e-02 -2.492395e-02 -1.432111e-02 -5.513223e-02 -7.009099e-02 6.076114e-02 3.371519e-02 6.277240e-04
<VARIANCE> 39
 2.026488e+01 2.751852e+01 2.482458e+01 4.799075e+01 4.269006e+01 1.900253e+01 1.936503e+01 1.553532e+01 1.383479e+01 1.565765e+01 2.672664e+01 3.703337e+01 7.131852e-02 1.179454e+00 1.069424e+00 2.079602e+00 2.745660e+00 1.733962e+00 2.109582e+00 1.694780e+00 1.597211e+00 1.826992e+00 1.875193e+00 2.450882e+00 2.082892e+00 1.000000e-02 1.283970e-01 1.383487e-01 2.890486e-01 4.390551e-01 3.573797e-01 4.232605e-01 3.477516e-01 3.036516e-01 3.697239e-01 3.202230e-01 4.319053e-01 4.525605e-01 1.000000e-02
<GCONST> 9.104443e+01
<TRANSP> 5
 0.000000e+00 1.000000e+00 0.000000e+00 0.000000e+00 0.000000e+00
 0.000000e+00 9.629630e-01 3.703703e-02 0.000000e+00 0.000000e+00
 0.000000e+00 0.000000e+00 9.489796e-01 5.102041e-02 0.000000e+00
 0.000000e+00 0.000000e+00 0.000000e+00 9.647887e-01 3.521127e-02
 0.000000e+00 0.000000e+00 0.000000e+00 0.000000e+00 0.000000e+00
<ENDHMM>
