~o
<STREAMINFO> 1 39
<VECSIZE> 39<NULLD><MFCC_E_D_A><DIAGC>
~h "Kho^ng"
<BEGINHMM>
<NUMSTATES> 26
<STATE> 2
<MEAN> 39
 -7.146408e+00 -9.327303e+00 -2.415685e+00 -2.197659e+00 2.410289e+00 -5.881065e+00 1.293386e+00 5.039522e-02 2.139028e+00 -4.713931e-01 4.073572e-01 -2.260868e+00 -1.191196e-01 -2.190246e-02 -3.283629e-01 -6.755142e-01 -3.641264e-01 9.189333e-01 -5.750567e-01 -1.355842e-01 6.473577e-01 4.824828e-01 7.412180e-01 -7.797852e-01 5.242560e-02 1.108804e-02 6.615762e-02 -8.852217e-02 -1.905550e-01 -9.171684e-02 3.485571e-01 -1.219086e-01 -1.050939e-01 -2.758660e-02 -7.755166e-02 -9.212062e-03 -2.533274e-01 2.710729e-02 9.829454e-03
<VARIANCE> 39
 3.689340e+00 5.788397e+00 7.336950e+00 1.020831e+01 1.289163e+01 7.698974e+00 1.754481e+01 8.540448e+00 1.778745e+01 1.365109e+01 1.241537e+01 8.652852e+00 1.000000e-02 6.190152e-01 6.754932e-01 8.819792e-01 1.165407e+00 3.322536e+00 1.252244e+00 2.243297e+00 1.492916e+00 2.487106e+00 1.710039e+00 2.697541e+00 8.293617e-01 1.000000e-02 1.492571e-01 1.312914e-01 1.510620e-01 2.472318e-01 6.444975e-01 3.324331e-01 6.021135e-01 1.655772e-01 5.107131e-01 2.652696e-01 4.323133e-01 1.763911e-01 1.000000e-02
<GCONST> 7.341951e+01
<STATE> 3
<MEAN> 39
 -6.102281e+00 -1.278824e+01 -8.914380e+00 -3.723706e+00 9.150023e+00 -1.020146e+01 -7.712973e-01 2.416713e+00 2.962309e+00 2.086297e+00 -7.340703e+00 -1.538152e+00 9.138530e-02 5.507611e-01 -1.391466e+00 -2.566717e+00 -6.731943e-01 1.711095e+00 -1.627503e+00 -4.450201e-01 6.555228e-01 8.235278e-01 5.254757e-01 -1.326217e+00 -2.753538e-01 8.813255e-02 8.646749e-02 -5.436512e-02 -1.734531e-02 -9.669492e-04 -2.485378e-01 9.105542e-02 1.225195e-01 -9.211349e-03 2.455969e-01 -2.077598e-01 7.719173e-01 1.055481e-01 4.193288e-03
<VARIANCE> 39
 1.173300e+01 3.945965e+00 1.189258e+01 6.024956e+00 1.203410e+01 2.600482e+01 1.128174e+01 1.559672e+01 5.180983e+00 8.948462e+00 1.055951e+01 5.520638e+00 2.793934e-02 1.341551e+00 8.547256e-01 8.828376e-01 7.219891e-01 1.174866e+00 2.983643e+00 3.056476e+00 6.658491e-01 1.486478e+00 8.543535e-01 2.436099e+00 3.882892e-01 1.000000e-02 2.380827e-01 2.147757e-01 1.494534e-01 6.645234e-02 2.338738e-01 3.424902e-01 1.310253e-01 2.143198e-01 2.572867e-01 1.362323e-01 1.915229e-01 1.028298e-01 1.000000e-02
<GCONST> 6.668825e+01
<STATE> 4
<MEAN> 39
 -4.285048e+00 -1.680951e+01 -1.596982e+01 -5.916125e+00 1.305105e+01 -1.460700e+01 -1.060672e+00 4.603161e+00 6.341350e+00 2.890924e+00 -6.254192e+00 -1.453134e+00 3.063160e-01 4.854585e-02 -5.609033e-01 -9.944508e-01 -8.815042e-01 7.249448e-01 -7.305818e-01 -1.296240e-01 9.426179e-01 7.562199e-01 6.017516e-02 2.064598e-01 5.374895e-01 4.175647e-02 -1.530027e-01 4.460109e-01 6.113871e-01 -7.232866e-04 -4.049557e-01 4.074484e-01 3.239209e-01 -1.696921e-01 -5.688398e-01 -1.786080e-02 -2.753072e-01 1.840154e-02 -1.430054e-02
<VARIANCE> 39
 7.310615e+00 1.922862e+01 1.970106e+01 7.156465e+00 1.353579e+01 7.445154e+01 4.928034e+01 1.562736e+01 2.130112e+01 1.207180e+01 1.576347e+01 4.451850e+00 4.276928e-02 9.765861e-01 1.918413e+00 1.776626e+00 1.068206e+00 7.733002e-01 2.581903e+00 1.251055e+00 9.195361e-01 1.544547e+00 3.366514e-01 1.283679e+00 4.058686e-01 1.000000e-02 1.573639e-01 4.151094e-01 2.896340e-01 2.243536e-01 1.803823e-01 5.746089e-01 3.958122e-01 1.781904e-01 2.704196e-01 1.325605e-01 6.749640e-01 1.518512e-01 1.000000e-02
<GCONST> 7.737913e+01
<STATE> 5
<MEAN> 39
 -4.950868e+00 -1.601096e+01 -1.511936e+01 -7.629637e+00 1.220238e+01 -1.387624e+01 -6.081994e-01 5.160304e+00 5.977122e+00 2.544990e+00 -7.601974e+00 -8.018531e-01 3.295961e-01 -1.126579e-02 1.803503e-01 -3.381766e-01 -3.499147e-01 5.225235e-01 1.782964e-01 1.184249e+00 -2.634040e-01 -1.698333e+00 1.955478e-01 -1.800668e+00 -1.758101e-01 3.670852e-02 -4.992593e-02 -6.405174e-02 -2.412584e-02 1.670016e-02 3.247892e-03 2.640594e-01 1.427071e-01 -5.946162e-01 -4.084677e-01 -6.035856e-02 -3.059738e-01 -3.725683e-01 8.366667e-03
<VARIANCE> 39
 7.603645e+00 8.645956e+00 2.304135e+01 1.143980e+01 9.314524e+00 4.312479e+01 2.757055e+01 1.364842e+01 1.538478e+01 1.366806e+01 1.502122e+01 2.348580e+00 3.758914e-02 3.702639e-01 1.633924e+00 2.461450e+00 7.872488e-01 1.373879e+00 2.999220e+00 1.589805e+00 1.753698e+00 9.411184e-01 6.635124e-01 4.376950e+00 1.051789e+00 1.000000e-02 1.871247e-01 1.767724e-01 3.672875e-01 1.121657e-01 1.098910e-01 3.488448e-01 1.686958e-01 4.665871e-01 3.884548e-01 1.759905e-01 3.457607e-01 3.801048e-01 1.000000e-02
<GCONST> 7.632609e+01
<STATE> 6
<MEAN> 39
 -4.907503e+00 -1.577925e+01 -1.603254e+01 -8.399570e+00 1.751421e+01 -1.419148e+01 4.378384e+00 5.350680e+00 -4.149020e-01 3.820138e+00 -1.207810e+01 -1.692302e+00 4.091883e-01 -1.297051e-01 -8.950569e-01 -7.239132e-01 -1.470566e+00 -2.191780e-01 4.440509e-01 7.731739e-01 -9.573520e-01 -6.808518e-01 -7.931865e-02 -1.563767e+00 -8.189939e-01 7.004137e-02 -3.835806e-02 -3.083210e-01 3.051898e-01 -1.723213e-01 -6.051844e-01 4.108442e-01 -9.668308e-02 -5.569884e-01 6.528462e-01 -2.818027e-01 6.828282e-01 -5.327746e-01 6.728116e-03
<VARIANCE> 39
 8.072334e+00 1.192457e+01 5.853736e+00 1.528916e+01 1.599560e+01 2.056365e+01 1.685877e+01 6.646510e+00 2.204063e+01 1.172853e+01 4.511686e+01 1.183997e+01 1.484035e-02 8.558093e-01 1.891939e+00 1.321648e+00 4.210602e+00 1.095005e+00 3.987213e+00 8.888304e-01 3.917876e+00 1.092866e+00 1.273264e+00 9.576018e-01 3.630817e+00 1.000000e-02 6.900875e-02 6.991072e-01 5.554901e-01 2.655096e-01 4.446872e-01 2.091650e-01 1.800954e-01 2.868526e-01 1.575489e-01 1.700393e-01 6.916265e-01 6.038949e-02 1.000000e-02
<GCONST> 7.908569e+01
<STATE> 7
<MEAN> 39
 -6.969809e+00 -1.724389e+01 -1.550960e+01 -1.000366e+01 9.790179e+00 -8.070168e+00 -1.077794e+00 1.902124e+00 5.687149e+00 2.057379e+00 -1.224009e+01 -2.794645e+00 5.342190e-01 4.182690e-01 -1.130353e-01 8.755228e-02 -1.136553e+00 -8.969774e-01 3.649984e-01 1.548845e+00 -2.532143e+00 -1.517058e-01 -1.026786e+00 1.138538e+00 -2.442096e+00 6.842732e-02 4.820644e-02 -1.179070e-01 -3.231062e-01 -2.363737e-03 1.695857e-01 2.899017e-02 5.042078e-01 -4.682287e-01 -2.307666e-01 -6.829959e-02 7.784482e-01 -5.681992e-01 1.446053e-02
<VARIANCE> 39
 1.719854e+01 6.455995e+00 9.283013e+00 4.317378e+01 8.109951e+00 3.131131e+01 6.816114e+01 2.973621e+01 2.110401e+01 1.289480e+01 2.636304e+01 3.372496e+01 2.412974e-02 1.398802e+00 1.671446e+00 1.662516e+00 2.934814e+00 2.097619e+00 1.331122e+00 3.982718e+00 3.135827e+00 2.007078e+00 1.352568e+00 1.709047e+00 3.688702e+00 1.000000e-02 3.972647e-01 1.482773e-01 5.118612e-01 4.317803e-01 2.846170e-01 6.051964e-01 5.485314e-01 3.792478e-01 2.405317e-01 3.206178e-01 6.432984e-01 5.298092e-01 1.000000e-02
<GCONST> 9.251043e+01
<STATE> 8
<MEAN> 39
 -4.780294e+00 -1.949465e+01 -1.979748e+01 -1.307669e+01 1.097677e+01 -9.757575e+00 1.156628e+01 -8.744040e+00 1.318158e+00 -2.043941e+00 -5.314530e+00 -1.378897e+01 8.481867e-01 -9.142253e-01 -1.045533e+00 -9.899128e-01 3.134865e-01 4.020486e-01 2.325709e+00 1.866721e+00 -1.893925e+00 -6.674643e-01 4.749747e-02 3.045730e+00 -2.078624e+00 8.784974e-02 -3.021869e-01 1.843206e-01 2.555271e-01 4.808950e-01 2.361726e-01 5.048269e-01 -8.215316e-01 7.004258e-01 -2.386042e-02 6.555909e-01 -1.573932e-01 1.007762e+00 -2.056444e-02
<VARIANCE> 39
 7.781301e+00 1.200685e+01 2.969596e+01 8.440423e+01 2.881494e+01 2.151791e+01 1.347260e+01 2.196126e+01 2.482645e+01 1.440922e+01 2.074937e+01 2.129388e+01 1.000000e-02 4.539032e-01 6.324919e-01 4.363271e+00 2.572403e+00 1.120091e+00 1.238920e+00 1.236257e+00 1.791605e+00 6.482948e-01 1.436959e+00 1.735979e+00 1.077097e+00 1.000000e-02 1.457632e-01 4.333340e-01 4.142360e-01 8.186016e-01 2.776626e-01 2.516177e-01 3.043890e-01 3.381237e-01 3.097354e-01 1.452474e-01 4.494401e-01 8.320460e-02 1.000000e-02
<GCONST> 8.199784e+01
<STATE> 9
<MEAN> 39
 -6.474612e+00 -2.103868e+01 -1.882466e+01 -1.340729e+01 1.340149e+01 -1.630673e+00 1.074324e+01 -1.200498e+01 -2.468034e+00 2.238117e+00 -5.346611e-01 -1.592507e+01 9.781159e-01 -1.762011e-01 6.459689e-02 -3.563330e-01 9.114090e-03 -1.508830e-01 2.735608e+00 -1.154057e+00 -1.513311e+00 -3.470924e-01 5.897102e-01 3.768319e-01 1.142037e-01 1.835745e-02 2.378332e-01 1.485750e-01 6.140151e-02 -3.839109e-01 -2.054823e-01 -1.003683e-01 -4.557947e-01 2.952490e-01 2.369468e-01 -3.688273e-01 -5.072555e-01 4.028096e-01 -1.683021e-02
<VARIANCE> 39
 8.283327e+00 5.305873e+00 2.647824e+01 5.461381e+01 1.681163e+01 1.395579e+01 1.405627e+01 1.807422e+01 2.214848e+01 3.196420e+01 7.826203e+00 3.861164e+00 1.000000e-02 2.844565e-01 6.801539e-01 1.110785e+00 6.617860e-01 4.946133e-01 6.508792e-01 2.644273e-01 8.727449e-01 9.916635e-01 1.042419e+00 3.955428e-01 2.948775e-01 1.000000e-02 4.336743e-02 5.659126e-02 2.777969e-01 1.413794e-01 8.021004e-02 1.007545e-01 2.154196e-01 6.696686e-02 1.266876e-01 2.267698e-01 1.406972e-01 1.007348e-01 1.000000e-02
<GCONST> 5.711183e+01
<STATE> 10
<MEAN> 39
 -6.934015e+00 -2.056214e+01 -2.051345e+01 -1.455685e+01 1.073093e+01 4.842981e+00 7.021397e+00 -1.368198e+01 3.045872e-02 1.850006e+00 -1.204695e+00 -1.220965e+01 9.725381e-01 1.886011e-01 1.127220e-01 5.233033e-01 -1.430573e+00 -1.143087e-01 1.835485e+00 -6.099736e-01 -1.388606e-01 -9.931670e-02 -1.015522e+00 3.914496e-02 1.059103e+00 -1.145017e-02 1.938493e-01 1.262776e-01 3.315320e-01 -2.836347e-01 -7.623871e-02 -2.101201e-01 2.245601e-01 5.378649e-01 -2.577124e-01 -5.339597e-01 -7.604831e-02 2.472566e-01 -7.595429e-03
<VARIANCE> 39
 1.048662e+01 8.141880e+00 1.100347e+01 4.403312e+01 5.828808e+00 2.758811e+01 1.009130e+01 1.386922e+01 2.764534e+01 1.699157e+01 6.167275e+00 2.459286e+01 1.000000e-02 2.247091e-01 5.353403e-01 6.204591e-01 4.293854e-01 1.112427e+00 5.026367e-01 7.353249e-01 5.142710e-01 8.956167e-01 2.046579e+00 7.894443e-01 2.831080e-01 1.000000e-02 1.484260e-02 9.599310e-02 8.576952e-02 9.377556e-02 6.747872e-02 1.088938e-01 6.520651e-02 2.753343e-01 2.316381e-01 9.308326e-02 1.494996e-01 1.029454e-01 1.000000e-02
<GCONST> 5.547985e+01
<STATE> 11
<MEAN> 39
 -5.633663e+00 -1.968961e+01 -1.549257e+01 -2.118163e+01 9.665749e+00 9.477964e+00 6.925863e+00 -1.261053e+01 -3.483997e+00 -6.433651e+00 -1.983580e+00 -1.047248e+01 8.999961e-01 9.335319e-01 -5.131910e-01 1.111433e+00 -1.845673e+00 -9.752489e-01 9.029278e-01 -4.125410e-01 2.247199e+00 -1.390265e+00 -9.250061e-01 -5.720093e-01 9.472529e-01 -2.104723e-02 3.348680e-01 -1.461881e-01 -8.576688e-02 3.446376e-01 -4.578265e-01 -5.768119e-01 -2.843959e-01 3.931208e-01 2.359502e-01 6.923426e-01 -1.172137e-01 -3.656879e-01 -1.114823e-03
<VARIANCE> 39
 1.445797e+01 8.960152e+00 2.241890e+01 3.561033e+01 4.944705e+00 7.892015e+00 1.115866e+01 8.644345e+00 4.321367e+01 3.053079e+01 6.264694e+00 1.465341e+01 1.000000e-02 3.257970e-01 6.695985e-01 2.631222e-01 1.834314e+00 7.278798e-01 1.010950e+00 6.456888e-01 1.366283e+00 1.622835e-01 4.003266e+00 2.736084e+00 8.379178e-01 1.000000e-02 4.150286e-02 8.435965e-02 8.916172e-02 2.584205e-01 5.695032e-02 2.916708e-01 2.393443e-01 3.695485e-01 5.120127e-01 4.320375e-01 1.894036e-01 8.023892e-02 1.000000e-02
<GCONST> 6.541790e+01
<STATE> 12
<MEAN> 39
 2.047404e-01 -2.194975e+01 -1.439136e+01 -2.173909e+01 3.666981e+00 7.962229e+00 2.364724e+00 -3.489463e+00 -6.427680e+00 -2.688890e+00 -5.758176e+00 -1.154997e+01 8.384612e-01 1.382898e+00 6.180498e-01 7.614615e-01 8.951166e-01 -2.406922e+00 -2.080831e+00 -2.227006e+00 8.045797e-01 1.567005e+00 8.999809e-01 6.060508e-02 -1.442559e-01 -3.850636e-02 7.161832e-02 2.322933e-01 2.402976e-01 7.192720e-01 1.641519e-01 -5.792515e-01 -1.539308e-01 -1.143684e+00 3.599710e-01 1.086958e-01 4.989099e-01 7.375909e-02 -7.393980e-03
<VARIANCE> 39
 2.384967e+01 6.621925e+00 1.699382e+01 1.541289e+01 4.141608e+01 3.147731e+01 1.061794e+01 2.240876e+01 3.602210e+01 8.588023e+00 2.319341e+01 1.946319e+01 1.000000e-02 5.984023e-01 6.481822e-01 8.645585e-01 3.974108e+00 2.933155e+00 6.177913e+00 1.603908e+00 6.686272e+00 4.444045e+00 3.623048e+00 2.445621e+00 1.245017e+00 1.000000e-02 9.693774e-02 1.257955e-01 1.137558e-01 3.541759e-01 6.968980e-01 8.049531e-01 2.506489e-01 9.607164e-01 1.005199e+00 5.096985e-01 6.101595e-01 2.365913e-01 1.000000e-02
<GCONST> 9.020828e+01
<STATE> 13
<MEAN> 39
 3.080732e+00 -1.895934e+01 -1.088863e+01 -1.600343e+01 4.996136e-01 1.509214e+00 -2.738853e+00 -9.880976e+00 -3.718781e+00 -1.966790e-01 -2.117519e+00 -1.032492e+01 7.116010e-01 1.240269e+00 3.275496e-01 7.630207e-01 8.194892e-01 -4.003758e-01 -3.989287e-01 -3.822978e-01 -1.015986e+00 -7.381679e-01 -7.995605e-01 4.340478e-01 5.754657e-01 -3.392178e-02 1.635740e-02 -2.385952e-01 -3.326647e-01 -1.242768e-01 1.194893e-01 3.876385e-01 4.081203e-01 4.175698e-01 -7.673854e-02 -4.958863e-01 -4.678594e-01 -8.873536e-02 5.045439e-03
<VARIANCE> 39
 3.648222e+01 2.188611e+00 2.861135e+01 4.758434e+01 4.859546e+01 6.676686e+01 5.058051e+01 1.768294e+01 1.339068e+01 1.109966e+01 1.947406e+01 1.814898e+01 1.804765e-02 6.457339e-01 6.013739e-01 1.762512e+00 2.885411e+00 1.828405e+00 1.011951e+00 2.883330e+00 6.038121e+00 3.020905e+00 1.538963e+00 9.513099e-01 7.743940e-01 1.000000e-02 1.826879e-01 1.667304e-01 5.008048e-01 3.986937e-01 5.598302e-01 6.877018e-01 8.744436e-01 8.561080e-01 1.137426e+00 6.136036e-01 2.005620e-01 1.637460e-01 1.000000e-02
<GCONST> 9.106033e+01
<STATE> 14
<MEAN> 39
 7.811695e-01 -1.965507e+01 -1.422246e+01 -2.131347e+01 3.907973e+00 7.089338e+00 1.226443e+00 -7.378801e+00 -2.254107e+00 -4.423599e+00 -1.883155e+00 -7.748333e+00 7.689614e-01 1.952936e+00 -6.997581e-01 1.302787e+00 2.293504e-01 -1.800719e+00 -7.076912e-01 -1.288091e+00 9.209913e-01 1.111060e+00 -4.988801e-01 -9.094080e-01 -6.978109e-02 -3.620375e-02 -8.766158e-02 -1.160075e-01 1.812475e-01 6.530199e-01 -3.596807e-01 -4.432105e-01 -6.466888e-01 -4.918174e-01 6.387210e-01 2.433802e-01 -1.278364e-01 -1.283203e-05 -6.851145e-03
<VARIANCE> 39
 3.269938e+01 4.840824e+00 2.041571e+01 5.252758e+01 5.452420e+01 6.273877e+01 1.282516e+01 3.210353e+01 3.375600e+01 1.928644e+00 1.733165e+01 1.666146e+01 1.403688e-02 8.503610e-01 9.624897e-01 4.032749e+00 2.569596e+00 3.456566e+00 6.651192e-01 3.261137e+00 1.626386e+00 1.570151e+00 8.644080e-01 1.690013e+00 1.073918e+00 1.000000e-02 1.402251e-01 1.936851e-01 3.357642e-01 3.475232e-01 4.924293e-01 1.516394e-01 4.588496e-01 1.001076e+00 5.545785e-01 1.051041e-01 1.153852e-01 5.390085e-02 1.000000e-02
<GCONST> 8.273342e+01
<STATE> 15
<MEAN> 39
 4.880246e+00 -2.171445e+01 -9.737231e+00 -1.771308e+01 -7.529543e-01 4.001399e+00 -4.312815e+00 -7.945212e+00 1.691144e+00 -4.418372e+00 -2.133297e+00 -7.578147e+00 6.494887e-01 8.981577e-01 1.170782e-01 1.272364e+00 2.142746e+00 -1.643177e+00 -1.428514e+00 -2.777181e+00 -1.566675e+00 1.362159e+00 -4.636081e-01 -1.391265e-01 3.690607e-01 -5.304204e-02 -5.173477e-01 4.371507e-01 -3.908347e-01 1.809563e-01 5.826203e-01 -4.076617e-02 -2.170188e-02 -3.603897e-01 -3.855527e-01 -3.429208e-02 4.076859e-02 -8.957661e-02 1.747025e-03
<VARIANCE> 39
 1.116075e+01 1.044702e+01 7.213792e+00 7.267315e+01 1.722717e+01 4.359134e+01 2.323637e+01 2.944519e+01 2.335191e+01 7.346761e+00 6.287665e+00 1.604231e+01 1.000000e-02 5.700971e-01 1.020261e+00 2.597018e+00 1.479280e+00 3.059780e+00 1.769299e+00 5.708332e+00 2.946037e+00 1.801439e+00 4.687104e-01 3.965342e-01 2.043883e-01 1.000000e-02 4.961496e-02 1.399848e-01 3.411143e-01 5.502077e-01 5.624713e-01 1.727497e-01 5.769997e-01 7.409828e-01 3.538859e-01 1.106863e-01 8.916838e-02 8.137005e-02 1.000000e-02
<GCONST> 7.643465e+01
<STATE> 16
<MEAN> 39
 5.954952e+00 -1.779613e+01 -1.069761e+01 -1.206498e+01 -1.097975e+00 -9.729158e-01 -5.680239e+00 -9.386475e+00 -3.603429e-01 -6.653322e+00 -5.004548e+00 -9.000716e+00 5.451108e-01 -1.408303e-01 7.130330e-01 -6.692143e-01 7.266161e-01 6.257225e-01 -6.842877e-01 3.545928e-01 3.302395e-01 -4.406087e-01 -4.602385e-01 -9.487897e-01 -7.246916e-01 -2.454230e-02 -1.509536e-01 -4.138593e-02 -1.291840e-01 -1.398573e-01 2.696929e-01 2.290732e-01 4.795300e-01 1.312226e-01 -2.169300e-01 2.643793e-01 1.827095e-02 -1.192479e-01 1.986715e-03
<VARIANCE> 39
 8.478639e+00 8.048691e+00 1.825877e+01 1.994333e+01 2.261694e+01 1.691036e+01 3.729747e+01 1.284627e+01 2.707600e+01 1.593058e+01 3.203403e+01 3.176935e+01 1.000000e-02 2.380729e-01 3.162039e-01 8.818102e-01 9.255748e-01 1.377606e+00 1.532645e+00 3.698713e+00 2.822190e+00 4.378363e-01 2.211260e+00 1.114799e+00 1.334240e+00 1.000000e-02 2.791355e-02 6.701675e-02 2.459066e-01 2.208286e-01 4.166575e-01 2.625963e-01 8.182122e-01 7.044494e-01 2.144739e-01 4.248856e-01 6.710950e-01 4.498624e-01 1.000000e-02
<GCONST> 7.820958e+01
<STATE> 17
<MEAN> 39
 5.160136e+00 -1.756957e+01 -1.043847e+01 -1.045526e+01 1.617527e+00 2.547819e-01 -8.767268e+00 -1.165724e+01 -7.899365e-01 -5.541779e+00 -6.787339e+00 -1.187746e+01 4.756825e-01 -1.739116e-01 3.937888e-01 -5.916740e-01 6.107250e-01 6.603885e-01 3.578388e-01 1.415868e+00 -1.201146e-01 -4.459930e-01 4.789374e-01 -7.191978e-03 2.972575e-01 -2.803692e-02 -1.168004e-02 -1.594439e-01 -2.164061e-01 -1.464744e-01 -1.895056e-01 6.125462e-02 6.638259e-01 3.808894e-01 -6.106526e-02 -3.856992e-02 3.196698e-01 5.600896e-01 -1.236165e-03
<VARIANCE> 39
 3.570153e+00 1.140289e+01 1.539309e+01 2.758080e+01 1.456728e+01 2.180625e+01 7.150827e+01 3.828172e+01 4.813752e+01 5.915039e+00 1.091273e+01 1.146664e+01 1.000000e-02 7.225887e-01 5.634716e-01 5.077191e-01 5.546786e-01 2.902711e+00 1.080181e+00 2.405488e+00 2.025072e+00 1.824621e+00 5.005646e-01 4.731339e+00 2.978657e+00 1.000000e-02 1.392977e-02 1.139660e-01 5.885283e-02 1.901406e-01 4.162042e-01 2.572399e-01 7.674541e-01 9.126472e-01 6.646650e-01 1.668696e-01 2.003577e-01 1.750857e-01 1.000000e-02
<GCONST> 7.581348e+01
<STATE> 18
<MEAN> 39
 4.002222e+00 -1.697052e+01 -1.447509e+01 -8.794418e+00 1.608016e+00 -2.817844e-01 1.563818e+00 -9.056680e+00 -2.499575e+00 -4.448689e+00 -5.674027e+00 -8.563240e+00 3.909917e-01 -1.851672e-01 3.521386e-02 -3.743809e-01 5.077991e-01 7.818277e-01 5.841907e-01 7.615182e-01 1.318313e-01 -6.344587e-01 9.242298e-02 8.481830e-01 5.181004e-01 -2.282398e-02 -2.350751e-02 9.597547e-02 2.178858e-01 -9.230582e-02 2.583772e-01 2.573983e-02 -6.584647e-01 -1.058638e-01 -1.842035e-02 -1.478236e-01 2.453094e-01 -9.051545e-02 2.324273e-03
<VARIANCE> 39
 3.070401e+00 2.932382e+00 8.889077e+00 1.044034e+01 1.270397e+01 1.539217e+01 1.447442e+01 2.711414e+01 1.872685e+01 9.506289e+00 1.661931e+01 4.461810e+00 1.363194e-02 2.178620e-01 7.477395e-01 5.188379e-01 1.702460e+00 1.598251e+00 1.642991e+00 1.819058e+00 4.460242e+00 3.405048e+00 1.337822e+00 2.704199e+00 1.323636e+00 1.000000e-02 4.890152e-02 6.710234e-02 6.129535e-02 2.180385e-01 3.440021e-01 3.388580e-01 1.118808e-01 6.751161e-01 3.367668e-01 1.598380e-01 6.538371e-01 3.565322e-01 1.000000e-02
<GCONST> 7.040236e+01
<STATE> 19
<MEAN> 39
 3.681851e+00 -1.536369e+01 -1.362198e+01 -8.539259e+00 5.518049e+00 1.232859e+00 -2.121893e+00 -9.272427e+00 -4.509944e+00 -6.546478e+00 -2.502467e+00 -8.006025e+00 3.346173e-01 -8.237026e-01 2.053193e-01 -1.772625e-01 7.967535e-02 7.489544e-01 -2.523634e-01 -6.094008e-01 6.197488e-01 -2.171514e-02 5.822368e-01 1.663534e+00 4.844470e-01 -3.218632e-02 -2.338153e-01 -1.597885e-01 6.769685e-02 -7.463516e-02 -3.838486e-01 -6.737920e-03 1.813445e-01 2.037907e-01 4.694928e-01 4.684734e-01 4.534214e-02 4.925790e-02 -3.260977e-03
<VARIANCE> 39
 4.405592e+00 2.631315e+00 2.306949e+00 5.012803e+00 4.590966e+00 4.373073e+00 1.298359e+01 1.055633e+01 3.288239e+00 8.045317e+00 1.330500e+01 1.175537e+01 1.408620e-02 2.578204e-01 5.445035e-01 8.037511e-01 5.133916e-01 9.051098e-01 7.190247e-01 1.049874e+00 1.255516e+00 9.224087e-01 1.511634e+00 6.504666e-01 1.190973e+00 1.000000e-02 3.681371e-02 8.340582e-02 8.275957e-02 1.380896e-01 1.610368e-01 1.616088e-01 3.007708e-01 5.077447e-01 2.009697e-01 2.783430e-01 4.843875e-01 3.553313e-01 1.000000e-02
<GCONST> 5.599711e+01
<STATE> 20
<MEAN> 39
 1.190921e+00 -1.624732e+01 -1.448714e+01 -8.142534e+00 5.100273e+00 1.026505e+00 -2.968885e-01 -6.466879e+00 -2.513730e+00 -1.471625e+00 3.251332e+00 -5.773026e+00 2.622015e-01 -6.201601e-01 2.506700e-01 2.749804e-01 1.069537e-01 -3.192626e-01 -1.903885e-01 3.801625e-01 3.775994e-01 3.582987e-01 6.326432e-01 6.494696e-01 6.110250e-01 -2.495887e-02 2.507116e-01 1.510390e-01 1.673802e-01 1.098263e-01 -4.255794e-02 -7.618752e-02 -5.760092e-02 -2.589720e-01 -1.077827e-01 -5.073938e-01 -7.409710e-01 -1.099505e-01 4.940637e-03
<VARIANCE> 39
 5.334613e+00 4.714439e+00 5.317009e+00 1.827701e+00 6.280098e+00 3.914931e+00 1.063938e+01 9.527385e+00 8.017041e+00 1.426787e+01 1.554195e+01 1.504835e+01 2.142810e-02 4.875665e-01 3.918717e-01 5.823677e-01 6.902144e-02 5.356759e-01 5.326284e-01 1.714590e+00 2.574250e+00 1.150434e+00 2.843513e+00 4.662572e+00 2.676827e+00 1.000000e-02 3.070172e-02 5.907693e-02 2.805613e-02 2.697574e-02 1.342159e-01 1.391828e-01 3.098418e-01 1.765490e-01 1.755920e-01 3.622687e-01 5.855704e-01 3.300346e-01 1.000000e-02
<GCONST> 5.642522e+01
<STATE> 21
<MEAN> 39
 3.776725e-01 -1.398188e+01 -1.220522e+01 -6.749848e+00 5.400207e+00 3.050997e-01 -5.131526e-01 -7.203686e+00 -2.120039e+00 -3.765054e+00 -8.533937e-01 -5.219386e+00 1.948399e-01 1.968792e-01 5.561972e-01 5.560431e-01 5.561375e-01 -1.006859e-01 -2.668884e-01 4.135422e-01 2.002521e-01 2.444067e-01 -3.564268e-01 -2.345993e-01 4.205135e-01 -5.251489e-03 9.502628e-02 -3.805332e-02 -5.430498e-02 -1.831724e-01 -1.631996e-01 -2.431358e-02 1.897856e-01 1.568754e-01 -2.800722e-02 1.343182e-02 3.407977e-01 -6.688550e-02 3.297605e-03
<VARIANCE> 39
 7.247002e+00 5.259284e+00 1.797125e+01 5.674210e+00 8.398100e+00 2.820204e+00 1.426249e+01 1.017374e+01 9.902024e+00 1.375069e+01 1.504931e+01 1.737808e+01 1.667786e-02 3.597860e-01 4.460412e-01 9.749469e-01 5.009974e-01 6.490979e-01 7.425819e-01 1.474908e+00 7.844509e-01 5.670034e-01 7.432742e-01 2.587145e+00 1.467919e+00 1.000000e-02 1.794484e-01 7.599002e-02 1.017531e-01 1.006996e-01 1.305877e-01 1.502348e-01 1.017495e-01 2.591932e-01 9.521044e-02 2.238304e-01 3.629499e-01 3.158555e-01 1.000000e-02
<GCONST> 6.014429e+01
<STATE> 22
<MEAN> 39
 5.654905e-01 -1.408082e+01 -1.143043e+01 -6.221368e+00 4.284658e+00 -1.027725e+00 -1.488938e-01 -6.109100e+00 -2.655329e+00 -2.363481e+00 3.559199e+00 -3.796309e+00 1.756395e-01 -7.840792e-01 -2.813494e-01 -1.339265e-01 -5.647058e-01 -2.868743e-01 4.972649e-01 4.030055e-01 4.911683e-01 2.159498e-01 -8.625071e-02 3.065085e-01 1.746971e-01 -2.775500e-02 -2.274697e-01 -8.947047e-02 -1.276355e-01 -1.570088e-01 5.735019e-02 1.446769e-01 -9.308618e-02 -1.070526e-01 -4.226680e-02 3.140869e-03 -4.153020e-01 -2.373658e-01 -6.800122e-03
<VARIANCE> 39
 5.325935e+00 1.638431e+01 3.443457e+01 7.236722e+00 7.713008e+00 8.033548e+00 1.496942e+01 8.989865e+00 1.733566e+01 2.150559e+01 2.143118e+01 6.636755e+00 1.262000e-02 8.028469e-01 6.409917e-01 6.363927e-01 3.981798e-01 7.090361e-01 6.128777e-01 3.764363e-01 8.829424e-01 6.758034e-01 4.176484e-01 1.179514e+00 5.341555e-01 1.000000e-02 1.579872e-01 1.532201e-01 1.753123e-01 6.915479e-02 1.034631e-01 2.183688e-01 1.111109e-01 1.038738e-01 9.477534e-02 5.826854e-02 2.341513e-01 1.198714e-01 1.000000e-02
<GCONST> 5.713204e+01
<STATE> 23
<MEAN> 39
 -1.730672e+00 -1.439281e+01 -1.272388e+01 -7.618697e+00 4.527256e+00 1.051166e+00 1.281352e+00 -5.462213e+00 -1.881666e+00 -3.202807e+00 8.202814e-01 -4.905282e+00 1.020981e-01 -5.376197e-01 6.467008e-01 6.648642e-01 -1.137591e-01 -3.931502e-01 -6.145244e-01 -1.587889e-01 -4.093979e-02 -3.126784e-01 -4.452148e-02 -4.579688e-01 -3.900005e-01 -2.770853e-02 2.794122e-02 3.598072e-01 5.149746e-01 3.649659e-01 -3.183612e-03 -3.145178e-01 -1.590882e-01 -2.920177e-02 -5.899779e-02 -4.397551e-02 1.601822e-01 2.416010e-01 -1.937921e-03
<VARIANCE> 39
 9.629901e+00 7.732497e+00 1.478079e+01 1.245050e+01 5.622794e+00 7.557378e+00 1.355825e+01 4.476696e+00 8.693231e+00 1.057293e+01 1.432759e+01 7.512618e+00 3.184970e-02 7.453710e-01 8.146606e-01 1.746978e+00 3.889650e-01 7.823143e-01 1.050541e+00 8.076183e-01 1.447067e-01 5.035749e-01 7.864447e-01 8.906189e-01 6.006745e-01 1.000000e-02 2.230492e-01 1.024253e-01 9.134346e-02 1.488507e-01 1.555993e-01 1.063969e-01 1.627291e-01 3.755134e-02 1.591219e-01 1.082072e-01 1.915144e-01 2.862266e-01 1.000000e-02
<GCONST> 5.657920e+01
<STATE> 24
<MEAN> 39
 -3.367771e+00 -1.093257e+01 -8.280251e+00 -6.833017e+00 2.703295e+00 -1.149885e+00 1.323558e+00 -4.850718e+00 -2.645720e+00 -4.606961e+00 -2.193933e-01 -4.506780e+00 6.039263e-03 -7.922454e-01 8.794855e-01 1.640034e+00 1.380588e+00 5.108854e-01 -9.659218e-02 -2.154316e-01 1.951202e-01 3.845930e-01 -5.387878e-02 2.677895e-01 1.002717e+00 -3.659168e-02 -5.854683e-03 -1.458156e-01 -6.990431e-02 1.350275e-01 2.080307e-01 9.802844e-02 1.515851e-03 3.929894e-02 4.335486e-01 3.277210e-01 3.075915e-01 2.227846e-01 4.219895e-03
<VARIANCE> 39
 4.006283e+00 2.886387e+00 8.105199e+00 9.053729e+00 9.406185e+00 6.337719e+00 4.330435e+00 5.648808e+00 1.222814e+01 9.123365e+00 1.438445e+01 8.967028e+00 1.985665e-02 5.597023e-01 6.701052e-01 9.063054e-01 7.108588e-01 4.604200e-01 4.060374e-01 6.088203e-01 9.359919e-02 9.585385e-01 6.533226e-01 1.805730e+00 1.345466e+00 1.000000e-02 7.554526e-02 2.444489e-02 1.122825e-01 1.711443e-01 1.447794e-01 1.131394e-01 1.517621e-01 1.710021e-02 1.271055e-01 2.130768e-01 2.226622e-01 2.333388e-01 1.000000e-02
<GCONST> 4.972959e+01
<STATE> 25
<MEAN> 39
 -5.032720e+00 -9.566419e+00 -5.346030e+00 -3.527472e+00 4.215752e+00 -1.798350e+00 -3.533624e-01 -4.808102e+00 7.844496e-01 -2.652963e+00 3.132063e+00 -1.106172e+00 -5.392265e-02 -4.936975e-01 3.842684e-01 9.262784e-01 4.184140e-01 -7.513610e-02 -6.793849e-01 4.980507e-02 3.857584e-01 1.067554e+00 1.038809e+00 8.164604e-01 6.548361e-01 -9.063211e-03 1.111062e-01 -3.174085e-01 -3.443895e-01 -3.217410e-01 -1.307935e-01 9.510565e-02 2.097355e-01 1.024192e-01 -2.134890e-01 1.263430e-01 -1.575211e-01 -3.797369e-01 6.695037e-03
<VARIANCE> 39
 1.917220e+00 2.791882e+00 1.364822e+01 2.977398e+00 5.348838e+00 4.370211e+00 3.432301e+00 3.397701e+00 5.627460e+00 8.307822e+00 1.341303e+01 6.256091e+00 1.000000e-02 1.119840e-01 3.634153e-01 5.880497e-01 3.825763e-01 5.981660e-01 4.281148e-01 8.730040e-01 2.956943e-01 1.027094e+00 1.397559e+00 1.367921e+00 9.290754e-01 1.000000e-02 5.980780e-02 1.230258e-01 2.144352e-01 4.698994e-02 7.599732e-02 1.767316e-01 8.229814e-02 2.795617e-02 1.566141e-01 1.245017e-01 4.575132e-01 1.626442e-01 1.000000e-02
<GCONST> 4.388812e+01
<TRANSP> 26
 0.000000e+00 1.000000e+00 0.000000e+00 0.000000e+00 0.000000e+00 0.000000e+00 0.000000e+00 0.000000e+00 0.000000e+00 0.000000e+00 0.000000e+00 0.000000e+00 0.000000e+00 0.000000e+00 0.000000e+00 0.000000e+00 0.000000e+00 0.000000e+00 0.000000e+00 0.000000e+00 0.000000e+00 0.000000e+00 0.000000e+00 0.000000e+00 0.000000e+00 0.000000e+00
 0.000000e+00 8.275862e-01 1.724138e-01 0.000000e+00 0.000000e+00 0.000000e+00 0.000000e+00 0.000000e+00 0.000000e+00 0.000000e+00 0.000000e+00 0.000000e+00 0.000000e+00 0.000000e+00 0.000000e+00 0.000000e+00 0.000000e+00 0.000000e+00 0.000000e+00 0.000000e+00 0.000000e+00 0.000000e+00 0.000000e+00 0.000000e+00 0.000000e+00 0.000000e+00
 0.000000e+00 0.000000e+00 6.153846e-01 3.846154e-01 0.000000e+00 0.000000e+00 0.000000e+00 0.000000e+00 0.000000e+00 0.000000e+00 0.000000e+00 0.000000e+00 0.000000e+00 0.000000e+00 0.000000e+00 0.000000e+00 0.000000e+00 0.000000e+00 0.000000e+00 0.000000e+00 0.000000e+00 0.000000e+00 0.000000e+00 0.000000e+00 0.000000e+00 0.000000e+00
 0.000000e+00 0.000000e+00 0.000000e+00 6.153846e-01 3.846154e-01 0.000000e+00 0.000000e+00 0.000000e+00 0.000000e+00 0.000000e+00 0.000000e+00 0.000000e+00 0.000000e+00 0.000000e+00 0.000000e+00 0.000000e+00 0.000000e+00 0.000000e+00 0.000000e+00 0.000000e+00 0.000000e+00 0.000000e+00 0.000000e+00 0.000000e+00 0.000000e+00 0.000000e+00
 0.000000e+00 0.000000e+00 0.000000e+00 0.000000e+00 5.000000e-01 5.000000e-01 0.000000e+00 0.000000e+00 0.000000e+00 0.000000e+00 0.000000e+00 0.000000e+00 0.000000e+00 0.000000e+00 0.000000e+00 0.000000e+00 0.000000e+00 0.000000e+00 0.000000e+00 0.000000e+00 0.000000e+00 0.000000e+00 0.000000e+00 0.000000e+00 0.000000e+00 0.000000e+00
 0.000000e+00 0.000000e+00 0.000000e+00 0.000000e+00 0.000000e+00 4.444444e-01 5.555556e-01 0.000000e+00 0.000000e+00 0.000000e+00 0.000000e+00 0.000000e+00 0.000000e+00 0.000000e+00 0.000000e+00 0.000000e+00 0.000000e+00 0.000000e+00 0.000000e+00 0.000000e+00 0.000000e+00 0.000000e+00 0.000000e+00 0.000000e+00 0.000000e+00 0.000000e+00
 0.000000e+00 0.000000e+00 0.000000e+00 0.000000e+00 0.000000e+00 0.000000e+00 6.666667e-01 3.333333e-01 0.000000e+00 0.000000e+00 0.000000e+00 0.000000e+00 0.000000e+00 0.000000e+00 0.000000e+00 0.000000e+00 0.000000e+00 0.000000e+00 0.000000e+00 0.000000e+00 0.000000e+00 0.000000e+00 0.000000e+00 0.000000e+00 0.000000e+00 0.000000e+00
 0.000000e+00 0.000000e+00 0.000000e+00 0.000000e+00 0.000000e+00 0.000000e+00 0.000000e+00 5.833333e-01 4.166667e-01 0.000000e+00 0.000000e+00 0.000000e+00 0.000000e+00 0.000000e+00 0.000000e+00 0.000000e+00 0.000000e+00 0.000000e+00 0.000000e+00 0.000000e+00 0.000000e+00 0.000000e+00 0.000000e+00 0.000000e+00 0.000000e+00 0.000000e+00
 0.000000e+00 0.000000e+00 0.000000e+00 0.000000e+00 0.000000e+00 0.000000e+00 0.000000e+00 0.000000e+00 6.666667e-01 3.333333e-01 0.000000e+00 0.000000e+00 0.000000e+00 0.000000e+00 0.000000e+00 0.000000e+00 0.000000e+00 0.000000e+00 0.000000e+00 0.000000e+00 0.000000e+00 0.000000e+00 0.000000e+00 0.000000e+00 0.000000e+00 0.000000e+00
 0.000000e+00 0.000000e+00 0.000000e+00 0.000000e+00 0.000000e+00 0.000000e+00 0.000000e+00 0.000000e+00 0.000000e+00 6.875000e-01 3.125000e-01 0.000000e+00 0.000000e+00 0.000000e+00 0.000000e+00 0.000000e+00 0.000000e+00 0.000000e+00 0.000000e+00 0.000000e+00 0.000000e+00 0.000000e+00 0.000000e+00 0.000000e+00 0.000000e+00 0.000000e+00
 0.000000e+00 0.000000e+00 0.000000e+00 0.000000e+00 0.000000e+00 0.000000e+00 0.000000e+00 0.000000e+00 0.000000e+00 0.000000e+00 5.833333e-01 4.166667e-01 0.000000e+00 0.000000e+00 0.000000e+00 0.000000e+00 0.000000e+00 0.000000e+00 0.000000e+00 0.000000e+00 0.000000e+00 0.000000e+00 0.000000e+00 0.000000e+00 0.000000e+00 0.000000e+00
 0.000000e+00 0.000000e+00 0.000000e+00 0.000000e+00 0.000000e+00 0.000000e+00 0.000000e+00 0.000000e+00 0.000000e+00 0.000000e+00 0.000000e+00 5.000000e-01 5.000000e-01 0.000000e+00 0.000000e+00 0.000000e+00 0.000000e+00 0.000000e+00 0.000000e+00 0.000000e+00 0.000000e+00 0.000000e+00 0.000000e+00 0.000000e+00 0.000000e+00 0.000000e+00
 0.000000e+00 0.000000e+00 0.000000e+00 0.000000e+00 0.000000e+00 0.000000e+00 0.000000e+00 0.000000e+00 0.000000e+00 0.000000e+00 0.000000e+00 0.000000e+00 4.444444e-01 5.555556e-01 0.000000e+00 0.000000e+00 0.000000e+00 0.000000e+00 0.000000e+00 0.000000e+00 0.000000e+00 0.000000e+00 0.000000e+00 0.000000e+00 0.000000e+00 0.000000e+00
 0.000000e+00 0.000000e+00 0.000000e+00 0.000000e+00 0.000000e+00 0.000000e+00 0.000000e+00 0.000000e+00 0.000000e+00 0.000000e+00 0.000000e+00 0.000000e+00 0.000000e+00 2.857143e-01 7.142857e-01 0.000000e+00 0.000000e+00 0.000000e+00 0.000000e+00 0.000000e+00 0.000000e+00 0.000000e+00 0.000000e+00 0.000000e+00 0.000000e+00 0.000000e+00
 0.000000e+00 0.000000e+00 0.000000e+00 0.000000e+00 0.000000e+00 0.000000e+00 0.000000e+00 0.000000e+00 0.000000e+00 0.000000e+00 0.000000e+00 0.000000e+00 0.000000e+00 0.000000e+00 5.000000e-01 5.000000e-01 0.000000e+00 0.000000e+00 0.000000e+00 0.000000e+00 0.000000e+00 0.000000e+00 0.000000e+00 0.000000e+00 0.000000e+00 0.000000e+00
 0.000000e+00 0.000000e+00 0.000000e+00 0.000000e+00 0.000000e+00 0.000000e+00 0.000000e+00 0.000000e+00 0.000000e+00 0.000000e+00 0.000000e+00 0.000000e+00 0.000000e+00 0.000000e+00 0.000000e+00 7.500000e-01 2.500000e-01 0.000000e+00 0.000000e+00 0.000000e+00 0.000000e+00 0.000000e+00 0.000000e+00 0.000000e+00 0.000000e+00 0.000000e+00
 0.000000e+00 0.000000e+00 0.000000e+00 0.000000e+00 0.000000e+00 0.000000e+00 0.000000e+00 0.000000e+00 0.000000e+00 0.000000e+00 0.000000e+00 0.000000e+00 0.000000e+00 0.000000e+00 0.000000e+00 0.000000e+00 5.454546e-01 4.545455e-01 0.000000e+00 0.000000e+00 0.000000e+00 0.000000e+00 0.000000e+00 0.000000e+00 0.000000e+00 0.000000e+00
 0.000000e+00 0.000000e+00 0.000000e+00 0.000000e+00 0.000000e+00 0.000000e+00 0.000000e+00 0.000000e+00 0.000000e+00 0.000000e+00 0.000000e+00 0.000000e+00 0.000000e+00 0.000000e+00 0.000000e+00 0.000000e+00 0.000000e+00 6.875000e-01 3.125000e-01 0.000000e+00 0.000000e+00 0.000000e+00 0.000000e+00 0.000000e+00 0.000000e+00 0.000000e+00
 0.000000e+00 0.000000e+00 0.000000e+00 0.000000e+00 0.000000e+00 0.000000e+00 0.000000e+00 0.000000e+00 0.000000e+00 0.000000e+00 0.000000e+00 0.000000e+00 0.000000e+00 0.000000e+00 0.000000e+00 0.000000e+00 0.000000e+00 0.000000e+00 6.153846e-01 3.846154e-01 0.000000e+00 0.000000e+00 0.000000e+00 0.000000e+00 0.000000e+00 0.000000e+00
 0.000000e+00 0.000000e+00 0.000000e+00 0.000000e+00 0.000000e+00 0.000000e+00 0.000000e+00 0.000000e+00 0.000000e+00 0.000000e+00 0.000000e+00 0.000000e+00 0.000000e+00 0.000000e+00 0.000000e+00 0.000000e+00 0.000000e+00 0.000000e+00 0.000000e+00 5.833333e-01 4.166667e-01 0.000000e+00 0.000000e+00 0.000000e+00 0.000000e+00 0.000000e+00
 0.000000e+00 0.000000e+00 0.000000e+00 0.000000e+00 0.000000e+00 0.000000e+00 0.000000e+00 0.000000e+00 0.000000e+00 0.000000e+00 0.000000e+00 0.000000e+00 0.000000e+00 0.000000e+00 0.000000e+00 0.000000e+00 0.000000e+00 0.000000e+00 0.000000e+00 0.000000e+00 6.153846e-01 3.846154e-01 0.000000e+00 0.000000e+00 0.000000e+00 0.000000e+00
 0.000000e+00 0.000000e+00 0.000000e+00 0.000000e+00 0.000000e+00 0.000000e+00 0.000000e+00 0.000000e+00 0.000000e+00 0.000000e+00 0.000000e+00 0.000000e+00 0.000000e+00 0.000000e+00 0.000000e+00 0.000000e+00 0.000000e+00 0.000000e+00 0.000000e+00 0.000000e+00 0.000000e+00 5.833333e-01 4.166667e-01 0.000000e+00 0.000000e+00 0.000000e+00
 0.000000e+00 0.000000e+00 0.000000e+00 0.000000e+00 0.000000e+00 0.000000e+00 0.000000e+00 0.000000e+00 0.000000e+00 0.000000e+00 0.000000e+00 0.000000e+00 0.000000e+00 0.000000e+00 0.000000e+00 0.000000e+00 0.000000e+00 0.000000e+00 0.000000e+00 0.000000e+00 0.000000e+00 0.000000e+00 6.666667e-01 3.333333e-01 0.000000e+00 0.000000e+00
 0.000000e+00 0.000000e+00 0.000000e+00 0.000000e+00 0.000000e+00 0.000000e+00 0.000000e+00 0.000000e+00 0.000000e+00 0.000000e+00 0.000000e+00 0.000000e+00 0.000000e+00 0.000000e+00 0.000000e+00 0.000000e+00 0.000000e+00 0.000000e+00 0.000000e+00 0.000000e+00 0.000000e+00 0.000000e+00 0.000000e+00 5.833333e-01 4.166667e-01 0.000000e+00
 0.000000e+00 0.000000e+00 0.000000e+00 0.000000e+00 0.000000e+00 0.000000e+00 0.000000e+00 0.000000e+00 0.000000e+00 0.000000e+00 0.000000e+00 0.000000e+00 0.000000e+00 0.000000e+00 0.000000e+00 0.000000e+00 0.000000e+00 0.000000e+00 0.000000e+00 0.000000e+00 0.000000e+00 0.000000e+00 0.000000e+00 0.000000e+00 5.454546e-01 4.545455e-01
 0.000000e+00 0.000000e+00 0.000000e+00 0.000000e+00 0.000000e+00 0.000000e+00 0.000000e+00 0.000000e+00 0.000000e+00 0.000000e+00 0.000000e+00 0.000000e+00 0.000000e+00 0.000000e+00 0.000000e+00 0.000000e+00 0.000000e+00 0.000000e+00 0.000000e+00 0.000000e+00 0.000000e+00 0.000000e+00 0.000000e+00 0.000000e+00 0.000000e+00 0.000000e+00
<ENDHMM>
