~o
<STREAMINFO> 1 39
<VECSIZE> 39<NULLD><MFCC_E_D_A><DIAGC>
~h "Mo^t"
<BEGINHMM>
<NUMSTATES> 25
<STATE> 2
<MEAN> 39
 -6.961755e+00 -9.826491e+00 -1.727859e+00 -2.223907e+00 1.839451e-01 -4.737525e+00 1.512425e+00 -1.464016e+00 9.608549e-01 -2.047490e-01 2.890251e+00 -1.044319e+00 -5.080032e-02 6.795236e-01 5.764728e-01 -3.406753e-01 -6.668582e-01 -7.082212e-01 -5.889604e-01 -6.883561e-01 -4.763025e-01 -8.809547e-02 2.886705e-01 -4.316112e-01 -7.195660e-01 3.138010e-02 7.783968e-01 3.290023e-01 -3.711769e-01 -5.415745e-01 -2.252528e-01 -2.672074e-01 -3.466814e-01 -4.114050e-01 -2.944621e-01 -4.668022e-01 -4.981938e-01 -4.925110e-01 3.092503e-02
<VARIANCE> 39
 2.655167e+00 3.192943e+00 8.503706e+00 6.202319e+00 2.657715e+00 2.985847e+00 1.479219e+01 1.342211e+01 3.694882e+00 1.586275e+01 8.432122e+00 1.283044e+01 1.000000e-02 1.871031e+00 4.056482e-01 9.819841e-01 1.678828e+00 5.692177e-01 7.397252e-01 1.336378e+00 1.003157e+00 1.072720e+00 2.553041e+00 1.656870e+00 1.792380e+00 1.000000e-02 1.455526e-01 4.064424e-02 1.497110e-01 1.884123e-01 1.013257e-01 2.308043e-01 1.872931e-01 2.325045e-01 1.478912e-01 3.128365e-01 3.410555e-01 4.103544e-01 1.000000e-02
<GCONST> 6.120235e+01
<STATE> 3
<MEAN> 39
 -2.702593e+00 -6.330723e+00 -3.200203e+00 -7.454324e+00 -2.459560e+00 -5.899110e+00 -1.139616e+00 -5.314020e+00 -9.638418e-02 -2.731701e+00 -1.045352e+00 -4.160176e+00 1.159492e-01 2.754986e+00 5.727834e-01 -1.217396e+00 -1.728853e+00 -8.503509e-01 -7.814023e-01 -1.905637e+00 -2.048723e+00 -4.757372e-01 -3.319124e-01 -9.536534e-01 -1.291265e+00 1.191024e-01 4.178249e-01 -3.643059e-01 -3.429466e-01 5.748014e-03 -3.189273e-02 1.596193e-01 -2.200639e-01 -1.836726e-01 -3.291150e-02 -1.946226e-02 6.944042e-02 1.258612e-01 2.114442e-02
<VARIANCE> 39
 9.769484e+00 2.813103e+00 4.421105e+00 5.614414e+00 5.783782e+00 1.308116e+01 1.643817e+01 1.406299e+01 1.388489e+01 1.038427e+01 7.809937e+00 1.020118e+01 2.400089e-02 1.065019e+00 7.843941e-01 1.024493e+00 6.668761e-01 6.008025e-01 1.108804e+00 1.051622e+00 7.266724e-01 1.077775e+00 9.981453e-01 2.201564e+00 2.875374e+00 1.000000e-02 1.183712e-01 4.082594e-02 4.935500e-02 7.916808e-02 1.005985e-01 1.782161e-01 2.662195e-01 2.622811e-01 9.145391e-02 2.154735e-01 1.462564e-01 2.262743e-01 1.000000e-02
<GCONST> 6.016763e+01
<STATE> 4
<MEAN> 39
 6.784549e+00 -5.541632e+00 -8.677362e+00 -1.029866e+01 -4.359296e+00 -9.453048e+00 -5.702113e+00 -9.317986e+00 -3.253739e+00 -3.114032e+00 -2.990299e+00 -1.012558e+01 5.021698e-01 2.624063e+00 -3.411050e-02 -1.433028e+00 -9.781784e-01 -1.423578e+00 -8.109469e-01 -7.003072e-01 -1.248263e+00 -6.940685e-01 -8.813164e-01 -9.513170e-01 -5.186924e-01 1.097396e-01 -7.755424e-01 -3.703133e-01 -2.409460e-01 4.935520e-02 4.106641e-01 8.888693e-01 9.606557e-01 7.877665e-01 1.813968e-01 -4.542004e-02 3.974870e-01 8.803209e-01 -1.617453e-02
<VARIANCE> 39
 1.205193e+01 3.210264e+00 5.793997e+00 3.201017e+00 6.162877e+00 1.237205e+01 1.526692e+01 1.009789e+01 1.134715e+01 9.301366e+00 9.100601e+00 1.323009e+01 1.000000e-02 1.098231e+00 3.072081e-01 7.667757e-01 9.435052e-01 6.148283e-01 1.020385e+00 2.017759e+00 1.948020e+00 8.934156e-01 9.097894e-02 1.126106e+00 1.711305e+00 1.000000e-02 1.388153e-01 5.394559e-02 5.752276e-01 3.531750e-01 1.665286e-01 2.836622e-01 2.168270e-01 3.027706e-01 1.671899e-01 1.708903e-01 3.261118e-01 1.328009e-01 1.000000e-02
<GCONST> 6.193912e+01
<STATE> 5
<MEAN> 39
 8.827776e+00 -8.023643e+00 -1.104359e+01 -1.304913e+01 -7.041857e+00 -7.041521e+00 -6.227539e+00 -9.781356e+00 -2.897862e+00 -5.403670e+00 -3.802517e+00 -5.147033e+00 6.517791e-01 -5.587781e-02 -1.060582e+00 -3.879425e+00 -2.818087e+00 1.736381e+00 3.585747e+00 1.520165e+00 1.750423e+00 -2.804368e-01 -5.219286e-01 6.292127e-02 9.169571e-01 8.908638e-02 -1.191796e+00 -1.911614e-01 -7.466012e-01 -3.190137e-01 1.379320e+00 1.181830e+00 8.507266e-01 8.230078e-01 5.927091e-02 2.275870e-01 2.791185e-01 -3.599652e-02 -1.127515e-02
<VARIANCE> 39
 5.877091e+00 8.234079e+00 2.081324e+01 3.301421e+01 4.263966e+00 6.310818e+01 2.885975e+01 3.062113e+01 3.256231e+01 1.170041e+01 1.006307e+01 1.743483e+01 1.000000e-02 1.873032e+00 4.955664e-01 3.494128e+00 3.263979e+00 3.886425e+00 4.613191e+00 5.265176e+00 3.114903e+00 1.470674e+00 2.014720e+00 7.946947e-01 5.384920e-01 1.000000e-02 9.278172e-02 1.506578e-01 4.740312e-01 5.101141e-01 2.018348e-01 1.130990e+00 2.837458e-01 6.217328e-01 3.447264e-01 1.944512e-01 1.279120e-01 1.631637e-01 1.000000e-02
<GCONST> 8.456960e+01
<STATE> 6
<MEAN> 39
 4.172344e+00 -1.102622e+01 -2.477467e+01 -2.108002e+01 4.552524e+00 6.326385e+00 2.677356e+00 -1.771124e+00 -3.245778e+00 -5.689708e+00 -1.695810e+00 -5.074803e+00 8.442506e-01 -2.396569e+00 -1.022971e+00 -3.642582e+00 -1.503481e+00 3.815546e+00 3.942269e+00 2.507529e+00 1.361586e+00 -9.820828e-02 -2.410967e-02 3.527338e-01 2.282844e-01 5.730484e-02 -7.435460e-02 3.052445e-01 1.189543e+00 6.606687e-01 -5.647585e-01 -8.802523e-01 -6.133976e-01 -6.826427e-01 -5.833767e-02 3.280572e-01 5.602228e-02 -1.800406e-01 -1.537399e-02
<VARIANCE> 39
 2.319426e+01 1.133773e+01 1.880405e+01 2.787806e+01 3.368975e+01 4.671461e+01 8.815002e+01 3.758709e+01 1.214651e+01 1.879189e+01 6.729715e+00 4.114986e+01 1.000000e-02 6.015837e-01 7.728790e-01 2.964071e+00 2.483424e+00 2.441703e+00 7.270188e+00 2.982885e+00 2.473021e+00 2.150961e+00 8.867645e-01 7.087231e-01 1.419404e+00 1.000000e-02 1.569087e-01 1.381405e-01 4.268166e-01 3.949171e-01 3.914909e-01 8.424430e-01 1.443708e+00 8.162815e-01 5.214273e-01 4.569632e-01 5.065363e-02 1.586402e-01 1.000000e-02
<GCONST> 9.015844e+01
<STATE> 7
<MEAN> 39
 4.515921e-01 -1.160757e+01 -2.635207e+01 -2.235043e+01 7.778694e+00 9.465199e+00 2.819856e+00 -3.354482e+00 -4.107086e+00 -5.091434e+00 -2.462041e+00 -3.594343e+00 9.230385e-01 -8.389177e-01 1.095063e-01 -1.222802e-01 -9.655206e-01 3.844029e-01 8.028291e-01 -8.293718e-02 4.478050e-01 -8.072038e-01 9.907016e-01 7.656631e-01 6.414885e-02 2.458926e-02 4.524865e-01 3.306693e-01 7.027534e-01 6.511018e-02 -1.057194e+00 -1.025997e+00 -5.021263e-01 -1.014679e-01 -1.085739e-01 9.368954e-02 2.400832e-01 1.381619e-02 -9.522364e-03
<VARIANCE> 39
 1.764824e+01 3.321159e+00 1.905042e+01 3.819014e+01 3.733884e+01 6.126747e+00 3.618344e+01 3.260472e+01 1.318541e+01 7.699495e+00 1.291637e+01 5.908370e+01 1.000000e-02 6.734067e-01 9.214981e-01 6.085951e-01 9.884999e-01 9.764113e-01 2.470817e+00 5.153966e+00 4.894871e+00 2.751623e+00 1.524482e+00 7.273371e-01 8.932264e-01 1.000000e-02 1.330202e-01 8.757532e-02 6.818915e-01 3.748019e-01 2.087585e-01 1.057188e+00 8.543264e-01 5.289031e-01 3.806418e-01 2.350123e-01 1.309883e-01 2.693855e-01 1.000000e-02
<GCONST> 8.253125e+01
<STATE> 8
<MEAN> 39
 1.266746e+00 -1.154401e+01 -2.609627e+01 -2.324085e+01 5.032147e+00 7.772743e+00 5.598283e+00 1.055306e+00 -6.045162e+00 -2.156983e+00 1.404384e+00 -6.475732e+00 9.482288e-01 -5.695848e-01 3.546151e-01 -5.736137e-02 -1.265981e+00 -8.572324e-01 -1.400033e+00 1.352371e-01 7.369232e-01 2.524238e-02 1.948801e-01 1.369974e+00 4.416941e-01 1.328303e-02 1.409407e-01 2.490621e-02 -4.993708e-02 2.598017e-01 -5.476601e-01 -9.625192e-02 1.211228e-02 -1.085870e-01 3.999459e-01 -2.930511e-01 -3.147627e-01 -1.452055e-03 -3.264712e-03
<VARIANCE> 39
 1.185903e+01 3.489130e+00 9.120340e+00 1.883703e+01 5.310606e+01 2.283471e+01 2.675335e+01 1.654177e+01 2.443634e+01 7.931681e+00 1.034528e+01 2.974982e+01 1.000000e-02 1.639173e-01 1.678743e-01 2.097098e+00 2.900502e+00 3.624700e-01 1.324807e+00 1.317804e+00 1.749993e+00 8.347383e-01 1.070047e+00 4.304286e-01 6.138453e-01 1.000000e-02 5.157830e-02 5.053173e-02 1.341618e-01 4.350481e-01 1.061380e-01 5.867445e-01 4.935692e-01 4.586021e-01 5.032251e-01 4.159023e-01 2.392048e-01 1.538671e-01 1.000000e-02
<GCONST> 6.987200e+01
<STATE> 9
<MEAN> 39
 -2.763653e+00 -9.620506e+00 -2.618867e+01 -2.756148e+01 4.383123e+00 8.485430e+00 1.936679e-01 -1.030975e+00 -5.569565e+00 -3.202046e+00 3.112421e+00 -1.316315e+00 9.832686e-01 2.201261e-01 1.657481e-01 2.434496e-01 3.603056e-01 -1.702213e+00 5.354149e-01 5.233245e-02 5.475482e-01 2.124010e-01 1.966165e-01 1.350564e-02 5.874811e-02 6.275371e-03 2.880097e-01 -8.707302e-02 5.349544e-01 1.939497e-01 -3.054272e-02 3.758501e-01 8.407692e-02 2.842659e-01 7.642020e-02 2.994800e-01 -4.278859e-01 1.505739e-01 -2.503263e-03
<VARIANCE> 39
 8.513738e+00 2.476995e+00 3.048744e+01 2.966026e+01 3.799918e+01 2.975196e+01 3.568085e+01 2.765100e+01 9.420609e+00 7.367499e+00 7.743093e+00 2.110036e+01 1.000000e-02 3.340726e-01 3.255747e-01 5.614964e-01 1.158742e+00 1.095817e+00 1.697459e+00 1.311130e+00 1.067249e+00 1.857780e+00 1.423985e+00 9.959967e-01 1.162457e+00 1.000000e-02 3.438555e-02 6.328280e-02 2.834149e-01 3.622699e-01 1.453971e-01 3.650631e-01 3.083072e-01 2.541909e-01 9.533857e-02 1.470122e-01 2.362934e-01 6.685135e-02 1.000000e-02
<GCONST> 6.810168e+01
<STATE> 10
<MEAN> 39
 4.377019e-02 -9.410818e+00 -2.444036e+01 -2.487328e+01 -5.057776e-01 1.242316e+01 2.798127e+00 1.881303e+00 -4.278415e+00 -9.316338e-01 1.363093e+00 -1.481043e+00 9.891390e-01 5.701318e-01 -2.191588e-01 1.496683e+00 -2.867489e-01 -1.649197e+00 6.462806e-01 -1.463168e-01 1.684534e+00 -1.978594e-02 1.093903e+00 -1.393695e+00 8.554115e-01 -2.412694e-03 -6.538814e-02 -2.237512e-01 8.158147e-02 -2.437917e-01 -8.341460e-02 -7.148494e-01 -2.852528e-01 2.997585e-01 -3.082475e-01 3.639824e-02 -4.784881e-01 6.664648e-02 -4.147523e-03
<VARIANCE> 39
 7.369352e+00 5.350213e+00 1.734775e+01 3.228130e+01 8.111552e+01 3.765001e+01 2.162792e+01 1.197580e+01 8.532355e+00 1.698895e+01 1.082003e+01 2.244990e+01 1.000000e-02 2.021312e-01 2.989370e-01 1.560450e+00 7.786226e-01 1.643634e+00 1.708087e+00 1.126440e+00 9.800059e-01 3.315692e-01 8.319132e-01 5.385831e-01 1.025295e+00 1.000000e-02 2.652161e-02 7.605819e-02 1.385123e-01 2.730516e-01 4.108489e-01 3.665797e-01 1.358507e-01 2.488716e-01 1.693054e-01 4.560861e-01 1.946217e-01 7.611138e-02 1.000000e-02
<GCONST> 6.701767e+01
<STATE> 11
<MEAN> 39
 1.297615e+00 -1.145381e+01 -2.043088e+01 -2.586896e+01 -5.848120e+00 6.689876e+00 4.179245e+00 7.001118e+00 -3.880108e+00 4.937423e-01 -2.691984e+00 -2.385482e+00 9.793453e-01 2.133013e-01 -2.216490e-01 1.174434e+00 -3.129263e-01 -1.343316e+00 -1.977049e+00 -4.510372e-01 1.362721e+00 -2.275916e-01 5.565634e-01 -1.873775e+00 7.713203e-01 -6.112610e-03 -5.002041e-02 1.737837e-01 -2.438963e-01 -2.606754e-02 5.033687e-01 -7.523369e-01 -5.340369e-02 6.378178e-02 -2.273994e-01 -1.048255e-01 5.089435e-02 4.892437e-02 -3.585341e-03
<VARIANCE> 39
 5.813947e+00 5.698270e+00 1.465099e+01 2.705514e+01 5.113977e+01 5.485598e+01 2.875546e+01 5.611876e+00 1.674944e+01 6.411636e+00 4.911088e+00 4.712535e+01 1.000000e-02 1.395528e-01 3.248131e-01 5.111104e-01 9.104996e-01 1.691854e+00 1.179909e+00 2.274823e-01 1.134196e+00 6.548191e-01 1.780124e+00 8.861482e-01 4.346924e-01 1.000000e-02 4.207305e-02 5.750874e-02 1.328006e-01 1.439108e-01 1.743548e-01 2.922195e-01 2.418236e-01 6.601579e-02 1.831651e-01 1.173310e-01 1.251178e-01 2.413837e-01 1.000000e-02
<GCONST> 6.072938e+01
<STATE> 12
<MEAN> 39
 1.319925e+00 -1.072759e+01 -1.935713e+01 -2.746115e+01 -6.245309e+00 1.896678e+00 -8.306642e-02 1.037280e+01 -6.634708e+00 2.502733e+00 -7.145058e+00 1.583499e+00 9.407358e-01 3.068481e-01 4.855220e-01 4.793527e-01 -1.301729e-01 9.613620e-02 -2.761348e+00 -1.473961e-01 1.704630e+00 -5.055810e-01 4.294399e-01 -1.083617e+00 8.815957e-01 -1.947032e-02 2.082065e-02 6.142358e-02 -2.282792e-02 1.254146e-01 5.441575e-01 -7.825960e-02 7.173369e-01 -2.930928e-01 3.020397e-01 -1.678888e-01 4.622609e-01 8.560505e-02 -4.925290e-03
<VARIANCE> 39
 3.991705e+00 3.989272e+00 1.327182e+01 3.690088e+01 2.874052e+01 4.590860e+01 4.110539e+01 3.803234e+01 7.814117e+00 4.406793e+00 1.692009e+01 2.572757e+01 1.000000e-02 7.029724e-01 1.970184e-01 3.056366e-01 3.445434e+00 2.238060e+00 1.201221e+00 1.632559e+00 1.145412e+00 2.171101e+00 4.453876e-01 8.915792e-01 1.391605e+00 1.000000e-02 5.978380e-02 1.194373e-01 3.406135e-02 1.473242e-01 1.204133e-01 1.262979e-01 3.025948e-01 4.335205e-01 1.523393e-01 1.628800e-01 1.742059e-01 4.376274e-02 1.000000e-02
<GCONST> 6.582317e+01
<STATE> 13
<MEAN> 39
 2.076643e+00 -8.996729e+00 -1.806902e+01 -2.604521e+01 -5.289824e+00 -5.124967e+00 3.970979e+00 1.406934e+01 -7.050673e+00 1.986475e+00 -8.030819e+00 3.890398e+00 8.970515e-01 2.303097e-01 -9.004206e-02 7.554271e-01 3.876040e-02 8.959394e-01 -2.860730e+00 2.322987e+00 -2.419797e-01 7.652003e-01 -1.074056e-01 -2.364041e-01 9.826540e-01 -3.123265e-02 2.207685e-01 -4.527478e-01 2.404397e-02 5.590550e-01 -3.114090e-01 5.610668e-01 1.236090e-01 -1.178132e+00 5.776256e-01 -3.949251e-01 4.813682e-01 -5.600081e-01 -1.281159e-02
<VARIANCE> 39
 8.329605e+00 4.878706e+00 1.342998e+01 7.202978e+01 4.451485e+01 2.654319e+01 2.547734e+01 2.127435e+01 1.269360e+01 7.429834e+00 1.968178e+01 2.455021e+01 1.000000e-02 4.038055e-01 8.829916e-01 3.417847e-01 8.217688e-01 2.823972e-01 6.380674e-01 1.885319e+00 2.603414e+00 2.252280e+00 2.791137e-01 1.263701e+00 4.515594e-01 1.000000e-02 1.580609e-01 6.768827e-02 7.418350e-02 9.108185e-01 2.724549e-01 2.141645e-01 4.097829e-01 7.808637e-02 4.654644e-01 1.425898e-01 2.073890e-01 2.736416e-01 1.000000e-02
<GCONST> 6.999149e+01
<STATE> 14
<MEAN> 39
 2.916079e+00 -1.147323e+01 -1.561524e+01 -2.682807e+01 -3.215501e+00 -1.106159e+01 9.680274e+00 1.018856e+01 -3.056981e+00 2.030591e+00 -8.702363e+00 4.457548e+00 8.015662e-01 1.144293e+00 -1.116053e+00 5.183236e-01 2.318304e+00 -7.696090e-01 -2.478044e-01 3.485962e-01 -2.815806e+00 1.433202e+00 -1.508763e+00 1.487983e+00 -1.494809e+00 -7.393613e-02 1.321029e-01 5.274342e-02 -3.225119e-01 8.518351e-01 -3.134763e-01 1.200585e+00 -1.222721e+00 -5.653349e-01 -1.295938e-01 -4.341676e-01 7.548906e-01 -7.440001e-01 -1.371778e-02
<VARIANCE> 39
 3.720523e+00 5.492938e+00 2.690513e+01 2.025822e+01 4.419696e+01 1.895445e+01 1.087979e+01 9.666313e+00 1.550286e+01 8.048230e+00 4.052664e+01 1.812535e+01 1.000000e-02 5.163730e-01 5.974853e-01 9.985889e-01 4.257369e+00 1.172804e+00 1.300499e+00 2.944288e+00 2.836176e-01 2.120100e+00 1.120860e+00 1.832495e+00 1.164379e+00 1.000000e-02 1.152475e-01 2.652500e-01 1.252194e-01 1.791178e-01 4.352717e-01 1.003343e-01 2.154708e-01 3.755230e-01 4.444182e-01 9.686698e-02 3.637780e-01 1.112271e-01 1.000000e-02
<GCONST> 7.284515e+01
<STATE> 15
<MEAN> 39
 6.067654e+00 -1.296128e+01 -1.653908e+01 -1.758987e+01 -7.189344e+00 -6.275245e+00 4.968468e+00 2.118447e+00 -1.352474e+00 -3.073213e+00 -4.877169e-01 -1.301694e-01 5.863469e-01 6.004136e-01 -2.330193e-01 -4.472183e-01 2.892420e+00 -1.694216e-01 1.699250e+00 -1.604253e+00 -2.275413e+00 8.298267e-01 -1.206802e+00 2.207495e+00 -1.380443e+00 -7.465889e-02 -4.867450e-01 2.822575e-01 -2.082818e-01 -5.598620e-01 7.470546e-01 3.037993e-01 9.678986e-02 4.710500e-01 -2.054059e-01 6.113725e-01 -2.962289e-01 3.887029e-01 1.188857e-02
<VARIANCE> 39
 3.106331e+00 3.282042e+00 1.337173e+01 1.445189e+01 1.889811e+01 2.517509e+01 5.497422e+00 1.786551e+01 1.776574e+01 1.360823e+01 3.108827e+01 2.102926e+00 1.000000e-02 4.445548e-01 1.000901e+00 6.224172e-01 1.750293e+00 3.783106e+00 4.642546e-01 1.611760e+00 1.515896e+00 1.374639e+00 1.264548e+00 2.650426e+00 1.965200e+00 1.000000e-02 5.764228e-02 1.121024e-01 1.281859e-01 4.784177e-01 1.215995e-01 1.543037e-01 4.821822e-01 1.182093e-01 2.768450e-01 2.731495e-01 8.349171e-01 1.463335e-01 1.000000e-02
<GCONST> 6.944508e+01
<STATE> 16
<MEAN> 39
 5.351830e+00 -1.233995e+01 -1.749794e+01 -1.423684e+01 -2.623433e+00 -2.827923e+00 3.465999e+00 -1.920699e+00 -6.105762e-01 -3.414074e+00 1.865866e+00 -2.142339e+00 4.774427e-01 -5.912999e-01 -1.258303e-01 -9.171070e-02 5.509205e-01 1.294809e+00 1.219081e+00 -5.927989e-02 -1.193311e+00 -1.782955e-02 3.215724e-01 7.868586e-01 -2.987363e-01 -3.100795e-02 -2.051062e-01 -1.119927e-01 1.653578e-01 -5.571957e-01 -1.759775e-01 -1.752357e-01 2.957397e-01 6.078988e-01 -2.000587e-01 1.926854e-01 -4.679430e-01 1.856373e-01 1.296129e-02
<VARIANCE> 39
 1.918799e+00 6.170719e+00 7.318316e+00 4.396440e+00 1.236334e+01 1.667906e+01 1.009682e+01 3.297934e+01 7.584416e+00 1.166401e+01 2.127819e+01 1.583470e+01 1.000000e-02 2.593974e-01 6.219702e-01 1.626206e+00 1.896891e+00 8.506184e-01 6.361678e-01 5.049220e-01 1.437997e+00 1.763695e+00 2.057538e+00 2.776234e+00 7.822098e-01 1.000000e-02 5.918195e-02 1.241182e-01 1.381404e-01 2.744067e-01 3.052281e-01 7.505218e-02 1.409638e-01 2.617635e-01 3.264587e-01 2.740982e-01 1.527209e-01 2.954077e-01 1.000000e-02
<GCONST> 6.490189e+01
<STATE> 17
<MEAN> 39
 3.429739e+00 -1.450158e+01 -1.747352e+01 -1.422674e+01 -1.330976e+00 -7.607797e-01 3.028459e+00 -2.445728e+00 -4.236425e-02 -1.408598e+00 2.080203e+00 -2.445751e+00 4.348206e-01 -6.013393e-01 2.446029e-02 7.848543e-02 -1.155303e-01 -8.223315e-02 5.467650e-01 9.039909e-02 5.818197e-01 1.315942e-01 1.582605e-01 6.568033e-02 -1.895948e-01 -1.693121e-02 -3.181956e-02 3.517926e-01 2.111958e-01 -2.028368e-01 -3.925189e-01 -3.721706e-01 3.719738e-02 5.698317e-01 -2.927858e-01 -2.382387e-01 -1.186904e-01 8.287250e-02 3.715366e-04
<VARIANCE> 39
 1.146508e+00 3.573599e+00 7.936930e+00 1.211994e+01 1.809775e+01 1.996792e+01 8.831695e+00 1.730994e+01 2.714824e+01 9.034069e+00 1.165455e+01 6.697179e+00 1.000000e-02 3.011887e-01 4.575949e-01 9.866574e-01 9.550646e-01 6.665593e-01 4.470231e-01 5.425853e-01 2.284443e+00 1.904873e+00 7.898075e-01 2.067295e+00 6.461220e-01 1.000000e-02 8.265992e-02 7.630222e-02 4.711610e-01 4.213987e-01 1.795701e-01 8.004799e-02 1.456880e-01 1.521584e-01 8.746479e-01 5.237336e-01 1.632280e-01 1.272235e-01 1.000000e-02
<GCONST> 6.288891e+01
<STATE> 18
<MEAN> 39
 2.572991e+00 -1.194494e+01 -1.693825e+01 -1.556253e+01 -2.731086e+00 -8.201134e-01 5.130573e+00 2.059215e+00 -2.298637e+00 -3.093697e+00 3.139266e+00 -2.846264e+00 4.070838e-01 -7.874218e-01 6.888246e-01 8.191914e-01 -4.368997e-01 -1.591545e-01 -2.919867e-01 -1.675813e-02 1.587036e+00 -1.236446e+00 -7.937680e-01 -3.472242e-01 -2.124685e-01 -2.036412e-02 8.643617e-02 -9.221060e-02 1.732418e-01 9.230383e-02 -3.718044e-02 -2.446738e-01 -2.304406e-02 -2.448349e-01 5.370065e-01 -1.625673e-02 -3.165302e-01 3.078190e-02 -1.714084e-03
<VARIANCE> 39
 5.918560e+00 6.378156e+00 7.376111e+00 1.258970e+01 9.434771e+00 7.959320e+00 1.540892e+01 4.007380e+01 1.834352e+01 1.283945e+01 1.584045e+01 1.485702e+01 1.000000e-02 6.272138e-01 4.582802e-01 2.651568e+00 1.701474e+00 2.173661e+00 5.703112e-01 1.809333e+00 1.668087e+00 5.338186e+00 2.162594e+00 8.400298e-01 1.116604e+00 1.000000e-02 1.413450e-01 1.045091e-01 2.947326e-01 3.130243e-01 9.003694e-02 7.496804e-02 1.610065e-01 4.461479e-01 9.366030e-01 2.049988e-01 2.917430e-01 2.342052e-01 1.000000e-02
<GCONST> 7.308907e+01
<STATE> 19
<MEAN> 39
 9.422861e-01 -1.117860e+01 -1.369006e+01 -1.533377e+01 -3.638329e+00 -2.225908e+00 3.767857e+00 2.017225e+00 -1.205535e+00 -4.444363e+00 -8.212934e-01 -2.924133e+00 3.420873e-01 -2.435136e-01 6.329829e-02 7.560261e-01 3.670290e-01 -1.929377e-01 -1.656083e-01 3.186867e-01 -2.645312e-01 1.332920e+00 -7.156271e-02 -4.727665e-01 5.067485e-02 -2.258358e-02 1.760501e-01 -2.079414e-01 -9.114784e-02 5.088760e-01 2.490792e-01 2.236090e-01 1.653035e-01 -5.688990e-01 1.829551e-01 1.198840e-01 2.956560e-01 1.538496e-02 1.353792e-03
<VARIANCE> 39
 3.673435e+00 3.518884e+00 2.188169e+01 6.481895e+00 2.164542e+00 7.593423e+00 2.199139e+01 4.073585e+01 2.262683e+01 1.889192e+01 7.499365e+00 7.272100e+00 1.000000e-02 5.923877e-01 6.636495e-01 1.328454e+00 1.450020e+00 5.755849e-01 8.640704e-01 8.797190e-01 1.843743e+00 3.799401e+00 1.405943e+00 1.244996e+00 1.455842e+00 1.000000e-02 1.775482e-01 1.739389e-01 8.356643e-01 3.159871e-01 1.561611e-01 6.102063e-02 2.068356e-01 4.611667e-01 9.812793e-01 3.696267e-01 6.608356e-02 1.237767e-01 1.000000e-02
<GCONST> 6.917439e+01
<STATE> 20
<MEAN> 39
 1.212781e+00 -1.176770e+01 -1.353806e+01 -1.323482e+01 -2.752320e+00 -8.203168e-01 6.056779e+00 1.846831e+00 2.441418e+00 -3.836724e+00 3.234250e-01 -3.693334e+00 3.119102e-01 -8.733276e-02 -3.740018e-02 4.627427e-01 1.288243e+00 3.568242e-01 3.363056e-01 6.359437e-01 -7.708434e-01 -1.575484e-01 -2.830939e-01 5.460175e-01 -1.903376e-01 -1.604162e-02 -1.604830e-01 9.350001e-02 1.217972e-01 2.952500e-02 6.474773e-02 -2.976556e-02 -1.124317e-01 8.685003e-02 -6.497119e-01 -1.299102e-01 9.313368e-02 -2.454272e-02 -2.128173e-03
<VARIANCE> 39
 4.584944e+00 4.404217e+00 5.698778e+00 1.086507e+01 4.872564e+00 2.052796e+01 5.647065e+00 6.865774e+00 2.711935e+01 9.190330e+00 7.336535e+00 1.601885e+01 1.000000e-02 6.831103e-01 5.742773e-01 3.394674e+00 1.600656e+00 2.830316e-01 3.562766e-01 8.236787e-01 1.606100e+00 3.700741e+00 7.839181e-01 4.340366e-01 7.601289e-01 1.000000e-02 1.249052e-01 1.058973e-01 2.017747e-01 4.690847e-01 1.021227e-01 2.894414e-01 6.835989e-02 1.915562e-01 8.235051e-01 2.655706e-01 2.190281e-01 2.238629e-01 1.000000e-02
<GCONST> 6.316430e+01
<STATE> 21
<MEAN> 39
 -3.672704e-01 -1.169598e+01 -1.074116e+01 -9.567788e+00 -1.851482e+00 -1.465103e+00 6.205465e+00 -3.159583e-01 -3.111011e-01 -4.465000e+00 2.009557e+00 -3.251179e+00 2.397553e-01 -6.287311e-01 2.056665e-01 9.970289e-01 9.446420e-01 2.303877e-01 -4.365259e-01 -1.836013e-02 -1.046479e-01 -3.422230e-01 -2.318277e-01 -4.293191e-01 -6.871598e-02 -3.208161e-02 -9.965173e-02 1.625664e-01 6.609660e-02 -2.502158e-01 -1.030171e-01 -2.117333e-01 -2.323841e-01 8.182555e-02 1.643043e-01 5.186606e-02 -1.258896e-01 1.648204e-01 -5.905898e-03
<VARIANCE> 39
 2.354102e+00 4.477606e+00 1.416704e+01 1.384169e+01 5.953815e+00 3.615732e+00 1.046334e+01 1.533466e+01 5.524795e+00 7.220796e+00 7.172662e+00 6.044996e+00 1.000000e-02 1.416305e-01 1.046285e+00 1.051382e+00 1.863373e+00 5.029270e-01 1.490889e+00 1.503944e+00 4.961868e-01 1.224968e+00 8.763183e-01 9.610417e-01 6.761429e-01 1.000000e-02 3.269457e-02 1.769308e-01 5.056049e-01 3.653220e-01 1.214203e-01 9.640123e-02 1.765658e-01 1.474663e-01 1.197134e-01 1.263683e-01 1.939154e-01 1.153616e-01 1.000000e-02
<GCONST> 5.599225e+01
<STATE> 22
<MEAN> 39
 -1.611046e+00 -1.039141e+01 -8.422965e+00 -8.710713e+00 -2.359125e+00 -2.796429e+00 5.726317e+00 -6.822263e-01 -9.549106e-01 -6.263724e+00 -1.350005e+00 -3.528596e+00 1.526883e-01 -8.872339e-01 7.465425e-01 1.335116e+00 5.779240e-01 3.001382e-01 -5.115124e-01 -9.052129e-01 -5.899426e-01 -4.899567e-02 6.466296e-02 5.194440e-01 5.593504e-01 -4.638304e-02 -5.469056e-02 1.772618e-02 -2.828155e-02 4.484076e-02 2.519057e-01 1.829321e-01 -9.598766e-02 5.080072e-03 1.733846e-01 3.734021e-01 5.496626e-01 1.071493e-01 -6.026140e-05
<VARIANCE> 39
 3.931342e+00 8.365644e+00 5.222013e+00 6.666214e+00 5.522252e+00 1.002559e+01 8.168911e+00 5.376556e+00 7.900073e+00 1.652207e+01 1.636870e+01 1.436555e+01 1.000000e-02 1.905035e-01 5.288218e-01 1.020193e+00 1.423661e+00 9.711971e-01 3.777704e-01 5.846119e-01 8.708771e-01 3.881643e-01 6.809734e-01 1.325263e+00 3.744349e-01 1.000000e-02 3.933774e-02 2.036828e-01 1.352559e-01 1.454111e-01 1.296116e-01 3.584549e-01 1.467059e-01 1.637506e-01 1.189550e-01 3.025636e-01 1.518203e-01 1.307171e-01 1.000000e-02
<GCONST> 5.460410e+01
<STATE> 23
<MEAN> 39
 -3.926147e+00 -8.765186e+00 -5.313894e+00 -6.577745e+00 9.977311e-01 -2.489876e+00 3.116018e+00 -1.974325e+00 -8.894752e-01 -4.045954e+00 4.526789e+00 -7.341256e-01 5.924219e-02 -7.643419e-01 2.594083e-01 7.639239e-01 7.129706e-01 9.513692e-01 1.765060e-01 -1.245563e-01 1.193919e-01 4.910353e-01 7.674755e-01 1.186084e+00 4.658110e-01 -2.785430e-02 9.998945e-02 -3.080761e-01 -4.184119e-01 -2.009085e-01 -2.656919e-01 5.825432e-02 2.737965e-01 1.748302e-01 2.412194e-01 2.165680e-02 -4.076550e-01 -1.221438e-01 7.115959e-03
<VARIANCE> 39
 1.600198e+00 4.031138e+00 6.858945e+00 7.150776e+00 7.849477e+00 9.864288e+00 9.761872e+00 9.224836e+00 7.341269e+00 6.648895e+00 2.416684e+01 7.187423e+00 1.000000e-02 3.109084e-01 6.442064e-01 4.452718e-01 5.388563e-01 8.870760e-01 1.442858e+00 3.936682e-01 8.357224e-01 1.002358e+00 1.589201e+00 1.345775e+00 8.707391e-01 1.000000e-02 1.000000e-02 3.776133e-02 1.179762e-01 2.786482e-01 1.843288e-01 1.899807e-01 1.896071e-01 2.129275e-01 1.375169e-01 1.378798e-01 2.727066e-01 1.395455e-01 1.000000e-02
<GCONST> 5.314525e+01
<STATE> 24
<MEAN> 39
 -4.675422e+00 -9.212780e+00 -6.437982e+00 -7.366922e+00 -8.233402e-01 -3.014611e+00 4.787612e+00 2.513412e-03 1.496608e+00 -2.922130e+00 2.706591e+00 -2.141352e+00 3.220071e-02 -3.814375e-01 -4.023025e-01 -8.566645e-03 -1.015395e-01 -2.980406e-01 4.763413e-02 -6.542917e-02 -7.409862e-02 5.246799e-01 1.964164e-01 -7.999244e-01 -2.344006e-03 -1.809629e-02 1.712867e-01 -8.588739e-02 -3.053128e-02 1.037538e-01 5.950086e-02 1.249812e-01 3.940393e-03 -2.431854e-01 -3.336049e-01 -1.025399e-01 -1.176864e-01 -3.425011e-02 5.602060e-03
<VARIANCE> 39
 8.919774e-01 3.360493e+00 6.479944e+00 8.553258e+00 1.083649e+01 4.673445e+00 1.142739e+01 1.416345e+01 4.797124e+00 6.550392e+00 7.440030e+00 1.166942e+01 1.000000e-02 1.100605e-01 9.583644e-02 4.767333e-01 8.376281e-01 7.874944e-01 7.298769e-01 1.175147e+00 1.673793e+00 7.714024e-01 5.518318e-01 7.214280e-01 9.842092e-01 1.000000e-02 3.188873e-02 8.726312e-02 2.317408e-01 2.194938e-01 3.243079e-01 1.725577e-01 1.598433e-01 2.482801e-01 1.365206e-01 1.380495e-01 2.627214e-01 2.056638e-01 1.000000e-02
<GCONST> 5.149141e+01
<TRANSP> 25
 0.000000e+00 1.000000e+00 0.000000e+00 0.000000e+00 0.000000e+00 0.000000e+00 0.000000e+00 0.000000e+00 0.000000e+00 0.000000e+00 0.000000e+00 0.000000e+00 0.000000e+00 0.000000e+00 0.000000e+00 0.000000e+00 0.000000e+00 0.000000e+00 0.000000e+00 0.000000e+00 0.000000e+00 0.000000e+00 0.000000e+00 0.000000e+00 0.000000e+00
 0.000000e+00 6.666667e-01 3.333333e-01 0.000000e+00 0.000000e+00 0.000000e+00 0.000000e+00 0.000000e+00 0.000000e+00 0.000000e+00 0.000000e+00 0.000000e+00 0.000000e+00 0.000000e+00 0.000000e+00 0.000000e+00 0.000000e+00 0.000000e+00 0.000000e+00 0.000000e+00 0.000000e+00 0.000000e+00 0.000000e+00 0.000000e+00 0.000000e+00
 0.000000e+00 0.000000e+00 5.454546e-01 4.545455e-01 0.000000e+00 0.000000e+00 0.000000e+00 0.000000e+00 0.000000e+00 0.000000e+00 0.000000e+00 0.000000e+00 0.000000e+00 0.000000e+00 0.000000e+00 0.000000e+00 0.000000e+00 0.000000e+00 0.000000e+00 0.000000e+00 0.000000e+00 0.000000e+00 0.000000e+00 0.000000e+00 0.000000e+00
 0.000000e+00 0.000000e+00 0.000000e+00 5.000000e-01 5.000000e-01 0.000000e+00 0.000000e+00 0.000000e+00 0.000000e+00 0.000000e+00 0.000000e+00 0.000000e+00 0.000000e+00 0.000000e+00 0.000000e+00 0.000000e+00 0.000000e+00 0.000000e+00 0.000000e+00 0.000000e+00 0.000000e+00 0.000000e+00 0.000000e+00 0.000000e+00 0.000000e+00
 0.000000e+00 0.000000e+00 0.000000e+00 0.000000e+00 6.153846e-01 3.846154e-01 0.000000e+00 0.000000e+00 0.000000e+00 0.000000e+00 0.000000e+00 0.000000e+00 0.000000e+00 0.000000e+00 0.000000e+00 0.000000e+00 0.000000e+00 0.000000e+00 0.000000e+00 0.000000e+00 0.000000e+00 0.000000e+00 0.000000e+00 0.000000e+00 0.000000e+00
 0.000000e+00 0.000000e+00 0.000000e+00 0.000000e+00 0.000000e+00 5.000000e-01 5.000000e-01 0.000000e+00 0.000000e+00 0.000000e+00 0.000000e+00 0.000000e+00 0.000000e+00 0.000000e+00 0.000000e+00 0.000000e+00 0.000000e+00 0.000000e+00 0.000000e+00 0.000000e+00 0.000000e+00 0.000000e+00 0.000000e+00 0.000000e+00 0.000000e+00
 0.000000e+00 0.000000e+00 0.000000e+00 0.000000e+00 0.000000e+00 0.000000e+00 5.833333e-01 4.166667e-01 0.000000e+00 0.000000e+00 0.000000e+00 0.000000e+00 0.000000e+00 0.000000e+00 0.000000e+00 0.000000e+00 0.000000e+00 0.000000e+00 0.000000e+00 0.000000e+00 0.000000e+00 0.000000e+00 0.000000e+00 0.000000e+00 0.000000e+00
 0.000000e+00 0.000000e+00 0.000000e+00 0.000000e+00 0.000000e+00 0.000000e+00 0.000000e+00 5.454546e-01 4.545455e-01 0.000000e+00 0.000000e+00 0.000000e+00 0.000000e+00 0.000000e+00 0.000000e+00 0.000000e+00 0.000000e+00 0.000000e+00 0.000000e+00 0.000000e+00 0.000000e+00 0.000000e+00 0.000000e+00 0.000000e+00 0.000000e+00
 0.000000e+00 0.000000e+00 0.000000e+00 0.000000e+00 0.000000e+00 0.000000e+00 0.000000e+00 0.000000e+00 6.153846e-01 3.846154e-01 0.000000e+00 0.000000e+00 0.000000e+00 0.000000e+00 0.000000e+00 0.000000e+00 0.000000e+00 0.000000e+00 0.000000e+00 0.000000e+00 0.000000e+00 0.000000e+00 0.000000e+00 0.000000e+00 0.000000e+00
 0.000000e+00 0.000000e+00 0.000000e+00 0.000000e+00 0.000000e+00 0.000000e+00 0.000000e+00 0.000000e+00 0.000000e+00 5.000000e-01 5.000000e-01 0.000000e+00 0.000000e+00 0.000000e+00 0.000000e+00 0.000000e+00 0.000000e+00 0.000000e+00 0.000000e+00 0.000000e+00 0.000000e+00 0.000000e+00 0.000000e+00 0.000000e+00 0.000000e+00
 0.000000e+00 0.000000e+00 0.000000e+00 0.000000e+00 0.000000e+00 0.000000e+00 0.000000e+00 0.000000e+00 0.000000e+00 0.000000e+00 6.153846e-01 3.846154e-01 0.000000e+00 0.000000e+00 0.000000e+00 0.000000e+00 0.000000e+00 0.000000e+00 0.000000e+00 0.000000e+00 0.000000e+00 0.000000e+00 0.000000e+00 0.000000e+00 0.000000e+00
 0.000000e+00 0.000000e+00 0.000000e+00 0.000000e+00 0.000000e+00 0.000000e+00 0.000000e+00 0.000000e+00 0.000000e+00 0.000000e+00 0.000000e+00 5.833333e-01 4.166667e-01 0.000000e+00 0.000000e+00 0.000000e+00 0.000000e+00 0.000000e+00 0.000000e+00 0.000000e+00 0.000000e+00 0.000000e+00 0.000000e+00 0.000000e+00 0.000000e+00
 0.000000e+00 0.000000e+00 0.000000e+00 0.000000e+00 0.000000e+00 0.000000e+00 0.000000e+00 0.000000e+00 0.000000e+00 0.000000e+00 0.000000e+00 0.000000e+00 5.454546e-01 4.545455e-01 0.000000e+00 0.000000e+00 0.000000e+00 0.000000e+00 0.000000e+00 0.000000e+00 0.000000e+00 0.000000e+00 0.000000e+00 0.000000e+00 0.000000e+00
 0.000000e+00 0.000000e+00 0.000000e+00 0.000000e+00 0.000000e+00 0.000000e+00 0.000000e+00 0.000000e+00 0.000000e+00 0.000000e+00 0.000000e+00 0.000000e+00 0.000000e+00 5.000000e-01 5.000000e-01 0.000000e+00 0.000000e+00 0.000000e+00 0.000000e+00 0.000000e+00 0.000000e+00 0.000000e+00 0.000000e+00 0.000000e+00 0.000000e+00
 0.000000e+00 0.000000e+00 0.000000e+00 0.000000e+00 0.000000e+00 0.000000e+00 0.000000e+00 0.000000e+00 0.000000e+00 0.000000e+00 0.000000e+00 0.000000e+00 0.000000e+00 0.000000e+00 5.454546e-01 4.545455e-01 0.000000e+00 0.000000e+00 0.000000e+00 0.000000e+00 0.000000e+00 0.000000e+00 0.000000e+00 0.000000e+00 0.000000e+00
 0.000000e+00 0.000000e+00 0.000000e+00 0.000000e+00 0.000000e+00 0.000000e+00 0.000000e+00 0.000000e+00 0.000000e+00 0.000000e+00 0.000000e+00 0.000000e+00 0.000000e+00 0.000000e+00 0.000000e+00 6.153846e-01 3.846154e-01 0.000000e+00 0.000000e+00 0.000000e+00 0.000000e+00 0.000000e+00 0.000000e+00 0.000000e+00 0.000000e+00
 0.000000e+00 0.000000e+00 0.000000e+00 0.000000e+00 0.000000e+00 0.000000e+00 0.000000e+00 0.000000e+00 0.000000e+00 0.000000e+00 0.000000e+00 0.000000e+00 0.000000e+00 0.000000e+00 0.000000e+00 0.000000e+00 5.833333e-01 4.166667e-01 0.000000e+00 0.000000e+00 0.000000e+00 0.000000e+00 0.000000e+00 0.000000e+00 0.000000e+00
 0.000000e+00 0.000000e+00 0.000000e+00 0.000000e+00 0.000000e+00 0.000000e+00 0.000000e+00 0.000000e+00 0.000000e+00 0.000000e+00 0.000000e+00 0.000000e+00 0.000000e+00 0.000000e+00 0.000000e+00 0.000000e+00 0.000000e+00 5.000000e-01 5.000000e-01 0.000000e+00 0.000000e+00 0.000000e+00 0.000000e+00 0.000000e+00 0.000000e+00
 0.000000e+00 0.000000e+00 0.000000e+00 0.000000e+00 0.000000e+00 0.000000e+00 0.000000e+00 0.000000e+00 0.000000e+00 0.000000e+00 0.000000e+00 0.000000e+00 0.000000e+00 0.000000e+00 0.000000e+00 0.000000e+00 0.000000e+00 0.000000e+00 5.833333e-01 4.166667e-01 0.000000e+00 0.000000e+00 0.000000e+00 0.000000e+00 0.000000e+00
 0.000000e+00 0.000000e+00 0.000000e+00 0.000000e+00 0.000000e+00 0.000000e+00 0.000000e+00 0.000000e+00 0.000000e+00 0.000000e+00 0.000000e+00 0.000000e+00 0.000000e+00 0.000000e+00 0.000000e+00 0.000000e+00 0.000000e+00 0.000000e+00 0.000000e+00 5.833333e-01 4.166667e-01 0.000000e+00 0.000000e+00 0.000000e+00 0.000000e+00
 0.000000e+00 0.000000e+00 0.000000e+00 0.000000e+00 0.000000e+00 0.000000e+00 0.000000e+00 0.000000e+00 0.000000e+00 0.000000e+00 0.000000e+00 0.000000e+00 0.000000e+00 0.000000e+00 0.000000e+00 0.000000e+00 0.000000e+00 0.000000e+00 0.000000e+00 0.000000e+00 6.153846e-01 3.846154e-01 0.000000e+00 0.000000e+00 0.000000e+00
 0.000000e+00 0.000000e+00 0.000000e+00 0.000000e+00 0.000000e+00 0.000000e+00 0.000000e+00 0.000000e+00 0.000000e+00 0.000000e+00 0.000000e+00 0.000000e+00 0.000000e+00 0.000000e+00 0.000000e+00 0.000000e+00 0.000000e+00 0.000000e+00 0.000000e+00 0.000000e+00 0.000000e+00 5.000000e-01 5.000000e-01 0.000000e+00 0.000000e+00
 0.000000e+00 0.000000e+00 0.000000e+00 0.000000e+00 0.000000e+00 0.000000e+00 0.000000e+00 0.000000e+00 0.000000e+00 0.000000e+00 0.000000e+00 0.000000e+00 0.000000e+00 0.000000e+00 0.000000e+00 0.000000e+00 0.000000e+00 0.000000e+00 0.000000e+00 0.000000e+00 0.000000e+00 0.000000e+00 5.000000e-01 5.000000e-01 0.000000e+00
 0.000000e+00 0.000000e+00 0.000000e+00 0.000000e+00 0.000000e+00 0.000000e+00 0.000000e+00 0.000000e+00 0.000000e+00 0.000000e+00 0.000000e+00 0.000000e+00 0.000000e+00 0.000000e+00 0.000000e+00 0.000000e+00 0.000000e+00 0.000000e+00 0.000000e+00 0.000000e+00 0.000000e+00 0.000000e+00 0.000000e+00 5.000000e-01 5.000000e-01
 0.000000e+00 0.000000e+00 0.000000e+00 0.000000e+00 0.000000e+00 0.000000e+00 0.000000e+00 0.000000e+00 0.000000e+00 0.000000e+00 0.000000e+00 0.000000e+00 0.000000e+00 0.000000e+00 0.000000e+00 0.000000e+00 0.000000e+00 0.000000e+00 0.000000e+00 0.000000e+00 0.000000e+00 0.000000e+00 0.000000e+00 0.000000e+00 0.000000e+00
<ENDHMM>
