~o
<STREAMINFO> 1 39
<VECSIZE> 39<NULLD><MFCC_E_D_A><DIAGC>
~h "Muc"
<BEGINHMM>
<NUMSTATES> 25
<STATE> 2
<MEAN> 39
 -5.551911e+00 -8.777190e+00 -5.027562e-01 -7.238414e-01 5.107930e-01 -5.260616e+00 1.523495e+00 -7.598260e-02 3.970656e-01 -4.261355e+00 5.064514e-01 -1.473922e+00 4.302250e-02 2.869631e-02 9.142481e-03 9.030430e-02 -2.964599e-03 5.653756e-02 1.850341e-01 -1.018505e+00 -2.080582e-01 -5.154200e-01 -4.905804e-02 1.128702e-01 -2.801874e-01 9.436321e-03 4.391554e-01 2.631586e-01 -2.930850e-01 -7.348794e-01 -4.688111e-01 -8.950193e-02 -5.440999e-01 -7.901462e-01 -2.383040e-01 2.079077e-02 -8.373964e-04 -2.393895e-01 1.950358e-02
<VARIANCE> 39
 2.412526e+00 8.491779e-01 1.826969e+00 4.431694e+00 6.747934e+00 5.711870e+00 1.013205e+01 8.348993e+00 1.848667e+01 1.651466e+01 4.564074e+00 9.497468e+00 1.000000e-02 2.844691e-01 1.165028e-01 2.524650e-01 9.793122e-01 1.647462e+00 3.843793e-01 3.201088e-01 1.286721e+00 9.024848e-01 3.056641e-01 1.313360e+00 2.001515e-01 1.000000e-02 9.920958e-02 3.467262e-02 4.558153e-02 9.712160e-02 9.800986e-02 8.591958e-02 1.116775e-01 8.108594e-02 3.408182e-01 2.100015e-01 2.383052e-01 9.724230e-02 1.000000e-02
<GCONST> 4.250270e+01
<STATE> 3
<MEAN> 39
 -5.344096e+00 -8.132359e+00 -1.846652e-01 -2.197169e+00 7.088072e-01 -4.365068e+00 -1.030896e+00 -2.523644e+00 1.786692e-01 -2.583185e+00 3.291640e+00 -1.142308e+00 5.784694e-02 1.866341e+00 1.003963e+00 -8.627715e-01 -2.441290e+00 -1.567517e+00 -6.886398e-01 -1.868815e+00 -1.971622e+00 -1.202922e+00 -3.031170e-01 -4.250526e-01 -1.320999e+00 8.882812e-02 9.274222e-01 1.911878e-01 -5.052445e-01 -6.931115e-01 -7.899929e-01 -6.248744e-01 -2.539958e-01 -3.629779e-01 -1.072134e-01 -1.257652e-01 -6.367247e-01 -5.485339e-01 3.708954e-02
<VARIANCE> 39
 4.800255e+00 2.346914e+00 2.944736e+00 9.841163e+00 1.788405e+01 7.847855e+00 2.482814e+00 4.793848e+00 8.864739e+00 9.701685e+00 6.248157e+00 3.035304e+00 1.000000e-02 1.230627e+00 4.587319e-01 5.556319e-01 9.739965e-01 1.647355e+00 4.952263e-01 1.372410e+00 8.707622e-01 1.278305e+00 1.605304e+00 9.606615e-01 1.455133e+00 1.000000e-02 9.842336e-02 1.633419e-01 1.123023e-01 1.975147e-01 1.981221e-01 9.128436e-02 2.176394e-02 1.108239e-01 4.337948e-01 2.087135e-01 3.069633e-01 1.642374e-01 1.000000e-02
<GCONST> 5.494230e+01
<STATE> 4
<MEAN> 39
 1.478266e+00 -5.444798e+00 -3.919476e+00 -1.005021e+01 -5.459296e+00 -8.151801e+00 -5.947429e+00 -7.620884e+00 -3.372970e+00 -4.818166e+00 -1.178885e+00 -6.334894e+00 3.781095e-01 3.397129e+00 6.823786e-01 -1.747267e+00 -2.274163e+00 -2.658441e+00 -1.972695e+00 -2.126995e+00 -1.826602e+00 -7.147096e-01 -7.254869e-01 -1.884717e+00 -1.938125e+00 1.453876e-01 7.596913e-03 -3.489489e-01 -2.453855e-01 4.360989e-01 1.630310e-01 2.533218e-01 2.502625e-01 4.688981e-01 2.456226e-01 -1.468966e-01 -2.357152e-01 3.447270e-01 3.240218e-04
<VARIANCE> 39
 1.618105e+01 5.677886e+00 1.016996e+01 1.081572e+01 2.009855e+01 1.155043e+01 7.755423e+00 2.229021e+01 2.089901e+01 7.854339e+00 4.918257e+00 2.177712e+01 2.126941e-02 6.213580e-01 1.140761e+00 9.045575e-01 8.426852e-01 6.580445e-01 1.400015e+00 9.311979e-01 6.822957e-01 2.497384e+00 1.363857e+00 1.383396e+00 2.170906e+00 1.000000e-02 2.055916e-01 7.631796e-02 1.040654e-01 1.071252e-01 2.827025e-01 3.763686e-01 1.040354e-01 3.637641e-01 1.992664e-01 2.224312e-01 1.702081e-01 3.464628e-01 1.000000e-02
<GCONST> 6.927280e+01
<STATE> 5
<MEAN> 39
 6.706931e+00 -4.899092e+00 -6.204821e+00 -1.097214e+01 -8.224848e+00 -1.114397e+01 -9.663696e+00 -1.020506e+01 -2.941550e+00 -6.076858e+00 -3.896128e+00 -8.925474e+00 5.805293e-01 2.055526e+00 -4.507684e-01 -2.161880e+00 -8.233751e-01 -1.091396e+00 1.069868e-01 -1.171509e+00 3.197507e-01 -3.456415e-01 -6.067413e-01 -1.809826e+00 -4.004224e-01 1.011154e-01 -1.004878e+00 -5.828360e-01 -7.154247e-01 9.951667e-02 1.118470e+00 1.655406e+00 1.078772e+00 1.226591e+00 -2.668524e-01 2.606259e-01 3.155572e-01 9.930544e-01 -1.653454e-02
<VARIANCE> 39
 5.392693e+00 7.830665e+00 4.410811e+00 1.217840e+01 1.574620e+01 1.709081e+01 2.159744e+01 1.622558e+01 2.217624e+01 9.243775e+00 3.572012e+00 1.611790e+01 1.000000e-02 6.026402e-01 5.354952e-01 1.073191e+00 8.552157e-01 1.166063e+00 4.009098e+00 5.159708e-01 3.091025e+00 6.748337e-01 4.030650e-01 9.771841e-02 3.503554e-01 1.000000e-02 5.722925e-02 2.037052e-01 3.154104e-01 1.420204e-01 5.534953e-02 4.334694e-01 1.903486e-01 4.290200e-01 3.175356e-01 4.997498e-01 3.241292e-01 2.793833e-01 1.000000e-02
<GCONST> 6.449947e+01
<STATE> 6
<MEAN> 39
 9.379608e+00 -6.050629e+00 -8.872613e+00 -1.203358e+01 -1.146928e+01 -1.088808e+01 -8.716144e+00 -9.013097e+00 -3.236793e+00 -7.181456e+00 -7.143310e+00 -7.279233e+00 6.932103e-01 3.507143e-01 -8.196807e-01 -3.084238e+00 -1.501710e+00 5.767269e-01 3.118195e+00 9.661969e-01 1.353744e+00 -9.251556e-01 -5.604078e-01 -3.462175e-01 1.495959e+00 7.000939e-02 -1.420598e+00 -2.721171e-01 -1.100805e+00 -2.813947e-01 1.524391e+00 1.883820e+00 1.167221e+00 7.524345e-01 -4.523444e-01 4.379030e-01 8.437663e-01 1.483763e-01 -1.088843e-02
<VARIANCE> 39
 7.021988e+00 1.061446e+01 8.946136e+00 1.322538e+01 6.701297e+00 4.064907e+01 1.160679e+01 2.687922e+00 1.797540e+01 3.038923e+00 3.617879e+00 2.145645e+01 1.000000e-02 7.107975e-01 9.956845e-01 3.797639e+00 1.513489e+00 1.521085e+00 8.265969e+00 1.972554e+00 3.572457e+00 1.778138e+00 3.576557e+00 9.116485e-01 9.296467e-01 1.000000e-02 1.517928e-01 2.185443e-01 3.068706e-01 1.711529e-01 9.333280e-02 8.608977e-01 7.648006e-02 1.359391e-01 2.961226e-01 1.886864e-01 1.004936e-01 5.429267e-01 1.000000e-02
<GCONST> 7.268491e+01
<STATE> 7
<MEAN> 39
 9.035069e+00 -9.162758e+00 -1.955982e+01 -1.365592e+01 -6.138964e+00 -1.884091e+00 -3.782479e+00 -2.737393e+00 -7.477825e+00 -7.096638e+00 -6.109466e+00 -3.884758e+00 8.265274e-01 -1.848491e+00 -1.577044e+00 -6.214234e+00 -1.582105e+00 3.237149e+00 6.368237e+00 3.071680e+00 2.395485e+00 -2.104762e+00 1.318094e+00 3.186574e-01 -6.831235e-02 7.107253e-02 -8.160925e-01 3.269975e-01 3.839277e-01 -3.731967e-01 7.638948e-01 -2.831687e-02 2.559122e-01 -2.018347e-01 1.683407e-01 4.605385e-01 5.186204e-01 -8.008084e-01 -6.777038e-03
<VARIANCE> 39
 1.000236e+01 8.122444e+00 8.980226e+01 1.729818e+01 3.105688e+01 9.980058e+01 3.991662e+01 1.106126e+01 3.156365e+01 1.086425e+01 4.653384e+00 9.001460e+00 1.000000e-02 1.421032e+00 1.161434e+00 1.987597e+00 1.817083e+00 5.366462e-01 2.461308e+00 1.012493e+00 6.468351e-01 8.765326e-01 1.374667e+00 1.071590e+00 5.560364e+00 1.000000e-02 2.023350e-01 1.963034e-01 1.830788e+00 8.496141e-02 3.143913e-01 2.288451e+00 3.986338e-01 4.787957e-01 4.627407e-01 4.925346e-01 2.204312e-01 4.177819e-01 1.000000e-02
<GCONST> 8.598460e+01
<STATE> 8
<MEAN> 39
 9.349320e-01 -1.026370e+01 -2.797899e+01 -2.005695e+01 1.843609e+00 1.146062e+01 -8.368095e-01 -6.930537e-01 -1.039228e+01 -3.643633e+00 -4.340946e+00 -7.374158e+00 9.441248e-01 -3.070225e+00 5.980377e-02 -2.575231e+00 -2.824335e+00 3.918158e+00 2.313203e+00 2.092690e+00 7.626283e-01 -7.025908e-01 6.223629e-01 1.497084e+00 -1.011420e+00 5.353419e-02 3.661017e-01 4.043386e-01 1.829513e+00 1.379062e-01 -9.665785e-01 -2.158418e+00 -3.690393e-01 -2.628185e-01 8.943164e-01 -1.810692e-01 1.914533e-01 3.235522e-01 -1.969008e-02
<VARIANCE> 39
 1.577755e+01 9.419717e+00 4.630848e+01 6.691445e+01 3.861713e+01 7.611956e+00 5.752065e+01 9.591320e+00 8.585277e+00 1.562937e+01 1.669706e+01 4.438409e+01 1.000000e-02 1.183139e+00 4.462310e-01 5.524224e+00 9.576733e-01 1.755510e+00 9.505551e+00 7.503861e-01 1.346135e+00 3.085986e+00 1.398644e+00 6.281478e-01 1.323095e+00 1.000000e-02 3.166921e-01 1.896653e-01 5.472541e-01 4.615518e-01 5.138807e-01 3.675921e-01 3.410121e-01 4.298433e-01 1.125485e-01 1.545390e-01 2.084042e-01 4.284612e-01 1.000000e-02
<GCONST> 8.529223e+01
<STATE> 9
<MEAN> 39
 -1.840454e+00 -9.194184e+00 -2.608022e+01 -2.434315e+01 5.368128e+00 8.637965e+00 1.905493e+00 -5.694391e-01 -9.019066e+00 -3.639013e+00 -1.341977e+00 -8.217314e+00 9.860703e-01 -3.366162e-01 2.766040e-01 1.547529e+00 -1.730242e+00 -7.188740e-01 -1.558171e+00 1.121881e+00 1.996192e+00 1.379226e+00 5.044377e-01 1.163775e+00 1.371750e+00 1.259226e-02 1.035542e+00 -3.657640e-02 1.302197e+00 4.363192e-01 -1.829054e+00 -1.539143e+00 -5.589358e-01 7.004475e-01 4.289926e-01 -1.608622e-01 -4.869958e-01 1.043311e+00 -1.540588e-02
<VARIANCE> 39
 1.960753e+01 1.021482e+01 2.608307e+01 2.974803e+01 1.186657e+01 1.512915e+01 2.826599e+01 5.923296e+00 6.939362e+00 2.337275e+01 9.952707e+00 4.137149e+01 1.000000e-02 8.667505e-01 5.911801e-01 1.550133e+00 1.922830e+00 2.855590e+00 1.461334e+00 1.544163e+00 2.869474e+00 5.490319e-01 2.872666e-01 1.425744e+00 1.193156e+00 1.000000e-02 1.681558e-01 2.753049e-02 4.622585e-01 1.739070e-01 3.958027e-01 1.342609e+00 8.403054e-02 7.479245e-02 2.310708e-01 2.361078e-01 1.899231e-01 5.991023e-01 1.000000e-02
<GCONST> 7.458070e+01
<STATE> 10
<MEAN> 39
 -3.750210e-01 -8.320504e+00 -2.311192e+01 -2.729577e+01 1.453525e+00 4.962553e+00 3.111982e+00 4.425037e+00 -5.887546e+00 -2.736212e+00 -1.835790e+00 -1.345864e+00 9.890003e-01 7.438903e-01 -1.213382e-01 1.853686e+00 -7.943906e-01 -2.379365e+00 -2.110083e+00 9.817787e-02 2.897997e+00 1.163492e+00 5.612476e-01 -5.016004e-01 2.476646e+00 -8.448176e-03 4.715252e-01 -4.713269e-01 3.270746e-01 7.956650e-01 -5.854478e-01 -9.311097e-02 -5.888990e-01 -3.980649e-01 -2.128491e-01 -1.616444e-01 -5.834969e-01 -2.331748e-01 -1.553601e-02
<VARIANCE> 39
 2.392819e+01 1.188149e+01 3.377866e+01 3.417540e+01 3.257619e+01 9.484295e+00 3.089851e+01 3.436481e+01 2.824302e+00 1.355942e+01 1.794270e+01 4.336724e+01 1.000000e-02 2.259070e-01 2.577666e-01 8.286194e-01 1.427616e+00 1.932116e+00 2.627173e+00 7.988073e-01 2.153457e+00 2.057773e-01 6.966462e-01 1.306747e+00 1.937131e+00 1.000000e-02 8.413672e-02 4.921040e-02 7.663723e-02 1.453515e-01 4.929821e-01 3.946689e-01 3.634611e-01 1.810455e+00 1.135459e-01 3.673697e-01 4.927743e-01 3.169125e-01 1.000000e-02
<GCONST> 7.497071e+01
<STATE> 11
<MEAN> 39
 8.966049e-01 -1.012097e+01 -1.906570e+01 -2.688548e+01 -5.071709e+00 -1.349080e+00 2.349373e+00 1.150823e+01 -4.986533e+00 -1.886366e+00 -2.764647e+00 4.036145e-01 9.438184e-01 1.512316e+00 -1.160571e+00 2.460994e+00 1.515452e+00 -2.168777e+00 -2.054762e+00 -1.315204e+00 1.267795e-02 -7.928521e-02 -3.758361e-02 -1.492631e+00 5.807229e-01 -5.015096e-02 1.360056e-01 -1.047365e-01 -1.520965e-01 1.256767e+00 7.564608e-01 6.208621e-01 -1.605176e-01 -1.805396e+00 -1.055771e-01 -3.935802e-01 1.198136e-01 -6.959844e-01 -2.236562e-02
<VARIANCE> 39
 7.965700e+00 1.325505e+01 4.880904e+01 2.972681e+01 2.818444e+01 1.849720e+01 1.483970e+01 3.400575e+01 1.003590e+01 4.313499e+00 5.919918e+01 2.757848e+01 1.000000e-02 5.025826e-01 6.706192e-01 7.442723e-01 4.396189e+00 1.933716e+00 4.392955e+00 1.287874e+00 1.291758e+01 1.343386e+00 1.502887e+00 4.318826e+00 2.152416e+00 1.000000e-02 4.449727e-02 1.608305e-01 3.824488e-01 6.982452e-01 2.630138e-01 7.871603e-01 2.373964e-01 7.036373e-01 3.326565e-01 2.433754e-01 1.766191e+00 4.202207e-01 1.000000e-02
<GCONST> 8.899187e+01
<STATE> 12
<MEAN> 39
 4.446350e+00 -1.269122e+01 -1.456274e+01 -2.162411e+01 -5.919354e+00 -1.344647e+00 -1.335024e+00 4.841293e+00 -5.401581e+00 -2.095830e+00 -4.393128e+00 6.473553e-01 7.836639e-01 1.245999e+00 -1.099584e+00 1.083075e+00 3.887799e+00 -3.886635e-01 -6.404750e-01 -2.274463e-01 -3.694284e+00 9.273480e-01 -1.335456e+00 5.214671e-01 -6.326499e-01 -9.525952e-02 -3.285062e-01 3.855594e-01 -9.608961e-01 9.652099e-02 8.966921e-01 4.594306e-01 7.605725e-01 -6.834331e-01 2.385852e-01 -3.454023e-01 5.606605e-01 -4.021248e-01 -5.850643e-03
<VARIANCE> 39
 6.377158e+00 6.726340e+00 4.578287e+01 1.878531e+01 2.934766e+01 1.445958e+01 2.010031e+01 1.143575e+02 1.878572e+01 1.136280e+01 3.183504e+01 1.355192e+01 1.779356e-02 3.858414e-01 1.232563e+00 4.641773e+00 4.335584e+00 2.174721e+00 2.714008e+00 1.471483e+00 2.935195e+00 1.679964e+00 1.773478e+00 6.595757e+00 9.890150e-01 1.000000e-02 5.837229e-02 9.335946e-02 5.851027e-01 4.845777e-01 2.681907e-01 2.353075e-01 1.956187e-01 3.613405e+00 1.479856e-01 3.620862e-01 9.269904e-01 3.386577e-01 1.000000e-02
<GCONST> 8.897146e+01
<STATE> 13
<MEAN> 39
 7.143849e+00 -1.495005e+01 -1.361876e+01 -1.401258e+01 -8.966094e+00 -4.311773e+00 1.051031e+00 1.137506e-01 -2.341227e+00 -5.935795e+00 -5.014636e+00 -1.658264e+00 6.952448e-01 6.336659e-01 2.883319e-01 6.268457e-01 2.920367e+00 1.572030e+00 4.139547e-02 5.911720e-01 -3.619920e+00 9.127831e-01 -1.714158e+00 5.066147e-01 -1.287393e+00 -8.846660e-02 -5.884203e-01 5.929010e-01 -7.631958e-01 -8.901817e-01 7.617071e-01 7.207354e-01 5.451524e-01 8.138292e-01 -2.557458e-01 7.220730e-01 9.267952e-01 -1.295051e-02 6.106777e-03
<VARIANCE> 39
 4.123261e+00 6.509121e+00 1.857759e+01 1.900223e+01 3.617260e+01 1.454197e+01 4.370584e+00 5.305607e+01 1.920291e+01 1.017708e+01 1.745874e+01 2.030207e+01 2.239500e-02 2.427780e-01 9.465258e-01 5.267106e+00 7.040178e-01 2.068319e+00 1.633930e+00 1.885285e+00 8.474008e+00 1.283849e+00 2.608080e+00 6.252250e+00 8.167333e-01 1.000000e-02 4.054570e-02 2.399137e-01 2.427602e-01 9.187159e-01 8.735147e-01 4.793989e-01 1.182369e-01 4.602523e-01 4.595290e-01 3.096034e-01 7.133874e-01 2.132580e-01 1.000000e-02
<GCONST> 8.360168e+01
<STATE> 14
<MEAN> 39
 7.005924e+00 -1.155744e+01 -1.464973e+01 -1.109991e+01 -1.608286e+00 -1.646492e+00 1.426069e+00 -5.544813e+00 -4.229947e+00 -6.540565e+00 -1.041232e+00 -3.727968e+00 5.197390e-01 -7.013076e-01 5.154878e-01 -1.583968e+00 -1.320564e-02 1.630498e+00 1.286320e+00 1.716293e+00 -6.167561e-01 5.829765e-01 9.573519e-01 2.005065e+00 -1.617300e-01 -5.877114e-02 -4.448642e-01 -1.847732e-01 -2.113162e-01 -1.005136e+00 -3.079469e-01 1.227706e-01 3.452738e-01 1.179334e+00 2.877924e-01 7.773899e-01 -2.327890e-01 3.163936e-01 1.913183e-02
<VARIANCE> 39
 5.589845e+00 5.017428e+00 1.034349e+01 1.044695e+01 7.779696e+00 1.478809e+01 2.277794e+00 1.759968e+01 3.013306e+01 2.247613e+01 2.750483e+01 2.688753e+01 1.000000e-02 2.155618e-01 1.516997e+00 2.086762e+00 1.344058e+00 1.915191e+00 1.169518e+00 1.091883e+00 2.600370e+00 1.136262e+00 1.259380e+00 2.566588e+00 7.203615e-01 1.000000e-02 6.183701e-02 1.767750e-01 5.794853e-01 5.437546e-01 1.848390e-01 2.451410e-01 2.678145e-01 6.104215e-01 5.992821e-01 1.005135e+00 1.219853e+00 9.893323e-02 1.000000e-02
<GCONST> 7.697746e+01
<STATE> 15
<MEAN> 39
 4.589915e+00 -1.253392e+01 -1.711353e+01 -1.326509e+01 -2.278059e+00 1.008974e+00 6.211876e+00 -2.798573e+00 -1.599043e+00 -3.511711e+00 1.448354e+00 -3.586605e+00 4.932324e-01 -7.381433e-01 -2.364676e-03 -3.899671e-01 -2.554761e-01 2.150200e-01 5.368229e-01 1.394682e+00 8.339583e-01 9.114698e-01 1.283732e+00 1.350137e+00 2.524809e-01 -2.421477e-02 2.111587e-02 -4.910084e-02 4.559143e-01 -1.456716e-01 -4.215563e-01 -5.365936e-01 -7.845876e-01 3.644758e-01 -1.185257e-01 -5.175588e-02 -3.239352e-01 8.637444e-02 1.093320e-02
<VARIANCE> 39
 1.218762e+00 4.963582e+00 8.045418e+00 9.191565e+00 1.010154e+01 1.154323e+01 8.369550e+00 1.989081e+01 1.367569e+01 1.488697e+01 7.550479e+00 5.416398e+00 1.000000e-02 3.998971e-01 2.799846e-02 2.174234e-01 8.954328e-01 2.073183e-01 1.388181e+00 1.256336e+00 1.179713e+00 2.095180e+00 3.816723e+00 2.522766e+00 3.664716e-01 1.000000e-02 3.652837e-02 2.211992e-01 3.721952e-01 1.647763e-01 1.944061e-01 1.152434e-01 1.933274e-01 6.545719e-01 4.223012e-01 4.267685e-01 1.771928e-01 1.495274e-01 1.000000e-02
<GCONST> 5.906599e+01
<STATE> 16
<MEAN> 39
 3.074625e+00 -1.275471e+01 -1.742744e+01 -1.496195e+01 -1.345335e+00 -7.444184e-02 5.929554e+00 -5.294159e-01 1.063606e+00 -5.577909e-01 2.667428e+00 -6.682495e-01 4.448277e-01 -4.331759e-01 -4.687653e-02 3.061707e-01 1.375272e-01 2.347196e-01 -1.010202e-01 -1.300187e-01 9.432224e-02 5.074514e-02 4.591464e-01 3.363181e-01 -4.997312e-01 -2.131084e-02 1.067162e-01 -1.368894e-02 4.252228e-01 2.121811e-01 2.640045e-02 -7.161114e-02 -4.734727e-01 -3.381334e-01 -4.507641e-01 -6.627975e-01 -4.884652e-01 -8.967476e-02 3.393037e-03
<VARIANCE> 39
 1.204110e+00 2.394360e+00 5.638443e+00 1.242276e+01 3.497874e+00 6.467310e+00 9.071111e+00 7.690978e+00 6.442200e+00 1.057073e+01 1.598586e+01 6.506410e+00 1.000000e-02 2.831345e-01 4.482861e-01 6.381932e-01 7.884123e-01 3.846702e-01 1.100173e+00 5.151101e-01 1.592703e+00 5.937786e+00 2.968519e+00 8.572553e-01 1.229871e+00 1.000000e-02 1.089335e-01 2.138846e-02 1.141433e-01 1.310023e-01 1.427672e-01 2.539404e-01 1.914956e-01 1.392987e-01 3.480921e-01 3.696532e-01 2.574610e-01 7.538712e-02 1.000000e-02
<GCONST> 5.531415e+01
<STATE> 17
<MEAN> 39
 3.149897e+00 -1.224478e+01 -1.584586e+01 -1.362097e+01 -1.274357e+00 -6.605900e-01 4.381795e+00 -2.891304e+00 -1.628672e+00 -4.039513e+00 7.635758e-01 -4.254106e+00 4.203410e-01 -3.850133e-01 3.035144e-02 1.114906e+00 5.422349e-01 2.454547e-01 -1.409527e-01 -8.547096e-01 -7.908100e-01 -6.319910e-01 -1.092821e+00 -3.845611e-01 -3.756317e-02 -2.407276e-02 2.468747e-03 1.484798e-03 8.240074e-02 1.640051e-01 3.700456e-02 3.208512e-02 1.798071e-01 5.727997e-02 -2.118775e-01 -1.512441e-01 3.339637e-02 2.882352e-01 3.666912e-04
<VARIANCE> 39
 2.858086e+00 2.024570e+00 5.116527e+00 7.442104e+00 1.697334e+01 1.023077e+01 1.408637e+01 1.298262e+01 2.414243e+01 1.464198e+01 8.915027e+00 1.108744e+01 1.000000e-02 8.934108e-01 1.612423e-01 9.020139e-01 4.551477e-01 3.954644e-01 1.096205e+00 1.283803e+00 3.073631e-01 6.614700e-01 5.646697e-01 4.469306e-01 3.982421e-01 1.000000e-02 5.136872e-02 4.146709e-02 1.330519e-01 7.463597e-02 1.167831e-01 2.642463e-01 2.872069e-01 4.242940e-01 7.819554e-01 4.080411e-01 7.887822e-02 2.085416e-01 1.000000e-02
<GCONST> 5.518299e+01
<STATE> 18
<MEAN> 39
 2.759506e+00 -1.215488e+01 -1.273653e+01 -1.163635e+01 -3.850348e-02 -3.276258e-01 2.197437e+00 -4.338716e+00 -2.762188e+00 -5.232220e+00 1.971741e+00 -3.060286e+00 3.741008e-01 -4.556988e-01 -4.196985e-02 6.384428e-01 6.499018e-01 2.787972e-01 -8.456647e-02 3.875484e-01 4.114015e-01 -1.001128e-01 -5.424661e-02 3.901913e-01 8.515502e-01 -1.825882e-02 -1.234662e-01 -1.302207e-01 -5.856955e-01 -1.799829e-01 -1.010451e-02 1.779351e-01 6.406180e-01 4.323086e-01 1.558193e-01 3.857784e-01 1.245641e-01 7.026500e-02 1.698216e-03
<VARIANCE> 39
 1.004107e+01 2.485169e+00 6.902152e+00 6.440330e+00 1.318563e+01 1.871406e+01 8.020007e+00 7.281550e+00 6.376149e+00 1.743853e+01 4.123021e+00 8.916653e+00 1.423726e-02 3.132156e-01 4.137531e-01 8.433308e-01 4.058258e-01 6.258060e-01 1.405681e+00 1.001394e+00 1.470580e+00 1.490266e+00 2.826254e-01 4.782776e-01 6.191983e-01 1.000000e-02 1.776993e-01 3.532463e-02 1.879994e-01 4.824134e-02 6.428461e-02 9.044223e-02 4.805673e-02 8.297816e-02 1.675541e-01 2.189373e-01 1.666708e-01 5.277145e-02 1.000000e-02
<GCONST> 4.969489e+01
<STATE> 19
<MEAN> 39
 1.197999e+00 -1.231256e+01 -1.286823e+01 -1.081856e+01 -3.122637e-01 1.483137e-01 6.354497e+00 -2.107579e+00 -2.253483e+00 -3.536407e+00 2.524596e+00 -1.325286e+00 3.360693e-01 -3.097399e-01 -3.084949e-01 -6.313947e-01 1.546768e-01 3.467378e-01 2.558154e-01 1.418543e+00 9.526275e-01 -5.329043e-01 -4.097604e-01 -2.850797e-01 1.536735e-01 -2.621949e-03 8.468726e-02 4.568325e-02 -1.226456e-01 -2.201536e-01 -1.580010e-01 -1.567426e-01 -5.716291e-02 2.592235e-01 3.898458e-01 1.725076e-01 -1.352153e-01 -6.782966e-02 3.670745e-03
<VARIANCE> 39
 9.955800e+00 6.549535e+00 6.620333e+00 3.311816e+00 7.200860e+00 1.123981e+01 1.125355e+01 7.257641e+00 1.115228e+01 3.238292e+00 4.369073e+00 8.622987e+00 1.000000e-02 7.928802e-01 1.794083e-01 3.694409e-01 2.417576e-01 3.539275e-01 6.429357e-01 1.256544e+00 1.302899e+00 1.913303e+00 2.159943e+00 1.375950e+00 4.142668e-01 1.000000e-02 1.855486e-01 1.019879e-01 1.866217e-01 5.644481e-02 9.351291e-02 3.872638e-01 5.603551e-01 4.160437e-01 2.387691e-01 5.813715e-02 2.152066e-01 4.576864e-02 1.000000e-02
<GCONST> 5.445010e+01
<STATE> 20
<MEAN> 39
 8.719327e-01 -1.359890e+01 -1.544746e+01 -1.135531e+01 9.674667e-01 6.293147e-01 7.170531e+00 -6.351277e-01 -2.270318e+00 -4.306995e+00 9.063665e-01 -1.380168e+00 3.456613e-01 -6.050731e-01 2.594790e-02 -1.160569e-01 -1.988574e-01 -6.786346e-02 2.194281e-01 5.934099e-01 7.994606e-01 6.635327e-01 5.716847e-01 3.085745e-02 4.803496e-01 -2.364640e-02 -1.679128e-01 4.153539e-01 7.139745e-01 2.125489e-01 -1.762396e-01 -2.679756e-01 -4.435841e-01 -1.449164e-01 3.644174e-01 1.466065e-01 3.428062e-01 -6.348176e-03 -1.206929e-02
<VARIANCE> 39
 2.560595e+00 3.648099e+00 2.393734e+00 4.096963e+00 7.255965e+00 8.179472e+00 1.082288e+01 1.809629e+01 1.248750e+01 3.688758e+00 2.001847e+01 3.964276e+00 1.000000e-02 6.165698e-01 5.359663e-01 8.037874e-01 6.188483e-01 3.222224e-01 5.581220e-01 1.202691e+00 1.219132e+00 4.206087e-01 9.460502e-01 1.814133e+00 4.314482e-01 1.000000e-02 5.020825e-02 6.436313e-02 1.441064e-01 1.093257e-01 4.201542e-02 9.748586e-02 2.078326e-01 1.650863e-01 2.247264e-01 2.034573e-01 3.888492e-01 1.198119e-01 1.000000e-02
<GCONST> 5.073192e+01
<STATE> 21
<MEAN> 39
 -2.663693e-01 -1.228685e+01 -1.334606e+01 -1.183670e+01 -8.820404e-01 -2.043555e-01 7.316961e+00 1.869578e-01 -8.440478e-01 -3.458431e+00 3.226910e+00 3.705570e-01 2.847864e-01 -1.175950e+00 1.159513e+00 2.316711e+00 1.172053e+00 -3.943909e-01 -8.685162e-01 -5.547553e-01 3.090858e-01 1.767261e+00 7.766976e-01 6.807739e-01 2.032915e-02 -5.515649e-02 -1.891849e-01 2.386623e-01 6.238238e-01 3.976739e-01 1.554229e-02 -2.457848e-01 -3.408173e-01 -3.390241e-01 1.404553e-02 2.831100e-02 9.310193e-03 -3.487487e-01 -1.156451e-02
<VARIANCE> 39
 2.402972e+00 2.469600e+00 1.043643e+01 8.061357e+00 5.674739e+00 2.006560e+01 1.353388e+01 2.793418e+01 2.071991e+01 6.635856e+00 1.844346e+01 7.276306e+00 1.000000e-02 3.557271e-01 3.788915e-01 9.378754e-01 2.962825e-01 3.005033e-01 7.872087e-01 1.331346e+00 6.146925e-01 7.709730e-01 7.354000e-01 1.080860e+00 1.097984e+00 1.000000e-02 1.351147e-01 4.713975e-02 1.412916e-01 1.144867e-01 4.611270e-02 2.865357e-01 2.548900e-01 2.574259e-01 1.845079e-01 2.768812e-01 5.962632e-01 5.588580e-01 1.000000e-02
<GCONST> 5.894078e+01
<STATE> 22
<MEAN> 39
 -3.133105e+00 -9.792562e+00 -8.360121e+00 -8.643839e+00 -7.270516e-01 -1.049286e+00 6.391731e+00 1.691245e+00 3.970854e+00 -1.539861e+00 3.574062e+00 -1.125142e+00 1.741762e-01 -1.170761e+00 1.234912e+00 2.717433e+00 1.369256e+00 -2.645341e-01 -1.682359e+00 -9.210021e-01 -2.575884e-01 3.950433e-01 4.042875e-01 8.061692e-01 -5.026810e-01 -5.724132e-02 1.670645e-01 -2.587361e-01 -3.520569e-01 -8.520409e-04 1.980280e-01 -1.268540e-02 -7.678571e-02 -5.253727e-01 -6.162136e-01 -3.127748e-01 -3.072137e-01 -1.320832e-01 6.088718e-03
<VARIANCE> 39
 3.832713e+00 2.351795e+00 1.292192e+01 3.348843e+00 3.715475e+00 1.171413e+01 1.324693e+01 2.391791e+01 6.563274e+00 5.244045e+00 1.304140e+01 1.136818e+01 1.000000e-02 4.308468e-01 1.427054e-01 4.661546e-01 3.257964e-01 4.178936e-01 2.086056e+00 8.338373e-01 1.086239e+00 9.167717e-01 1.024288e+00 2.713708e+00 4.105409e+00 1.000000e-02 2.366883e-02 4.209811e-02 1.481149e-01 1.265465e-01 6.728277e-02 3.042692e-01 1.144710e-01 1.254328e-01 4.780648e-02 6.355681e-02 1.514208e-01 2.018086e-01 1.000000e-02
<GCONST> 5.103005e+01
<STATE> 23
<MEAN> 39
 -3.776552e+00 -8.790333e+00 -6.018135e+00 -7.491273e+00 -9.780662e-01 -3.735485e+00 4.710566e+00 -7.760218e-01 7.125522e-01 -2.389150e+00 4.405945e+00 -2.118027e+00 9.850826e-02 -4.736538e-01 8.918349e-02 6.226662e-01 7.752874e-01 3.185249e-01 -2.664675e-01 -3.729393e-01 -8.547767e-01 -1.893931e-01 -3.821952e-01 -2.577937e-01 -2.165042e-01 -2.661685e-02 3.036543e-01 -3.668407e-01 -5.653376e-01 -1.262127e-01 1.398323e-01 2.749705e-01 1.849152e-01 4.421717e-02 -1.961325e-01 -2.830963e-01 -3.694823e-01 1.747304e-01 1.551356e-02
<VARIANCE> 39
 2.993546e+00 1.306711e+00 5.871058e+00 1.924741e+00 4.663786e+00 1.498382e+01 1.043720e+01 6.405115e+00 1.435347e+01 1.176120e+01 1.192184e+01 3.085085e+01 1.000000e-02 2.443132e-01 1.968677e-01 4.722503e-01 5.285041e-01 7.361286e-01 1.608357e+00 9.904821e-01 6.732724e-01 2.708407e-01 2.024343e-01 2.353231e+00 2.533552e+00 1.000000e-02 7.608565e-02 4.644791e-02 1.168964e-01 7.769884e-02 1.193032e-01 3.160245e-01 1.764934e-01 7.021253e-02 8.584119e-02 1.082411e-01 2.055544e-01 5.552916e-01 1.000000e-02
<GCONST> 5.049477e+01
<STATE> 24
<MEAN> 39
 -4.448909e+00 -9.206769e+00 -5.620873e+00 -5.242906e+00 9.711381e-01 -2.857074e+00 5.468746e+00 -2.794627e+00 2.352878e+00 -2.196250e+00 3.418383e+00 -1.131648e+00 7.891888e-02 -1.892875e-01 -2.909375e-01 2.881882e-01 7.803740e-01 1.866853e-01 -2.693773e-01 -3.718322e-01 -4.025562e-01 5.804741e-03 -4.966733e-01 -7.857193e-01 8.611922e-02 -6.823945e-03 1.531171e-01 7.000606e-02 3.861463e-02 -1.080886e-01 -3.784270e-02 1.672247e-01 -5.758836e-02 2.526831e-01 -2.015725e-01 -1.727431e-01 7.226659e-02 1.334205e-01 7.588525e-03
<VARIANCE> 39
 1.943210e+00 2.040804e+00 6.220718e+00 2.332482e+00 7.208688e+00 1.190894e+01 7.907808e+00 6.310703e+00 1.909213e+01 3.688477e+00 8.072485e+00 2.229859e+01 1.000000e-02 2.531787e-01 1.554172e-01 4.318830e-01 1.152839e-01 8.499718e-01 1.542511e-01 6.629263e-01 3.367869e-01 2.479618e-01 5.244581e-01 4.686625e-01 9.744180e-01 1.000000e-02 7.511768e-02 3.804792e-02 1.226941e-01 1.603568e-01 1.303477e-01 3.532416e-01 7.850440e-02 4.345343e-02 4.150076e-02 3.936607e-02 2.956644e-01 4.807076e-01 1.000000e-02
<GCONST> 4.022155e+01
<TRANSP> 25
 0.000000e+00 1.000000e+00 0.000000e+00 0.000000e+00 0.000000e+00 0.000000e+00 0.000000e+00 0.000000e+00 0.000000e+00 0.000000e+00 0.000000e+00 0.000000e+00 0.000000e+00 0.000000e+00 0.000000e+00 0.000000e+00 0.000000e+00 0.000000e+00 0.000000e+00 0.000000e+00 0.000000e+00 0.000000e+00 0.000000e+00 0.000000e+00 0.000000e+00
 0.000000e+00 4.444444e-01 5.555556e-01 0.000000e+00 0.000000e+00 0.000000e+00 0.000000e+00 0.000000e+00 0.000000e+00 0.000000e+00 0.000000e+00 0.000000e+00 0.000000e+00 0.000000e+00 0.000000e+00 0.000000e+00 0.000000e+00 0.000000e+00 0.000000e+00 0.000000e+00 0.000000e+00 0.000000e+00 0.000000e+00 0.000000e+00 0.000000e+00
 0.000000e+00 0.000000e+00 4.444444e-01 5.555556e-01 0.000000e+00 0.000000e+00 0.000000e+00 0.000000e+00 0.000000e+00 0.000000e+00 0.000000e+00 0.000000e+00 0.000000e+00 0.000000e+00 0.000000e+00 0.000000e+00 0.000000e+00 0.000000e+00 0.000000e+00 0.000000e+00 0.000000e+00 0.000000e+00 0.000000e+00 0.000000e+00 0.000000e+00
 0.000000e+00 0.000000e+00 0.000000e+00 5.000000e-01 5.000000e-01 0.000000e+00 0.000000e+00 0.000000e+00 0.000000e+00 0.000000e+00 0.000000e+00 0.000000e+00 0.000000e+00 0.000000e+00 0.000000e+00 0.000000e+00 0.000000e+00 0.000000e+00 0.000000e+00 0.000000e+00 0.000000e+00 0.000000e+00 0.000000e+00 0.000000e+00 0.000000e+00
 0.000000e+00 0.000000e+00 0.000000e+00 0.000000e+00 2.857143e-01 7.142857e-01 0.000000e+00 0.000000e+00 0.000000e+00 0.000000e+00 0.000000e+00 0.000000e+00 0.000000e+00 0.000000e+00 0.000000e+00 0.000000e+00 0.000000e+00 0.000000e+00 0.000000e+00 0.000000e+00 0.000000e+00 0.000000e+00 0.000000e+00 0.000000e+00 0.000000e+00
 0.000000e+00 0.000000e+00 0.000000e+00 0.000000e+00 0.000000e+00 3.750000e-01 6.250000e-01 0.000000e+00 0.000000e+00 0.000000e+00 0.000000e+00 0.000000e+00 0.000000e+00 0.000000e+00 0.000000e+00 0.000000e+00 0.000000e+00 0.000000e+00 0.000000e+00 0.000000e+00 0.000000e+00 0.000000e+00 0.000000e+00 0.000000e+00 0.000000e+00
 0.000000e+00 0.000000e+00 0.000000e+00 0.000000e+00 0.000000e+00 0.000000e+00 3.750000e-01 6.250000e-01 0.000000e+00 0.000000e+00 0.000000e+00 0.000000e+00 0.000000e+00 0.000000e+00 0.000000e+00 0.000000e+00 0.000000e+00 0.000000e+00 0.000000e+00 0.000000e+00 0.000000e+00 0.000000e+00 0.000000e+00 0.000000e+00 0.000000e+00
 0.000000e+00 0.000000e+00 0.000000e+00 0.000000e+00 0.000000e+00 0.000000e+00 0.000000e+00 4.444444e-01 5.555556e-01 0.000000e+00 0.000000e+00 0.000000e+00 0.000000e+00 0.000000e+00 0.000000e+00 0.000000e+00 0.000000e+00 0.000000e+00 0.000000e+00 0.000000e+00 0.000000e+00 0.000000e+00 0.000000e+00 0.000000e+00 0.000000e+00
 0.000000e+00 0.000000e+00 0.000000e+00 0.000000e+00 0.000000e+00 0.000000e+00 0.000000e+00 0.000000e+00 4.444444e-01 5.555556e-01 0.000000e+00 0.000000e+00 0.000000e+00 0.000000e+00 0.000000e+00 0.000000e+00 0.000000e+00 0.000000e+00 0.000000e+00 0.000000e+00 0.000000e+00 0.000000e+00 0.000000e+00 0.000000e+00 0.000000e+00
 0.000000e+00 0.000000e+00 0.000000e+00 0.000000e+00 0.000000e+00 0.000000e+00 0.000000e+00 0.000000e+00 0.000000e+00 4.444444e-01 5.555556e-01 0.000000e+00 0.000000e+00 0.000000e+00 0.000000e+00 0.000000e+00 0.000000e+00 0.000000e+00 0.000000e+00 0.000000e+00 0.000000e+00 0.000000e+00 0.000000e+00 0.000000e+00 0.000000e+00
 0.000000e+00 0.000000e+00 0.000000e+00 0.000000e+00 0.000000e+00 0.000000e+00 0.000000e+00 0.000000e+00 0.000000e+00 0.000000e+00 5.454546e-01 4.545455e-01 0.000000e+00 0.000000e+00 0.000000e+00 0.000000e+00 0.000000e+00 0.000000e+00 0.000000e+00 0.000000e+00 0.000000e+00 0.000000e+00 0.000000e+00 0.000000e+00 0.000000e+00
 0.000000e+00 0.000000e+00 0.000000e+00 0.000000e+00 0.000000e+00 0.000000e+00 0.000000e+00 0.000000e+00 0.000000e+00 0.000000e+00 0.000000e+00 2.857143e-01 7.142857e-01 0.000000e+00 0.000000e+00 0.000000e+00 0.000000e+00 0.000000e+00 0.000000e+00 0.000000e+00 0.000000e+00 0.000000e+00 0.000000e+00 0.000000e+00 0.000000e+00
 0.000000e+00 0.000000e+00 0.000000e+00 0.000000e+00 0.000000e+00 0.000000e+00 0.000000e+00 0.000000e+00 0.000000e+00 0.000000e+00 0.000000e+00 0.000000e+00 2.857143e-01 7.142857e-01 0.000000e+00 0.000000e+00 0.000000e+00 0.000000e+00 0.000000e+00 0.000000e+00 0.000000e+00 0.000000e+00 0.000000e+00 0.000000e+00 0.000000e+00
 0.000000e+00 0.000000e+00 0.000000e+00 0.000000e+00 0.000000e+00 0.000000e+00 0.000000e+00 0.000000e+00 0.000000e+00 0.000000e+00 0.000000e+00 0.000000e+00 0.000000e+00 3.750000e-01 6.250000e-01 0.000000e+00 0.000000e+00 0.000000e+00 0.000000e+00 0.000000e+00 0.000000e+00 0.000000e+00 0.000000e+00 0.000000e+00 0.000000e+00
 0.000000e+00 0.000000e+00 0.000000e+00 0.000000e+00 0.000000e+00 0.000000e+00 0.000000e+00 0.000000e+00 0.000000e+00 0.000000e+00 0.000000e+00 0.000000e+00 0.000000e+00 0.000000e+00 2.857143e-01 7.142857e-01 0.000000e+00 0.000000e+00 0.000000e+00 0.000000e+00 0.000000e+00 0.000000e+00 0.000000e+00 0.000000e+00 0.000000e+00
 0.000000e+00 0.000000e+00 0.000000e+00 0.000000e+00 0.000000e+00 0.000000e+00 0.000000e+00 0.000000e+00 0.000000e+00 0.000000e+00 0.000000e+00 0.000000e+00 0.000000e+00 0.000000e+00 0.000000e+00 5.000000e-01 5.000000e-01 0.000000e+00 0.000000e+00 0.000000e+00 0.000000e+00 0.000000e+00 0.000000e+00 0.000000e+00 0.000000e+00
 0.000000e+00 0.000000e+00 0.000000e+00 0.000000e+00 0.000000e+00 0.000000e+00 0.000000e+00 0.000000e+00 0.000000e+00 0.000000e+00 0.000000e+00 0.000000e+00 0.000000e+00 0.000000e+00 0.000000e+00 0.000000e+00 5.000000e-01 5.000000e-01 0.000000e+00 0.000000e+00 0.000000e+00 0.000000e+00 0.000000e+00 0.000000e+00 0.000000e+00
 0.000000e+00 0.000000e+00 0.000000e+00 0.000000e+00 0.000000e+00 0.000000e+00 0.000000e+00 0.000000e+00 0.000000e+00 0.000000e+00 0.000000e+00 0.000000e+00 0.000000e+00 0.000000e+00 0.000000e+00 0.000000e+00 0.000000e+00 3.750000e-01 6.250000e-01 0.000000e+00 0.000000e+00 0.000000e+00 0.000000e+00 0.000000e+00 0.000000e+00
 0.000000e+00 0.000000e+00 0.000000e+00 0.000000e+00 0.000000e+00 0.000000e+00 0.000000e+00 0.000000e+00 0.000000e+00 0.000000e+00 0.000000e+00 0.000000e+00 0.000000e+00 0.000000e+00 0.000000e+00 0.000000e+00 0.000000e+00 0.000000e+00 2.857143e-01 7.142857e-01 0.000000e+00 0.000000e+00 0.000000e+00 0.000000e+00 0.000000e+00
 0.000000e+00 0.000000e+00 0.000000e+00 0.000000e+00 0.000000e+00 0.000000e+00 0.000000e+00 0.000000e+00 0.000000e+00 0.000000e+00 0.000000e+00 0.000000e+00 0.000000e+00 0.000000e+00 0.000000e+00 0.000000e+00 0.000000e+00 0.000000e+00 0.000000e+00 5.000000e-01 5.000000e-01 0.000000e+00 0.000000e+00 0.000000e+00 0.000000e+00
 0.000000e+00 0.000000e+00 0.000000e+00 0.000000e+00 0.000000e+00 0.000000e+00 0.000000e+00 0.000000e+00 0.000000e+00 0.000000e+00 0.000000e+00 0.000000e+00 0.000000e+00 0.000000e+00 0.000000e+00 0.000000e+00 0.000000e+00 0.000000e+00 0.000000e+00 0.000000e+00 3.750000e-01 6.250000e-01 0.000000e+00 0.000000e+00 0.000000e+00
 0.000000e+00 0.000000e+00 0.000000e+00 0.000000e+00 0.000000e+00 0.000000e+00 0.000000e+00 0.000000e+00 0.000000e+00 0.000000e+00 0.000000e+00 0.000000e+00 0.000000e+00 0.000000e+00 0.000000e+00 0.000000e+00 0.000000e+00 0.000000e+00 0.000000e+00 0.000000e+00 0.000000e+00 1.666667e-01 8.333333e-01 0.000000e+00 0.000000e+00
 0.000000e+00 0.000000e+00 0.000000e+00 0.000000e+00 0.000000e+00 0.000000e+00 0.000000e+00 0.000000e+00 0.000000e+00 0.000000e+00 0.000000e+00 0.000000e+00 0.000000e+00 0.000000e+00 0.000000e+00 0.000000e+00 0.000000e+00 0.000000e+00 0.000000e+00 0.000000e+00 0.000000e+00 0.000000e+00 5.454546e-01 4.545455e-01 0.000000e+00
 0.000000e+00 0.000000e+00 0.000000e+00 0.000000e+00 0.000000e+00 0.000000e+00 0.000000e+00 0.000000e+00 0.000000e+00 0.000000e+00 0.000000e+00 0.000000e+00 0.000000e+00 0.000000e+00 0.000000e+00 0.000000e+00 0.000000e+00 0.000000e+00 0.000000e+00 0.000000e+00 0.000000e+00 0.000000e+00 0.000000e+00 0.000000e+00 1.000000e+00
 0.000000e+00 0.000000e+00 0.000000e+00 0.000000e+00 0.000000e+00 0.000000e+00 0.000000e+00 0.000000e+00 0.000000e+00 0.000000e+00 0.000000e+00 0.000000e+00 0.000000e+00 0.000000e+00 0.000000e+00 0.000000e+00 0.000000e+00 0.000000e+00 0.000000e+00 0.000000e+00 0.000000e+00 0.000000e+00 0.000000e+00 0.000000e+00 0.000000e+00
<ENDHMM>
