~o
<STREAMINFO> 1 39
<VECSIZE> 39<NULLD><MFCC_E_D_A><DIAGC>
~h "Ngu*ng"
<BEGINHMM>
<NUMSTATES> 5
<STATE> 2
<MEAN> 39
 -6.017567e+00 -7.687809e+00 -1.112323e+00 -1.457544e+00 9.017980e-01 -4.335390e+00 6.330153e-01 -2.115522e+00 1.882478e+00 -3.495888e+00 2.386263e+00 -2.604195e+00 1.560888e-01 3.200440e-01 7.571831e-02 -2.453444e-01 -3.855825e-01 -2.547056e-01 -9.741665e-02 -1.598421e-01 -2.462163e-02 -1.782405e-01 -1.297435e-01 -4.626571e-01 -1.895329e-01 1.564779e-02 1.921687e-01 -1.081988e-02 -1.341273e-01 -1.474869e-01 -8.241768e-02 -7.924136e-02 -5.603959e-02 -4.669503e-02 -5.620928e-02 3.726162e-03 -8.664414e-02 -4.319796e-02 6.999689e-03
<VARIANCE> 39
 9.486454e+00 1.287190e+01 1.340332e+01 1.464918e+01 8.427638e+00 1.103428e+01 1.271270e+01 1.036952e+01 1.339782e+01 1.225506e+01 1.706502e+01 1.140628e+01 1.000000e-02 2.342291e+00 1.734823e+00 2.074342e+00 2.513706e+00 1.131282e+00 9.914278e-01 1.198653e+00 1.595940e+00 1.398857e+00 1.537756e+00 2.138432e+00 1.385495e+00 1.000000e-02 4.079565e-01 3.418947e-01 4.045014e-01 4.395083e-01 2.030042e-01 1.835777e-01 2.127471e-01 3.314615e-01 2.688312e-01 3.216559e-01 3.689791e-01 2.826321e-01 1.000000e-02
<GCONST> 7.905452e+01
<STATE> 3
<MEAN> 39
 -2.273049e+00 -1.267216e+01 -1.058679e+01 -1.470050e+01 1.711152e-01 -7.847722e+00 -3.262630e+00 9.845726e-01 -9.531366e-01 -3.833238e+00 -1.243370e+01 -5.236214e+00 8.588954e-01 1.638058e-01 -5.080588e-01 1.043432e-01 -4.218419e-01 -1.663569e-01 7.128004e-02 -2.367242e-01 -6.479173e-02 2.392254e-01 7.232372e-02 -2.538197e-01 4.691339e-02 1.796469e-02 -9.045043e-02 -1.145223e-02 1.153279e-01 1.411367e-01 -1.471060e-02 7.927175e-02 3.602083e-02 4.542490e-03 8.609956e-02 -4.489885e-02 1.611047e-01 3.776165e-02 -6.645621e-03
<VARIANCE> 39
 5.373554e+01 1.443268e+01 3.653556e+01 2.432878e+01 4.404323e+01 4.707048e+01 3.551953e+01 4.430998e+01 3.984233e+01 2.039736e+01 2.120783e+01 1.606341e+01 1.763593e-02 5.288313e+00 8.282314e-01 3.081720e+00 1.543422e+00 4.104694e+00 5.128157e+00 2.762714e+00 3.860489e+00 3.391399e+00 2.574994e+00 2.478753e+00 1.720263e+00 1.000000e-02 8.145151e-01 1.675583e-01 3.794725e-01 2.838611e-01 5.402896e-01 8.816097e-01 5.406545e-01 5.572922e-01 6.335161e-01 5.096410e-01 3.598288e-01 3.634494e-01 1.000000e-02
<GCONST> 1.021438e+02
<STATE> 4
<MEAN> 39
 2.202103e+00 -1.260755e+01 -4.643462e+00 -8.140366e+00 -3.308104e+00 -5.648348e+00 -3.406714e+00 -3.783690e+00 3.027833e+00 -6.491673e+00 -4.815575e+00 -3.559446e+00 4.713584e-01 -3.650402e-01 2.737426e-01 1.125616e-02 5.567282e-01 2.574103e-01 -1.067983e-03 2.296670e-01 1.654216e-01 4.528470e-02 4.061396e-02 3.843347e-01 4.898209e-02 -2.567581e-02 -5.156016e-02 1.772245e-02 3.105118e-03 -3.894338e-02 5.977747e-02 -7.348512e-03 1.271904e-03 2.357745e-02 -2.443623e-02 5.844597e-02 -4.048218e-02 9.808516e-03 2.314111e-04
<VARIANCE> 39
 3.101324e+01 1.368060e+01 2.158642e+01 4.085743e+01 3.262338e+01 1.931412e+01 2.177067e+01 1.571897e+01 2.716365e+01 1.292858e+01 2.200178e+01 1.306842e+01 6.897647e-02 6.616119e-01 7.024741e-01 1.432562e+00 1.234400e+00 1.232659e+00 1.468030e+00 1.279682e+00 1.276941e+00 1.453226e+00 1.072606e+00 1.281594e+00 1.020048e+00 1.000000e-02 9.305843e-02 1.399674e-01 2.559521e-01 2.151172e-01 2.184510e-01 2.898386e-01 2.730158e-01 2.269032e-01 3.210927e-01 2.021629e-01 2.583479e-01 2.266029e-01 1.000000e-02
<GCONST> 7.967522e+01
<TRANSP> 5
 0.000000e+00 1.000000e+00 0.000000e+00 0.000000e+00 0.000000e+00
 0.000000e+00 9.418604e-01 5.813953e-02 0.000000e+00 0.000000e+00
 0.000000e+00 0.000000e+00 9.523810e-01 4.761904e-02 0.000000e+00
 0.000000e+00 0.000000e+00 0.000000e+00 9.629630e-01 3.703703e-02
 0.000000e+00 0.000000e+00 0.000000e+00 0.000000e+00 0.000000e+00
<ENDHMM>
