~o
<STREAMINFO> 1 39
<VECSIZE> 39<NULLD><MFCC_E_D_A><DIAGC>
~h "Ngu*ng"
<BEGINHMM>
<NUMSTATES> 37
<STATE> 2
<MEAN> 39
 -4.371379e+00 -7.316965e+00 4.967284e-02 -1.129823e+00 2.456425e+00 -3.490770e+00 1.106649e+00 -3.653879e+00 -1.355146e-01 -4.099614e+00 2.998612e+00 -1.633006e+00 1.553255e-01 -1.378109e+00 7.683554e-01 -1.037564e+00 1.043026e+00 -8.563593e-03 -2.238008e-02 4.419854e-01 3.275560e-01 2.262006e-02 -3.337792e-01 -3.283021e-01 -2.880480e-01 3.917750e-03 -1.725474e-01 1.364050e-01 -4.762741e-01 -2.374413e-01 -4.204646e-01 -1.176615e-01 -1.124321e-02 2.233755e-01 2.602062e-02 1.120139e-01 4.798737e-02 -2.283297e-01 9.160683e-03
<VARIANCE> 39
 2.916148e+00 2.235997e+00 4.200589e+00 3.714899e+00 4.207172e+00 7.128993e+00 9.603067e+00 5.809515e+00 1.142464e+01 1.089805e+01 7.321087e+00 7.651226e+00 1.000000e-02 2.015986e+00 3.971830e+00 2.339613e+00 2.366183e+00 1.142154e+00 1.076120e+00 1.984665e+00 5.175296e-01 1.158885e+00 1.202016e+00 2.666407e+00 1.829583e+00 1.000000e-02 5.283553e-01 2.429185e-01 2.773222e-01 5.088556e-01 1.112210e-01 1.091996e-01 4.409308e-01 2.226159e-01 2.754024e-01 2.114749e-01 4.619663e-01 2.771709e-01 1.000000e-02
<GCONST> 6.905595e+01
<STATE> 3
<MEAN> 39
 -1.172297e+01 -2.493050e+00 -5.947453e+00 3.343178e+00 7.037177e-01 -3.632856e+00 5.356579e+00 -1.485237e+00 2.160360e+00 -2.645980e+00 5.624961e+00 -2.988984e+00 2.009535e-01 4.170005e-01 1.615968e-01 -6.172734e-01 -7.907780e-01 -1.009502e+00 -2.561722e-01 -2.997376e-01 9.154269e-01 -3.654746e-01 -4.094319e-01 -2.716294e-01 -6.395606e-01 4.250859e-02 1.468190e+00 -6.856345e-01 4.546896e-01 -1.147980e+00 -2.049098e-01 -1.807001e-01 -6.505137e-01 -2.135812e-01 -2.510968e-01 -6.264277e-02 -7.346853e-01 2.761714e-02 1.235249e-02
<VARIANCE> 39
 2.322672e+01 7.366874e+01 6.004140e+01 4.018195e+01 1.356489e+01 2.657431e+01 2.469432e+01 2.682735e+00 2.293430e+01 5.349144e+00 3.083371e+01 1.798778e+01 1.668145e-02 2.589354e+00 1.098265e+00 1.493418e+00 3.453305e+00 1.061524e+00 8.024815e-01 2.517409e+00 1.637016e+00 1.401258e+00 1.296000e+00 2.441297e+00 1.122234e+00 1.000000e-02 8.717003e-02 1.642959e+00 1.624571e+00 5.197838e-01 5.071152e-01 2.837224e-01 3.384008e-01 1.886979e-01 1.539720e-01 1.771431e-01 3.057106e-01 3.178511e-01 1.000000e-02
<GCONST> 8.762579e+01
<STATE> 4
<MEAN> 39
 -6.458460e+00 -7.866763e+00 -1.710905e+00 -1.968310e+00 -7.254740e-01 -4.620048e+00 8.509403e-01 9.019646e-01 -3.245341e-01 -5.479914e+00 2.011314e+00 -3.181006e+00 1.777017e-01 2.320125e+00 -1.167841e+00 6.542385e-01 -2.468879e+00 -3.811533e-01 -1.434595e-01 -1.223658e+00 -4.097641e-01 -1.804071e-01 3.433136e-01 -2.411717e+00 -6.607351e-01 2.099405e-02 2.160425e-01 1.616717e-01 -4.244977e-01 6.348452e-02 5.515158e-02 -1.166533e-01 -8.219590e-03 -7.451909e-01 8.229237e-02 6.116771e-02 -1.554626e-01 -1.174693e-01 1.181460e-02
<VARIANCE> 39
 3.504636e+00 2.343349e+00 1.743988e+00 9.962742e+00 9.403380e+00 9.681105e+00 1.513820e+01 1.539011e+01 1.344928e+01 1.076726e+01 2.974044e+01 8.510760e+00 1.474176e-02 2.235811e+00 5.475881e+00 6.188651e+00 1.947355e+00 2.578256e+00 9.058329e-01 1.614063e+00 2.753630e+00 1.149505e+00 1.341182e+00 1.582579e+00 1.085116e+00 1.000000e-02 4.682037e-01 4.216347e-01 3.068038e-01 4.824591e-01 1.577587e-01 6.442202e-02 2.171967e-01 3.296206e-01 5.072008e-02 9.678103e-02 4.937769e-01 1.234630e-01 1.000000e-02
<GCONST> 7.311675e+01
<STATE> 5
<MEAN> 39
 1.820012e-01 -6.621392e+00 -3.777663e+00 -6.965134e+00 -3.929871e-01 -3.317509e+00 -6.485459e-01 -3.529084e+00 3.017471e-01 -3.405163e+00 -4.188639e+00 -5.999274e+00 3.580087e-01 2.052077e+00 -4.904436e-01 -1.489809e+00 -9.933991e-01 -8.412347e-01 -6.420884e-01 -1.940160e-01 -1.374485e+00 -5.861531e-01 -5.349940e-01 -1.026082e+00 -1.678063e-01 6.953853e-02 -5.327085e-01 -1.926843e-01 6.046145e-02 5.807210e-01 4.851656e-02 -2.986877e-01 4.784077e-01 2.999827e-01 -2.332612e-01 -1.961269e-01 6.348140e-01 5.925876e-01 -5.485848e-03
<VARIANCE> 39
 3.935807e+01 4.245191e+00 1.351216e+01 2.982908e+01 8.226559e+00 5.752083e+00 4.415505e+00 7.251196e+00 1.742132e+01 1.073564e+01 3.016127e+01 7.479898e+00 5.927782e-02 3.406786e+00 8.416799e-01 1.812001e+00 1.319994e+00 8.187435e-01 1.356869e+00 7.387642e-01 1.183516e+00 4.925350e-01 3.730080e-01 3.113598e+00 9.526375e-01 1.000000e-02 4.534205e-01 2.346319e-01 1.681363e-01 1.780759e-01 1.690401e-01 1.780266e-01 1.438879e-01 2.927763e-01 1.199965e-01 3.302088e-01 1.095766e-01 4.518643e-02 1.000000e-02
<GCONST> 6.906533e+01
<STATE> 6
<MEAN> 39
 5.405453e+00 -1.040436e+01 -8.922009e+00 -8.872155e+00 -6.215051e+00 -8.878409e+00 -8.211404e-01 -7.065183e+00 -4.891559e+00 -7.982645e+00 -5.886535e+00 -5.176677e+00 5.599288e-01 -1.663886e-01 -7.737935e-01 -7.481406e-01 2.712919e-01 -6.135145e-01 -2.458102e+00 4.619873e-01 3.311608e-01 -1.268980e+00 -6.359016e-01 -4.396414e-01 1.047987e+00 4.011552e-02 -1.513978e+00 1.293659e-01 5.185624e-01 3.405138e-01 6.547204e-01 -3.654177e-01 4.004034e-01 9.798468e-01 3.432457e-01 4.583508e-01 -1.184476e-01 1.753988e-01 -1.198555e-02
<VARIANCE> 39
 5.606573e+01 8.572633e+00 1.588805e+01 1.672738e+01 1.782595e+01 1.618510e+01 1.236897e+01 9.212730e+00 1.620819e+01 7.640375e+00 1.132163e+01 7.283511e+00 9.564620e-02 1.954401e+00 7.622591e-01 8.746167e-01 4.816032e-01 1.181984e+00 2.653837e+00 7.572070e-01 1.889861e+00 3.871009e-01 1.123118e+00 8.298237e-01 3.900076e-01 1.000000e-02 8.181376e-01 2.512069e-01 3.195083e-01 1.511229e-01 1.134259e-01 4.975866e-01 2.234691e-01 3.524446e-02 2.600957e-01 1.381021e-01 2.399799e-01 1.021317e-01 1.000000e-02
<GCONST> 7.121728e+01
<STATE> 7
<MEAN> 39
 -9.479544e-01 -8.421996e+00 -2.995008e+00 -3.272212e+00 -1.352178e+00 -7.384629e+00 3.796400e-01 -3.927078e+00 -2.170319e+00 -5.126307e+00 -6.968467e-01 -1.979385e+00 3.454844e-01 -1.106672e+00 -6.701431e-02 -3.089030e-02 3.010732e-01 2.503435e-01 -1.500111e+00 2.769473e-01 1.144044e+00 1.919453e-01 4.571807e-01 -1.132483e+00 -1.593910e-01 1.935674e-02 -5.326008e-01 -4.659940e-02 -3.114403e-02 -1.156844e-01 1.208884e-01 2.573961e-01 1.118401e-02 3.991071e-01 5.923529e-01 3.140090e-01 -2.996716e-01 -3.325583e-01 -5.838381e-03
<VARIANCE> 39
 3.560187e+01 3.542389e+00 3.886670e+01 1.382883e+01 1.968327e+01 2.965530e+01 9.291903e+00 1.535419e+01 1.928989e+01 1.443467e+01 6.037674e+01 3.749313e+00 7.138605e-02 4.163880e+00 8.446728e-01 1.893293e+00 5.477798e-01 8.706900e-01 2.685717e+00 1.774003e+00 1.206269e+00 1.579943e+00 1.996528e+00 1.518005e+00 1.074632e+00 1.000000e-02 3.773022e-01 1.320451e-01 2.771945e-01 9.163967e-02 1.525764e-01 5.915284e-01 1.600037e-01 1.095983e-01 2.569865e-01 1.756341e-01 1.814077e-01 1.443853e-01 1.000000e-02
<GCONST> 7.801389e+01
<STATE> 8
<MEAN> 39
 -4.648287e+00 -1.014897e+01 -6.514900e+00 -7.349543e+00 -2.090667e+00 -1.478081e+01 2.470232e+00 -4.425623e-01 -2.528943e+00 -4.302572e+00 -8.871202e+00 -4.379669e+00 5.537520e-01 -2.923530e+00 -5.806968e-01 -7.919841e-02 -6.174084e-01 8.457896e-01 2.850605e-01 4.248550e-01 1.982038e+00 1.660393e+00 9.347041e-01 -8.943907e-01 2.294117e-01 2.700347e-02 1.622567e-01 1.329292e-02 -1.325596e-01 -1.829009e-01 1.496097e-01 1.354594e+00 -4.694621e-01 -9.697862e-02 4.530937e-01 -1.109447e-01 5.078165e-01 1.154543e-01 -2.899936e-03
<VARIANCE> 39
 6.073101e+00 7.488300e+00 3.561726e+01 3.266618e+01 1.171107e+01 5.867135e+01 1.159342e+01 1.403771e+01 3.378511e+01 8.386488e+00 5.986423e+01 6.693401e+00 1.166347e-01 4.881157e+00 1.167674e+00 2.054361e+00 8.543673e-01 7.087084e-01 2.789351e+00 1.493844e+00 2.130484e+00 1.256798e+00 1.020914e+00 1.169053e+00 4.773955e-01 1.000000e-02 2.877342e-01 1.561846e-01 2.977547e-01 2.275380e-01 2.175349e-01 6.528557e-01 3.848322e-01 1.209178e-01 3.936653e-01 3.265138e-01 3.234043e-02 3.689993e-01 1.000000e-02
<GCONST> 8.097358e+01
<STATE> 9
<MEAN> 39
 -7.588444e+00 -1.123999e+01 -5.464514e+00 -5.804778e+00 -5.277088e-01 -8.796863e+00 1.666237e+00 2.069997e+00 2.185939e+00 -2.630888e+00 -5.559363e+00 -1.355780e+00 4.500937e-01 -1.408825e+00 -4.508972e-01 -8.247139e-01 -4.444682e-01 5.581993e-01 1.958568e+00 -4.091842e-01 1.479815e+00 1.424773e+00 1.591838e-02 1.843128e-01 7.093574e-01 7.937767e-03 6.382567e-01 1.212087e-01 -1.294894e-01 -3.544215e-02 5.116405e-02 4.018922e-01 -4.478901e-01 -4.022184e-01 -1.791543e-01 -1.945609e-01 2.143607e-01 -2.371241e-01 -2.581693e-04
<VARIANCE> 39
 3.604228e+00 7.100849e+00 3.731163e+01 4.074119e+01 5.469766e+00 2.485573e+01 4.070335e+00 3.201693e+01 1.206995e+01 1.419275e+01 8.516460e+01 2.555326e+00 1.681083e-01 4.916045e-01 5.400460e-01 9.447666e-01 1.393377e+00 1.024053e+00 1.901945e+00 1.386081e+00 9.323252e-01 1.779285e+00 2.065387e+00 3.955429e-01 1.309862e+00 1.000000e-02 4.524540e-01 1.253878e-01 2.938530e-01 7.882214e-02 5.507520e-02 2.814499e-01 1.518493e-01 2.566040e-01 8.622193e-02 2.113605e-01 9.767605e-02 7.072644e-02 1.000000e-02
<GCONST> 6.905019e+01
<STATE> 10
<MEAN> 39
 -8.338530e+00 -1.044278e+01 -5.178473e+00 -5.889769e+00 2.989135e-01 -6.582288e+00 3.503106e-01 2.750016e+00 3.059143e+00 -3.531057e+00 -3.955645e+00 -1.503509e+00 3.771580e-01 -3.226947e-03 1.340225e-02 -2.891643e-01 -5.229928e-01 6.839200e-01 1.432928e+00 -9.758737e-01 4.966957e-02 6.784686e-01 1.040985e-01 1.379621e-01 -3.031502e-01 2.175767e-02 5.461962e-01 9.172036e-02 8.173116e-02 1.481345e-01 1.761897e-01 -3.312456e-02 -1.731089e-01 -6.042337e-01 -2.936259e-01 -1.778336e-01 6.943396e-02 -2.905130e-01 7.596228e-04
<VARIANCE> 39
 6.275146e+00 5.190506e+00 3.919207e+01 3.105463e+01 2.652122e+00 1.297774e+01 5.174572e+00 1.732467e+01 2.750382e+00 2.235921e+01 8.043024e+01 4.094666e+00 1.738931e-01 1.014489e+00 2.995887e-01 5.015312e-01 1.115298e-01 1.205545e+00 2.009248e+00 3.778065e-01 9.101741e-01 1.481628e+00 5.801715e-01 4.944583e-01 6.864561e-01 1.000000e-02 2.228098e-01 8.356705e-02 1.437433e-01 6.026217e-02 6.915466e-02 8.464271e-02 1.321494e-01 9.435489e-02 2.693239e-02 3.907374e-01 8.213676e-02 1.310990e-01 1.000000e-02
<GCONST> 5.642373e+01
<STATE> 11
<MEAN> 39
 -8.654923e+00 -1.161057e+01 -9.684877e+00 -9.923855e+00 2.639141e+00 -3.920756e+00 -1.921050e+00 3.784109e+00 4.118071e+00 -4.031097e+00 -8.560123e+00 -3.884148e+00 6.869054e-01 8.888615e-02 -2.057677e-01 -4.100200e-01 -1.713112e-01 1.438561e+00 1.402936e+00 -1.113509e+00 -3.947934e-01 4.489248e-01 -4.376503e-01 8.379805e-02 -7.381288e-01 8.551853e-03 1.069557e-01 1.570185e-02 1.167171e-01 -1.572071e-02 -1.757762e-01 -6.172854e-01 1.586897e-01 -1.819280e-01 -4.066299e-01 -5.237527e-02 1.417203e-01 8.944020e-02 -1.123642e-02
<VARIANCE> 39
 1.099855e+01 9.734746e+00 5.165549e+01 3.559848e+01 6.991391e+00 1.690180e+01 8.012971e+00 2.994059e+01 6.870353e+00 8.282587e+00 8.344935e+01 5.184772e+00 1.676907e-01 1.050262e-01 1.911667e-01 6.515884e-01 3.860205e-01 9.864910e-01 1.725117e+00 1.058062e+00 3.222098e-01 1.259426e+00 1.597557e+00 5.034148e-01 3.061616e-01 1.000000e-02 1.527420e-01 1.092777e-01 9.756880e-02 6.576808e-02 2.429875e-01 3.652686e-02 1.046206e-01 1.796376e-01 1.681118e-01 1.323435e-01 8.261424e-02 1.327559e-01 1.000000e-02
<GCONST> 6.007304e+01
<STATE> 12
<MEAN> 39
 -8.473514e+00 -1.224836e+01 -7.747458e+00 -9.115178e+00 4.212526e+00 -3.198835e+00 -4.000410e+00 1.917467e+00 4.271844e+00 -6.182851e+00 -5.978974e+00 -4.264788e+00 5.515426e-01 1.621234e-01 -9.748676e-02 8.364490e-02 -3.519782e-01 1.094321e-01 -4.934206e-01 -2.580657e-01 -4.087746e-01 7.784500e-03 2.528247e-01 4.736208e-01 3.213118e-01 -5.063395e-03 1.612162e-01 2.354749e-01 2.730509e-01 -1.159908e-01 -3.459891e-01 -2.433762e-01 2.766528e-01 -8.346591e-02 -9.938879e-02 5.439424e-01 6.858123e-02 1.850066e-01 -1.314653e-03
<VARIANCE> 39
 6.860139e+00 3.100133e+00 5.685361e+01 5.328004e+01 1.237210e+01 1.310276e+01 1.166990e+01 3.704699e+01 1.730265e+01 9.649961e+00 7.757091e+01 1.648833e+01 1.866339e-01 3.644860e-01 3.421790e-01 9.073011e-01 7.425057e-01 1.032749e+00 1.137117e+00 3.891889e-01 6.348916e-01 2.661221e-01 9.965417e-01 5.108401e-01 7.214280e-01 1.000000e-02 6.293838e-02 3.923627e-02 1.214126e-01 1.138727e-01 3.137552e-01 3.053629e-01 1.184424e-01 3.161947e-01 4.330889e-01 2.394722e-01 1.364577e-01 2.669403e-01 1.000000e-02
<GCONST> 6.775745e+01
<STATE> 13
<MEAN> 39
 -7.509133e+00 -1.112324e+01 -8.353654e+00 -8.731079e+00 3.745887e+00 -4.902083e+00 -2.841345e+00 1.816230e+00 3.955249e+00 -2.226635e+00 -4.245041e+00 -3.228893e+00 5.566545e-01 2.130827e-01 6.911418e-01 5.091057e-01 -4.576083e-01 -6.094813e-03 5.669153e-02 -1.886066e-01 -4.391054e-01 -1.588436e-01 9.353763e-01 4.931441e-01 -6.694381e-01 1.935927e-03 1.091075e-01 8.455292e-02 2.787728e-01 -9.850702e-02 -2.674307e-01 7.945736e-02 1.780785e-02 -2.098743e-01 -2.189445e-01 -3.618705e-02 -2.614477e-01 -2.448726e-01 -9.499679e-04
<VARIANCE> 39
 9.195429e+00 3.940884e+00 6.279389e+01 7.078603e+01 8.340536e+00 1.733229e+00 1.217255e+01 1.605465e+01 6.104519e+00 5.404277e+00 7.770508e+01 1.134029e+01 1.746864e-01 7.359224e-01 1.274397e-01 1.116375e+00 2.206061e+00 1.997665e+00 1.094118e+00 1.139363e+00 3.903831e+00 2.630343e+00 1.543352e+00 1.126765e+00 1.437830e+00 1.000000e-02 6.243905e-02 6.448193e-02 2.053479e-01 2.651504e-01 3.479192e-01 1.377681e-01 9.424496e-02 1.982620e-01 2.173948e-01 1.323759e-01 9.070496e-02 2.392369e-01 1.000000e-02
<GCONST> 7.080595e+01
<STATE> 14
<MEAN> 39
 -6.509377e+00 -9.812099e+00 -4.764909e+00 -9.831600e+00 3.151927e+00 -4.430216e+00 -2.701899e+00 4.356264e-01 3.353504e+00 -1.375620e+00 -5.673390e+00 -4.781712e+00 5.650532e-01 6.861807e-01 1.659587e-01 9.249351e-01 -8.074487e-01 -9.661438e-01 3.429015e-01 1.555072e-02 -9.685996e-01 -6.859108e-01 4.610603e-01 -1.117558e-01 1.989469e-01 -1.545089e-02 1.499282e-01 -2.505976e-01 -7.201586e-02 -1.119898e-01 -3.501295e-01 2.892330e-01 -1.442027e-01 -9.758165e-03 5.259451e-02 -4.789009e-01 -5.100947e-02 2.084684e-01 -6.347262e-03
<VARIANCE> 39
 1.005561e+01 8.854107e+00 7.726919e+01 1.273361e+02 6.793769e+00 1.422434e+01 1.510390e+01 7.748575e+00 8.116602e+00 7.086646e+00 7.828426e+01 1.982823e+01 1.267276e-01 1.017370e+00 3.672065e-01 3.176671e+00 1.147918e+00 2.730377e+00 5.767683e-01 7.248738e-01 1.306437e+00 5.573615e-01 8.455307e-01 6.512372e-01 4.016921e+00 1.000000e-02 4.322968e-02 2.468462e-02 3.284002e-01 4.073189e-01 1.095535e-01 2.273928e-01 4.493975e-02 4.341984e-01 5.212223e-01 3.996620e-01 3.658194e-01 1.544328e-01 1.000000e-02
<GCONST> 7.480951e+01
<STATE> 15
<MEAN> 39
 -6.284320e+00 -9.528765e+00 -7.039605e+00 -1.308080e+01 1.642352e+00 -2.960979e+00 -3.421856e+00 -1.436441e+00 1.549770e+00 -1.775921e+00 -5.143471e+00 -4.543947e+00 5.344599e-01 9.765087e-01 1.984576e-01 5.141143e-01 -1.010387e+00 -8.842682e-01 8.389485e-01 -4.250268e-01 -8.637257e-01 -2.718741e-01 -2.373712e-01 -7.763942e-01 -2.054538e-01 -4.152997e-03 3.576406e-01 -1.102806e-01 1.813005e-01 3.732480e-01 -4.241562e-02 -2.037603e-01 -1.192696e-01 4.431428e-02 2.505296e-01 -1.950827e-02 -1.765363e-01 1.099256e-01 1.080870e-02
<VARIANCE> 39
 1.289261e+01 5.178034e+00 6.096591e+01 6.616290e+01 3.439318e+01 6.575774e+00 2.463139e+01 1.307886e+01 1.332804e+01 1.277381e+01 5.586459e+01 3.331773e+01 1.417880e-01 6.838676e-01 4.563972e-01 2.602517e+00 1.759517e+00 2.597219e+00 5.983943e-01 6.494649e-01 6.874844e-01 1.244997e+00 2.731294e+00 2.064841e+00 1.360815e+00 1.000000e-02 6.781062e-02 9.485551e-02 3.627281e-01 1.938278e-01 3.287073e-01 2.718328e-01 1.072275e-01 3.660384e-01 1.297147e-01 3.581720e-01 2.217687e-01 5.225046e-01 1.000000e-02
<GCONST> 8.054961e+01
<STATE> 16
<MEAN> 39
 -2.534220e+00 -1.032670e+01 -2.832341e+00 -1.272472e+01 -2.850277e-01 -2.017974e+00 -5.214262e+00 -2.330319e+00 4.078629e+00 -3.283863e+00 -6.840559e+00 -3.818067e+00 5.639646e-01 1.645104e+00 -3.203937e-02 2.814125e-01 -6.298558e-03 -8.556302e-01 -2.444517e-01 -8.303643e-01 -9.240912e-01 8.252673e-02 1.678565e-01 -1.174059e-01 -3.266806e-01 2.359769e-02 7.655861e-02 -1.642598e-01 -2.981942e-01 -1.268435e-01 -7.799809e-02 -5.740038e-01 4.285142e-01 1.164115e-01 -4.158995e-01 1.494338e-02 -1.003777e-01 6.556365e-02 1.296200e-02
<VARIANCE> 39
 3.168181e+01 1.972456e+01 3.308754e+01 6.958566e+01 5.267920e+01 1.863795e+01 2.678024e+01 1.054799e+01 9.339252e+00 1.950691e+01 4.386887e+01 2.587936e+01 9.854610e-02 6.644785e-01 5.243249e-01 3.424246e+00 7.654386e-01 1.364891e+00 2.195715e+00 1.918590e-01 1.820562e+00 1.999785e+00 1.458435e+00 2.208242e+00 1.172988e+00 1.000000e-02 4.926414e-01 1.854463e-01 5.332769e-01 4.405043e-01 4.109452e-01 2.294569e-01 2.683642e-01 2.951085e-01 3.866286e-01 5.824154e-01 3.076439e-01 6.825855e-01 1.000000e-02
<GCONST> 8.928848e+01
<STATE> 17
<MEAN> 39
 1.399646e+00 -9.498512e+00 -5.834633e+00 -1.340252e+01 -2.536546e+00 -4.876581e+00 -5.532913e+00 -4.897769e+00 -4.727030e-01 -2.013714e+00 -7.749050e+00 -6.821087e+00 6.553996e-01 1.590693e+00 -7.926956e-01 3.777361e-02 -1.075794e+00 -1.294514e+00 -1.607245e+00 1.016643e+00 8.267124e-02 -2.118048e+00 -1.737386e-01 -1.183527e+00 5.368232e-01 6.133157e-02 -3.882132e-01 -3.099446e-01 5.484200e-02 1.111209e-01 -1.674625e-01 -2.760850e-01 5.371808e-01 3.560780e-01 2.016516e-01 -6.385400e-01 8.128447e-02 4.202436e-01 -2.177807e-03
<VARIANCE> 39
 3.098120e+01 1.231336e+01 1.912122e+01 5.361076e+01 2.114146e+01 1.585878e+01 3.264994e+01 2.137800e+01 3.907648e+01 2.688437e+01 7.381284e+01 8.721972e+00 4.251651e-02 4.608203e+00 1.427909e+00 7.250524e+00 3.622955e+00 9.967953e-01 7.294989e-01 2.122855e+00 4.043848e+00 4.853249e+00 2.614443e+00 2.685949e+00 4.670199e+00 1.000000e-02 9.931831e-01 5.046829e-02 4.245348e-01 3.153813e-01 2.235804e-01 2.690644e-01 2.445030e-01 5.279590e-01 4.825058e-01 3.261929e-01 5.387664e-01 8.360239e-02 1.000000e-02
<GCONST> 9.521569e+01
<STATE> 18
<MEAN> 39
 3.180878e+00 -1.197057e+01 -4.524289e+00 -1.535001e+01 -5.948052e+00 -6.729928e+00 -2.421560e+00 -2.417199e+00 -4.065986e+00 -1.874425e+00 -1.074129e+01 -3.202922e+00 8.122513e-01 7.538273e-01 -1.091655e+00 4.465982e-01 1.248083e-01 -1.470811e+00 -1.136735e+00 1.121208e+00 -1.464617e-01 4.795023e-01 -1.962806e+00 3.243035e-01 7.271121e-01 2.739993e-02 -3.846725e-01 -9.757149e-02 -3.323939e-01 1.930742e-01 3.283925e-01 2.180277e-01 -4.027140e-01 -9.005472e-02 6.967974e-01 -2.425744e-01 4.826443e-01 -1.721882e-01 -9.875496e-03
<VARIANCE> 39
 3.026868e+01 2.225111e+01 1.845286e+01 1.479594e+01 2.908333e+01 3.509981e+01 2.791419e+01 1.627409e+01 7.259686e+01 2.582923e+01 1.046840e+01 3.303687e+01 1.000000e-02 7.855203e+00 2.112720e-01 5.258713e+00 1.423559e+00 4.413025e-01 9.246242e-01 2.265376e+00 2.045939e+00 1.678994e+00 9.360694e-01 3.434160e+00 1.250534e+00 1.000000e-02 3.779816e-01 1.714965e-01 4.235456e-01 4.946525e-01 1.439959e-01 5.289930e-01 7.260047e-01 2.597706e-01 1.427207e+00 6.593577e-01 4.794983e-01 6.093098e-01 1.000000e-02
<GCONST> 9.164633e+01
<STATE> 19
<MEAN> 39
 2.768123e+00 -1.422983e+01 -6.817907e+00 -1.392730e+01 -7.847383e+00 -9.447148e+00 -2.943489e+00 -3.403043e+00 -2.087096e-01 -9.154009e+00 -7.777149e+00 -3.907557e+00 8.246098e-01 -2.255284e-01 -1.109680e+00 -7.287083e-01 -2.764054e-01 6.100691e-01 -9.852906e-01 -5.346213e-01 8.283151e-01 4.357623e-01 -4.606325e-01 1.148553e-01 2.859506e-01 1.370408e-02 -3.005461e-01 2.106191e-01 -1.929701e-01 -2.286275e-01 1.003980e+00 1.360253e-01 -1.166086e-01 5.419450e-01 -1.412799e-01 8.146313e-01 -2.304838e-01 -1.546732e-01 -6.161646e-03
<VARIANCE> 39
 5.817978e+01 1.432255e+01 2.501275e+01 2.505822e+01 2.901132e+01 2.541142e+01 1.044594e+01 2.766394e+01 5.026455e+01 1.222506e+01 1.581756e+01 8.442072e+00 1.000000e-02 2.859338e+00 7.502965e-01 1.396308e+00 8.694814e-01 3.923760e+00 6.793901e+00 6.736163e+00 3.690525e+00 8.183557e+00 3.488708e+00 1.604370e+00 1.895954e+00 1.000000e-02 1.166325e+00 6.355791e-02 2.383704e-01 5.378214e-02 2.140975e-01 4.396047e-01 6.701751e-01 6.181040e-01 4.883355e-01 3.064987e-01 4.215656e-01 2.449928e-01 1.000000e-02
<GCONST> 9.215694e+01
<STATE> 20
<MEAN> 39
 -2.830637e-01 -1.595975e+01 -6.931894e+00 -1.677085e+01 1.248262e+00 -1.178118e+01 -4.321358e+00 1.431965e+00 2.223184e+00 -3.943406e+00 -1.150163e+01 -2.858783e+00 8.598566e-01 -7.098605e-01 -4.423251e-01 -1.002793e+00 -6.032155e-01 1.833069e+00 -2.388166e-01 -1.836658e-01 7.934239e-01 3.516218e-01 9.007456e-01 -6.617275e-01 -2.639454e-01 2.892354e-03 -1.086798e-01 2.790256e-01 -1.096798e-01 1.738597e-01 -3.316097e-01 7.192758e-01 -3.296809e-01 -3.893108e-01 -2.488582e-01 -6.147280e-02 -1.799956e-01 -2.442124e-01 -5.119307e-03
<VARIANCE> 39
 1.911952e+01 1.200340e+01 4.210015e+01 8.668820e+00 4.017152e+01 1.160670e+02 6.500048e+01 6.386182e+01 9.815503e+01 3.492234e+00 3.779392e+01 6.072268e+00 1.616366e-02 3.786955e+00 6.545705e-01 1.031095e+00 5.414249e-01 3.732796e+00 1.115166e+00 2.003615e+00 5.259158e+00 1.566577e+00 1.883640e+00 2.935388e+00 8.134238e-01 1.000000e-02 1.760067e-01 7.080124e-02 2.067674e-01 4.928115e-02 3.946060e-01 1.649666e+00 8.454092e-01 4.015042e-01 1.164051e+00 4.625332e-01 4.207714e-01 4.965232e-01 1.000000e-02
<GCONST> 9.112117e+01
<STATE> 21
<MEAN> 39
 1.347643e+00 -1.676551e+01 -9.085255e+00 -1.721660e+01 -2.637263e+00 -6.705666e+00 -5.496015e+00 -1.643054e+00 1.102339e+00 -4.786811e+00 -1.079506e+01 -4.121112e+00 8.435209e-01 -1.999046e-01 -3.618570e-02 -3.304039e-01 1.368124e-01 2.542544e-02 1.242349e+00 -6.730664e-01 -3.974341e-01 -2.998944e-01 -9.994388e-02 -7.910451e-01 -5.964147e-02 -1.456402e-02 1.927311e-01 7.986951e-02 4.590786e-01 2.367806e-01 -2.911915e-01 1.300141e-01 -4.450541e-02 -1.110459e-01 -1.701620e-01 -9.283697e-02 1.071230e-01 -2.788034e-02 -5.723051e-03
<VARIANCE> 39
 3.355514e+01 4.593347e+00 6.081010e+01 2.057098e+01 8.760713e+01 5.405441e+01 4.710888e+01 8.407008e+01 2.029919e+01 9.419898e+00 5.377551e+01 1.724384e+01 2.185009e-02 4.078289e-01 7.224530e-01 2.025012e-01 1.084131e+00 6.437079e-01 6.429140e+00 1.330585e+00 3.597164e-01 4.700323e+00 1.071013e+00 1.981821e+00 1.562354e+00 1.000000e-02 2.678608e-01 3.501590e-02 1.726760e-01 2.236572e-01 2.979390e-01 4.881078e-01 4.029727e-01 5.285033e-01 1.647171e-01 2.438290e-01 5.040990e-01 1.757380e-01 1.000000e-02
<GCONST> 8.330065e+01
<STATE> 22
<MEAN> 39
 -1.713441e+00 -1.573829e+01 -1.159128e+01 -1.489479e+01 2.485921e+00 -6.132228e+00 -5.281600e+00 2.381107e+00 -9.346914e-01 -4.926996e+00 -1.399356e+01 -5.888837e+00 8.683309e-01 4.505340e-01 -6.128515e-02 7.372510e-01 -1.050365e-01 -2.550615e-02 1.014170e+00 -8.181740e-01 -3.432086e-01 -2.239296e-01 3.309155e-01 8.358040e-01 -1.593811e-01 -1.929347e-02 2.412437e-01 3.061255e-02 2.012594e-01 2.291568e-01 -3.257234e-01 -3.554269e-01 3.410603e-01 -6.497882e-02 1.455283e-01 1.878622e-01 6.540855e-01 -6.183293e-02 -4.102156e-03
<VARIANCE> 39
 1.920502e+01 3.092676e+00 4.610740e+01 4.192235e+01 6.992137e+01 4.229434e+00 4.912350e+01 6.628151e+01 1.000408e+01 9.243876e+00 3.661956e+01 2.201696e+01 2.423057e-02 3.927461e-01 3.166128e-01 5.054594e-01 1.159775e+00 9.177681e-01 3.006292e+00 1.995686e+00 4.467076e-01 4.380237e-01 8.700407e-01 2.207109e+00 5.269697e-01 1.000000e-02 5.283441e-02 1.132871e-01 6.298332e-02 3.286912e-01 3.756718e-01 3.539191e-01 1.405117e-01 9.682925e-02 6.433539e-01 2.765728e-01 3.329435e-01 2.587365e-01 1.000000e-02
<GCONST> 7.337342e+01
<STATE> 23
<MEAN> 39
 2.529879e+00 -1.702959e+01 -4.671577e+00 -1.694287e+01 -2.612249e+00 -5.031918e+00 -8.027781e+00 -3.649873e+00 2.158317e+00 -4.172948e+00 -9.577092e+00 -3.986541e+00 7.180836e-01 6.394048e-01 -2.512913e-02 6.287459e-01 1.829033e+00 -1.326514e+00 4.407467e-01 5.487751e-01 -5.584205e-01 5.473446e-01 -9.417956e-02 9.746336e-01 -5.131788e-01 -2.691752e-02 2.475902e-02 1.074358e-01 -2.837276e-01 2.209453e-01 -1.252816e-01 8.196726e-02 9.165403e-02 -9.845535e-02 2.939872e-01 -1.811810e-02 -8.773029e-02 1.231545e-02 2.626117e-03
<VARIANCE> 39
 1.180011e+01 8.301481e+00 2.935127e+01 1.864392e+01 5.997197e+01 7.917507e+00 2.239043e+01 3.811165e+01 1.488856e+01 8.254836e+00 7.504282e+00 6.358641e+00 2.738679e-02 1.215623e+00 3.536575e-01 5.427159e-01 1.999340e+00 5.631882e+00 1.352843e+00 1.509629e+00 1.751155e+00 1.986093e+00 1.171023e+00 2.236179e+00 1.313737e+00 1.000000e-02 2.803374e-02 6.107848e-02 1.492802e-01 2.304934e-01 4.582609e-01 1.719041e-01 1.648534e-01 8.955573e-02 3.389747e-01 5.650441e-02 1.819401e-01 1.662931e-01 1.000000e-02
<GCONST> 7.155984e+01
<STATE> 24
<MEAN> 39
 2.335917e+00 -1.589980e+01 -6.042561e+00 -1.087751e+01 -3.387701e+00 -3.340004e+00 -5.353767e+00 -2.625282e+00 1.352335e+00 -4.585491e+00 -6.355150e+00 -5.397503e+00 6.995734e-01 5.959342e-01 3.510524e-01 -1.732727e-01 4.678959e-01 -8.021856e-01 2.119059e-01 1.992756e-01 -8.538648e-01 3.230666e-01 5.526300e-01 6.569640e-01 -4.639027e-01 -1.932392e-02 3.102360e-02 1.157967e-01 -2.935914e-01 -4.455076e-01 3.429188e-01 -3.023894e-01 5.802919e-02 -4.066389e-02 2.868884e-02 2.467085e-02 -2.987884e-01 1.704697e-01 3.271995e-05
<VARIANCE> 39
 1.149118e+01 3.244650e+00 3.995119e+01 3.520620e+01 2.531224e+01 2.004483e+01 6.111759e+00 2.474086e+01 2.390194e+01 1.581548e+01 4.644783e+00 9.117094e+00 3.771751e-02 5.386589e-01 7.776754e-02 1.455446e+00 2.142949e+00 1.504664e+00 1.027627e+00 5.625182e-01 1.605259e+00 1.553418e+00 1.753356e+00 7.246747e-01 6.348763e-01 1.000000e-02 1.041767e-01 4.814843e-02 2.052350e-01 3.247410e-01 5.145659e-01 6.606549e-01 2.970574e-01 2.909072e-01 4.343167e-01 1.484430e-01 4.826991e-01 3.504785e-01 1.000000e-02
<GCONST> 7.346032e+01
<STATE> 25
<MEAN> 39
 4.797060e+00 -1.627779e+01 -7.684359e+00 -1.487658e+01 -6.456677e+00 -5.592203e+00 -5.933917e+00 -7.047623e+00 1.313236e+00 -1.355507e+00 -8.450746e+00 -6.831070e+00 7.137139e-01 9.501089e-01 4.548661e-01 -5.690570e-01 6.670043e-01 -4.600604e-01 -9.289238e-01 3.572283e-01 -7.365063e-01 5.736855e-01 -4.089031e-01 -9.787299e-02 2.192451e-01 -2.200143e-02 -3.290866e-02 1.979407e-01 8.869118e-02 4.582343e-01 3.441568e-01 2.391060e-02 1.928482e-01 3.779714e-01 7.657945e-03 -5.238377e-01 4.163837e-02 2.972579e-01 2.775410e-05
<VARIANCE> 39
 7.648921e+00 4.087325e+00 1.827039e+01 1.716880e+01 1.319862e+01 8.896735e+00 2.629786e+01 2.016406e+01 5.338168e+01 2.478096e+01 8.952719e+00 7.649068e+00 2.468225e-02 1.230425e+00 4.980015e-01 3.312941e+00 2.350363e+00 4.565165e+00 2.002187e+00 6.976888e-01 4.528276e+00 2.444653e+00 1.832999e+00 9.680397e-01 6.685613e-01 1.000000e-02 4.758666e-02 7.006960e-02 1.210615e-01 2.624932e-01 1.617269e-01 3.537181e-01 1.436150e-01 2.766569e-01 5.021519e-01 3.633469e-01 1.644969e-01 8.648144e-02 1.000000e-02
<GCONST> 7.520660e+01
<STATE> 26
<MEAN> 39
 6.118058e+00 -1.440235e+01 -7.875195e+00 -1.043237e+01 -5.881683e+00 -5.266863e+00 -5.347593e+00 -5.343148e+00 4.849270e+00 -7.225703e+00 -7.395920e+00 -3.875664e+00 6.317106e-01 1.881692e-01 8.621808e-01 5.238863e-01 1.602230e+00 6.137623e-01 3.998077e-02 7.576929e-01 8.884301e-01 3.112857e-01 -8.529941e-01 8.391944e-01 6.794760e-01 -1.971873e-02 -2.686370e-01 3.125183e-02 2.573525e-01 5.139782e-02 1.270178e-01 -2.035404e-01 -5.509215e-02 2.383833e-01 -3.744584e-01 -5.139959e-02 8.926682e-02 -8.306239e-02 -5.937536e-04
<VARIANCE> 39
 1.679543e+01 8.036328e+00 1.553942e+01 1.269953e+01 2.793663e+01 7.539828e+00 2.546965e+01 9.256229e+00 3.822290e+01 1.504507e+01 2.677740e+01 5.595555e+00 3.442129e-02 7.454908e-01 9.780570e-01 9.864617e-01 1.137690e+00 2.317505e+00 2.092577e+00 3.691543e-01 1.035107e+00 1.500205e+00 1.328900e+00 9.277739e-01 3.685555e-01 1.000000e-02 7.687391e-02 6.447611e-02 6.524001e-01 1.063019e-01 3.903686e-01 2.426845e-01 9.003931e-02 2.541897e-01 4.859349e-01 1.200367e-01 2.532355e-01 1.026014e-01 1.000000e-02
<GCONST> 7.089646e+01
<STATE> 27
<MEAN> 39
 7.005118e+00 -1.283093e+01 -6.870937e+00 -6.878928e+00 -4.087064e+00 -6.331406e+00 -2.720532e+00 -4.409222e+00 2.301850e+00 -6.494261e+00 -5.208801e+00 -4.075407e+00 6.168097e-01 -2.383275e-01 8.693117e-01 -2.430625e-01 9.378044e-01 6.852355e-01 -1.398232e+00 4.207232e-01 3.997156e-01 -1.191548e+00 -1.070717e+00 8.887962e-03 -2.729459e-01 -2.123102e-02 -4.563213e-01 -3.097879e-01 -4.877324e-02 -5.862094e-01 -8.768263e-02 -9.340984e-02 -2.691114e-01 -2.246328e-01 -2.161786e-01 -4.655343e-02 -6.558299e-01 -4.589639e-01 -6.867868e-03
<VARIANCE> 39
 1.937069e+01 6.086315e+00 1.324895e+01 1.075169e+01 4.312946e+01 1.538169e+01 1.656169e+01 1.232239e+01 3.950413e+01 1.570190e+01 6.292629e+00 4.987166e+00 3.885595e-02 6.204969e-01 4.464513e-01 2.500033e+00 1.183783e+00 3.851773e-01 8.168828e-01 9.577268e-01 1.067296e+00 2.395662e+00 7.611974e-01 5.478429e-01 7.354489e-01 1.000000e-02 7.513408e-02 1.227097e-01 1.071597e-01 1.816292e-01 2.040506e-01 4.036875e-01 8.551674e-02 9.723576e-02 1.825309e-01 3.066531e-01 5.007424e-02 6.681494e-02 1.000000e-02
<GCONST> 6.450407e+01
<STATE> 28
<MEAN> 39
 5.429814e+00 -1.190749e+01 -6.148963e+00 -7.134971e+00 -5.659265e+00 -8.829489e+00 -2.608804e+00 -3.605230e+00 2.071710e+00 -9.205141e+00 -7.254041e+00 -5.026462e+00 5.798366e-01 -9.948274e-01 -1.559854e-03 2.004649e-02 2.083067e-01 3.768367e-01 -1.273192e-01 -7.511918e-02 1.912083e-01 -4.647146e-01 -4.237200e-01 -4.550454e-01 -2.750125e-01 -4.040223e-02 -1.341907e-01 -2.705790e-01 -2.102088e-01 -1.395786e-01 2.218494e-01 3.261481e-01 9.326122e-04 -6.840083e-03 5.488354e-02 2.662364e-01 1.291061e-01 5.416907e-02 -3.962242e-03
<VARIANCE> 39
 2.517351e+01 1.055075e+01 2.094373e+01 1.440067e+01 1.636578e+01 1.454008e+01 1.989309e+01 2.440011e+01 5.358153e+01 1.334614e+01 2.094842e+01 2.180742e+01 4.644427e-02 8.592237e-01 3.183031e-01 8.336780e-01 1.436035e+00 8.213187e-01 8.871670e-01 6.214726e-01 1.151902e+00 8.455400e-01 1.213893e+00 8.673202e-01 4.849977e-01 1.000000e-02 5.576757e-02 2.115022e-01 2.432759e-01 1.366069e-01 7.785683e-02 2.689911e-01 1.438896e-01 4.139679e-01 2.680755e-01 1.368842e-01 2.279270e-01 1.929047e-01 1.000000e-02
<GCONST> 7.147472e+01
<STATE> 29
<MEAN> 39
 3.213460e+00 -1.262015e+01 -8.372988e+00 -7.429980e+00 -1.865060e+00 -8.170919e+00 -4.838871e+00 -3.526486e+00 1.510049e+00 -8.341724e+00 -7.089164e+00 -5.267179e+00 4.644342e-01 -1.031160e+00 -2.175194e-01 -3.653467e-01 7.014946e-01 1.564904e+00 4.155853e-01 4.039904e-01 6.054567e-01 -3.392063e-01 -1.244919e-01 8.853936e-02 -5.027614e-01 -4.073421e-02 1.864248e-01 5.013306e-03 2.292710e-01 1.016738e-01 -6.197155e-02 2.631251e-01 3.469706e-01 1.597472e-01 4.126900e-01 1.416069e-01 2.702014e-01 2.728628e-01 6.676291e-03
<VARIANCE> 39
 2.990054e+01 5.733537e+00 1.458910e+01 8.535579e+00 2.133426e+01 1.112708e+01 8.098310e+00 7.128155e+00 2.840859e+01 4.875607e+00 1.406119e+01 1.470239e+01 5.771305e-02 5.742067e-01 5.634523e-01 2.940147e-01 5.054703e-01 6.612028e-01 2.240823e+00 1.244030e+00 1.700389e+00 6.066512e-01 1.038088e+00 2.362393e+00 1.080991e+00 1.000000e-02 5.729812e-02 7.788012e-02 1.841380e-01 1.881341e-01 1.271390e-01 2.820347e-01 7.237376e-02 1.662063e-01 1.072990e-01 3.435692e-01 9.995411e-02 1.796525e-01 1.000000e-02
<GCONST> 6.411008e+01
<STATE> 30
<MEAN> 39
 1.073178e+00 -1.231330e+01 -6.076958e+00 -4.393864e+00 -2.906296e-02 -6.559285e+00 -4.787868e-01 -1.129751e+00 -5.965478e-02 -9.564793e+00 -5.456638e+00 -5.582799e+00 3.970781e-01 -4.014799e-01 1.491925e-01 4.927915e-01 2.197646e-01 2.781529e-01 6.214385e-01 1.157257e+00 6.369327e-01 5.150799e-01 2.397594e-01 6.317852e-01 7.286043e-01 -2.029439e-02 2.397261e-01 2.596896e-01 1.747050e-01 -1.671591e-01 -4.354046e-01 2.099211e-02 -1.831383e-01 -3.455851e-01 2.478614e-01 3.918520e-01 2.272595e-02 2.311995e-01 7.162855e-03
<VARIANCE> 39
 3.330196e+01 3.518657e+00 2.811920e+01 2.308090e+01 2.356884e+01 3.693832e+01 8.092741e+00 6.657759e+00 2.375117e+01 4.853048e+00 2.809022e+01 9.044118e+00 5.412887e-02 2.258020e-01 9.466822e-01 1.012025e+00 8.544561e-01 8.071035e-01 1.069958e+00 6.037278e-01 8.236297e-01 7.578064e-01 1.234856e+00 5.859115e-01 7.677568e-01 1.000000e-02 3.008011e-02 5.189418e-02 9.204431e-02 1.948345e-01 1.808405e-01 3.389661e-01 6.891763e-01 3.021758e-01 1.801209e-01 2.676069e-01 3.322722e-01 2.839873e-01 1.000000e-02
<GCONST> 6.819401e+01
<STATE> 31
<MEAN> 39
 1.450733e+00 -1.078307e+01 -5.538563e+00 -5.331943e+00 -1.207909e+00 -6.279515e+00 -9.268272e-01 -1.793256e+00 3.099983e+00 -6.545664e+00 -4.412632e+00 -2.160333e+00 3.945681e-01 -1.822607e-01 4.486676e-01 3.656435e-01 2.373939e-01 1.984254e-01 3.981929e-01 -7.632880e-01 -7.045540e-01 5.491532e-01 8.081490e-01 2.436051e-01 5.945246e-01 -1.469715e-02 7.677386e-03 -1.141977e-02 -2.748845e-02 -2.049983e-02 -3.214500e-03 -1.377683e-01 -2.778434e-01 -1.932469e-01 -1.726981e-01 -1.132914e-02 1.267324e-01 -1.043692e-01 1.691482e-03
<VARIANCE> 39
 4.052113e+01 3.228927e+00 3.147296e+01 1.951306e+01 3.812688e+01 2.334937e+01 2.257596e+01 9.064042e+00 1.508561e+01 1.453824e+01 1.331715e+01 1.048812e+01 5.425367e-02 1.028678e-01 1.586719e-01 5.851710e-01 9.902139e-01 9.320358e-01 8.039047e-01 3.398692e+00 2.040877e+00 1.404745e+00 7.811193e-01 4.074352e-01 1.042423e+00 1.000000e-02 2.719501e-02 1.792608e-01 2.508964e-01 2.091905e-01 3.093988e-01 1.679241e-01 3.809616e-01 3.073448e-01 3.954473e-01 2.016362e-01 1.177406e-01 2.936843e-01 1.000000e-02
<GCONST> 7.024657e+01
<STATE> 32
<MEAN> 39
 1.197868e+00 -1.179568e+01 -5.730738e+00 -4.723937e+00 4.997776e-01 -5.121418e+00 -3.412858e+00 -3.480997e+00 3.034326e+00 -7.504501e+00 -4.463846e+00 -2.286953e+00 3.628141e-01 -6.209881e-01 3.643920e-01 6.685743e-01 -3.220823e-02 -2.917491e-01 -2.875634e-01 -1.774210e-02 2.475383e-01 -1.041375e-01 6.858593e-01 1.264623e+00 2.768289e-01 -2.294903e-02 -1.558551e-01 2.159402e-01 3.300687e-01 2.692509e-02 -2.029947e-01 -4.177016e-01 1.630214e-01 2.468940e-01 -2.546775e-01 -2.407396e-02 1.282772e-01 -1.898539e-01 -4.263739e-03
<VARIANCE> 39
 2.785732e+01 4.141916e+00 2.840082e+01 1.299580e+01 3.020258e+01 4.139897e+01 2.728979e+01 1.505563e+01 3.965604e+01 1.588898e+01 2.015826e+01 2.070567e+01 4.191114e-02 3.137598e-01 9.661285e-01 1.261371e+00 8.403533e-01 1.394806e+00 8.800282e-01 4.049350e-01 3.865032e-01 2.138911e+00 4.164747e-01 4.970620e-01 1.845832e+00 1.000000e-02 4.078621e-02 5.552474e-02 2.142116e-01 2.290388e-01 2.417480e-01 2.090935e-01 5.026944e-01 3.715534e-01 2.242506e-01 2.823937e-01 2.326481e-01 1.694147e-01 1.000000e-02
<GCONST> 7.283582e+01
<STATE> 33
<MEAN> 39
 -8.971412e-01 -9.746631e+00 -3.173712e+00 -4.673754e+00 -4.051271e-01 -7.639265e+00 -2.759960e+00 -2.306195e+00 1.835275e+00 -5.127921e+00 -1.830341e+00 -2.564099e+00 2.898495e-01 -5.765476e-01 1.048390e+00 1.379915e+00 6.083320e-01 9.904064e-03 -4.752285e-01 2.451815e-01 -5.254187e-02 -2.978845e-01 5.606583e-01 1.091597e+00 1.495030e-01 -2.075121e-02 -7.275835e-02 -5.207567e-04 -2.979136e-03 6.719157e-02 8.698704e-02 3.172082e-01 2.270627e-01 -1.159564e-01 3.523437e-02 -2.379336e-01 -1.910745e-01 -3.414980e-02 -2.826607e-03
<VARIANCE> 39
 2.506386e+01 7.731071e+00 1.034362e+01 6.540177e+00 1.677560e+01 2.224355e+01 2.958927e+01 2.320272e+00 2.308655e+01 1.900136e+00 7.616657e+00 8.119212e+00 2.897187e-02 8.592194e-01 1.118253e-01 1.513215e+00 7.564129e-01 9.278510e-01 1.057624e+00 9.750896e-01 1.127741e+00 1.033259e+00 1.707617e+00 2.715542e+00 6.473070e-01 1.000000e-02 1.189522e-01 1.658791e-01 1.523184e-01 1.608140e-01 1.589596e-01 1.475068e-01 2.216988e-01 3.650782e-02 3.610139e-01 8.101823e-02 1.418901e-01 3.260307e-01 1.000000e-02
<GCONST> 6.265392e+01
<STATE> 34
<MEAN> 39
 -2.090980e+00 -7.768140e+00 -5.985104e-01 -2.971963e+00 3.659030e-02 -5.743412e+00 -1.525651e+00 -2.970570e+00 2.639447e+00 -5.356061e+00 -1.729291e+00 -3.260348e+00 2.554092e-01 -9.382381e-01 9.350695e-02 2.262262e-01 1.084497e-01 1.431303e-01 6.311804e-01 6.509229e-01 2.625353e-02 8.508193e-02 -6.864335e-02 4.258330e-02 -1.882508e-01 -4.144699e-02 -1.270226e-02 -4.298045e-01 -4.717161e-01 -4.846934e-02 4.523096e-02 1.227603e-01 -3.294915e-02 2.966805e-01 2.008365e-01 8.656777e-02 8.448558e-02 9.899151e-03 -1.666055e-03
<VARIANCE> 39
 4.534553e+00 1.733524e+00 8.488913e+00 6.369777e+00 5.844703e+00 1.343821e+01 9.812884e+00 1.090253e+01 1.706696e+01 1.433251e+01 1.087680e+01 2.343659e+01 1.000000e-02 1.285462e+00 7.624279e-01 1.633839e+00 5.537761e-01 6.563548e-01 9.354299e-01 2.252871e+00 1.209709e+00 6.991959e-01 4.891775e-01 8.893440e-01 1.418498e+00 1.000000e-02 1.570617e-01 6.927434e-02 1.465664e-01 5.887492e-02 2.968695e-02 1.204190e-01 2.620777e-01 1.066482e-01 7.614452e-02 3.003764e-01 2.584231e-01 1.717994e-01 1.000000e-02
<GCONST> 5.816790e+01
<STATE> 35
<MEAN> 39
 -4.188649e+00 -8.713622e+00 -1.513029e+00 -3.192738e+00 -6.695980e-02 -5.124656e+00 6.273726e-01 -2.567447e+00 2.990429e+00 -4.348752e+00 3.870336e-01 -1.807465e+00 1.595223e-01 -7.724983e-01 -5.274940e-01 -3.593508e-01 3.973209e-01 7.397492e-02 3.587407e-01 3.949787e-01 8.019474e-01 3.963058e-01 4.851081e-01 8.139737e-01 2.347415e-02 -3.039133e-02 1.040728e-01 8.246250e-03 3.437242e-02 -1.089201e-02 7.144208e-02 7.116503e-02 -1.677224e-01 8.428420e-02 1.881645e-02 -2.230664e-03 -1.728140e-01 -5.813532e-02 5.070196e-03
<VARIANCE> 39
 1.561140e+00 5.030983e+00 9.214726e+00 9.804976e-01 3.487982e+00 2.232520e+00 1.101040e+01 1.134178e+01 1.067363e+01 7.931365e+00 1.905630e+01 1.580430e+01 1.000000e-02 9.982181e-02 5.610418e-01 7.931135e-01 1.077691e+00 9.906203e-01 7.156858e-01 1.073163e+00 3.646271e-01 4.870712e-01 9.248301e-01 2.941091e-01 8.552895e-01 1.000000e-02 3.764377e-02 1.006410e-01 2.151209e-01 6.223822e-02 6.655332e-02 8.021326e-02 2.008072e-01 2.501765e-01 5.800370e-02 9.737744e-02 2.162101e-01 2.692909e-01 1.000000e-02
<GCONST> 4.651797e+01
<STATE> 36
<MEAN> 39
 -5.954522e+00 -1.062889e+01 -1.925698e+00 -1.123104e+00 9.912595e-01 -4.131095e+00 -4.830457e-01 6.549357e-01 3.556467e+00 -4.088946e+00 -3.562495e-01 -3.570438e+00 9.799617e-02 -3.513118e-01 3.062817e-02 7.815006e-02 -1.427397e-01 6.566598e-02 7.059273e-01 -1.498813e-01 1.846602e-01 2.024254e-01 4.532664e-01 9.252421e-02 4.760105e-02 -1.511032e-02 3.035648e-01 3.377534e-01 1.516543e-01 -2.420172e-01 5.729349e-02 -1.419805e-01 -1.052253e-01 -4.691376e-01 -2.164301e-01 -9.693503e-02 -1.652783e-01 1.706587e-01 1.096188e-02
<VARIANCE> 39
 3.641908e+00 3.779717e+00 3.480303e+00 1.489320e+01 8.094770e+00 4.827298e+00 1.148225e+01 4.419712e+00 1.094065e+01 8.889968e+00 7.642907e+00 5.509557e+00 1.000000e-02 6.463577e-02 4.214401e-01 2.715326e-01 2.582279e-01 2.269810e-01 4.712906e-01 3.813464e-01 1.088175e+00 3.674951e-01 2.296296e-01 5.249738e-01 7.650369e-01 1.000000e-02 3.192379e-02 9.008893e-02 1.346391e-01 2.189669e-01 1.638623e-01 1.685685e-01 2.122450e-01 3.688402e-02 1.233592e-01 1.673461e-01 2.611927e-02 6.509904e-02 1.000000e-02
<GCONST> 3.951022e+01
<TRANSP> 37
 0.000000e+00 1.000000e+00 0.000000e+00 0.000000e+00 0.000000e+00 0.000000e+00 0.000000e+00 0.000000e+00 0.000000e+00 0.000000e+00 0.000000e+00 0.000000e+00 0.000000e+00 0.000000e+00 0.000000e+00 0.000000e+00 0.000000e+00 0.000000e+00 0.000000e+00 0.000000e+00 0.000000e+00 0.000000e+00 0.000000e+00 0.000000e+00 0.000000e+00 0.000000e+00 0.000000e+00 0.000000e+00 0.000000e+00 0.000000e+00 0.000000e+00 0.000000e+00 0.000000e+00 0.000000e+00 0.000000e+00 0.000000e+00 0.000000e+00
 0.000000e+00 5.833333e-01 4.166667e-01 0.000000e+00 0.000000e+00 0.000000e+00 0.000000e+00 0.000000e+00 0.000000e+00 0.000000e+00 0.000000e+00 0.000000e+00 0.000000e+00 0.000000e+00 0.000000e+00 0.000000e+00 0.000000e+00 0.000000e+00 0.000000e+00 0.000000e+00 0.000000e+00 0.000000e+00 0.000000e+00 0.000000e+00 0.000000e+00 0.000000e+00 0.000000e+00 0.000000e+00 0.000000e+00 0.000000e+00 0.000000e+00 0.000000e+00 0.000000e+00 0.000000e+00 0.000000e+00 0.000000e+00 0.000000e+00
 0.000000e+00 0.000000e+00 3.750000e-01 6.250000e-01 0.000000e+00 0.000000e+00 0.000000e+00 0.000000e+00 0.000000e+00 0.000000e+00 0.000000e+00 0.000000e+00 0.000000e+00 0.000000e+00 0.000000e+00 0.000000e+00 0.000000e+00 0.000000e+00 0.000000e+00 0.000000e+00 0.000000e+00 0.000000e+00 0.000000e+00 0.000000e+00 0.000000e+00 0.000000e+00 0.000000e+00 0.000000e+00 0.000000e+00 0.000000e+00 0.000000e+00 0.000000e+00 0.000000e+00 0.000000e+00 0.000000e+00 0.000000e+00 0.000000e+00
 0.000000e+00 0.000000e+00 0.000000e+00 4.444444e-01 5.555556e-01 0.000000e+00 0.000000e+00 0.000000e+00 0.000000e+00 0.000000e+00 0.000000e+00 0.000000e+00 0.000000e+00 0.000000e+00 0.000000e+00 0.000000e+00 0.000000e+00 0.000000e+00 0.000000e+00 0.000000e+00 0.000000e+00 0.000000e+00 0.000000e+00 0.000000e+00 0.000000e+00 0.000000e+00 0.000000e+00 0.000000e+00 0.000000e+00 0.000000e+00 0.000000e+00 0.000000e+00 0.000000e+00 0.000000e+00 0.000000e+00 0.000000e+00 0.000000e+00
 0.000000e+00 0.000000e+00 0.000000e+00 0.000000e+00 5.454546e-01 4.545455e-01 0.000000e+00 0.000000e+00 0.000000e+00 0.000000e+00 0.000000e+00 0.000000e+00 0.000000e+00 0.000000e+00 0.000000e+00 0.000000e+00 0.000000e+00 0.000000e+00 0.000000e+00 0.000000e+00 0.000000e+00 0.000000e+00 0.000000e+00 0.000000e+00 0.000000e+00 0.000000e+00 0.000000e+00 0.000000e+00 0.000000e+00 0.000000e+00 0.000000e+00 0.000000e+00 0.000000e+00 0.000000e+00 0.000000e+00 0.000000e+00 0.000000e+00
 0.000000e+00 0.000000e+00 0.000000e+00 0.000000e+00 0.000000e+00 3.750000e-01 6.250000e-01 0.000000e+00 0.000000e+00 0.000000e+00 0.000000e+00 0.000000e+00 0.000000e+00 0.000000e+00 0.000000e+00 0.000000e+00 0.000000e+00 0.000000e+00 0.000000e+00 0.000000e+00 0.000000e+00 0.000000e+00 0.000000e+00 0.000000e+00 0.000000e+00 0.000000e+00 0.000000e+00 0.000000e+00 0.000000e+00 0.000000e+00 0.000000e+00 0.000000e+00 0.000000e+00 0.000000e+00 0.000000e+00 0.000000e+00 0.000000e+00
 0.000000e+00 0.000000e+00 0.000000e+00 0.000000e+00 0.000000e+00 0.000000e+00 5.000000e-01 5.000000e-01 0.000000e+00 0.000000e+00 0.000000e+00 0.000000e+00 0.000000e+00 0.000000e+00 0.000000e+00 0.000000e+00 0.000000e+00 0.000000e+00 0.000000e+00 0.000000e+00 0.000000e+00 0.000000e+00 0.000000e+00 0.000000e+00 0.000000e+00 0.000000e+00 0.000000e+00 0.000000e+00 0.000000e+00 0.000000e+00 0.000000e+00 0.000000e+00 0.000000e+00 0.000000e+00 0.000000e+00 0.000000e+00 0.000000e+00
 0.000000e+00 0.000000e+00 0.000000e+00 0.000000e+00 0.000000e+00 0.000000e+00 0.000000e+00 5.000000e-01 5.000000e-01 0.000000e+00 0.000000e+00 0.000000e+00 0.000000e+00 0.000000e+00 0.000000e+00 0.000000e+00 0.000000e+00 0.000000e+00 0.000000e+00 0.000000e+00 0.000000e+00 0.000000e+00 0.000000e+00 0.000000e+00 0.000000e+00 0.000000e+00 0.000000e+00 0.000000e+00 0.000000e+00 0.000000e+00 0.000000e+00 0.000000e+00 0.000000e+00 0.000000e+00 0.000000e+00 0.000000e+00 0.000000e+00
 0.000000e+00 0.000000e+00 0.000000e+00 0.000000e+00 0.000000e+00 0.000000e+00 0.000000e+00 0.000000e+00 2.857143e-01 7.142857e-01 0.000000e+00 0.000000e+00 0.000000e+00 0.000000e+00 0.000000e+00 0.000000e+00 0.000000e+00 0.000000e+00 0.000000e+00 0.000000e+00 0.000000e+00 0.000000e+00 0.000000e+00 0.000000e+00 0.000000e+00 0.000000e+00 0.000000e+00 0.000000e+00 0.000000e+00 0.000000e+00 0.000000e+00 0.000000e+00 0.000000e+00 0.000000e+00 0.000000e+00 0.000000e+00 0.000000e+00
 0.000000e+00 0.000000e+00 0.000000e+00 0.000000e+00 0.000000e+00 0.000000e+00 0.000000e+00 0.000000e+00 0.000000e+00 4.444444e-01 5.555556e-01 0.000000e+00 0.000000e+00 0.000000e+00 0.000000e+00 0.000000e+00 0.000000e+00 0.000000e+00 0.000000e+00 0.000000e+00 0.000000e+00 0.000000e+00 0.000000e+00 0.000000e+00 0.000000e+00 0.000000e+00 0.000000e+00 0.000000e+00 0.000000e+00 0.000000e+00 0.000000e+00 0.000000e+00 0.000000e+00 0.000000e+00 0.000000e+00 0.000000e+00 0.000000e+00
 0.000000e+00 0.000000e+00 0.000000e+00 0.000000e+00 0.000000e+00 0.000000e+00 0.000000e+00 0.000000e+00 0.000000e+00 0.000000e+00 5.454546e-01 4.545455e-01 0.000000e+00 0.000000e+00 0.000000e+00 0.000000e+00 0.000000e+00 0.000000e+00 0.000000e+00 0.000000e+00 0.000000e+00 0.000000e+00 0.000000e+00 0.000000e+00 0.000000e+00 0.000000e+00 0.000000e+00 0.000000e+00 0.000000e+00 0.000000e+00 0.000000e+00 0.000000e+00 0.000000e+00 0.000000e+00 0.000000e+00 0.000000e+00 0.000000e+00
 0.000000e+00 0.000000e+00 0.000000e+00 0.000000e+00 0.000000e+00 0.000000e+00 0.000000e+00 0.000000e+00 0.000000e+00 0.000000e+00 0.000000e+00 5.000000e-01 5.000000e-01 0.000000e+00 0.000000e+00 0.000000e+00 0.000000e+00 0.000000e+00 0.000000e+00 0.000000e+00 0.000000e+00 0.000000e+00 0.000000e+00 0.000000e+00 0.000000e+00 0.000000e+00 0.000000e+00 0.000000e+00 0.000000e+00 0.000000e+00 0.000000e+00 0.000000e+00 0.000000e+00 0.000000e+00 0.000000e+00 0.000000e+00 0.000000e+00
 0.000000e+00 0.000000e+00 0.000000e+00 0.000000e+00 0.000000e+00 0.000000e+00 0.000000e+00 0.000000e+00 0.000000e+00 0.000000e+00 0.000000e+00 0.000000e+00 5.000000e-01 5.000000e-01 0.000000e+00 0.000000e+00 0.000000e+00 0.000000e+00 0.000000e+00 0.000000e+00 0.000000e+00 0.000000e+00 0.000000e+00 0.000000e+00 0.000000e+00 0.000000e+00 0.000000e+00 0.000000e+00 0.000000e+00 0.000000e+00 0.000000e+00 0.000000e+00 0.000000e+00 0.000000e+00 0.000000e+00 0.000000e+00 0.000000e+00
 0.000000e+00 0.000000e+00 0.000000e+00 0.000000e+00 0.000000e+00 0.000000e+00 0.000000e+00 0.000000e+00 0.000000e+00 0.000000e+00 0.000000e+00 0.000000e+00 0.000000e+00 3.750000e-01 6.250000e-01 0.000000e+00 0.000000e+00 0.000000e+00 0.000000e+00 0.000000e+00 0.000000e+00 0.000000e+00 0.000000e+00 0.000000e+00 0.000000e+00 0.000000e+00 0.000000e+00 0.000000e+00 0.000000e+00 0.000000e+00 0.000000e+00 0.000000e+00 0.000000e+00 0.000000e+00 0.000000e+00 0.000000e+00 0.000000e+00
 0.000000e+00 0.000000e+00 0.000000e+00 0.000000e+00 0.000000e+00 0.000000e+00 0.000000e+00 0.000000e+00 0.000000e+00 0.000000e+00 0.000000e+00 0.000000e+00 0.000000e+00 0.000000e+00 5.000000e-01 5.000000e-01 0.000000e+00 0.000000e+00 0.000000e+00 0.000000e+00 0.000000e+00 0.000000e+00 0.000000e+00 0.000000e+00 0.000000e+00 0.000000e+00 0.000000e+00 0.000000e+00 0.000000e+00 0.000000e+00 0.000000e+00 0.000000e+00 0.000000e+00 0.000000e+00 0.000000e+00 0.000000e+00 0.000000e+00
 0.000000e+00 0.000000e+00 0.000000e+00 0.000000e+00 0.000000e+00 0.000000e+00 0.000000e+00 0.000000e+00 0.000000e+00 0.000000e+00 0.000000e+00 0.000000e+00 0.000000e+00 0.000000e+00 0.000000e+00 5.454546e-01 4.545455e-01 0.000000e+00 0.000000e+00 0.000000e+00 0.000000e+00 0.000000e+00 0.000000e+00 0.000000e+00 0.000000e+00 0.000000e+00 0.000000e+00 0.000000e+00 0.000000e+00 0.000000e+00 0.000000e+00 0.000000e+00 0.000000e+00 0.000000e+00 0.000000e+00 0.000000e+00 0.000000e+00
 0.000000e+00 0.000000e+00 0.000000e+00 0.000000e+00 0.000000e+00 0.000000e+00 0.000000e+00 0.000000e+00 0.000000e+00 0.000000e+00 0.000000e+00 0.000000e+00 0.000000e+00 0.000000e+00 0.000000e+00 0.000000e+00 2.857143e-01 7.142857e-01 0.000000e+00 0.000000e+00 0.000000e+00 0.000000e+00 0.000000e+00 0.000000e+00 0.000000e+00 0.000000e+00 0.000000e+00 0.000000e+00 0.000000e+00 0.000000e+00 0.000000e+00 0.000000e+00 0.000000e+00 0.000000e+00 0.000000e+00 0.000000e+00 0.000000e+00
 0.000000e+00 0.000000e+00 0.000000e+00 0.000000e+00 0.000000e+00 0.000000e+00 0.000000e+00 0.000000e+00 0.000000e+00 0.000000e+00 0.000000e+00 0.000000e+00 0.000000e+00 0.000000e+00 0.000000e+00 0.000000e+00 0.000000e+00 4.444444e-01 5.555556e-01 0.000000e+00 0.000000e+00 0.000000e+00 0.000000e+00 0.000000e+00 0.000000e+00 0.000000e+00 0.000000e+00 0.000000e+00 0.000000e+00 0.000000e+00 0.000000e+00 0.000000e+00 0.000000e+00 0.000000e+00 0.000000e+00 0.000000e+00 0.000000e+00
 0.000000e+00 0.000000e+00 0.000000e+00 0.000000e+00 0.000000e+00 0.000000e+00 0.000000e+00 0.000000e+00 0.000000e+00 0.000000e+00 0.000000e+00 0.000000e+00 0.000000e+00 0.000000e+00 0.000000e+00 0.000000e+00 0.000000e+00 0.000000e+00 5.000000e-01 5.000000e-01 0.000000e+00 0.000000e+00 0.000000e+00 0.000000e+00 0.000000e+00 0.000000e+00 0.000000e+00 0.000000e+00 0.000000e+00 0.000000e+00 0.000000e+00 0.000000e+00 0.000000e+00 0.000000e+00 0.000000e+00 0.000000e+00 0.000000e+00
 0.000000e+00 0.000000e+00 0.000000e+00 0.000000e+00 0.000000e+00 0.000000e+00 0.000000e+00 0.000000e+00 0.000000e+00 0.000000e+00 0.000000e+00 0.000000e+00 0.000000e+00 0.000000e+00 0.000000e+00 0.000000e+00 0.000000e+00 0.000000e+00 0.000000e+00 4.444444e-01 5.555556e-01 0.000000e+00 0.000000e+00 0.000000e+00 0.000000e+00 0.000000e+00 0.000000e+00 0.000000e+00 0.000000e+00 0.000000e+00 0.000000e+00 0.000000e+00 0.000000e+00 0.000000e+00 0.000000e+00 0.000000e+00 0.000000e+00
 0.000000e+00 0.000000e+00 0.000000e+00 0.000000e+00 0.000000e+00 0.000000e+00 0.000000e+00 0.000000e+00 0.000000e+00 0.000000e+00 0.000000e+00 0.000000e+00 0.000000e+00 0.000000e+00 0.000000e+00 0.000000e+00 0.000000e+00 0.000000e+00 0.000000e+00 0.000000e+00 5.000000e-01 5.000000e-01 0.000000e+00 0.000000e+00 0.000000e+00 0.000000e+00 0.000000e+00 0.000000e+00 0.000000e+00 0.000000e+00 0.000000e+00 0.000000e+00 0.000000e+00 0.000000e+00 0.000000e+00 0.000000e+00 0.000000e+00
 0.000000e+00 0.000000e+00 0.000000e+00 0.000000e+00 0.000000e+00 0.000000e+00 0.000000e+00 0.000000e+00 0.000000e+00 0.000000e+00 0.000000e+00 0.000000e+00 0.000000e+00 0.000000e+00 0.000000e+00 0.000000e+00 0.000000e+00 0.000000e+00 0.000000e+00 0.000000e+00 0.000000e+00 4.444444e-01 5.555556e-01 0.000000e+00 0.000000e+00 0.000000e+00 0.000000e+00 0.000000e+00 0.000000e+00 0.000000e+00 0.000000e+00 0.000000e+00 0.000000e+00 0.000000e+00 0.000000e+00 0.000000e+00 0.000000e+00
 0.000000e+00 0.000000e+00 0.000000e+00 0.000000e+00 0.000000e+00 0.000000e+00 0.000000e+00 0.000000e+00 0.000000e+00 0.000000e+00 0.000000e+00 0.000000e+00 0.000000e+00 0.000000e+00 0.000000e+00 0.000000e+00 0.000000e+00 0.000000e+00 0.000000e+00 0.000000e+00 0.000000e+00 0.000000e+00 5.000000e-01 5.000000e-01 0.000000e+00 0.000000e+00 0.000000e+00 0.000000e+00 0.000000e+00 0.000000e+00 0.000000e+00 0.000000e+00 0.000000e+00 0.000000e+00 0.000000e+00 0.000000e+00 0.000000e+00
 0.000000e+00 0.000000e+00 0.000000e+00 0.000000e+00 0.000000e+00 0.000000e+00 0.000000e+00 0.000000e+00 0.000000e+00 0.000000e+00 0.000000e+00 0.000000e+00 0.000000e+00 0.000000e+00 0.000000e+00 0.000000e+00 0.000000e+00 0.000000e+00 0.000000e+00 0.000000e+00 0.000000e+00 0.000000e+00 0.000000e+00 3.750000e-01 6.250000e-01 0.000000e+00 0.000000e+00 0.000000e+00 0.000000e+00 0.000000e+00 0.000000e+00 0.000000e+00 0.000000e+00 0.000000e+00 0.000000e+00 0.000000e+00 0.000000e+00
 0.000000e+00 0.000000e+00 0.000000e+00 0.000000e+00 0.000000e+00 0.000000e+00 0.000000e+00 0.000000e+00 0.000000e+00 0.000000e+00 0.000000e+00 0.000000e+00 0.000000e+00 0.000000e+00 0.000000e+00 0.000000e+00 0.000000e+00 0.000000e+00 0.000000e+00 0.000000e+00 0.000000e+00 0.000000e+00 0.000000e+00 0.000000e+00 5.000000e-01 5.000000e-01 0.000000e+00 0.000000e+00 0.000000e+00 0.000000e+00 0.000000e+00 0.000000e+00 0.000000e+00 0.000000e+00 0.000000e+00 0.000000e+00 0.000000e+00
 0.000000e+00 0.000000e+00 0.000000e+00 0.000000e+00 0.000000e+00 0.000000e+00 0.000000e+00 0.000000e+00 0.000000e+00 0.000000e+00 0.000000e+00 0.000000e+00 0.000000e+00 0.000000e+00 0.000000e+00 0.000000e+00 0.000000e+00 0.000000e+00 0.000000e+00 0.000000e+00 0.000000e+00 0.000000e+00 0.000000e+00 0.000000e+00 0.000000e+00 5.454546e-01 4.545455e-01 0.000000e+00 0.000000e+00 0.000000e+00 0.000000e+00 0.000000e+00 0.000000e+00 0.000000e+00 0.000000e+00 0.000000e+00 0.000000e+00
 0.000000e+00 0.000000e+00 0.000000e+00 0.000000e+00 0.000000e+00 0.000000e+00 0.000000e+00 0.000000e+00 0.000000e+00 0.000000e+00 0.000000e+00 0.000000e+00 0.000000e+00 0.000000e+00 0.000000e+00 0.000000e+00 0.000000e+00 0.000000e+00 0.000000e+00 0.000000e+00 0.000000e+00 0.000000e+00 0.000000e+00 0.000000e+00 0.000000e+00 0.000000e+00 2.857143e-01 7.142857e-01 0.000000e+00 0.000000e+00 0.000000e+00 0.000000e+00 0.000000e+00 0.000000e+00 0.000000e+00 0.000000e+00 0.000000e+00
 0.000000e+00 0.000000e+00 0.000000e+00 0.000000e+00 0.000000e+00 0.000000e+00 0.000000e+00 0.000000e+00 0.000000e+00 0.000000e+00 0.000000e+00 0.000000e+00 0.000000e+00 0.000000e+00 0.000000e+00 0.000000e+00 0.000000e+00 0.000000e+00 0.000000e+00 0.000000e+00 0.000000e+00 0.000000e+00 0.000000e+00 0.000000e+00 0.000000e+00 0.000000e+00 0.000000e+00 5.454546e-01 4.545455e-01 0.000000e+00 0.000000e+00 0.000000e+00 0.000000e+00 0.000000e+00 0.000000e+00 0.000000e+00 0.000000e+00
 0.000000e+00 0.000000e+00 0.000000e+00 0.000000e+00 0.000000e+00 0.000000e+00 0.000000e+00 0.000000e+00 0.000000e+00 0.000000e+00 0.000000e+00 0.000000e+00 0.000000e+00 0.000000e+00 0.000000e+00 0.000000e+00 0.000000e+00 0.000000e+00 0.000000e+00 0.000000e+00 0.000000e+00 0.000000e+00 0.000000e+00 0.000000e+00 0.000000e+00 0.000000e+00 0.000000e+00 0.000000e+00 3.750000e-01 6.250000e-01 0.000000e+00 0.000000e+00 0.000000e+00 0.000000e+00 0.000000e+00 0.000000e+00 0.000000e+00
 0.000000e+00 0.000000e+00 0.000000e+00 0.000000e+00 0.000000e+00 0.000000e+00 0.000000e+00 0.000000e+00 0.000000e+00 0.000000e+00 0.000000e+00 0.000000e+00 0.000000e+00 0.000000e+00 0.000000e+00 0.000000e+00 0.000000e+00 0.000000e+00 0.000000e+00 0.000000e+00 0.000000e+00 0.000000e+00 0.000000e+00 0.000000e+00 0.000000e+00 0.000000e+00 0.000000e+00 0.000000e+00 0.000000e+00 4.444444e-01 5.555556e-01 0.000000e+00 0.000000e+00 0.000000e+00 0.000000e+00 0.000000e+00 0.000000e+00
 0.000000e+00 0.000000e+00 0.000000e+00 0.000000e+00 0.000000e+00 0.000000e+00 0.000000e+00 0.000000e+00 0.000000e+00 0.000000e+00 0.000000e+00 0.000000e+00 0.000000e+00 0.000000e+00 0.000000e+00 0.000000e+00 0.000000e+00 0.000000e+00 0.000000e+00 0.000000e+00 0.000000e+00 0.000000e+00 0.000000e+00 0.000000e+00 0.000000e+00 0.000000e+00 0.000000e+00 0.000000e+00 0.000000e+00 0.000000e+00 5.454546e-01 4.545455e-01 0.000000e+00 0.000000e+00 0.000000e+00 0.000000e+00 0.000000e+00
 0.000000e+00 0.000000e+00 0.000000e+00 0.000000e+00 0.000000e+00 0.000000e+00 0.000000e+00 0.000000e+00 0.000000e+00 0.000000e+00 0.000000e+00 0.000000e+00 0.000000e+00 0.000000e+00 0.000000e+00 0.000000e+00 0.000000e+00 0.000000e+00 0.000000e+00 0.000000e+00 0.000000e+00 0.000000e+00 0.000000e+00 0.000000e+00 0.000000e+00 0.000000e+00 0.000000e+00 0.000000e+00 0.000000e+00 0.000000e+00 0.000000e+00 3.750000e-01 6.250000e-01 0.000000e+00 0.000000e+00 0.000000e+00 0.000000e+00
 0.000000e+00 0.000000e+00 0.000000e+00 0.000000e+00 0.000000e+00 0.000000e+00 0.000000e+00 0.000000e+00 0.000000e+00 0.000000e+00 0.000000e+00 0.000000e+00 0.000000e+00 0.000000e+00 0.000000e+00 0.000000e+00 0.000000e+00 0.000000e+00 0.000000e+00 0.000000e+00 0.000000e+00 0.000000e+00 0.000000e+00 0.000000e+00 0.000000e+00 0.000000e+00 0.000000e+00 0.000000e+00 0.000000e+00 0.000000e+00 0.000000e+00 0.000000e+00 4.444444e-01 5.555556e-01 0.000000e+00 0.000000e+00 0.000000e+00
 0.000000e+00 0.000000e+00 0.000000e+00 0.000000e+00 0.000000e+00 0.000000e+00 0.000000e+00 0.000000e+00 0.000000e+00 0.000000e+00 0.000000e+00 0.000000e+00 0.000000e+00 0.000000e+00 0.000000e+00 0.000000e+00 0.000000e+00 0.000000e+00 0.000000e+00 0.000000e+00 0.000000e+00 0.000000e+00 0.000000e+00 0.000000e+00 0.000000e+00 0.000000e+00 0.000000e+00 0.000000e+00 0.000000e+00 0.000000e+00 0.000000e+00 0.000000e+00 0.000000e+00 5.000000e-01 5.000000e-01 0.000000e+00 0.000000e+00
 0.000000e+00 0.000000e+00 0.000000e+00 0.000000e+00 0.000000e+00 0.000000e+00 0.000000e+00 0.000000e+00 0.000000e+00 0.000000e+00 0.000000e+00 0.000000e+00 0.000000e+00 0.000000e+00 0.000000e+00 0.000000e+00 0.000000e+00 0.000000e+00 0.000000e+00 0.000000e+00 0.000000e+00 0.000000e+00 0.000000e+00 0.000000e+00 0.000000e+00 0.000000e+00 0.000000e+00 0.000000e+00 0.000000e+00 0.000000e+00 0.000000e+00 0.000000e+00 0.000000e+00 0.000000e+00 4.444444e-01 5.555556e-01 0.000000e+00
 0.000000e+00 0.000000e+00 0.000000e+00 0.000000e+00 0.000000e+00 0.000000e+00 0.000000e+00 0.000000e+00 0.000000e+00 0.000000e+00 0.000000e+00 0.000000e+00 0.000000e+00 0.000000e+00 0.000000e+00 0.000000e+00 0.000000e+00 0.000000e+00 0.000000e+00 0.000000e+00 0.000000e+00 0.000000e+00 0.000000e+00 0.000000e+00 0.000000e+00 0.000000e+00 0.000000e+00 0.000000e+00 0.000000e+00 0.000000e+00 0.000000e+00 0.000000e+00 0.000000e+00 0.000000e+00 0.000000e+00 2.857143e-01 7.142857e-01
 0.000000e+00 0.000000e+00 0.000000e+00 0.000000e+00 0.000000e+00 0.000000e+00 0.000000e+00 0.000000e+00 0.000000e+00 0.000000e+00 0.000000e+00 0.000000e+00 0.000000e+00 0.000000e+00 0.000000e+00 0.000000e+00 0.000000e+00 0.000000e+00 0.000000e+00 0.000000e+00 0.000000e+00 0.000000e+00 0.000000e+00 0.000000e+00 0.000000e+00 0.000000e+00 0.000000e+00 0.000000e+00 0.000000e+00 0.000000e+00 0.000000e+00 0.000000e+00 0.000000e+00 0.000000e+00 0.000000e+00 0.000000e+00 0.000000e+00
<ENDHMM>
