~o
<STREAMINFO> 1 39
<VECSIZE> 39<NULLD><MFCC_E_D_A><DIAGC>
~h "Xoa"
<BEGINHMM>
<NUMSTATES> 37
<STATE> 2
<MEAN> 39
 -7.373439e+00 -9.170012e+00 -2.979580e+00 -7.477041e-01 5.159209e-01 -4.450541e+00 2.829481e+00 -3.992533e-01 2.320995e+00 -3.511852e+00 1.287976e+00 -2.895555e+00 -9.047373e-02 -9.406658e-01 1.207937e+00 -1.116287e+00 6.575824e-01 -3.293761e-02 -3.116170e-01 8.561773e-01 -1.157381e-01 2.874234e-01 -4.853289e-01 2.541752e-01 -5.581285e-01 1.539929e-02 -5.159493e-01 8.882275e-01 -4.769695e-01 2.111724e-01 1.429747e-02 -1.101741e-01 2.836672e-01 -2.198371e-01 2.972766e-02 -5.392883e-02 2.034721e-01 7.599094e-02 1.269860e-02
<VARIANCE> 39
 5.398833e+00 2.687359e+00 3.652439e+00 2.774419e+00 9.683041e+00 5.488913e+00 8.777920e+00 3.785756e+01 8.926498e+00 1.460787e+01 5.441479e+00 1.664550e+00 1.000000e-02 4.803481e-01 7.074685e-01 7.014691e-01 4.044670e-01 6.481657e-01 4.022662e-01 7.140147e-01 6.150360e-01 4.866118e-01 1.134133e+00 3.189806e-01 1.011657e+00 1.000000e-02 9.763936e-02 7.778741e-02 2.279035e-01 1.205623e-01 2.907383e-01 1.143271e-01 1.214514e-01 5.086541e-01 1.793145e-01 2.634159e-01 7.819622e-02 1.128817e-01 1.000000e-02
<GCONST> 5.102842e+01
<STATE> 3
<MEAN> 39
 -1.134665e+01 -3.912858e+00 -6.972743e+00 1.993105e+00 1.279472e+00 -4.880704e+00 6.104950e+00 -2.411937e+00 3.089108e+00 -5.706835e+00 2.613614e+00 -2.511245e+00 -2.749539e-02 -2.544660e+00 3.377821e+00 -2.654130e+00 9.334102e-01 1.121605e-01 -9.246783e-01 8.635803e-01 -7.609113e-01 8.749768e-01 -1.386559e-03 4.800201e-01 -6.278004e-02 5.828907e-02 -2.767047e-01 3.949721e-01 -4.540199e-01 -7.595871e-02 -4.345779e-02 4.276887e-02 -2.198992e-01 -1.022270e-01 -4.377704e-02 2.555064e-01 -6.427361e-02 4.726207e-02 1.586524e-02
<VARIANCE> 39
 6.133586e+00 7.761981e+00 1.002213e+01 4.415858e+00 1.078204e+01 1.516400e+01 1.371534e+01 1.710656e+01 2.586178e+00 3.662183e+00 6.019351e+00 7.885005e+00 1.000000e-02 9.111446e-01 1.860063e+00 1.340543e+00 8.259260e-01 2.462497e+00 1.866599e+00 1.145488e+00 4.829840e+00 7.819629e-01 1.932266e+00 8.769377e-01 9.694974e-01 1.000000e-02 1.750933e-01 1.449047e-01 9.100313e-02 1.488332e-01 3.850970e-01 1.728733e-01 2.562248e-01 3.859795e-01 1.215558e-01 1.731705e-01 1.182236e-01 3.170989e-01 1.000000e-02
<GCONST> 6.614983e+01
<STATE> 4
<MEAN> 39
 -1.687383e+01 4.165131e+00 -1.333103e+01 2.691887e+00 9.012588e-01 -7.465824e+00 6.351012e+00 -3.310177e+00 5.942309e+00 -2.849770e+00 3.768872e+00 -2.728275e+00 1.482918e-01 -2.013448e+00 2.913078e+00 -2.892776e+00 4.225243e-01 -1.706797e-02 1.899547e-01 2.856238e-01 -5.961048e-01 -1.090314e-01 1.353930e-01 6.312070e-02 -3.345662e-01 7.789394e-02 4.412342e-01 -7.744619e-01 3.463352e-01 -1.530504e-01 -1.917555e-02 3.129596e-01 -3.884866e-01 2.437604e-01 -3.263857e-01 -1.272133e-01 -7.121796e-02 -5.095921e-02 -7.818412e-04
<VARIANCE> 39
 2.192136e+01 2.852658e+01 1.553135e+01 1.009566e+01 1.143569e+01 2.842083e+01 1.777267e+01 2.718470e+01 6.192350e+00 1.230400e+01 1.566465e+01 1.200194e+01 2.382594e-02 1.526281e+00 1.035863e+00 7.248226e-01 1.372479e+00 2.538845e+00 2.277753e+00 2.178848e+00 2.747238e+00 8.560095e-01 9.423011e-01 1.762669e+00 1.359964e+00 1.000000e-02 6.092764e-01 3.343529e-01 2.241493e-01 8.803105e-02 2.843314e-01 3.352265e-01 4.487771e-01 5.390769e-01 2.385585e-01 3.978108e-01 4.962285e-01 3.064985e-01 1.000000e-02
<GCONST> 8.288913e+01
<STATE> 5
<MEAN> 39
 -1.995368e+01 7.442678e+00 -1.879420e+01 3.238739e+00 2.064619e+00 -3.890373e+00 7.406817e+00 -3.888155e+00 3.114102e+00 -4.962853e+00 2.912563e+00 -4.366224e+00 2.961327e-01 -7.969781e-01 3.324382e-01 -1.104686e+00 4.829412e-01 -1.143036e-01 -1.781095e-01 -6.799715e-01 1.761034e-01 -1.218958e-01 -6.841329e-01 1.508358e-01 -3.057892e-02 5.319160e-02 5.928593e-01 -8.029265e-01 8.165587e-01 4.577368e-02 -3.417604e-01 -5.281621e-01 -4.144286e-01 8.645098e-02 2.202834e-01 -1.768596e-01 1.179447e-01 2.060468e-01 -7.288828e-03
<VARIANCE> 39
 3.031896e+01 1.934697e+01 2.368355e+01 1.754175e+01 1.964816e+01 3.517864e+01 2.057912e+01 3.215214e+01 2.456934e+01 1.899928e+01 1.701256e+01 6.812780e+00 3.384533e-02 4.225846e+00 1.582211e+00 1.527424e+00 4.645206e-01 1.125347e+00 1.454241e+00 2.594957e+00 2.921338e+00 1.179726e+00 1.331801e+00 2.741425e+00 1.067537e+00 1.000000e-02 5.228587e-01 2.566156e-01 5.577322e-01 3.001150e-01 4.293706e-01 4.711393e-01 3.775946e-01 5.050092e-01 2.826630e-01 3.468066e-01 3.646158e-01 2.061591e-01 1.000000e-02
<GCONST> 8.905539e+01
<STATE> 6
<MEAN> 39
 -2.167345e+01 6.977207e+00 -1.752953e+01 5.720300e+00 4.098094e-01 -7.796039e+00 3.560070e+00 -3.211141e+00 4.864216e+00 -7.256269e+00 4.979874e+00 -1.923155e+00 3.980579e-01 -5.748293e-02 -1.766712e-01 2.465925e-01 7.538015e-01 -1.391479e+00 -1.561894e+00 -1.325086e+00 -5.064083e-01 7.409104e-01 -4.561626e-01 3.545956e-01 5.700465e-01 3.591188e-02 1.128939e+00 -1.206318e+00 1.561492e-01 -1.158554e+00 -1.474089e-01 -2.263719e-01 1.870653e-01 1.326647e-01 3.790630e-01 3.874691e-01 -8.388876e-01 -1.082814e-01 -6.881825e-04
<VARIANCE> 39
 5.827446e+01 2.974547e+01 8.695383e+00 2.326566e+01 1.690142e+01 2.176687e+01 1.137146e+01 2.199869e+01 1.054630e+01 3.023073e+01 3.999358e+00 1.084177e+01 2.484932e-02 3.289645e+00 2.182486e+00 5.338899e+00 1.430912e+00 3.305913e+00 2.139485e+00 1.527322e+00 4.070108e+00 1.480958e+00 3.453035e+00 7.808883e-01 1.470029e+00 1.000000e-02 9.762888e-01 4.891307e-01 2.345534e-01 3.700815e-01 4.188698e-01 3.393396e-01 5.902032e-01 7.936981e-01 2.466041e-01 6.759771e-01 2.424878e-01 3.141375e-01 1.000000e-02
<GCONST> 9.180274e+01
<STATE> 7
<MEAN> 39
 -2.074082e+01 8.116563e+00 -1.938634e+01 5.622205e+00 -3.581051e+00 -1.173418e+01 2.616880e+00 -7.696076e+00 6.939566e+00 -5.100209e+00 3.000768e+00 -2.691634e+00 4.210566e-01 3.483196e+00 -4.385247e+00 8.002555e-03 -4.010772e+00 -1.020908e+00 -7.309591e-01 -3.757067e-01 1.071736e+00 1.303679e+00 1.697331e-01 -2.608068e+00 -7.824434e-02 5.249036e-02 1.589854e+00 -2.217505e+00 -4.666785e-02 -1.682272e+00 6.248812e-01 5.608011e-01 1.803508e-01 7.307110e-01 -7.776964e-02 2.706708e-01 -9.940799e-01 -3.674126e-01 2.588724e-02
<VARIANCE> 39
 2.850866e+01 1.901526e+01 1.633831e+01 2.833816e+01 3.330388e+01 3.592446e+01 4.742401e+00 1.049982e+01 7.540552e+00 2.457196e+01 1.524695e+01 2.210518e+01 1.388818e-02 4.632513e+00 5.431372e+00 2.297273e+00 3.855169e+00 2.098704e+00 4.108602e+00 2.424994e+00 3.487479e+00 1.146330e+00 3.561619e+00 1.482931e+00 1.967808e+00 1.000000e-02 4.070121e-01 2.511140e-01 6.006572e-01 6.305397e-01 9.784364e-01 7.033578e-01 2.161338e-01 3.165446e-01 1.200361e-01 5.171649e-01 4.238009e-01 5.837059e-01 1.000000e-02
<GCONST> 9.435024e+01
<STATE> 8
<MEAN> 39
 -7.339591e+00 -8.232843e+00 -1.670957e+01 -6.920351e+00 -3.487370e+00 -9.600828e+00 2.236977e+00 1.818214e+00 8.663198e+00 -5.385377e+00 -3.100309e+00 -3.770115e+00 5.907556e-01 5.721478e+00 -7.811354e+00 -5.688077e-01 -5.825077e+00 1.098996e+00 -2.400020e-01 -5.083365e-01 1.803132e+00 7.325254e-01 9.344098e-01 -4.197989e+00 -1.713711e+00 1.307576e-01 -5.757633e-01 -1.479622e-01 -2.382078e-01 2.592454e-01 1.273399e+00 7.834274e-01 4.226432e-01 -7.569047e-01 -7.203199e-01 3.176769e-01 5.236874e-01 -5.423365e-01 9.961042e-03
<VARIANCE> 39
 6.369206e+01 3.167094e+01 5.044187e+01 3.728191e+01 1.032308e+01 3.163979e+01 2.847576e+01 2.457397e+01 1.620583e+01 9.306032e+00 4.383849e+01 7.628603e+00 1.897231e-02 2.659464e+00 1.446305e+00 1.867832e+00 4.103140e-01 5.271112e+00 2.988002e+00 1.432896e+00 1.617093e+00 1.590008e+00 1.485250e+00 9.321465e-01 2.020223e+00 1.000000e-02 9.320028e-01 5.040303e-01 1.056755e+00 9.594272e-01 2.258436e-01 5.641170e-01 1.925948e-01 3.141921e-01 6.110288e-01 3.364505e-01 1.023101e+00 1.338865e-01 1.000000e-02
<GCONST> 9.381245e+01
<STATE> 9
<MEAN> 39
 -1.064797e+00 -2.227764e+01 -1.932376e+01 -1.550284e+01 2.029490e+00 -8.918447e+00 1.194621e+00 6.639740e-01 9.010391e+00 -3.433922e+00 -9.552740e+00 -6.381475e+00 8.465927e-01 2.036018e+00 -4.597695e+00 -2.240842e-01 -2.095699e+00 3.143093e+00 2.206464e+00 8.730317e-01 -1.527187e+00 -1.262774e+00 1.406478e+00 5.768785e-01 -1.741140e+00 8.938805e-02 -1.344132e+00 1.966474e+00 1.588182e-01 1.415987e+00 1.029786e-01 6.651909e-01 3.195268e-01 -1.052616e+00 -8.354762e-01 3.645585e-01 1.661174e+00 -2.611452e-03 -2.664267e-02
<VARIANCE> 39
 1.593455e+01 1.635485e+01 1.341428e+01 1.563982e+01 3.997291e+01 2.889669e+01 1.118272e+01 1.709171e+01 3.008392e+01 1.109360e+01 1.164343e+01 2.470559e+01 1.000000e-02 3.915321e+00 5.167986e+00 3.840153e+00 4.179834e+00 1.740813e+00 2.227695e+00 5.076746e-01 2.359752e+00 4.447749e+00 1.453861e+00 4.682679e+00 1.043709e+00 1.000000e-02 3.500649e-01 2.325709e-01 2.691772e-01 2.014375e-01 9.323987e-01 3.513909e-01 2.550865e-01 1.801999e-01 7.171740e-01 1.206960e-01 2.937962e-01 4.884386e-01 1.000000e-02
<GCONST> 8.931339e+01
<STATE> 10
<MEAN> 39
 5.374258e-02 -2.524330e+01 -2.020342e+01 -1.515029e+01 7.169008e+00 -4.078935e+00 5.287090e+00 -6.178020e+00 1.698887e+00 1.139074e+00 -3.045667e+00 -1.144822e+01 9.377058e-01 4.648071e-02 -3.931672e-01 -2.016930e-01 -3.702091e-01 1.560637e+00 2.318673e+00 8.851755e-01 -1.882959e+00 -2.850312e+00 2.389707e+00 2.122204e+00 -9.968790e-01 2.805570e-02 -4.214923e-01 1.239840e+00 1.028560e-01 3.536475e-01 -7.427801e-01 -6.451216e-02 -2.471122e-02 2.459085e-01 6.341757e-01 -3.835442e-01 -3.704614e-02 7.990793e-01 -2.023343e-02
<VARIANCE> 39
 6.582749e+00 1.212816e+01 9.194057e+00 1.562401e+01 1.488263e+01 2.352398e+01 4.011309e+01 2.403230e+01 3.364571e+01 3.452972e+01 1.086006e+01 6.437265e+00 1.000000e-02 2.182201e-01 6.677290e-01 1.228941e+00 2.053109e+00 3.220623e+00 1.017843e+00 1.930523e+00 4.851802e-01 4.749008e+00 8.692743e-01 8.448598e-01 1.568367e+00 1.000000e-02 3.422661e-01 3.397548e-01 4.201946e-01 3.657184e-01 2.813059e-01 2.427361e-01 1.798692e-01 3.360913e-02 5.206482e-01 3.752033e-01 2.930281e-01 6.327286e-02 1.000000e-02
<GCONST> 7.562582e+01
<STATE> 11
<MEAN> 39
 4.139544e-01 -2.447371e+01 -1.925008e+01 -1.755939e+01 9.382820e+00 7.314022e-01 5.325153e+00 -7.118155e+00 -1.735853e+00 4.679473e+00 -1.356465e+00 -1.096242e+01 9.656481e-01 6.519464e-02 5.349249e-01 3.241661e-01 -4.440148e-01 5.466723e-01 1.912604e+00 8.465433e-01 -9.712065e-01 4.389080e-01 9.910014e-02 6.928650e-01 8.717593e-01 8.047911e-03 -8.452289e-02 5.368352e-02 1.684330e-04 1.274613e-01 -4.829211e-01 -2.685937e-01 -2.647535e-01 3.686422e-01 8.024832e-01 -6.337525e-01 -4.747195e-01 3.532084e-01 -5.437891e-03
<VARIANCE> 39
 3.818764e+00 5.929035e+00 8.758799e+00 6.227126e+00 5.837415e+00 1.076149e+01 2.516404e+01 2.479677e+01 5.466000e+01 1.713284e+01 9.560863e+00 4.123561e+00 1.000000e-02 4.513416e-01 3.174390e-01 3.746367e-01 6.216184e-01 5.778788e-01 2.310583e-01 7.713954e-01 1.956516e-01 2.134648e+00 1.316238e+00 4.692982e-01 7.564533e-01 1.000000e-02 6.871277e-02 1.364618e-01 1.229713e-01 1.370195e-01 2.909551e-01 1.153849e-01 1.937267e-01 7.572771e-02 7.708175e-01 2.739978e-01 5.928723e-02 3.741217e-01 1.000000e-02
<GCONST> 5.703373e+01
<STATE> 12
<MEAN> 39
 -3.211769e-01 -2.354625e+01 -1.922517e+01 -1.683928e+01 8.815899e+00 3.762933e+00 7.376367e+00 -8.867343e+00 4.074162e+00 2.859357e+00 4.294310e-01 -7.629720e+00 9.681965e-01 -1.899323e-01 -7.827646e-02 -1.464892e-01 5.035673e-02 -4.832204e-01 1.373939e+00 -3.940963e-01 -4.744293e-01 2.614000e-01 -2.854781e-01 1.710877e-01 5.871542e-01 4.879345e-03 -6.702871e-02 -2.431778e-01 -8.778374e-02 2.030912e-01 -1.282136e-01 -3.153864e-01 -3.342054e-01 2.243899e-01 -2.652092e-01 -2.933464e-01 -3.007298e-01 -1.645522e-01 -1.163556e-03
<VARIANCE> 39
 1.095929e+01 4.930563e+00 6.145705e+00 2.553543e+00 6.661659e+00 1.212647e+01 1.788031e+01 2.795213e+01 6.768795e+01 1.997163e+01 1.458004e+01 4.571384e+00 1.000000e-02 2.174262e-01 2.107840e-01 4.043700e-01 1.786797e-01 1.540613e-01 3.756833e-01 1.262304e-01 4.590093e-01 1.549276e+00 9.632778e-01 4.821317e-01 8.127381e-01 1.000000e-02 7.071422e-02 4.554369e-02 4.561022e-02 1.223156e-01 8.331817e-02 5.636722e-02 1.541260e-01 3.761937e-02 2.129117e-01 7.447758e-02 7.370628e-02 1.409252e-01 1.000000e-02
<GCONST> 4.452507e+01
<STATE> 13
<MEAN> 39
 -6.956350e-01 -2.483257e+01 -1.965743e+01 -1.608769e+01 7.935557e+00 6.677579e+00 4.725442e+00 -9.219935e+00 5.308338e-01 1.217010e+00 -1.370621e+00 -9.031161e+00 9.825019e-01 -1.673729e-01 -6.421481e-01 1.923348e-02 5.105660e-01 3.225653e-01 6.742359e-01 -3.873272e-01 -8.307996e-02 -2.856440e-01 -8.349354e-01 -2.302686e-01 1.948123e-02 3.643827e-03 -3.885903e-02 -6.864762e-02 1.769015e-01 -1.486124e-02 3.118990e-01 -3.922661e-01 1.709331e-01 1.063697e-01 -3.326114e-02 8.062740e-02 7.003526e-02 -1.784329e-02 -1.352476e-03
<VARIANCE> 39
 1.452078e+01 1.222339e+01 8.549720e+00 8.510023e+00 8.169176e+00 9.779947e+00 2.282396e+01 3.707328e+01 7.239511e+01 2.009754e+01 2.316396e+01 1.368712e+01 1.000000e-02 1.960865e-01 1.559816e-01 4.392512e-01 5.460597e-01 5.393374e-01 1.110704e+00 5.144532e-01 6.767475e-01 5.094574e-01 1.684391e-01 6.083117e-01 7.198440e-01 1.000000e-02 2.501606e-02 6.178617e-02 5.763060e-02 7.150698e-02 3.766549e-02 7.951232e-02 5.817647e-02 5.800553e-02 6.154271e-02 4.471133e-02 1.173852e-01 2.358369e-01 1.000000e-02
<GCONST> 4.877834e+01
<STATE> 14
<MEAN> 39
 -1.057146e+00 -2.583571e+01 -1.931667e+01 -1.567188e+01 9.602333e+00 6.156122e+00 5.685175e+00 -9.393764e+00 2.067181e+00 5.678645e-01 -3.112585e-01 -7.218528e+00 9.864893e-01 -4.597064e-01 -4.553271e-01 3.624390e-01 1.611926e-01 4.668867e-01 -2.392665e-01 1.334338e-01 5.569787e-02 -1.165816e-01 -2.753855e-01 -3.364638e-02 1.048275e-01 -5.681973e-04 -5.926548e-02 1.294637e-02 5.648735e-02 1.476940e-01 -1.317003e-01 -1.107702e-01 -6.536738e-02 -1.348853e-03 -1.751671e-02 -7.615811e-02 -2.720389e-01 -1.546318e-01 -2.549047e-03
<VARIANCE> 39
 1.708891e+01 7.085283e+00 8.397593e+00 6.813469e+00 1.139957e+01 7.720751e+00 2.428208e+01 4.901490e+01 8.065080e+01 2.111103e+01 1.791578e+01 6.027080e+00 1.000000e-02 1.884606e-01 2.457440e-01 3.155456e-01 3.206164e-01 1.602605e-01 2.930787e-01 7.829430e-01 3.645836e-01 7.221251e-01 3.431923e-01 4.251230e-01 4.643793e-01 1.000000e-02 3.960349e-02 4.630174e-02 7.856234e-02 6.364413e-02 1.425237e-01 1.242649e-01 1.254514e-01 1.184203e-01 8.210666e-02 3.367322e-02 4.250333e-02 8.940004e-02 1.000000e-02
<GCONST> 4.638725e+01
<STATE> 15
<MEAN> 39
 -3.315159e+00 -2.691778e+01 -1.750123e+01 -1.570572e+01 9.367772e+00 6.618360e+00 5.270742e+00 -1.056628e+01 3.309134e+00 -2.104057e+00 -3.905228e-01 -8.392303e+00 9.748014e-01 -5.565443e-01 -4.668568e-01 3.797014e-01 6.969538e-01 -3.952721e-02 -3.408153e-02 -5.082925e-01 -2.849957e-01 -2.823084e-01 -9.749515e-01 -9.429432e-01 -2.999595e-01 -6.138753e-03 7.485324e-02 6.597349e-02 -1.983927e-01 4.216844e-01 -1.056652e-01 9.273942e-02 -2.361889e-01 -3.638625e-02 7.279642e-02 -2.851464e-01 -2.118997e-01 -4.562801e-02 -1.418389e-04
<VARIANCE> 39
 1.677003e+01 9.449118e+00 1.536919e+01 3.204914e+00 1.814306e+00 1.187134e+01 8.150600e+00 1.199971e+01 3.764283e+01 1.733469e+01 5.523721e+00 3.834099e+00 1.000000e-02 2.519117e-01 3.476934e-01 6.501867e-01 4.653642e-01 1.017351e+00 4.442528e-01 1.270404e+00 5.335479e-01 8.018481e-01 2.260762e-01 2.669408e-01 4.438997e-01 1.000000e-02 4.152390e-02 8.299199e-02 4.502706e-02 1.187672e-01 1.624976e-01 3.552934e-02 7.537638e-02 1.407686e-01 1.748796e-01 1.698373e-01 8.333198e-02 5.847909e-02 1.000000e-02
<GCONST> 4.591417e+01
<STATE> 16
<MEAN> 39
 -2.408477e+00 -2.758978e+01 -1.766768e+01 -1.229946e+01 1.024160e+01 6.405776e+00 3.352535e+00 -8.751368e+00 6.721942e-01 -2.273650e+00 -4.058541e+00 -7.926520e+00 9.670901e-01 -5.762989e-02 -5.483958e-01 -3.788556e-01 1.583013e+00 -7.059664e-03 7.125821e-03 -5.322607e-01 1.078819e-01 2.622124e-01 -1.246827e+00 -6.553608e-01 -2.211737e-01 5.779383e-04 4.908225e-02 -1.331062e-02 -1.448820e-01 8.098108e-02 -1.649067e-01 -1.866235e-01 -7.390273e-02 1.334735e-01 2.200287e-02 -1.434286e-01 2.147152e-01 -3.338853e-02 1.484109e-04
<VARIANCE> 39
 2.757337e+01 5.761456e+00 2.359178e+01 1.090161e+01 2.166570e+01 1.312271e+01 1.104978e+01 4.196143e+01 5.212190e+01 3.005279e+01 6.271806e+00 2.330765e+00 1.000000e-02 3.191061e-01 5.916616e-01 6.642159e-01 5.507573e-01 1.940316e+00 6.058765e-01 1.069290e-01 1.015198e+00 6.554799e-01 9.232687e-01 2.663567e-01 1.395737e-01 1.000000e-02 3.803292e-02 8.084430e-02 1.168790e-01 6.695294e-02 2.171649e-01 3.663754e-02 8.412115e-02 9.329105e-02 1.140935e-01 5.194493e-02 2.247036e-02 9.509084e-02 1.000000e-02
<GCONST> 5.018887e+01
<STATE> 17
<MEAN> 39
 -2.978937e+00 -2.932867e+01 -1.960570e+01 -9.366405e+00 9.113813e+00 5.650918e+00 2.806742e+00 -9.731974e+00 1.986745e+00 -6.229311e+00 -3.685915e+00 -9.499521e+00 9.724053e-01 -1.924397e-01 -1.753021e-01 -5.654841e-02 1.203542e+00 -4.079546e-01 -6.917500e-01 -8.970360e-01 4.631599e-01 -1.578223e-01 -1.397832e+00 -1.178764e-01 -2.216879e-01 -7.583925e-03 1.245374e-01 2.842000e-01 4.310771e-01 -1.614809e-01 1.368978e-01 -1.425417e-01 -8.795506e-02 4.680852e-01 -2.057021e-01 2.225376e-01 8.166982e-02 4.332567e-01 -3.815992e-03
<VARIANCE> 39
 2.891574e+01 1.533367e+01 2.134671e+01 1.778132e+01 1.062568e+01 2.561952e+01 1.414156e+01 3.146742e+01 4.868847e+01 3.360183e+01 9.532732e+00 6.316838e+00 1.000000e-02 1.294194e-01 4.620546e-01 6.365095e-01 3.028294e-01 7.449251e-01 1.084064e-01 1.218946e+00 5.886360e-01 4.093287e-01 4.690569e-01 1.611772e-01 1.210794e+00 1.000000e-02 5.752606e-02 1.178943e-01 1.473442e-01 6.077244e-02 4.124750e-01 2.579558e-01 1.268726e-01 2.392101e-01 1.831753e-01 2.361140e-01 2.586091e-02 1.535373e-01 1.000000e-02
<GCONST> 5.838798e+01
<STATE> 18
<MEAN> 39
 -3.347945e+00 -2.781120e+01 -1.894807e+01 -6.258360e+00 8.187202e+00 4.279424e+00 3.559204e-01 -9.902556e+00 2.097137e+00 -9.406779e+00 -3.985235e+00 -1.001652e+01 9.395087e-01 4.508298e-01 3.324402e-01 1.114479e+00 1.131043e+00 3.949720e-01 -5.712219e-01 -1.075085e+00 1.772827e+00 -3.200869e-01 -2.597624e-01 -2.817883e-01 1.191943e+00 -1.321448e-02 1.486845e-01 -6.977035e-02 3.153188e-01 -3.672529e-01 7.677852e-02 1.184648e-01 -3.189489e-02 4.980538e-01 -2.920009e-01 2.914065e-01 -7.523884e-02 5.359588e-01 -8.688258e-04
<VARIANCE> 39
 3.520968e+01 2.311023e+00 1.296102e+01 1.775327e+01 9.377050e+00 4.034274e+00 2.561593e+01 3.363094e+01 3.119593e+01 2.850389e+01 2.387625e+00 9.802255e+00 1.000000e-02 2.924191e-01 6.466318e-01 6.124589e-01 2.375046e-01 1.715943e+00 2.071472e+00 8.499578e-01 1.118551e+00 1.075805e+00 1.556871e+00 3.389740e-01 1.714764e+00 1.000000e-02 8.269715e-02 2.002330e-02 1.024213e-01 5.289715e-02 1.459249e-01 1.569568e-01 3.274391e-01 1.215536e-01 8.467373e-02 1.613971e-01 4.845182e-02 1.425694e-01 1.000000e-02
<GCONST> 5.774196e+01
<STATE> 19
<MEAN> 39
 -1.131143e+00 -2.796058e+01 -1.653866e+01 -5.651524e+00 1.002457e+01 2.032094e+00 -1.126843e+00 -3.311123e+00 -4.234215e-01 -7.157851e+00 -5.137856e+00 -4.681399e+00 9.226377e-01 8.464266e-03 -2.531423e-01 1.030805e+00 -3.479927e-01 -3.189530e-01 -3.535229e-01 -7.624543e-01 2.113881e+00 -1.163024e+00 -7.629787e-01 7.110275e-02 1.659012e+00 -1.316201e-02 -2.673004e-01 -7.044315e-02 -6.965844e-02 -4.164670e-01 -1.251081e-02 2.770470e-02 2.037217e-01 -1.272857e-01 -4.990758e-02 -3.461092e-02 1.833324e-01 -4.742772e-02 -3.409080e-03
<VARIANCE> 39
 1.492568e+01 4.328100e+00 1.804384e+01 1.302676e+01 8.650968e+00 2.183134e+01 1.378622e+01 2.170624e+01 3.424266e+01 6.032605e+00 1.466778e+01 1.292685e+01 1.000000e-02 6.196913e-01 3.908043e-01 5.558425e-01 5.521306e-01 6.138777e-01 1.095127e+00 2.553741e+00 5.928268e-01 5.497797e-01 1.232834e+00 7.475142e-01 7.602574e-01 1.000000e-02 8.015930e-02 8.431111e-02 8.648564e-02 4.974433e-02 2.564103e-01 2.611259e-01 2.299297e-01 1.717051e-01 1.383082e-01 1.599366e-01 7.992216e-02 1.935584e-01 1.000000e-02
<GCONST> 6.111046e+01
<STATE> 20
<MEAN> 39
 -3.284293e+00 -3.019417e+01 -1.310611e+01 -8.063805e+00 6.832443e+00 5.197557e+00 -5.744534e+00 4.799097e-01 -3.464509e+00 -1.180957e+01 -4.591691e+00 -2.983947e+00 8.714982e-01 -9.982736e-01 1.744264e-01 2.485826e-01 -5.738317e-01 -1.812076e-02 -7.224329e-01 -2.883718e-01 1.058059e+00 -6.847599e-01 -2.604798e-01 2.765543e-01 9.737030e-01 -2.775396e-02 -3.349431e-01 2.405083e-01 -2.796730e-01 -6.232072e-03 1.677065e-01 -3.968260e-01 3.740657e-01 -5.997695e-01 5.648768e-01 2.087051e-01 -4.563340e-02 -3.145505e-01 -6.409883e-03
<VARIANCE> 39
 5.595059e+00 2.476052e+00 4.823148e+00 8.845112e+00 8.508231e+00 1.835915e+01 2.768139e+01 1.773239e+01 1.383251e+01 1.887610e+01 1.050675e+01 1.609952e+01 1.000000e-02 4.499783e-01 1.034109e+00 4.271102e-01 6.704926e-01 1.101029e+00 8.600821e-01 2.620381e+00 4.677722e-01 1.558890e+00 7.643640e-01 4.342313e-01 2.418667e-01 1.000000e-02 8.759184e-02 1.160683e-01 1.856723e-01 4.939406e-02 7.355594e-02 3.575875e-02 2.568497e-01 1.942817e-01 7.863700e-02 4.104148e-01 1.277137e-01 1.309603e-01 1.000000e-02
<GCONST> 5.649884e+01
<STATE> 21
<MEAN> 39
 -6.659852e+00 -2.667575e+01 -1.312838e+01 -9.642958e+00 1.239632e+01 -2.687759e+00 -3.096753e-01 1.799814e+00 -3.383191e+00 -1.005342e+01 -3.834179e+00 8.733342e-01 7.988265e-01 -3.713990e-01 1.828740e-01 3.911552e-01 -1.599619e-01 -1.643050e-01 -6.077274e-01 1.911594e-01 -3.288250e-01 7.343550e-01 1.351643e-01 -5.563482e-01 2.556139e-01 -5.371238e-02 7.817433e-01 -2.704844e-01 -1.911841e-01 5.374526e-01 -7.820163e-01 6.055526e-01 -1.187718e-01 -3.647374e-01 2.092280e-01 1.238087e-01 -3.602927e-01 -3.635130e-01 -7.470704e-03
<VARIANCE> 39
 1.842898e+01 8.422281e+00 6.082410e+00 3.036362e+01 3.818781e+01 5.262650e+01 3.665574e+01 1.297242e+01 1.370168e+01 4.883724e+00 1.704852e+00 7.892878e+00 1.000000e-02 1.828078e+00 4.820001e-01 6.913389e-01 1.982390e+00 4.322514e+00 2.679680e+00 4.135318e-01 3.311117e+00 6.052527e-01 2.019165e+00 1.072756e+00 3.012663e-01 1.000000e-02 3.756405e-01 2.463423e-01 1.021772e-01 5.138460e-01 5.273296e-01 5.896382e-01 1.491361e-01 4.194040e-01 2.119480e-01 1.551959e-01 1.459487e-01 1.087660e-01 1.000000e-02
<GCONST> 7.389706e+01
<STATE> 22
<MEAN> 39
 -2.898001e+00 -2.926871e+01 -1.264454e+01 -8.324912e+00 5.649453e+00 5.060670e-01 -1.996828e+00 1.587305e+00 -1.454636e+00 -9.095919e+00 -7.259884e+00 -9.636629e-02 6.629227e-01 1.712837e+00 -7.489954e-01 -4.810468e-01 1.011317e+00 -1.761786e+00 5.540239e-01 -1.339503e-01 -1.002504e+00 6.765569e-01 2.826152e-01 -7.355008e-01 -6.763234e-01 -5.042230e-02 1.839249e-01 1.561994e-01 -2.050663e-01 3.566123e-01 3.857599e-02 -7.680959e-02 -8.907431e-02 -6.646361e-01 -3.498564e-02 -7.086273e-02 1.705655e-01 -1.351264e-01 4.106214e-03
<VARIANCE> 39
 1.852356e+01 3.758781e+00 1.570836e+01 1.191623e+01 1.287914e+01 1.147845e+01 4.406849e+01 9.936696e+00 1.740710e+01 2.696155e+00 1.416848e+01 4.689194e+00 1.292704e-02 3.125121e+00 1.160676e+00 6.031477e-01 4.122225e+00 1.739996e+00 3.874578e+00 1.200806e+00 1.079743e+00 1.077898e+00 1.154180e+00 9.242523e-01 6.328855e-01 1.000000e-02 3.269078e-01 1.499089e-01 2.215895e-01 3.416052e-01 2.550326e-01 2.206903e-01 2.653578e-01 8.798293e-01 1.170125e-01 1.450539e-01 2.209933e-01 6.517538e-02 1.000000e-02
<GCONST> 7.252087e+01
<STATE> 23
<MEAN> 39
 -1.225912e+00 -2.916572e+01 -1.440360e+01 -5.118455e+00 4.027980e+00 3.265171e+00 -3.346559e+00 -3.296129e+00 -4.180740e-01 -9.628504e+00 -6.168488e+00 -2.717435e+00 6.092730e-01 5.417861e-01 7.271124e-01 -2.822055e-01 1.213401e+00 -7.428793e-01 -3.384502e-01 3.186393e-02 -1.716128e+00 2.064243e-01 -3.420692e-01 -1.323451e-01 2.196827e-03 -3.439718e-02 -1.623926e-01 4.151371e-01 1.888911e-01 1.217579e-02 4.804682e-01 -2.430960e-01 1.269232e-01 4.212005e-02 -3.136368e-02 2.297746e-01 2.871307e-01 3.423868e-01 9.605153e-04
<VARIANCE> 39
 1.602448e+01 3.493904e+00 7.302051e+00 1.198020e+01 7.581820e+00 1.660987e+01 2.063094e+01 1.817935e+01 1.295558e+01 1.878776e+01 1.972137e+01 2.688499e+00 1.431280e-02 2.183670e+00 1.058039e+00 8.479388e-01 1.067372e+00 4.596902e-01 1.132665e+00 1.305957e+00 4.693195e+00 6.200531e-01 1.131577e+00 7.365943e-01 5.353619e-01 1.000000e-02 5.004751e-01 9.093651e-02 6.508010e-02 4.212990e-01 1.930613e-01 3.293848e-01 2.245319e-01 3.157475e-01 2.898223e-01 2.242875e-01 1.946067e-01 1.028722e-01 1.000000e-02
<GCONST> 6.882578e+01
<STATE> 24
<MEAN> 39
 -1.489276e+00 -2.687708e+01 -1.357137e+01 -5.072089e+00 3.301172e+00 -9.294438e-01 -3.518825e+00 -4.563026e+00 1.291300e-01 -1.092539e+01 -6.638144e+00 4.743993e-01 5.768698e-01 9.422162e-01 8.392834e-01 1.937390e-01 1.211195e+00 6.597300e-02 -3.925090e-01 4.300869e-01 -8.434055e-01 5.277351e-01 8.362176e-01 4.488857e-01 7.409201e-01 -4.835690e-02 1.885457e-01 -4.690331e-02 -1.716592e-01 1.794716e-01 5.220359e-01 1.978186e-01 3.312410e-01 4.371000e-01 -3.576533e-02 2.903267e-01 2.373580e-01 -1.508971e-01 -2.382528e-04
<VARIANCE> 39
 2.017937e+01 5.803674e+00 5.291048e+00 1.375754e+01 1.806423e+01 4.681712e+01 1.323692e+01 4.499080e+01 1.751680e+01 1.558871e+01 6.098063e+00 9.200401e+00 1.001642e-02 1.157938e+00 5.357969e-01 3.617593e-01 1.068300e+00 1.061689e+00 1.136849e+00 1.470702e+00 1.217364e+00 1.653750e+00 7.767798e-01 6.944612e-01 3.107677e-01 1.000000e-02 7.152469e-01 2.389403e-01 1.056022e-01 4.522362e-01 1.775526e-01 5.311996e-01 1.355304e-01 1.100309e+00 2.747584e-01 3.664129e-01 2.736167e-02 1.561469e-01 1.000000e-02
<GCONST> 7.091647e+01
<STATE> 25
<MEAN> 39
 1.681159e+00 -2.635781e+01 -1.461473e+01 -2.519726e-01 5.270208e+00 9.709034e-01 -1.666866e-01 -5.494285e+00 1.044312e+00 -6.674127e+00 -4.283588e+00 -6.634554e-01 4.550689e-01 7.007427e-01 4.734664e-01 -9.221725e-01 1.261375e+00 1.080074e+00 -1.629325e-01 1.013010e+00 8.498675e-02 1.437737e-01 7.285640e-01 7.773987e-01 -2.995159e-01 -3.279479e-02 -1.690293e-01 -1.078248e-01 -2.661882e-01 -3.301714e-01 -1.887960e-02 -1.794687e-01 -1.548384e-01 3.230318e-01 -3.505953e-02 -1.722066e-01 -1.014795e-01 -7.640470e-02 8.227087e-03
<VARIANCE> 39
 2.612408e+00 7.006065e+00 7.862577e+00 9.475162e+00 1.355633e+01 1.050426e+01 5.849632e+00 1.043970e+01 1.331399e+01 1.301577e+01 4.149414e+00 5.976746e+00 1.000000e-02 2.434714e+00 4.498506e-01 2.673688e-01 1.951679e+00 9.333290e-01 2.592867e+00 9.166801e-01 2.826817e+00 2.482652e+00 1.898308e+00 4.556350e-01 7.245489e-01 1.000000e-02 1.381259e-01 7.183848e-02 6.674134e-02 1.453438e-01 2.001774e-01 2.926282e-01 1.437964e-01 2.084447e-01 3.181972e-01 2.378786e-01 6.310747e-02 1.305665e-01 1.000000e-02
<GCONST> 6.126127e+01
<STATE> 26
<MEAN> 39
 2.437189e+00 -2.514882e+01 -1.758107e+01 8.107489e-02 7.018575e+00 -2.106083e+00 4.879623e-01 -3.976369e+00 1.079028e+00 -7.003294e+00 -3.673144e+00 -4.166836e-01 4.242903e-01 1.235149e-01 1.897119e-01 -6.302933e-01 -1.997921e-01 -8.101171e-02 -6.373604e-01 8.380244e-02 6.144267e-01 2.159882e-01 2.736021e-01 6.173591e-02 2.981047e-01 -1.163664e-02 -3.140976e-01 -1.030741e-01 3.008811e-01 -3.554588e-01 -2.914568e-01 1.341316e-01 -1.131548e-01 7.267417e-02 2.817613e-02 -4.821704e-03 -1.841033e-01 1.263262e-02 2.845790e-03
<VARIANCE> 39
 4.632795e+00 6.182547e+00 6.689238e+00 6.624311e+00 5.014337e+00 1.287400e+01 5.901343e+00 1.100764e+01 1.102297e+01 6.080877e+00 4.142916e+00 1.149719e+01 1.000000e-02 2.644105e-01 2.429165e-01 8.681303e-01 2.244476e-01 5.874706e-01 1.502729e+00 1.385513e+00 8.523183e-01 1.026551e+00 9.301791e-01 2.846461e-01 8.527206e-01 1.000000e-02 2.166323e-01 6.209044e-02 5.614490e-02 2.315194e-01 4.522232e-02 3.493190e-01 2.399838e-01 5.308557e-01 5.646018e-01 3.232190e-01 8.820289e-02 1.816856e-01 1.000000e-02
<GCONST> 5.492188e+01
<STATE> 27
<MEAN> 39
 2.076589e+00 -2.494019e+01 -1.749153e+01 -5.199379e-01 6.224229e+00 -8.301947e-01 7.699508e-01 -3.413954e+00 5.337613e-01 -5.984436e+00 -3.459790e+00 7.035639e-02 4.007545e-01 -5.171577e-01 1.807722e-01 6.196850e-02 -1.316824e-01 5.794284e-02 2.493066e-01 2.034406e-01 2.720157e-01 4.895822e-01 6.276671e-01 1.294493e-02 -4.090812e-01 -2.060749e-02 -9.945212e-02 6.657969e-02 1.700461e-01 6.072026e-02 9.754283e-02 1.148960e-01 5.663396e-02 -5.226488e-02 4.496263e-02 -6.558871e-02 6.512546e-02 -1.602364e-01 -3.520329e-04
<VARIANCE> 39
 3.879237e+00 2.945712e+00 8.189595e+00 3.420353e+00 3.204737e+00 1.480350e+01 2.114940e+01 8.162905e+00 1.975525e+01 2.193993e+00 1.004821e+01 4.708905e+00 1.000000e-02 2.330901e-01 2.516353e-01 4.693673e-01 5.322097e-01 4.528606e-01 1.036425e+00 6.489236e-01 1.984838e+00 2.041614e+00 8.976587e-01 5.918078e-01 1.327932e+00 1.000000e-02 1.152400e-01 1.345210e-01 3.477591e-01 6.394222e-02 7.318944e-02 2.046783e-01 4.364529e-01 2.829655e-01 8.230063e-02 9.603488e-02 1.253991e-01 2.189179e-01 1.000000e-02
<GCONST> 5.320428e+01
<STATE> 28
<MEAN> 39
 9.411002e-01 -2.436279e+01 -1.745889e+01 -7.522972e-01 6.181817e+00 -1.897418e+00 7.996671e-01 -2.840344e+00 3.465667e+00 -4.264641e+00 -4.000138e+00 -1.776703e+00 3.536972e-01 -2.071221e-01 4.641732e-01 4.560079e-02 1.435184e-01 2.472389e-01 -1.976460e-01 3.303823e-01 5.278205e-01 1.628572e-01 -5.997351e-02 2.980773e-01 -1.395202e-01 -1.211164e-02 1.105191e-01 7.957734e-02 1.476307e-01 2.504628e-01 6.427217e-02 -1.695018e-01 -1.414002e-01 -1.723340e-01 -4.927638e-01 -4.238442e-01 2.249133e-01 2.833993e-01 2.713155e-03
<VARIANCE> 39
 2.033694e+00 2.454071e+00 6.259514e+00 1.967611e+00 3.358518e+00 2.074627e+01 7.818137e+00 1.942893e+01 1.390895e+01 6.025439e+00 6.050950e+00 1.182150e+01 1.000000e-02 7.280418e-01 1.020723e+00 2.118428e+00 3.841542e-01 3.967829e-01 1.032768e+00 1.858539e+00 9.208245e-01 6.876509e-01 6.031122e-01 9.681317e-01 1.178404e+00 1.000000e-02 7.987926e-02 2.979418e-02 1.818478e-01 1.742006e-01 1.191160e-01 3.110995e-01 2.944433e-01 4.438466e-01 3.684672e-01 2.976415e-01 1.578462e-01 1.480084e-01 1.000000e-02
<GCONST> 5.754990e+01
<STATE> 29
<MEAN> 39
 9.597196e-01 -2.301237e+01 -1.634538e+01 1.039141e-01 7.300402e+00 -1.935850e+00 2.377342e+00 -1.898136e+00 1.543901e+00 -6.060317e+00 -2.065417e+00 -6.938351e-01 3.484257e-01 -9.967153e-02 5.514807e-01 6.534435e-01 5.004209e-01 1.869376e-02 -4.794936e-01 -3.948156e-01 -7.400256e-01 -1.262375e+00 -9.006535e-01 6.619198e-01 5.856604e-01 -1.083855e-02 6.959552e-02 3.558859e-02 2.534303e-02 -1.276568e-01 -8.894145e-02 -8.240011e-05 -2.332830e-01 -2.106158e-01 -2.915975e-01 -2.579264e-02 -1.702387e-02 6.577141e-02 -5.293097e-04
<VARIANCE> 39
 4.120832e+00 1.141753e+01 1.626891e+01 8.688602e+00 3.949315e+00 1.006817e+01 4.009738e+00 8.425508e+00 2.536329e+01 9.404613e+00 4.730176e+00 1.108897e+01 1.000000e-02 6.870162e-01 3.429195e-01 1.521864e+00 1.604620e+00 8.115647e-01 2.103052e+00 1.700736e+00 2.115493e+00 1.769285e+00 1.381195e+00 2.813352e-01 4.657724e-01 1.000000e-02 1.868776e-01 2.538432e-01 4.454707e-01 1.994056e-01 3.417055e-02 1.258180e-01 2.291602e-01 2.717088e-01 3.045619e-01 1.800305e-01 1.310974e-01 1.761374e-01 1.000000e-02
<GCONST> 6.305800e+01
<STATE> 30
<MEAN> 39
 5.674483e-01 -2.249743e+01 -1.587446e+01 8.497359e-01 6.990076e+00 -3.042917e+00 -2.678685e-01 -4.587864e+00 -1.253997e+00 -7.670890e+00 -1.324646e+00 4.849810e-01 3.173608e-01 6.749445e-02 6.438464e-01 2.770026e-01 -3.324060e-01 -1.273842e-01 -3.280883e-01 -5.643432e-01 -8.328839e-02 -7.029256e-01 -1.440471e-01 4.430737e-01 -1.469864e-01 -1.394226e-02 5.266056e-02 3.876067e-02 -1.738894e-02 -2.685779e-01 -9.512367e-02 1.326699e-01 1.750478e-01 3.453551e-01 5.320363e-01 2.441939e-01 -2.565591e-01 -3.483844e-01 -1.590159e-03
<VARIANCE> 39
 3.260864e+00 6.122598e+00 1.439515e+01 1.418390e+01 5.423041e+00 7.412435e+00 1.200338e+01 1.809991e+01 2.523403e+00 4.489354e+00 1.845576e+00 6.948766e+00 1.000000e-02 6.456441e-01 1.091443e+00 1.114514e+00 1.051862e+00 1.292946e-01 6.045354e-01 7.703795e-01 1.487169e+00 1.928650e+00 7.659765e-01 7.816480e-01 5.132543e-01 1.000000e-02 2.021002e-01 2.075186e-01 5.051173e-01 4.969687e-01 1.373596e-01 4.013242e-01 4.844421e-01 4.035319e-01 3.768193e-01 3.562799e-01 4.932890e-02 1.559275e-01 1.000000e-02
<GCONST> 6.114140e+01
<STATE> 31
<MEAN> 39
 1.308068e+00 -2.081036e+01 -1.539137e+01 -1.367663e+00 6.304183e+00 -3.032218e+00 1.424458e-01 -2.126466e+00 -1.064632e+00 -7.086707e+00 -8.378354e-01 -6.180736e-01 2.927031e-01 -1.638132e-02 5.004671e-01 3.546420e-01 -4.864840e-01 -1.972820e-01 2.202399e-01 2.407309e-01 5.239790e-01 5.754365e-01 1.443650e-01 -3.311495e-01 -6.139445e-01 -1.704562e-02 -1.427899e-01 1.338184e-01 2.237983e-01 1.589303e-01 -1.124925e-02 7.643867e-02 -9.879597e-03 -8.915959e-02 3.211776e-01 2.101417e-01 -8.600803e-02 -6.190119e-02 -5.896155e-03
<VARIANCE> 39
 3.284850e+00 8.686909e+00 9.100397e+00 4.581670e+00 7.938008e+00 4.481320e+00 9.412946e+00 9.994205e+00 7.170703e+00 6.615095e+00 8.907968e+00 7.713412e+00 1.000000e-02 6.721759e-01 9.696165e-01 2.455871e+00 1.950441e+00 4.677967e-01 9.402739e-01 1.244179e+00 1.191026e+00 1.470024e+00 1.136074e+00 2.297604e-01 7.839155e-01 1.000000e-02 1.260536e-01 1.552816e-01 2.692240e-01 3.005694e-01 2.267591e-02 1.268117e-01 1.856582e-01 3.051486e-01 2.973236e-01 1.563848e-01 8.068360e-02 1.166477e-01 1.000000e-02
<GCONST> 5.775291e+01
<STATE> 32
<MEAN> 39
 1.211716e+00 -1.940285e+01 -1.333819e+01 9.833969e-02 6.934383e+00 -2.931115e+00 -8.245119e-01 -3.954387e+00 -6.328018e-01 -7.985003e+00 -2.285709e+00 -2.131763e+00 2.476604e-01 -4.694114e-01 8.490385e-01 8.093551e-01 6.055911e-02 -7.247204e-02 3.722127e-01 7.918709e-02 -1.249306e-01 8.916598e-01 6.808277e-01 2.790107e-01 1.649018e-01 -2.988837e-02 -3.010008e-01 -1.255368e-01 -2.578974e-01 -6.092314e-02 4.583295e-02 9.377234e-02 2.598175e-01 1.126041e-01 2.099232e-01 3.717844e-01 3.128654e-01 3.832183e-01 -4.526497e-03
<VARIANCE> 39
 3.086607e+00 5.374338e+00 7.074255e+00 4.190121e+00 6.326760e+00 5.839789e+00 1.318744e+01 1.411897e+01 1.480805e+01 2.422053e+00 3.718259e+00 8.251847e+00 1.000000e-02 6.013998e-01 4.852342e-01 3.381229e-01 9.069165e-01 2.325376e-01 5.015821e-01 1.923696e+00 1.693405e+00 1.084940e+00 9.440077e-01 3.468303e-01 6.874681e-01 1.000000e-02 1.448827e-01 1.985156e-01 3.832034e-01 1.834942e-01 8.763941e-02 9.243332e-02 1.354364e-01 2.422988e-01 1.603980e-01 1.556359e-01 2.461806e-02 1.221139e-01 1.000000e-02
<GCONST> 5.117469e+01
<STATE> 33
<MEAN> 39
 -5.669936e-01 -1.761606e+01 -1.263111e+01 -2.232607e+00 5.412474e+00 -1.683018e+00 7.168710e-01 -1.786205e+00 3.570595e+00 -3.704551e+00 -6.555503e-01 -1.380391e+00 1.656298e-01 -9.529694e-01 7.125010e-01 3.827517e-01 -2.299703e-01 -1.375640e-01 9.660223e-02 6.573515e-01 2.914569e-01 9.913698e-01 1.091898e+00 6.494126e-01 6.766047e-01 -3.991082e-02 -4.412249e-03 -3.047358e-02 1.229298e-01 1.469815e-01 2.607673e-02 -2.587951e-01 -1.421412e-01 -1.840031e-01 -4.504469e-01 -5.394722e-01 -9.424258e-02 2.159379e-01 2.619454e-03
<VARIANCE> 39
 1.361850e+00 3.674226e+00 4.225298e+00 1.251593e+01 8.632809e+00 4.729844e+00 1.358211e+01 3.311637e+00 1.244138e+01 1.450206e+01 6.831974e+00 8.396835e+00 1.000000e-02 4.268149e-01 1.034811e+00 1.927077e+00 4.952645e-01 8.813567e-01 4.685456e-01 5.544456e-01 5.087938e-01 4.741351e-01 7.636799e-01 8.223280e-01 8.908609e-01 1.000000e-02 4.950598e-02 8.739996e-02 1.655005e-01 3.534464e-01 1.202579e-01 3.498663e-02 3.231756e-01 1.179781e-01 2.774736e-01 5.197606e-01 2.424624e-01 2.281556e-01 1.000000e-02
<GCONST> 5.400912e+01
<STATE> 34
<MEAN> 39
 -3.300365e+00 -1.713164e+01 -1.230824e+01 -1.497051e+00 6.032850e+00 -1.290610e+00 3.535810e+00 -1.280533e+00 4.236319e+00 -3.686998e+00 3.828698e-01 5.908232e-01 9.961561e-02 -5.745718e-01 6.501310e-01 8.534546e-01 3.780426e-01 1.299707e-01 -5.078720e-01 -5.806347e-01 -5.494478e-01 -7.119456e-01 -9.555987e-01 -2.797166e-01 4.744567e-01 -2.348506e-02 1.563006e-01 2.065769e-01 3.143586e-01 -5.948965e-02 -2.232002e-02 -2.137534e-02 -3.188765e-01 -1.661657e-01 -6.192462e-01 -5.260808e-01 -2.806802e-01 -4.119321e-01 2.602588e-03
<VARIANCE> 39
 1.306979e+00 7.940450e+00 6.192843e+00 6.813791e+00 5.976287e+00 1.084002e+01 4.394593e+00 3.071176e+00 7.821803e+00 7.368879e+00 8.529911e+00 5.927309e+00 1.000000e-02 8.151016e-01 6.835406e-01 1.367812e+00 1.417820e+00 9.120352e-01 2.494277e-01 1.699580e+00 8.534338e-01 2.543763e+00 3.998094e+00 2.084605e+00 1.407589e+00 1.000000e-02 6.103769e-02 1.793765e-01 3.251351e-01 1.125034e-01 7.503623e-02 2.003686e-01 1.963337e-01 1.321502e-01 1.182787e-01 1.590459e-01 1.642879e-01 1.249112e-01 1.000000e-02
<GCONST> 5.752759e+01
<STATE> 35
<MEAN> 39
 -2.084468e+00 -1.484177e+01 -9.208916e+00 2.978537e-01 6.062438e+00 -3.638905e+00 -1.035321e+00 -3.730825e+00 4.853531e-01 -6.974950e+00 -1.146675e+00 3.349243e-01 1.009296e-01 -5.908506e-01 1.234487e+00 1.573252e+00 -1.165405e-01 -3.034380e-02 1.269098e-01 -2.446292e-01 2.044562e-02 -8.276716e-01 -5.168963e-01 -3.175452e-03 -7.443746e-01 -3.154163e-02 -1.099388e-01 -9.863377e-03 -1.105445e-03 -1.571878e-01 6.251145e-02 2.683592e-01 3.905340e-02 9.139191e-02 1.145032e-01 4.312100e-01 1.758689e-01 -2.909935e-01 -5.960128e-03
<VARIANCE> 39
 3.956717e+00 1.177250e+01 1.559722e+01 6.399062e+00 1.139750e+01 7.667843e+00 1.462876e+01 1.602481e+01 9.255441e+00 2.359318e+01 1.895724e+01 1.026077e+01 1.000000e-02 5.245625e-01 6.166759e-01 1.106511e+00 5.367104e-01 5.526497e-01 1.435968e+00 7.727484e-01 1.185272e+00 1.305536e+00 1.496988e+00 1.818878e+00 6.672181e-01 1.000000e-02 1.375303e-01 1.842608e-01 3.410239e-01 2.863131e-01 1.403559e-01 2.310336e-02 1.986136e-01 1.646266e-01 4.619145e-01 9.149073e-01 4.403934e-01 2.538322e-01 1.000000e-02
<GCONST> 6.757921e+01
<STATE> 36
<MEAN> 39
 -5.681670e+00 -1.244401e+01 -6.128337e+00 -2.769659e+00 5.535234e+00 -2.333099e+00 -1.095896e-02 -3.353099e+00 -2.727311e-01 -6.274659e+00 -3.702623e-01 -1.353150e+00 -3.451923e-02 -8.621389e-01 7.096168e-01 6.401221e-01 -6.445033e-01 1.433007e-01 4.348546e-01 -2.908845e-01 -4.421085e-02 -2.685150e-01 8.675690e-01 4.873193e-01 -4.135805e-01 -4.189565e-02 2.420677e-01 -2.748770e-01 -4.483328e-01 9.816824e-02 2.283307e-02 -4.163805e-02 2.424714e-01 9.637643e-02 1.742947e-01 2.044195e-01 1.633177e-01 4.011523e-01 7.894550e-03
<VARIANCE> 39
 2.880392e+00 2.831014e+00 8.294431e+00 1.283601e+01 1.195650e+01 2.825134e+00 3.796827e+00 7.167378e+00 2.435589e+01 8.722113e+00 8.350902e+00 7.092581e+00 1.000000e-02 2.144848e-01 8.832827e-01 1.119517e+00 4.977278e-01 3.496236e-01 4.932097e-01 7.678775e-01 9.748391e-01 1.597106e+00 1.962054e+00 1.220527e+00 9.075091e-01 1.000000e-02 8.918930e-02 1.551270e-01 2.473935e-01 1.229380e-01 8.056884e-02 7.749963e-02 8.880422e-02 1.834403e-01 3.400275e-01 2.294978e-01 2.945642e-01 1.068634e-01 1.000000e-02
<GCONST> 5.486465e+01
<TRANSP> 37
 0.000000e+00 1.000000e+00 0.000000e+00 0.000000e+00 0.000000e+00 0.000000e+00 0.000000e+00 0.000000e+00 0.000000e+00 0.000000e+00 0.000000e+00 0.000000e+00 0.000000e+00 0.000000e+00 0.000000e+00 0.000000e+00 0.000000e+00 0.000000e+00 0.000000e+00 0.000000e+00 0.000000e+00 0.000000e+00 0.000000e+00 0.000000e+00 0.000000e+00 0.000000e+00 0.000000e+00 0.000000e+00 0.000000e+00 0.000000e+00 0.000000e+00 0.000000e+00 0.000000e+00 0.000000e+00 0.000000e+00 0.000000e+00 0.000000e+00
 0.000000e+00 5.833333e-01 4.166667e-01 0.000000e+00 0.000000e+00 0.000000e+00 0.000000e+00 0.000000e+00 0.000000e+00 0.000000e+00 0.000000e+00 0.000000e+00 0.000000e+00 0.000000e+00 0.000000e+00 0.000000e+00 0.000000e+00 0.000000e+00 0.000000e+00 0.000000e+00 0.000000e+00 0.000000e+00 0.000000e+00 0.000000e+00 0.000000e+00 0.000000e+00 0.000000e+00 0.000000e+00 0.000000e+00 0.000000e+00 0.000000e+00 0.000000e+00 0.000000e+00 0.000000e+00 0.000000e+00 0.000000e+00 0.000000e+00
 0.000000e+00 0.000000e+00 5.000000e-01 5.000000e-01 0.000000e+00 0.000000e+00 0.000000e+00 0.000000e+00 0.000000e+00 0.000000e+00 0.000000e+00 0.000000e+00 0.000000e+00 0.000000e+00 0.000000e+00 0.000000e+00 0.000000e+00 0.000000e+00 0.000000e+00 0.000000e+00 0.000000e+00 0.000000e+00 0.000000e+00 0.000000e+00 0.000000e+00 0.000000e+00 0.000000e+00 0.000000e+00 0.000000e+00 0.000000e+00 0.000000e+00 0.000000e+00 0.000000e+00 0.000000e+00 0.000000e+00 0.000000e+00 0.000000e+00
 0.000000e+00 0.000000e+00 0.000000e+00 5.000000e-01 5.000000e-01 0.000000e+00 0.000000e+00 0.000000e+00 0.000000e+00 0.000000e+00 0.000000e+00 0.000000e+00 0.000000e+00 0.000000e+00 0.000000e+00 0.000000e+00 0.000000e+00 0.000000e+00 0.000000e+00 0.000000e+00 0.000000e+00 0.000000e+00 0.000000e+00 0.000000e+00 0.000000e+00 0.000000e+00 0.000000e+00 0.000000e+00 0.000000e+00 0.000000e+00 0.000000e+00 0.000000e+00 0.000000e+00 0.000000e+00 0.000000e+00 0.000000e+00 0.000000e+00
 0.000000e+00 0.000000e+00 0.000000e+00 0.000000e+00 5.454546e-01 4.545455e-01 0.000000e+00 0.000000e+00 0.000000e+00 0.000000e+00 0.000000e+00 0.000000e+00 0.000000e+00 0.000000e+00 0.000000e+00 0.000000e+00 0.000000e+00 0.000000e+00 0.000000e+00 0.000000e+00 0.000000e+00 0.000000e+00 0.000000e+00 0.000000e+00 0.000000e+00 0.000000e+00 0.000000e+00 0.000000e+00 0.000000e+00 0.000000e+00 0.000000e+00 0.000000e+00 0.000000e+00 0.000000e+00 0.000000e+00 0.000000e+00 0.000000e+00
 0.000000e+00 0.000000e+00 0.000000e+00 0.000000e+00 0.000000e+00 4.444444e-01 5.555556e-01 0.000000e+00 0.000000e+00 0.000000e+00 0.000000e+00 0.000000e+00 0.000000e+00 0.000000e+00 0.000000e+00 0.000000e+00 0.000000e+00 0.000000e+00 0.000000e+00 0.000000e+00 0.000000e+00 0.000000e+00 0.000000e+00 0.000000e+00 0.000000e+00 0.000000e+00 0.000000e+00 0.000000e+00 0.000000e+00 0.000000e+00 0.000000e+00 0.000000e+00 0.000000e+00 0.000000e+00 0.000000e+00 0.000000e+00 0.000000e+00
 0.000000e+00 0.000000e+00 0.000000e+00 0.000000e+00 0.000000e+00 0.000000e+00 4.444444e-01 5.555556e-01 0.000000e+00 0.000000e+00 0.000000e+00 0.000000e+00 0.000000e+00 0.000000e+00 0.000000e+00 0.000000e+00 0.000000e+00 0.000000e+00 0.000000e+00 0.000000e+00 0.000000e+00 0.000000e+00 0.000000e+00 0.000000e+00 0.000000e+00 0.000000e+00 0.000000e+00 0.000000e+00 0.000000e+00 0.000000e+00 0.000000e+00 0.000000e+00 0.000000e+00 0.000000e+00 0.000000e+00 0.000000e+00 0.000000e+00
 0.000000e+00 0.000000e+00 0.000000e+00 0.000000e+00 0.000000e+00 0.000000e+00 0.000000e+00 3.750000e-01 6.250000e-01 0.000000e+00 0.000000e+00 0.000000e+00 0.000000e+00 0.000000e+00 0.000000e+00 0.000000e+00 0.000000e+00 0.000000e+00 0.000000e+00 0.000000e+00 0.000000e+00 0.000000e+00 0.000000e+00 0.000000e+00 0.000000e+00 0.000000e+00 0.000000e+00 0.000000e+00 0.000000e+00 0.000000e+00 0.000000e+00 0.000000e+00 0.000000e+00 0.000000e+00 0.000000e+00 0.000000e+00 0.000000e+00
 0.000000e+00 0.000000e+00 0.000000e+00 0.000000e+00 0.000000e+00 0.000000e+00 0.000000e+00 0.000000e+00 5.454546e-01 4.545455e-01 0.000000e+00 0.000000e+00 0.000000e+00 0.000000e+00 0.000000e+00 0.000000e+00 0.000000e+00 0.000000e+00 0.000000e+00 0.000000e+00 0.000000e+00 0.000000e+00 0.000000e+00 0.000000e+00 0.000000e+00 0.000000e+00 0.000000e+00 0.000000e+00 0.000000e+00 0.000000e+00 0.000000e+00 0.000000e+00 0.000000e+00 0.000000e+00 0.000000e+00 0.000000e+00 0.000000e+00
 0.000000e+00 0.000000e+00 0.000000e+00 0.000000e+00 0.000000e+00 0.000000e+00 0.000000e+00 0.000000e+00 0.000000e+00 4.444444e-01 5.555556e-01 0.000000e+00 0.000000e+00 0.000000e+00 0.000000e+00 0.000000e+00 0.000000e+00 0.000000e+00 0.000000e+00 0.000000e+00 0.000000e+00 0.000000e+00 0.000000e+00 0.000000e+00 0.000000e+00 0.000000e+00 0.000000e+00 0.000000e+00 0.000000e+00 0.000000e+00 0.000000e+00 0.000000e+00 0.000000e+00 0.000000e+00 0.000000e+00 0.000000e+00 0.000000e+00
 0.000000e+00 0.000000e+00 0.000000e+00 0.000000e+00 0.000000e+00 0.000000e+00 0.000000e+00 0.000000e+00 0.000000e+00 0.000000e+00 5.000000e-01 5.000000e-01 0.000000e+00 0.000000e+00 0.000000e+00 0.000000e+00 0.000000e+00 0.000000e+00 0.000000e+00 0.000000e+00 0.000000e+00 0.000000e+00 0.000000e+00 0.000000e+00 0.000000e+00 0.000000e+00 0.000000e+00 0.000000e+00 0.000000e+00 0.000000e+00 0.000000e+00 0.000000e+00 0.000000e+00 0.000000e+00 0.000000e+00 0.000000e+00 0.000000e+00
 0.000000e+00 0.000000e+00 0.000000e+00 0.000000e+00 0.000000e+00 0.000000e+00 0.000000e+00 0.000000e+00 0.000000e+00 0.000000e+00 0.000000e+00 5.454546e-01 4.545455e-01 0.000000e+00 0.000000e+00 0.000000e+00 0.000000e+00 0.000000e+00 0.000000e+00 0.000000e+00 0.000000e+00 0.000000e+00 0.000000e+00 0.000000e+00 0.000000e+00 0.000000e+00 0.000000e+00 0.000000e+00 0.000000e+00 0.000000e+00 0.000000e+00 0.000000e+00 0.000000e+00 0.000000e+00 0.000000e+00 0.000000e+00 0.000000e+00
 0.000000e+00 0.000000e+00 0.000000e+00 0.000000e+00 0.000000e+00 0.000000e+00 0.000000e+00 0.000000e+00 0.000000e+00 0.000000e+00 0.000000e+00 0.000000e+00 5.454546e-01 4.545455e-01 0.000000e+00 0.000000e+00 0.000000e+00 0.000000e+00 0.000000e+00 0.000000e+00 0.000000e+00 0.000000e+00 0.000000e+00 0.000000e+00 0.000000e+00 0.000000e+00 0.000000e+00 0.000000e+00 0.000000e+00 0.000000e+00 0.000000e+00 0.000000e+00 0.000000e+00 0.000000e+00 0.000000e+00 0.000000e+00 0.000000e+00
 0.000000e+00 0.000000e+00 0.000000e+00 0.000000e+00 0.000000e+00 0.000000e+00 0.000000e+00 0.000000e+00 0.000000e+00 0.000000e+00 0.000000e+00 0.000000e+00 0.000000e+00 5.000000e-01 5.000000e-01 0.000000e+00 0.000000e+00 0.000000e+00 0.000000e+00 0.000000e+00 0.000000e+00 0.000000e+00 0.000000e+00 0.000000e+00 0.000000e+00 0.000000e+00 0.000000e+00 0.000000e+00 0.000000e+00 0.000000e+00 0.000000e+00 0.000000e+00 0.000000e+00 0.000000e+00 0.000000e+00 0.000000e+00 0.000000e+00
 0.000000e+00 0.000000e+00 0.000000e+00 0.000000e+00 0.000000e+00 0.000000e+00 0.000000e+00 0.000000e+00 0.000000e+00 0.000000e+00 0.000000e+00 0.000000e+00 0.000000e+00 0.000000e+00 3.750000e-01 6.250000e-01 0.000000e+00 0.000000e+00 0.000000e+00 0.000000e+00 0.000000e+00 0.000000e+00 0.000000e+00 0.000000e+00 0.000000e+00 0.000000e+00 0.000000e+00 0.000000e+00 0.000000e+00 0.000000e+00 0.000000e+00 0.000000e+00 0.000000e+00 0.000000e+00 0.000000e+00 0.000000e+00 0.000000e+00
 0.000000e+00 0.000000e+00 0.000000e+00 0.000000e+00 0.000000e+00 0.000000e+00 0.000000e+00 0.000000e+00 0.000000e+00 0.000000e+00 0.000000e+00 0.000000e+00 0.000000e+00 0.000000e+00 0.000000e+00 5.833333e-01 4.166667e-01 0.000000e+00 0.000000e+00 0.000000e+00 0.000000e+00 0.000000e+00 0.000000e+00 0.000000e+00 0.000000e+00 0.000000e+00 0.000000e+00 0.000000e+00 0.000000e+00 0.000000e+00 0.000000e+00 0.000000e+00 0.000000e+00 0.000000e+00 0.000000e+00 0.000000e+00 0.000000e+00
 0.000000e+00 0.000000e+00 0.000000e+00 0.000000e+00 0.000000e+00 0.000000e+00 0.000000e+00 0.000000e+00 0.000000e+00 0.000000e+00 0.000000e+00 0.000000e+00 0.000000e+00 0.000000e+00 0.000000e+00 0.000000e+00 5.000000e-01 5.000000e-01 0.000000e+00 0.000000e+00 0.000000e+00 0.000000e+00 0.000000e+00 0.000000e+00 0.000000e+00 0.000000e+00 0.000000e+00 0.000000e+00 0.000000e+00 0.000000e+00 0.000000e+00 0.000000e+00 0.000000e+00 0.000000e+00 0.000000e+00 0.000000e+00 0.000000e+00
 0.000000e+00 0.000000e+00 0.000000e+00 0.000000e+00 0.000000e+00 0.000000e+00 0.000000e+00 0.000000e+00 0.000000e+00 0.000000e+00 0.000000e+00 0.000000e+00 0.000000e+00 0.000000e+00 0.000000e+00 0.000000e+00 0.000000e+00 3.750000e-01 6.250000e-01 0.000000e+00 0.000000e+00 0.000000e+00 0.000000e+00 0.000000e+00 0.000000e+00 0.000000e+00 0.000000e+00 0.000000e+00 0.000000e+00 0.000000e+00 0.000000e+00 0.000000e+00 0.000000e+00 0.000000e+00 0.000000e+00 0.000000e+00 0.000000e+00
 0.000000e+00 0.000000e+00 0.000000e+00 0.000000e+00 0.000000e+00 0.000000e+00 0.000000e+00 0.000000e+00 0.000000e+00 0.000000e+00 0.000000e+00 0.000000e+00 0.000000e+00 0.000000e+00 0.000000e+00 0.000000e+00 0.000000e+00 0.000000e+00 6.428571e-01 3.571429e-01 0.000000e+00 0.000000e+00 0.000000e+00 0.000000e+00 0.000000e+00 0.000000e+00 0.000000e+00 0.000000e+00 0.000000e+00 0.000000e+00 0.000000e+00 0.000000e+00 0.000000e+00 0.000000e+00 0.000000e+00 0.000000e+00 0.000000e+00
 0.000000e+00 0.000000e+00 0.000000e+00 0.000000e+00 0.000000e+00 0.000000e+00 0.000000e+00 0.000000e+00 0.000000e+00 0.000000e+00 0.000000e+00 0.000000e+00 0.000000e+00 0.000000e+00 0.000000e+00 0.000000e+00 0.000000e+00 0.000000e+00 0.000000e+00 4.444444e-01 5.555556e-01 0.000000e+00 0.000000e+00 0.000000e+00 0.000000e+00 0.000000e+00 0.000000e+00 0.000000e+00 0.000000e+00 0.000000e+00 0.000000e+00 0.000000e+00 0.000000e+00 0.000000e+00 0.000000e+00 0.000000e+00 0.000000e+00
 0.000000e+00 0.000000e+00 0.000000e+00 0.000000e+00 0.000000e+00 0.000000e+00 0.000000e+00 0.000000e+00 0.000000e+00 0.000000e+00 0.000000e+00 0.000000e+00 0.000000e+00 0.000000e+00 0.000000e+00 0.000000e+00 0.000000e+00 0.000000e+00 0.000000e+00 0.000000e+00 5.000000e-01 5.000000e-01 0.000000e+00 0.000000e+00 0.000000e+00 0.000000e+00 0.000000e+00 0.000000e+00 0.000000e+00 0.000000e+00 0.000000e+00 0.000000e+00 0.000000e+00 0.000000e+00 0.000000e+00 0.000000e+00 0.000000e+00
 0.000000e+00 0.000000e+00 0.000000e+00 0.000000e+00 0.000000e+00 0.000000e+00 0.000000e+00 0.000000e+00 0.000000e+00 0.000000e+00 0.000000e+00 0.000000e+00 0.000000e+00 0.000000e+00 0.000000e+00 0.000000e+00 0.000000e+00 0.000000e+00 0.000000e+00 0.000000e+00 0.000000e+00 3.750000e-01 6.250000e-01 0.000000e+00 0.000000e+00 0.000000e+00 0.000000e+00 0.000000e+00 0.000000e+00 0.000000e+00 0.000000e+00 0.000000e+00 0.000000e+00 0.000000e+00 0.000000e+00 0.000000e+00 0.000000e+00
 0.000000e+00 0.000000e+00 0.000000e+00 0.000000e+00 0.000000e+00 0.000000e+00 0.000000e+00 0.000000e+00 0.000000e+00 0.000000e+00 0.000000e+00 0.000000e+00 0.000000e+00 0.000000e+00 0.000000e+00 0.000000e+00 0.000000e+00 0.000000e+00 0.000000e+00 0.000000e+00 0.000000e+00 0.000000e+00 4.444444e-01 5.555556e-01 0.000000e+00 0.000000e+00 0.000000e+00 0.000000e+00 0.000000e+00 0.000000e+00 0.000000e+00 0.000000e+00 0.000000e+00 0.000000e+00 0.000000e+00 0.000000e+00 0.000000e+00
 0.000000e+00 0.000000e+00 0.000000e+00 0.000000e+00 0.000000e+00 0.000000e+00 0.000000e+00 0.000000e+00 0.000000e+00 0.000000e+00 0.000000e+00 0.000000e+00 0.000000e+00 0.000000e+00 0.000000e+00 0.000000e+00 0.000000e+00 0.000000e+00 0.000000e+00 0.000000e+00 0.000000e+00 0.000000e+00 0.000000e+00 4.444444e-01 5.555556e-01 0.000000e+00 0.000000e+00 0.000000e+00 0.000000e+00 0.000000e+00 0.000000e+00 0.000000e+00 0.000000e+00 0.000000e+00 0.000000e+00 0.000000e+00 0.000000e+00
 0.000000e+00 0.000000e+00 0.000000e+00 0.000000e+00 0.000000e+00 0.000000e+00 0.000000e+00 0.000000e+00 0.000000e+00 0.000000e+00 0.000000e+00 0.000000e+00 0.000000e+00 0.000000e+00 0.000000e+00 0.000000e+00 0.000000e+00 0.000000e+00 0.000000e+00 0.000000e+00 0.000000e+00 0.000000e+00 0.000000e+00 0.000000e+00 5.454546e-01 4.545455e-01 0.000000e+00 0.000000e+00 0.000000e+00 0.000000e+00 0.000000e+00 0.000000e+00 0.000000e+00 0.000000e+00 0.000000e+00 0.000000e+00 0.000000e+00
 0.000000e+00 0.000000e+00 0.000000e+00 0.000000e+00 0.000000e+00 0.000000e+00 0.000000e+00 0.000000e+00 0.000000e+00 0.000000e+00 0.000000e+00 0.000000e+00 0.000000e+00 0.000000e+00 0.000000e+00 0.000000e+00 0.000000e+00 0.000000e+00 0.000000e+00 0.000000e+00 0.000000e+00 0.000000e+00 0.000000e+00 0.000000e+00 0.000000e+00 5.454546e-01 4.545455e-01 0.000000e+00 0.000000e+00 0.000000e+00 0.000000e+00 0.000000e+00 0.000000e+00 0.000000e+00 0.000000e+00 0.000000e+00 0.000000e+00
 0.000000e+00 0.000000e+00 0.000000e+00 0.000000e+00 0.000000e+00 0.000000e+00 0.000000e+00 0.000000e+00 0.000000e+00 0.000000e+00 0.000000e+00 0.000000e+00 0.000000e+00 0.000000e+00 0.000000e+00 0.000000e+00 0.000000e+00 0.000000e+00 0.000000e+00 0.000000e+00 0.000000e+00 0.000000e+00 0.000000e+00 0.000000e+00 0.000000e+00 0.000000e+00 5.000000e-01 5.000000e-01 0.000000e+00 0.000000e+00 0.000000e+00 0.000000e+00 0.000000e+00 0.000000e+00 0.000000e+00 0.000000e+00 0.000000e+00
 0.000000e+00 0.000000e+00 0.000000e+00 0.000000e+00 0.000000e+00 0.000000e+00 0.000000e+00 0.000000e+00 0.000000e+00 0.000000e+00 0.000000e+00 0.000000e+00 0.000000e+00 0.000000e+00 0.000000e+00 0.000000e+00 0.000000e+00 0.000000e+00 0.000000e+00 0.000000e+00 0.000000e+00 0.000000e+00 0.000000e+00 0.000000e+00 0.000000e+00 0.000000e+00 0.000000e+00 4.444444e-01 5.555556e-01 0.000000e+00 0.000000e+00 0.000000e+00 0.000000e+00 0.000000e+00 0.000000e+00 0.000000e+00 0.000000e+00
 0.000000e+00 0.000000e+00 0.000000e+00 0.000000e+00 0.000000e+00 0.000000e+00 0.000000e+00 0.000000e+00 0.000000e+00 0.000000e+00 0.000000e+00 0.000000e+00 0.000000e+00 0.000000e+00 0.000000e+00 0.000000e+00 0.000000e+00 0.000000e+00 0.000000e+00 0.000000e+00 0.000000e+00 0.000000e+00 0.000000e+00 0.000000e+00 0.000000e+00 0.000000e+00 0.000000e+00 0.000000e+00 4.444444e-01 5.555556e-01 0.000000e+00 0.000000e+00 0.000000e+00 0.000000e+00 0.000000e+00 0.000000e+00 0.000000e+00
 0.000000e+00 0.000000e+00 0.000000e+00 0.000000e+00 0.000000e+00 0.000000e+00 0.000000e+00 0.000000e+00 0.000000e+00 0.000000e+00 0.000000e+00 0.000000e+00 0.000000e+00 0.000000e+00 0.000000e+00 0.000000e+00 0.000000e+00 0.000000e+00 0.000000e+00 0.000000e+00 0.000000e+00 0.000000e+00 0.000000e+00 0.000000e+00 0.000000e+00 0.000000e+00 0.000000e+00 0.000000e+00 0.000000e+00 5.000000e-01 5.000000e-01 0.000000e+00 0.000000e+00 0.000000e+00 0.000000e+00 0.000000e+00 0.000000e+00
 0.000000e+00 0.000000e+00 0.000000e+00 0.000000e+00 0.000000e+00 0.000000e+00 0.000000e+00 0.000000e+00 0.000000e+00 0.000000e+00 0.000000e+00 0.000000e+00 0.000000e+00 0.000000e+00 0.000000e+00 0.000000e+00 0.000000e+00 0.000000e+00 0.000000e+00 0.000000e+00 0.000000e+00 0.000000e+00 0.000000e+00 0.000000e+00 0.000000e+00 0.000000e+00 0.000000e+00 0.000000e+00 0.000000e+00 0.000000e+00 5.454546e-01 4.545455e-01 0.000000e+00 0.000000e+00 0.000000e+00 0.000000e+00 0.000000e+00
 0.000000e+00 0.000000e+00 0.000000e+00 0.000000e+00 0.000000e+00 0.000000e+00 0.000000e+00 0.000000e+00 0.000000e+00 0.000000e+00 0.000000e+00 0.000000e+00 0.000000e+00 0.000000e+00 0.000000e+00 0.000000e+00 0.000000e+00 0.000000e+00 0.000000e+00 0.000000e+00 0.000000e+00 0.000000e+00 0.000000e+00 0.000000e+00 0.000000e+00 0.000000e+00 0.000000e+00 0.000000e+00 0.000000e+00 0.000000e+00 0.000000e+00 5.000000e-01 5.000000e-01 0.000000e+00 0.000000e+00 0.000000e+00 0.000000e+00
 0.000000e+00 0.000000e+00 0.000000e+00 0.000000e+00 0.000000e+00 0.000000e+00 0.000000e+00 0.000000e+00 0.000000e+00 0.000000e+00 0.000000e+00 0.000000e+00 0.000000e+00 0.000000e+00 0.000000e+00 0.000000e+00 0.000000e+00 0.000000e+00 0.000000e+00 0.000000e+00 0.000000e+00 0.000000e+00 0.000000e+00 0.000000e+00 0.000000e+00 0.000000e+00 0.000000e+00 0.000000e+00 0.000000e+00 0.000000e+00 0.000000e+00 0.000000e+00 4.444444e-01 5.555556e-01 0.000000e+00 0.000000e+00 0.000000e+00
 0.000000e+00 0.000000e+00 0.000000e+00 0.000000e+00 0.000000e+00 0.000000e+00 0.000000e+00 0.000000e+00 0.000000e+00 0.000000e+00 0.000000e+00 0.000000e+00 0.000000e+00 0.000000e+00 0.000000e+00 0.000000e+00 0.000000e+00 0.000000e+00 0.000000e+00 0.000000e+00 0.000000e+00 0.000000e+00 0.000000e+00 0.000000e+00 0.000000e+00 0.000000e+00 0.000000e+00 0.000000e+00 0.000000e+00 0.000000e+00 0.000000e+00 0.000000e+00 0.000000e+00 4.444444e-01 5.555556e-01 0.000000e+00 0.000000e+00
 0.000000e+00 0.000000e+00 0.000000e+00 0.000000e+00 0.000000e+00 0.000000e+00 0.000000e+00 0.000000e+00 0.000000e+00 0.000000e+00 0.000000e+00 0.000000e+00 0.000000e+00 0.000000e+00 0.000000e+00 0.000000e+00 0.000000e+00 0.000000e+00 0.000000e+00 0.000000e+00 0.000000e+00 0.000000e+00 0.000000e+00 0.000000e+00 0.000000e+00 0.000000e+00 0.000000e+00 0.000000e+00 0.000000e+00 0.000000e+00 0.000000e+00 0.000000e+00 0.000000e+00 0.000000e+00 5.000000e-01 5.000000e-01 0.000000e+00
 0.000000e+00 0.000000e+00 0.000000e+00 0.000000e+00 0.000000e+00 0.000000e+00 0.000000e+00 0.000000e+00 0.000000e+00 0.000000e+00 0.000000e+00 0.000000e+00 0.000000e+00 0.000000e+00 0.000000e+00 0.000000e+00 0.000000e+00 0.000000e+00 0.000000e+00 0.000000e+00 0.000000e+00 0.000000e+00 0.000000e+00 0.000000e+00 0.000000e+00 0.000000e+00 0.000000e+00 0.000000e+00 0.000000e+00 0.000000e+00 0.000000e+00 0.000000e+00 0.000000e+00 0.000000e+00 0.000000e+00 4.444444e-01 5.555556e-01
 0.000000e+00 0.000000e+00 0.000000e+00 0.000000e+00 0.000000e+00 0.000000e+00 0.000000e+00 0.000000e+00 0.000000e+00 0.000000e+00 0.000000e+00 0.000000e+00 0.000000e+00 0.000000e+00 0.000000e+00 0.000000e+00 0.000000e+00 0.000000e+00 0.000000e+00 0.000000e+00 0.000000e+00 0.000000e+00 0.000000e+00 0.000000e+00 0.000000e+00 0.000000e+00 0.000000e+00 0.000000e+00 0.000000e+00 0.000000e+00 0.000000e+00 0.000000e+00 0.000000e+00 0.000000e+00 0.000000e+00 0.000000e+00 0.000000e+00
<ENDHMM>
