~o
<STREAMINFO> 1 39
<VECSIZE> 39<NULLD><MFCC_E_D_A><DIAGC>
~h "Ba"
<BEGINHMM>
<NUMSTATES> 25
<STATE> 2
<MEAN> 39
 -5.979373e+00 -8.463409e+00 -2.151327e+00 -2.455429e+00 -3.475455e-01 -4.341585e+00 2.891036e+00 9.839397e-02 3.578902e-01 -2.297516e+00 6.012297e-01 -3.382864e+00 -1.008519e-01 1.282449e+00 4.296153e-01 -4.529982e-01 -8.015321e-01 -3.779276e-01 -4.911233e-01 -4.215034e-01 -2.949741e-01 1.586356e-01 -5.121580e-01 -1.981559e-01 -2.296193e-01 6.568865e-02 8.499808e-01 -1.717220e-01 -5.701380e-01 -3.799015e-01 -2.995164e-01 -5.977169e-01 -5.759416e-01 -3.649927e-01 -1.444106e-01 -5.281281e-01 -3.506755e-01 -1.239770e-01 4.118469e-02
<VARIANCE> 39
 2.845660e+00 3.754001e+00 3.459951e+00 2.835560e+00 7.458576e+00 5.734234e+00 7.316191e+00 7.522932e+00 7.667153e+00 1.497672e+01 5.331704e+00 9.654167e+00 5.000000e-02 2.247970e+00 2.481851e-01 4.554726e-01 4.692026e-01 9.549296e-01 1.353220e+00 1.598837e+00 1.127484e+00 8.596083e-01 2.698114e+00 1.086173e+00 4.361912e-01 5.000000e-02 1.423773e-01 1.696231e-01 1.539093e-01 8.649445e-02 2.076161e-01 2.129714e-01 1.463750e-01 1.185826e-01 1.727366e-01 4.248044e-01 2.863382e-01 2.489413e-01 5.000000e-02
<GCONST> 6.213551e+01
<STATE> 3
<MEAN> 39
 2.688437e+00 -7.270872e+00 -6.264583e+00 -7.296978e+00 -2.743338e+00 -1.074194e+01 -2.880125e+00 -4.176996e+00 -3.735473e-01 -5.894150e+00 -3.549326e+00 -5.196842e+00 2.912029e-01 3.181889e+00 -1.221086e+00 -2.489346e+00 -9.336851e-01 -1.282335e+00 -1.727250e+00 -1.827625e+00 -1.143293e+00 -4.699771e-01 -1.415194e+00 -2.129401e+00 -1.858890e+00 1.714709e-01 -8.248589e-01 -8.856054e-01 -6.715106e-01 4.704251e-01 1.549137e-01 4.057849e-01 8.882277e-01 9.707801e-03 5.139818e-01 1.090217e-01 -2.497520e-02 -1.860304e-01 6.435335e-03
<VARIANCE> 39
 1.596025e+01 3.763350e+00 7.339963e+00 3.033154e+00 1.107511e+01 4.191462e+00 9.720693e-01 3.027478e+00 1.104277e+01 3.226917e+01 4.560020e+00 4.590296e+00 5.000000e-02 1.311604e+00 7.786090e-01 6.847218e-01 8.340809e-01 1.652275e+00 2.775723e+00 3.473736e-01 9.598783e-01 5.231767e-01 8.383011e-01 3.803233e-01 1.547596e+00 5.000000e-02 6.785281e-01 5.000000e-02 1.162202e-01 9.408573e-02 3.015440e-01 1.771657e-01 5.945026e-01 1.434118e-01 2.406119e-01 4.075163e-01 1.984482e-01 2.685151e-01 5.000000e-02
<GCONST> 6.370874e+01
<STATE> 4
<MEAN> 39
 6.430935e+00 -1.307722e+01 -1.307312e+01 -7.003431e+00 -5.908571e+00 -1.218750e+01 -3.661071e+00 -6.791516e+00 1.046390e-01 -7.489731e+00 -8.146645e+00 -1.075753e+01 6.269410e-01 -1.515814e+00 -2.965193e+00 -3.964492e+00 8.330086e-01 9.234078e-01 1.861259e-01 4.017868e+00 -9.613363e-01 2.369332e+00 -1.104041e+00 -1.791192e-01 -6.568173e-02 1.185658e-01 -1.561230e+00 -1.147989e-01 -1.874806e-01 6.688206e-01 9.648044e-01 5.734648e-01 1.748397e+00 1.305784e-02 3.520142e-01 -2.396039e-01 9.636285e-01 1.393300e+00 -2.514316e-02
<VARIANCE> 39
 2.123386e+01 6.125854e+00 6.525230e+00 2.373932e+00 9.627713e+00 2.285283e+01 2.368109e+01 1.914229e+01 2.484135e+01 1.419503e+01 7.848882e+00 7.969748e+00 5.000000e-02 3.874315e+00 3.812758e-01 6.792482e-01 1.098509e+00 3.093607e+00 9.772539e-01 7.093924e+00 1.914378e+00 2.936980e+00 2.118860e+00 1.633531e+00 3.065388e+00 5.000000e-02 2.790703e-01 1.849630e-01 2.999751e-01 8.978718e-02 4.602171e-01 2.939466e-01 8.780359e-01 1.813472e-01 6.981835e-01 4.334293e-01 7.542203e-02 2.248626e-01 5.000000e-02
<GCONST> 8.337321e+01
<STATE> 5
<MEAN> 39
 -3.743512e+00 -2.043838e+01 -2.388311e+01 -2.429569e+00 1.055541e+00 -8.964788e+00 1.379725e+01 -7.938382e+00 6.279378e+00 -1.234107e+01 -3.731272e+00 -2.329093e+00 8.670337e-01 -2.529872e+00 -1.387888e+00 -2.196386e+00 1.475652e+00 1.733016e+00 7.106397e-01 3.025334e+00 -1.241579e+00 1.003039e-01 -1.175008e+00 1.098547e+00 2.841119e+00 5.861482e-02 5.727594e-01 6.129099e-01 1.036285e+00 -2.594283e-01 -2.057656e-01 -2.399161e-02 -1.513556e+00 9.781235e-02 -6.151921e-01 4.960952e-01 -5.257735e-02 -1.985856e-01 -2.176565e-02
<VARIANCE> 39
 2.658784e+01 1.505984e+00 1.591217e+01 1.404554e+01 2.224975e+01 2.171499e+01 5.772569e+01 2.728077e+01 1.853103e+01 1.247427e+01 4.517932e+00 1.628845e+01 5.000000e-02 1.621161e+00 6.353658e-01 2.717088e+00 6.199905e-01 2.480502e+00 1.305491e+00 7.781954e+00 1.052716e+00 2.309023e+00 2.543896e+00 6.488907e-01 1.161776e+00 5.000000e-02 2.657939e-01 6.233393e-02 1.783649e-01 1.498958e-01 3.862798e-01 9.426688e-02 8.644546e-01 3.344691e-01 6.641780e-01 2.151486e-01 1.335872e-01 5.292555e-01 5.000000e-02
<GCONST> 8.351984e+01
<STATE> 6
<MEAN> 39
 -4.791769e+00 -2.138538e+01 -2.817485e+01 -1.072928e-02 5.152390e+00 -1.205421e+01 1.479781e+01 -1.227461e+01 4.432537e+00 -1.392877e+01 -4.069011e+00 -2.393282e-01 9.360372e-01 -3.783547e-01 -4.571343e-01 -1.856590e-01 -1.002029e-02 8.574066e-01 4.621777e-01 -1.255982e+00 3.002321e-01 8.524633e-02 4.793849e-01 -7.094378e-02 3.302884e-01 2.133735e-02 4.132055e-01 1.377219e-01 6.549625e-01 -2.638298e-01 -1.958281e-01 1.409368e-01 -4.993680e-01 6.353345e-01 1.901427e-01 1.131680e-01 -1.249209e-01 -5.226023e-01 -7.695929e-03
<VARIANCE> 39
 1.229053e+01 2.243031e+00 2.033661e+01 7.218647e+00 2.777751e+01 3.931809e+01 3.209763e+01 1.591150e+01 4.640146e+00 2.040619e+01 9.657396e+00 7.563721e+00 5.000000e-02 2.008380e-01 1.756031e-01 1.027011e+00 1.498929e-01 6.676819e-01 3.070381e-01 8.495468e-01 1.510520e+00 1.300116e+00 8.633875e-01 7.240662e-01 2.548399e-01 5.000000e-02 1.187157e-01 7.706903e-02 5.000000e-02 8.643980e-02 1.127160e-01 7.852746e-02 6.124920e-01 8.589332e-02 2.170920e-01 5.863543e-01 2.906053e-01 1.026750e-01 5.000000e-02
<GCONST> 6.156000e+01
<STATE> 7
<MEAN> 39
 -7.733820e+00 -2.312486e+01 -2.078849e+01 -1.421344e+00 2.401021e+00 -2.973535e+00 8.337087e+00 -8.270059e+00 6.917852e+00 -1.023156e+01 -1.967019e+00 2.774148e+00 9.791707e-01 -8.502470e-02 -3.043140e-01 6.821987e-01 1.509434e-01 1.402935e-01 8.676991e-01 -3.672612e-01 6.227564e-01 1.918506e-01 -5.836924e-01 2.742204e-01 -1.423740e-01 6.439574e-03 -4.683025e-03 1.057095e-01 -1.689390e-01 8.325818e-03 -1.833551e-01 2.968767e-03 1.994568e-01 4.546831e-02 -2.344659e-01 -2.662406e-01 6.155934e-02 -2.594454e-01 -3.812569e-03
<VARIANCE> 39
 6.180859e+00 4.038176e+00 1.614703e+01 5.776948e+00 1.602005e+01 1.740451e+01 1.345598e+01 7.435822e+00 4.427037e+00 7.743013e+00 4.021339e+00 4.582177e+00 5.000000e-02 9.736659e-02 2.792500e-01 4.461394e-01 5.309945e-01 7.388037e-01 1.416841e-01 6.779379e-01 6.484743e-01 6.079495e-01 7.025725e-01 4.739147e-01 4.030659e-01 5.000000e-02 5.000000e-02 5.000000e-02 5.842020e-02 5.000000e-02 7.993753e-02 5.000000e-02 1.617821e-01 5.000000e-02 1.120194e-01 6.478778e-02 5.987270e-02 7.580650e-02 5.000000e-02
<GCONST> 4.401006e+01
<STATE> 8
<MEAN> 39
 -6.866921e+00 -2.345024e+01 -2.275400e+01 -2.599663e-02 5.465405e+00 -3.350013e+00 1.140497e+01 -6.308680e+00 2.784631e+00 -1.515357e+01 -1.017179e+00 -1.250985e+00 9.849586e-01 -2.519735e-01 -1.008367e-01 4.549564e-01 -1.329301e-01 2.486375e-02 7.176289e-01 1.411763e-01 3.752938e-01 -5.299966e-01 -4.826523e-01 4.499588e-01 -1.422219e-01 1.248436e-03 4.255835e-03 5.607049e-02 -5.516991e-02 -9.171659e-02 -1.433130e-01 -1.882164e-01 3.548872e-02 -2.985290e-01 1.970425e-01 5.248212e-02 -6.628846e-02 1.213178e-01 -2.693914e-03
<VARIANCE> 39
 1.123193e+01 5.780371e+00 2.037268e+01 6.689967e+00 3.751800e+01 5.178757e+01 2.468387e+01 6.194016e+00 1.593502e+01 6.448892e+00 1.002582e+01 1.018042e+01 5.000000e-02 5.163848e-02 1.662890e-01 4.066876e-01 4.305813e-01 4.044325e-01 4.133686e-01 4.153808e-01 5.313342e-01 1.096361e+00 4.025662e-01 3.082303e-01 8.346146e-01 5.000000e-02 5.000000e-02 5.000000e-02 6.796280e-02 1.541451e-01 9.382015e-02 6.925114e-02 1.136288e-01 1.186603e-01 1.045434e-01 7.220601e-02 5.000000e-02 1.017265e-01 5.000000e-02
<GCONST> 5.160234e+01
<STATE> 9
<MEAN> 39
 -7.783260e+00 -2.313828e+01 -2.150713e+01 -7.827678e-01 4.437469e+00 -1.595771e+00 1.117459e+01 -6.396210e+00 4.493955e+00 -1.709396e+01 2.164424e-01 -2.896071e-01 9.794034e-01 -1.708273e-01 7.556205e-02 -2.799430e-01 1.086864e-01 -8.068612e-01 2.851704e-01 4.620918e-02 -3.278634e-01 4.097945e-01 -6.574885e-01 5.695100e-01 2.379862e-01 -6.490786e-03 -3.711808e-02 -3.572099e-02 -2.245621e-01 -3.417809e-02 -2.461114e-01 -1.211876e-01 -1.395644e-01 -1.063337e-01 -4.896865e-02 1.032467e-01 -6.189763e-02 7.005144e-02 -1.908197e-03
<VARIANCE> 39
 7.762788e+00 2.234360e+00 2.699281e+01 4.370510e+00 4.145472e+01 5.241169e+01 2.064994e+01 4.331774e+00 1.049453e+01 1.014580e+01 1.844348e+01 9.176311e+00 5.000000e-02 2.317857e-01 4.054954e-01 2.330013e-01 1.024654e+00 5.099142e-01 5.486261e-01 4.740874e-01 2.542697e-01 1.888739e-01 1.446751e-01 3.461658e-01 3.353597e-01 5.000000e-02 5.000000e-02 5.000000e-02 5.000000e-02 8.357878e-02 8.771436e-02 5.000000e-02 5.000000e-02 5.000000e-02 7.711530e-02 5.000000e-02 1.179477e-01 9.637256e-02 5.000000e-02
<GCONST> 4.642528e+01
<STATE> 10
<MEAN> 39
 -7.772871e+00 -2.322562e+01 -2.374992e+01 -6.022529e-01 3.045015e+00 -3.279054e+00 1.014353e+01 -8.668525e+00 5.177104e+00 -1.683904e+01 -9.890585e-01 -2.907106e-01 9.551057e-01 -2.798856e-01 8.982290e-02 -3.336198e-01 -2.278111e-01 -5.336115e-01 -2.587656e-01 -3.546315e-01 -2.291233e-01 -4.063237e-01 -2.641374e-01 -2.034464e-02 -4.210653e-01 -1.027226e-02 1.254751e-01 1.559585e-01 1.457426e-01 1.019788e-01 2.742477e-01 -2.478133e-02 1.796725e-01 1.180597e-01 -7.738378e-02 5.168343e-02 -3.808613e-02 -2.786949e-02 -1.225203e-03
<VARIANCE> 39
 1.455090e+01 1.992365e+00 2.835628e+01 2.134502e+01 2.936299e+01 2.518651e+01 1.418812e+01 3.674225e+00 2.964860e+01 1.815613e+01 4.599646e+00 1.466008e+01 5.000000e-02 8.455651e-02 9.183869e-02 1.042307e-01 3.361968e-01 2.760707e-01 5.890142e-01 2.377758e-01 9.635378e-02 2.933849e-01 4.166735e-01 9.272751e-01 2.648017e-01 5.000000e-02 5.000000e-02 5.000000e-02 5.000000e-02 5.000000e-02 5.000000e-02 1.109553e-01 5.000000e-02 7.026103e-02 5.000000e-02 5.000000e-02 5.000000e-02 1.027103e-01 5.000000e-02
<GCONST> 4.212254e+01
<STATE> 11
<MEAN> 39
 -7.356947e+00 -2.212370e+01 -2.319747e+01 -3.514228e-02 2.964438e+00 -3.321256e+00 1.125626e+01 -8.484406e+00 2.985332e+00 -1.822716e+01 -6.815441e-01 -1.693384e+00 9.286023e-01 3.000074e-01 3.617912e-01 2.884731e-01 6.180177e-01 1.155430e-01 3.010420e-01 4.878794e-01 2.536073e-01 6.004276e-01 -3.735819e-01 4.978170e-01 6.117256e-01 -8.123619e-03 5.414225e-02 -1.470245e-02 8.058366e-02 -2.191310e-02 1.559342e-01 -5.645935e-02 1.232338e-01 6.028327e-02 2.490609e-01 7.226684e-03 1.911121e-01 1.727582e-01 -6.038794e-05
<VARIANCE> 39
 1.195171e+01 1.475351e+00 2.832906e+01 2.482920e+01 2.228315e+01 2.106406e+01 1.727236e+01 6.503011e+00 3.660103e+01 7.249255e+00 9.171686e+00 1.271776e+01 5.000000e-02 5.000000e-02 6.690378e-02 1.627004e-01 1.947324e-01 9.593344e-02 2.387374e-01 4.561521e-01 6.047062e-01 5.021879e-01 2.496307e-01 3.698269e-01 6.842822e-01 5.000000e-02 5.000000e-02 5.000000e-02 5.000000e-02 1.100838e-01 6.086363e-02 7.515636e-02 5.606824e-02 1.089660e-01 2.023356e-01 1.097051e-01 1.123460e-01 2.317345e-01 5.000000e-02
<GCONST> 4.652619e+01
<STATE> 12
<MEAN> 39
 -9.057232e+00 -2.199268e+01 -2.144782e+01 -1.983475e+00 1.698075e+00 -1.322565e+00 9.862093e+00 -6.321851e+00 7.669359e+00 -1.643865e+01 3.576971e+00 2.771600e+00 8.995646e-01 3.096167e-02 6.054244e-02 6.277515e-02 -5.261697e-01 2.746351e-01 -8.865732e-01 -2.314083e-01 -4.646449e-01 4.312471e-01 -2.371822e-01 8.657553e-03 -3.264860e-01 -2.493296e-02 1.031362e-01 -4.056881e-02 -2.808241e-02 -1.281236e-02 -1.051599e-01 -3.057499e-01 -2.171340e-01 -2.327761e-01 -1.694593e-01 -1.504710e-01 -1.868851e-01 -2.744630e-01 -4.619492e-03
<VARIANCE> 39
 1.198195e+01 2.024931e+00 9.090446e+00 1.320905e+01 2.723108e+01 1.407708e+01 8.855654e+00 2.360633e+00 1.355400e+01 7.320197e+00 1.045570e+01 1.094067e+01 5.000000e-02 1.556003e-01 4.617979e-01 7.998552e-02 5.659660e-01 5.172369e-01 5.599779e-01 9.703661e-01 4.696972e-01 1.659204e+00 7.514070e-01 1.020056e+00 1.431732e+00 5.000000e-02 5.000000e-02 5.000000e-02 5.000000e-02 1.451660e-01 1.175114e-01 6.886091e-02 1.386381e-01 5.877041e-02 5.000000e-02 5.000000e-02 1.224103e-01 1.380526e-01 5.000000e-02
<GCONST> 5.122316e+01
<STATE> 13
<MEAN> 39
 -4.791714e+00 -2.149554e+01 -2.373330e+01 1.180191e+00 3.807418e+00 -7.965024e+00 1.311201e+01 -1.021483e+01 6.976975e+00 -2.060461e+01 2.501829e+00 -1.249855e+00 8.312030e-01 5.220986e-01 1.291508e-03 3.665160e-01 -4.867979e-03 -4.670613e-01 -8.819605e-01 -8.990900e-03 -5.780263e-01 2.704471e-01 -5.309466e-01 5.735031e-01 2.597748e-01 -2.502760e-02 -3.720065e-02 2.847770e-03 3.358483e-02 5.106914e-02 7.680204e-02 9.777466e-02 -4.204271e-02 1.169191e-01 1.739797e-02 -8.657386e-02 -1.337864e-01 1.628617e-01 -2.569314e-03
<VARIANCE> 39
 1.755188e+01 3.970912e+00 2.313778e+01 2.765136e+01 2.606945e+01 2.902357e+01 2.805615e+01 7.995553e+00 1.377925e+01 1.755080e+01 9.012926e+00 3.253600e+01 5.000000e-02 1.321859e-01 2.490939e-01 3.559793e-01 1.949677e-01 1.578772e+00 8.731107e-01 1.273526e+00 6.322688e-01 5.224110e-01 1.005148e+00 6.590591e-01 1.238187e+00 5.000000e-02 5.000000e-02 5.000000e-02 5.000000e-02 5.000000e-02 3.215896e-01 1.485036e-01 3.760350e-01 2.215185e-01 1.820678e-01 2.891345e-01 9.107986e-02 3.537921e-01 5.000000e-02
<GCONST> 6.589292e+01
<STATE> 14
<MEAN> 39
 -6.781686e+00 -2.048418e+01 -1.985609e+01 -1.171715e+00 2.127928e+00 -5.358227e+00 8.895406e+00 -9.609757e+00 7.060824e+00 -2.055008e+01 2.049608e+00 1.192720e+00 7.154344e-01 1.251489e-01 4.590522e-02 3.521440e-01 -1.744569e-03 3.067811e-01 3.857778e-01 2.146078e-01 3.900329e-01 4.081458e-01 -9.464886e-01 -1.215166e-01 8.327907e-02 -3.524492e-02 -5.382767e-02 -1.791929e-01 1.810018e-01 -8.960678e-02 -1.019607e-01 4.562108e-01 2.097457e-01 1.845739e-01 -9.739535e-02 -1.733249e-01 -9.736373e-02 -1.605473e-01 -2.020151e-03
<VARIANCE> 39
 1.339086e+01 1.191717e+01 3.716875e+00 1.165152e+01 1.973468e+01 2.380349e+01 1.151127e+01 8.643195e+00 1.328394e+01 2.634047e+00 1.694315e+01 1.452910e+01 5.000000e-02 8.557748e-01 8.324690e-01 6.961911e-01 5.327104e-01 1.222466e+00 1.546188e+00 2.930276e+00 6.024207e-01 1.635197e+00 1.027693e+00 1.240251e+00 1.275638e+00 5.000000e-02 1.796795e-01 2.303039e-01 1.094814e-01 5.729079e-02 3.773421e-01 2.789490e-01 3.605779e-01 1.761290e-01 2.711075e-01 8.821306e-02 2.828680e-01 1.885220e-01 5.000000e-02
<GCONST> 7.226704e+01
<STATE> 15
<MEAN> 39
 -6.579733e+00 -2.117371e+01 -2.065779e+01 -7.302938e-01 2.017152e+00 -5.982930e+00 1.181389e+01 -8.931429e+00 9.098409e+00 -2.532100e+01 2.155519e+00 3.463034e-01 6.353140e-01 3.059837e-01 -2.675038e-01 1.234772e+00 1.217644e-01 -4.078670e-01 6.563146e-01 -7.614282e-01 5.169496e-01 -8.606279e-01 -5.337647e-01 -1.018061e+00 -9.399561e-02 -4.863882e-02 4.183972e-01 -2.517443e-01 5.007438e-01 -6.224239e-02 -2.012711e-01 1.605455e-01 -5.934153e-01 3.642105e-01 -4.950972e-01 8.755940e-01 -1.331879e-01 3.470938e-01 -4.387794e-03
<VARIANCE> 39
 1.663391e+01 7.378219e+00 1.562322e+01 9.344567e+00 2.901689e+01 5.614976e+01 2.993345e+01 1.458089e+01 2.045006e+01 6.134789e+00 3.800766e+00 1.477769e+01 5.000000e-02 1.542025e+00 1.881645e+00 1.555859e+00 7.147969e-01 1.500649e+00 9.522769e-01 1.609955e+00 1.105878e+00 4.088469e+00 1.779582e+00 7.580311e-01 1.560689e+00 5.000000e-02 3.014601e-01 1.399941e-01 1.125913e-01 1.082549e-01 4.043610e-01 2.529385e-01 3.396164e-01 3.286839e-01 8.592934e-01 1.911243e-01 1.439455e-01 3.632943e-01 5.000000e-02
<GCONST> 8.227387e+01
<STATE> 16
<MEAN> 39
 -2.494997e+00 -2.383493e+01 -1.269366e+01 -6.529241e-01 -2.841372e-01 -3.059997e+00 5.939836e+00 -6.414710e+00 3.147270e+00 -2.320360e+01 -1.907361e+00 2.581483e+00 4.835676e-01 1.614620e+00 -1.222851e+00 2.081191e+00 -4.986079e-01 -4.207306e-01 1.209904e+00 -1.472757e+00 2.500781e+00 -2.282699e+00 2.518888e+00 -5.990076e-01 1.358994e+00 -4.349615e-02 -1.716315e-01 8.986319e-02 -6.515899e-01 5.202905e-02 3.600832e-01 -1.055473e-01 2.583410e-01 2.871410e-01 -9.370713e-02 5.193555e-01 4.904689e-01 1.043710e-01 9.686939e-03
<VARIANCE> 39
 5.470913e+00 7.593252e+00 1.228118e+01 7.176584e+00 5.464806e+00 3.224665e+01 1.537041e+01 1.291424e+01 5.318594e+01 1.399655e+01 8.353031e+00 4.733262e+00 5.000000e-02 1.020378e+00 1.850912e-01 7.059678e-01 6.261156e-01 3.672995e+00 1.067210e+00 2.370410e+00 2.091439e+00 2.433201e+00 1.206828e+00 1.678941e+00 3.793688e+00 5.000000e-02 1.060299e-01 2.371503e-01 1.849380e-01 2.129256e-01 1.440709e-01 1.509780e-01 2.393009e-01 2.290537e-01 1.153327e+00 3.635297e-01 2.841555e-01 2.698978e-01 5.000000e-02
<GCONST> 7.797374e+01
<STATE> 17
<MEAN> 39
 -2.518524e-01 -2.635915e+01 -1.278429e+01 -2.013863e+00 2.417580e-01 7.049561e-01 7.324568e+00 2.611805e-01 5.504841e-01 -1.646732e+01 1.010387e+00 6.592249e+00 4.598349e-01 6.082677e-01 -2.056896e-01 -4.849163e-01 3.040865e-01 1.030355e-01 -4.337135e-01 -6.697747e-01 8.440597e-01 -1.551436e+00 1.684160e+00 7.789738e-01 6.242059e-01 -1.568567e-02 -3.414374e-01 4.254444e-01 -3.057719e-01 2.947455e-01 1.687111e-01 -5.957463e-01 -2.241656e-02 -7.900387e-01 4.968842e-01 -4.393112e-01 1.346825e-03 -5.428341e-01 2.795726e-03
<VARIANCE> 39
 3.311671e+00 3.765845e+00 1.285901e+01 7.322219e+00 6.877319e+00 4.422610e+01 1.065917e+01 6.578054e+00 1.171489e+01 3.955871e+00 1.331692e+01 1.520963e+01 5.000000e-02 2.435382e-01 8.754798e-01 2.198460e+00 1.042997e+00 6.590973e-01 2.017164e+00 2.893839e+00 2.059177e+00 2.808373e+00 1.585724e+00 1.533480e+00 1.153463e+00 5.000000e-02 1.973294e-01 1.088502e-01 4.665656e-01 6.618242e-02 5.234551e-01 2.342720e-01 3.897527e-01 3.764928e-01 2.929287e-01 2.806988e-01 2.612113e-01 4.372158e-01 5.000000e-02
<GCONST> 7.628708e+01
<STATE> 18
<MEAN> 39
 6.121777e-01 -2.370729e+01 -1.251263e+01 5.919043e-01 1.930594e+00 -4.845364e+00 2.354144e+00 -1.321502e+00 -2.443762e+00 -1.578869e+01 1.214199e+00 4.800658e+00 3.958444e-01 1.281920e-01 2.487857e-01 8.496922e-02 4.752692e-01 6.993846e-01 -2.891952e-01 -2.304615e-01 3.444694e-01 8.976510e-02 9.528213e-01 8.434208e-02 -7.474927e-02 -2.103032e-02 -2.525701e-01 -1.031042e-01 -1.675295e-01 -5.728556e-02 -1.595104e-02 1.030590e-01 6.363012e-01 5.293695e-02 4.563691e-01 4.502809e-02 -8.150652e-02 -1.779572e-01 -6.476582e-04
<VARIANCE> 39
 5.228493e+00 5.334294e+00 5.808934e+00 1.734226e+01 6.162480e+00 2.013469e+01 1.350710e+01 7.734694e+00 1.427712e+01 5.441653e+00 1.040925e+01 1.881083e+01 5.000000e-02 4.690221e-01 1.290224e+00 9.351632e-01 8.051566e-01 1.067203e+00 3.335302e+00 1.364556e+00 9.367224e-01 4.454480e-01 5.758179e-01 6.033610e-01 1.757636e+00 5.000000e-02 6.521461e-02 2.059606e-01 2.153587e-01 3.819938e-01 9.410417e-02 4.220221e-01 1.352920e-01 1.894433e-01 2.880713e-01 2.412193e-01 2.838432e-01 2.714009e-01 5.000000e-02
<GCONST> 7.022961e+01
<STATE> 19
<MEAN> 39
 -3.991031e-01 -2.577749e+01 -1.393449e+01 2.417820e-01 1.626456e+00 -1.851566e+00 6.324786e+00 4.304790e-02 5.822774e-01 -1.074031e+01 5.016170e-01 4.826761e+00 3.310460e-01 -1.621233e-01 1.715938e-02 -1.728898e-01 2.108116e-01 2.777563e-01 3.318471e-02 5.523664e-01 3.852228e-01 -1.213231e-01 7.396362e-01 -1.861100e-01 -3.970079e-01 -1.913744e-02 -9.281884e-03 1.207236e-01 6.077042e-02 -7.120641e-02 -5.655937e-02 -7.048799e-02 -1.796361e-01 -6.965985e-02 -2.015546e-01 -3.588709e-01 -5.915143e-03 9.480349e-02 1.310668e-03
<VARIANCE> 39
 3.921386e+00 3.192611e+00 4.109049e+00 1.600454e+00 1.347241e+01 1.133596e+01 7.738627e+00 1.121472e+01 8.141392e+00 9.741616e+00 7.675140e+00 9.338531e+00 5.000000e-02 3.443889e-01 4.212127e-01 2.606086e-01 6.478102e-01 7.381358e-01 1.398314e+00 8.389869e-01 9.944743e-01 2.064155e+00 1.633813e+00 8.699168e-01 7.413183e-01 5.000000e-02 6.592990e-02 9.125818e-02 9.860136e-02 5.516417e-02 2.475619e-01 3.779318e-01 1.630629e-01 1.407826e-01 2.768914e-01 1.102170e-01 9.288805e-02 1.510569e-01 5.000000e-02
<GCONST> 5.792981e+01
<STATE> 20
<MEAN> 39
 -6.536070e-01 -2.464086e+01 -1.383939e+01 8.789154e-01 3.136757e+00 -4.200598e+00 5.475927e+00 1.229211e+00 -2.625628e+00 -1.155729e+01 1.271412e+00 4.568159e+00 2.926021e-01 -5.472353e-01 1.724084e-01 -2.128599e-01 8.558176e-02 3.256261e-01 -4.346372e-01 -1.980686e-01 3.092707e-01 1.425612e-01 4.903969e-01 6.238953e-01 2.413565e-01 -2.788284e-02 8.885086e-02 3.040717e-01 1.791023e-01 -7.659663e-03 -1.911552e-01 -1.128098e-01 -2.061429e-01 -3.365676e-01 7.507966e-02 8.085422e-02 4.661170e-02 -7.349072e-02 -3.066775e-04
<VARIANCE> 39
 1.611245e+00 2.410426e+00 5.897837e+00 3.046176e+00 1.006279e+01 4.780116e+00 1.415221e+01 7.988115e+00 1.342518e+01 1.401411e+01 1.473172e+01 1.452435e+01 5.000000e-02 2.094844e-01 1.575995e-01 6.581682e-01 2.180219e-01 7.429510e-01 4.865161e-01 1.032796e+00 2.693642e-01 1.659667e+00 1.057846e+00 5.698577e-01 7.539929e-01 5.000000e-02 5.000000e-02 5.000000e-02 1.248041e-01 5.000000e-02 1.166730e-01 5.573480e-02 3.021835e-01 2.475003e-01 3.604357e-01 2.533835e-01 2.975915e-01 2.023728e-01 5.000000e-02
<GCONST> 5.430849e+01
<STATE> 21
<MEAN> 39
 -1.634793e+00 -2.285595e+01 -1.373920e+01 1.079538e+00 2.693208e+00 -4.453597e+00 4.839692e+00 7.120876e-01 -4.175810e-01 -9.719133e+00 1.781354e+00 4.113841e+00 2.138894e-01 4.053047e-01 1.539430e+00 1.130885e+00 -2.336109e-01 -5.314665e-01 -6.491390e-01 -1.128516e+00 -1.439291e+00 -7.499617e-01 4.123048e-01 -5.197858e-01 -7.816701e-01 -1.298143e-02 2.127045e-01 2.105825e-01 4.269491e-01 6.984335e-02 1.677792e-01 1.506533e-01 -8.560698e-02 -2.968931e-01 -3.690287e-01 -2.660085e-01 -2.808507e-01 -4.837254e-02 7.448913e-03
<VARIANCE> 39
 1.306334e+00 5.339268e+00 6.646809e+00 8.974980e+00 5.295849e+00 3.515790e+00 7.002989e+00 4.923714e+00 9.894710e+00 1.008598e+01 7.862314e+00 6.508539e+00 5.000000e-02 2.583844e-01 6.021171e-01 5.252275e-01 3.810262e-01 4.595816e-01 9.819410e-01 7.889018e-01 7.173973e-01 9.578717e-01 5.887672e-01 4.423529e-01 8.349488e-01 5.000000e-02 1.090125e-01 1.957071e-01 1.314590e-01 8.880340e-02 9.253071e-02 5.000000e-02 1.152475e-01 1.779623e-01 2.485140e-01 2.013969e-01 7.201989e-02 1.476634e-01 5.000000e-02
<GCONST> 5.222170e+01
<STATE> 22
<MEAN> 39
 -4.122427e-01 -1.931418e+01 -9.333468e+00 1.237948e+00 3.589224e+00 -6.896844e+00 1.320452e+00 -2.895371e+00 -3.462654e+00 -8.957967e+00 -1.213208e+00 2.023979e+00 2.145976e-01 1.353633e-01 7.319271e-01 1.089836e+00 4.595904e-01 6.314625e-01 2.032610e-01 -5.270605e-02 -3.549559e-01 -5.810907e-01 -4.369510e-01 -2.904399e-01 -4.838416e-02 -6.732729e-03 -3.020278e-01 -2.746130e-01 -3.173606e-01 -7.713994e-02 3.960418e-03 2.072541e-01 3.596229e-01 4.421324e-01 2.985021e-01 -1.569101e-01 1.512507e-01 1.640385e-01 -7.760112e-03
<VARIANCE> 39
 5.210269e+00 1.064649e+01 6.416378e+00 5.727917e+00 5.696235e+00 1.155486e+01 7.387360e+00 7.342334e+00 1.491762e+01 6.906363e+00 8.095740e+00 5.472702e+00 5.000000e-02 4.116931e-01 9.640715e-01 7.092333e-01 3.744476e-01 1.736627e-01 7.890997e-01 6.757343e-01 6.026371e-01 6.747413e-01 8.732659e-01 8.692732e-01 2.543596e-01 5.000000e-02 9.742124e-02 2.255255e-01 8.812176e-02 1.290756e-01 1.715145e-01 2.249326e-01 1.442335e-01 1.532069e-01 9.675191e-02 1.221041e-01 1.293124e-01 6.884736e-02 5.000000e-02
<GCONST> 5.522103e+01
<STATE> 23
<MEAN> 39
 -8.630913e-01 -1.861333e+01 -8.681165e+00 1.331811e+00 3.033659e+00 -5.859215e+00 2.849354e+00 -2.836883e+00 -5.145697e+00 -1.205451e+01 -9.160182e-01 2.271841e+00 1.591634e-01 -1.293038e+00 7.020702e-01 1.828738e-01 -6.704568e-01 -3.419814e-01 1.977096e-01 3.353547e-01 5.939420e-01 7.094051e-01 3.656839e-01 6.880679e-02 1.103957e-01 -5.564921e-02 -3.498491e-01 2.797518e-01 -2.373854e-02 -2.890633e-01 -6.677871e-02 1.228776e-01 -1.379693e-02 2.339366e-01 3.116061e-01 5.206701e-01 2.220452e-01 -5.295768e-02 -1.286442e-02
<VARIANCE> 39
 3.580326e+00 2.830387e+00 2.326553e+00 5.357557e+00 9.581681e+00 1.233147e+01 6.249936e+00 6.316340e+00 6.221091e+00 3.905000e+00 2.756200e+00 1.934050e+00 5.000000e-02 4.142833e-01 1.090764e+00 3.914303e-01 4.463949e-01 9.778443e-01 1.418248e+00 5.573615e-01 8.421707e-01 4.054876e-01 1.491058e+00 7.929305e-01 3.978480e-01 5.000000e-02 9.204493e-02 1.005433e-01 1.136031e-01 6.905007e-02 1.760884e-01 2.043057e-01 1.253685e-01 1.549094e-01 5.783261e-02 1.224493e-01 2.456186e-01 1.119442e-01 5.000000e-02
<GCONST> 5.087422e+01
<STATE> 24
<MEAN> 39
 -5.913628e+00 -1.476778e+01 -7.366723e+00 -6.100094e-01 4.370201e+00 -3.004118e+00 3.903706e+00 5.868075e-01 -1.034595e+00 -7.916792e+00 5.980916e-01 2.401104e+00 -4.601127e-02 -9.903988e-01 1.354949e+00 4.689376e-01 -5.367707e-01 -4.650394e-02 4.066139e-01 -4.115682e-01 3.366368e-01 5.319650e-01 9.054347e-01 2.657353e-01 -1.567032e-01 -5.121720e-02 3.647835e-01 -1.932507e-01 -9.572539e-03 2.736678e-01 1.151809e-01 -8.962473e-02 -2.564541e-01 -4.635861e-01 -2.773459e-01 4.789958e-02 1.254945e-01 1.099877e-01 1.323892e-02
<VARIANCE> 39
 1.092280e+00 5.399583e+00 5.444108e+00 2.664382e+00 9.056466e+00 8.345150e+00 6.871490e+00 7.146636e+00 6.983873e+00 1.885663e+01 1.395455e+01 9.792567e+00 5.000000e-02 3.386942e-01 3.647074e-01 2.968427e-01 3.448801e-01 6.433731e-01 7.958050e-01 1.082455e+00 1.097339e+00 5.692390e-01 1.310799e+00 1.395302e+00 5.695572e-01 5.000000e-02 5.000000e-02 1.057831e-01 5.831698e-02 5.000000e-02 2.140519e-01 1.621693e-01 2.195978e-01 5.764991e-02 1.082708e-01 2.641489e-01 3.220074e-01 1.137914e-01 5.000000e-02
<GCONST> 5.409524e+01
<TRANSP> 25
 0.000000e+00 1.000000e+00 0.000000e+00 0.000000e+00 0.000000e+00 0.000000e+00 0.000000e+00 0.000000e+00 0.000000e+00 0.000000e+00 0.000000e+00 0.000000e+00 0.000000e+00 0.000000e+00 0.000000e+00 0.000000e+00 0.000000e+00 0.000000e+00 0.000000e+00 0.000000e+00 0.000000e+00 0.000000e+00 0.000000e+00 0.000000e+00 0.000000e+00
 0.000000e+00 6.666643e-01 3.333357e-01 0.000000e+00 0.000000e+00 0.000000e+00 0.000000e+00 0.000000e+00 0.000000e+00 0.000000e+00 0.000000e+00 0.000000e+00 0.000000e+00 0.000000e+00 0.000000e+00 0.000000e+00 0.000000e+00 0.000000e+00 0.000000e+00 0.000000e+00 0.000000e+00 0.000000e+00 0.000000e+00 0.000000e+00 0.000000e+00
 0.000000e+00 0.000000e+00 5.454572e-01 4.545427e-01 0.000000e+00 0.000000e+00 0.000000e+00 0.000000e+00 0.000000e+00 0.000000e+00 0.000000e+00 0.000000e+00 0.000000e+00 0.000000e+00 0.000000e+00 0.000000e+00 0.000000e+00 0.000000e+00 0.000000e+00 0.000000e+00 0.000000e+00 0.000000e+00 0.000000e+00 0.000000e+00 0.000000e+00
 0.000000e+00 0.000000e+00 0.000000e+00 5.833325e-01 4.166675e-01 0.000000e+00 0.000000e+00 0.000000e+00 0.000000e+00 0.000000e+00 0.000000e+00 0.000000e+00 0.000000e+00 0.000000e+00 0.000000e+00 0.000000e+00 0.000000e+00 0.000000e+00 0.000000e+00 0.000000e+00 0.000000e+00 0.000000e+00 0.000000e+00 0.000000e+00 0.000000e+00
 0.000000e+00 0.000000e+00 0.000000e+00 0.000000e+00 6.428552e-01 3.571448e-01 0.000000e+00 0.000000e+00 0.000000e+00 0.000000e+00 0.000000e+00 0.000000e+00 0.000000e+00 0.000000e+00 0.000000e+00 0.000000e+00 0.000000e+00 0.000000e+00 0.000000e+00 0.000000e+00 0.000000e+00 0.000000e+00 0.000000e+00 0.000000e+00 0.000000e+00
 0.000000e+00 0.000000e+00 0.000000e+00 0.000000e+00 0.000000e+00 5.454573e-01 4.545427e-01 0.000000e+00 0.000000e+00 0.000000e+00 0.000000e+00 0.000000e+00 0.000000e+00 0.000000e+00 0.000000e+00 0.000000e+00 0.000000e+00 0.000000e+00 0.000000e+00 0.000000e+00 0.000000e+00 0.000000e+00 0.000000e+00 0.000000e+00 0.000000e+00
 0.000000e+00 0.000000e+00 0.000000e+00 0.000000e+00 0.000000e+00 0.000000e+00 6.647547e-01 3.352453e-01 0.000000e+00 0.000000e+00 0.000000e+00 0.000000e+00 0.000000e+00 0.000000e+00 0.000000e+00 0.000000e+00 0.000000e+00 0.000000e+00 0.000000e+00 0.000000e+00 0.000000e+00 0.000000e+00 0.000000e+00 0.000000e+00 0.000000e+00
 0.000000e+00 0.000000e+00 0.000000e+00 0.000000e+00 0.000000e+00 0.000000e+00 0.000000e+00 6.698810e-01 3.301190e-01 0.000000e+00 0.000000e+00 0.000000e+00 0.000000e+00 0.000000e+00 0.000000e+00 0.000000e+00 0.000000e+00 0.000000e+00 0.000000e+00 0.000000e+00 0.000000e+00 0.000000e+00 0.000000e+00 0.000000e+00 0.000000e+00
 0.000000e+00 0.000000e+00 0.000000e+00 0.000000e+00 0.000000e+00 0.000000e+00 0.000000e+00 0.000000e+00 5.429810e-01 4.570191e-01 0.000000e+00 0.000000e+00 0.000000e+00 0.000000e+00 0.000000e+00 0.000000e+00 0.000000e+00 0.000000e+00 0.000000e+00 0.000000e+00 0.000000e+00 0.000000e+00 0.000000e+00 0.000000e+00 0.000000e+00
 0.000000e+00 0.000000e+00 0.000000e+00 0.000000e+00 0.000000e+00 0.000000e+00 0.000000e+00 0.000000e+00 0.000000e+00 5.454912e-01 4.545089e-01 0.000000e+00 0.000000e+00 0.000000e+00 0.000000e+00 0.000000e+00 0.000000e+00 0.000000e+00 0.000000e+00 0.000000e+00 0.000000e+00 0.000000e+00 0.000000e+00 0.000000e+00 0.000000e+00
 0.000000e+00 0.000000e+00 0.000000e+00 0.000000e+00 0.000000e+00 0.000000e+00 0.000000e+00 0.000000e+00 0.000000e+00 0.000000e+00 6.427611e-01 3.572389e-01 0.000000e+00 0.000000e+00 0.000000e+00 0.000000e+00 0.000000e+00 0.000000e+00 0.000000e+00 0.000000e+00 0.000000e+00 0.000000e+00 0.000000e+00 0.000000e+00 0.000000e+00
 0.000000e+00 0.000000e+00 0.000000e+00 0.000000e+00 0.000000e+00 0.000000e+00 0.000000e+00 0.000000e+00 0.000000e+00 0.000000e+00 0.000000e+00 6.155760e-01 3.844240e-01 0.000000e+00 0.000000e+00 0.000000e+00 0.000000e+00 0.000000e+00 0.000000e+00 0.000000e+00 0.000000e+00 0.000000e+00 0.000000e+00 0.000000e+00 0.000000e+00
 0.000000e+00 0.000000e+00 0.000000e+00 0.000000e+00 0.000000e+00 0.000000e+00 0.000000e+00 0.000000e+00 0.000000e+00 0.000000e+00 0.000000e+00 0.000000e+00 6.956070e-01 3.043930e-01 0.000000e+00 0.000000e+00 0.000000e+00 0.000000e+00 0.000000e+00 0.000000e+00 0.000000e+00 0.000000e+00 0.000000e+00 0.000000e+00 0.000000e+00
 0.000000e+00 0.000000e+00 0.000000e+00 0.000000e+00 0.000000e+00 0.000000e+00 0.000000e+00 0.000000e+00 0.000000e+00 0.000000e+00 0.000000e+00 0.000000e+00 0.000000e+00 6.023442e-01 3.976558e-01 0.000000e+00 0.000000e+00 0.000000e+00 0.000000e+00 0.000000e+00 0.000000e+00 0.000000e+00 0.000000e+00 0.000000e+00 0.000000e+00
 0.000000e+00 0.000000e+00 0.000000e+00 0.000000e+00 0.000000e+00 0.000000e+00 0.000000e+00 0.000000e+00 0.000000e+00 0.000000e+00 0.000000e+00 0.000000e+00 0.000000e+00 0.000000e+00 6.665694e-01 3.334306e-01 0.000000e+00 0.000000e+00 0.000000e+00 0.000000e+00 0.000000e+00 0.000000e+00 0.000000e+00 0.000000e+00 0.000000e+00
 0.000000e+00 0.000000e+00 0.000000e+00 0.000000e+00 0.000000e+00 0.000000e+00 0.000000e+00 0.000000e+00 0.000000e+00 0.000000e+00 0.000000e+00 0.000000e+00 0.000000e+00 0.000000e+00 0.000000e+00 5.000024e-01 4.999975e-01 0.000000e+00 0.000000e+00 0.000000e+00 0.000000e+00 0.000000e+00 0.000000e+00 0.000000e+00 0.000000e+00
 0.000000e+00 0.000000e+00 0.000000e+00 0.000000e+00 0.000000e+00 0.000000e+00 0.000000e+00 0.000000e+00 0.000000e+00 0.000000e+00 0.000000e+00 0.000000e+00 0.000000e+00 0.000000e+00 0.000000e+00 0.000000e+00 5.004657e-01 4.995343e-01 0.000000e+00 0.000000e+00 0.000000e+00 0.000000e+00 0.000000e+00 0.000000e+00 0.000000e+00
 0.000000e+00 0.000000e+00 0.000000e+00 0.000000e+00 0.000000e+00 0.000000e+00 0.000000e+00 0.000000e+00 0.000000e+00 0.000000e+00 0.000000e+00 0.000000e+00 0.000000e+00 0.000000e+00 0.000000e+00 0.000000e+00 0.000000e+00 5.829889e-01 4.170111e-01 0.000000e+00 0.000000e+00 0.000000e+00 0.000000e+00 0.000000e+00 0.000000e+00
 0.000000e+00 0.000000e+00 0.000000e+00 0.000000e+00 0.000000e+00 0.000000e+00 0.000000e+00 0.000000e+00 0.000000e+00 0.000000e+00 0.000000e+00 0.000000e+00 0.000000e+00 0.000000e+00 0.000000e+00 0.000000e+00 0.000000e+00 0.000000e+00 6.875919e-01 3.124081e-01 0.000000e+00 0.000000e+00 0.000000e+00 0.000000e+00 0.000000e+00
 0.000000e+00 0.000000e+00 0.000000e+00 0.000000e+00 0.000000e+00 0.000000e+00 0.000000e+00 0.000000e+00 0.000000e+00 0.000000e+00 0.000000e+00 0.000000e+00 0.000000e+00 0.000000e+00 0.000000e+00 0.000000e+00 0.000000e+00 0.000000e+00 0.000000e+00 5.831683e-01 4.168318e-01 0.000000e+00 0.000000e+00 0.000000e+00 0.000000e+00
 0.000000e+00 0.000000e+00 0.000000e+00 0.000000e+00 0.000000e+00 0.000000e+00 0.000000e+00 0.000000e+00 0.000000e+00 0.000000e+00 0.000000e+00 0.000000e+00 0.000000e+00 0.000000e+00 0.000000e+00 0.000000e+00 0.000000e+00 0.000000e+00 0.000000e+00 0.000000e+00 5.455831e-01 4.544169e-01 0.000000e+00 0.000000e+00 0.000000e+00
 0.000000e+00 0.000000e+00 0.000000e+00 0.000000e+00 0.000000e+00 0.000000e+00 0.000000e+00 0.000000e+00 0.000000e+00 0.000000e+00 0.000000e+00 0.000000e+00 0.000000e+00 0.000000e+00 0.000000e+00 0.000000e+00 0.000000e+00 0.000000e+00 0.000000e+00 0.000000e+00 0.000000e+00 6.426373e-01 3.573628e-01 0.000000e+00 0.000000e+00
 0.000000e+00 0.000000e+00 0.000000e+00 0.000000e+00 0.000000e+00 0.000000e+00 0.000000e+00 0.000000e+00 0.000000e+00 0.000000e+00 0.000000e+00 0.000000e+00 0.000000e+00 0.000000e+00 0.000000e+00 0.000000e+00 0.000000e+00 0.000000e+00 0.000000e+00 0.000000e+00 0.000000e+00 0.000000e+00 6.156365e-01 3.843635e-01 0.000000e+00
 0.000000e+00 0.000000e+00 0.000000e+00 0.000000e+00 0.000000e+00 0.000000e+00 0.000000e+00 0.000000e+00 0.000000e+00 0.000000e+00 0.000000e+00 0.000000e+00 0.000000e+00 0.000000e+00 0.000000e+00 0.000000e+00 0.000000e+00 0.000000e+00 0.000000e+00 0.000000e+00 0.000000e+00 0.000000e+00 0.000000e+00 5.832352e-01 4.167649e-01
 0.000000e+00 0.000000e+00 0.000000e+00 0.000000e+00 0.000000e+00 0.000000e+00 0.000000e+00 0.000000e+00 0.000000e+00 0.000000e+00 0.000000e+00 0.000000e+00 0.000000e+00 0.000000e+00 0.000000e+00 0.000000e+00 0.000000e+00 0.000000e+00 0.000000e+00 0.000000e+00 0.000000e+00 0.000000e+00 0.000000e+00 0.000000e+00 0.000000e+00
<ENDHMM>
