~o
<STREAMINFO> 1 39
<VECSIZE> 39<NULLD><MFCC_E_D_A><DIAGC>
~h "Bay"
<BEGINHMM>
<NUMSTATES> 5
<STATE> 2
<MEAN> 39
 -8.076609e+00 -1.821194e+01 -1.561889e+01 -3.731506e+00 2.788204e+00 -5.832843e+00 7.146767e+00 -6.222774e+00 2.457067e+00 -8.057140e+00 -2.651386e+00 -2.686143e+00 6.993144e-01 -3.897490e-01 -5.387282e-01 -4.414482e-01 -2.414045e-01 -2.865571e-01 3.947958e-02 6.405489e-01 -1.541047e-01 -2.121037e-02 -4.194413e-01 -6.630260e-02 -1.139117e-01 4.657778e-02 -1.231059e-02 2.343235e-02 6.730805e-02 -8.699843e-02 -1.397502e-01 -1.669172e-02 7.455181e-03 7.110889e-02 6.562869e-02 9.236877e-02 -4.418099e-03 -8.969346e-02 -6.307416e-04
<VARIANCE> 39
 5.359110e+01 4.680955e+01 6.618597e+01 1.441690e+01 3.570360e+01 3.725169e+01 5.084010e+01 2.382318e+01 2.412168e+01 2.776896e+01 2.149187e+01 2.507854e+01 1.503956e-01 4.132830e+00 2.422429e+00 4.358022e+00 2.040629e+00 4.006566e+00 2.232582e+00 2.648900e+00 2.191746e+00 2.028175e+00 2.045556e+00 2.161459e+00 3.156082e+00 5.000000e-02 7.348489e-01 3.806971e-01 4.947054e-01 3.994445e-01 5.027437e-01 4.628164e-01 5.276608e-01 3.154252e-01 4.538722e-01 4.632565e-01 3.221139e-01 5.406500e-01 5.000000e-02
<GCONST> 1.078967e+02
<STATE> 3
<MEAN> 39
 -1.168783e+01 -1.627538e+01 -8.361262e+00 -1.356059e+01 -1.510379e+01 -7.944345e+00 1.054803e+01 -2.815371e+00 6.095636e+00 -1.600434e+00 -1.294062e+00 -7.294589e+00 7.833355e-01 6.279212e-01 2.483231e-01 6.334857e-01 -5.549647e-01 -5.961023e-01 -3.244526e-01 -8.360432e-01 -1.176824e-01 5.105017e-02 5.047551e-01 -5.057047e-01 5.463593e-02 -2.119979e-02 1.174968e-01 -1.429947e-01 -1.588786e-02 2.176395e-01 2.383517e-01 1.013107e-01 -5.915220e-02 -1.602530e-01 -1.252676e-01 -2.434249e-01 -2.013482e-02 1.784452e-01 -3.247556e-03
<VARIANCE> 39
 1.002191e+01 8.571172e+00 9.852825e+00 1.429198e+01 2.365549e+01 2.892068e+01 3.542087e+01 1.661481e+01 1.754241e+01 1.906541e+01 1.319026e+01 1.317976e+01 5.000000e-02 3.830854e-01 7.550870e-01 7.949603e-01 1.089592e+00 3.174915e+00 1.431193e+00 8.315586e-01 1.850696e+00 2.523762e+00 2.675059e+00 1.192004e+00 1.807023e+00 5.000000e-02 7.412567e-02 7.909162e-02 1.422644e-01 1.832632e-01 2.928610e-01 3.455319e-01 2.344756e-01 3.947418e-01 3.689919e-01 1.800802e-01 2.453242e-01 2.989918e-01 5.000000e-02
<GCONST> 8.042437e+01
<STATE> 4
<MEAN> 39
 -2.554563e+00 -1.831723e+01 -4.180385e+00 -5.229702e+00 -7.363678e+00 -5.425496e+00 5.140020e+00 -4.012122e+00 2.311881e+00 -3.230505e+00 -3.283568e-02 -1.516494e+00 2.338054e-01 2.783905e-02 3.049501e-01 4.499643e-02 6.840875e-01 6.979330e-01 2.668451e-01 -6.817587e-02 1.220096e-01 -7.030197e-03 1.596510e-01 4.912591e-01 1.295530e-01 -3.060538e-02 -9.687319e-02 8.322885e-02 -6.739847e-02 -6.598333e-02 9.099123e-03 -4.255201e-02 2.513938e-02 9.150362e-02 4.874746e-02 3.275593e-02 3.574620e-03 -3.484067e-02 2.024410e-03
<VARIANCE> 39
 7.513362e+00 1.875472e+01 1.173276e+01 1.681530e+01 2.500548e+01 1.490443e+01 1.091116e+01 1.574500e+01 1.483357e+01 1.480789e+01 2.324700e+01 8.622805e+00 5.000000e-02 1.015805e+00 1.549934e+00 1.332970e+00 1.244626e+00 1.015879e+00 2.199820e+00 1.504062e+00 2.010912e+00 1.448640e+00 1.433429e+00 1.505656e+00 1.085917e+00 5.000000e-02 9.688269e-02 2.116296e-01 2.464571e-01 1.779888e-01 1.796800e-01 4.036363e-01 2.857093e-01 4.063964e-01 3.051257e-01 2.708071e-01 3.099485e-01 2.415565e-01 5.000000e-02
<GCONST> 8.189970e+01
<TRANSP> 5
 0.000000e+00 1.000000e+00 0.000000e+00 0.000000e+00 0.000000e+00
 0.000000e+00 9.523713e-01 4.762872e-02 0.000000e+00 0.000000e+00
 0.000000e+00 0.000000e+00 9.332974e-01 6.670264e-02 0.000000e+00
 0.000000e+00 0.000000e+00 0.000000e+00 9.462721e-01 5.372791e-02
 0.000000e+00 0.000000e+00 0.000000e+00 0.000000e+00 0.000000e+00
<ENDHMM>
