~o
<STREAMINFO> 1 39
<VECSIZE> 39<NULLD><MFCC_E_D_A><DIAGC>
~h "Gio*"
<BEGINHMM>
<NUMSTATES> 5
<STATE> 2
<MEAN> 39
 -2.911503e+00 -8.273657e+00 -2.611849e+00 -1.471594e+01 -5.814030e+00 -1.017143e+01 -1.762278e+00 -3.238638e+00 -2.941889e+00 -3.182851e+00 -7.652139e-01 -3.060783e+00 5.001247e-01 1.496909e-01 -3.961162e-01 -6.351078e-01 -6.199837e-01 -1.068970e+00 -8.246446e-01 3.611627e-01 3.688414e-01 -1.209272e-01 2.373185e-01 -4.151670e-01 -3.447760e-01 6.137516e-02 1.374991e-02 -6.757912e-02 -1.348961e-01 1.380933e-01 3.778911e-02 3.026352e-02 2.451857e-02 1.815119e-01 9.619218e-02 -6.772190e-02 -1.452257e-01 -7.204655e-03 1.117768e-03
<VARIANCE> 39
 2.572689e+01 2.468383e+01 3.093035e+01 7.576283e+01 7.911969e+01 7.388211e+01 5.296869e+01 2.230286e+01 4.531649e+01 4.964859e+01 3.444621e+01 2.578028e+01 1.283294e-01 2.770303e+00 2.645749e+00 2.987702e+00 7.531260e+00 4.706345e+00 3.336929e+00 6.536189e+00 4.545244e+00 3.838893e+00 5.879183e+00 5.518411e+00 3.142338e+00 5.000000e-02 4.941539e-01 3.286710e-01 4.287316e-01 1.005025e+00 1.058501e+00 6.959386e-01 1.095102e+00 7.101666e-01 6.702669e-01 1.057509e+00 1.069729e+00 6.555454e-01 5.000000e-02
<GCONST> 1.214061e+02
<STATE> 3
<MEAN> 39
 -2.642837e+00 -1.727812e+01 -2.078967e+01 -8.209359e+00 -8.204200e+00 -7.374548e+00 -3.031752e+00 7.471930e+00 6.824763e+00 -9.163096e-01 -1.076868e+01 -4.525917e+00 9.083474e-01 3.670161e-01 1.021500e-02 -5.050891e-01 2.791231e-01 4.494380e-01 4.762120e-01 -6.701688e-01 1.589097e-01 2.867548e-01 3.147539e-02 -3.409155e-01 1.203010e-02 -8.692398e-03 3.706335e-02 4.215528e-02 1.520162e-01 -6.931178e-02 3.785585e-03 -4.877407e-02 3.990341e-02 -1.735986e-01 -6.986833e-02 2.377147e-02 1.242700e-01 3.206889e-02 -2.905243e-03
<VARIANCE> 39
 7.834584e+00 6.936305e+00 2.252855e+01 8.480842e+00 2.863004e+01 4.747762e+01 6.104841e+01 1.260250e+01 2.275576e+01 1.717203e+01 1.294700e+01 2.441151e+01 5.000000e-02 2.208847e-01 4.493664e-01 1.507959e+00 7.988668e-01 1.351254e+00 1.662859e+00 1.088583e+00 1.873665e+00 1.804044e+00 1.622771e+00 1.787695e+00 9.292865e-01 5.000000e-02 5.000000e-02 8.443902e-02 1.508914e-01 1.508193e-01 1.977132e-01 2.897987e-01 2.912438e-01 3.787075e-01 2.985464e-01 2.767904e-01 2.333034e-01 1.515934e-01 5.000000e-02
<GCONST> 7.835275e+01
<STATE> 4
<MEAN> 39
 1.020963e+00 -1.628473e+01 -1.307202e+01 -4.867857e+00 -8.457025e-01 -7.787363e+00 3.021792e-01 3.841477e+00 6.165743e+00 -3.332547e+00 -5.731565e+00 -4.173799e+00 3.448372e-01 -4.069676e-01 1.889373e-01 7.544901e-01 5.483424e-02 2.310851e-01 3.264473e-03 3.903562e-01 -2.662235e-01 2.556615e-02 -2.071701e-01 4.561568e-01 2.958215e-02 -3.436585e-02 -5.404720e-02 3.689131e-02 -1.067178e-02 -1.677954e-02 -5.077396e-02 2.769461e-02 -8.098034e-02 -1.174458e-02 -1.796842e-02 4.069634e-02 6.464153e-03 -1.630020e-02 1.211172e-03
<VARIANCE> 39
 1.455214e+01 1.134763e+01 3.071615e+01 9.637531e+00 1.166953e+01 2.193005e+01 1.323418e+01 1.344833e+01 1.430460e+01 1.671253e+01 1.864641e+01 1.943328e+01 5.319652e-02 7.919182e-01 8.785305e-01 1.073171e+00 1.253043e+00 1.551348e+00 2.132802e+00 1.643527e+00 1.128516e+00 1.708163e+00 1.643639e+00 1.252332e+00 1.740705e+00 5.000000e-02 1.397225e-01 1.351332e-01 2.154996e-01 2.999655e-01 3.061368e-01 3.257684e-01 2.468394e-01 2.143235e-01 3.865127e-01 3.223126e-01 2.795884e-01 3.939912e-01 5.000000e-02
<GCONST> 8.296265e+01
<TRANSP> 5
 0.000000e+00 1.000000e+00 0.000000e+00 0.000000e+00 0.000000e+00
 0.000000e+00 9.360000e-01 6.400004e-02 0.000000e+00 0.000000e+00
 0.000000e+00 0.000000e+00 9.542604e-01 4.573963e-02 0.000000e+00
 0.000000e+00 0.000000e+00 0.000000e+00 9.530782e-01 4.692182e-02
 0.000000e+00 0.000000e+00 0.000000e+00 0.000000e+00 0.000000e+00
<ENDHMM>
