~o
<STREAMINFO> 1 39
<VECSIZE> 39<NULLD><MFCC_E_D_A><DIAGC>
~h "Tai"
<BEGINHMM>
<NUMSTATES> 37
<STATE> 2
<MEAN> 39
 -5.327299e+00 -8.300610e+00 -5.745305e-02 -6.264161e-01 2.816612e+00 -3.080211e+00 1.535356e+00 -1.862165e+00 7.367930e-01 -2.167874e+00 3.323643e+00 -2.595452e+00 -1.367449e-02 -1.007016e+00 8.350920e-01 -1.013232e+00 7.884066e-01 -4.305781e-01 1.616374e-01 -6.379154e-01 2.150439e-01 -3.062360e-01 -5.733638e-01 2.270660e-01 8.846071e-01 -6.133427e-03 -3.204137e-01 7.006763e-01 -6.610821e-01 9.309778e-02 -1.424781e-01 -1.011926e-01 -4.363466e-02 9.106720e-02 -2.080667e-01 -6.499772e-03 -1.221765e-01 -1.055701e-01 1.689778e-02
<VARIANCE> 39
 3.354151e+00 2.344378e+00 3.746195e+00 6.668382e+00 3.070140e+00 6.821596e+00 1.487286e+01 5.113031e+00 8.488853e+00 5.129128e+00 1.028525e+01 8.247955e+00 5.000000e-02 2.203915e+00 1.599085e+00 1.758208e+00 1.021179e+00 1.129892e+00 2.075658e+00 5.572378e-01 1.411143e+00 5.354268e-01 2.391156e-01 7.983292e-01 7.264537e-01 5.000000e-02 2.122264e-01 2.644183e-01 5.323460e-01 2.342967e-01 4.489650e-01 9.764332e-02 1.375391e-01 2.708766e-01 8.088605e-02 8.345407e-02 1.583383e-01 1.813377e-01 5.000000e-02
<GCONST> 6.348675e+01
<STATE> 3
<MEAN> 39
 -8.411427e+00 -3.986671e+00 -4.406666e+00 1.852265e+00 -2.944907e-01 -2.457120e+00 -2.379741e-01 4.186367e-01 -3.041934e-01 -3.957924e+00 2.064244e+00 -8.392898e-01 -1.013573e-02 -7.841905e-01 1.509405e+00 -1.205292e+00 -7.645662e-04 -3.098671e-01 -4.295314e-01 -8.712587e-02 -3.505351e-01 -2.513357e-01 -2.334197e-01 -1.325556e-01 -4.223722e-01 2.977488e-02 1.685454e-02 -1.853817e-01 -1.827341e-02 -3.355279e-01 2.938877e-01 -3.434303e-01 3.760280e-01 -3.854057e-02 2.202054e-01 7.543483e-02 1.284555e-02 -2.557899e-01 1.570284e-02
<VARIANCE> 39
 3.112971e+01 4.161421e+01 2.370126e+01 1.283887e+01 1.596518e+01 1.430425e+01 1.185592e+01 1.027699e+01 6.363147e+00 6.445337e+00 6.139786e+00 8.013362e+00 5.000000e-02 2.685991e+00 4.672250e+00 5.546662e+00 1.027472e+00 4.456755e+00 3.714644e-01 1.202805e+00 6.942184e-01 7.445417e-01 2.972356e-01 6.865457e-01 1.018862e+00 5.000000e-02 8.245839e-01 6.293000e-01 8.790231e-01 2.969995e-01 4.328185e-01 3.855118e-01 1.061324e-01 3.098271e-01 1.847786e-01 1.444449e-01 2.597525e-01 1.541091e-01 5.000000e-02
<GCONST> 8.210027e+01
<STATE> 4
<MEAN> 39
 -7.915504e+00 -2.172399e+00 -5.233175e+00 7.091418e-01 -7.787784e-01 -4.824018e+00 4.721365e-01 -3.336739e+00 -8.606436e-01 -2.073531e+00 3.195903e+00 -3.858349e+00 6.134286e-02 -1.147951e+00 2.381017e-01 -1.745462e+00 -8.807797e-01 1.261611e+00 -1.819701e+00 1.088997e+00 3.906716e-01 1.271982e+00 -4.944068e-01 2.321838e-01 -2.923535e-01 8.350679e-02 7.254837e-02 -1.277955e+00 -4.670255e-01 -6.757140e-01 6.188973e-01 -1.920295e-01 6.856532e-01 5.335619e-01 4.823616e-01 -6.300739e-01 -5.385816e-01 2.399542e-01 3.921370e-02
<VARIANCE> 39
 5.146718e+00 4.338214e+01 5.211518e+01 6.576423e+00 2.858378e+01 7.349179e+00 1.882000e+01 1.846733e+01 1.473890e+01 1.815233e+01 1.445363e+01 1.190991e+01 5.000000e-02 5.218299e+00 4.550603e+00 7.886898e+00 3.106368e+00 1.954385e+00 3.848795e+00 8.933604e-01 3.145449e+00 1.822387e+00 3.043771e+00 1.677768e+00 5.755166e-01 5.000000e-02 5.126619e-01 1.526407e+00 2.340576e+00 2.669183e-01 6.544072e-01 3.456758e-01 4.938601e-01 4.701203e-01 1.846955e-01 2.312092e-01 3.172853e-01 2.399634e-01 5.000000e-02
<GCONST> 9.757574e+01
<STATE> 5
<MEAN> 39
 -1.660035e+01 1.422063e+00 -1.104754e+01 -1.001034e+00 6.432821e+00 -7.120111e+00 3.734321e+00 1.395034e+00 4.102368e+00 -5.682267e+00 4.005691e+00 -1.492296e+00 3.223001e-01 -1.796276e-01 -4.079076e+00 -2.491606e+00 -3.062050e+00 1.536418e+00 -1.165489e+00 2.492563e+00 2.261157e+00 1.182358e+00 -2.364666e+00 -2.686466e+00 1.093173e+00 1.653090e-01 9.667160e-01 -2.052778e+00 -1.644180e-01 -4.577187e-01 -3.620057e-01 2.406524e-01 4.147042e-02 -4.917442e-01 -3.453780e-01 -2.144751e-01 -7.605845e-01 3.500620e-01 2.379140e-02
<VARIANCE> 39
 4.452763e+01 2.937225e+01 2.902733e+01 6.312529e+01 3.617562e+01 2.808821e+01 7.797393e+00 3.919682e+01 1.429504e+01 1.715911e+01 4.504088e+00 4.202555e+00 5.000000e-02 1.964099e+00 5.394525e+00 1.326678e+01 1.734010e+00 3.394910e+00 2.787119e+00 2.283123e+00 1.301784e+00 1.620865e+00 1.055112e+00 1.848070e+00 6.844214e-01 5.000000e-02 8.185010e-01 8.366075e-01 8.711103e-01 1.282944e+00 6.211352e-01 6.246645e-01 6.102536e-02 7.506586e-01 3.675275e-01 3.228372e-01 4.538926e-01 5.382087e-02 5.000000e-02
<GCONST> 9.793195e+01
<STATE> 6
<MEAN> 39
 -9.268538e+00 -1.052178e+01 -1.336626e+01 -1.007893e+01 4.082661e+00 -1.250955e+01 8.361158e+00 3.725623e+00 3.593448e+00 -8.573503e+00 -4.914999e+00 -2.258960e+00 6.577983e-01 1.131262e+00 -5.766596e+00 -3.195933e+00 -2.730242e+00 2.627161e-01 -7.749486e-01 2.214627e+00 -3.434367e-01 5.126066e-01 -1.875600e+00 -2.635530e+00 6.232191e-01 2.031932e-01 8.661809e-02 -3.321201e-01 1.550332e-01 1.141170e+00 9.141167e-02 1.011894e+00 -6.116716e-01 -1.372194e+00 -5.552197e-01 5.915820e-01 8.096850e-01 -5.582239e-02 -1.797407e-02
<VARIANCE> 39
 1.470768e+01 1.665449e+01 3.785414e+01 1.742136e+01 1.441456e+00 3.767977e+01 9.032012e+00 2.607587e+00 7.984869e+00 1.652407e+01 2.113598e+01 4.192537e+00 5.000000e-02 1.222754e+00 1.436848e+00 2.451470e+00 5.419333e+00 1.719334e+00 1.407356e+00 1.368611e+00 1.578725e+00 1.628202e+00 2.010927e-01 1.454315e+00 2.015005e-01 5.000000e-02 3.509977e-01 1.192369e+00 1.984095e+00 4.192221e-01 2.405823e-01 4.019037e-01 7.462320e-02 6.393365e-02 3.319947e-01 2.270155e-01 6.805919e-01 7.563928e-02 5.000000e-02
<GCONST> 7.937484e+01
<STATE> 7
<MEAN> 39
 -8.589564e+00 -2.075351e+01 -1.992485e+01 -9.186686e+00 3.576378e+00 -1.018271e+01 1.094582e+01 1.428511e+00 3.925378e+00 -1.330169e+01 -5.762691e+00 -2.357470e-01 8.620825e-01 5.233248e-01 -5.492141e+00 -2.103418e+00 -9.144494e-03 1.795916e+00 1.215030e+00 7.834433e-01 -2.259741e+00 -7.113565e-01 -6.511949e-01 -7.833166e-01 6.857215e-01 1.279182e-01 -3.834541e-01 9.832422e-01 1.336633e+00 1.014582e+00 7.738630e-01 6.940371e-01 -9.058797e-01 -8.327311e-01 -3.409673e-01 1.271859e+00 1.083867e+00 -3.868608e-01 -5.530081e-02
<VARIANCE> 39
 9.070567e+00 9.209914e+00 9.491956e+00 1.606255e+01 1.647792e+01 1.899719e+01 1.870272e+01 7.590152e+00 1.903623e+01 1.689228e+01 1.449993e+01 6.282291e+00 5.000000e-02 1.793995e+00 2.744859e+00 2.262284e+00 1.372882e+00 3.715760e+00 1.107045e+00 8.098632e-01 1.151435e+00 7.713244e-01 1.893869e+00 1.256588e+00 2.066289e-01 5.000000e-02 1.520325e-01 2.766773e-01 4.523103e-01 6.676712e-01 9.864418e-02 7.831553e-02 3.337297e-01 1.257858e-01 3.562315e-01 1.357254e-01 2.568536e-01 5.213036e-02 5.000000e-02
<GCONST> 7.648923e+01
<STATE> 8
<MEAN> 39
 -1.143681e+01 -2.326693e+01 -2.004407e+01 -7.189031e+00 8.965783e+00 -4.787003e+00 7.795955e+00 -4.131328e+00 3.934354e+00 -9.421634e+00 -2.244216e+00 7.322607e-01 9.414173e-01 -6.562890e-01 -1.954801e+00 -8.172116e-02 1.290811e+00 2.705512e+00 1.379962e+00 -4.776005e-01 -2.154509e+00 -4.396757e-01 1.417675e+00 1.289358e+00 -5.840791e-01 4.030589e-02 -3.054259e-01 1.345353e+00 9.625142e-01 2.138848e-01 1.504573e-01 -1.850745e-01 -4.583251e-01 1.097814e-01 7.859468e-02 5.618969e-01 1.918077e-01 -6.254466e-01 -3.664187e-02
<VARIANCE> 39
 1.533043e+01 5.443617e+00 7.842431e+00 1.227480e+01 2.117537e+01 1.920078e+01 1.966755e+01 7.058589e+00 1.741692e+01 6.442595e+00 1.003648e+01 6.213041e+00 5.000000e-02 5.480659e-01 1.763429e+00 1.758873e+00 8.343101e-01 1.533773e+00 3.523868e-01 6.922983e-01 7.453696e-01 1.292764e+00 1.433144e+00 1.062384e+00 9.151252e-01 5.000000e-02 2.094855e-01 3.355061e-01 5.933524e-02 3.474493e-01 2.223571e-01 7.784505e-02 2.071940e-01 1.271385e-01 2.122155e-01 1.699919e-01 4.563000e-01 6.534377e-02 5.000000e-02
<GCONST> 7.007179e+01
<STATE> 9
<MEAN> 39
 -1.061272e+01 -2.485976e+01 -1.757007e+01 -6.834136e+00 1.594329e+01 -8.130533e+00 7.904966e+00 -6.541579e+00 2.240146e+00 -8.034429e+00 -2.634272e+00 -2.135418e+00 9.416813e-01 -4.734083e-01 -4.877418e-02 6.718940e-01 1.445896e-01 1.489767e+00 1.998034e-01 -4.365982e-01 -1.134422e+00 5.614114e-01 1.178695e+00 -1.059002e-01 -1.474187e+00 -1.691655e-03 1.042360e-01 6.869509e-01 -3.707785e-01 -1.324224e-01 -7.425787e-01 -1.325165e-01 1.532635e-01 4.991402e-01 3.163580e-01 -6.686520e-02 -2.289968e-01 -3.679306e-02 -1.307600e-02
<VARIANCE> 39
 7.960995e+00 6.918301e+00 6.515343e+00 2.773196e+00 3.230058e+01 3.836842e+01 1.370441e+01 4.870360e+00 1.313709e+01 5.890325e+00 2.905151e+00 9.712414e+00 5.000000e-02 4.549157e-01 1.478784e+00 5.682166e-01 9.985427e-01 9.110003e-01 1.069232e+00 9.305086e-01 1.441517e+00 7.756713e-01 5.815932e-01 4.858717e-01 6.546403e-01 5.000000e-02 7.044759e-02 3.527495e-01 1.614043e-01 1.776001e-01 8.448891e-02 1.772233e-01 2.248622e-01 3.049650e-01 3.280498e-01 8.173075e-02 6.129052e-02 2.492266e-01 5.000000e-02
<GCONST> 6.403881e+01
<STATE> 10
<MEAN> 39
 -1.205677e+01 -2.419563e+01 -1.743625e+01 -5.616917e+00 1.613017e+01 -5.083515e+00 7.752139e+00 -7.841915e+00 4.554612e+00 -4.507205e+00 -2.191449e+00 -4.989859e+00 9.484494e-01 -1.335743e-01 8.581883e-02 -9.167113e-01 6.308071e-02 -7.024270e-02 2.781606e-01 -4.917885e-01 -1.035850e+00 2.585281e-01 6.166375e-01 -1.297719e-02 -5.935378e-01 -9.583506e-03 3.321298e-01 1.432490e-01 -2.688566e-01 -7.005990e-02 -6.940423e-01 -3.980049e-02 -1.030706e-01 1.978150e-02 -2.066367e-01 -5.923453e-01 -8.986730e-02 4.979113e-01 -6.533312e-03
<VARIANCE> 39
 9.036950e+00 1.107913e+01 4.294331e+00 3.874634e+00 3.346685e+01 2.995923e+01 2.074654e+01 1.050988e+01 1.621948e+01 5.560733e+00 5.698020e+00 4.999086e+00 5.000000e-02 1.106578e+00 3.241594e-01 1.168574e+00 3.884623e-01 3.450553e-01 8.008492e-01 5.246904e-01 2.238673e+00 6.535078e-01 6.334369e-01 2.127683e-01 5.417204e-01 5.000000e-02 1.211950e-01 2.865980e-01 9.168153e-02 1.708620e-01 1.284851e-01 7.252877e-02 1.133128e-01 1.075688e-01 2.613713e-01 2.274232e-01 1.263636e-01 8.019460e-02 5.000000e-02
<GCONST> 6.025785e+01
<STATE> 11
<MEAN> 39
 -1.151770e+01 -2.386186e+01 -2.186498e+01 -5.145931e+00 1.155491e+01 -3.175394e+00 4.624852e+00 -1.158848e+01 5.566268e+00 -4.478089e+00 -2.609503e+00 -4.313617e+00 9.187405e-01 1.078452e+00 5.918360e-01 -2.509439e-01 4.257629e-01 -8.014004e-01 4.743778e-01 -4.319251e-01 -5.781055e-01 -1.990971e-01 -8.580648e-01 -5.491703e-01 4.794587e-01 -2.495702e-02 5.190769e-02 8.280435e-02 4.734373e-01 5.885936e-02 5.174299e-02 8.002330e-02 2.191884e-01 4.279195e-01 -6.727595e-02 -3.512043e-01 -2.169925e-01 3.015555e-01 -1.480733e-03
<VARIANCE> 39
 1.271926e+01 7.560049e+00 2.827417e+00 9.739238e+00 2.416117e+01 4.603033e+01 1.121384e+01 1.334874e+01 1.898869e+01 1.281959e+01 6.043213e+00 2.783301e+00 5.000000e-02 1.666392e+00 7.032045e-01 1.009584e+00 1.043332e+00 3.381712e-01 3.397270e-01 5.978959e-01 8.325226e-01 2.055683e+00 1.891563e+00 5.262386e-01 2.932334e-01 5.000000e-02 1.889256e-01 8.374114e-02 1.904435e-01 1.928305e-01 9.918842e-02 1.208566e-01 1.379250e-01 2.502677e-01 1.352020e-01 1.487405e-01 5.000000e-02 7.509348e-02 5.000000e-02
<GCONST> 6.301759e+01
<STATE> 12
<MEAN> 39
 -9.358650e+00 -2.282956e+01 -1.845945e+01 -5.612194e+00 1.434518e+01 -4.714682e+00 6.710903e+00 -9.842324e+00 3.506772e+00 -7.459386e+00 -4.332405e+00 -4.069683e+00 8.708138e-01 3.034421e-01 1.910407e-01 5.364259e-01 1.655445e-01 -1.341251e-01 4.114197e-01 3.142204e-01 2.381936e-01 1.360688e-01 -3.317220e-01 -4.343047e-01 7.769224e-01 -1.379019e-02 -2.546453e-01 -2.228074e-01 6.862610e-02 1.448556e-02 5.605539e-02 -3.948064e-02 7.015748e-02 2.359558e-01 1.335924e-01 3.279859e-01 2.524110e-01 7.495850e-02 7.423086e-03
<VARIANCE> 39
 2.168398e+01 9.544957e+00 1.368698e+01 1.238770e+01 4.181637e+01 4.184763e+01 3.995564e+01 9.915657e+00 1.879109e+01 1.470274e+01 5.653654e+00 1.132521e+01 5.000000e-02 5.782495e-01 5.768203e-01 1.282287e+00 1.483190e+00 8.793498e-01 5.173271e-01 8.069029e-01 6.580446e-01 5.799742e-01 5.896900e-01 3.021440e-01 3.875385e-01 5.000000e-02 2.711556e-01 7.277427e-02 1.408213e-01 2.010617e-01 5.000000e-02 5.000000e-02 1.395286e-01 5.000000e-02 3.266213e-01 2.007454e-01 5.254842e-02 7.834919e-02 5.000000e-02
<GCONST> 6.462832e+01
<STATE> 13
<MEAN> 39
 -7.948130e+00 -2.171530e+01 -1.780674e+01 -2.249130e+00 1.160287e+01 -1.385876e+00 7.306371e+00 -9.631897e+00 5.670361e+00 -6.426403e+00 -4.809173e+00 -1.164363e+00 8.188941e-01 -3.824973e-01 -2.346911e-01 6.941359e-02 2.766293e-01 -2.248542e-01 5.896242e-01 1.577057e-01 3.384834e-01 6.171473e-01 3.470796e-01 4.115728e-01 5.736094e-01 7.532102e-03 -4.515642e-01 -1.948729e-01 -2.619549e-01 -2.306968e-01 -1.058464e-01 -1.716681e-01 -2.970206e-01 5.688567e-02 -1.181614e-01 9.536382e-02 3.225434e-01 -2.921466e-01 1.447342e-02
<VARIANCE> 39
 1.920184e+01 3.238910e+00 2.351374e+01 1.499751e+01 5.974837e+01 4.283682e+01 1.481978e+01 3.689805e+00 1.257138e+01 1.365505e+01 1.144629e+01 6.498863e+00 5.000000e-02 5.649809e-01 3.985254e-01 1.665782e-01 6.273719e-01 3.548908e-01 1.988038e-01 3.734470e-01 2.610170e-01 7.044762e-01 5.067050e-01 4.361630e-01 4.963584e-01 5.000000e-02 1.070031e-01 1.136562e-01 3.231670e-01 3.975845e-01 2.246977e-01 5.000000e-02 8.209016e-02 7.051709e-02 7.462341e-02 7.495409e-02 6.564496e-02 5.352208e-02 5.000000e-02
<GCONST> 5.576102e+01
<STATE> 14
<MEAN> 39
 -1.163204e+01 -2.436988e+01 -1.916094e+01 -5.516360e+00 1.307265e+01 -3.397928e+00 5.834157e+00 -9.501083e+00 4.717311e+00 -6.399071e+00 -4.030797e+00 -1.271338e+00 8.968341e-01 -1.036000e+00 -4.329914e-01 -1.518865e-01 -3.242922e-01 -7.045465e-01 2.474661e-03 -6.878264e-01 5.788471e-01 -5.079810e-01 -9.390660e-02 2.453421e-01 -8.281820e-02 2.475465e-02 2.546171e-02 -6.749700e-02 6.332503e-02 2.406795e-02 -3.947220e-01 -1.238161e-01 3.779119e-02 2.438325e-01 -2.155816e-01 1.459644e-01 1.200493e-01 -6.621662e-02 4.287978e-03
<VARIANCE> 39
 3.139438e+01 4.530356e+00 5.139825e+00 1.036204e+01 3.781594e+01 4.975311e+01 2.873979e+01 7.381429e+00 1.530772e+01 3.090578e+00 2.630912e+00 1.022544e+01 5.000000e-02 3.363560e-01 8.083233e-01 1.025496e+00 1.482206e+00 1.061552e+00 1.527775e-01 8.121986e-01 2.453437e-01 5.980264e-01 3.920175e-01 3.273245e-01 5.229352e-01 5.000000e-02 2.425138e-01 5.000000e-02 5.000000e-02 9.796397e-02 1.382889e-01 9.854637e-02 8.712311e-02 5.000000e-02 1.187515e-01 5.000000e-02 5.000000e-02 5.000000e-02 5.000000e-02
<GCONST> 5.355606e+01
<STATE> 15
<MEAN> 39
 -1.155910e+01 -2.319516e+01 -1.949616e+01 -4.344183e+00 1.166285e+01 -3.490091e+00 6.091527e+00 -7.163364e+00 3.594574e+00 -6.993847e+00 -2.584824e+00 -3.478677e+00 9.253057e-01 -6.586187e-01 -4.896139e-01 1.639270e-01 2.614904e-01 -1.201617e+00 -7.882714e-02 9.059890e-02 1.125839e+00 -1.004463e-01 5.980739e-01 8.089544e-01 2.885437e-01 2.858640e-02 3.657722e-01 -2.471395e-01 3.733442e-01 -4.677149e-02 -2.680178e-01 -7.057405e-02 2.943265e-01 2.609501e-01 -3.868914e-01 -4.645204e-02 -1.857287e-01 3.502219e-01 -3.294752e-03
<VARIANCE> 39
 1.742463e+01 6.803784e+00 6.669340e+00 6.355493e+00 1.835146e+01 5.124271e+01 8.312313e+00 2.390056e+01 2.241811e+01 4.368628e+00 5.776066e+00 7.521440e+00 5.000000e-02 3.308522e+00 3.231378e-01 6.589674e-01 8.722877e-01 1.078753e+00 8.507783e-01 4.480267e-01 3.588667e-01 7.846546e-01 8.755882e-02 4.315348e-01 2.678590e-01 5.000000e-02 4.230420e-01 1.307636e-01 1.958682e-01 1.579951e-01 1.530748e-01 1.665578e-01 2.217160e-01 6.551391e-02 5.901178e-02 8.130087e-02 5.000000e-02 8.542727e-02 5.000000e-02
<GCONST> 5.940321e+01
<STATE> 16
<MEAN> 39
 -1.244266e+01 -2.591232e+01 -1.766136e+01 -5.129206e+00 9.386849e+00 -3.361865e+00 6.348975e+00 -6.423240e+00 4.695600e+00 -5.149365e+00 -1.241018e+00 -8.898165e-01 9.738258e-01 6.363809e-01 -1.222583e+00 1.056061e+00 -3.173188e-02 -1.822629e+00 4.652337e-02 -8.013814e-02 1.590341e+00 -1.458217e+00 2.788940e-01 -1.513509e-01 1.253474e+00 1.613347e-02 6.374487e-01 1.304675e-01 1.732502e-01 5.187663e-02 -6.234489e-01 8.330559e-02 3.054528e-01 2.240616e-02 -6.236709e-01 -4.900346e-01 -4.118419e-01 1.021321e-01 -1.089885e-02
<VARIANCE> 39
 1.410267e+01 2.573144e+00 4.296618e+00 1.926304e+00 2.442042e+01 2.204874e+01 1.838284e+01 1.232518e+01 6.996771e+00 3.246691e+00 7.910872e+00 8.446280e+00 5.000000e-02 4.414032e+00 5.174294e-01 6.379451e-01 6.506821e-01 1.409033e+00 2.845073e+00 1.379065e+00 6.709527e-01 2.726535e-01 5.630261e-01 6.628774e-01 3.356945e-01 5.000000e-02 1.742945e-01 1.833072e-01 2.140727e-01 1.294276e-01 1.254212e-01 2.778729e-01 2.005678e-01 1.631290e-01 1.099313e-01 6.517881e-02 9.376799e-02 5.000000e-02 5.000000e-02
<GCONST> 6.120515e+01
<STATE> 17
<MEAN> 39
 -1.215452e+01 -2.643759e+01 -1.607710e+01 -4.604217e+00 3.191390e+00 -2.264243e+00 5.188654e+00 -3.235737e+00 8.747112e-01 -4.952911e+00 -3.170420e+00 2.307416e+00 9.804115e-01 1.241096e+00 -9.186252e-02 8.518682e-01 -2.836110e-01 -2.944222e+00 -3.852241e-01 1.259073e+00 1.320365e+00 -2.412573e+00 -1.131356e+00 -5.803343e-01 5.423607e-01 -6.878415e-03 1.957495e-01 4.593836e-01 1.249000e-01 -1.732342e-01 -1.069620e-01 -3.728427e-02 5.365896e-01 -1.826600e-01 -4.413524e-02 -2.594249e-01 -2.307291e-01 -6.898707e-01 -9.398882e-03
<VARIANCE> 39
 2.521014e+01 6.588500e+00 1.011811e+01 4.699478e+00 2.104162e+01 8.209233e+00 4.530197e+00 1.793808e+01 3.819139e+00 8.112518e+00 8.317066e+00 1.957674e+00 5.000000e-02 1.167558e+00 1.404378e+00 1.096849e+00 4.243515e-01 1.299582e+00 2.772657e+00 2.648369e+00 1.074244e+00 1.064974e-01 5.520520e-01 6.786499e-01 3.271326e-01 5.000000e-02 2.635107e-01 5.000000e-02 1.195695e-01 1.022759e-01 2.424660e-01 1.436256e-01 7.331351e-02 2.896357e-01 1.938230e-01 1.257367e-01 9.854294e-02 6.374004e-02 5.000000e-02
<GCONST> 6.042820e+01
<STATE> 18
<MEAN> 39
 -6.920692e+00 -2.715436e+01 -1.448153e+01 -4.930866e+00 -5.345992e-01 -2.927898e+00 1.052653e+01 -7.417380e-01 -5.501482e+00 -9.375653e+00 -3.680254e+00 1.041622e+00 9.515154e-01 7.926283e-01 6.552400e-01 1.284528e+00 -4.222115e-01 -2.575817e+00 -3.621235e-01 2.132421e+00 4.630083e-01 -1.787407e+00 -5.968766e-01 -6.922249e-01 -1.207065e+00 -2.074840e-02 -4.141582e-01 4.879424e-01 1.979973e-01 -4.800328e-01 4.376722e-01 -2.727402e-01 1.170927e-01 -1.851193e-01 7.750955e-01 4.836667e-01 -1.952405e-01 -4.394389e-01 -5.968324e-03
<VARIANCE> 39
 4.081567e+01 2.704292e+01 2.488632e+01 1.040782e+01 2.476146e+01 1.880971e+01 1.734353e+01 1.195777e+01 1.008774e+01 4.731868e+00 1.112224e+01 2.451225e+00 5.000000e-02 9.342048e-01 7.675462e-01 7.426599e-01 1.625141e+00 1.362400e+00 1.646085e+00 3.487420e-01 1.700376e+00 1.520301e+00 9.563311e-01 8.116358e-01 7.934389e-01 5.000000e-02 2.506435e-01 1.006833e-01 2.789672e-01 2.065720e-01 1.305389e-01 5.858031e-01 3.238527e-01 1.892753e-01 1.611261e-01 5.106581e-02 1.656228e-01 1.388578e-01 5.000000e-02
<GCONST> 7.350882e+01
<STATE> 19
<MEAN> 39
 -6.588229e+00 -2.570911e+01 -1.129410e+01 -5.917624e+00 -4.058017e+00 -5.763064e+00 1.381652e+01 -2.350674e-01 -8.424480e+00 -8.106246e+00 -5.839081e+00 -3.201835e+00 8.933990e-01 7.414282e-02 1.319345e+00 1.818390e+00 -2.283524e+00 -1.136858e+00 -9.367187e-01 1.550046e+00 8.963144e-01 8.626274e-01 6.829640e-01 -1.505596e+00 -1.109306e+00 -2.875836e-02 -1.921876e-02 1.906901e-01 3.094983e-02 -4.593292e-01 7.123266e-01 -6.399514e-02 -7.654765e-01 -7.507077e-03 1.118453e+00 4.833865e-01 -6.993536e-02 5.308253e-01 -4.431430e-03
<VARIANCE> 39
 2.005272e+01 2.324957e+01 1.689357e+01 1.588906e+01 2.744582e+01 2.374239e+01 2.010632e+01 1.378050e+00 2.218694e+01 1.240358e+01 4.135783e+00 7.958751e+00 5.000000e-02 4.882911e-01 1.996855e-01 9.477370e-01 1.409727e+00 7.492984e-01 1.591517e+00 5.048913e-01 2.713816e-01 1.168951e+00 3.707956e-01 1.463492e-01 5.744806e-01 5.000000e-02 7.049966e-02 5.000000e-02 1.059721e-01 2.580258e-01 1.625580e-01 2.384389e-01 7.972038e-02 1.124872e-01 2.683632e-01 7.004344e-02 1.647466e-01 8.931068e-02 5.000000e-02
<GCONST> 6.077339e+01
<STATE> 20
<MEAN> 39
 -9.163922e+00 -2.052881e+01 -9.375248e+00 -1.165039e+01 -6.680792e+00 -4.678037e+00 1.524506e+01 1.087456e+00 -1.762644e+00 -5.878809e+00 -9.493765e+00 -2.993062e+00 8.685984e-01 3.963884e-01 1.605956e+00 1.398711e+00 -1.850964e+00 -1.660746e-01 -4.512542e-01 -4.371027e-01 3.853091e-01 1.424427e+00 6.914108e-01 -1.073847e+00 7.971441e-01 -3.694106e-02 1.336276e-01 -1.228113e-01 -3.020285e-02 3.522754e-02 4.198333e-01 -1.305481e-01 -1.088225e+00 -4.382421e-01 2.683494e-01 1.929341e-01 5.804960e-01 7.977695e-01 -5.333778e-03
<VARIANCE> 39
 9.695453e+00 1.341873e+01 5.261533e+00 9.027439e+00 1.640103e+01 2.303371e+01 1.464160e+01 5.622370e+00 1.691352e+01 2.062406e+01 6.831629e+00 6.641418e+00 5.000000e-02 1.793872e-01 1.997952e-01 5.343203e-01 6.199576e-01 4.820094e-01 2.201003e+00 1.699291e+00 2.776624e-01 9.240894e-01 4.920057e-01 1.328649e+00 8.935488e-01 5.000000e-02 5.711766e-02 5.000000e-02 7.990160e-02 1.140591e-01 1.629945e-01 1.145635e-01 2.448585e-01 6.489823e-02 2.008763e-01 2.094337e-01 9.729831e-02 1.242738e-01 5.000000e-02
<GCONST> 5.942852e+01
<STATE> 21
<MEAN> 39
 -6.638033e+00 -1.834699e+01 -6.220237e+00 -1.523637e+01 -4.437734e+00 -8.053838e+00 1.165883e+01 6.152977e-01 -1.141716e+00 -4.462666e+00 -8.506595e+00 4.191590e-01 7.639398e-01 6.097252e-01 9.157619e-01 1.208284e+00 -1.662331e+00 7.147717e-02 -1.122822e+00 -2.388846e+00 -6.896000e-01 1.882087e+00 1.443261e+00 2.777652e-01 9.149507e-01 -4.309195e-02 2.673248e-02 -3.068101e-01 -2.424544e-01 3.788071e-01 4.391984e-01 -5.812630e-02 6.272845e-02 -3.134918e-01 -1.914596e-02 1.026867e-02 4.451789e-02 2.011660e-02 1.148387e-03
<VARIANCE> 39
 9.622802e+00 1.684266e+01 9.373243e+00 6.891951e+00 3.871574e+01 5.067721e+01 4.784464e+01 5.866740e+00 1.777114e+01 1.419277e+01 2.342190e+01 7.207167e+00 5.000000e-02 3.910099e-01 3.243753e-01 3.561902e-01 4.080199e-01 4.972029e-01 1.647084e+00 1.522725e+00 3.112160e-01 2.618125e+00 6.024478e-01 3.814782e-01 7.588122e-01 5.000000e-02 5.000000e-02 7.851762e-02 9.925201e-02 1.023348e-01 9.835520e-02 4.436070e-01 6.440617e-01 2.278748e-01 2.680995e-01 1.079247e-01 1.982356e-01 1.393903e-01 5.000000e-02
<GCONST> 6.778803e+01
<STATE> 22
<MEAN> 39
 -5.461277e+00 -1.777257e+01 -4.279789e+00 -1.632394e+01 -6.051703e+00 -9.853009e+00 6.401285e+00 -8.599178e-01 4.208660e+00 -2.178172e+00 -9.652252e+00 2.029149e+00 6.988233e-01 5.987964e-01 9.469469e-02 1.037910e+00 -7.429839e-01 1.589719e+00 -9.311022e-01 -2.479821e-01 -1.200000e+00 1.321843e+00 1.378510e+00 -3.220211e-01 1.073344e+00 -3.584665e-02 1.290073e-01 -5.933589e-01 -8.275600e-02 5.567133e-01 1.698287e-01 6.216162e-01 3.484529e-01 -1.396963e-01 -8.937711e-01 -4.893386e-01 -1.285215e-01 -2.239787e-01 8.714822e-04
<VARIANCE> 39
 1.067343e+01 3.203944e+01 4.670887e+00 1.134817e+01 8.621543e+00 3.804292e+01 2.365548e+01 3.331800e+00 1.759279e+01 1.021388e+01 1.468817e+01 1.750768e+01 5.000000e-02 5.941087e-02 1.020232e+00 7.009326e-01 3.082027e-01 5.492756e-01 9.773332e-01 1.591569e+00 1.187633e+00 1.377258e+00 1.324363e+00 1.065090e+00 2.532397e-01 5.000000e-02 5.000000e-02 1.191903e-01 5.000000e-02 1.569606e-01 6.834769e-02 3.555844e-01 6.052700e-01 2.242214e-01 1.827172e-01 1.069900e-01 5.609599e-02 1.466958e-01 5.000000e-02
<GCONST> 6.394628e+01
<STATE> 23
<MEAN> 39
 -4.387588e+00 -1.829379e+01 -2.830195e+00 -1.786436e+01 8.340913e-01 -9.955928e+00 1.067211e+01 -2.956119e+00 2.496350e+00 -8.091179e-01 -9.507532e+00 3.602041e+00 6.309494e-01 1.141981e+00 -1.054772e+00 9.321814e-01 5.174541e-01 4.042988e-01 5.382289e-01 -7.280630e-01 -9.054996e-01 -1.255589e+00 -6.414538e-01 -4.916141e-01 4.213104e-01 -3.924371e-02 1.142617e-01 -4.624934e-01 -1.685918e-01 7.224069e-01 -7.571183e-01 4.744678e-01 -4.875420e-01 1.986136e-01 -5.256442e-01 -6.616791e-01 1.209525e-01 -3.108310e-01 -1.359684e-03
<VARIANCE> 39
 6.130925e+00 3.225251e+00 9.205606e+00 1.078382e+01 1.091080e+01 2.281791e+01 1.375894e+01 1.420325e+01 9.170012e+00 1.081601e+01 3.053715e+01 5.213283e+00 5.000000e-02 2.434398e-01 1.391151e+00 3.649795e-01 1.140092e+00 1.661907e+00 1.583372e+00 1.936138e+00 1.923965e+00 1.063663e+00 1.336812e+00 7.114817e-01 5.976908e-01 5.000000e-02 5.000000e-02 5.000000e-02 9.634399e-02 1.461783e-01 9.111648e-02 1.999665e-01 1.628033e-01 3.033921e-01 3.319114e-01 1.479154e-01 2.430917e-01 6.869705e-02 5.000000e-02
<GCONST> 6.617802e+01
<STATE> 24
<MEAN> 39
 -9.204051e-01 -2.320168e+01 -2.579260e-01 -1.248658e+01 -3.018439e+00 -5.671160e+00 3.438635e+00 -4.533086e+00 1.257352e+00 -4.967153e+00 -8.738851e+00 2.019779e+00 5.491717e-01 7.410877e-01 -1.192070e+00 -1.409351e-01 1.640846e+00 -7.124172e-01 1.092140e+00 -1.487959e+00 -7.775152e-02 -3.477477e-01 -1.048803e+00 -1.598942e-01 -3.928907e-01 -3.676761e-02 -1.915441e-01 1.644757e-01 -6.571202e-01 3.886532e-01 -2.476519e-01 -8.079474e-02 5.518307e-01 4.243765e-01 2.440341e-01 1.213928e-01 4.916592e-01 -2.278396e-01 6.409163e-04
<VARIANCE> 39
 8.116748e+00 5.084182e+00 1.286897e+01 2.379083e+01 6.570072e+00 4.108092e+01 1.786601e+01 2.345182e+01 7.743837e+00 1.435093e+01 1.837483e+01 4.292126e+00 5.000000e-02 3.060685e-01 7.261992e-01 7.944013e-01 1.802719e+00 8.430363e-01 9.478085e-01 1.613859e+00 8.519418e-01 2.027383e+00 8.463665e-01 8.515554e-01 3.209209e-01 5.000000e-02 5.000000e-02 2.853298e-01 5.020389e-02 4.585255e-01 2.045814e-01 5.767496e-01 3.326825e-01 3.187637e-01 1.530545e-01 3.265963e-01 2.105670e-01 8.131274e-02 5.000000e-02
<GCONST> 7.157492e+01
<STATE> 25
<MEAN> 39
 -4.117588e-01 -2.365549e+01 -2.326903e+00 -1.288215e+01 -3.379086e+00 -7.782819e+00 3.968042e+00 -4.270396e+00 -1.169952e-01 -3.794991e+00 -9.944732e+00 3.249727e+00 4.953353e-01 5.084224e-01 -1.087046e+00 -1.288238e+00 2.535187e+00 -1.364360e+00 1.042775e+00 -1.531691e-01 5.464611e-01 -2.905596e-01 -8.938519e-01 1.476532e+00 -6.050182e-01 -4.206951e-02 -9.712753e-02 3.986374e-01 -3.607531e-01 6.555387e-01 2.709474e-01 9.246836e-02 5.294788e-01 4.167143e-01 3.105865e-01 1.520656e-01 7.094531e-01 -1.347154e-01 8.420076e-04
<VARIANCE> 39
 2.631730e+00 2.452139e+00 1.352796e+01 1.691422e+01 5.919600e+00 3.689523e+01 3.278653e+00 1.416937e+01 1.665950e+01 1.629153e+00 1.269529e+01 1.607124e+01 5.000000e-02 3.631946e-01 1.667171e+00 3.645512e-01 1.880962e+00 1.791639e+00 2.351144e+00 2.410079e+00 9.804652e-01 7.810717e-01 1.671554e+00 3.278762e-01 4.587932e-01 5.000000e-02 5.000000e-02 1.044405e-01 5.494965e-02 2.425377e-01 6.140522e-02 7.199201e-01 1.096737e-01 3.236518e-01 6.459428e-01 5.000000e-02 5.000000e-02 7.293076e-02 5.000000e-02
<GCONST> 6.254629e+01
<STATE> 26
<MEAN> 39
 2.006650e-01 -2.483195e+01 -4.586203e+00 -8.268492e+00 -6.670066e+00 -3.768041e+00 3.582419e+00 -2.753849e+00 2.604296e-01 -6.729267e+00 -8.220973e+00 1.657019e+00 4.210953e-01 6.061316e-01 -2.437427e-01 -1.293759e+00 3.699744e+00 -1.463924e-01 1.604721e+00 1.000027e+00 1.595121e+00 7.073188e-01 -2.146241e-01 2.636448e+00 -6.419604e-01 -3.667558e-02 -1.106962e-01 5.274946e-01 2.259784e-02 -1.044809e-01 6.432472e-01 -4.461366e-01 3.806719e-01 1.565633e-01 1.807871e-01 3.674523e-01 8.270871e-02 -4.190639e-02 7.094889e-03
<VARIANCE> 39
 8.864955e-01 4.942516e+00 1.484394e+01 2.175618e+01 8.701616e+00 3.448073e+01 2.918447e+01 8.379576e+00 2.959345e+01 8.033966e+00 1.650214e+01 8.138085e+00 5.000000e-02 3.447134e-01 8.664081e-01 4.945996e-01 1.139109e+00 1.093131e+00 3.904660e+00 1.284130e+00 1.429464e+00 7.023289e-01 8.451909e-01 6.648906e-01 6.834782e-01 5.000000e-02 5.000000e-02 7.845809e-02 5.000000e-02 3.189878e-01 1.805446e-01 4.515342e-01 4.376192e-01 1.255986e-01 4.023369e-01 1.136529e-01 2.452040e-01 1.697938e-01 5.000000e-02
<GCONST> 6.913454e+01
<STATE> 27
<MEAN> 39
 1.017699e+00 -2.454916e+01 -6.395586e+00 -7.453609e-01 -3.136420e+00 -4.471466e+00 5.290354e+00 -3.502102e-01 5.180146e-01 -5.201206e+00 -1.599156e+00 -2.545394e-01 3.852209e-01 4.853555e-01 8.502069e-01 -7.493591e-01 1.599237e+00 6.970606e-01 -5.552793e-01 4.168711e-02 2.715605e-01 -1.226067e-01 -1.689417e-01 6.219826e-01 -5.969556e-01 -1.724873e-02 -3.083571e-02 3.360837e-01 3.599927e-01 -7.723512e-01 2.774224e-02 -9.316260e-02 -1.999963e-01 -4.380162e-01 -1.157951e-01 -3.460175e-01 -6.282508e-01 2.766251e-01 5.435288e-03
<VARIANCE> 39
 5.935441e-01 5.065631e+00 2.713734e+01 4.717007e+00 7.360647e+00 1.494628e+01 1.652015e+01 1.643129e+01 5.939881e+00 8.300992e+00 1.458945e+01 2.951909e+00 5.000000e-02 1.297852e-01 6.999758e-01 5.235540e-01 1.012464e+00 8.542989e-01 2.143796e+00 1.107518e+00 1.982373e+00 8.656054e-01 8.373107e-01 1.724971e+00 1.220510e+00 5.000000e-02 5.000000e-02 1.298086e-01 1.816640e-01 1.954931e-01 1.511452e-01 4.417928e-01 1.559881e-01 2.385932e-01 5.277309e-02 9.212811e-02 1.207193e-01 8.515681e-02 5.000000e-02
<GCONST> 6.111238e+01
<STATE> 28
<MEAN> 39
 2.025660e+00 -2.147681e+01 -6.100533e+00 -3.494980e-01 -3.072890e+00 -3.092518e+00 6.294790e+00 -1.405286e+00 9.401432e-01 -7.334218e+00 -3.423674e+00 2.304463e-02 3.745941e-01 1.411740e-01 9.255150e-01 4.613773e-02 3.150369e-01 2.318183e-01 -6.170741e-02 3.062220e-01 -7.665132e-02 -5.468118e-01 -1.040859e+00 5.916944e-01 6.095659e-01 -1.279063e-02 -9.160526e-02 5.816372e-03 8.497401e-02 -2.131955e-01 2.063167e-02 -2.312431e-01 -8.431555e-02 -1.061700e-01 -3.661593e-01 9.238206e-02 1.170989e-01 1.238253e-01 1.944134e-04
<VARIANCE> 39
 3.061475e+00 1.528787e+01 1.497174e+01 3.647634e+00 3.417414e+00 6.428760e+00 1.057115e+00 7.811934e+00 1.564565e+01 1.241878e+01 9.576694e+00 2.263238e+01 5.000000e-02 1.723301e-01 9.233409e-01 1.189346e+00 5.922450e-01 4.342245e-01 1.090865e+00 5.835685e-01 1.077175e+00 2.369369e-01 6.958800e-01 1.196695e+00 2.998943e-01 5.000000e-02 5.000000e-02 1.661548e-01 7.673045e-02 2.599764e-01 5.392916e-02 3.173794e-01 5.000000e-02 2.490085e-01 2.202773e-01 4.083967e-01 2.875789e-01 2.606993e-01 5.000000e-02
<GCONST> 5.799989e+01
<STATE> 29
<MEAN> 39
 2.099180e+00 -2.052456e+01 -7.078614e+00 1.143585e-01 -3.018224e+00 -6.187012e+00 6.446808e+00 2.388182e-01 -1.619584e+00 -1.067836e+01 -1.556255e+00 5.675419e-01 3.361722e-01 2.376167e-01 9.885688e-01 -3.135187e-01 4.945694e-01 6.342124e-01 -6.964664e-01 -1.810959e-01 -2.848368e-01 -9.074829e-01 -4.560189e-01 2.950770e-02 -2.495252e-01 -1.474600e-02 -1.416642e-01 -8.280199e-02 6.231203e-02 -2.865422e-02 2.269307e-01 2.038214e-01 -4.067991e-01 -1.360973e-01 6.037239e-02 5.122293e-01 -8.184297e-02 -2.195452e-01 -3.328303e-03
<VARIANCE> 39
 1.100284e+00 7.929023e+00 1.866049e+01 1.282337e+00 5.612159e+00 5.651126e+00 9.265302e+00 5.335899e+00 4.684552e+00 4.951039e+00 8.193024e+00 3.789558e+00 5.000000e-02 2.183492e-01 5.619298e-01 1.087982e+00 1.526792e+00 1.414022e-01 8.477103e-01 8.622524e-01 7.552267e-01 1.268170e+00 2.175826e+00 1.179654e+00 1.469864e+00 5.000000e-02 5.000000e-02 1.226983e-01 1.590537e-01 6.279536e-02 6.622243e-02 1.521082e-01 5.000000e-02 6.213424e-02 5.000000e-02 8.100554e-02 2.922429e-01 1.150710e-01 5.000000e-02
<GCONST> 5.041904e+01
<STATE> 30
<MEAN> 39
 2.298991e+00 -1.869111e+01 -7.780994e+00 1.218045e+00 -1.042514e+00 -5.552828e+00 5.932268e+00 -1.936691e+00 -2.410429e+00 -8.175204e+00 -1.888745e+00 1.238981e-01 3.122104e-01 -2.516969e-01 4.778810e-01 -6.265087e-02 3.026881e-01 8.055387e-01 1.199814e-02 -1.417085e+00 -6.336849e-01 -3.971806e-01 1.060013e+00 9.501813e-01 -1.967835e-01 -2.007945e-02 -1.948266e-01 -7.804201e-02 2.816881e-01 -8.314741e-02 -4.658657e-02 -1.556707e-02 -2.913498e-01 2.259913e-01 4.423140e-01 3.182322e-01 1.808436e-01 -2.385563e-02 -2.191236e-03
<VARIANCE> 39
 2.009731e+00 2.641721e+00 9.535008e+00 1.432870e+01 2.505821e+00 4.381003e+00 1.610432e+01 1.809807e+01 6.914200e+00 7.488935e+00 8.344518e+00 2.275707e+00 5.000000e-02 5.984980e-02 1.596270e-01 4.818901e-01 4.387961e-01 9.227564e-01 5.676215e-01 4.409872e-01 3.744859e-01 1.017872e+00 4.038778e-01 1.445671e+00 2.690735e-01 5.000000e-02 5.000000e-02 1.556960e-01 4.704885e-01 4.015581e-01 5.272054e-02 1.427722e-01 3.406692e-01 3.410295e-01 1.776646e-01 1.851310e-01 2.487570e-01 1.054494e-01 5.000000e-02
<GCONST> 5.313380e+01
<STATE> 31
<MEAN> 39
 1.435368e+00 -1.807678e+01 -7.103539e+00 1.032572e+00 1.676032e+00 -5.089949e+00 1.900645e+00 -2.851971e+00 -3.290915e+00 -6.249547e+00 1.194539e+00 -1.888502e-01 2.634153e-01 -7.239947e-01 6.297777e-01 9.317334e-01 1.451953e-01 7.592838e-01 -1.293596e-01 -7.343536e-01 8.548797e-01 6.807956e-01 6.444470e-01 5.432009e-01 -5.976183e-02 -3.084638e-02 -1.438286e-01 -1.199153e-01 8.549546e-02 -4.992060e-02 -1.813687e-01 -1.523907e-02 3.302456e-01 2.713540e-01 4.521578e-01 -2.491622e-01 -4.742385e-01 1.422772e-01 -3.573076e-04
<VARIANCE> 39
 3.930502e+00 1.608284e+00 5.615537e+00 3.346367e+00 4.976390e+00 9.108823e+00 4.885413e+00 1.594794e+01 3.849203e+00 6.458494e+00 1.282786e+01 2.649965e+00 5.000000e-02 1.512754e-01 1.223135e+00 2.979746e+00 1.016921e+00 3.434577e-01 1.151066e+00 2.011190e+00 2.392506e+00 5.226743e-01 7.847362e-02 9.541788e-01 1.806053e-01 5.000000e-02 5.000000e-02 7.523364e-02 1.326353e-01 7.949878e-02 1.438909e-01 1.679080e-01 5.000000e-02 2.779422e-01 2.622738e-01 6.311766e-02 3.207006e-01 8.335473e-02 5.000000e-02
<GCONST> 5.163145e+01
<STATE> 32
<MEAN> 39
 -3.386408e-01 -1.765288e+01 -5.172801e+00 1.434061e+00 1.955631e-01 -6.448621e+00 2.952198e+00 8.447739e-01 1.072370e-01 -5.745814e+00 7.181637e-01 3.974425e-01 2.111669e-01 -8.186725e-01 1.944870e-01 3.402982e-01 1.158239e-01 2.517624e-01 -8.952858e-02 -4.839749e-01 3.508242e-01 1.173470e+00 -8.051658e-02 -8.485990e-01 3.687880e-02 -2.204637e-02 1.443779e-01 1.804422e-01 -2.849679e-02 -1.771770e-01 -2.677132e-01 1.358643e-01 1.660834e-01 -5.674990e-01 -2.947875e-01 -2.821961e-01 -1.428636e-01 2.471761e-03 4.837066e-03
<VARIANCE> 39
 2.969783e+00 1.230384e+01 2.241811e+01 5.934026e+00 9.244576e+00 3.599166e+01 8.816250e+00 4.174387e+00 1.134375e+01 1.902846e+01 7.599292e+00 7.300344e+00 5.000000e-02 2.184109e-01 8.567319e-01 1.125602e+00 3.951362e-01 4.004734e-01 1.405376e+00 3.796034e-01 1.422799e+00 1.847709e+00 5.976261e-01 1.297345e+00 2.318200e-01 5.000000e-02 5.000000e-02 2.613905e-01 3.654052e-01 5.000000e-02 1.776596e-01 5.215994e-01 1.425014e-01 2.005969e-01 4.584739e-01 9.318854e-02 1.174973e-01 5.227887e-02 5.000000e-02
<GCONST> 6.268405e+01
<STATE> 33
<MEAN> 39
 1.749256e-01 -1.562142e+01 -4.395410e+00 2.313965e+00 1.150646e+00 -7.570356e+00 1.096539e+00 -1.374367e+00 -5.773301e-01 -6.240445e+00 -3.842684e-01 1.061212e-01 2.198128e-01 -1.007398e-01 9.382282e-01 5.623210e-01 -2.559790e-01 2.074322e-01 3.217609e-01 -4.819843e-02 -4.300299e-01 4.085563e-02 -5.755484e-03 -1.523008e-01 2.463859e-01 -1.120498e-02 -1.984731e-02 1.662854e-01 -1.335830e-02 -2.553642e-01 5.939722e-02 4.053948e-01 2.501059e-01 1.251032e-02 -1.441102e-01 -5.925050e-02 8.639456e-02 -9.553185e-02 -3.005628e-03
<VARIANCE> 39
 3.453886e+00 1.191348e+01 1.231277e+01 5.102117e+00 7.644414e+00 9.635126e+00 5.443954e+00 1.172427e+01 8.567649e+00 3.203666e+00 8.737763e+00 3.050012e+00 5.000000e-02 8.695415e-02 3.445489e-01 4.536737e-01 4.759829e-01 8.892740e-01 2.738485e+00 2.408140e-01 1.196838e+00 2.394799e+00 7.663740e-01 5.215829e-01 3.053748e-01 5.000000e-02 6.743327e-02 1.434490e-01 1.867864e-01 1.151370e-01 8.407092e-02 2.423962e-01 5.000000e-02 2.518918e-01 3.119241e-01 5.862189e-02 3.072125e-01 5.422254e-02 5.000000e-02
<GCONST> 5.413151e+01
<STATE> 34
<MEAN> 39
 -6.600242e-01 -1.369038e+01 -4.349622e+00 -1.834877e-01 1.106900e+00 -4.889258e+00 1.613052e+00 -2.822490e+00 8.172122e-01 -6.858251e+00 -1.611317e+00 -3.509792e-01 1.679972e-01 -7.416297e-01 1.550579e+00 7.307551e-01 -8.825582e-01 2.124074e-02 8.644996e-01 5.423617e-01 -4.813704e-01 -2.911644e-01 -1.645267e-01 5.620769e-01 -3.436846e-01 -3.091814e-02 -1.876383e-01 3.025329e-02 9.805744e-02 3.415212e-02 5.119853e-02 -7.495536e-02 1.122864e-01 1.464907e-01 -1.135891e-01 2.319047e-01 5.512782e-01 9.003882e-02 -7.075747e-03
<VARIANCE> 39
 1.662904e+00 1.388084e+01 1.652039e+01 2.049437e+00 8.807933e+00 3.864985e+00 1.597611e+01 3.072460e+00 5.752675e+01 5.444685e+00 3.518165e-01 1.349979e+00 5.000000e-02 2.089958e-01 7.311189e-01 6.120455e-01 4.314331e-01 7.048158e-01 4.568103e-01 2.724791e-01 6.643714e-01 2.781431e+00 4.575905e-01 8.993592e-01 3.024345e-01 5.000000e-02 5.000000e-02 1.333224e-01 7.433138e-02 1.716224e-01 1.197839e-01 1.829616e-01 1.196207e-01 1.577308e-01 9.090077e-01 7.935961e-02 5.000000e-02 5.000000e-02 5.000000e-02
<GCONST> 4.887750e+01
<STATE> 35
<MEAN> 39
 -3.238006e+00 -1.123979e+01 -1.729418e+00 -1.117650e+00 2.355116e+00 -2.679009e+00 3.152931e+00 -1.570928e+00 -6.608928e-01 -6.152971e+00 2.026623e+00 -7.070082e-02 9.005195e-02 -9.027355e-01 8.184019e-01 6.050506e-01 -3.575670e-01 3.806539e-01 4.332320e-01 1.710092e-01 7.586983e-02 2.737705e-02 5.165583e-01 1.191302e+00 2.082181e-01 -4.039089e-02 4.150367e-02 -3.912574e-01 -2.307252e-01 2.353778e-01 -7.198676e-02 -3.456141e-01 -3.111558e-01 5.786911e-02 2.761948e-01 1.337881e-01 -1.742343e-01 1.627342e-01 5.487691e-04
<VARIANCE> 39
 8.669627e-01 5.157242e+00 6.838685e+00 4.035242e+00 6.628211e+00 1.255634e+01 4.614951e+00 9.952802e+00 2.387957e+01 1.411637e+01 9.488471e+00 3.622494e+00 5.000000e-02 1.471028e-01 4.805372e-01 3.927302e-01 1.112165e+00 1.546491e-01 6.683707e-01 1.092489e+00 5.826626e-01 2.143399e+00 3.020408e-01 5.453540e-01 2.554051e-01 5.000000e-02 5.000000e-02 5.000000e-02 5.000000e-02 6.993306e-02 5.372209e-02 1.750708e-01 1.020387e-01 1.194553e-01 3.101088e-01 1.163258e-01 1.882008e-01 1.160820e-01 5.000000e-02
<GCONST> 4.863956e+01
<STATE> 36
<MEAN> 39
 -3.704123e+00 -1.101970e+01 -1.782556e+00 -8.701147e-01 2.441799e+00 -3.358592e+00 2.796521e+00 -2.865757e+00 -1.011863e+00 -5.488715e+00 2.169690e+00 -4.285103e-02 3.451188e-02 -4.977454e-01 1.511161e-01 -1.041912e-01 8.547765e-02 -1.417489e-01 -4.019960e-01 -6.492240e-01 1.281842e-02 8.973382e-01 4.771335e-01 1.291572e-01 5.064545e-01 -3.303324e-02 1.188309e-01 -2.905418e-01 -1.873762e-01 1.153207e-01 -2.339486e-01 -2.238946e-01 -3.394841e-01 -2.862426e-02 9.862884e-02 -1.400910e-01 -4.828511e-01 -1.437652e-02 7.622336e-03
<VARIANCE> 39
 5.036773e-01 1.348286e+00 1.615248e+00 1.143461e+01 6.798615e+00 2.783361e+00 1.012554e+01 2.793682e+00 3.479634e+00 3.966865e-01 4.057287e+00 2.376812e+00 5.000000e-02 5.224400e-01 1.281410e-01 8.386115e-02 3.332576e-01 3.723164e-01 1.500051e+00 6.406409e-01 1.457214e-01 6.338508e-01 6.086662e-01 1.012451e+00 4.010528e-01 5.000000e-02 5.000000e-02 5.000000e-02 8.357923e-02 1.908576e-01 5.000000e-02 6.247066e-02 1.117660e-01 1.225796e-01 2.198025e-01 8.962964e-02 1.378926e-01 1.788346e-01 5.000000e-02
<GCONST> 3.518322e+01
<TRANSP> 37
 0.000000e+00 1.000000e+00 0.000000e+00 0.000000e+00 0.000000e+00 0.000000e+00 0.000000e+00 0.000000e+00 0.000000e+00 0.000000e+00 0.000000e+00 0.000000e+00 0.000000e+00 0.000000e+00 0.000000e+00 0.000000e+00 0.000000e+00 0.000000e+00 0.000000e+00 0.000000e+00 0.000000e+00 0.000000e+00 0.000000e+00 0.000000e+00 0.000000e+00 0.000000e+00 0.000000e+00 0.000000e+00 0.000000e+00 0.000000e+00 0.000000e+00 0.000000e+00 0.000000e+00 0.000000e+00 0.000000e+00 0.000000e+00 0.000000e+00
 0.000000e+00 4.449244e-01 5.550756e-01 0.000000e+00 0.000000e+00 0.000000e+00 0.000000e+00 0.000000e+00 0.000000e+00 0.000000e+00 0.000000e+00 0.000000e+00 0.000000e+00 0.000000e+00 0.000000e+00 0.000000e+00 0.000000e+00 0.000000e+00 0.000000e+00 0.000000e+00 0.000000e+00 0.000000e+00 0.000000e+00 0.000000e+00 0.000000e+00 0.000000e+00 0.000000e+00 0.000000e+00 0.000000e+00 0.000000e+00 0.000000e+00 0.000000e+00 0.000000e+00 0.000000e+00 0.000000e+00 0.000000e+00 0.000000e+00
 0.000000e+00 0.000000e+00 5.829113e-01 4.170887e-01 0.000000e+00 0.000000e+00 0.000000e+00 0.000000e+00 0.000000e+00 0.000000e+00 0.000000e+00 0.000000e+00 0.000000e+00 0.000000e+00 0.000000e+00 0.000000e+00 0.000000e+00 0.000000e+00 0.000000e+00 0.000000e+00 0.000000e+00 0.000000e+00 0.000000e+00 0.000000e+00 0.000000e+00 0.000000e+00 0.000000e+00 0.000000e+00 0.000000e+00 0.000000e+00 0.000000e+00 0.000000e+00 0.000000e+00 0.000000e+00 0.000000e+00 0.000000e+00 0.000000e+00
 0.000000e+00 0.000000e+00 0.000000e+00 5.456424e-01 4.543576e-01 0.000000e+00 0.000000e+00 0.000000e+00 0.000000e+00 0.000000e+00 0.000000e+00 0.000000e+00 0.000000e+00 0.000000e+00 0.000000e+00 0.000000e+00 0.000000e+00 0.000000e+00 0.000000e+00 0.000000e+00 0.000000e+00 0.000000e+00 0.000000e+00 0.000000e+00 0.000000e+00 0.000000e+00 0.000000e+00 0.000000e+00 0.000000e+00 0.000000e+00 0.000000e+00 0.000000e+00 0.000000e+00 0.000000e+00 0.000000e+00 0.000000e+00 0.000000e+00
 0.000000e+00 0.000000e+00 0.000000e+00 0.000000e+00 2.857146e-01 7.142854e-01 0.000000e+00 0.000000e+00 0.000000e+00 0.000000e+00 0.000000e+00 0.000000e+00 0.000000e+00 0.000000e+00 0.000000e+00 0.000000e+00 0.000000e+00 0.000000e+00 0.000000e+00 0.000000e+00 0.000000e+00 0.000000e+00 0.000000e+00 0.000000e+00 0.000000e+00 0.000000e+00 0.000000e+00 0.000000e+00 0.000000e+00 0.000000e+00 0.000000e+00 0.000000e+00 0.000000e+00 0.000000e+00 0.000000e+00 0.000000e+00 0.000000e+00
 0.000000e+00 0.000000e+00 0.000000e+00 0.000000e+00 0.000000e+00 1.666789e-01 8.333212e-01 0.000000e+00 0.000000e+00 0.000000e+00 0.000000e+00 0.000000e+00 0.000000e+00 0.000000e+00 0.000000e+00 0.000000e+00 0.000000e+00 0.000000e+00 0.000000e+00 0.000000e+00 0.000000e+00 0.000000e+00 0.000000e+00 0.000000e+00 0.000000e+00 0.000000e+00 0.000000e+00 0.000000e+00 0.000000e+00 0.000000e+00 0.000000e+00 0.000000e+00 0.000000e+00 0.000000e+00 0.000000e+00 0.000000e+00 0.000000e+00
 0.000000e+00 0.000000e+00 0.000000e+00 0.000000e+00 0.000000e+00 0.000000e+00 1.667774e-01 8.332226e-01 0.000000e+00 0.000000e+00 0.000000e+00 0.000000e+00 0.000000e+00 0.000000e+00 0.000000e+00 0.000000e+00 0.000000e+00 0.000000e+00 0.000000e+00 0.000000e+00 0.000000e+00 0.000000e+00 0.000000e+00 0.000000e+00 0.000000e+00 0.000000e+00 0.000000e+00 0.000000e+00 0.000000e+00 0.000000e+00 0.000000e+00 0.000000e+00 0.000000e+00 0.000000e+00 0.000000e+00 0.000000e+00 0.000000e+00
 0.000000e+00 0.000000e+00 0.000000e+00 0.000000e+00 0.000000e+00 0.000000e+00 0.000000e+00 4.442316e-01 5.557684e-01 0.000000e+00 0.000000e+00 0.000000e+00 0.000000e+00 0.000000e+00 0.000000e+00 0.000000e+00 0.000000e+00 0.000000e+00 0.000000e+00 0.000000e+00 0.000000e+00 0.000000e+00 0.000000e+00 0.000000e+00 0.000000e+00 0.000000e+00 0.000000e+00 0.000000e+00 0.000000e+00 0.000000e+00 0.000000e+00 0.000000e+00 0.000000e+00 0.000000e+00 0.000000e+00 0.000000e+00 0.000000e+00
 0.000000e+00 0.000000e+00 0.000000e+00 0.000000e+00 0.000000e+00 0.000000e+00 0.000000e+00 0.000000e+00 4.981006e-01 5.018994e-01 0.000000e+00 0.000000e+00 0.000000e+00 0.000000e+00 0.000000e+00 0.000000e+00 0.000000e+00 0.000000e+00 0.000000e+00 0.000000e+00 0.000000e+00 0.000000e+00 0.000000e+00 0.000000e+00 0.000000e+00 0.000000e+00 0.000000e+00 0.000000e+00 0.000000e+00 0.000000e+00 0.000000e+00 0.000000e+00 0.000000e+00 0.000000e+00 0.000000e+00 0.000000e+00 0.000000e+00
 0.000000e+00 0.000000e+00 0.000000e+00 0.000000e+00 0.000000e+00 0.000000e+00 0.000000e+00 0.000000e+00 0.000000e+00 5.019743e-01 4.980256e-01 0.000000e+00 0.000000e+00 0.000000e+00 0.000000e+00 0.000000e+00 0.000000e+00 0.000000e+00 0.000000e+00 0.000000e+00 0.000000e+00 0.000000e+00 0.000000e+00 0.000000e+00 0.000000e+00 0.000000e+00 0.000000e+00 0.000000e+00 0.000000e+00 0.000000e+00 0.000000e+00 0.000000e+00 0.000000e+00 0.000000e+00 0.000000e+00 0.000000e+00 0.000000e+00
 0.000000e+00 0.000000e+00 0.000000e+00 0.000000e+00 0.000000e+00 0.000000e+00 0.000000e+00 0.000000e+00 0.000000e+00 0.000000e+00 4.545996e-01 5.454004e-01 0.000000e+00 0.000000e+00 0.000000e+00 0.000000e+00 0.000000e+00 0.000000e+00 0.000000e+00 0.000000e+00 0.000000e+00 0.000000e+00 0.000000e+00 0.000000e+00 0.000000e+00 0.000000e+00 0.000000e+00 0.000000e+00 0.000000e+00 0.000000e+00 0.000000e+00 0.000000e+00 0.000000e+00 0.000000e+00 0.000000e+00 0.000000e+00 0.000000e+00
 0.000000e+00 0.000000e+00 0.000000e+00 0.000000e+00 0.000000e+00 0.000000e+00 0.000000e+00 0.000000e+00 0.000000e+00 0.000000e+00 0.000000e+00 5.377511e-01 4.622488e-01 0.000000e+00 0.000000e+00 0.000000e+00 0.000000e+00 0.000000e+00 0.000000e+00 0.000000e+00 0.000000e+00 0.000000e+00 0.000000e+00 0.000000e+00 0.000000e+00 0.000000e+00 0.000000e+00 0.000000e+00 0.000000e+00 0.000000e+00 0.000000e+00 0.000000e+00 0.000000e+00 0.000000e+00 0.000000e+00 0.000000e+00 0.000000e+00
 0.000000e+00 0.000000e+00 0.000000e+00 0.000000e+00 0.000000e+00 0.000000e+00 0.000000e+00 0.000000e+00 0.000000e+00 0.000000e+00 0.000000e+00 0.000000e+00 2.870936e-01 7.129064e-01 0.000000e+00 0.000000e+00 0.000000e+00 0.000000e+00 0.000000e+00 0.000000e+00 0.000000e+00 0.000000e+00 0.000000e+00 0.000000e+00 0.000000e+00 0.000000e+00 0.000000e+00 0.000000e+00 0.000000e+00 0.000000e+00 0.000000e+00 0.000000e+00 0.000000e+00 0.000000e+00 0.000000e+00 0.000000e+00 0.000000e+00
 0.000000e+00 0.000000e+00 0.000000e+00 0.000000e+00 0.000000e+00 0.000000e+00 0.000000e+00 0.000000e+00 0.000000e+00 0.000000e+00 0.000000e+00 0.000000e+00 0.000000e+00 3.754899e-01 6.245102e-01 0.000000e+00 0.000000e+00 0.000000e+00 0.000000e+00 0.000000e+00 0.000000e+00 0.000000e+00 0.000000e+00 0.000000e+00 0.000000e+00 0.000000e+00 0.000000e+00 0.000000e+00 0.000000e+00 0.000000e+00 0.000000e+00 0.000000e+00 0.000000e+00 0.000000e+00 0.000000e+00 0.000000e+00 0.000000e+00
 0.000000e+00 0.000000e+00 0.000000e+00 0.000000e+00 0.000000e+00 0.000000e+00 0.000000e+00 0.000000e+00 0.000000e+00 0.000000e+00 0.000000e+00 0.000000e+00 0.000000e+00 0.000000e+00 3.750642e-01 6.249358e-01 0.000000e+00 0.000000e+00 0.000000e+00 0.000000e+00 0.000000e+00 0.000000e+00 0.000000e+00 0.000000e+00 0.000000e+00 0.000000e+00 0.000000e+00 0.000000e+00 0.000000e+00 0.000000e+00 0.000000e+00 0.000000e+00 0.000000e+00 0.000000e+00 0.000000e+00 0.000000e+00 0.000000e+00
 0.000000e+00 0.000000e+00 0.000000e+00 0.000000e+00 0.000000e+00 0.000000e+00 0.000000e+00 0.000000e+00 0.000000e+00 0.000000e+00 0.000000e+00 0.000000e+00 0.000000e+00 0.000000e+00 0.000000e+00 3.746876e-01 6.253124e-01 0.000000e+00 0.000000e+00 0.000000e+00 0.000000e+00 0.000000e+00 0.000000e+00 0.000000e+00 0.000000e+00 0.000000e+00 0.000000e+00 0.000000e+00 0.000000e+00 0.000000e+00 0.000000e+00 0.000000e+00 0.000000e+00 0.000000e+00 0.000000e+00 0.000000e+00 0.000000e+00
 0.000000e+00 0.000000e+00 0.000000e+00 0.000000e+00 0.000000e+00 0.000000e+00 0.000000e+00 0.000000e+00 0.000000e+00 0.000000e+00 0.000000e+00 0.000000e+00 0.000000e+00 0.000000e+00 0.000000e+00 0.000000e+00 3.749521e-01 6.250480e-01 0.000000e+00 0.000000e+00 0.000000e+00 0.000000e+00 0.000000e+00 0.000000e+00 0.000000e+00 0.000000e+00 0.000000e+00 0.000000e+00 0.000000e+00 0.000000e+00 0.000000e+00 0.000000e+00 0.000000e+00 0.000000e+00 0.000000e+00 0.000000e+00 0.000000e+00
 0.000000e+00 0.000000e+00 0.000000e+00 0.000000e+00 0.000000e+00 0.000000e+00 0.000000e+00 0.000000e+00 0.000000e+00 0.000000e+00 0.000000e+00 0.000000e+00 0.000000e+00 0.000000e+00 0.000000e+00 0.000000e+00 0.000000e+00 5.453535e-01 4.546466e-01 0.000000e+00 0.000000e+00 0.000000e+00 0.000000e+00 0.000000e+00 0.000000e+00 0.000000e+00 0.000000e+00 0.000000e+00 0.000000e+00 0.000000e+00 0.000000e+00 0.000000e+00 0.000000e+00 0.000000e+00 0.000000e+00 0.000000e+00 0.000000e+00
 0.000000e+00 0.000000e+00 0.000000e+00 0.000000e+00 0.000000e+00 0.000000e+00 0.000000e+00 0.000000e+00 0.000000e+00 0.000000e+00 0.000000e+00 0.000000e+00 0.000000e+00 0.000000e+00 0.000000e+00 0.000000e+00 0.000000e+00 0.000000e+00 2.858924e-01 7.141076e-01 0.000000e+00 0.000000e+00 0.000000e+00 0.000000e+00 0.000000e+00 0.000000e+00 0.000000e+00 0.000000e+00 0.000000e+00 0.000000e+00 0.000000e+00 0.000000e+00 0.000000e+00 0.000000e+00 0.000000e+00 0.000000e+00 0.000000e+00
 0.000000e+00 0.000000e+00 0.000000e+00 0.000000e+00 0.000000e+00 0.000000e+00 0.000000e+00 0.000000e+00 0.000000e+00 0.000000e+00 0.000000e+00 0.000000e+00 0.000000e+00 0.000000e+00 0.000000e+00 0.000000e+00 0.000000e+00 0.000000e+00 0.000000e+00 4.430336e-01 5.569664e-01 0.000000e+00 0.000000e+00 0.000000e+00 0.000000e+00 0.000000e+00 0.000000e+00 0.000000e+00 0.000000e+00 0.000000e+00 0.000000e+00 0.000000e+00 0.000000e+00 0.000000e+00 0.000000e+00 0.000000e+00 0.000000e+00
 0.000000e+00 0.000000e+00 0.000000e+00 0.000000e+00 0.000000e+00 0.000000e+00 0.000000e+00 0.000000e+00 0.000000e+00 0.000000e+00 0.000000e+00 0.000000e+00 0.000000e+00 0.000000e+00 0.000000e+00 0.000000e+00 0.000000e+00 0.000000e+00 0.000000e+00 0.000000e+00 5.011899e-01 4.988101e-01 0.000000e+00 0.000000e+00 0.000000e+00 0.000000e+00 0.000000e+00 0.000000e+00 0.000000e+00 0.000000e+00 0.000000e+00 0.000000e+00 0.000000e+00 0.000000e+00 0.000000e+00 0.000000e+00 0.000000e+00
 0.000000e+00 0.000000e+00 0.000000e+00 0.000000e+00 0.000000e+00 0.000000e+00 0.000000e+00 0.000000e+00 0.000000e+00 0.000000e+00 0.000000e+00 0.000000e+00 0.000000e+00 0.000000e+00 0.000000e+00 0.000000e+00 0.000000e+00 0.000000e+00 0.000000e+00 0.000000e+00 0.000000e+00 3.750315e-01 6.249685e-01 0.000000e+00 0.000000e+00 0.000000e+00 0.000000e+00 0.000000e+00 0.000000e+00 0.000000e+00 0.000000e+00 0.000000e+00 0.000000e+00 0.000000e+00 0.000000e+00 0.000000e+00 0.000000e+00
 0.000000e+00 0.000000e+00 0.000000e+00 0.000000e+00 0.000000e+00 0.000000e+00 0.000000e+00 0.000000e+00 0.000000e+00 0.000000e+00 0.000000e+00 0.000000e+00 0.000000e+00 0.000000e+00 0.000000e+00 0.000000e+00 0.000000e+00 0.000000e+00 0.000000e+00 0.000000e+00 0.000000e+00 0.000000e+00 5.454447e-01 4.545554e-01 0.000000e+00 0.000000e+00 0.000000e+00 0.000000e+00 0.000000e+00 0.000000e+00 0.000000e+00 0.000000e+00 0.000000e+00 0.000000e+00 0.000000e+00 0.000000e+00 0.000000e+00
 0.000000e+00 0.000000e+00 0.000000e+00 0.000000e+00 0.000000e+00 0.000000e+00 0.000000e+00 0.000000e+00 0.000000e+00 0.000000e+00 0.000000e+00 0.000000e+00 0.000000e+00 0.000000e+00 0.000000e+00 0.000000e+00 0.000000e+00 0.000000e+00 0.000000e+00 0.000000e+00 0.000000e+00 0.000000e+00 0.000000e+00 5.000015e-01 4.999986e-01 0.000000e+00 0.000000e+00 0.000000e+00 0.000000e+00 0.000000e+00 0.000000e+00 0.000000e+00 0.000000e+00 0.000000e+00 0.000000e+00 0.000000e+00 0.000000e+00
 0.000000e+00 0.000000e+00 0.000000e+00 0.000000e+00 0.000000e+00 0.000000e+00 0.000000e+00 0.000000e+00 0.000000e+00 0.000000e+00 0.000000e+00 0.000000e+00 0.000000e+00 0.000000e+00 0.000000e+00 0.000000e+00 0.000000e+00 0.000000e+00 0.000000e+00 0.000000e+00 0.000000e+00 0.000000e+00 0.000000e+00 0.000000e+00 0.000000e+00 1.000000e+00 0.000000e+00 0.000000e+00 0.000000e+00 0.000000e+00 0.000000e+00 0.000000e+00 0.000000e+00 0.000000e+00 0.000000e+00 0.000000e+00 0.000000e+00
 0.000000e+00 0.000000e+00 0.000000e+00 0.000000e+00 0.000000e+00 0.000000e+00 0.000000e+00 0.000000e+00 0.000000e+00 0.000000e+00 0.000000e+00 0.000000e+00 0.000000e+00 0.000000e+00 0.000000e+00 0.000000e+00 0.000000e+00 0.000000e+00 0.000000e+00 0.000000e+00 0.000000e+00 0.000000e+00 0.000000e+00 0.000000e+00 0.000000e+00 3.750277e-01 6.249724e-01 0.000000e+00 0.000000e+00 0.000000e+00 0.000000e+00 0.000000e+00 0.000000e+00 0.000000e+00 0.000000e+00 0.000000e+00 0.000000e+00
 0.000000e+00 0.000000e+00 0.000000e+00 0.000000e+00 0.000000e+00 0.000000e+00 0.000000e+00 0.000000e+00 0.000000e+00 0.000000e+00 0.000000e+00 0.000000e+00 0.000000e+00 0.000000e+00 0.000000e+00 0.000000e+00 0.000000e+00 0.000000e+00 0.000000e+00 0.000000e+00 0.000000e+00 0.000000e+00 0.000000e+00 0.000000e+00 0.000000e+00 0.000000e+00 5.454367e-01 4.545633e-01 0.000000e+00 0.000000e+00 0.000000e+00 0.000000e+00 0.000000e+00 0.000000e+00 0.000000e+00 0.000000e+00 0.000000e+00
 0.000000e+00 0.000000e+00 0.000000e+00 0.000000e+00 0.000000e+00 0.000000e+00 0.000000e+00 0.000000e+00 0.000000e+00 0.000000e+00 0.000000e+00 0.000000e+00 0.000000e+00 0.000000e+00 0.000000e+00 0.000000e+00 0.000000e+00 0.000000e+00 0.000000e+00 0.000000e+00 0.000000e+00 0.000000e+00 0.000000e+00 0.000000e+00 0.000000e+00 0.000000e+00 0.000000e+00 4.999198e-01 5.000802e-01 0.000000e+00 0.000000e+00 0.000000e+00 0.000000e+00 0.000000e+00 0.000000e+00 0.000000e+00 0.000000e+00
 0.000000e+00 0.000000e+00 0.000000e+00 0.000000e+00 0.000000e+00 0.000000e+00 0.000000e+00 0.000000e+00 0.000000e+00 0.000000e+00 0.000000e+00 0.000000e+00 0.000000e+00 0.000000e+00 0.000000e+00 0.000000e+00 0.000000e+00 0.000000e+00 0.000000e+00 0.000000e+00 0.000000e+00 0.000000e+00 0.000000e+00 0.000000e+00 0.000000e+00 0.000000e+00 0.000000e+00 0.000000e+00 3.751568e-01 6.248432e-01 0.000000e+00 0.000000e+00 0.000000e+00 0.000000e+00 0.000000e+00 0.000000e+00 0.000000e+00
 0.000000e+00 0.000000e+00 0.000000e+00 0.000000e+00 0.000000e+00 0.000000e+00 0.000000e+00 0.000000e+00 0.000000e+00 0.000000e+00 0.000000e+00 0.000000e+00 0.000000e+00 0.000000e+00 0.000000e+00 0.000000e+00 0.000000e+00 0.000000e+00 0.000000e+00 0.000000e+00 0.000000e+00 0.000000e+00 0.000000e+00 0.000000e+00 0.000000e+00 0.000000e+00 0.000000e+00 0.000000e+00 0.000000e+00 4.442319e-01 5.557681e-01 0.000000e+00 0.000000e+00 0.000000e+00 0.000000e+00 0.000000e+00 0.000000e+00
 0.000000e+00 0.000000e+00 0.000000e+00 0.000000e+00 0.000000e+00 0.000000e+00 0.000000e+00 0.000000e+00 0.000000e+00 0.000000e+00 0.000000e+00 0.000000e+00 0.000000e+00 0.000000e+00 0.000000e+00 0.000000e+00 0.000000e+00 0.000000e+00 0.000000e+00 0.000000e+00 0.000000e+00 0.000000e+00 0.000000e+00 0.000000e+00 0.000000e+00 0.000000e+00 0.000000e+00 0.000000e+00 0.000000e+00 0.000000e+00 3.731261e-01 6.268739e-01 0.000000e+00 0.000000e+00 0.000000e+00 0.000000e+00 0.000000e+00
 0.000000e+00 0.000000e+00 0.000000e+00 0.000000e+00 0.000000e+00 0.000000e+00 0.000000e+00 0.000000e+00 0.000000e+00 0.000000e+00 0.000000e+00 0.000000e+00 0.000000e+00 0.000000e+00 0.000000e+00 0.000000e+00 0.000000e+00 0.000000e+00 0.000000e+00 0.000000e+00 0.000000e+00 0.000000e+00 0.000000e+00 0.000000e+00 0.000000e+00 0.000000e+00 0.000000e+00 0.000000e+00 0.000000e+00 0.000000e+00 0.000000e+00 2.886667e-01 7.113333e-01 0.000000e+00 0.000000e+00 0.000000e+00 0.000000e+00
 0.000000e+00 0.000000e+00 0.000000e+00 0.000000e+00 0.000000e+00 0.000000e+00 0.000000e+00 0.000000e+00 0.000000e+00 0.000000e+00 0.000000e+00 0.000000e+00 0.000000e+00 0.000000e+00 0.000000e+00 0.000000e+00 0.000000e+00 0.000000e+00 0.000000e+00 0.000000e+00 0.000000e+00 0.000000e+00 0.000000e+00 0.000000e+00 0.000000e+00 0.000000e+00 0.000000e+00 0.000000e+00 0.000000e+00 0.000000e+00 0.000000e+00 0.000000e+00 5.453826e-01 4.546174e-01 0.000000e+00 0.000000e+00 0.000000e+00
 0.000000e+00 0.000000e+00 0.000000e+00 0.000000e+00 0.000000e+00 0.000000e+00 0.000000e+00 0.000000e+00 0.000000e+00 0.000000e+00 0.000000e+00 0.000000e+00 0.000000e+00 0.000000e+00 0.000000e+00 0.000000e+00 0.000000e+00 0.000000e+00 0.000000e+00 0.000000e+00 0.000000e+00 0.000000e+00 0.000000e+00 0.000000e+00 0.000000e+00 0.000000e+00 0.000000e+00 0.000000e+00 0.000000e+00 0.000000e+00 0.000000e+00 0.000000e+00 0.000000e+00 3.761210e-01 6.238790e-01 0.000000e+00 0.000000e+00
 0.000000e+00 0.000000e+00 0.000000e+00 0.000000e+00 0.000000e+00 0.000000e+00 0.000000e+00 0.000000e+00 0.000000e+00 0.000000e+00 0.000000e+00 0.000000e+00 0.000000e+00 0.000000e+00 0.000000e+00 0.000000e+00 0.000000e+00 0.000000e+00 0.000000e+00 0.000000e+00 0.000000e+00 0.000000e+00 0.000000e+00 0.000000e+00 0.000000e+00 0.000000e+00 0.000000e+00 0.000000e+00 0.000000e+00 0.000000e+00 0.000000e+00 0.000000e+00 0.000000e+00 0.000000e+00 4.992729e-01 5.007272e-01 0.000000e+00
 0.000000e+00 0.000000e+00 0.000000e+00 0.000000e+00 0.000000e+00 0.000000e+00 0.000000e+00 0.000000e+00 0.000000e+00 0.000000e+00 0.000000e+00 0.000000e+00 0.000000e+00 0.000000e+00 0.000000e+00 0.000000e+00 0.000000e+00 0.000000e+00 0.000000e+00 0.000000e+00 0.000000e+00 0.000000e+00 0.000000e+00 0.000000e+00 0.000000e+00 0.000000e+00 0.000000e+00 0.000000e+00 0.000000e+00 0.000000e+00 0.000000e+00 0.000000e+00 0.000000e+00 0.000000e+00 0.000000e+00 0.000000e+00 1.000000e+00
 0.000000e+00 0.000000e+00 0.000000e+00 0.000000e+00 0.000000e+00 0.000000e+00 0.000000e+00 0.000000e+00 0.000000e+00 0.000000e+00 0.000000e+00 0.000000e+00 0.000000e+00 0.000000e+00 0.000000e+00 0.000000e+00 0.000000e+00 0.000000e+00 0.000000e+00 0.000000e+00 0.000000e+00 0.000000e+00 0.000000e+00 0.000000e+00 0.000000e+00 0.000000e+00 0.000000e+00 0.000000e+00 0.000000e+00 0.000000e+00 0.000000e+00 0.000000e+00 0.000000e+00 0.000000e+00 0.000000e+00 0.000000e+00 0.000000e+00
<ENDHMM>
