~o
<STREAMINFO> 1 39
<VECSIZE> 39<NULLD><MFCC_E_D_A><DIAGC>
~h "Tie^p"
<BEGINHMM>
<NUMSTATES> 37
<STATE> 2
<MEAN> 39
 -6.302065e+00 -7.969009e+00 -5.346603e-01 -7.439887e-01 1.071582e+00 -4.139751e+00 8.593030e-01 -1.840438e+00 2.169172e+00 -3.932905e+00 2.174456e+00 -1.161007e+00 -5.251048e-03 -2.729617e-01 6.474042e-01 -9.895492e-01 3.365960e-01 -1.232490e-01 -9.078749e-03 -1.499579e-01 -2.591655e-01 -6.571670e-01 -1.010953e+00 2.356266e-01 -3.898945e-01 2.369581e-02 -1.523591e-01 5.442493e-02 -5.850523e-01 -2.859221e-01 -3.881911e-01 -3.099843e-01 3.847809e-01 3.790769e-03 4.984854e-02 1.019430e-01 8.834810e-02 3.849954e-02 3.817470e-02
<VARIANCE> 39
 2.266566e+00 3.948879e+00 5.065968e+00 8.189570e+00 1.223113e+01 1.111893e+01 3.389929e+00 1.199622e+01 6.625232e+00 1.562404e+01 1.387751e+01 4.598492e+00 5.000000e-02 8.577327e-01 9.586999e-01 1.222978e+00 1.406282e+00 1.332850e+00 5.758332e-01 2.046759e+00 9.406253e-01 6.213247e-01 1.291212e+00 7.916349e-01 9.153878e-01 5.000000e-02 8.126135e-02 2.769935e-01 4.834720e-01 6.280499e-01 3.661844e-01 3.135257e-01 2.602028e-01 3.962207e-01 6.336075e-02 4.650805e-01 3.193882e-01 2.043120e-01 5.000000e-02
<GCONST> 7.053925e+01
<STATE> 3
<MEAN> 39
 -7.264461e+00 -3.484279e+00 -2.411851e+00 9.235943e-01 -6.914747e-01 -2.661324e+00 -2.493925e+00 -2.215030e+00 -5.088037e-01 -4.751512e+00 6.312585e-01 -5.820771e+00 5.063418e-03 -2.635108e-01 2.897130e-01 -2.334682e+00 -8.128306e-01 -9.126567e-01 -1.756227e+00 1.725833e+00 2.045374e-01 -4.676657e-01 -9.715080e-02 5.256692e-01 4.404369e-01 1.253040e-01 1.715599e-01 -9.263258e-01 4.592188e-02 -1.083465e+00 -9.583160e-01 -9.785034e-01 5.194083e-01 3.571934e-01 4.809291e-01 8.887026e-01 1.692652e-01 5.500019e-01 4.712206e-02
<VARIANCE> 39
 1.597254e+01 1.523504e+01 8.303473e+00 1.194380e+01 2.633361e+01 1.461790e+01 1.624361e+01 1.769678e+00 4.878545e+00 4.440292e+00 1.798518e+01 1.204581e+01 5.000000e-02 9.026490e-01 1.416323e+00 6.076551e+00 4.510906e+00 2.507758e+00 2.831124e+00 1.102577e+00 5.208827e+00 2.473047e-01 2.589338e+00 1.594759e+00 1.370597e+00 5.000000e-02 4.786297e-01 5.012803e-02 6.293821e-01 1.563762e-01 1.271837e+00 1.882087e-01 2.584013e-01 2.672928e-01 5.891082e-02 3.393052e-01 3.166704e-01 2.327368e-01 5.000000e-02
<GCONST> 8.147640e+01
<STATE> 4
<MEAN> 39
 -6.097936e+00 -6.176586e+00 -6.495989e+00 -8.010439e-01 -1.119855e+00 -7.858217e+00 5.569953e+00 -3.496860e+00 7.217935e-01 -3.682789e+00 4.548584e+00 -1.031594e+00 2.920502e-01 1.825364e-01 -1.624943e+00 -1.157590e+00 -2.637580e+00 -2.909025e+00 -2.490958e+00 9.491179e-01 2.520287e-01 7.083292e-01 1.336697e+00 6.614936e-01 1.004837e+00 1.563481e-01 -3.170292e-01 -5.930662e-01 5.135605e-01 -7.575490e-01 -7.110674e-01 1.252487e-01 -4.648455e-01 4.099118e-01 5.622253e-01 8.184878e-01 -5.927647e-01 -8.992331e-02 9.583341e-04
<VARIANCE> 39
 7.651936e+00 6.553160e+00 6.923711e+01 1.276040e+01 5.283418e+01 4.014525e+01 2.813193e+01 3.467205e+01 1.272283e+00 1.103560e+01 1.035158e+01 1.011381e+01 6.403160e-02 1.615419e+00 4.104741e-01 7.014638e+00 1.913175e+00 7.933894e+00 5.514797e+00 2.779981e+00 3.557285e+00 2.090803e-01 9.714407e-01 2.758028e+00 7.271006e-01 5.000000e-02 2.305773e-01 2.143081e-01 1.164824e+00 6.668187e-01 1.093915e+00 8.238439e-01 2.311630e-01 1.729222e+00 6.496222e-02 1.438827e+00 2.226270e-01 3.346076e-01 5.000000e-02
<GCONST> 9.358105e+01
<STATE> 5
<MEAN> 39
 -7.973993e+00 -9.221820e+00 -7.867889e+00 -7.449609e+00 -6.988204e+00 -1.050093e+01 2.805380e+00 -2.223253e+00 2.344152e+00 -3.594553e+00 4.184266e+00 6.871718e-01 5.526198e-01 -9.928594e-01 -2.241188e+00 -8.165696e-01 -3.035797e+00 -4.172439e+00 -2.385404e+00 5.893223e-01 1.131294e+00 2.060178e+00 2.922291e+00 -9.275596e-01 3.088172e-01 1.489652e-01 -5.202708e-03 -1.621055e-01 9.646143e-01 1.030399e-01 2.182952e-01 4.555550e-01 1.498611e-02 2.765255e-01 1.714326e-01 8.564363e-01 -3.513324e-01 -1.448366e-01 -2.987042e-02
<VARIANCE> 39
 1.100148e+01 1.520075e+01 5.685609e+01 1.563833e+01 9.954006e+01 9.060580e+01 1.564163e+01 1.277235e+01 8.074457e+00 1.813342e+01 3.953754e+01 1.641821e+01 1.181982e-01 2.358630e-01 4.827838e-01 2.902340e+00 4.190537e+00 9.870614e+00 7.962561e+00 1.541358e+00 6.066136e+00 1.841455e-01 4.916887e+00 1.969303e+00 4.092874e+00 5.000000e-02 2.439620e-01 3.679751e-01 9.937944e-01 5.695289e-02 1.166926e+00 5.841115e-01 1.530186e-01 6.178476e-02 1.614495e-01 9.633735e-01 5.747030e-01 4.627796e-01 5.000000e-02
<GCONST> 9.672718e+01
<STATE> 6
<MEAN> 39
 -8.603496e+00 -1.335631e+01 -5.658379e+00 -1.042059e+01 -1.251332e+01 -1.288861e+01 4.891021e+00 1.494533e+00 5.925393e+00 3.893896e+00 9.644865e-01 1.197766e+00 5.656136e-01 -4.805303e-01 -1.109779e+00 1.401706e+00 -2.152450e+00 -1.645512e+00 -3.294570e-01 4.251151e-01 9.303420e-01 6.130241e-01 2.808993e+00 -6.522605e-01 4.573230e-01 5.382353e-02 3.280044e-01 4.970146e-01 6.190168e-01 5.896553e-01 9.459235e-01 7.934396e-01 -6.196430e-02 -5.141584e-01 -5.022825e-01 -3.553542e-01 1.331021e-02 -3.986302e-01 -2.895843e-02
<VARIANCE> 39
 2.424957e+00 4.101691e+00 2.887801e+01 3.723433e+01 7.652724e+01 1.259441e+02 4.027884e+01 2.206386e+01 1.408824e+01 3.064408e+01 1.661652e+01 3.425704e+01 2.444348e-01 1.067114e+00 3.143026e+00 8.425302e-01 2.488862e+00 6.071179e+00 1.681230e+00 1.007356e+00 2.446821e+00 1.071254e+00 8.652218e+00 4.031356e+00 3.232179e+00 5.000000e-02 6.010070e-02 9.821386e-02 6.595223e-01 2.975622e-01 7.258354e-01 9.359937e-01 8.330005e-02 4.304798e-01 1.054984e-01 2.176181e-01 4.376037e-01 6.108841e-01 5.000000e-02
<GCONST> 9.633067e+01
<STATE> 7
<MEAN> 39
 -9.120813e+00 -1.307904e+01 -3.751127e+00 -1.286388e+01 -1.274335e+01 -1.096027e+01 4.624605e+00 -7.927259e-01 6.242010e+00 6.779382e+00 2.483192e+00 3.366339e-01 6.610897e-01 1.928711e-01 -7.301536e-01 1.479619e+00 -1.155490e+00 -2.090129e-01 4.219508e-01 6.146888e-01 3.094881e-03 5.059099e-02 2.225241e+00 -9.098395e-01 -1.027590e+00 3.722813e-02 1.770780e-01 4.094245e-01 1.367609e-01 6.405739e-01 9.224647e-01 6.720526e-01 -1.680609e-01 -2.618615e-01 -2.064089e-01 -9.552222e-01 -1.590146e-01 -3.019969e-01 -3.281234e-02
<VARIANCE> 39
 4.130920e+00 1.681873e+01 3.742566e+01 3.814111e+01 6.434275e+01 1.079499e+02 5.110724e+01 3.051844e+01 2.106253e+00 6.554739e+01 2.025818e+01 1.846065e+01 2.050142e-01 6.832085e-01 1.952274e+00 1.398558e+00 9.740710e-01 1.258229e+00 1.774354e+00 1.194058e+00 5.234064e-01 1.398439e+00 9.159556e+00 1.185282e-01 1.017701e+00 5.000000e-02 5.000000e-02 4.544669e-01 3.374018e-01 2.265635e-01 6.945191e-01 7.375435e-01 1.683209e-01 3.439229e-01 1.957468e-01 6.756166e-01 4.216048e-01 4.266172e-01 5.000000e-02
<GCONST> 9.040877e+01
<STATE> 8
<MEAN> 39
 -9.276095e+00 -1.539562e+01 -1.990143e+00 -1.722577e+01 -1.490755e+01 -1.182327e+01 5.991603e+00 3.042227e+00 4.154202e+00 1.157317e+01 -1.663580e+00 -1.190880e+00 8.779519e-01 -1.825627e-01 1.289986e-01 1.074763e+00 -5.592816e-01 1.760267e-01 1.154240e+00 1.692891e-01 -1.741254e-01 -7.533086e-02 -2.543024e-01 -8.765414e-01 -4.791947e-01 5.175095e-03 -3.598370e-02 4.092888e-01 -2.539444e-01 3.386200e-01 2.941193e-01 2.035093e-01 -2.369352e-01 -2.663785e-01 -2.639472e-01 -1.183814e+00 1.488706e-01 3.080629e-02 -1.705593e-02
<VARIANCE> 39
 2.184132e+00 9.111682e+00 1.723808e+01 3.024163e+01 3.880485e+01 5.103371e+01 3.423431e+01 1.968808e+01 6.785884e+00 4.652856e+01 2.427799e+01 5.013550e+00 9.288476e-02 3.607120e-01 8.976454e-01 1.088178e+00 3.714527e-01 1.335564e-01 4.238205e-01 5.491387e-01 4.600981e-01 2.532159e-01 2.228862e+00 7.252244e-01 2.650438e-01 5.000000e-02 5.000000e-02 2.857793e-01 5.000000e-02 1.147713e-01 2.458831e-01 1.968795e-01 1.172490e-01 1.258944e-01 1.036894e-01 1.103084e+00 1.782237e-01 2.552487e-01 5.000000e-02
<GCONST> 6.680420e+01
<STATE> 9
<MEAN> 39
 -8.108315e+00 -1.184440e+01 8.371403e-02 -1.261888e+01 -9.690157e+00 -8.910183e+00 3.528101e+00 -1.136293e+00 5.512500e+00 4.849665e+00 -1.947206e-01 -3.316142e-01 5.830132e-01 1.659223e-02 2.820585e-01 5.711252e-01 -5.335394e-01 -3.286934e-01 6.769485e-01 -4.525803e-01 -1.646412e-01 -2.595826e-01 -6.687456e-01 -3.597465e-01 -4.129920e-01 -9.048606e-04 -2.943472e-02 7.206057e-02 -3.102327e-01 1.443568e-01 9.806778e-02 -7.133394e-02 7.540790e-03 -1.565215e-01 -2.083881e-01 -4.045728e-01 -7.109369e-02 -2.686969e-02 -3.886450e-03
<VARIANCE> 39
 8.543759e+00 1.871587e+01 1.728530e+01 5.525222e+01 8.435394e+01 1.001927e+02 5.807047e+01 1.849442e+01 3.253905e+00 7.968357e+01 1.902799e+01 7.204540e+00 2.203690e-01 1.181405e-01 9.802882e-02 1.043762e+00 3.106266e-01 1.672667e-01 4.663826e-01 1.234470e+00 3.741620e-01 4.807326e-01 7.151192e-01 1.178368e+00 4.776007e-01 5.000000e-02 5.000000e-02 1.634681e-01 8.628747e-02 6.327659e-02 1.763048e-01 2.929147e-01 1.335927e-01 5.000000e-02 5.000000e-02 8.230178e-01 1.734648e-01 1.160289e-01 5.000000e-02
<GCONST> 6.697325e+01
<STATE> 10
<MEAN> 39
 -9.164152e+00 -1.423371e+01 -1.817189e+00 -1.845301e+01 -1.513314e+01 -1.201346e+01 7.508698e+00 8.990260e-01 4.031884e+00 7.237888e+00 -1.597309e+00 -3.997853e+00 8.830634e-01 -1.235918e-01 -1.014451e-01 2.409496e-01 -4.218254e-01 2.763164e-01 6.670799e-01 4.058358e-02 -7.815123e-01 -4.346170e-01 -1.029168e+00 -1.262551e+00 -7.781031e-01 -6.511362e-03 2.083581e-02 -9.236442e-02 -2.828710e-01 2.318650e-01 1.393842e-01 -2.363363e-01 1.051046e-01 -1.066463e-01 -7.579356e-02 8.798984e-02 -1.105266e-01 -1.074333e-02 -2.089131e-03
<VARIANCE> 39
 8.189097e+00 9.357882e+00 6.192030e+00 2.443172e+01 3.356959e+01 5.934895e+01 3.847435e+01 2.170595e+01 1.350731e+01 1.920095e+01 1.379836e+01 1.550697e+01 7.114382e-02 1.819275e-01 2.087987e-01 2.615153e-01 5.120937e-01 1.330675e+00 2.206807e+00 4.747899e-01 6.360979e-01 8.283163e-01 9.614056e-01 7.326408e-01 6.427195e-01 5.000000e-02 6.500240e-02 6.829576e-02 1.910269e-01 6.077150e-02 7.136589e-02 1.381033e-01 1.776213e-01 1.840932e-01 5.000000e-02 2.837404e-01 5.363550e-02 5.000000e-02 5.000000e-02
<GCONST> 6.317755e+01
<STATE> 11
<MEAN> 39
 -7.236518e+00 -1.139223e+01 8.210151e-01 -1.142138e+01 -6.487500e+00 -5.783860e+00 3.037370e+00 -4.097972e+00 3.993623e+00 -7.195563e-01 -2.772744e+00 -6.066166e-01 4.732496e-01 4.774883e-02 -1.078733e-01 -3.909135e-02 1.342288e-01 1.603148e-03 3.946637e-01 2.605490e-01 -4.210313e-01 -1.248566e-01 -4.025195e-01 -5.247750e-01 -4.409927e-01 -1.654351e-03 5.146860e-03 4.220504e-02 4.526024e-02 1.193969e-01 -9.281145e-02 1.593344e-01 8.473029e-02 2.307151e-01 1.718059e-01 2.046064e-01 9.458470e-02 2.851577e-02 -1.882682e-03
<VARIANCE> 39
 8.797811e+00 1.085229e+01 7.662136e+00 7.194861e+01 7.980160e+01 4.065184e+01 3.998069e+01 1.792285e+01 1.065014e+01 7.089231e+01 5.191526e+00 2.219863e+01 1.927189e-01 1.133554e-01 2.325617e-01 2.133837e-01 2.986055e-01 7.745024e-01 1.059332e+00 4.181743e-01 8.014371e-01 4.741278e-01 7.433606e-01 8.190933e-01 3.416968e-01 5.000000e-02 5.000000e-02 5.000000e-02 5.000000e-02 5.356593e-02 1.739581e-01 1.309310e-01 5.000000e-02 5.000000e-02 1.562940e-01 1.086838e-01 1.874758e-01 7.652130e-02 5.000000e-02
<GCONST> 6.093957e+01
<STATE> 12
<MEAN> 39
 -9.077619e+00 -1.413491e+01 -8.535008e-01 -1.625820e+01 -1.246080e+01 -7.171441e+00 5.921978e+00 -2.495447e+00 2.549706e+00 4.452289e+00 -5.710784e+00 -5.169725e+00 7.412983e-01 4.874294e-02 -2.192061e-01 3.971154e-01 3.709163e-01 2.964496e-01 5.535213e-01 6.239580e-01 2.666425e-01 -1.582183e-01 -2.168929e-01 -1.271349e+00 -1.700266e-01 -1.343335e-02 1.216758e-01 -1.171659e-01 8.999465e-02 1.294735e-01 2.564185e-01 -1.683152e-01 -6.358089e-02 2.409713e-01 -9.755876e-02 -3.539545e-01 1.141433e-01 2.395969e-01 -4.568146e-03
<VARIANCE> 39
 6.275739e+00 1.439926e+01 2.330658e+01 7.619585e+01 6.493745e+01 4.907569e+01 1.781881e+01 2.796755e+01 2.436926e+01 4.108174e+01 1.551178e+01 2.598769e+01 1.394911e-01 6.701332e-01 3.997305e-01 4.590970e-01 2.058787e-01 5.303463e-01 2.885123e-01 6.949382e-01 4.490461e-01 2.441825e+00 8.788295e-01 4.320376e-01 3.194625e-01 5.000000e-02 5.321910e-02 5.000000e-02 5.000000e-02 5.000000e-02 1.835234e-01 2.536015e-01 5.000000e-02 1.250112e-01 1.335408e-01 1.500884e-01 9.759457e-02 1.135760e-01 5.000000e-02
<GCONST> 6.647817e+01
<STATE> 13
<MEAN> 39
 -9.467961e+00 -1.276228e+01 -2.246155e-01 -1.344141e+01 -1.369681e+01 -6.885820e+00 8.174841e+00 -1.935318e+00 4.466046e+00 2.789241e+00 -5.708472e+00 -4.503856e+00 6.949387e-01 3.584025e-01 -1.255345e-01 1.861131e-01 5.225399e-01 1.280030e+00 7.097923e-01 9.907258e-02 -1.158943e-01 -6.833564e-01 -9.291727e-01 -1.483621e-01 -2.286789e-01 -1.800799e-02 3.219063e-01 -2.716732e-01 -1.345401e-02 -6.841314e-03 2.948299e-01 -4.534969e-01 -1.956106e-01 -8.920337e-02 -6.772131e-02 -1.514140e-01 3.284830e-01 -2.977611e-02 -1.507770e-03
<VARIANCE> 39
 1.980514e+00 1.114873e+01 2.655411e+01 5.588972e+01 8.364491e+01 5.638625e+01 2.586571e+01 1.743579e+01 3.450275e+01 3.696669e+01 1.544909e+01 2.886479e+01 1.692013e-01 2.909209e-01 5.491292e-01 1.631905e-01 7.272847e-01 6.990632e-01 1.228779e+00 5.361394e-01 1.866533e+00 7.094385e-01 9.635096e-01 6.076902e-01 9.650007e-01 5.000000e-02 5.000000e-02 5.000000e-02 5.506690e-02 6.892960e-02 1.933190e-01 3.960817e-01 1.017987e-01 2.950011e-01 2.423277e-01 1.499414e-01 1.530943e-01 5.000000e-02 5.000000e-02
<GCONST> 7.126913e+01
<STATE> 14
<MEAN> 39
 -7.707800e+00 -1.304954e+01 8.703156e-01 -1.043575e+01 -6.377019e+00 -5.412554e+00 5.970109e+00 -2.535192e+00 3.410925e+00 1.827679e+00 -4.135255e+00 -3.130395e+00 5.246451e-01 4.926772e-01 -8.511714e-01 3.490906e-02 2.401861e-01 4.152929e-01 -1.172276e+00 -2.577567e-02 3.475943e-02 1.623128e-01 -6.094847e-01 7.580569e-02 1.743766e-01 -1.460317e-02 1.210818e-01 -2.354249e-01 2.987401e-02 -2.732506e-01 -3.049223e-01 -2.631348e-01 -4.500011e-01 -1.413525e-01 3.699601e-01 -1.432864e-01 -1.893049e-02 2.437264e-01 -6.556293e-03
<VARIANCE> 39
 9.886524e-01 2.396282e+01 1.941965e+01 1.361824e+02 7.526601e+01 4.350654e+01 2.033889e+01 2.247942e+01 3.603094e+01 1.421435e+01 3.832325e+01 2.388448e+01 1.953886e-01 6.163318e-01 5.148872e-01 1.431684e-01 1.135731e+00 2.874038e+00 1.162979e+00 6.180947e-01 1.609077e-01 1.644583e+00 2.961223e+00 1.180921e+00 2.186211e+00 5.000000e-02 9.892791e-02 5.690021e-02 1.341369e-01 2.444963e-01 1.914115e-01 3.018752e-01 1.696642e-01 4.683490e-01 3.447594e-01 1.056708e-01 3.693801e-01 7.225346e-02 5.000000e-02
<GCONST> 7.992466e+01
<STATE> 15
<MEAN> 39
 -7.455826e+00 -1.714296e+01 6.345475e-01 -1.481973e+01 -9.500622e+00 -8.552411e+00 6.388366e+00 -1.144262e+00 3.209715e+00 -2.158158e-01 -6.675889e+00 -2.505355e+00 6.508666e-01 1.022436e+00 -8.678212e-01 3.604919e-01 -2.445680e-01 5.520326e-01 -1.021420e+00 -1.287836e+00 -6.135176e-01 8.933932e-02 -1.357237e+00 -5.748411e-02 1.206924e-01 -3.580367e-02 2.783104e-01 2.624675e-01 3.546351e-01 4.134493e-01 -1.417471e-01 6.013139e-01 -3.016974e-01 2.177456e-02 -1.235237e-02 4.476072e-01 4.215849e-01 -1.738609e-01 -1.003008e-02
<VARIANCE> 39
 5.091409e+00 2.457009e+01 2.894418e+01 1.057232e+02 2.708342e+01 3.076240e+01 2.936675e+01 2.056811e+01 6.448328e+01 1.374473e+01 2.396884e+01 7.177074e+01 1.511392e-01 1.339607e+00 2.545577e-01 2.080058e+00 9.962565e-01 2.000288e+00 3.063386e+00 1.489108e+00 2.783962e+00 1.838340e+00 1.123661e+00 1.373130e+00 7.279817e-01 5.000000e-02 8.070526e-02 1.942270e-01 2.674894e-01 3.029765e-01 3.857771e-01 4.528170e-01 4.276206e-01 2.275983e-01 6.692071e-01 4.807564e-01 2.615862e-01 7.423193e-01 5.000000e-02
<GCONST> 9.411437e+01
<STATE> 16
<MEAN> 39
 -5.888157e+00 -1.486647e+01 7.219630e-01 -1.226441e+01 -6.397100e+00 -8.057343e+00 3.697024e+00 -4.026882e+00 2.131392e+00 -1.855939e+00 -6.007407e+00 -4.943550e+00 4.480828e-01 1.396017e+00 -2.438986e-01 7.859675e-01 9.263864e-01 5.163217e-01 3.696141e-01 -1.416765e-01 3.631414e-01 -5.293891e-01 -1.091451e-01 8.772775e-01 -9.735641e-01 -1.908856e-02 -5.606443e-02 1.887442e-01 1.441561e-01 3.950921e-01 -8.007780e-01 3.223549e-01 -7.050747e-02 8.078539e-02 7.795568e-02 3.981978e-01 7.095150e-01 3.724774e-01 9.566826e-03
<VARIANCE> 39
 1.205209e+01 3.383979e+01 1.147822e+01 1.033620e+02 3.979776e+01 6.806068e+01 3.466989e+01 6.837448e+00 3.280795e+01 1.139946e+01 1.969345e+01 3.504498e+01 1.860479e-01 3.169213e-01 1.168410e+00 2.959895e+00 1.479962e+00 3.047939e-01 1.614173e+00 3.268458e+00 2.155833e+00 3.075784e+00 1.243781e+00 1.681479e+00 3.232954e+00 5.000000e-02 3.079342e-01 1.227836e-01 1.948038e-01 3.227258e-01 5.511457e-01 1.003746e+00 6.544855e-01 2.872923e-01 2.834800e-01 2.862562e-01 1.621150e-01 4.202240e-01 5.000000e-02
<GCONST> 9.418590e+01
<STATE> 17
<MEAN> 39
 -3.919403e+00 -1.639923e+01 3.327511e+00 -1.115730e+01 -7.796738e+00 -7.365156e+00 3.626657e+00 -2.023487e+00 3.580762e+00 -1.883389e-01 -2.497944e+00 -4.801496e+00 5.440307e-01 5.423551e-01 3.024323e-02 7.830573e-01 1.151782e+00 -1.481335e+00 7.818786e-01 -1.152651e+00 -8.396203e-02 6.973987e-02 4.393865e-01 2.104223e+00 6.406196e-01 -3.690203e-03 -2.959499e-01 4.655792e-02 -2.051282e-01 -3.073226e-01 -1.012408e+00 1.661145e-02 3.592861e-01 -1.467373e-01 9.031126e-02 3.283276e-01 -1.706176e-01 2.865557e-01 1.060250e-02
<VARIANCE> 39
 9.972034e+00 3.484369e+01 4.716706e+01 7.613474e+01 4.488081e+01 8.730173e+01 2.334199e+01 1.756782e+01 1.528153e+01 1.205810e+01 2.542650e+01 1.115044e+01 7.411419e-02 3.164623e+00 1.308004e+00 4.805301e+00 3.444897e+00 1.070620e+00 7.867269e+00 2.891194e+00 3.551020e-01 1.747856e+00 1.312776e+00 3.024330e+00 8.151908e-01 5.000000e-02 1.095119e-01 2.648546e-01 6.074392e-01 7.823038e-01 5.432934e-01 1.190151e+00 1.029337e+00 8.600262e-01 4.906598e-01 4.027653e-01 5.839489e-01 2.411951e-01 5.000000e-02
<GCONST> 1.019674e+02
<STATE> 18
<MEAN> 39
 -4.561691e+00 -1.705278e+01 8.687498e-01 -1.090745e+01 -1.069649e+01 -8.135287e+00 2.545753e+00 -2.473978e+00 1.615547e+00 -7.019213e-01 8.002555e-01 -4.690346e+00 6.527504e-01 6.270660e-01 -7.000327e-01 7.952609e-01 -4.270566e-01 -3.400138e+00 -1.645351e-01 -1.966423e-01 -1.828281e-01 5.603884e-01 1.152817e+00 7.250335e-01 8.876311e-01 1.885772e-02 -3.257225e-02 9.216674e-02 2.009020e-01 -2.973885e-01 -2.213117e-01 2.083615e-01 5.534258e-01 -4.058877e-01 2.891767e-01 3.552627e-01 -5.915636e-01 1.004582e-03 -8.528454e-03
<VARIANCE> 39
 3.997531e+01 2.825501e+01 4.989040e+01 2.739937e+01 2.087917e+01 5.942287e+01 8.063952e+00 4.444078e+01 1.121204e+01 7.967441e+00 5.554621e+01 7.550811e+00 5.000000e-02 2.286275e+00 1.936409e+00 2.023038e+00 1.200630e+01 2.084434e+00 1.000052e+01 7.447315e+00 2.902313e+00 2.208786e+00 3.352366e+00 1.981271e+00 1.025936e+00 5.000000e-02 2.464082e-01 3.637513e-01 6.244096e-01 4.371822e-01 3.066424e-01 8.129166e-01 2.219533e-01 3.794691e-01 2.343975e-01 4.109972e-01 8.222651e-01 6.133157e-02 5.000000e-02
<GCONST> 1.010749e+02
<STATE> 19
<MEAN> 39
 -2.418143e+00 -1.882286e+01 4.943904e+00 -1.376737e+01 -1.957200e+01 -9.287842e+00 3.296758e+00 -3.783746e+00 3.667738e+00 3.836522e+00 -5.897605e-01 -2.638893e+00 6.348839e-01 5.966917e-01 -2.692674e-02 9.014277e-01 1.161785e-01 -2.235324e+00 1.161880e+00 6.140712e-01 -1.089646e+00 4.131704e-01 1.043773e+00 1.577573e-01 5.193155e-01 -2.447541e-02 -2.833087e-01 3.811194e-01 -3.440823e-01 1.617903e-01 9.888246e-01 -1.573131e-02 3.749336e-01 1.937870e-02 -9.042973e-02 -4.774702e-01 -3.435198e-01 -3.844324e-01 -2.833196e-03
<VARIANCE> 39
 3.091182e+01 4.504633e+00 3.160716e+01 1.186407e+01 2.226803e+01 4.179884e+01 1.292939e+01 5.217919e+00 1.029141e+01 1.044472e+01 1.810911e+01 4.829556e+00 5.000000e-02 2.198319e-01 1.563593e+00 1.018688e+00 4.793430e+00 1.569826e+00 2.650582e+00 3.851275e+00 2.516362e+00 5.828781e-01 3.550090e+00 2.760507e+00 2.036739e+00 5.000000e-02 2.001085e-01 1.860023e-01 1.322422e-01 7.480150e-01 2.734527e-01 7.189328e-01 6.246456e-01 2.609150e-01 3.682800e-01 2.390732e-01 2.619830e-01 1.337354e-01 5.000000e-02
<GCONST> 8.559177e+01
<STATE> 20
<MEAN> 39
 -5.590833e+00 -1.646543e+01 3.383852e+00 -1.445387e+01 -1.831282e+01 -9.199487e+00 6.300979e+00 -4.821756e+00 5.900307e+00 5.422170e+00 -8.250298e-01 -4.570239e+00 7.341899e-01 9.522223e-02 8.829497e-01 5.593486e-01 4.815815e-01 -3.803254e-01 8.780236e-01 8.612844e-01 6.043864e-03 3.655750e-01 -2.463276e-01 -3.303134e-01 -6.636109e-02 -1.653430e-02 -1.493439e-01 9.006650e-02 -2.071047e-01 -8.003062e-02 5.780339e-01 -1.012920e-01 -1.910976e-01 1.647677e-01 -1.109364e-01 -3.155384e-01 3.007953e-02 -7.931094e-02 -1.882171e-03
<VARIANCE> 39
 3.642300e+01 4.858879e+00 2.444551e+01 1.519442e+01 9.494706e+00 4.081520e+01 1.977970e+01 1.922711e+01 3.051953e+01 2.611638e+01 6.700212e+00 1.565932e+01 6.570942e-02 7.434119e-02 2.256041e-01 5.483871e-01 1.216014e+00 9.821569e-01 1.419516e+00 7.430591e-01 1.240424e+00 1.872241e+00 7.887663e-01 5.811349e-01 6.979067e-01 5.000000e-02 9.514438e-02 1.479483e-01 1.466670e-01 2.870390e-01 4.415026e-01 2.591042e-01 9.673952e-01 5.249878e-01 4.281108e-01 4.938734e-01 5.455780e-02 2.684036e-01 5.000000e-02
<GCONST> 7.648224e+01
<STATE> 21
<MEAN> 39
 -1.680546e+00 -1.529934e+01 6.851853e+00 -1.176683e+01 -1.789180e+01 -3.883337e+00 7.392556e+00 -4.923371e+00 4.646601e+00 1.856580e+00 -2.050583e+00 -3.911317e+00 5.593296e-01 -3.161434e-02 2.420815e-01 -4.694400e-01 2.978557e-01 1.341138e+00 9.819486e-02 -1.098311e+00 -7.174508e-01 -5.369459e-02 -1.111635e+00 -2.396591e-01 -3.700198e-01 -2.881228e-02 -1.679524e-01 -1.221904e-01 -3.320521e-01 1.093184e-02 2.886198e-01 -1.265435e-01 -2.217913e-01 1.672808e-01 1.428884e-02 1.924202e-01 2.703302e-01 -4.383491e-01 3.763213e-04
<VARIANCE> 39
 2.318919e+01 6.920373e+00 1.179531e+01 1.898158e+01 3.605458e+01 2.745138e+01 2.321227e+01 1.071910e+01 4.972558e+00 1.103708e+01 1.060083e+01 3.164133e+00 5.000000e-02 2.007068e-01 2.673136e-01 1.341477e-01 4.558514e-01 1.633096e+00 1.237391e+00 2.547038e+00 2.762848e+00 3.723637e+00 1.182624e+00 8.607188e-01 1.054302e+00 5.000000e-02 5.000000e-02 5.619166e-02 1.221496e-01 3.063998e-01 6.393744e-01 2.601447e-01 1.090258e+00 7.053419e-01 7.545628e-02 2.182551e-01 2.089901e-01 1.903725e-01 5.000000e-02
<GCONST> 7.288477e+01
<STATE> 22
<MEAN> 39
 -1.721563e+00 -1.692772e+01 4.444367e+00 -9.987304e+00 -1.569917e+01 -5.067544e+00 4.776049e+00 -4.375666e+00 3.871990e+00 5.324289e-01 -1.984098e+00 -5.635037e+00 4.885627e-01 -2.747668e-01 4.061183e-01 -7.344961e-01 6.851493e-01 1.083946e+00 7.315586e-01 4.050095e-01 3.299235e-01 6.192041e-01 4.947743e-01 9.316615e-01 -8.027505e-01 -3.419107e-02 -6.126328e-02 3.402513e-02 -2.519603e-01 -2.877821e-01 -3.710162e-01 -2.182878e-01 1.185641e-01 1.195715e-02 -7.567550e-02 5.163597e-01 7.113326e-02 -1.276766e-01 2.793104e-03
<VARIANCE> 39
 2.520265e+01 6.703810e+00 1.489067e+01 3.607177e+01 1.541206e+01 2.728501e+01 9.092872e+00 9.502427e+00 2.211113e+01 1.251811e+01 2.780432e+00 1.078973e+01 5.000000e-02 5.000000e-02 5.112608e-01 2.481264e-01 9.630476e-01 1.649607e+00 1.645628e+00 4.426347e+00 1.500808e+00 1.355954e+00 1.564606e+00 1.109302e+00 1.460828e+00 5.000000e-02 7.001431e-02 6.118287e-02 5.000000e-02 1.517788e-01 5.070181e-01 1.108337e-01 2.551983e-01 5.701996e-01 4.547133e-01 3.793098e-01 1.442557e-01 3.196797e-01 5.000000e-02
<GCONST> 7.268539e+01
<STATE> 23
<MEAN> 39
 -1.560956e+00 -1.534417e+01 4.617362e+00 -9.098516e+00 -1.589673e+01 -4.509761e+00 4.852357e+00 -5.006588e+00 5.046933e+00 3.231487e+00 1.019975e+00 -4.234904e+00 4.190840e-01 -2.618944e-01 7.705817e-01 -1.247120e+00 -2.752005e-01 -2.796552e-01 -5.077710e-01 1.446170e-02 -1.662249e-01 -3.771001e-01 5.490115e-01 2.667733e-01 -9.404675e-01 -2.599531e-02 7.257006e-02 -1.350120e-02 5.803868e-02 -2.636880e-01 -2.552783e-01 -2.281139e-01 1.822371e-01 2.090589e-01 -2.304157e-01 -8.960900e-02 -4.094921e-01 4.120087e-02 4.140366e-03
<VARIANCE> 39
 1.139416e+01 4.287999e+00 1.260511e+01 2.751560e+01 4.998808e+00 2.302433e+01 2.442549e+01 1.369987e+01 7.201674e+00 7.126539e+00 1.640609e+01 9.206158e+00 5.000000e-02 6.006119e-01 9.863284e-01 6.108462e-01 1.174821e+00 2.706531e+00 1.641515e+00 2.105824e+00 3.277061e+00 4.848659e-01 1.972149e+00 1.311329e+00 1.243526e+00 5.000000e-02 5.000000e-02 5.000000e-02 8.235426e-02 2.041018e-01 2.370481e-01 4.723189e-01 1.166417e+00 3.609552e-01 2.550950e-01 1.095126e-01 1.331325e-01 1.241850e-01 5.000000e-02
<GCONST> 7.414179e+01
<STATE> 24
<MEAN> 39
 -4.704365e+00 -1.603213e+01 1.520755e+00 -1.366152e+01 -1.494809e+01 -5.655025e+00 6.496746e+00 -5.194589e+00 2.131525e+00 1.604555e+00 -3.635625e+00 -1.079419e+01 5.961812e-01 6.292233e-01 -5.026897e-01 -9.808179e-02 -4.891127e-02 5.862928e-01 -7.879534e-01 2.385235e-01 8.122040e-01 -1.662081e-01 2.199740e-01 -8.362355e-01 9.573098e-02 -2.076933e-02 2.398669e-01 -1.933236e-01 2.681652e-01 1.565050e-01 -3.919405e-02 -3.082770e-01 -2.493999e-02 2.865220e-01 1.090091e-01 7.563139e-03 1.290172e-01 8.043460e-01 -3.551007e-03
<VARIANCE> 39
 2.888815e+01 1.165556e+01 6.804625e+00 2.466368e+01 1.059567e+01 7.643785e+00 7.674904e+00 8.773654e+00 5.114104e+00 5.152555e+00 1.535383e+01 1.685804e+01 8.286270e-02 1.465654e+00 2.870688e+00 5.689998e-01 6.341693e-01 1.492579e+00 2.912034e+00 2.830611e+00 7.454537e-01 2.380625e-01 2.286403e-01 7.447053e-01 3.518564e+00 5.000000e-02 1.556611e-01 1.015308e-01 1.006518e-01 1.494772e-01 5.532182e-01 5.266386e-01 4.385130e-01 4.691023e-01 9.223218e-02 1.784078e-01 7.199720e-02 3.256634e-01 5.000000e-02
<GCONST> 7.323627e+01
<STATE> 25
<MEAN> 39
 -1.232498e+00 -1.657966e+01 1.672305e+00 -1.404853e+01 -1.478339e+01 -9.321807e+00 3.925641e+00 -4.432889e+00 2.982645e+00 2.947677e+00 -2.948863e+00 -5.561766e+00 4.646233e-01 5.594895e-01 6.009722e-02 -6.868460e-02 7.127442e-01 -6.075785e-01 -7.373769e-01 -1.917712e-01 5.826441e-01 1.045300e-01 1.365793e-01 3.062830e-01 7.121922e-01 -3.839770e-02 -2.184551e-01 1.032482e-01 3.134922e-01 5.839427e-01 -1.258173e-01 7.748556e-01 1.577442e-01 -3.034880e-01 -6.094757e-02 -1.431547e-01 4.827311e-01 2.120628e-03 -4.775560e-03
<VARIANCE> 39
 4.796129e+00 5.254802e+01 7.436354e+00 1.986077e+01 2.194381e+01 4.792991e+01 1.029448e+01 8.832685e+00 4.445926e+00 4.590017e+00 1.835016e+01 1.942508e+00 5.595555e-02 1.356799e+00 6.109954e-01 3.946670e-01 1.294376e+00 2.136107e+00 2.183247e+00 3.061203e+00 1.297776e+00 9.643683e-01 2.536423e-01 5.224516e-01 7.264435e-01 5.000000e-02 1.107589e-01 5.416298e-01 5.000000e-02 2.810548e-01 9.377613e-01 7.608680e-01 2.499549e-01 2.172789e-01 5.000000e-02 5.000000e-02 1.073783e-01 6.379266e-01 5.000000e-02
<GCONST> 7.206657e+01
<STATE> 26
<MEAN> 39
 -5.356899e-02 -1.662477e+01 3.515941e+00 -7.604870e+00 -1.765218e+01 -6.622322e+00 6.644999e+00 -1.638168e+00 3.407254e+00 2.841536e+00 -1.219059e+00 -5.601332e+00 3.778913e-01 -2.618683e-01 4.647690e-01 6.134809e-01 1.111469e+00 -2.691548e-01 1.440789e+00 9.362612e-01 3.227260e-01 2.806670e-01 9.999872e-02 8.748633e-01 5.703865e-01 -3.961134e-02 -2.037162e-01 1.905343e-01 6.655277e-03 -1.374881e-01 6.908759e-01 1.281741e-01 -3.182282e-01 -4.262125e-01 -2.167596e-02 -4.880812e-03 5.880903e-02 1.166229e-01 2.414452e-03
<VARIANCE> 39
 1.035059e+00 3.064223e+01 9.666027e+00 6.644870e+00 1.453559e+01 1.619664e+01 1.481465e+01 4.608749e+00 1.262454e+01 1.916896e+00 2.429698e+01 1.120659e+01 5.000000e-02 4.478239e-01 7.697130e-01 1.869444e-01 2.822285e+00 2.194986e+00 2.807411e+00 6.711012e-01 1.326250e+00 2.205528e+00 3.903759e-01 7.695831e-01 1.124246e+00 5.000000e-02 5.472914e-02 2.049318e-01 5.426267e-02 1.783302e-01 2.498325e-01 6.845660e-01 6.256850e-01 3.349083e-01 3.810205e-01 6.672131e-02 1.110054e-01 1.856906e-01 5.000000e-02
<GCONST> 6.847932e+01
<STATE> 27
<MEAN> 39
 -1.898478e+00 -1.418246e+01 3.057486e+00 -7.934046e+00 -1.464743e+01 -4.396609e+00 7.577807e+00 -1.990769e+00 6.917660e+00 3.882351e+00 -1.580904e-02 -3.014721e+00 2.718772e-01 -2.247494e-01 7.364193e-01 -3.341812e-01 4.264348e-01 1.758147e+00 1.509730e-01 -8.798518e-01 -1.232218e+00 -1.248044e+00 -1.458246e-01 6.774612e-01 8.663689e-01 -1.893850e-02 -3.242591e-02 2.913002e-02 -2.466681e-01 -7.092474e-02 2.105409e-01 -3.889455e-01 -3.476343e-01 -8.501412e-02 -4.388901e-01 -1.594042e-01 -1.673257e-01 -1.985075e-01 2.225803e-03
<VARIANCE> 39
 4.174585e+00 1.193654e+01 1.021217e+01 4.173107e+00 2.876175e+01 7.784633e+00 8.800920e+00 3.806141e+00 1.644828e+01 1.343358e+01 1.753180e+01 7.100912e+00 5.000000e-02 1.770713e-01 8.055964e-01 1.236150e-01 1.759756e+00 1.771204e+00 1.553502e+00 2.190942e+00 2.201282e+00 3.109039e+00 1.181058e+00 1.061976e+00 1.001060e+00 5.000000e-02 5.000000e-02 1.929991e-01 6.058071e-02 1.236401e-01 2.896313e-01 2.865545e-01 2.595334e-01 2.078382e-01 5.169416e-01 1.362844e-01 2.442068e-01 1.509108e-01 5.000000e-02
<GCONST> 6.907300e+01
<STATE> 28
<MEAN> 39
 -1.096230e+00 -1.146562e+01 3.380432e+00 -6.354586e+00 -1.146131e+01 -4.406896e+00 1.078116e+00 -9.671613e+00 -3.324043e+00 1.325145e+00 5.720385e-01 -2.512935e+00 2.571019e-01 -5.123424e-01 8.575883e-01 -1.238330e-01 5.213931e-01 1.266912e+00 -1.776583e-01 -4.708015e-01 1.458040e-01 -7.830695e-01 -1.704875e-01 -5.795707e-02 3.765705e-03 -2.491808e-02 -1.772062e-01 -9.806494e-02 -3.326582e-02 4.218788e-02 -1.455821e-01 -1.548456e-01 2.370352e-01 7.166591e-01 8.801673e-01 3.707931e-01 1.342527e-01 -3.200590e-01 -7.842650e-03
<VARIANCE> 39
 2.586013e+00 1.154533e+01 1.001567e+01 2.586005e+01 2.923005e+01 9.665914e+00 3.280534e+01 2.949892e+01 1.095012e+01 2.148341e+01 2.001404e+01 2.848845e+00 5.000000e-02 1.489193e-01 6.065245e-01 5.692095e-01 6.772605e-01 1.600279e+00 1.291726e+00 1.055131e+00 2.028645e+00 2.504454e+00 1.602704e+00 1.599172e+00 4.698649e-01 5.000000e-02 5.000000e-02 7.145751e-02 1.802923e-01 3.614958e-01 6.892622e-01 3.709478e-01 6.471406e-01 6.379244e-01 3.171655e-01 3.484370e-01 2.944573e-01 1.620212e-01 5.000000e-02
<GCONST> 7.704066e+01
<STATE> 29
<MEAN> 39
 -2.384638e+00 -1.385015e+01 1.641836e+00 -7.116168e+00 -1.421646e+01 -7.055032e+00 5.726331e+00 -2.791230e+00 4.204293e+00 4.398301e+00 1.329220e+00 -2.956921e+00 2.462742e-01 -7.740740e-01 8.422773e-01 -6.325163e-01 2.617689e-01 1.354441e+00 -8.155494e-01 -4.888682e-01 4.760973e-01 5.879514e-01 3.034958e-01 9.553914e-01 -2.520107e-01 -4.912929e-02 6.162922e-02 -1.253562e-02 1.414628e-01 3.086118e-01 3.169070e-01 2.022592e-01 1.152854e-01 2.106907e-01 1.646967e-01 -6.445037e-02 -5.127151e-02 -1.646441e-01 1.361584e-03
<VARIANCE> 39
 3.556596e+00 1.899862e+01 5.982308e+00 1.419957e+01 3.519213e+01 2.578631e+01 1.102192e+01 1.928740e+01 7.603271e+00 1.516730e+01 9.578807e+00 4.106038e+00 5.000000e-02 5.000000e-02 5.735986e-01 7.744867e-01 1.577979e+00 3.421719e+00 1.313243e+00 2.137869e+00 1.443621e+00 5.413297e-01 1.005751e+00 7.428414e-01 7.362582e-01 5.000000e-02 5.000000e-02 1.559182e-01 6.178363e-02 2.484318e-01 2.823355e-01 3.122773e-01 1.806974e-01 1.195573e-01 1.990216e-01 1.171016e-01 1.452521e-01 1.144913e-01 5.000000e-02
<GCONST> 6.685226e+01
<STATE> 30
<MEAN> 39
 -4.562434e+00 -9.901834e+00 2.326267e+00 -4.271579e+00 -6.880316e+00 -5.733169e+00 3.198180e+00 -2.752996e+00 2.895376e+00 4.193094e+00 3.599959e+00 -4.003376e+00 1.048137e-01 -4.879870e-01 -7.664914e-03 -1.788353e-01 1.185858e+00 1.474398e+00 1.781736e-01 -2.059359e-01 7.513717e-01 7.010713e-01 2.498908e-02 7.143074e-01 -1.029467e-01 -3.302652e-02 1.629070e-01 -3.004351e-01 -5.202716e-02 -6.397218e-02 -4.308405e-01 -2.302084e-02 1.340585e-01 -3.110879e-01 -2.384339e-01 -3.875695e-01 -4.376723e-01 1.474082e-01 7.865726e-03
<VARIANCE> 39
 8.953336e-01 3.219454e+00 1.323903e+01 9.963413e+00 1.128641e+01 1.146759e+01 4.560450e+00 1.092696e+01 7.216939e+00 8.092890e+00 1.052847e+01 4.000670e+00 5.000000e-02 3.917380e-01 3.359433e-01 2.724111e-01 7.810515e-01 2.434497e+00 1.041693e+00 4.915887e-01 2.525973e+00 1.985542e+00 1.086587e+00 1.664694e+00 3.316567e-01 5.000000e-02 5.000000e-02 5.000000e-02 1.953537e-01 1.825281e-01 3.177937e-01 4.932967e-01 3.808856e-01 2.137548e-01 1.813959e-01 2.866839e-01 1.666778e-01 2.860356e-01 5.000000e-02
<GCONST> 6.327074e+01
<STATE> 31
<MEAN> 39
 -3.510430e+00 -1.112277e+01 7.685720e-01 -4.100796e+00 -5.917491e+00 -5.780920e+00 4.969491e+00 -2.362751e+00 3.779908e+00 3.194593e+00 4.041441e+00 -2.848738e+00 1.203765e-01 -1.920679e-01 3.000869e-01 3.754324e-02 5.467667e-01 1.088322e+00 3.576286e-01 1.761646e-01 8.685739e-02 -1.534255e-01 -6.298262e-01 -2.144251e-01 2.086143e-01 -1.102598e-02 -1.834426e-02 -2.233933e-03 -9.292287e-03 -3.025067e-01 -6.689847e-01 -1.403307e-01 -5.493438e-03 -2.731081e-01 -1.708307e-01 -1.069433e-01 -3.266337e-01 -4.467263e-02 1.651136e-03
<VARIANCE> 39
 5.717133e+00 6.297116e+00 7.174882e+00 7.399967e+00 1.779200e+01 1.204243e+01 1.559189e+01 4.827097e+00 8.832589e+00 2.240477e+01 1.381516e+01 1.490271e+01 5.000000e-02 4.368828e-01 2.472267e-01 3.180719e-01 7.376680e-01 2.643823e+00 1.799775e+00 1.579558e+00 3.413020e-01 6.920677e-01 2.522444e+00 6.569304e-01 2.380002e+00 5.000000e-02 1.311725e-01 5.000000e-02 5.674456e-02 5.000000e-02 3.999768e-01 2.896604e-01 1.655255e-01 1.341985e-01 2.323234e-01 1.706391e-01 2.653257e-01 2.630273e-01 5.000000e-02
<GCONST> 6.607521e+01
<STATE> 32
<MEAN> 39
 -5.511755e+00 -1.005165e+01 1.636086e+00 -3.374498e+00 -6.384688e+00 -5.204424e+00 4.783291e+00 -1.437098e+00 3.818531e+00 3.486672e+00 1.868830e+00 -5.744644e+00 5.127871e-02 -3.424911e-01 1.744103e-01 -1.197211e-01 4.744714e-01 -5.980939e-01 -8.121030e-01 8.374626e-02 -2.854747e-01 -2.662290e-01 -5.777231e-01 -1.001997e+00 -4.686518e-01 -2.166703e-02 1.224465e-01 9.373333e-02 2.258570e-02 -1.327662e-02 1.584574e-01 9.165828e-02 -5.431369e-02 -1.952059e-01 6.697733e-02 3.907668e-02 -4.952410e-03 7.291050e-02 3.433074e-03
<VARIANCE> 39
 2.589881e+00 2.879831e+00 6.801528e+00 2.307132e+00 6.367136e+00 1.581294e+01 7.035109e+00 4.951029e+00 1.067068e+01 1.855420e+01 1.498344e+01 6.142073e+00 5.000000e-02 3.839801e-01 1.870413e-01 3.838694e-01 8.616075e-01 8.244324e-01 1.213949e+00 9.085245e-01 6.463120e-01 1.351569e+00 1.004338e+00 9.679453e-01 5.391933e-01 5.000000e-02 5.000000e-02 6.268967e-02 5.000000e-02 6.458453e-02 3.464442e-01 2.315150e-01 2.421542e-01 2.247653e-01 1.659788e-01 3.667789e-01 1.471751e-01 3.310400e-01 5.000000e-02
<GCONST> 5.805367e+01
<STATE> 33
<MEAN> 39
 -5.335108e+00 -1.028129e+01 6.620451e-01 -3.243365e+00 -6.316484e+00 -6.250292e+00 3.441466e+00 -4.428188e+00 1.464483e+00 9.147140e-02 1.107621e+00 -3.230447e+00 3.061737e-02 -2.662220e-01 1.610163e-01 -2.240965e-01 1.371608e-01 1.880089e-01 7.593770e-02 -3.887912e-01 -6.672007e-01 1.628858e-01 -7.690752e-01 -6.846305e-01 -2.040420e-01 -2.154992e-02 8.179402e-02 -2.028607e-02 -3.117383e-03 -7.296608e-02 3.766412e-01 2.047131e-01 2.331562e-02 2.707852e-01 2.671378e-01 3.403555e-01 1.985482e-01 4.295177e-03 3.451514e-03
<VARIANCE> 39
 2.519876e+00 2.919109e+00 1.509771e+00 4.673953e+00 6.840332e+00 1.112428e+01 1.191215e+01 3.163578e+00 5.012304e+00 8.792525e+00 8.764532e+00 3.286628e+01 5.000000e-02 4.000029e-01 1.302582e-01 1.737022e-01 1.442171e-01 6.633904e-01 3.947690e-01 7.173334e-01 9.192275e-01 1.297883e+00 2.719893e-01 1.385218e+00 1.808397e+00 5.000000e-02 5.000000e-02 5.000000e-02 5.000000e-02 1.491309e-01 8.421121e-02 2.110064e-01 2.356994e-01 1.911643e-01 3.672744e-01 3.894594e-01 1.132360e-01 3.447289e-01 5.000000e-02
<GCONST> 5.232088e+01
<STATE> 34
<MEAN> 39
 -5.503944e+00 -8.946874e+00 2.888193e-01 -2.755947e+00 -4.694912e+00 -6.225366e+00 3.831277e+00 -3.401914e+00 4.105331e+00 2.262739e-01 2.141369e-01 -4.533910e+00 2.148303e-03 -2.968158e-01 3.172512e-01 -7.623272e-02 3.343811e-01 1.222758e+00 6.865516e-01 3.595258e-02 6.437438e-01 8.356831e-01 1.169865e+00 1.730742e-01 -4.523979e-02 -1.044844e-02 -6.302897e-02 -1.911490e-01 -1.046587e-01 -2.169207e-01 -4.109031e-02 1.991301e-01 -1.018263e-01 1.007251e-01 -2.662674e-01 1.968927e-01 4.745974e-01 2.323237e-01 -5.222996e-04
<VARIANCE> 39
 2.443866e+00 6.883668e+00 5.207102e+00 4.796755e+00 6.511992e+00 6.055594e+00 2.030343e+00 5.097069e+00 3.567654e+00 4.492716e+00 1.444206e+00 6.512342e+00 5.000000e-02 9.313980e-02 1.596804e-01 5.730214e-02 1.109180e-01 6.421681e-01 7.811771e-01 4.065565e-01 8.543197e-01 1.044853e+00 1.039938e+00 5.355890e-01 7.791577e-01 5.000000e-02 5.000000e-02 5.000000e-02 5.000000e-02 7.786206e-02 1.876085e-01 1.768498e-01 5.000000e-02 1.450074e-01 3.266104e-01 1.302433e-01 1.570122e-01 1.752765e-01 5.000000e-02
<GCONST> 4.133023e+01
<STATE> 35
<MEAN> 39
 -6.238140e+00 -9.130232e+00 8.202091e-01 -2.805408e+00 -4.283310e+00 -5.825725e+00 2.997761e+00 -1.534520e+00 5.909586e+00 4.506448e+00 8.145986e-01 -4.806096e+00 -1.772997e-02 -1.768280e-01 -1.645061e-01 -2.308151e-01 -3.607284e-01 4.942650e-01 4.454623e-01 -5.854084e-01 1.903598e-01 -3.933307e-01 5.814432e-01 9.849551e-01 5.788098e-01 -1.294535e-02 5.783260e-03 -1.135318e-01 -2.129084e-02 -1.694933e-01 -3.121314e-01 -7.672228e-02 5.348027e-02 -1.712502e-01 -4.956339e-01 -5.719347e-01 1.177221e-01 1.015262e-01 1.023435e-03
<VARIANCE> 39
 6.666723e-01 7.892647e+00 5.239001e+00 3.953059e+00 5.013841e+00 9.852515e+00 3.926778e+00 6.856282e+00 7.590571e+00 1.267215e+01 6.388502e+00 3.115653e+00 5.000000e-02 5.858713e-02 1.731493e-01 5.000000e-02 4.472315e-01 1.406056e-01 8.153989e-01 9.097663e-01 4.299987e-01 5.863013e-01 5.077687e-01 1.549484e+00 7.928059e-01 5.000000e-02 5.000000e-02 6.674918e-02 7.469434e-02 7.618960e-02 2.675518e-01 1.999673e-01 9.410780e-02 1.125611e-01 1.147416e-01 1.803178e-01 1.711252e-01 1.482877e-01 5.000000e-02
<GCONST> 4.373058e+01
<STATE> 36
<MEAN> 39
 -6.977460e+00 -9.522863e+00 3.281829e-01 -2.704094e+00 -2.937426e+00 -3.952855e+00 2.151290e+00 -2.351166e+00 3.365863e+00 4.478110e+00 5.302670e+00 -2.860493e+00 -3.453812e-02 -3.359534e-01 -1.977789e-01 -3.159116e-01 -4.537978e-01 1.129404e-01 5.447066e-01 2.901596e-01 -2.092181e-01 -9.570034e-01 -1.118392e+00 4.222848e-01 3.801117e-02 -1.055760e-02 1.830119e-01 8.189926e-02 8.901266e-02 1.958843e-02 -2.852474e-01 -3.409165e-01 3.641491e-02 -5.105290e-02 -1.094389e-01 -5.310768e-01 -4.080833e-01 -1.460051e-01 7.028796e-03
<VARIANCE> 39
 2.468484e+00 4.906721e+00 1.604419e+00 1.707411e+00 4.068943e+00 7.047212e+00 5.294408e+00 9.436024e+00 7.214737e+00 9.868006e+00 7.543295e+00 1.604889e+01 5.000000e-02 5.000000e-02 3.855969e-01 3.546760e-01 2.403243e-01 1.288001e+00 5.034834e-01 5.406519e-01 4.098520e-01 1.378160e+00 4.780542e-01 5.078967e-01 2.039678e-01 5.000000e-02 5.000000e-02 5.000000e-02 5.000000e-02 6.610732e-02 5.000000e-02 1.620893e-01 2.122724e-01 1.076258e-01 1.133937e-01 5.000000e-02 1.713368e-01 1.106603e-01 5.000000e-02
<GCONST> 4.204923e+01
<TRANSP> 37
 0.000000e+00 1.000000e+00 0.000000e+00 0.000000e+00 0.000000e+00 0.000000e+00 0.000000e+00 0.000000e+00 0.000000e+00 0.000000e+00 0.000000e+00 0.000000e+00 0.000000e+00 0.000000e+00 0.000000e+00 0.000000e+00 0.000000e+00 0.000000e+00 0.000000e+00 0.000000e+00 0.000000e+00 0.000000e+00 0.000000e+00 0.000000e+00 0.000000e+00 0.000000e+00 0.000000e+00 0.000000e+00 0.000000e+00 0.000000e+00 0.000000e+00 0.000000e+00 0.000000e+00 0.000000e+00 0.000000e+00 0.000000e+00 0.000000e+00
 0.000000e+00 5.833348e-01 4.166652e-01 0.000000e+00 0.000000e+00 0.000000e+00 0.000000e+00 0.000000e+00 0.000000e+00 0.000000e+00 0.000000e+00 0.000000e+00 0.000000e+00 0.000000e+00 0.000000e+00 0.000000e+00 0.000000e+00 0.000000e+00 0.000000e+00 0.000000e+00 0.000000e+00 0.000000e+00 0.000000e+00 0.000000e+00 0.000000e+00 0.000000e+00 0.000000e+00 0.000000e+00 0.000000e+00 0.000000e+00 0.000000e+00 0.000000e+00 0.000000e+00 0.000000e+00 0.000000e+00 0.000000e+00 0.000000e+00
 0.000000e+00 0.000000e+00 1.666584e-01 8.333416e-01 0.000000e+00 0.000000e+00 0.000000e+00 0.000000e+00 0.000000e+00 0.000000e+00 0.000000e+00 0.000000e+00 0.000000e+00 0.000000e+00 0.000000e+00 0.000000e+00 0.000000e+00 0.000000e+00 0.000000e+00 0.000000e+00 0.000000e+00 0.000000e+00 0.000000e+00 0.000000e+00 0.000000e+00 0.000000e+00 0.000000e+00 0.000000e+00 0.000000e+00 0.000000e+00 0.000000e+00 0.000000e+00 0.000000e+00 0.000000e+00 0.000000e+00 0.000000e+00 0.000000e+00
 0.000000e+00 0.000000e+00 0.000000e+00 3.749896e-01 6.250104e-01 0.000000e+00 0.000000e+00 0.000000e+00 0.000000e+00 0.000000e+00 0.000000e+00 0.000000e+00 0.000000e+00 0.000000e+00 0.000000e+00 0.000000e+00 0.000000e+00 0.000000e+00 0.000000e+00 0.000000e+00 0.000000e+00 0.000000e+00 0.000000e+00 0.000000e+00 0.000000e+00 0.000000e+00 0.000000e+00 0.000000e+00 0.000000e+00 0.000000e+00 0.000000e+00 0.000000e+00 0.000000e+00 0.000000e+00 0.000000e+00 0.000000e+00 0.000000e+00
 0.000000e+00 0.000000e+00 0.000000e+00 0.000000e+00 2.856903e-01 7.143097e-01 0.000000e+00 0.000000e+00 0.000000e+00 0.000000e+00 0.000000e+00 0.000000e+00 0.000000e+00 0.000000e+00 0.000000e+00 0.000000e+00 0.000000e+00 0.000000e+00 0.000000e+00 0.000000e+00 0.000000e+00 0.000000e+00 0.000000e+00 0.000000e+00 0.000000e+00 0.000000e+00 0.000000e+00 0.000000e+00 0.000000e+00 0.000000e+00 0.000000e+00 0.000000e+00 0.000000e+00 0.000000e+00 0.000000e+00 0.000000e+00 0.000000e+00
 0.000000e+00 0.000000e+00 0.000000e+00 0.000000e+00 0.000000e+00 3.750158e-01 6.249842e-01 0.000000e+00 0.000000e+00 0.000000e+00 0.000000e+00 0.000000e+00 0.000000e+00 0.000000e+00 0.000000e+00 0.000000e+00 0.000000e+00 0.000000e+00 0.000000e+00 0.000000e+00 0.000000e+00 0.000000e+00 0.000000e+00 0.000000e+00 0.000000e+00 0.000000e+00 0.000000e+00 0.000000e+00 0.000000e+00 0.000000e+00 0.000000e+00 0.000000e+00 0.000000e+00 0.000000e+00 0.000000e+00 0.000000e+00 0.000000e+00
 0.000000e+00 0.000000e+00 0.000000e+00 0.000000e+00 0.000000e+00 0.000000e+00 1.666428e-01 8.333572e-01 0.000000e+00 0.000000e+00 0.000000e+00 0.000000e+00 0.000000e+00 0.000000e+00 0.000000e+00 0.000000e+00 0.000000e+00 0.000000e+00 0.000000e+00 0.000000e+00 0.000000e+00 0.000000e+00 0.000000e+00 0.000000e+00 0.000000e+00 0.000000e+00 0.000000e+00 0.000000e+00 0.000000e+00 0.000000e+00 0.000000e+00 0.000000e+00 0.000000e+00 0.000000e+00 0.000000e+00 0.000000e+00 0.000000e+00
 0.000000e+00 0.000000e+00 0.000000e+00 0.000000e+00 0.000000e+00 0.000000e+00 0.000000e+00 3.749904e-01 6.250097e-01 0.000000e+00 0.000000e+00 0.000000e+00 0.000000e+00 0.000000e+00 0.000000e+00 0.000000e+00 0.000000e+00 0.000000e+00 0.000000e+00 0.000000e+00 0.000000e+00 0.000000e+00 0.000000e+00 0.000000e+00 0.000000e+00 0.000000e+00 0.000000e+00 0.000000e+00 0.000000e+00 0.000000e+00 0.000000e+00 0.000000e+00 0.000000e+00 0.000000e+00 0.000000e+00 0.000000e+00 0.000000e+00
 0.000000e+00 0.000000e+00 0.000000e+00 0.000000e+00 0.000000e+00 0.000000e+00 0.000000e+00 0.000000e+00 2.853810e-01 7.146190e-01 0.000000e+00 0.000000e+00 0.000000e+00 0.000000e+00 0.000000e+00 0.000000e+00 0.000000e+00 0.000000e+00 0.000000e+00 0.000000e+00 0.000000e+00 0.000000e+00 0.000000e+00 0.000000e+00 0.000000e+00 0.000000e+00 0.000000e+00 0.000000e+00 0.000000e+00 0.000000e+00 0.000000e+00 0.000000e+00 0.000000e+00 0.000000e+00 0.000000e+00 0.000000e+00 0.000000e+00
 0.000000e+00 0.000000e+00 0.000000e+00 0.000000e+00 0.000000e+00 0.000000e+00 0.000000e+00 0.000000e+00 0.000000e+00 4.997185e-01 5.002816e-01 0.000000e+00 0.000000e+00 0.000000e+00 0.000000e+00 0.000000e+00 0.000000e+00 0.000000e+00 0.000000e+00 0.000000e+00 0.000000e+00 0.000000e+00 0.000000e+00 0.000000e+00 0.000000e+00 0.000000e+00 0.000000e+00 0.000000e+00 0.000000e+00 0.000000e+00 0.000000e+00 0.000000e+00 0.000000e+00 0.000000e+00 0.000000e+00 0.000000e+00 0.000000e+00
 0.000000e+00 0.000000e+00 0.000000e+00 0.000000e+00 0.000000e+00 0.000000e+00 0.000000e+00 0.000000e+00 0.000000e+00 0.000000e+00 4.446941e-01 5.553059e-01 0.000000e+00 0.000000e+00 0.000000e+00 0.000000e+00 0.000000e+00 0.000000e+00 0.000000e+00 0.000000e+00 0.000000e+00 0.000000e+00 0.000000e+00 0.000000e+00 0.000000e+00 0.000000e+00 0.000000e+00 0.000000e+00 0.000000e+00 0.000000e+00 0.000000e+00 0.000000e+00 0.000000e+00 0.000000e+00 0.000000e+00 0.000000e+00 0.000000e+00
 0.000000e+00 0.000000e+00 0.000000e+00 0.000000e+00 0.000000e+00 0.000000e+00 0.000000e+00 0.000000e+00 0.000000e+00 0.000000e+00 0.000000e+00 3.752379e-01 6.247622e-01 0.000000e+00 0.000000e+00 0.000000e+00 0.000000e+00 0.000000e+00 0.000000e+00 0.000000e+00 0.000000e+00 0.000000e+00 0.000000e+00 0.000000e+00 0.000000e+00 0.000000e+00 0.000000e+00 0.000000e+00 0.000000e+00 0.000000e+00 0.000000e+00 0.000000e+00 0.000000e+00 0.000000e+00 0.000000e+00 0.000000e+00 0.000000e+00
 0.000000e+00 0.000000e+00 0.000000e+00 0.000000e+00 0.000000e+00 0.000000e+00 0.000000e+00 0.000000e+00 0.000000e+00 0.000000e+00 0.000000e+00 0.000000e+00 3.750864e-01 6.249136e-01 0.000000e+00 0.000000e+00 0.000000e+00 0.000000e+00 0.000000e+00 0.000000e+00 0.000000e+00 0.000000e+00 0.000000e+00 0.000000e+00 0.000000e+00 0.000000e+00 0.000000e+00 0.000000e+00 0.000000e+00 0.000000e+00 0.000000e+00 0.000000e+00 0.000000e+00 0.000000e+00 0.000000e+00 0.000000e+00 0.000000e+00
 0.000000e+00 0.000000e+00 0.000000e+00 0.000000e+00 0.000000e+00 0.000000e+00 0.000000e+00 0.000000e+00 0.000000e+00 0.000000e+00 0.000000e+00 0.000000e+00 0.000000e+00 2.857483e-01 7.142517e-01 0.000000e+00 0.000000e+00 0.000000e+00 0.000000e+00 0.000000e+00 0.000000e+00 0.000000e+00 0.000000e+00 0.000000e+00 0.000000e+00 0.000000e+00 0.000000e+00 0.000000e+00 0.000000e+00 0.000000e+00 0.000000e+00 0.000000e+00 0.000000e+00 0.000000e+00 0.000000e+00 0.000000e+00 0.000000e+00
 0.000000e+00 0.000000e+00 0.000000e+00 0.000000e+00 0.000000e+00 0.000000e+00 0.000000e+00 0.000000e+00 0.000000e+00 0.000000e+00 0.000000e+00 0.000000e+00 0.000000e+00 0.000000e+00 3.748752e-01 6.251248e-01 0.000000e+00 0.000000e+00 0.000000e+00 0.000000e+00 0.000000e+00 0.000000e+00 0.000000e+00 0.000000e+00 0.000000e+00 0.000000e+00 0.000000e+00 0.000000e+00 0.000000e+00 0.000000e+00 0.000000e+00 0.000000e+00 0.000000e+00 0.000000e+00 0.000000e+00 0.000000e+00 0.000000e+00
 0.000000e+00 0.000000e+00 0.000000e+00 0.000000e+00 0.000000e+00 0.000000e+00 0.000000e+00 0.000000e+00 0.000000e+00 0.000000e+00 0.000000e+00 0.000000e+00 0.000000e+00 0.000000e+00 0.000000e+00 2.858082e-01 7.141919e-01 0.000000e+00 0.000000e+00 0.000000e+00 0.000000e+00 0.000000e+00 0.000000e+00 0.000000e+00 0.000000e+00 0.000000e+00 0.000000e+00 0.000000e+00 0.000000e+00 0.000000e+00 0.000000e+00 0.000000e+00 0.000000e+00 0.000000e+00 0.000000e+00 0.000000e+00 0.000000e+00
 0.000000e+00 0.000000e+00 0.000000e+00 0.000000e+00 0.000000e+00 0.000000e+00 0.000000e+00 0.000000e+00 0.000000e+00 0.000000e+00 0.000000e+00 0.000000e+00 0.000000e+00 0.000000e+00 0.000000e+00 0.000000e+00 2.855443e-01 7.144557e-01 0.000000e+00 0.000000e+00 0.000000e+00 0.000000e+00 0.000000e+00 0.000000e+00 0.000000e+00 0.000000e+00 0.000000e+00 0.000000e+00 0.000000e+00 0.000000e+00 0.000000e+00 0.000000e+00 0.000000e+00 0.000000e+00 0.000000e+00 0.000000e+00 0.000000e+00
 0.000000e+00 0.000000e+00 0.000000e+00 0.000000e+00 0.000000e+00 0.000000e+00 0.000000e+00 0.000000e+00 0.000000e+00 0.000000e+00 0.000000e+00 0.000000e+00 0.000000e+00 0.000000e+00 0.000000e+00 0.000000e+00 0.000000e+00 1.669223e-01 8.330777e-01 0.000000e+00 0.000000e+00 0.000000e+00 0.000000e+00 0.000000e+00 0.000000e+00 0.000000e+00 0.000000e+00 0.000000e+00 0.000000e+00 0.000000e+00 0.000000e+00 0.000000e+00 0.000000e+00 0.000000e+00 0.000000e+00 0.000000e+00 0.000000e+00
 0.000000e+00 0.000000e+00 0.000000e+00 0.000000e+00 0.000000e+00 0.000000e+00 0.000000e+00 0.000000e+00 0.000000e+00 0.000000e+00 0.000000e+00 0.000000e+00 0.000000e+00 0.000000e+00 0.000000e+00 0.000000e+00 0.000000e+00 0.000000e+00 3.764160e-01 6.235840e-01 0.000000e+00 0.000000e+00 0.000000e+00 0.000000e+00 0.000000e+00 0.000000e+00 0.000000e+00 0.000000e+00 0.000000e+00 0.000000e+00 0.000000e+00 0.000000e+00 0.000000e+00 0.000000e+00 0.000000e+00 0.000000e+00 0.000000e+00
 0.000000e+00 0.000000e+00 0.000000e+00 0.000000e+00 0.000000e+00 0.000000e+00 0.000000e+00 0.000000e+00 0.000000e+00 0.000000e+00 0.000000e+00 0.000000e+00 0.000000e+00 0.000000e+00 0.000000e+00 0.000000e+00 0.000000e+00 0.000000e+00 0.000000e+00 5.034832e-01 4.965169e-01 0.000000e+00 0.000000e+00 0.000000e+00 0.000000e+00 0.000000e+00 0.000000e+00 0.000000e+00 0.000000e+00 0.000000e+00 0.000000e+00 0.000000e+00 0.000000e+00 0.000000e+00 0.000000e+00 0.000000e+00 0.000000e+00
 0.000000e+00 0.000000e+00 0.000000e+00 0.000000e+00 0.000000e+00 0.000000e+00 0.000000e+00 0.000000e+00 0.000000e+00 0.000000e+00 0.000000e+00 0.000000e+00 0.000000e+00 0.000000e+00 0.000000e+00 0.000000e+00 0.000000e+00 0.000000e+00 0.000000e+00 0.000000e+00 3.680090e-01 6.319910e-01 0.000000e+00 0.000000e+00 0.000000e+00 0.000000e+00 0.000000e+00 0.000000e+00 0.000000e+00 0.000000e+00 0.000000e+00 0.000000e+00 0.000000e+00 0.000000e+00 0.000000e+00 0.000000e+00 0.000000e+00
 0.000000e+00 0.000000e+00 0.000000e+00 0.000000e+00 0.000000e+00 0.000000e+00 0.000000e+00 0.000000e+00 0.000000e+00 0.000000e+00 0.000000e+00 0.000000e+00 0.000000e+00 0.000000e+00 0.000000e+00 0.000000e+00 0.000000e+00 0.000000e+00 0.000000e+00 0.000000e+00 0.000000e+00 1.666859e-01 8.333141e-01 0.000000e+00 0.000000e+00 0.000000e+00 0.000000e+00 0.000000e+00 0.000000e+00 0.000000e+00 0.000000e+00 0.000000e+00 0.000000e+00 0.000000e+00 0.000000e+00 0.000000e+00 0.000000e+00
 0.000000e+00 0.000000e+00 0.000000e+00 0.000000e+00 0.000000e+00 0.000000e+00 0.000000e+00 0.000000e+00 0.000000e+00 0.000000e+00 0.000000e+00 0.000000e+00 0.000000e+00 0.000000e+00 0.000000e+00 0.000000e+00 0.000000e+00 0.000000e+00 0.000000e+00 0.000000e+00 0.000000e+00 0.000000e+00 3.750103e-01 6.249897e-01 0.000000e+00 0.000000e+00 0.000000e+00 0.000000e+00 0.000000e+00 0.000000e+00 0.000000e+00 0.000000e+00 0.000000e+00 0.000000e+00 0.000000e+00 0.000000e+00 0.000000e+00
 0.000000e+00 0.000000e+00 0.000000e+00 0.000000e+00 0.000000e+00 0.000000e+00 0.000000e+00 0.000000e+00 0.000000e+00 0.000000e+00 0.000000e+00 0.000000e+00 0.000000e+00 0.000000e+00 0.000000e+00 0.000000e+00 0.000000e+00 0.000000e+00 0.000000e+00 0.000000e+00 0.000000e+00 0.000000e+00 0.000000e+00 3.749821e-01 6.250179e-01 0.000000e+00 0.000000e+00 0.000000e+00 0.000000e+00 0.000000e+00 0.000000e+00 0.000000e+00 0.000000e+00 0.000000e+00 0.000000e+00 0.000000e+00 0.000000e+00
 0.000000e+00 0.000000e+00 0.000000e+00 0.000000e+00 0.000000e+00 0.000000e+00 0.000000e+00 0.000000e+00 0.000000e+00 0.000000e+00 0.000000e+00 0.000000e+00 0.000000e+00 0.000000e+00 0.000000e+00 0.000000e+00 0.000000e+00 0.000000e+00 0.000000e+00 0.000000e+00 0.000000e+00 0.000000e+00 0.000000e+00 0.000000e+00 1.666781e-01 8.333219e-01 0.000000e+00 0.000000e+00 0.000000e+00 0.000000e+00 0.000000e+00 0.000000e+00 0.000000e+00 0.000000e+00 0.000000e+00 0.000000e+00 0.000000e+00
 0.000000e+00 0.000000e+00 0.000000e+00 0.000000e+00 0.000000e+00 0.000000e+00 0.000000e+00 0.000000e+00 0.000000e+00 0.000000e+00 0.000000e+00 0.000000e+00 0.000000e+00 0.000000e+00 0.000000e+00 0.000000e+00 0.000000e+00 0.000000e+00 0.000000e+00 0.000000e+00 0.000000e+00 0.000000e+00 0.000000e+00 0.000000e+00 0.000000e+00 4.436999e-01 5.563001e-01 0.000000e+00 0.000000e+00 0.000000e+00 0.000000e+00 0.000000e+00 0.000000e+00 0.000000e+00 0.000000e+00 0.000000e+00 0.000000e+00
 0.000000e+00 0.000000e+00 0.000000e+00 0.000000e+00 0.000000e+00 0.000000e+00 0.000000e+00 0.000000e+00 0.000000e+00 0.000000e+00 0.000000e+00 0.000000e+00 0.000000e+00 0.000000e+00 0.000000e+00 0.000000e+00 0.000000e+00 0.000000e+00 0.000000e+00 0.000000e+00 0.000000e+00 0.000000e+00 0.000000e+00 0.000000e+00 0.000000e+00 0.000000e+00 3.759144e-01 6.240857e-01 0.000000e+00 0.000000e+00 0.000000e+00 0.000000e+00 0.000000e+00 0.000000e+00 0.000000e+00 0.000000e+00 0.000000e+00
 0.000000e+00 0.000000e+00 0.000000e+00 0.000000e+00 0.000000e+00 0.000000e+00 0.000000e+00 0.000000e+00 0.000000e+00 0.000000e+00 0.000000e+00 0.000000e+00 0.000000e+00 0.000000e+00 0.000000e+00 0.000000e+00 0.000000e+00 0.000000e+00 0.000000e+00 0.000000e+00 0.000000e+00 0.000000e+00 0.000000e+00 0.000000e+00 0.000000e+00 0.000000e+00 0.000000e+00 1.666711e-01 8.333289e-01 0.000000e+00 0.000000e+00 0.000000e+00 0.000000e+00 0.000000e+00 0.000000e+00 0.000000e+00 0.000000e+00
 0.000000e+00 0.000000e+00 0.000000e+00 0.000000e+00 0.000000e+00 0.000000e+00 0.000000e+00 0.000000e+00 0.000000e+00 0.000000e+00 0.000000e+00 0.000000e+00 0.000000e+00 0.000000e+00 0.000000e+00 0.000000e+00 0.000000e+00 0.000000e+00 0.000000e+00 0.000000e+00 0.000000e+00 0.000000e+00 0.000000e+00 0.000000e+00 0.000000e+00 0.000000e+00 0.000000e+00 0.000000e+00 4.999116e-01 5.000884e-01 0.000000e+00 0.000000e+00 0.000000e+00 0.000000e+00 0.000000e+00 0.000000e+00 0.000000e+00
 0.000000e+00 0.000000e+00 0.000000e+00 0.000000e+00 0.000000e+00 0.000000e+00 0.000000e+00 0.000000e+00 0.000000e+00 0.000000e+00 0.000000e+00 0.000000e+00 0.000000e+00 0.000000e+00 0.000000e+00 0.000000e+00 0.000000e+00 0.000000e+00 0.000000e+00 0.000000e+00 0.000000e+00 0.000000e+00 0.000000e+00 0.000000e+00 0.000000e+00 0.000000e+00 0.000000e+00 0.000000e+00 0.000000e+00 1.684694e-01 8.315306e-01 0.000000e+00 0.000000e+00 0.000000e+00 0.000000e+00 0.000000e+00 0.000000e+00
 0.000000e+00 0.000000e+00 0.000000e+00 0.000000e+00 0.000000e+00 0.000000e+00 0.000000e+00 0.000000e+00 0.000000e+00 0.000000e+00 0.000000e+00 0.000000e+00 0.000000e+00 0.000000e+00 0.000000e+00 0.000000e+00 0.000000e+00 0.000000e+00 0.000000e+00 0.000000e+00 0.000000e+00 0.000000e+00 0.000000e+00 0.000000e+00 0.000000e+00 0.000000e+00 0.000000e+00 0.000000e+00 0.000000e+00 0.000000e+00 4.993451e-01 5.006549e-01 0.000000e+00 0.000000e+00 0.000000e+00 0.000000e+00 0.000000e+00
 0.000000e+00 0.000000e+00 0.000000e+00 0.000000e+00 0.000000e+00 0.000000e+00 0.000000e+00 0.000000e+00 0.000000e+00 0.000000e+00 0.000000e+00 0.000000e+00 0.000000e+00 0.000000e+00 0.000000e+00 0.000000e+00 0.000000e+00 0.000000e+00 0.000000e+00 0.000000e+00 0.000000e+00 0.000000e+00 0.000000e+00 0.000000e+00 0.000000e+00 0.000000e+00 0.000000e+00 0.000000e+00 0.000000e+00 0.000000e+00 0.000000e+00 1.672127e-01 8.327874e-01 0.000000e+00 0.000000e+00 0.000000e+00 0.000000e+00
 0.000000e+00 0.000000e+00 0.000000e+00 0.000000e+00 0.000000e+00 0.000000e+00 0.000000e+00 0.000000e+00 0.000000e+00 0.000000e+00 0.000000e+00 0.000000e+00 0.000000e+00 0.000000e+00 0.000000e+00 0.000000e+00 0.000000e+00 0.000000e+00 0.000000e+00 0.000000e+00 0.000000e+00 0.000000e+00 0.000000e+00 0.000000e+00 0.000000e+00 0.000000e+00 0.000000e+00 0.000000e+00 0.000000e+00 0.000000e+00 0.000000e+00 0.000000e+00 3.747930e-01 6.252071e-01 0.000000e+00 0.000000e+00 0.000000e+00
 0.000000e+00 0.000000e+00 0.000000e+00 0.000000e+00 0.000000e+00 0.000000e+00 0.000000e+00 0.000000e+00 0.000000e+00 0.000000e+00 0.000000e+00 0.000000e+00 0.000000e+00 0.000000e+00 0.000000e+00 0.000000e+00 0.000000e+00 0.000000e+00 0.000000e+00 0.000000e+00 0.000000e+00 0.000000e+00 0.000000e+00 0.000000e+00 0.000000e+00 0.000000e+00 0.000000e+00 0.000000e+00 0.000000e+00 0.000000e+00 0.000000e+00 0.000000e+00 0.000000e+00 3.749550e-01 6.250450e-01 0.000000e+00 0.000000e+00
 0.000000e+00 0.000000e+00 0.000000e+00 0.000000e+00 0.000000e+00 0.000000e+00 0.000000e+00 0.000000e+00 0.000000e+00 0.000000e+00 0.000000e+00 0.000000e+00 0.000000e+00 0.000000e+00 0.000000e+00 0.000000e+00 0.000000e+00 0.000000e+00 0.000000e+00 0.000000e+00 0.000000e+00 0.000000e+00 0.000000e+00 0.000000e+00 0.000000e+00 0.000000e+00 0.000000e+00 0.000000e+00 0.000000e+00 0.000000e+00 0.000000e+00 0.000000e+00 0.000000e+00 0.000000e+00 1.667433e-01 8.332567e-01 0.000000e+00
 0.000000e+00 0.000000e+00 0.000000e+00 0.000000e+00 0.000000e+00 0.000000e+00 0.000000e+00 0.000000e+00 0.000000e+00 0.000000e+00 0.000000e+00 0.000000e+00 0.000000e+00 0.000000e+00 0.000000e+00 0.000000e+00 0.000000e+00 0.000000e+00 0.000000e+00 0.000000e+00 0.000000e+00 0.000000e+00 0.000000e+00 0.000000e+00 0.000000e+00 0.000000e+00 0.000000e+00 0.000000e+00 0.000000e+00 0.000000e+00 0.000000e+00 0.000000e+00 0.000000e+00 0.000000e+00 0.000000e+00 1.666558e-01 8.333442e-01
 0.000000e+00 0.000000e+00 0.000000e+00 0.000000e+00 0.000000e+00 0.000000e+00 0.000000e+00 0.000000e+00 0.000000e+00 0.000000e+00 0.000000e+00 0.000000e+00 0.000000e+00 0.000000e+00 0.000000e+00 0.000000e+00 0.000000e+00 0.000000e+00 0.000000e+00 0.000000e+00 0.000000e+00 0.000000e+00 0.000000e+00 0.000000e+00 0.000000e+00 0.000000e+00 0.000000e+00 0.000000e+00 0.000000e+00 0.000000e+00 0.000000e+00 0.000000e+00 0.000000e+00 0.000000e+00 0.000000e+00 0.000000e+00 0.000000e+00
<ENDHMM>
