~o
<STREAMINFO> 1 39
<VECSIZE> 39<NULLD><MFCC_E_D_A><DIAGC>
~h "Tru*o*c"
<BEGINHMM>
<NUMSTATES> 26
<STATE> 2
<MEAN> 39
 -6.766624e+00 -8.420675e+00 2.934796e+00 -4.058536e+00 8.506996e-01 5.489138e-01 -3.796996e+00 -1.032637e+00 5.255431e+00 -7.360418e+00 2.528939e+00 1.777001e+00 -1.459723e-02 -3.624057e-02 6.845180e-02 8.527500e-02 6.952710e-02 1.271137e-01 -7.322784e-02 -1.729812e-02 4.384257e-02 -2.853298e-01 1.056016e-01 1.840770e-01 -2.693871e-02 4.972176e-04 -8.908687e-02 -4.520562e-02 -3.092968e-02 -1.061156e-01 -1.551802e-02 -2.911889e-02 -5.776954e-02 -3.991243e-02 -5.453166e-02 -4.641932e-02 2.446396e-02 -9.021688e-02 4.899881e-03
<VARIANCE> 39
 4.744022e+00 3.336320e+00 4.442925e+00 6.689984e+00 6.252667e+00 1.398252e+01 1.601226e+01 1.067987e+01 1.262277e+01 1.497984e+01 9.972189e+00 8.637175e+00 5.000000e-02 5.992305e-01 4.167261e-01 4.075152e-01 6.193059e-01 3.705487e-01 1.116139e+00 9.783347e-01 1.399476e+00 1.164927e+00 9.584824e-01 1.298906e+00 1.110799e+00 5.000000e-02 1.352686e-01 8.549091e-02 8.235432e-02 1.842191e-01 9.611067e-02 2.745453e-01 2.779575e-01 3.131236e-01 2.145776e-01 2.067367e-01 2.915863e-01 2.522102e-01 5.000000e-02
<GCONST> 6.484834e+01
<STATE> 3
<MEAN> 39
 -6.072022e+00 -7.914311e+00 1.079039e+00 -1.111620e+00 3.200677e+00 -3.699078e+00 1.623858e-01 -2.287628e+00 -1.047083e+00 -1.966671e+00 4.687043e+00 -2.081899e+00 2.507824e-02 -2.226072e+00 -4.721906e-01 -1.662325e-01 -2.384034e+00 -2.049701e-01 6.860670e-01 -1.504822e+00 -9.413737e-01 -2.574677e-01 -7.888194e-01 4.214164e-01 -7.517346e-01 1.216185e-01 -6.892097e-01 5.050381e-02 -3.862441e-01 -1.114067e+00 -8.521154e-01 -2.395106e-01 2.693286e-02 2.541002e-01 4.524383e-01 -2.945458e-01 6.976040e-03 -3.563892e-02 4.748194e-02
<VARIANCE> 39
 5.359152e+00 3.353479e+00 2.587378e+00 5.755116e+00 2.336918e+00 2.718667e+00 8.443877e+00 7.414689e+00 7.830607e+00 1.258426e+01 4.335698e+00 8.691534e+00 5.000000e-02 2.794203e+00 4.404748e-01 7.858431e-01 2.761679e+00 1.233487e+00 2.844814e+00 1.836944e+00 9.331648e-01 1.767431e+00 3.487382e+00 4.771740e-01 1.154971e+00 5.000000e-02 3.205885e-01 5.000000e-02 2.164237e-01 1.071942e-01 2.145180e-01 6.436113e-01 4.856543e-01 2.218027e-01 1.440586e-01 3.621943e-01 5.910991e-02 1.485307e-01 5.000000e-02
<GCONST> 6.669112e+01
<STATE> 4
<MEAN> 39
 -1.898667e+01 -7.673296e+00 2.581702e-01 -1.431783e+01 -1.015766e+00 -1.325904e+00 -4.241865e+00 -3.253577e+00 -4.601854e-01 -6.079464e+00 5.959159e+00 -2.699586e+00 5.903869e-01 -8.654988e-01 -2.148266e-01 -1.042272e+00 -2.742570e+00 -3.770152e+00 -3.352007e+00 6.200197e-01 1.416857e+00 7.356873e-01 -4.955548e-01 1.161789e-01 -4.706605e-01 1.602359e-01 1.997612e+00 -8.865941e-01 1.302688e-01 6.992881e-01 -4.735233e-01 -1.714041e+00 8.762255e-01 1.057177e+00 6.475339e-01 8.604631e-01 -4.398805e-01 1.662337e-01 -2.156384e-02
<VARIANCE> 39
 2.594193e+01 2.152864e+01 1.288541e+01 5.501678e+00 2.189416e+01 4.481105e+01 1.825070e+01 2.110617e+01 1.900491e+01 2.816777e+01 8.518850e+00 1.114731e+01 5.000000e-02 8.630036e+00 1.285134e+00 2.076829e+00 2.684143e+00 1.722535e+00 7.298618e+00 2.434814e+00 1.987930e+00 2.097686e+00 1.990246e+00 1.095501e+00 7.074488e-01 5.000000e-02 3.947531e-01 3.362461e-01 1.693441e-01 1.104669e-01 6.922027e-01 6.309890e-01 3.586094e-01 4.907736e-01 3.996838e-01 1.336098e+00 1.929850e-01 1.175691e-01 5.000000e-02
<GCONST> 9.338507e+01
<STATE> 5
<MEAN> 39
 -8.110615e+00 -1.440676e+01 -3.122465e+00 -1.522635e+01 -1.430031e+01 -1.853362e+01 1.146843e+00 4.279038e+00 5.110026e+00 -2.736195e+00 4.310966e+00 -3.692594e+00 8.275372e-01 4.112339e+00 -4.142521e+00 2.650654e-01 -1.105251e+00 -1.658069e+00 -4.979451e+00 1.694462e+00 3.719139e+00 2.950478e+00 3.088705e+00 -1.432190e+00 2.570849e-01 8.668832e-02 1.183675e-02 -2.965786e-01 1.898573e-01 1.627039e-01 1.971426e+00 1.165387e+00 -3.395512e-01 -2.199578e-01 1.123945e-01 5.097233e-01 -5.998380e-01 1.658350e-01 -2.901883e-02
<VARIANCE> 39
 6.685511e+00 2.558216e+01 2.828294e+01 4.685353e+00 1.277469e+01 2.111347e+01 1.255269e+01 2.154241e+01 1.220408e+01 2.130971e+01 2.174647e+01 1.074230e+01 5.000000e-02 6.946276e-01 5.733606e-01 1.479915e+00 9.874921e-01 3.667548e+00 2.123140e+00 1.646675e+00 4.141779e+00 2.066258e+00 5.120728e+00 2.918037e+00 1.164013e+00 5.000000e-02 5.854274e-01 3.790851e-01 2.877718e-01 3.359116e-01 9.558485e-02 3.565420e-01 1.614996e-01 5.244504e-01 4.094780e-01 5.584950e-01 6.697044e-02 9.642190e-02 5.000000e-02
<GCONST> 8.573583e+01
<STATE> 6
<MEAN> 39
 -3.655366e+00 -2.121874e+01 4.757293e-01 -1.887104e+01 -7.692411e+00 -2.293934e+01 2.821409e+00 1.106702e+01 7.930770e+00 4.896952e+00 -5.515507e-02 -1.743608e+00 9.426749e-01 7.540143e-01 -1.448376e+00 -8.134219e-01 -1.272837e+00 2.886444e+00 -3.332594e-01 1.788935e-01 7.994084e-01 1.304008e+00 1.516896e+00 -2.212059e+00 3.044472e-01 2.947382e-02 -1.085293e+00 1.021222e+00 -7.866583e-01 1.582669e-01 8.033993e-01 1.694005e+00 -7.726817e-01 -1.097179e+00 -6.289329e-01 -7.789669e-01 -2.472626e-01 -1.084101e-02 -2.133040e-02
<VARIANCE> 39
 9.800749e+00 1.091766e+01 1.939885e+01 6.341253e+00 1.262155e+01 1.415665e+01 8.722444e+00 1.720707e+01 1.630829e+01 1.525737e+01 4.686585e+01 1.103651e+01 5.000000e-02 6.838744e-01 2.306210e+00 1.610327e+00 7.927754e-01 7.389119e-01 1.409418e+00 5.799970e-01 2.248707e+00 1.802812e+00 2.315599e+00 3.524158e-01 5.713000e-01 5.000000e-02 1.221269e-01 1.739862e-01 1.117278e-01 1.648116e-01 6.904424e-01 2.985724e-01 1.860743e-01 3.718138e-01 2.836107e-01 5.625989e-01 2.798936e-01 9.109608e-02 5.000000e-02
<GCONST> 7.736871e+01
<STATE> 7
<MEAN> 39
 -4.682293e+00 -2.041659e+01 -5.383162e+00 -2.107511e+01 -1.129321e+00 -2.186721e+01 3.376796e+00 8.649417e+00 1.276117e+01 3.992862e+00 -1.550214e+00 -3.861636e+00 9.512119e-01 1.311987e-01 -7.388530e-01 -1.875091e+00 -1.075523e+00 2.246382e+00 1.195689e+00 -1.414015e+00 -1.941418e-01 1.552433e-01 6.349701e-01 -2.955047e+00 5.035667e-01 6.202506e-03 -2.864711e-01 4.479095e-01 -1.089182e-01 4.041792e-01 -6.375660e-01 8.471839e-01 -6.248810e-01 -1.002274e-01 -9.441422e-01 -7.102962e-02 9.034648e-03 2.924643e-01 -9.732682e-03
<VARIANCE> 39
 2.252734e+00 1.091422e+01 3.881011e+01 1.178002e+01 4.796344e+01 1.414075e+01 1.357609e+01 1.230030e+01 1.772357e+01 1.067897e+01 4.785983e+01 1.882545e+01 5.000000e-02 3.229908e-01 7.264848e-01 2.369936e-01 3.035238e-01 1.452335e+00 1.179869e+00 2.924257e-01 1.387627e-01 2.611115e+00 1.177910e+00 4.612472e-01 6.140119e-01 5.000000e-02 1.403789e-01 1.844969e-01 1.067991e-01 1.518082e-01 4.453661e-01 1.550925e-01 1.515256e-01 2.257686e-01 2.804359e-01 2.903649e-01 3.646911e-01 1.772258e-01 5.000000e-02
<GCONST> 6.974533e+01
<STATE> 8
<MEAN> 39
 -4.522351e+00 -2.262387e+01 -7.651268e+00 -2.111018e+01 -1.919196e+00 -1.561795e+01 -2.424083e+00 8.793778e+00 7.597656e+00 4.354836e+00 -1.156362e+01 3.994765e-01 9.436931e-01 -2.203431e-01 2.604651e-01 -1.908161e+00 4.020307e-01 1.515256e-01 2.760391e+00 -2.047851e+00 8.963570e-01 -9.625336e-01 7.398807e-01 -1.516556e+00 5.110132e-01 7.212657e-04 -3.358001e-02 5.054978e-01 2.489044e-01 4.973623e-01 -5.810526e-01 2.344115e-01 5.031295e-02 -4.728543e-02 4.974617e-02 -1.322576e-02 9.009162e-01 -3.470969e-01 -1.605258e-03
<VARIANCE> 39
 1.894559e+00 6.341296e+00 1.752136e+01 8.722281e+00 3.866453e+01 5.521554e+01 6.582341e+00 1.439333e+01 1.405103e+01 2.187513e+01 3.656958e+01 2.250048e+01 5.000000e-02 3.815457e-01 1.154002e+00 6.796624e-01 1.450662e+00 9.527581e-01 1.924181e+00 1.118939e+00 4.634024e-01 7.029237e-01 8.696137e-01 2.838227e+00 1.131934e+00 5.000000e-02 5.000000e-02 1.008205e-01 6.256718e-02 8.894251e-02 1.764116e-01 1.985584e-01 5.141577e-02 1.298102e-01 3.334607e-01 3.452580e-01 1.840266e-01 3.683243e-01 5.000000e-02
<GCONST> 7.095760e+01
<STATE> 9
<MEAN> 39
 -4.024450e+00 -2.107113e+01 -1.045461e+01 -2.085349e+01 5.483553e-01 -1.484327e+01 -3.415646e+00 1.153060e+01 7.032093e+00 9.967432e+00 -9.643710e+00 -6.082496e-02 9.594339e-01 7.366845e-02 6.407892e-01 -8.983396e-01 7.085449e-01 -1.067845e-01 2.043572e+00 -1.003435e+00 -4.907149e-01 -2.910081e-01 5.795008e-01 -3.034872e-01 -8.731238e-01 2.571654e-03 -3.316971e-02 3.842720e-01 6.594649e-02 1.654969e-01 -1.897097e-01 2.292177e-03 4.276104e-01 -5.766419e-01 6.158296e-01 -5.899428e-01 7.030982e-01 -8.885245e-01 3.626432e-04
<VARIANCE> 39
 2.258106e+00 5.151349e+00 4.099993e+01 9.705394e+00 3.645255e+01 2.949170e+01 1.378539e+01 1.130110e+01 5.763541e+00 3.001970e+01 9.544806e+00 1.167835e+01 5.000000e-02 2.654776e-01 7.498885e-01 6.143013e-01 7.727632e-01 1.339764e+00 2.380382e-01 1.012010e+00 5.554221e-01 1.907400e+00 2.649512e+00 3.433652e+00 2.962137e+00 5.000000e-02 5.553289e-02 7.771316e-02 2.082591e-01 2.238884e-01 9.907888e-02 2.152079e-01 1.230130e-01 2.149924e-01 3.342358e-01 6.999105e-01 2.148377e-01 4.447469e-01 5.000000e-02
<GCONST> 7.309491e+01
<STATE> 10
<MEAN> 39
 -4.587534e+00 -1.789590e+01 -1.270911e+01 -1.694050e+01 -2.368419e+00 -9.059952e+00 -5.170166e+00 8.000340e+00 8.919653e+00 5.326903e+00 -6.316825e+00 -5.430659e+00 9.510430e-01 -2.872069e-02 8.138213e-01 -1.125460e+00 5.216362e-01 1.763685e-02 1.497256e+00 -2.437691e-01 -2.025730e+00 1.716864e+00 -1.124593e+00 7.273101e-01 -2.515232e+00 2.409560e-03 1.210853e-01 -3.007413e-01 1.761726e-01 -2.717182e-01 -1.426852e-01 -2.364238e-01 2.956521e-02 -1.782669e-02 4.296966e-02 -3.920203e-02 -2.107033e-01 -1.606897e-01 1.004782e-03
<VARIANCE> 39
 2.170480e+00 9.168816e+00 2.078347e+01 1.172949e+01 1.498637e+01 5.405647e+01 1.735068e+01 7.954577e+00 1.106686e+01 2.331154e+01 1.851180e+01 6.509420e+00 5.000000e-02 1.387338e-01 1.155484e+00 8.874862e-01 1.196121e+00 1.039001e+00 1.196712e+00 9.610288e-01 2.169074e+00 2.046489e+00 3.435179e+00 2.240248e+00 3.520534e+00 5.000000e-02 7.022253e-02 2.736118e-01 7.897452e-02 1.711378e-01 1.982834e-01 2.084711e-01 1.595040e-01 2.968672e-01 1.512258e-01 3.107892e-01 1.196058e-01 1.746455e-01 5.000000e-02
<GCONST> 7.492457e+01
<STATE> 11
<MEAN> 39
 -4.581997e+00 -1.747080e+01 -1.340197e+01 -1.795770e+01 -2.466088e+00 -9.304862e+00 -6.099664e+00 2.598484e+00 1.523300e+01 2.925385e+00 -6.252598e+00 -1.131820e+01 9.701134e-01 2.353701e-01 5.650364e-01 -9.604849e-01 1.798973e-02 -6.382608e-02 1.539118e+00 5.522880e-02 -3.854595e-01 -6.363040e-02 -5.235393e-01 -1.797986e-01 -2.023968e+00 -2.803623e-03 2.273861e-01 -2.446443e-01 4.660834e-01 -2.631878e-01 2.411742e-01 -8.659087e-02 1.913123e-01 5.953150e-01 -8.887541e-01 2.581408e-01 -2.425077e-01 6.446217e-01 -6.938523e-03
<VARIANCE> 39
 4.698231e-01 2.557998e+00 1.683698e+01 8.441726e+00 9.443214e+00 2.889640e+01 2.303561e+01 1.257371e+01 2.537154e+01 1.702197e+01 9.519921e+00 3.164146e+01 5.000000e-02 2.207276e-01 1.191841e+00 1.046499e+00 4.208750e-01 7.082464e-01 7.273700e-01 1.305095e+00 1.177054e+00 3.869185e+00 3.371326e+00 2.153710e+00 3.518821e+00 5.000000e-02 5.000000e-02 1.754402e-01 6.572340e-02 2.669920e-01 2.509165e-01 2.545811e-01 3.885792e-01 2.516961e-01 5.294728e-01 8.663172e-02 2.925497e-01 4.094113e-01 5.000000e-02
<GCONST> 7.402991e+01
<STATE> 12
<MEAN> 39
 -2.986962e+00 -1.778034e+01 -1.512722e+01 -1.802705e+01 -4.316706e+00 -1.392840e+00 -5.372928e+00 6.905861e+00 9.539237e+00 3.035471e+00 -5.933159e+00 -1.150703e+01 9.576617e-01 8.133549e-01 -2.275828e-01 2.550862e-01 -9.157158e-01 2.857440e-01 7.020476e-01 7.263916e-01 -3.854511e-02 -1.195514e+00 -3.152841e-03 -5.670073e-01 4.962487e-01 -1.293293e-02 1.090164e-01 -1.189986e-01 2.945184e-01 4.315772e-02 2.992849e-01 -7.021486e-01 -1.774976e-01 -2.585661e-01 -1.592451e-01 6.622380e-02 -3.230727e-01 5.767360e-01 -8.386226e-03
<VARIANCE> 39
 3.918489e+00 4.904518e+00 4.954739e+00 1.268363e+01 8.630109e+00 4.091415e+01 5.939307e+01 1.280361e+01 1.195603e+01 1.594930e+01 5.362387e+01 5.590792e+01 5.000000e-02 5.700107e-01 3.190683e-01 2.535659e-01 1.355622e+00 1.074276e+00 2.458501e+00 4.281181e+00 8.337544e-01 9.365533e-01 2.037472e+00 1.581155e+00 1.137810e+00 5.000000e-02 5.267569e-02 7.177018e-02 1.602127e-01 2.401527e-01 2.102606e-01 1.432690e-01 9.117708e-01 5.000000e-02 3.331934e-01 1.808903e-01 2.624725e-01 8.618710e-01 5.000000e-02
<GCONST> 7.652689e+01
<STATE> 13
<MEAN> 39
 -1.469342e+00 -1.841098e+01 -1.306516e+01 -2.014990e+01 -3.991967e-01 -4.179475e+00 -3.238657e+00 4.520387e+00 6.103495e+00 4.169935e+00 -1.050021e+01 -9.360338e+00 9.039364e-01 1.076131e+00 -2.498475e-01 7.201027e-01 4.280077e-01 1.144839e+00 -8.422163e-01 -1.459789e+00 -7.283128e-01 -6.875930e-01 2.472792e-01 -9.141940e-01 3.924797e-01 -3.497899e-02 1.625932e-01 7.350606e-02 1.609041e-01 6.130903e-01 -5.964217e-02 -6.294852e-01 -3.607320e-01 -8.088258e-03 3.729752e-01 4.776693e-02 4.612299e-01 5.820894e-02 -1.086844e-02
<VARIANCE> 39
 1.434782e+01 7.470743e+00 7.548191e+00 6.777535e+00 1.995164e+01 7.685249e+00 8.242062e+00 9.663197e+00 8.381586e+00 2.982178e+01 3.457873e+01 4.062469e+01 5.000000e-02 4.778900e-01 6.129433e-01 1.202679e+00 2.011881e+00 2.018601e+00 1.321636e+00 1.359535e+00 9.231966e-01 1.980254e+00 3.407076e-01 5.086660e-01 3.818332e+00 5.000000e-02 1.302220e-01 7.017883e-02 1.804936e-01 3.572801e-01 2.996357e-01 2.497065e-01 5.093979e-01 1.405905e-01 1.593589e-01 5.086321e-01 5.000000e-02 6.177920e-01 5.000000e-02
<GCONST> 7.595767e+01
<STATE> 14
<MEAN> 39
 -2.150570e-01 -1.833941e+01 -9.995642e+00 -2.098022e+01 3.747595e+00 -8.145810e+00 -8.132580e+00 3.236614e+00 6.424250e+00 4.796607e+00 -1.125021e+01 -9.119805e+00 8.074319e-01 1.381934e+00 4.775704e-02 1.236806e+00 1.585883e+00 -2.273542e-03 -1.400363e+00 -6.359971e-01 -1.730234e-01 -4.153968e-01 1.002478e-01 7.442427e-01 9.141014e-01 -6.156796e-02 2.221953e-02 1.377353e-01 -2.691800e-01 1.023251e+00 -1.026478e+00 -4.005964e-02 5.364292e-01 2.301320e-01 4.028929e-01 -3.493207e-01 6.123303e-01 2.840467e-02 -7.365327e-03
<VARIANCE> 39
 9.778753e+00 6.830772e+00 2.257942e+01 1.526374e+01 4.299893e+01 1.927676e+01 8.114848e+00 9.223978e+00 1.030523e+01 2.169422e+01 1.911932e+01 1.839293e+01 5.000000e-02 3.121030e-01 5.468238e-01 1.641886e+00 3.479360e+00 2.355239e+00 1.671077e+00 7.133128e-01 2.018026e+00 1.989472e+00 6.337243e-01 8.277176e-01 4.029999e+00 5.000000e-02 1.538047e-01 8.497642e-02 5.290208e-01 5.002897e-01 4.036135e-01 2.052203e-01 1.434950e-01 2.038537e-01 1.950114e-01 3.076577e-01 7.860861e-02 6.257554e-01 5.000000e-02
<GCONST> 8.067252e+01
<STATE> 15
<MEAN> 39
 4.066338e+00 -1.816676e+01 -9.784422e+00 -1.084466e+01 -1.605218e+00 -1.136745e+01 -6.886840e+00 2.740713e+00 5.837273e+00 3.367257e+00 -7.196920e+00 -6.077419e+00 6.396427e-01 6.961089e-01 -1.364661e-01 -3.812293e-01 3.436962e+00 -2.172022e+00 -1.141595e+00 1.057062e+00 -1.367842e-02 9.037203e-01 -9.734002e-01 1.062291e+00 7.162628e-01 -6.390355e-02 -5.118789e-01 -1.375135e-01 -1.933774e-01 -3.746919e-01 1.838777e-02 4.753296e-01 5.647144e-01 -4.184612e-02 3.064397e-01 -1.895450e-01 1.195769e-01 -2.506300e-01 5.507138e-03
<VARIANCE> 39
 1.270552e+01 4.212819e+00 2.271263e+01 3.401762e+01 2.797872e+01 1.329666e+01 1.003048e+01 7.940021e+00 1.347079e+01 4.815159e+00 1.479660e+01 7.645459e+00 5.000000e-02 1.066058e+00 6.189669e-01 2.498546e+00 3.219983e+00 2.176681e+00 2.489774e+00 1.492477e+00 1.033880e+00 7.563654e-01 1.316269e+00 1.680910e+00 2.665041e+00 5.000000e-02 8.573221e-02 5.000000e-02 6.040998e-01 4.544307e-01 3.833582e-01 3.462835e-01 2.434714e-01 4.701699e-01 2.197131e-01 2.129640e-01 1.181838e-01 2.580505e-01 5.000000e-02
<GCONST> 8.032162e+01
<STATE> 16
<MEAN> 39
 3.370146e+00 -1.957200e+01 -1.182373e+01 -7.410337e+00 -6.332751e+00 -1.215304e+01 -1.531253e+00 4.243211e+00 8.008138e+00 5.979233e-01 -5.696559e+00 -5.603204e+00 5.484537e-01 -4.115757e-01 9.872752e-02 4.199361e-01 1.326615e+00 -3.693396e-01 1.196619e-01 1.211008e+00 -2.625085e-01 1.286765e+00 -5.330676e-01 1.242509e+00 -1.927661e-01 -3.417048e-02 -6.545424e-02 1.288596e-01 2.014143e-01 -5.885981e-01 6.410042e-01 4.792691e-01 -4.642159e-01 -3.098432e-01 -2.833270e-01 1.598997e-01 -1.231454e-02 -9.848445e-02 7.562041e-03
<VARIANCE> 39
 9.950585e+00 4.733112e+00 6.569685e+00 2.088360e+01 9.751208e+00 1.367171e+01 1.197542e+01 2.995852e+00 1.905573e+01 8.516882e+00 1.916911e+01 2.751765e+00 5.000000e-02 3.766996e-01 5.655642e-01 2.256180e+00 6.409446e-01 7.570928e-01 2.725894e+00 1.254958e+00 1.085850e+00 8.083187e-01 1.115296e+00 4.036944e-01 1.170557e+00 5.000000e-02 1.513197e-01 2.374211e-01 4.220420e-01 3.211118e-01 7.302968e-02 1.419205e-01 2.430051e-01 1.452558e-01 4.372991e-01 1.005248e-01 1.764941e-01 1.533010e-01 5.000000e-02
<GCONST> 6.802223e+01
<STATE> 17
<MEAN> 39
 2.914495e+00 -1.870894e+01 -9.503479e+00 -4.545254e+00 -5.466341e+00 -1.156017e+01 -1.939878e+00 2.133527e+00 1.224045e+01 2.666108e+00 -2.192900e+00 -5.322526e+00 5.132830e-01 -2.070179e-01 4.579967e-01 4.469329e-01 3.665618e-01 3.489928e-01 1.199942e+00 -1.850533e-01 -9.205962e-01 -3.052427e-01 -6.653076e-01 6.518312e-01 2.842902e-01 -2.995860e-02 8.771049e-03 7.341507e-02 -3.853969e-02 -5.736217e-01 6.570005e-01 1.755441e-02 -5.207170e-01 1.953069e-01 -7.483799e-01 3.364565e-02 -4.717960e-01 8.696787e-02 3.125885e-04
<VARIANCE> 39
 8.752562e+00 2.655122e+00 9.693443e+00 2.288488e+01 9.104898e+00 2.143662e+01 5.082523e+00 4.256378e+00 1.683914e+01 1.160175e+01 1.611214e+01 1.426266e+01 5.000000e-02 1.584112e-01 1.199382e+00 1.379308e+00 3.468286e-01 8.191661e-01 3.636007e-01 1.313709e+00 1.110675e+00 9.575078e-01 1.081248e+00 4.560293e-01 8.824659e-01 5.000000e-02 1.024480e-01 1.644537e-01 3.054632e-01 1.686917e-01 1.040211e-01 3.721395e-01 1.878949e-01 1.029775e-01 3.829139e-01 4.036223e-01 1.919298e-01 3.951978e-01 5.000000e-02
<GCONST> 6.749890e+01
<STATE> 18
<MEAN> 39
 1.680882e+00 -1.764825e+01 -9.253982e+00 -6.640074e+00 -2.551020e+00 -6.818233e+00 -3.588120e+00 8.986496e-01 7.032233e+00 -1.260265e+00 -3.281246e+00 -4.903811e+00 4.719691e-01 4.740943e-02 1.898214e-02 -7.088417e-02 -2.949392e-01 1.843408e+00 1.647156e-01 -1.076324e+00 4.313381e-01 -9.811865e-01 3.261916e-01 1.338826e-01 7.515641e-02 -3.181745e-02 3.469690e-02 3.290519e-02 -8.524834e-02 -1.371826e-01 -1.504193e-01 -6.035793e-01 -2.158342e-01 4.265091e-01 7.217000e-02 4.342329e-01 -2.242857e-01 -2.471764e-01 2.077954e-03
<VARIANCE> 39
 5.829474e+00 1.049331e+01 8.143244e+00 4.406379e+01 1.651360e+01 2.814160e+01 2.191576e+01 1.427425e+01 1.176467e+01 9.501284e+00 9.563930e+00 1.975475e+01 5.000000e-02 7.081484e-01 6.493132e-01 8.521307e-01 6.973696e-01 1.760993e+00 2.302375e+00 6.959639e-01 6.215017e-01 4.073898e+00 2.619882e+00 1.418489e+00 1.043579e+00 5.000000e-02 5.000000e-02 1.914560e-01 1.910230e-01 1.722460e-01 3.268150e-01 1.121530e-01 3.294981e-01 3.660837e-01 6.418685e-01 2.791977e-01 1.285411e-01 3.453718e-01 5.000000e-02
<GCONST> 7.823762e+01
<STATE> 19
<MEAN> 39
 1.366954e+00 -1.682209e+01 -9.972639e+00 -1.027554e+01 4.933297e-01 -8.254017e+00 -1.098764e+01 4.668574e+00 3.718636e+00 4.245818e+00 -7.799263e+00 -8.133817e+00 5.230279e-01 5.321933e-02 4.367181e-01 -3.813744e-01 1.286434e+00 -1.204379e+00 -4.179668e-01 -1.671749e-01 1.343454e+00 2.533152e-01 6.998162e-01 6.938969e-02 -5.955936e-01 -3.442167e-02 -5.050028e-02 -4.803770e-02 -5.420757e-02 2.355566e-01 -8.351957e-01 -1.435283e-01 1.001916e+00 -5.724730e-04 1.156394e+00 -3.677097e-01 1.101151e-01 -4.198769e-02 2.692776e-03
<VARIANCE> 39
 5.653359e+00 2.836198e+00 4.258287e+00 6.610023e+01 2.756259e+01 1.937646e+01 5.751042e+01 2.019227e+00 4.999070e+01 1.688043e+01 2.875442e+01 3.400597e+00 5.000000e-02 1.243125e-01 4.534205e-01 1.766377e-01 4.759913e+00 4.326437e+00 1.041370e+00 6.548910e+00 1.653416e+00 1.148010e+01 1.090000e+00 1.415023e+00 1.119180e+00 5.000000e-02 9.246990e-02 1.660361e-01 2.015992e-01 8.366072e-01 1.143865e+00 3.146285e-01 1.065913e+00 1.706499e-01 1.745039e+00 4.303051e-01 2.323755e-01 5.000000e-02 5.000000e-02
<GCONST> 8.386115e+01
<STATE> 20
<MEAN> 39
 2.714910e+00 -1.835607e+01 -1.078681e+01 -5.445077e+00 -4.600601e+00 -1.213885e+01 -2.961795e+00 6.216034e+00 1.116788e+01 2.396142e+00 -4.009011e+00 -7.054207e+00 4.015481e-01 -2.399316e-01 -1.756122e-01 -9.599732e-02 -1.235771e-01 -2.504482e-01 -7.511665e-01 7.892674e-01 -9.184225e-01 6.807934e-01 -1.116641e+00 2.547921e-01 1.613068e-01 -3.337536e-02 -1.780931e-01 2.198664e-01 2.863168e-01 -7.418717e-02 3.766154e-01 4.518081e-01 -2.306591e-01 -6.847104e-01 -8.618745e-01 -1.427978e-01 1.611880e-01 4.053656e-01 -4.468343e-03
<VARIANCE> 39
 1.077091e+00 4.687387e+00 1.102222e+00 6.510458e+00 1.013062e+01 6.165377e+00 9.425824e+00 2.328205e+01 1.234663e+01 1.575477e+01 1.902090e+01 7.659432e+00 5.000000e-02 6.771335e-01 8.643527e-01 3.239767e-01 5.271435e-01 1.525879e+00 1.762542e+00 5.328210e+00 1.461729e+00 4.962286e+00 1.404824e+00 1.354525e+00 6.170110e-01 5.000000e-02 5.000000e-02 2.139057e-01 6.985831e-02 1.867641e-01 4.144841e-01 2.716008e-01 8.922908e-01 2.385582e-01 4.865494e-01 4.450463e-01 3.305328e-01 1.144098e-01 5.000000e-02
<GCONST> 7.114542e+01
<STATE> 21
<MEAN> 39
 7.698537e-01 -1.618760e+01 -9.963370e+00 -5.595008e+00 -3.383430e+00 -1.064767e+01 -4.006087e+00 4.442708e-01 8.703821e+00 -1.500476e+00 -2.431991e+00 -4.962386e+00 2.561874e-01 -2.570021e-01 1.349029e+00 1.163993e+00 3.933115e-01 7.714474e-01 1.164133e+00 4.939468e-01 -9.440704e-01 -1.060086e+00 -8.577034e-02 4.697357e-01 6.829745e-01 -2.979329e-02 1.398883e-01 1.260139e-01 2.987846e-01 1.887004e-01 2.094657e-01 2.561645e-01 2.589265e-01 3.093965e-01 2.202531e-02 3.074603e-01 3.693256e-02 -4.513558e-03 5.702282e-03
<VARIANCE> 39
 3.920149e+00 7.932259e+00 3.582540e+00 1.776805e+00 1.150101e+01 3.648319e+00 2.543646e+00 9.129110e+00 8.701676e+00 3.913670e+00 6.168023e+00 2.645863e+00 5.000000e-02 5.224435e-01 2.970806e-01 5.399151e-01 3.772490e-01 1.190400e+00 2.882973e-01 1.465729e+00 1.387147e+00 5.695547e-01 9.662514e-01 1.196138e+00 3.981305e-01 5.000000e-02 5.000000e-02 8.015564e-02 6.613726e-02 7.848464e-02 1.179097e-01 2.094847e-01 3.417724e-01 8.218216e-02 1.333812e-01 1.935247e-01 1.487942e-01 5.996455e-02 5.000000e-02
<GCONST> 4.959708e+01
<STATE> 22
<MEAN> 39
 1.774956e+00 -1.327209e+01 -6.237002e+00 -3.733107e+00 -1.028232e+00 -7.022509e+00 7.416909e-01 1.657826e+00 7.910607e+00 3.335523e-01 -1.243336e+00 -4.288956e+00 2.558433e-01 -5.548116e-01 5.202208e-01 4.562669e-01 1.352017e-01 4.055730e-01 4.155852e-01 5.052009e-01 1.042420e-01 -4.846701e-01 5.253379e-02 1.258937e-01 1.310529e-01 -2.348579e-02 -1.846694e-01 -1.086108e-01 -1.784359e-01 -1.258436e-01 -9.776717e-02 -2.683788e-01 -3.645647e-01 -6.976763e-02 8.847134e-03 -1.208934e-01 -7.602570e-02 -9.664485e-02 -1.914393e-03
<VARIANCE> 39
 3.774361e+00 6.528088e+00 7.370017e+00 4.029511e+00 6.647842e+00 1.262433e+01 1.325060e+01 1.015000e+01 1.307893e+01 6.131701e+00 6.268166e+00 3.886985e+00 5.000000e-02 2.972956e-01 7.086492e-01 1.076669e+00 5.501642e-01 4.435441e-01 1.504258e+00 1.902478e+00 2.041927e+00 7.500504e-01 2.602959e-01 1.115703e+00 5.466965e-01 5.000000e-02 6.002290e-02 2.012590e-01 2.046774e-01 5.000000e-02 1.159454e-01 1.860766e-01 3.405472e-01 5.073455e-01 1.355249e-01 5.200828e-02 2.723714e-01 8.176576e-02 5.000000e-02
<GCONST> 5.958815e+01
<STATE> 23
<MEAN> 39
 -2.155292e+00 -1.167855e+01 -5.023579e+00 -3.723173e+00 7.758561e-01 -7.045488e+00 -2.956239e+00 -1.846523e+00 2.833834e+00 -1.793159e+00 -8.150611e-01 -3.349232e+00 1.347703e-01 -8.020938e-01 7.846650e-01 7.511277e-01 1.110583e-02 3.198571e-01 2.714743e-01 -3.167593e-01 -2.387428e-01 -2.776978e-01 -5.422694e-01 1.714046e-01 -1.202287e-01 -2.326852e-02 6.215153e-02 -8.873961e-02 3.130757e-03 3.038928e-03 -2.137878e-01 3.346432e-03 4.523427e-01 6.879159e-01 7.761074e-01 2.954425e-01 2.132496e-02 -2.922389e-01 3.342868e-03
<VARIANCE> 39
 3.081835e+00 6.902184e+00 7.728872e+00 1.170525e+01 1.658136e+01 8.496191e+00 2.185700e+01 7.143089e+00 1.100205e+01 9.870668e+00 1.185572e+01 1.344009e+01 5.000000e-02 2.037440e-01 5.539849e-01 1.161676e+00 6.701924e-01 3.070612e-01 1.089510e+00 1.488049e+00 1.148947e+00 4.623022e-01 4.539895e-01 9.502526e-01 5.505669e-01 5.000000e-02 1.313469e-01 1.390939e-01 8.027948e-02 2.292859e-01 1.156439e-01 2.141472e-01 2.764877e-01 2.836441e-01 5.000000e-02 2.372609e-01 2.502145e-01 9.524900e-02 5.000000e-02
<GCONST> 6.239756e+01
<STATE> 24
<MEAN> 39
 -2.241785e+00 -1.160034e+01 -6.306200e+00 -4.862858e+00 -6.748459e-01 -8.156358e+00 -9.096739e-01 1.471034e+00 9.026465e+00 5.055829e-01 -1.724966e+00 -5.665668e+00 1.405567e-01 -8.302072e-01 1.820520e-01 3.659519e-01 -5.339954e-02 -3.674361e-01 3.745745e-01 9.366837e-01 7.431546e-01 7.926759e-01 4.543564e-01 5.470936e-01 -3.139084e-01 -3.144015e-02 -4.070263e-02 -4.594025e-02 8.042198e-02 2.231324e-01 2.176005e-02 1.365265e-01 -2.105564e-02 -5.968003e-02 -1.899955e-01 -1.076988e-01 1.545314e-03 1.771636e-01 -4.976567e-03
<VARIANCE> 39
 7.404243e+00 4.228641e+00 2.675172e+01 1.253487e+01 3.617058e+00 2.058982e+01 5.748439e+00 1.559442e+01 2.395382e+01 1.244309e+01 1.074088e+01 6.313938e+00 5.000000e-02 9.361854e-01 3.710019e-01 1.142734e+00 5.271161e-01 3.070616e-01 1.384732e+00 9.380532e-01 4.327979e+00 4.997388e+00 2.677146e+00 1.188078e+00 1.042735e+00 5.000000e-02 1.884360e-01 1.293115e-01 3.396714e-01 9.501295e-02 7.454848e-02 2.643445e-01 1.156660e-01 4.189923e-01 4.662587e-01 3.952844e-01 2.229892e-01 1.058249e-01 5.000000e-02
<GCONST> 7.291927e+01
<STATE> 25
<MEAN> 39
 -5.063649e+00 -1.000723e+01 -3.384333e+00 -3.087983e+00 -7.201906e-01 -5.724697e+00 1.454243e+00 3.480901e+00 8.251894e+00 -7.565867e-02 9.100955e-01 -5.597061e+00 5.759551e-03 -2.843968e-01 6.047747e-01 8.379237e-01 1.060347e+00 7.209899e-01 4.069914e-01 -4.275958e-01 -4.989083e-01 1.159229e-01 2.328131e-01 3.473004e-01 2.795561e-01 -1.858661e-02 4.156728e-01 -8.555301e-02 -1.306452e-01 -7.063794e-04 1.813937e-01 -2.627735e-01 -3.376356e-01 -5.500392e-01 -3.780301e-01 -6.357452e-02 -2.053640e-01 1.694704e-01 1.239268e-02
<VARIANCE> 39
 1.985825e+00 2.764446e+00 4.710222e+00 6.882844e+00 1.067112e+01 8.117642e+00 1.040394e+01 1.829991e+01 2.154283e+01 5.832481e+00 5.549682e+00 4.900231e+00 5.000000e-02 6.989615e-01 5.963715e-01 1.625613e+00 1.189248e+00 9.104993e-01 6.838905e-01 7.477406e-01 9.726287e-01 5.928982e-01 9.002129e-01 6.043915e-01 4.435353e-01 5.000000e-02 7.735533e-02 8.133248e-02 1.505527e-01 1.605760e-01 1.294748e-01 6.625509e-02 1.537379e-01 4.691122e-01 4.190703e-01 2.593286e-01 1.600917e-01 1.090964e-01 5.000000e-02
<GCONST> 6.032059e+01
<TRANSP> 26
 0.000000e+00 1.000000e+00 0.000000e+00 0.000000e+00 0.000000e+00 0.000000e+00 0.000000e+00 0.000000e+00 0.000000e+00 0.000000e+00 0.000000e+00 0.000000e+00 0.000000e+00 0.000000e+00 0.000000e+00 0.000000e+00 0.000000e+00 0.000000e+00 0.000000e+00 0.000000e+00 0.000000e+00 0.000000e+00 0.000000e+00 0.000000e+00 0.000000e+00 0.000000e+00
 0.000000e+00 8.935496e-01 1.064504e-01 0.000000e+00 0.000000e+00 0.000000e+00 0.000000e+00 0.000000e+00 0.000000e+00 0.000000e+00 0.000000e+00 0.000000e+00 0.000000e+00 0.000000e+00 0.000000e+00 0.000000e+00 0.000000e+00 0.000000e+00 0.000000e+00 0.000000e+00 0.000000e+00 0.000000e+00 0.000000e+00 0.000000e+00 0.000000e+00 0.000000e+00
 0.000000e+00 0.000000e+00 6.161503e-01 3.838498e-01 0.000000e+00 0.000000e+00 0.000000e+00 0.000000e+00 0.000000e+00 0.000000e+00 0.000000e+00 0.000000e+00 0.000000e+00 0.000000e+00 0.000000e+00 0.000000e+00 0.000000e+00 0.000000e+00 0.000000e+00 0.000000e+00 0.000000e+00 0.000000e+00 0.000000e+00 0.000000e+00 0.000000e+00 0.000000e+00
 0.000000e+00 0.000000e+00 0.000000e+00 6.153839e-01 3.846160e-01 0.000000e+00 0.000000e+00 0.000000e+00 0.000000e+00 0.000000e+00 0.000000e+00 0.000000e+00 0.000000e+00 0.000000e+00 0.000000e+00 0.000000e+00 0.000000e+00 0.000000e+00 0.000000e+00 0.000000e+00 0.000000e+00 0.000000e+00 0.000000e+00 0.000000e+00 0.000000e+00 0.000000e+00
 0.000000e+00 0.000000e+00 0.000000e+00 0.000000e+00 4.999995e-01 5.000005e-01 0.000000e+00 0.000000e+00 0.000000e+00 0.000000e+00 0.000000e+00 0.000000e+00 0.000000e+00 0.000000e+00 0.000000e+00 0.000000e+00 0.000000e+00 0.000000e+00 0.000000e+00 0.000000e+00 0.000000e+00 0.000000e+00 0.000000e+00 0.000000e+00 0.000000e+00 0.000000e+00
 0.000000e+00 0.000000e+00 0.000000e+00 0.000000e+00 0.000000e+00 4.450208e-01 5.549792e-01 0.000000e+00 0.000000e+00 0.000000e+00 0.000000e+00 0.000000e+00 0.000000e+00 0.000000e+00 0.000000e+00 0.000000e+00 0.000000e+00 0.000000e+00 0.000000e+00 0.000000e+00 0.000000e+00 0.000000e+00 0.000000e+00 0.000000e+00 0.000000e+00 0.000000e+00
 0.000000e+00 0.000000e+00 0.000000e+00 0.000000e+00 0.000000e+00 0.000000e+00 3.740848e-01 6.259152e-01 0.000000e+00 0.000000e+00 0.000000e+00 0.000000e+00 0.000000e+00 0.000000e+00 0.000000e+00 0.000000e+00 0.000000e+00 0.000000e+00 0.000000e+00 0.000000e+00 0.000000e+00 0.000000e+00 0.000000e+00 0.000000e+00 0.000000e+00 0.000000e+00
 0.000000e+00 0.000000e+00 0.000000e+00 0.000000e+00 0.000000e+00 0.000000e+00 0.000000e+00 2.860013e-01 7.139987e-01 0.000000e+00 0.000000e+00 0.000000e+00 0.000000e+00 0.000000e+00 0.000000e+00 0.000000e+00 0.000000e+00 0.000000e+00 0.000000e+00 0.000000e+00 0.000000e+00 0.000000e+00 0.000000e+00 0.000000e+00 0.000000e+00 0.000000e+00
 0.000000e+00 0.000000e+00 0.000000e+00 0.000000e+00 0.000000e+00 0.000000e+00 0.000000e+00 0.000000e+00 4.999411e-01 5.000589e-01 0.000000e+00 0.000000e+00 0.000000e+00 0.000000e+00 0.000000e+00 0.000000e+00 0.000000e+00 0.000000e+00 0.000000e+00 0.000000e+00 0.000000e+00 0.000000e+00 0.000000e+00 0.000000e+00 0.000000e+00 0.000000e+00
 0.000000e+00 0.000000e+00 0.000000e+00 0.000000e+00 0.000000e+00 0.000000e+00 0.000000e+00 0.000000e+00 0.000000e+00 3.727681e-01 6.272319e-01 0.000000e+00 0.000000e+00 0.000000e+00 0.000000e+00 0.000000e+00 0.000000e+00 0.000000e+00 0.000000e+00 0.000000e+00 0.000000e+00 0.000000e+00 0.000000e+00 0.000000e+00 0.000000e+00 0.000000e+00
 0.000000e+00 0.000000e+00 0.000000e+00 0.000000e+00 0.000000e+00 0.000000e+00 0.000000e+00 0.000000e+00 0.000000e+00 0.000000e+00 4.462741e-01 5.537259e-01 0.000000e+00 0.000000e+00 0.000000e+00 0.000000e+00 0.000000e+00 0.000000e+00 0.000000e+00 0.000000e+00 0.000000e+00 0.000000e+00 0.000000e+00 0.000000e+00 0.000000e+00 0.000000e+00
 0.000000e+00 0.000000e+00 0.000000e+00 0.000000e+00 0.000000e+00 0.000000e+00 0.000000e+00 0.000000e+00 0.000000e+00 0.000000e+00 0.000000e+00 5.000107e-01 4.999893e-01 0.000000e+00 0.000000e+00 0.000000e+00 0.000000e+00 0.000000e+00 0.000000e+00 0.000000e+00 0.000000e+00 0.000000e+00 0.000000e+00 0.000000e+00 0.000000e+00 0.000000e+00
 0.000000e+00 0.000000e+00 0.000000e+00 0.000000e+00 0.000000e+00 0.000000e+00 0.000000e+00 0.000000e+00 0.000000e+00 0.000000e+00 0.000000e+00 0.000000e+00 3.785124e-01 6.214876e-01 0.000000e+00 0.000000e+00 0.000000e+00 0.000000e+00 0.000000e+00 0.000000e+00 0.000000e+00 0.000000e+00 0.000000e+00 0.000000e+00 0.000000e+00 0.000000e+00
 0.000000e+00 0.000000e+00 0.000000e+00 0.000000e+00 0.000000e+00 0.000000e+00 0.000000e+00 0.000000e+00 0.000000e+00 0.000000e+00 0.000000e+00 0.000000e+00 0.000000e+00 4.729835e-01 5.270165e-01 0.000000e+00 0.000000e+00 0.000000e+00 0.000000e+00 0.000000e+00 0.000000e+00 0.000000e+00 0.000000e+00 0.000000e+00 0.000000e+00 0.000000e+00
 0.000000e+00 0.000000e+00 0.000000e+00 0.000000e+00 0.000000e+00 0.000000e+00 0.000000e+00 0.000000e+00 0.000000e+00 0.000000e+00 0.000000e+00 0.000000e+00 0.000000e+00 0.000000e+00 5.218431e-01 4.781569e-01 0.000000e+00 0.000000e+00 0.000000e+00 0.000000e+00 0.000000e+00 0.000000e+00 0.000000e+00 0.000000e+00 0.000000e+00 0.000000e+00
 0.000000e+00 0.000000e+00 0.000000e+00 0.000000e+00 0.000000e+00 0.000000e+00 0.000000e+00 0.000000e+00 0.000000e+00 0.000000e+00 0.000000e+00 0.000000e+00 0.000000e+00 0.000000e+00 0.000000e+00 3.759655e-01 6.240345e-01 0.000000e+00 0.000000e+00 0.000000e+00 0.000000e+00 0.000000e+00 0.000000e+00 0.000000e+00 0.000000e+00 0.000000e+00
 0.000000e+00 0.000000e+00 0.000000e+00 0.000000e+00 0.000000e+00 0.000000e+00 0.000000e+00 0.000000e+00 0.000000e+00 0.000000e+00 0.000000e+00 0.000000e+00 0.000000e+00 0.000000e+00 0.000000e+00 0.000000e+00 3.748947e-01 6.251053e-01 0.000000e+00 0.000000e+00 0.000000e+00 0.000000e+00 0.000000e+00 0.000000e+00 0.000000e+00 0.000000e+00
 0.000000e+00 0.000000e+00 0.000000e+00 0.000000e+00 0.000000e+00 0.000000e+00 0.000000e+00 0.000000e+00 0.000000e+00 0.000000e+00 0.000000e+00 0.000000e+00 0.000000e+00 0.000000e+00 0.000000e+00 0.000000e+00 0.000000e+00 5.000023e-01 4.999977e-01 0.000000e+00 0.000000e+00 0.000000e+00 0.000000e+00 0.000000e+00 0.000000e+00 0.000000e+00
 0.000000e+00 0.000000e+00 0.000000e+00 0.000000e+00 0.000000e+00 0.000000e+00 0.000000e+00 0.000000e+00 0.000000e+00 0.000000e+00 0.000000e+00 0.000000e+00 0.000000e+00 0.000000e+00 0.000000e+00 0.000000e+00 0.000000e+00 0.000000e+00 3.749773e-01 6.250227e-01 0.000000e+00 0.000000e+00 0.000000e+00 0.000000e+00 0.000000e+00 0.000000e+00
 0.000000e+00 0.000000e+00 0.000000e+00 0.000000e+00 0.000000e+00 0.000000e+00 0.000000e+00 0.000000e+00 0.000000e+00 0.000000e+00 0.000000e+00 0.000000e+00 0.000000e+00 0.000000e+00 0.000000e+00 0.000000e+00 0.000000e+00 0.000000e+00 0.000000e+00 5.832840e-01 4.167160e-01 0.000000e+00 0.000000e+00 0.000000e+00 0.000000e+00 0.000000e+00
 0.000000e+00 0.000000e+00 0.000000e+00 0.000000e+00 0.000000e+00 0.000000e+00 0.000000e+00 0.000000e+00 0.000000e+00 0.000000e+00 0.000000e+00 0.000000e+00 0.000000e+00 0.000000e+00 0.000000e+00 0.000000e+00 0.000000e+00 0.000000e+00 0.000000e+00 0.000000e+00 5.833734e-01 4.166265e-01 0.000000e+00 0.000000e+00 0.000000e+00 0.000000e+00
 0.000000e+00 0.000000e+00 0.000000e+00 0.000000e+00 0.000000e+00 0.000000e+00 0.000000e+00 0.000000e+00 0.000000e+00 0.000000e+00 0.000000e+00 0.000000e+00 0.000000e+00 0.000000e+00 0.000000e+00 0.000000e+00 0.000000e+00 0.000000e+00 0.000000e+00 0.000000e+00 0.000000e+00 7.058898e-01 2.941102e-01 0.000000e+00 0.000000e+00 0.000000e+00
 0.000000e+00 0.000000e+00 0.000000e+00 0.000000e+00 0.000000e+00 0.000000e+00 0.000000e+00 0.000000e+00 0.000000e+00 0.000000e+00 0.000000e+00 0.000000e+00 0.000000e+00 0.000000e+00 0.000000e+00 0.000000e+00 0.000000e+00 0.000000e+00 0.000000e+00 0.000000e+00 0.000000e+00 0.000000e+00 4.448331e-01 5.551670e-01 0.000000e+00 0.000000e+00
 0.000000e+00 0.000000e+00 0.000000e+00 0.000000e+00 0.000000e+00 0.000000e+00 0.000000e+00 0.000000e+00 0.000000e+00 0.000000e+00 0.000000e+00 0.000000e+00 0.000000e+00 0.000000e+00 0.000000e+00 0.000000e+00 0.000000e+00 0.000000e+00 0.000000e+00 0.000000e+00 0.000000e+00 0.000000e+00 0.000000e+00 5.453508e-01 4.546492e-01 0.000000e+00
 0.000000e+00 0.000000e+00 0.000000e+00 0.000000e+00 0.000000e+00 0.000000e+00 0.000000e+00 0.000000e+00 0.000000e+00 0.000000e+00 0.000000e+00 0.000000e+00 0.000000e+00 0.000000e+00 0.000000e+00 0.000000e+00 0.000000e+00 0.000000e+00 0.000000e+00 0.000000e+00 0.000000e+00 0.000000e+00 0.000000e+00 0.000000e+00 4.997594e-01 5.002406e-01
 0.000000e+00 0.000000e+00 0.000000e+00 0.000000e+00 0.000000e+00 0.000000e+00 0.000000e+00 0.000000e+00 0.000000e+00 0.000000e+00 0.000000e+00 0.000000e+00 0.000000e+00 0.000000e+00 0.000000e+00 0.000000e+00 0.000000e+00 0.000000e+00 0.000000e+00 0.000000e+00 0.000000e+00 0.000000e+00 0.000000e+00 0.000000e+00 0.000000e+00 0.000000e+00
<ENDHMM>
